{"layers":[{"out_depth":1,"out_sx":28,"out_sy":28,"layer_type":"input"},{"sx":5,"sy":5,"stride":1,"in_depth":1,"out_depth":8,"out_sx":28,"out_sy":28,"layer_type":"conv","l1_decay_mul":0,"l2_decay_mul":1,"pad":2,"filters":[{"sx":5,"sy":5,"depth":1,"w":{"0":0.0901767936008048,"1":0.026080827821350273,"2":-0.007390281016273385,"3":-0.12715039593064162,"4":-0.05525662974199189,"5":-0.011146435873183466,"6":0.0586070197262574,"7":0.009790291115375929,"8":-0.19782293453387212,"9":-0.19945169834028229,"10":0.36562616213331345,"11":0.16665290412168923,"12":-0.11855214271819245,"13":-0.008695695657248552,"14":-0.2396911976907223,"15":0.159615819005422,"16":0.20768915181053685,"17":0.02596532860610311,"18":-0.2999174065973087,"19":0.0922321599376266,"20":0.2424055212769294,"21":0.6032412105767673,"22":0.14461559189250175,"23":0.2091833890905495,"24":0.043415453297945675}},{"sx":5,"sy":5,"depth":1,"w":{"0":0.5305177264255801,"1":0.13626566155226702,"2":0.43172335644499094,"3":0.08529664866379001,"4":0.00551041630674003,"5":0.04381063254869722,"6":0.4059078819206884,"7":-0.21568826897973775,"8":0.14431678474920143,"9":0.3791781276306625,"10":-0.22876831138712028,"11":0.018254808991716446,"12":0.5329211810331221,"13":0.5268355292131511,"14":-0.0714493392759509,"15":-0.41867775700488735,"16":-0.3310588653269385,"17":-0.21900331401439424,"18":-0.15050907688479379,"19":-0.23806241385007557,"20":-0.564413977110452,"21":-0.3754207453777829,"22":-0.8746020010205519,"23":-0.5204981048042542,"24":-0.7916994006988132}},{"sx":5,"sy":5,"depth":1,"w":{"0":0.5597112197441074,"1":0.19734035753162427,"2":-0.3810022257335147,"3":-0.19490191663079443,"4":-0.13618294583778276,"5":-0.030801474916121292,"6":-0.4761500187234178,"7":-0.40667486346896153,"8":-0.10692813095856774,"9":0.17919011378215396,"10":-0.25313580833248156,"11":-0.42628966578505384,"12":-0.20862385061671845,"13":0.3281300268404895,"14":0.3636650162685234,"15":-0.3330520304639517,"16":-0.18977200352367335,"17":0.22410734914863975,"18":0.18981422438532328,"19":0.15326807368420725,"20":0.17498733451824314,"21":0.4888710331362024,"22":0.4118583859161866,"23":0.088313268705484,"24":-0.12538311575061747}},{"sx":5,"sy":5,"depth":1,"w":{"0":0.450698415474398,"1":0.005639806183855381,"2":-0.22047298076248886,"3":-0.454105653867426,"4":0.12009153265444864,"5":0.27182100319535485,"6":0.08824214975905341,"7":-0.6537630120820817,"8":-0.5978420304139511,"9":0.37943932255606516,"10":0.3059085412433578,"11":-0.012821324992359452,"12":-0.84141161939275,"13":-0.19221992894913312,"14":0.23252822591071598,"15":0.08646805104726324,"16":-0.4461868404826151,"17":-0.7221302482496503,"18":-0.3052158701308113,"19":0.2567404393955692,"20":-0.08729530821964614,"21":-0.35004847172127723,"22":-0.7490015304227161,"23":0.11568544890950985,"24":0.10702531839827334}},{"sx":5,"sy":5,"depth":1,"w":{"0":0.006286679998289112,"1":-0.040986279064544905,"2":-0.07307076118999296,"3":0.19125180057957963,"4":0.2626709524787112,"5":-0.13701893519303807,"6":-0.583113517371751,"7":-0.5698191305527682,"8":-0.2413802381053884,"9":-0.05604107388484652,"10":0.19342982886623858,"11":-0.37422969184785054,"12":-0.3422349989005023,"13":-0.25860489319175084,"14":-0.2623390053939544,"15":0.5334330054927343,"16":0.4086777188605227,"17":-0.09716548076409369,"18":-0.06442697211032396,"19":-0.3374061690375825,"20":0.23815954637260403,"21":0.3926223044630757,"22":0.4540019483141071,"23":0.4797882322465619,"24":0.09745813793414068}},{"sx":5,"sy":5,"depth":1,"w":{"0":-0.25035907777944777,"1":0.19598543236470953,"2":0.16879215639709952,"3":-0.09329103171063947,"4":0.1389454485207922,"5":-0.2899540131968431,"6":0.4852320899162323,"7":0.29755012897932187,"8":0.16874641793308978,"9":-0.21449731237884234,"10":-0.031890324777146,"11":0.23294271299074346,"12":0.10078302851583075,"13":-0.1022735038880706,"14":-0.3483015494547879,"15":-0.08994094294183655,"16":0.015345796435908011,"17":0.13320314191601237,"18":0.32535015104296533,"19":-0.522568435805043,"20":0.022466063905033626,"21":0.020474266055557,"22":0.08458247292821129,"23":-0.011024658596741335,"24":-0.43974840825429573}},{"sx":5,"sy":5,"depth":1,"w":{"0":-0.18695499377855151,"1":-0.3720095014998877,"2":-0.2803943182334313,"3":-0.2985644607059608,"4":-0.1186299050948341,"5":-0.41638784802804363,"6":-0.5955502831228767,"7":-0.34086942146764726,"8":-0.5142039242509007,"9":-0.393708939150349,"10":-0.3566601517177373,"11":-0.1348869091551819,"12":-0.4421570643153723,"13":-0.3327543533990104,"14":0.41272671046446496,"15":-0.009117678453065988,"16":-0.09402814676043687,"17":-0.3441038143299885,"18":0.42306013746764215,"19":0.5507305817013601,"20":-0.09054685251879396,"21":-0.0951485464458922,"22":0.3710604597083977,"23":0.5050301871342514,"24":0.31107963872863775}},{"sx":5,"sy":5,"depth":1,"w":{"0":-0.5065649364464244,"1":-0.2654885000410796,"2":-0.4970385019766687,"3":-0.33760341485414624,"4":-0.44929069353904894,"5":-0.34439089486670244,"6":-0.3826940779841796,"7":-0.22954378439361953,"8":-0.2911581955413477,"9":-0.30744652932709216,"10":0.2621258527118225,"11":0.3898930741788662,"12":0.2097035569576314,"13":0.05572676171595695,"14":-0.31463860993250925,"15":0.44203717275392046,"16":0.13050085001703848,"17":0.10338530608555672,"18":0.12615617119974062,"19":0.203993309092324,"20":-0.3004866860917008,"21":-0.1599727480050669,"22":-0.053600065206744915,"23":-0.1896835323817068,"24":0.14763573603785926}}],"biases":{"sx":1,"sy":1,"depth":8,"w":{"0":-0.1476182507679141,"1":0.13018001601912696,"2":-0.08980260283174082,"3":0.11529150864997892,"4":0.048592914729951905,"5":-0.04259917999322007,"6":0.03963511955626116,"7":0.1363357178048859}}},{"out_depth":8,"out_sx":28,"out_sy":28,"layer_type":"relu"},{"sx":2,"sy":2,"stride":2,"in_depth":8,"out_depth":8,"out_sx":14,"out_sy":14,"layer_type":"pool","pad":0},{"sx":5,"sy":5,"stride":1,"in_depth":8,"out_depth":16,"out_sx":14,"out_sy":14,"layer_type":"conv","l1_decay_mul":0,"l2_decay_mul":1,"pad":2,"filters":[{"sx":5,"sy":5,"depth":8,"w":{"0":0.043951113646452385,"1":-0.300095937457941,"2":-0.14402520106470948,"3":0.18504274853958486,"4":0.15537126312491245,"5":0.11826859063934521,"6":-0.0054006446001957035,"7":0.02435500451617837,"8":-0.016729172329435087,"9":-0.17394612769211004,"10":-0.16251347184261847,"11":-0.014353748083412459,"12":-0.012997199181408813,"13":-0.10036619618204216,"14":-0.04924475590393513,"15":0.06796540647991388,"16":-0.14314432660604623,"17":-0.1479940578464873,"18":-0.13700289322919257,"19":0.20032061422799383,"20":-0.06236824624657511,"21":-0.06734645575584955,"22":-0.12870106927847122,"23":-0.003259135764758617,"24":-0.2968169233485751,"25":-0.029606817269466942,"26":0.11524598982126147,"27":0.19183415521961114,"28":-0.1954735955703482,"29":-0.10443027050490677,"30":0.13814656324436897,"31":0.019401122095056383,"32":-0.15259930118827167,"33":0.31161966896058496,"34":0.22098174297793588,"35":0.09240152714585552,"36":-0.25853987847465465,"37":0.026012620254079674,"38":0.03138537221851337,"39":-0.12000926680022374,"40":0.13130473806578255,"41":-0.250330121046434,"42":0.02379216460276745,"43":-0.0014239835097331795,"44":-0.07025123562514485,"45":0.07100752041009575,"46":-0.07558489528839289,"47":-0.13025234223231033,"48":0.06433923531317963,"49":-0.13637512625385687,"50":-0.3120851831167386,"51":0.0033379823438904376,"52":-0.27032922161053186,"53":-0.1549298203989258,"54":-0.15519296747424816,"55":-0.08611817104857539,"56":-0.21518741571198616,"57":-0.04347586565394347,"58":-0.09448496437956058,"59":0.002091576602589069,"60":-0.11857469196204813,"61":-0.18807321559954115,"62":-0.04045174261214884,"63":0.0012776491558841169,"64":-0.38785639376441183,"65":0.3251364639563414,"66":-0.0480463553206224,"67":-0.06423978622198132,"68":0.13459334250124533,"69":-0.06924659574056045,"70":-0.22001091128185615,"71":-0.23288368520525485,"72":-0.26163485766892897,"73":0.16681070709818438,"74":-0.2567589651028373,"75":-0.09189264288693112,"76":-0.021426806018500187,"77":0.09791915664294375,"78":-0.3266109286606812,"79":-0.2547005265769008,"80":0.08030674672565817,"81":-0.07874386501873953,"82":-0.21916957464013034,"83":0.1716054488102212,"84":-0.07276266386556962,"85":0.06994916591441656,"86":-0.06566260225073574,"87":-0.029188994717298404,"88":-0.04019186974836491,"89":-0.11555065127955219,"90":-0.02482403848735216,"91":0.08836364440636724,"92":-0.17454301121293292,"93":-0.23967756338595703,"94":-0.06609763537691365,"95":-0.14445070100022833,"96":-0.19304216446765657,"97":0.21838130388964885,"98":0.014325199807470221,"99":-0.02305731693640047,"100":-0.11520079889521856,"101":-0.3821641598484761,"102":-0.007982238354321849,"103":-0.02817966864216114,"104":-0.07967878521129766,"105":-0.13010855348494843,"106":0.05215317106041208,"107":-0.11914752837407383,"108":0.2732362080635997,"109":-0.25702916253692176,"110":0.16753809991308866,"111":0.0603802532944755,"112":-0.011270698697027215,"113":-0.06209833277550394,"114":0.1864715697973682,"115":-0.22029108552171506,"116":0.15887980269073998,"117":-0.19901262298830733,"118":0.28585040739145273,"119":0.03977180188335769,"120":0.007513807512104878,"121":-0.18939631864515052,"122":-0.0524032332522912,"123":0.14477634577615314,"124":0.07273764209809011,"125":0.046441709594788834,"126":-0.09092159273277987,"127":-0.26072186018078397,"128":0.00515520671855351,"129":-0.2238032671658701,"130":0.20695909056128722,"131":0.0671711580814517,"132":0.14756797250099077,"133":-0.2298006472929082,"134":0.06730346517113957,"135":-0.10458452688413467,"136":-0.03676161254251349,"137":-0.26470125972837233,"138":0.11685011901994813,"139":0.13110380582343573,"140":0.2158591359575464,"141":-0.06749649991977567,"142":0.1601681511333902,"143":0.01479352876047534,"144":0.044961122066687655,"145":0.012803190484861574,"146":0.25147653181670804,"147":-0.1781772615044471,"148":0.06333900161888875,"149":-0.122026326759691,"150":0.19246959502640248,"151":0.20108173774644403,"152":0.018142351463218676,"153":0.10235726738730032,"154":0.29624885935453266,"155":-0.09301451243162963,"156":-0.01565787399156657,"157":-0.16872577060899552,"158":0.3471610687881148,"159":0.2010578417922897,"160":0.15644049106682714,"161":-0.10746286978997534,"162":0.09728476924126139,"163":-0.20724587593056196,"164":0.2213632935542278,"165":-0.21733882882821826,"166":0.025408355209235668,"167":-0.09077465542429845,"168":-0.07133340912540377,"169":-0.22156469783797914,"170":0.06661282183454717,"171":-0.05283914313077413,"172":0.12958353717997106,"173":-0.08580599450346445,"174":0.06142700866565402,"175":0.1631812483669251,"176":-0.000948299578980768,"177":-0.036925510638083116,"178":0.16630275735893907,"179":-0.02957053047616816,"180":-0.13991943379986702,"181":0.04528285472753099,"182":0.12122815830499849,"183":0.29689680334738194,"184":0.021185536294771472,"185":0.001243543921249259,"186":0.11356020823404617,"187":-0.08792521143344784,"188":-0.02518681574746695,"189":0.040499351502085404,"190":0.033909461519550405,"191":0.13498036388420054,"192":-0.011704319781919305,"193":0.12064845846441796,"194":-0.002438781313226755,"195":-0.036719338427515694,"196":-0.11856749043041968,"197":0.06115998556914319,"198":-0.12646744678233837,"199":-0.03030173617619151}},{"sx":5,"sy":5,"depth":8,"w":{"0":-0.14929166849368233,"1":0.24439033790338877,"2":-0.09308145211318854,"3":0.012012732052557715,"4":0.2289320918382325,"5":0.10107988582390665,"6":0.1176719117963976,"7":0.00913129530758488,"8":-0.0877991842388001,"9":0.04238363071513645,"10":-0.14163507915018664,"11":0.07111386285292917,"12":0.12285923827424292,"13":-0.2197199315320128,"14":-0.11023857050928933,"15":0.08154659659849217,"16":-0.061188239458450096,"17":-0.08250841120659702,"18":0.05470612690630311,"19":0.03167896840378625,"20":0.22590991825014217,"21":-0.17887558847318086,"22":-0.059297141471056816,"23":-0.1773935273795336,"24":-0.07561050154136308,"25":-0.20600842350311752,"26":-0.06636925524449339,"27":0.1662703910125283,"28":-0.17576852596333833,"29":0.05786200936678491,"30":0.007975742348939312,"31":-0.11393413970042766,"32":0.30501295654066607,"33":-0.356613502991374,"34":-0.05738689132164286,"35":-0.1739779457377011,"36":-0.05470979692326448,"37":0.21082512940145898,"38":-0.12427533567948125,"39":-0.2650300366943464,"40":-0.1801640037230463,"41":0.04244843708408187,"42":0.014313854827853693,"43":-0.03341544029312127,"44":0.12863193130437622,"45":0.06254107188859943,"46":0.13245884492269172,"47":0.02359546860909744,"48":-0.12587685793453715,"49":0.12236731300042952,"50":-0.16392219091603807,"51":-0.03553953970983839,"52":0.04742865285890003,"53":-0.2239029489127071,"54":-0.005682979759982784,"55":0.10095193996550862,"56":-0.1371640044044735,"57":0.03607269878065014,"58":-0.10243762811363401,"59":0.037204059312681455,"60":0.04644311416492491,"61":-0.29376783497748743,"62":0.06005461117235187,"63":0.1193883680775374,"64":-0.034748588911903334,"65":-0.17004111363371158,"66":-0.006001238361508483,"67":0.11692560272735837,"68":-0.028373602802241597,"69":0.10926419692295881,"70":0.04983631731240637,"71":-0.09707688032824403,"72":0.24930269202477834,"73":-0.20447177765963237,"74":-0.06241357746667907,"75":0.051588179740406755,"76":-0.0558910874724113,"77":0.09427683438415208,"78":-0.023235079362359065,"79":-0.12383821865675144,"80":-0.10101562048866534,"81":0.033186701204951645,"82":-0.045698472288660405,"83":-0.09373213638997378,"84":0.008817112254585943,"85":-0.08810538374047382,"86":0.03323896037115075,"87":0.06611788935154064,"88":-0.1993381139841446,"89":0.01843876162251727,"90":0.04088901773316211,"91":-0.049619937400049156,"92":0.1201708613296674,"93":-0.19714131906202065,"94":0.059700312116584636,"95":0.20678635221953043,"96":-0.19623328384323888,"97":-0.2123217945142836,"98":0.06273799811620812,"99":0.10376683592738434,"100":-0.2477851942898314,"101":0.11725295639969947,"102":0.15432913030892506,"103":0.08593658352693269,"104":-0.04628955053659177,"105":-0.20718482950848663,"106":0.10048866245959445,"107":0.24533911085022853,"108":-0.153124680855039,"109":0.3096134192944941,"110":-0.025719174608719895,"111":-0.24663236951536668,"112":0.16131851141027906,"113":-0.004767308148494127,"114":-0.2170366157877807,"115":0.2530264753057649,"116":-0.06630885420002325,"117":0.30673141769837753,"118":-0.11393664704536044,"119":-0.3375241502366023,"120":0.04541570850717607,"121":0.05313056692960275,"122":0.09423216573611896,"123":-0.05418902917682308,"124":0.035050554373145054,"125":-0.07472754468115815,"126":0.15581543647998425,"127":0.23118415232209288,"128":-0.07966054419486146,"129":-0.11955322885732987,"130":0.0521327589290078,"131":0.07923026161133416,"132":0.0428201564762412,"133":-0.3492260009862221,"134":0.14181764140330552,"135":0.023704405513779978,"136":-0.07094769476655105,"137":-0.2968455752029006,"138":0.1326082881788481,"139":0.1624294247987469,"140":-0.17051341852910298,"141":0.16669291752963553,"142":0.16409017533461207,"143":0.05269138806444524,"144":0.15846377498946948,"145":-0.16460775555083265,"146":0.0242592293330459,"147":0.1425113051463751,"148":-0.34217058700235203,"149":0.3326919315927547,"150":-0.3456848670569083,"151":-0.2554949217927256,"152":0.09128061379784934,"153":0.08414890230571072,"154":-0.029501240476134012,"155":0.3925679825171466,"156":-0.03542876946912911,"157":0.30031069564664264,"158":-0.1741843352697,"159":-0.16831308326191796,"160":-0.05393124199627381,"161":-0.1856066704150458,"162":0.23039978068354866,"163":0.02518675870929244,"164":-0.09540096870584167,"165":-0.25491972864765144,"166":0.10274280485455617,"167":0.21276729038289638,"168":0.02924279856105747,"169":-0.3196529537279762,"170":0.2780402980866022,"171":0.0897881057318443,"172":-0.12023971744915392,"173":0.036277312379512816,"174":0.0996804323119564,"175":0.17869385077907182,"176":0.10635348405713835,"177":-0.37165677174713174,"178":0.10426780396999495,"179":0.3977788363975445,"180":-0.28025617804616504,"181":0.0004873063044366511,"182":-0.011563701674297183,"183":-0.10967203299576153,"184":0.1488616258005103,"185":0.054439131348203065,"186":-0.10604579322097654,"187":0.16845303541264742,"188":-0.1301189925906741,"189":0.21504690327494208,"190":-0.28905245687413084,"191":-0.46475232243845194,"192":0.13612929700026644,"193":0.009609473571775976,"194":0.07411548262035851,"195":0.11849809862698794,"196":0.0948706288430861,"197":0.02266443402723352,"198":-0.017414921985511776,"199":-0.18211089574760864}},{"sx":5,"sy":5,"depth":8,"w":{"0":0.03312466909358387,"1":-0.26854067071229276,"2":0.15092865175517892,"3":0.2885802479284564,"4":-0.15729510288667456,"5":0.1655184931948953,"6":0.14831567340244325,"7":-0.037922545938990776,"8":-0.0031424822452780347,"9":-0.2313220884358811,"10":0.005954176457123518,"11":0.23815649331065752,"12":-0.34353677857747705,"13":0.216890970932706,"14":0.014491154276871815,"15":-0.19477180161596783,"16":-0.015357463300443925,"17":-0.23251930014879124,"18":-0.023677716361733235,"19":0.052803911233643384,"20":-0.17485440804413252,"21":0.06328865314527346,"22":-0.3397606134573849,"23":-0.3251967609520357,"24":-0.14340951123765258,"25":-0.010302804730925194,"26":-0.12280318401181387,"27":-0.1568314967176425,"28":-0.06652403166112045,"29":0.09873243908660036,"30":-0.09896881246932177,"31":-0.38892976786686956,"32":-0.005556957735851534,"33":-0.13149604443801155,"34":-0.07993860003316859,"35":0.11718779817082081,"36":0.1500947884177635,"37":0.03624489666091217,"38":-0.20793235842592658,"39":-0.14353513456396672,"40":0.01846594556841724,"41":0.08509238232074418,"42":-0.024743532501002696,"43":0.05001234081078922,"44":-0.15096024650007359,"45":0.11074186014839017,"46":-0.1302577251087906,"47":-0.21363864685456843,"48":0.13251772071279042,"49":-0.22416048129171287,"50":-0.0840948718424898,"51":-0.10260476437964863,"52":0.08477746475051397,"53":0.02609402648538842,"54":-0.10848430555591522,"55":-0.20051702779433236,"56":0.21707474658196704,"57":-0.20836601749359665,"58":0.2644900789997868,"59":0.043028203875544645,"60":0.23791464308725455,"61":-0.14224597722996027,"62":0.13889025165195704,"63":-0.1303062604373304,"64":0.11405664920325519,"65":-0.3091966946325985,"66":0.32090966279467203,"67":-0.3179753003173602,"68":0.029354110835987088,"69":0.1845785436691853,"70":0.1672317424148507,"71":-0.13359969853089435,"72":-0.018477386761046127,"73":-0.04396344381572028,"74":0.019355939543494405,"75":0.19203259067273598,"76":0.07540572994087166,"77":-0.019034531893598296,"78":0.08040573722855841,"79":-0.015001076001783074,"80":0.01782002354135964,"81":0.24090510759090378,"82":-0.09304924565684267,"83":-0.018092076781415892,"84":0.1436874425042243,"85":-0.110762635974525,"86":-0.10851135243498719,"87":0.07162255943297106,"88":0.1694642006276396,"89":0.37700025825566125,"90":-0.06147533324772818,"91":-0.16285100256193333,"92":0.41554737840826017,"93":-0.039560044069125895,"94":0.12942478926709328,"95":-0.003410471250782834,"96":0.09653263485310198,"97":0.23577599936361573,"98":0.11346942868426085,"99":-0.394800991472414,"100":0.28596183961750465,"101":-0.013226702084169973,"102":0.2263982589375882,"103":0.1327211235874895,"104":-0.007651716228853607,"105":0.11701669418091341,"106":0.04137973493741237,"107":-0.08185287132488811,"108":0.14324441353804424,"109":0.1326144925838187,"110":-0.13813736289164835,"111":0.279019817647163,"112":-0.043991678276674606,"113":0.04363731409118819,"114":0.0034297270702760884,"115":0.07585132116753417,"116":-0.23590109002557977,"117":0.06119753997087727,"118":-0.019081619437364136,"119":-0.03593024817651198,"120":-0.19129475202815707,"121":0.20253230575519957,"122":-0.1931079608281942,"123":-0.21497293825525582,"124":0.0869583970683093,"125":-0.08311327393722438,"126":-0.1612590514380151,"127":0.00926009971331806,"128":-0.2695843705232281,"129":0.3712605749958116,"130":-0.1738379854578058,"131":-0.3877565429619618,"132":-0.05423683055113034,"133":0.0018448586844009617,"134":-0.3220881199270609,"135":0.01594720512108145,"136":-0.21886518089325122,"137":0.17276723654307163,"138":-0.0606265396769605,"139":-0.12440587065949872,"140":-0.2731619615176089,"141":0.06756475760012624,"142":-0.15716954617223436,"143":-0.15435526219834866,"144":-0.20727815936923394,"145":0.26301593517834726,"146":0.13573300564857513,"147":0.22600201618553536,"148":-0.2661267414330986,"149":0.05173287301632079,"150":-0.3845736404304641,"151":-0.0460963665757917,"152":0.041068943428680595,"153":0.020445775055035746,"154":0.03350673416923261,"155":-0.021608682380589987,"156":-0.38146889164098396,"157":-0.1237749772178581,"158":-0.2942326392225762,"159":0.12626972496609748,"160":-0.32681125424755214,"161":0.03017752468833926,"162":-0.1255023380932908,"163":-0.17255896260042708,"164":0.01776554804859108,"165":0.07009803690591021,"166":0.10635360700435254,"167":0.09343346717854634,"168":0.005420735346690898,"169":0.07055459200893534,"170":0.00826234788720803,"171":-0.2404570181964586,"172":-0.07228179559371872,"173":0.015837488111840263,"174":0.15610358774008376,"175":0.06571013789530125,"176":-0.0784528812053088,"177":0.029106716636557815,"178":0.36429554313150414,"179":0.045182193498791885,"180":-0.02855220812656153,"181":-0.010170539490691282,"182":0.2356612366151792,"183":-0.08056793278250654,"184":-0.0315678893502855,"185":-0.13799892495759508,"186":0.21156061411964863,"187":-0.12908708683494347,"188":-0.12197508594728951,"189":-0.1128749061721824,"190":0.10196560513800189,"191":-0.11734800517031964,"192":0.040111416461153133,"193":-0.12246664726066192,"194":0.09494146197095293,"195":0.08548823708045711,"196":0.06139471836540063,"197":-0.02429896218684488,"198":0.04274066995460428,"199":-0.07557010484165405}},{"sx":5,"sy":5,"depth":8,"w":{"0":0.10417218491428151,"1":0.06358579372402186,"2":-0.030005302304898437,"3":-0.1507015967457691,"4":-0.004945453481003973,"5":-0.07732332452216181,"6":-0.15594415082240354,"7":0.13829077150394903,"8":0.23865320059537587,"9":-0.07175032003745066,"10":-0.20171496583213547,"11":-0.0524385416036555,"12":0.09691225718319366,"13":-0.1340822824277789,"14":-0.0734841859135337,"15":0.1446870561299692,"16":0.21830994494814238,"17":-0.24727942577713635,"18":-0.13474554378308834,"19":-0.15812110528091508,"20":0.4644635980840304,"21":0.1423915572634741,"22":-0.1947533326447421,"23":-0.016379792395430994,"24":0.14981246521920366,"25":-0.052144948217787895,"26":0.02186134929048427,"27":-0.0962079865529156,"28":0.20632365577290795,"29":-0.025851134439618853,"30":-0.049819561055503836,"31":-0.19506958488369558,"32":-0.057020015605481915,"33":-0.0229503481265408,"34":0.1700121453094578,"35":0.11197663029325998,"36":-0.04377148690842125,"37":0.11666574921037076,"38":0.037865763508957206,"39":-0.15947474430077824,"40":-0.27282433313640897,"41":0.03290067373044299,"42":-0.07348751158741874,"43":-0.17567277828359643,"44":-0.13021963949990914,"45":-0.003952676555153577,"46":-0.06601358357457408,"47":-0.19401686757999284,"48":-0.11029323519683124,"49":0.12994371001983307,"50":-0.02923707302929613,"51":-0.1653512210868071,"52":0.09390595310880878,"53":-0.1125336552843482,"54":-0.12114246180411313,"55":-0.08181267420591984,"56":0.1241147377404347,"57":0.07274360143552146,"58":-0.20911818193800966,"59":-0.2772054895537686,"60":-0.05312811636502075,"61":0.06187765481284908,"62":-0.31158952537401036,"63":0.10136072764933247,"64":0.04636663973324387,"65":-0.14468438875390538,"66":0.07282259404508193,"67":-0.26643787533519636,"68":0.4418231655235381,"69":-0.1378984512195836,"70":0.03449580017758637,"71":-0.14574058392996972,"72":0.08143810121991671,"73":-0.32002712474550754,"74":-0.027561580067459793,"75":-0.1329465646782795,"76":0.0049888185297038215,"77":-0.0922567280602838,"78":0.117951616820981,"79":-0.07501500115604161,"80":-0.12843474604459718,"81":-0.03219352293741389,"82":0.051484088767187804,"83":-0.09525973053886254,"84":-0.07786358255493284,"85":-0.08666317974370903,"86":0.12482093853389534,"87":0.003932027590083378,"88":-0.05876479686148024,"89":-0.02668034299015283,"90":0.06661443768269154,"91":-0.06248582817664611,"92":0.07657700775619582,"93":-0.13974150540874145,"94":0.10351811599860893,"95":-0.1433397360229131,"96":-0.06568881116103104,"97":0.008362821668390622,"98":-0.049108240219039714,"99":-0.2494992096199225,"100":-0.06311776675995949,"101":-0.1853582474940488,"102":-0.28344854552442666,"103":-0.022422629745954742,"104":0.13527069424196864,"105":-0.03650683399244762,"106":-0.10218015720494897,"107":-0.3088456853832785,"108":0.012192254148875214,"109":-0.0027579455406087257,"110":-0.20346643802015296,"111":-0.14879570244204768,"112":0.1335564409111476,"113":-0.09005514180202773,"114":-0.16530101519800375,"115":-0.05175923177477838,"116":0.0026235997342681995,"117":-0.09463910646008217,"118":-0.1477104105305065,"119":-0.19508504153862596,"120":-0.07831322494656077,"121":-0.1642300450626495,"122":0.25927621373391924,"123":-0.24380505026193977,"124":-0.22694401535193232,"125":0.09621999362474293,"126":0.1687634582817695,"127":-0.0751526976471629,"128":-0.040186835509496754,"129":-0.11188103820019286,"130":0.31021189648634123,"131":0.018589969115550064,"132":-0.18291778015768947,"133":-0.01614534315027299,"134":0.09940404356564508,"135":-0.1947024707241281,"136":-0.10916951602368993,"137":-0.11977668638963375,"138":0.12340064403492781,"139":0.15430176241277246,"140":-0.38812847683629764,"141":0.0771435264884689,"142":0.06107613704098396,"143":0.0373650006895292,"144":-0.09995277347473078,"145":0.07576812189386006,"146":-0.011827791135128192,"147":0.1578540931696774,"148":-0.3213002992148004,"149":0.11646072380812841,"150":-0.13331422881350466,"151":-0.23917376917781102,"152":-0.02092860034368692,"153":0.04534794208068232,"154":-0.10953267906635485,"155":0.10950911651741979,"156":-0.10373400810449349,"157":0.06482724255098604,"158":-0.0693421558770538,"159":-0.14134140074372994,"160":-0.06492521887507102,"161":-0.18975048783378137,"162":0.017682805077854268,"163":-0.19668696637961997,"164":-0.2322352780310273,"165":0.06643873657269374,"166":-0.073597131694616,"167":-0.07238979946740165,"168":-0.04365138840237437,"169":-0.022280620076834876,"170":0.019009200875007157,"171":0.13815515329569708,"172":-0.21862233258132657,"173":0.07122070687930263,"174":0.10225539760492817,"175":0.09187273160593262,"176":0.0233673313712257,"177":-0.07989735282586614,"178":0.2676767060980122,"179":0.030731273723031704,"180":-0.29829046117960456,"181":0.10049764927108762,"182":0.11704684350765499,"183":-0.07223280562718833,"184":0.07518381501292887,"185":-0.022500587709485778,"186":0.20229311283658535,"187":0.32794250508484657,"188":-0.21823504485244508,"189":0.11078800881624282,"190":0.09377208158953268,"191":-0.2616009640203607,"192":-0.08417397911385475,"193":-0.10694983136085798,"194":-0.04861859675568207,"195":0.29590958395970046,"196":-0.11682267188015104,"197":0.10296648406563798,"198":0.022707449806234965,"199":-0.35778191260482917}},{"sx":5,"sy":5,"depth":8,"w":{"0":-0.11697903493832824,"1":0.05736378768464097,"2":-0.0160598883911788,"3":0.11446315708231898,"4":-0.07289514761682789,"5":0.0778096557676911,"6":0.15362952684821995,"7":-0.1381899461897885,"8":-0.25134707630323816,"9":-0.07214860259027488,"10":0.16150055282256137,"11":0.1330890768593304,"12":-0.20726454557983615,"13":0.0488035171088236,"14":0.2270211199406912,"15":-0.06153674813916807,"16":0.002624625525491242,"17":0.035848844692015575,"18":0.1674367163713485,"19":-0.027477169796560657,"20":-0.13258023520605722,"21":0.061389342700057664,"22":0.1707750820355542,"23":-0.1615510851193482,"24":0.10303466530504667,"25":-0.0982263809284131,"26":0.16370064733411516,"27":0.20135642286169575,"28":-0.025179939359105293,"29":0.047770345794656346,"30":0.1150342285279775,"31":-0.03942875642564678,"32":0.051477021945895485,"33":0.04670094799832777,"34":0.048369674356097424,"35":-0.05339495162026261,"36":-0.08643706089025145,"37":-0.07149495144475596,"38":-0.08075200328134982,"39":-0.1893752110110799,"40":0.044776104518706054,"41":-0.02527336428031446,"42":0.08001579089133586,"43":0.002239469611775793,"44":-0.016646769323104858,"45":0.03611162174727157,"46":0.1527283807040507,"47":0.1894195930704444,"48":0.0193210019729796,"49":0.08033459776071936,"50":0.23205939250102986,"51":0.16986980353938957,"52":-0.08788195647983038,"53":-0.008576872229205796,"54":0.2713742304352994,"55":0.020092374445735833,"56":-0.020750850784401642,"57":0.08064356118435427,"58":0.21410899574068,"59":0.02407935306306859,"60":-0.1867537032903901,"61":0.1507507993224589,"62":0.1481102118267618,"63":-0.1753082254527357,"64":0.011750070019786275,"65":0.14261529928968197,"66":0.14047799199746028,"67":-0.18532022116453972,"68":-0.07425642774680248,"69":0.27474675518026404,"70":0.08736317954131807,"71":0.0807670245766096,"72":-0.17073872649321437,"73":0.17419897895435102,"74":-0.02967808419668906,"75":0.018729723177353913,"76":-0.00979056044193934,"77":0.08154470881468338,"78":-0.19655591719233884,"79":0.1710194107531241,"80":-0.11575166145522779,"81":0.06135927543516735,"82":0.035259588089219494,"83":0.10927002500340466,"84":-0.20183785115270828,"85":0.018689861748637567,"86":0.038597614656632875,"87":0.06808651264125924,"88":-0.016444978014758128,"89":0.09608228419221665,"90":0.11652869083117309,"91":-0.09586088816111467,"92":-0.0911239985890322,"93":0.1533996599706025,"94":-0.12280830906376984,"95":-0.04112759584548093,"96":0.006068236064691241,"97":0.08731784080176277,"98":0.02289524459499574,"99":-0.12325492241977917,"100":-0.13234761643159493,"101":0.1306770733843504,"102":-0.28470379646047905,"103":-0.060109399620352624,"104":-0.2674870170832264,"105":0.14716866665835557,"106":-0.026721978591013225,"107":-0.0882716298659001,"108":-0.21818761640711676,"109":0.1255375072014663,"110":-0.2039380294451414,"111":-0.0601812652908506,"112":-0.1332472314080409,"113":0.08301481766232448,"114":-0.19607307221400544,"115":0.04355415322801043,"116":-0.16597725018320275,"117":0.10317132011374909,"118":-0.09875698402680087,"119":-0.1112246442979867,"120":0.07180111461039085,"121":-0.127796935008233,"122":0.04604165332967225,"123":-0.11268758112530454,"124":0.09253614160902038,"125":-0.19414887451199345,"126":-0.11195269548595815,"127":-0.09895503612460876,"128":0.00803451113085682,"129":-0.2336831143776653,"130":0.020078492031897485,"131":-0.14589603689765343,"132":0.018892380090986927,"133":0.09095117889801424,"134":-0.02399157511960885,"135":-0.09582579513608058,"136":0.0742375666696556,"137":-0.1472901603028358,"138":-0.20254352724333366,"139":-0.11594308870371163,"140":0.17919118814773374,"141":-0.031426297121540235,"142":0.061254442158314396,"143":0.019668987766145805,"144":-0.07828663891415048,"145":-0.08959374685775966,"146":-0.1000559224104712,"147":-0.22627139245728808,"148":0.10519955402879803,"149":-0.1865123190392444,"150":0.02156573000731808,"151":-0.21672399794387023,"152":-0.07332074165116641,"153":-0.13488249016695777,"154":0.05731240783728157,"155":-0.21377680833016033,"156":0.05913729158932799,"157":-0.24365855006209292,"158":-0.017008085965122273,"159":-0.10933329306797648,"160":0.14641632197798188,"161":-0.09673082631280958,"162":0.1403087649434239,"163":-0.363571957689503,"164":-0.010820909295838527,"165":-0.2153731323498282,"166":0.0594693136281083,"167":0.058804274779178954,"168":0.01710186832136084,"169":-0.014650384633195885,"170":-0.21485472112967882,"171":-0.32261162774396834,"172":0.05713108172774858,"173":-0.11697564454428547,"174":-0.0012564374492211334,"175":0.11153186786935304,"176":0.08822182132972967,"177":-0.2547011708644439,"178":-0.2088044493758144,"179":-0.2318823400151013,"180":0.10758901096900098,"181":-0.178040046343872,"182":0.023377590848552062,"183":0.09326777070199878,"184":0.033398083509928504,"185":-0.22049157955097234,"186":-0.18768861532901066,"187":-0.30790331640693847,"188":0.1383000871042254,"189":-0.12460393567949701,"190":-0.03494677358050206,"191":0.08447915769924148,"192":0.06338908902775144,"193":-0.22420634792677394,"194":-0.09599643109354337,"195":-0.3147220248738017,"196":-0.044050452170794105,"197":-0.06948317088065945,"198":-0.09331556805949594,"199":0.14813186863742558}},{"sx":5,"sy":5,"depth":8,"w":{"0":-0.08270852855482493,"1":0.02096033552515257,"2":0.025545900245616548,"3":-0.12217094461939174,"4":0.11873655871223152,"5":-0.12797921154883482,"6":-0.08648383596256545,"7":-0.012895134159226766,"8":0.1326835235028498,"9":0.025106285130019817,"10":-0.1321076727363888,"11":-0.19569735531491717,"12":0.16514523138184353,"13":0.08485047283731646,"14":0.0555460507047387,"15":0.049821131922231275,"16":0.11797152349363133,"17":-0.07377559903010715,"18":-0.08624963868121029,"19":-0.0452842889537581,"20":0.15255386624176512,"21":-0.048297350827744126,"22":0.04353623002762756,"23":0.10482614687362267,"24":-0.04649507450746525,"25":-0.2694164634111134,"26":0.06554566255465097,"27":-0.020204034642183143,"28":0.20653632108943737,"29":-0.18188400232211493,"30":0.0924852228491558,"31":0.08833462016176465,"32":0.09777783138986754,"33":-0.3063312243581274,"34":0.09963268432041734,"35":-0.0900786584248302,"36":0.22053977912190398,"37":-0.05577092011167307,"38":0.18282484651281156,"39":0.1025610119764023,"40":0.02489397138434122,"41":0.028983503830333452,"42":0.06261808492273714,"43":-0.015063760874100756,"44":0.051619883245465,"45":-0.13536122113730148,"46":-0.08155026286439941,"47":-0.040660170785638425,"48":-0.01555601330565628,"49":-0.1431563300919772,"50":0.006620669200611655,"51":-0.11922677797314145,"52":-0.04384849995707558,"53":-0.18221819719806753,"54":-0.02842913500784086,"55":0.023645608758549635,"56":0.06653770151638584,"57":-0.2379664404248401,"58":0.05768048297309326,"59":-0.013612576750964467,"60":-0.22040172457233534,"61":0.00506240299073947,"62":-0.04407251972177155,"63":0.10629321180180917,"64":0.03633842666476908,"65":-0.12339877663981574,"66":0.16585984689062486,"67":-0.09750143269895317,"68":0.05282017656934879,"69":-0.1152932214547529,"70":-0.1139060239789554,"71":-0.1343584979652139,"72":-0.02876423746115419,"73":-0.12807676498600218,"74":-0.12994269657422436,"75":-0.1293492093365155,"76":0.12287043076011844,"77":0.006055665295553284,"78":0.16525757953676262,"79":0.029151096362574562,"80":0.07055588760382486,"81":-0.18336684494056416,"82":0.031362323996947494,"83":-0.1515170226915479,"84":0.021921667069033694,"85":-0.05307851483291187,"86":0.2637572935469284,"87":0.10587157771257673,"88":-0.030345343975856056,"89":-0.45730981100123547,"90":0.1821124694055825,"91":0.04216180212914528,"92":-0.08372438812170317,"93":-0.20224009999498738,"94":0.164031506124862,"95":-0.10421404717693303,"96":0.04626288732390903,"97":-0.31793989176816645,"98":0.2095644022889562,"99":0.013515429129277438,"100":-0.26585119751717445,"101":0.0077251162418859355,"102":-0.03314105805419636,"103":-0.15507484658636547,"104":0.08614720735352574,"105":-0.20481487831309908,"106":-0.059513935304059074,"107":0.07521831387446565,"108":0.023386631192818266,"109":0.03834592798706803,"110":-0.21113205928567377,"111":0.08289757219874981,"112":0.06327398247752952,"113":-0.06785434789865376,"114":0.12590919074334161,"115":0.14746560536297185,"116":-0.09703901680681985,"117":-0.032304176856407824,"118":-0.08316416361710413,"119":-0.07048750476949221,"120":0.0944265271466669,"121":-0.23157404913658547,"122":0.2275691999844602,"123":-0.1711367730698217,"124":-0.11297673560477266,"125":-0.008468890923373992,"126":0.1347374839163528,"127":-0.13828081551713328,"128":0.06355807903025129,"129":-0.06802418927114787,"130":0.11759944688044925,"131":-0.14398231272975523,"132":-0.3918982718349163,"133":0.10021090310548177,"134":-0.1574986870179915,"135":-0.23154064413984865,"136":-0.017690563435957585,"137":-0.13350978006993044,"138":-0.04098662794724485,"139":-0.1332350351799544,"140":-0.35462950925207715,"141":0.04284415409652198,"142":-0.24088077611561656,"143":-0.2816944008508178,"144":0.012671105648777867,"145":0.06334795596941444,"146":0.07854359205523012,"147":-0.06057905253807984,"148":-0.08083639462944901,"149":-0.014667553073299179,"150":-0.08773858987363573,"151":0.005649476245161829,"152":0.052566111056614136,"153":0.08774365683014965,"154":0.17869294582639453,"155":-0.0401632545399087,"156":0.3031151510276368,"157":-0.13152664662273922,"158":-0.01299359729046805,"159":-0.05544867616495335,"160":0.028950055813176275,"161":0.014762789409968382,"162":0.04362031737689654,"163":-0.11768592128257672,"164":-0.29133814563349236,"165":0.19092813832469765,"166":-0.004222871287920854,"167":-0.19164647383306058,"168":0.18997365131237326,"169":-0.040505062181205906,"170":-0.19435442246405127,"171":0.14524632979953325,"172":-0.17285864418139213,"173":0.10996081129773774,"174":-0.25479622393569246,"175":-0.20682938516555233,"176":-0.11963806872967668,"177":0.3337801461444365,"178":0.15996647346315612,"179":0.1372776570218395,"180":0.1595159482148201,"181":-0.10576056495879647,"182":-0.18844199576968634,"183":-0.17814466475979276,"184":-0.10244329333338544,"185":0.07829918968997618,"186":-0.08952741217023426,"187":-0.20350717569026877,"188":-0.043641938104164044,"189":0.08164609770786439,"190":-0.1395792178677406,"191":-0.11301147752947875,"192":0.06759179023908271,"193":-0.07312862830615457,"194":-0.028245935663606926,"195":-0.1678603561943956,"196":0.13250240660815538,"197":-0.014333272589392588,"198":-0.09393162667195898,"199":-0.00011617223647192082}},{"sx":5,"sy":5,"depth":8,"w":{"0":-0.14985542019517822,"1":-0.12648535755467133,"2":0.11888731347359158,"3":0.049121724803573304,"4":-0.0972055898645408,"5":0.006622585997567032,"6":0.027077742135284483,"7":-0.18186828898010368,"8":0.0798226069882457,"9":-0.2361096853321953,"10":-0.045058848863265874,"11":0.023011637630328964,"12":0.02348908104363754,"13":0.2865718618043461,"14":0.02002869879986112,"15":-0.04955446074450406,"16":0.0366330818261949,"17":0.0497807234204105,"18":0.05778150322316101,"19":0.052247739539880225,"20":-0.006117427329197358,"21":0.005788998451334121,"22":0.07054571230317888,"23":-0.008778694491356686,"24":0.06799410521482559,"25":-0.10842043093755753,"26":0.1225424109412671,"27":-0.0317898709371397,"28":0.05354587439643311,"29":-0.061711781796727774,"30":-0.0976099173807927,"31":-0.09318376221161606,"32":-0.06340570366451453,"33":-0.1636613926416581,"34":0.14718723215354051,"35":-0.23015647189017968,"36":-0.1105964012343762,"37":-0.20174542249205737,"38":0.06821739248824742,"39":-0.19316085604701214,"40":-0.007180027384469827,"41":-0.13771117295721189,"42":-0.19161956719775902,"43":-0.042486814702177814,"44":-0.12880458500516065,"45":0.07510388423479765,"46":-0.03999363246576377,"47":-0.11039560490710851,"48":0.09030108493975197,"49":0.07834649254305391,"50":-0.0014674901633882176,"51":0.03484265267557139,"52":-0.12383251505987575,"53":-0.031973459309959554,"54":0.02541399495019973,"55":-0.06122156236516842,"56":0.2432916325656071,"57":-0.113733489073057,"58":0.14475400618776102,"59":-0.27873228250059184,"60":0.22214593603393185,"61":-0.08895028000537315,"62":-0.05278729982023051,"63":-0.015343889414366456,"64":0.22342239997694388,"65":-0.21395067398816753,"66":0.2293482352562323,"67":-0.1047714823717075,"68":0.20344034686073237,"69":0.04030384241848505,"70":0.12154446938504575,"71":0.0675454754656693,"72":0.14653222730649795,"73":-0.05174449949341729,"74":-0.03489998362946868,"75":-0.11629632225817262,"76":0.12272135524531395,"77":-0.013018825514090598,"78":0.12221955231009808,"79":0.05572045493571556,"80":-0.04306412291414495,"81":-0.07172661816858648,"82":-0.12464289951800513,"83":0.08199533512355058,"84":-0.10175135540277633,"85":0.028039974316546323,"86":-0.0740436654007872,"87":-0.08042497839185428,"88":-0.10557603684946187,"89":0.11082874235226317,"90":-0.016669088273222308,"91":-0.044399647750601325,"92":-0.0907683790427744,"93":-0.0681254325220675,"94":-0.12443546053613415,"95":-0.11474109247649314,"96":-0.07128247439603871,"97":0.18489795815076343,"98":-0.031583907579770885,"99":-0.14821186759701876,"100":0.031180601423819638,"101":-0.01788713592265226,"102":-0.01147842433662182,"103":0.047433365191593115,"104":-0.02310574250335868,"105":0.28783561188578244,"106":-0.1024951229266973,"107":-0.03885794893848195,"108":-0.05401155529100701,"109":0.17908451259691333,"110":0.044164549143596986,"111":0.12535878172803377,"112":0.18427664304605454,"113":0.032066380184696514,"114":-0.10218041060962525,"115":-0.1582900354153551,"116":-0.0038715510775224476,"117":-0.10581272081004571,"118":-0.06954759874472405,"119":0.06964341805750665,"120":-0.24073703095593454,"121":0.02616374545996456,"122":-0.2980408252072821,"123":0.059324922609217796,"124":-0.057646830810591146,"125":0.1225697299590611,"126":-0.0035372692407145416,"127":0.08574236879044324,"128":-0.04170094567781236,"129":0.15323250025934157,"130":-0.09948681151498197,"131":-0.10636504507183024,"132":0.19325763312976013,"133":0.16162094293985457,"134":-0.14157543200177752,"135":-0.10497023069919147,"136":-0.19515216122682677,"137":0.2708702146700334,"138":-0.03590421788060466,"139":-0.11221368617469692,"140":-0.09471603443832981,"141":0.1284901080150538,"142":-0.139852028165479,"143":-0.1885423953774257,"144":-0.18969754790110416,"145":0.2052622105153961,"146":0.043612457730097316,"147":0.14081881878826613,"148":-0.1760495687959429,"149":-0.16537024809670892,"150":-0.13735531203169693,"151":0.0228655196782807,"152":-0.16410428077513273,"153":0.15880376630437704,"154":0.05983752063219772,"155":-0.12934320912462163,"156":-0.20540419260967824,"157":-0.10274138778751783,"158":0.04309336726047249,"159":0.0035725425030502054,"160":-0.0009133724663906788,"161":-0.07413741406825555,"162":-0.007464880912785737,"163":-0.011743041971353774,"164":0.04580718833409735,"165":0.13839615431766386,"166":0.1166589061275124,"167":0.07720828193667091,"168":0.024398462698382296,"169":0.042876472277929574,"170":-0.16036988468949961,"171":-0.1402080095602562,"172":0.05415629579668602,"173":0.016274678762443318,"174":-0.12979411879673833,"175":-0.15590368033246738,"176":-0.06588717549324441,"177":-0.011669186441394842,"178":-0.17699412874019854,"179":0.11468995407364775,"180":-0.001961079935128913,"181":-0.07895008576841187,"182":-0.24024762113200637,"183":-0.10142902315544045,"184":-0.3409446607957618,"185":-0.14175665789926228,"186":-0.1278625659098376,"187":-0.007443531574524499,"188":-0.1270474313292811,"189":-0.15030690810670766,"190":-0.005084502814152845,"191":-0.012126741415859411,"192":-0.25159262055758214,"193":-0.18107451219917642,"194":-0.016717518629615957,"195":-0.12689171483964826,"196":-0.2503716227572559,"197":-0.0294731472702539,"198":0.049078623158505016,"199":-0.11083297986486336}},{"sx":5,"sy":5,"depth":8,"w":{"0":0.016410651819621726,"1":-0.010574735864076052,"2":-0.0076460616023588425,"3":-0.028597986638940323,"4":0.08873576893683872,"5":-0.062027893097480996,"6":0.11113963564297466,"7":0.17504838503439799,"8":0.07381121081177915,"9":-0.1899166848408207,"10":-0.033538796826535586,"11":0.18888192614180846,"12":-0.06676471040125634,"13":-0.05809727680340562,"14":0.09596946686859008,"15":0.06059957107388217,"16":-0.12151643533046394,"17":-0.24029732780707053,"18":-0.05872885489271109,"19":0.18781350893814344,"20":-0.11338625125043082,"21":-0.007409805680099365,"22":0.12369765265237427,"23":0.08538225652532905,"24":-0.14632569775451632,"25":-0.05513774766383198,"26":-0.08292356975459296,"27":0.09486642021721498,"28":-0.11347711920517191,"29":0.12417858754176773,"30":-0.07499330985867039,"31":-0.06642642293888493,"32":-0.10860891746856857,"33":-0.13015900182594894,"34":-0.08617131875276154,"35":-0.006709820775848552,"36":-0.19065078069516633,"37":0.12266699825924689,"38":-0.05166377356725285,"39":0.08444481012999049,"40":-0.009889855089370854,"41":-0.18590383972870214,"42":-0.16068594418678406,"43":-0.017176312423657948,"44":0.26784127640693206,"45":0.04452575476027579,"46":0.09146195067096655,"47":0.2184583473567124,"48":-0.07027393143391031,"49":-0.05586117401911825,"50":0.03440670350549097,"51":0.1703266774733955,"52":0.11819949296769668,"53":0.028896230090214477,"54":0.16691930518366999,"55":0.2019639909669244,"56":0.006952231530572419,"57":-0.11441574822032113,"58":0.0013521177808891083,"59":-0.03633159364473113,"60":-0.06386494819887624,"61":0.005216640466022681,"62":0.21797279060581473,"63":0.03592457749677032,"64":0.0486107779146719,"65":-0.14134821548992077,"66":-0.15744586319145673,"67":-0.07322137359771638,"68":0.09385777066302618,"69":0.023862915475142316,"70":-0.14169726150677106,"71":-0.11528251148740319,"72":-0.016222782946283234,"73":-0.2687477098333199,"74":0.0070740029094073535,"75":0.19709946326375444,"76":-0.023935117627145633,"77":-0.10554597559229603,"78":0.09483931305127855,"79":0.054100415481121655,"80":0.049183578935247566,"81":-0.004949125825957086,"82":-0.06897819876016811,"83":-0.15092437556598076,"84":0.0845149358072051,"85":-0.1568423160079852,"86":-0.09978780154207363,"87":0.06159288506667803,"88":0.20485836676883332,"89":0.042427854277423946,"90":-0.005755979905980877,"91":0.019725281755305826,"92":0.21223072858405853,"93":0.07705396414428253,"94":0.035161877561858054,"95":0.025084376219743857,"96":0.15936187850259392,"97":-0.12636560537993793,"98":0.11407620058018438,"99":-0.06247367631394376,"100":0.23147203193299407,"101":0.020446145980166194,"102":-0.09172317584525425,"103":0.05253459130653017,"104":0.18880176502453722,"105":-0.27583274168685856,"106":-0.22285421295960184,"107":0.03187584447878579,"108":0.0885690782075259,"109":0.035605882437877136,"110":-0.07718769976296108,"111":0.07245167447261366,"112":-0.16019904945261018,"113":-0.21691898489294004,"114":-0.023296699427652647,"115":0.0552330380695192,"116":-0.08686277878031091,"117":0.019402039713118397,"118":0.02767306933673997,"119":-0.025146209704332335,"120":-0.08091608365652729,"121":0.16947242354337239,"122":0.030846324009433657,"123":-0.17880419877982137,"124":-0.14183558495314835,"125":0.0032295767673142426,"126":0.05515454975114558,"127":0.024006869989159567,"128":-0.0501425820264839,"129":0.045970342728094256,"130":-0.09261890487860433,"131":0.1236073044523031,"132":-0.07751688022106744,"133":-0.11000810739210322,"134":-0.14582060961458704,"135":0.2999905416655525,"136":0.060984709400313114,"137":-0.07020394715936497,"138":-0.15117570669779704,"139":-0.10226252922470393,"140":0.1586950182133477,"141":0.03497410948495103,"142":-0.11055168479034491,"143":0.3346877215358138,"144":0.27386064954690653,"145":-0.31789311780227497,"146":0.03376179402642694,"147":-0.06138198999399859,"148":0.2212211010701396,"149":-0.026073819123642292,"150":-0.061120020162494,"151":-0.022853458009688372,"152":0.05183580247777491,"153":-0.42717164349337516,"154":0.12134123883552672,"155":0.02218565819815623,"156":-0.003957056745894021,"157":0.05885917132012202,"158":0.03755366762388763,"159":-0.09076653236200766,"160":-0.18756344618669626,"161":0.057876945248161865,"162":-0.17330954323505626,"163":0.061094492631868356,"164":-0.02696339577308978,"165":0.04526548939968132,"166":-0.31717620510103295,"167":-0.052919451363439576,"168":-0.35588033451489237,"169":-0.018625639256426227,"170":0.001057826112513079,"171":0.17421495369089945,"172":-0.3032074915761198,"173":-0.1893422881611763,"174":-0.21682501454513542,"175":-0.06627825198803482,"176":-0.20176245742583745,"177":-0.1253184160763405,"178":0.11708855074363773,"179":-0.056711551130140064,"180":-0.20303000634826565,"181":0.03364472734290622,"182":0.027331015324017886,"183":-0.007447256844339794,"184":0.21988284802738864,"185":-0.004722536748182475,"186":-0.275337261828626,"187":-0.1646920710641803,"188":0.18347410434303435,"189":0.13598635411327908,"190":-0.13570080928658707,"191":0.0013117570874605095,"192":0.062387963225473124,"193":-0.07605415927268416,"194":-0.20295050555210045,"195":0.10879082520011747,"196":0.07677286195486631,"197":-0.08694389758381217,"198":0.02363332099804524,"199":-0.07660824412181252}},{"sx":5,"sy":5,"depth":8,"w":{"0":-0.41242987788767327,"1":0.05354449263248861,"2":-0.18642861928160767,"3":-0.17002142156311886,"4":-0.06151145428436039,"5":-0.10363445012693026,"6":-0.19691713092928198,"7":-0.11408264616177409,"8":-0.4669555105549254,"9":0.12682189394761936,"10":-0.3167912679265172,"11":-0.09205466781162149,"12":-0.021064068578155282,"13":-0.24984469588011973,"14":-0.1979695016282699,"15":0.046262347065054506,"16":-0.06940656798399857,"17":-0.0024541011781946164,"18":-0.22118451654653065,"19":-0.2046431954855979,"20":-0.09183477337592288,"21":-0.013787719801979835,"22":-0.3028982123375218,"23":-0.0699326664487603,"24":-0.0743747347625035,"25":0.1415423981255584,"26":-0.1762664023706648,"27":-0.05803241577413496,"28":-0.10070210399109546,"29":-0.060987594984137625,"30":-0.25996567698104983,"31":-0.02819671561085652,"32":-0.08468686677761568,"33":-0.044369636707401974,"34":-0.10600359687533226,"35":0.15603038456135448,"36":0.15655150586023517,"37":0.12428583602256747,"38":-0.4654145834952783,"39":-0.07979359034514612,"40":-0.25500457665902576,"41":-0.10118057707801253,"42":-0.07695606002985171,"43":-0.054627245958660135,"44":-0.01385303001566042,"45":-0.4707300357622212,"46":0.09123896619734277,"47":0.15016812248110437,"48":-0.16809031065822266,"49":-0.053286060173725655,"50":-0.18654331355950787,"51":-0.4274224682854723,"52":0.1337409870818064,"53":-0.4273352356799951,"54":-0.07038337549702728,"55":0.13460715887910013,"56":-0.20539848946923617,"57":0.07529031899996687,"58":-0.1962105114510103,"59":-0.16223251141422176,"60":0.1866667575928688,"61":-0.2642820815363824,"62":0.09574591220828153,"63":0.07075221087762217,"64":-0.019730952279428,"65":-0.12298133351481044,"66":-0.029251703149864933,"67":-0.15240502784106894,"68":-0.0015769426023979523,"69":-0.11128764803740485,"70":0.13335309305680831,"71":-0.07295130293986718,"72":0.04050986841256678,"73":-0.12295082072874225,"74":0.03143296729919844,"75":-0.17630028204715975,"76":0.080049663557177,"77":0.05222900929086688,"78":-0.22251839744371646,"79":-0.35052809814650243,"80":0.06423831357545466,"81":-0.14160636854676287,"82":-0.0980073381875092,"83":-0.1781978669583023,"84":0.06326577117243606,"85":-0.19258389886952432,"86":0.17863576996719777,"87":0.13083021763103547,"88":0.11753326692397725,"89":-0.029696179232494017,"90":0.00642373356906749,"91":-0.12020844583092788,"92":0.00006709722230741674,"93":-0.32030237303855896,"94":0.21899953337320757,"95":0.15060743929200404,"96":-0.0006297058126117795,"97":-0.09102434986156868,"98":0.14393026418911284,"99":-0.33731171127136206,"100":0.14948612524845828,"101":-0.3232093256173766,"102":0.23781286592258083,"103":0.05657319776033293,"104":-0.039192132506509374,"105":-0.030807388381512656,"106":0.10055639671735696,"107":-0.08198882567290842,"108":0.12595394609447963,"109":-0.01270712759306512,"110":0.32401213462640915,"111":0.15716151150072702,"112":0.033918422446545145,"113":0.009152030495667336,"114":0.08617439102304159,"115":-0.07262038246942754,"116":0.05135007115443949,"117":0.07352622802354603,"118":0.05739994725252062,"119":0.102209916406242,"120":-0.05069286064770974,"121":0.08060864747609099,"122":-0.0002606106891539511,"123":-0.11112928064655925,"124":-0.06264938654784154,"125":0.03752760571993676,"126":0.1848728606095628,"127":0.1659168411564529,"128":0.0832329338157415,"129":0.11466073669218038,"130":0.0642609660549734,"131":-0.14253430893779775,"132":-0.005415524362678758,"133":-0.18686073563801156,"134":0.16067182084619697,"135":0.24840746976694822,"136":-0.06738107478409629,"137":-0.02745536087687217,"138":0.06970023615496633,"139":-0.27836187202663376,"140":-0.03752250994094562,"141":-0.023420299574959568,"142":-0.11713489632968645,"143":0.1904155402244512,"144":0.04150587020248245,"145":0.14697278521709478,"146":-0.016239583048676072,"147":-0.1910357286709948,"148":-0.08631852675808872,"149":0.05769660243560125,"150":-0.08914337625351293,"151":0.014391831615042086,"152":0.07779828737098501,"153":0.16416750124378368,"154":-0.10636728907591564,"155":-0.1659950838000543,"156":-0.010169294149280141,"157":0.030039855121487852,"158":0.051144615639381885,"159":0.09591199720968946,"160":-0.19978693266212214,"161":0.10185256396044931,"162":-0.0788357716943668,"163":-0.03733777776193225,"164":-0.33639485333525315,"165":-0.0434021207548326,"166":-0.30155683753252793,"167":-0.15733230767951564,"168":-0.305140892148132,"169":0.19061855702591704,"170":-0.16776637509073833,"171":-0.010635728769897636,"172":-0.24475104611152326,"173":-0.017338384490674496,"174":-0.33444021411442626,"175":0.02535224688370792,"176":-0.23715483271616838,"177":0.21749728609028052,"178":0.11673076116992025,"179":-0.0792913331725609,"180":-0.15410934067638377,"181":-0.06836141602332294,"182":-0.1551805987469483,"183":0.018988954674177914,"184":-0.0680314651557185,"185":0.14557133114793955,"186":0.052221605919996715,"187":-0.17233538783677113,"188":0.18603994736953033,"189":0.0043230919530931056,"190":-0.2502244598084996,"191":0.03282378868629589,"192":-0.16670137769556292,"193":0.12965835812211468,"194":0.07833993096902503,"195":-0.0049146828610207366,"196":0.03606262079349058,"197":0.006429393636553297,"198":0.014684738735787628,"199":-0.035482468935235136}},{"sx":5,"sy":5,"depth":8,"w":{"0":0.06683677617044502,"1":-0.3277551768017307,"2":0.3378995035985,"3":0.036631416883173944,"4":-0.09757140454365389,"5":-0.07822198117694958,"6":0.13025734225141358,"7":-0.1470278946463885,"8":0.05010581582295223,"9":-0.02133315015320916,"10":0.18304577600695407,"11":0.09661471846696508,"12":-0.20804645966023452,"13":0.04568950879648752,"14":0.13535166636984203,"15":-0.043624877773028425,"16":0.0031429765727306403,"17":0.10142323582920346,"18":0.21626842516752223,"19":0.30730274816233066,"20":-0.18932902731096968,"21":0.10646318762511134,"22":0.12156081291085727,"23":-0.04923894912052057,"24":-0.06044481193677974,"25":0.1653722061309842,"26":-0.021313633230462127,"27":-0.05847409843077842,"28":-0.3442900071089548,"29":0.11556792477850093,"30":-0.047270686404481524,"31":-0.03492433213045351,"32":0.0015418092472567135,"33":-0.020868888550374765,"34":-0.013711737329316864,"35":0.06074901861284301,"36":-0.36974127143112634,"37":0.029061178771340433,"38":-0.1751485401195959,"39":0.03551515418259671,"40":0.14983295776677863,"41":0.12739405306833745,"42":0.1335225434916505,"43":-0.14944630166300524,"44":0.0018653734944620837,"45":0.0929288374651848,"46":-0.13232811274626166,"47":-0.2105913415913859,"48":-0.05505880024869027,"49":0.13148421863176152,"50":-0.03342696992775641,"51":0.08977927119697093,"52":-0.1303491184615945,"53":0.1698818972393088,"54":-0.22240431910259365,"55":-0.033651118887400834,"56":-0.09174819196680038,"57":0.17964773725297584,"58":0.15007769084791467,"59":0.26814704521077715,"60":-0.30582991544336097,"61":0.12543179079395367,"62":-0.07631880915042308,"63":-0.2208661629452112,"64":-0.23665601681209367,"65":-0.09073472210226724,"66":-0.09776773061449472,"67":0.022358278269637738,"68":-0.06990292514340764,"69":0.02049789227971066,"70":-0.18731747054804215,"71":-0.17671661792862542,"72":-0.32337934203038926,"73":0.07601265781950181,"74":0.17532342738327686,"75":0.2162751385609339,"76":-0.18803683003945493,"77":-0.14555574921523617,"78":-0.03702779492432921,"79":-0.09756227437616657,"80":-0.2049700353783838,"81":0.0771250751606019,"82":-0.3278345645924672,"83":0.0841056178909049,"84":-0.11427285595764464,"85":0.10798766592964437,"86":-0.13817693030905379,"87":-0.14990706408975432,"88":-0.004691101110301438,"89":0.02867658107420705,"90":-0.058933025733393436,"91":-0.05596120704706921,"92":0.2551071686163932,"93":-0.10810979005963171,"94":0.06425850423423932,"95":-0.1766274759126415,"96":0.06059079424493183,"97":0.03728628227435197,"98":0.09981622218000848,"99":-0.10721564063158306,"100":0.17144186674312198,"101":-0.058640106309147316,"102":-0.004630186328173586,"103":0.03675715362487135,"104":-0.075839827385274,"105":0.02950387717422529,"106":-0.14248001766573395,"107":-0.09260625953622871,"108":0.1554185085281732,"109":-0.20336212498886458,"110":0.0033301275746674386,"111":0.023972189950044923,"112":-0.18090603453756499,"113":-0.05692164889523237,"114":-0.03433748517041678,"115":0.09685779060027862,"116":0.03283761073284259,"117":-0.189718233692129,"118":-0.07082605090746322,"119":-0.16559664134425997,"120":-0.211729066767201,"121":-0.056611467652272096,"122":0.0225921044123327,"123":0.19359507427389533,"124":0.1351795250874674,"125":-0.20374397532706373,"126":0.15294487123653364,"127":-0.03625391458124141,"128":-0.13186450046489875,"129":-0.22058116979324832,"130":0.1675375542250672,"131":-0.05614468237402416,"132":-0.045276368628135825,"133":-0.037551832239760025,"134":0.09300838773225935,"135":-0.09954708605175987,"136":0.12340177362012514,"137":-0.15995033367488923,"138":-0.10702669757378296,"139":-0.06118861886137537,"140":0.07492070564309715,"141":0.07652183882642147,"142":-0.02312153823604919,"143":0.12037329026153452,"144":0.1290842942862413,"145":-0.20695397518276995,"146":-0.2599773431754537,"147":-0.048556157165271806,"148":0.13393086617795902,"149":-0.20524359973379996,"150":-0.05398123627199847,"151":0.21660440783814422,"152":-0.2673844275695706,"153":0.1431465148595031,"154":-0.14817561854495448,"155":-0.09150720722390687,"156":0.04971719232402813,"157":-0.21247020405895095,"158":-0.0749179159655837,"159":0.029553951100986433,"160":-0.05642333181054089,"161":-0.4391782763697939,"162":0.09683722082937861,"163":0.22783458711132565,"164":-0.05511572973161405,"165":-0.032460673003541794,"166":0.17071020261790792,"167":-0.07881045446967458,"168":-0.07050291692220789,"169":-0.29128461382270165,"170":0.12376737193117374,"171":0.014263311211276329,"172":-0.0035660093438599967,"173":0.2442325481053691,"174":0.09543932226266968,"175":-0.07903984565271532,"176":0.2787806007998009,"177":-0.2034708562307251,"178":-0.09293009851285591,"179":0.0912807377169286,"180":-0.038497840529387484,"181":0.10635345219872172,"182":-0.012044612274704781,"183":-0.13109910114787524,"184":0.03860445870456157,"185":-0.03963046748724262,"186":-0.08604956181573205,"187":0.23115992328941068,"188":-0.04134864529753889,"189":-0.25625592262996194,"190":-0.2570150779903539,"191":-0.07414833611980114,"192":-0.2647814060509728,"193":0.01492002045021163,"194":-0.22065469382675723,"195":-0.16988467806276664,"196":-0.09841319570744478,"197":-0.1875717096789462,"198":-0.08857424217501261,"199":-0.15392551732616125}},{"sx":5,"sy":5,"depth":8,"w":{"0":0.2637243873244085,"1":-0.07414344110708214,"2":-0.1275549989053876,"3":-0.12444729566023685,"4":0.3019398877567882,"5":0.027798301143506766,"6":-0.2036319298969915,"7":-0.015953691531065763,"8":0.02556569247230104,"9":-0.062325370843250835,"10":-0.3104667489710053,"11":0.03316216843785116,"12":0.3088241289213369,"13":0.02166362915015618,"14":-0.11318499722314414,"15":0.07757968313488299,"16":-0.08332606560829912,"17":0.0935293143224716,"18":-0.3477112177601647,"19":-0.13650539852280907,"20":-0.07377013003614606,"21":-0.08654753520160992,"22":-0.17467384170821856,"23":-0.07836175466141675,"24":-0.43867681131581304,"25":0.017324116060584045,"26":-0.20923846224966006,"27":-0.12917615441595065,"28":-0.19700859202761659,"29":-0.09474940404007415,"30":-0.016935115566749554,"31":-0.14681367192869002,"32":-0.10322054791602248,"33":0.23077319078227207,"34":0.0934991942700915,"35":-0.06491338858422077,"36":-0.04773408631313449,"37":-0.10869452071936862,"38":0.04593577121543373,"39":-0.12487600707120684,"40":0.0006656907268330459,"41":-0.13561951978821962,"42":-0.14064655584118815,"43":0.012196948597134254,"44":0.14161130900436872,"45":0.12852235734587203,"46":0.044778439552220724,"47":-0.07031377343483179,"48":0.3265991783538486,"49":-0.1196127750320558,"50":-0.25347947472659405,"51":0.10666009024479846,"52":0.19206770190600278,"53":0.040257877233990165,"54":-0.03405935853112065,"55":0.23280410922290362,"56":0.04313559100626817,"57":-0.21493383552022638,"58":-0.29061462385423553,"59":-0.09706310930867561,"60":0.3026620118852062,"61":-0.25020109195033985,"62":-0.14866303325686434,"63":0.05221870464677927,"64":-0.06832354174667023,"65":-0.10436630838436155,"66":-0.203228840272252,"67":-0.02957897098740424,"68":-0.0796660973775711,"69":-0.0912370893742125,"70":-0.09222142991881263,"71":-0.09267334716343882,"72":-0.053923892214781576,"73":-0.07328408951672555,"74":-0.17462055931696205,"75":-0.1539849285481097,"76":-0.03984767764385955,"77":-0.05274749264667732,"78":-0.009259639762065817,"79":-0.09219489955896291,"80":-0.1274888142707543,"81":-0.272138201915141,"82":0.08612150071014428,"83":0.23609228513564637,"84":-0.24102607308990512,"85":0.12438252034744586,"86":0.07445363681905567,"87":0.10121046620744327,"88":0.23191075059167388,"89":-0.1711373980220999,"90":-0.09305956373787223,"91":0.2128129940573996,"92":0.2454015937368085,"93":0.10717388244887321,"94":-0.033151134088915075,"95":-0.09596866699815323,"96":0.08853738384730528,"97":-0.31591009257267166,"98":-0.3826264356400279,"99":0.17921108723872833,"100":-0.02906664224906692,"101":-0.16578727797246043,"102":-0.1322305958436437,"103":-0.131246309082889,"104":-0.05700278407124479,"105":-0.315241867022992,"106":0.03851178683643919,"107":0.008191237573501079,"108":-0.02886740314074589,"109":0.007165700442910117,"110":-0.007444809474138465,"111":-0.20893204792572526,"112":0.022959300184771245,"113":-0.28188500648640347,"114":-0.12156117031437781,"115":-0.18756548976568374,"116":-0.024564336691758323,"117":0.01842639098468157,"118":-0.04571606409812108,"119":-0.017060856875030027,"120":0.1880119629120914,"121":-0.13068772654336333,"122":0.17922809512789872,"123":0.07130810510477985,"124":-0.11125112694665903,"125":0.21149595237173124,"126":0.08124332854194033,"127":-0.10749540375863101,"128":0.20077488000272833,"129":-0.13082859613266432,"130":-0.020391272311423556,"131":0.37447811245304924,"132":-0.16702744882974424,"133":0.2144964133220563,"134":-0.09748965375865826,"135":-0.1942956088113358,"136":0.20608616394793416,"137":-0.30780027599159826,"138":-0.07908399527548496,"139":0.2493079642155109,"140":-0.14812071796580126,"141":-0.029366788526247176,"142":-0.05582281401082336,"143":-0.1625938945327247,"144":-0.08700164474309569,"145":-0.2492807972567894,"146":-0.13025262696027165,"147":-0.04115756174899151,"148":-0.006423787545503358,"149":0.016516661755423524,"150":0.15022797342153948,"151":-0.1140914423651603,"152":0.02146855908284953,"153":-0.16578359438687615,"154":-0.03669472174634474,"155":-0.08098469272351963,"156":0.005566834644436416,"157":-0.06569011713427177,"158":0.10705658682192933,"159":0.06470301972564922,"160":-0.00826880337489402,"161":-0.01288398554518335,"162":-0.0439582059556547,"163":-0.025523602024586676,"164":-0.3140682865022187,"165":0.23150384241473518,"166":-0.06580544947396758,"167":-0.08545230968074631,"168":0.2856332871839195,"169":-0.12712354188140473,"170":-0.07118953180557747,"171":0.1766016598210696,"172":-0.3261959732839635,"173":0.16511784283763292,"174":-0.14609187051703387,"175":-0.07900800676806845,"176":0.05484388233547828,"177":-0.1317779119262523,"178":0.019931285414618572,"179":0.29291255732370103,"180":-0.01855684561269958,"181":-0.1413676396197986,"182":-0.05415370988328244,"183":-0.2948199911075638,"184":0.13975949604028984,"185":0.10951716040615106,"186":-0.015114468534463271,"187":0.00834632567829841,"188":0.025721240074792154,"189":-0.03371309546854003,"190":-0.05898529602540599,"191":0.0008213208099226174,"192":0.04913990249424064,"193":0.06894649990793372,"194":0.07229894248363453,"195":0.05452012817723672,"196":0.07515494603328039,"197":-0.013695268287652867,"198":0.10182033359887177,"199":0.057415301681545294}},{"sx":5,"sy":5,"depth":8,"w":{"0":-0.19248906835009916,"1":-0.13330792908287548,"2":-0.04487594746560297,"3":0.06615456718980996,"4":0.09864845418667094,"5":-0.30901071333654384,"6":0.1288864510703561,"7":0.19708656724600507,"8":-0.16456456802575217,"9":-0.09717573594437626,"10":0.21757971099629442,"11":0.01799437493252022,"12":-0.08105736983911792,"13":-0.1846662956816981,"14":0.12023666516019771,"15":-0.16613566061249674,"16":0.0409128327653003,"17":-0.0727999669302549,"18":-0.007610656715626425,"19":-0.11851753137088644,"20":-0.15353172059584652,"21":0.32836265752867977,"22":-0.16006096633852507,"23":-0.18222132904302743,"24":0.19943191913096806,"25":0.14700840436342796,"26":-0.3432416517279688,"27":0.019212398658144957,"28":-0.23058868555429193,"29":0.16170074678055615,"30":-0.020063102123901125,"31":-0.03416146201960327,"32":-0.012581032765169437,"33":0.1763548605183613,"34":-0.26118935886582234,"35":0.22602142649543044,"36":-0.06557036737634062,"37":0.02944937405137854,"38":0.024434682876564445,"39":-0.001429427148308333,"40":0.004628894856709751,"41":-0.17006278013649656,"42":0.10214347217435198,"43":-0.01539147733126486,"44":0.06306597238642485,"45":-0.3050455376043196,"46":0.08842033111088336,"47":0.18269646803366016,"48":0.04388611894392951,"49":-0.048014260446088204,"50":-0.007119381617964281,"51":-0.12359438250345292,"52":-0.1786008340747831,"53":-0.08783190296296647,"54":0.17860107105015416,"55":-0.030076085842887502,"56":0.17391401470393628,"57":-0.009568479108961692,"58":-0.2375146990517966,"59":0.06303687879648806,"60":-0.03752004270489094,"61":0.43658379046656115,"62":-0.12006647551624824,"63":0.06685567958230723,"64":0.0466195997165867,"65":0.003659232988212203,"66":-0.3179447693805726,"67":0.18807253136869634,"68":-0.10025139847957228,"69":0.15530215693994973,"70":-0.038114240760490234,"71":-0.16514641880420966,"72":-0.3003596400368403,"73":-0.010227816268620477,"74":-0.24319754106086855,"75":0.20174942225701503,"76":-0.25137396306955706,"77":-0.2580807965828241,"78":-0.07229016520100301,"79":-0.0729675417440854,"80":-0.046880103188608024,"81":-0.023352161751208536,"82":0.1003513308742441,"83":0.08785459340612733,"84":-0.0945405999258874,"85":-0.01582375021110557,"86":0.17575601450435216,"87":0.2386177603197831,"88":0.03394568101202224,"89":0.06538476103139157,"90":0.05847684800352873,"91":0.025345707920414684,"92":-0.2158271796922015,"93":0.08698122315546303,"94":-0.05523785521609128,"95":0.10687093041792459,"96":0.04169056102174026,"97":0.03259424417959113,"98":-0.1764627751349175,"99":0.2200798090989512,"100":-0.15429892136508344,"101":0.14414440006138876,"102":-0.17846368298523357,"103":-0.003332730334516642,"104":0.04654978316696641,"105":-0.12875209650547642,"106":-0.10389693900655336,"107":0.418287476130842,"108":-0.31756411223180214,"109":-0.0912864377216644,"110":-0.19920097043392834,"111":-0.20122452607218516,"112":-0.0881438679679457,"113":-0.08334081776618736,"114":-0.13328691797075456,"115":0.14364122170847637,"116":-0.10577919000485672,"117":-0.1532892529436288,"118":-0.11114743228040325,"119":-0.11740854780032281,"120":-0.0598678209744018,"121":0.12791430454193503,"122":0.10104200731298699,"123":0.09463142113729883,"124":-0.2258817126181582,"125":0.12375787566407633,"126":0.2602136246148697,"127":0.01570522796956368,"128":-7.971564781590529e-7,"129":0.14223763038343953,"130":0.012381044640604489,"131":0.301285588846684,"132":-0.44845862011195176,"133":0.22454936601017325,"134":-0.06635029809740152,"135":-0.10307041860614062,"136":-0.030455033419118815,"137":0.005317466887835999,"138":-0.012738875008347016,"139":0.2799852144961386,"140":-0.37893785391438306,"141":0.04033868782647656,"142":0.054168247645611005,"143":-0.1712886546993182,"144":-0.11664875772416951,"145":-0.11618196483765192,"146":0.061945158290938454,"147":0.10280606277049899,"148":-0.15323339249850593,"149":-0.1310350207023014,"150":-0.14770907234213154,"151":-0.041390310860725324,"152":-0.08438455881035362,"153":-0.22653615012021808,"154":0.06582914276828694,"155":-0.025267959782166772,"156":-0.06146158581291765,"157":-0.19200570257802455,"158":-0.026450458313691024,"159":-0.07212103435589375,"160":0.038245233279245804,"161":0.14113341690825373,"162":-0.07200468853099512,"163":0.1308245997411965,"164":-0.03025015313439802,"165":-0.006152163210863376,"166":-0.05662939202147047,"167":-0.09998985582984254,"168":-0.14354270221499948,"169":0.037086471673121006,"170":0.0792579374803568,"171":0.27973869736977003,"172":-0.3079718680664001,"173":-0.0013694544806338743,"174":0.06469088718517507,"175":-0.08448119237023669,"176":-0.059273975352131275,"177":-0.12296724637038804,"178":-0.00023788331329953734,"179":0.2576859586394916,"180":-0.18737803724692723,"181":0.119998822479471,"182":0.07993086389797932,"183":-0.2093303344285526,"184":-0.15643285625577535,"185":-0.1217368766792461,"186":0.009779101941476877,"187":0.03629930370109184,"188":-0.04952338098858584,"189":-0.19831206528510015,"190":-0.05472973431934379,"191":-0.14236908858052175,"192":-0.04602042681629748,"193":-0.26167961190827727,"194":-0.06069480369102951,"195":-0.07309979178403878,"196":-0.0085419923227955,"197":-0.09331988242505773,"198":-0.1165888970195045,"199":-0.06809747759203204}},{"sx":5,"sy":5,"depth":8,"w":{"0":-0.1816334836184776,"1":-0.0036536201143806527,"2":-0.13229207582941868,"3":0.1478096305770284,"4":-0.04908908600727523,"5":0.058713301374429844,"6":-0.174640324135046,"7":-0.14707494718810166,"8":0.19639106644622523,"9":0.00301051144511586,"10":-0.14952404373294237,"11":0.00969903875147585,"12":0.020653073849018128,"13":0.19983843880938484,"14":-0.1950653020633214,"15":-0.20322330554805176,"16":0.2410933125014832,"17":-0.020904724092744034,"18":-0.1671684601009079,"19":0.1352781132097914,"20":0.10806940357221984,"21":0.11734874730175367,"22":-0.24129308216754353,"23":-0.2431667233232656,"24":-0.15400780834512398,"25":-0.06080390040837936,"26":-0.20580125485404968,"27":0.08273895713888782,"28":0.07284582269492698,"29":0.06489416660116863,"30":-0.13783382076899203,"31":-0.2493859686637574,"32":-0.25216256439910684,"33":-0.06444256777236733,"34":0.10433832732047663,"35":0.0881196735309985,"36":-0.1920988564171198,"37":0.009522682957059294,"38":0.30031820869787723,"39":0.15836994164406082,"40":-0.3074504563194373,"41":-0.24918197580532958,"42":-0.028198457433030122,"43":0.20003194179339717,"44":-0.13434248719667122,"45":-0.07521030801427775,"46":-0.050058969378292045,"47":-0.05228897652635257,"48":0.08179410341136521,"49":-0.08665971181982154,"50":-0.11915423071035336,"51":0.08529074351298874,"52":-0.12453915871891419,"53":0.10950640188901112,"54":-0.23127053644000506,"55":-0.024492610133349243,"56":0.17365613833447804,"57":-0.14673743042609672,"58":-0.19041122315095624,"59":0.11306699188689712,"60":0.1290812496458406,"61":0.03580920759545146,"62":-0.0846508380817948,"63":-0.08421929987453614,"64":0.07761285979187309,"65":-0.13529579773730457,"66":-0.14443831284760128,"67":0.03737314021481604,"68":0.09985557598007334,"69":-0.05516710720621049,"70":-0.11096395438891171,"71":-0.020579421033341806,"72":-0.0722157870534466,"73":0.17312984577359694,"74":0.18350457334123613,"75":0.11642510321451022,"76":-0.10142627629392248,"77":0.0054575722520321295,"78":0.09931173023477403,"79":0.06598160847298475,"80":-0.2368627943318317,"81":-0.24334654205739356,"82":0.1194946327706251,"83":0.2229841016181981,"84":-0.049376984340024625,"85":-0.19400011924108868,"86":-0.09722390133229006,"87":-0.13618901541698736,"88":0.07074079019816175,"89":-0.13264140392731968,"90":-0.0027402588064586913,"91":0.05584515878500576,"92":-0.20150604372104727,"93":0.018613824352983796,"94":-0.20720710092907907,"95":-0.18080477786096777,"96":0.1837406922532291,"97":-0.3410258803377317,"98":-0.19387526932183874,"99":-0.12789679034320864,"100":-0.06531492893868229,"101":0.08323469230975396,"102":-0.1795720635073095,"103":-0.21677409321817487,"104":0.25095447423863865,"105":-0.20232291237691705,"106":-0.24392085227458177,"107":-0.06775495077896325,"108":0.18911039668054233,"109":-0.0901439553132356,"110":-0.008642871335931227,"111":-0.11692966650858364,"112":-0.03497069298212959,"113":0.05700777517404972,"114":-0.051385192954085196,"115":0.026496622988605018,"116":0.04119608933157009,"117":-0.05447182269008593,"118":-0.027093926575148957,"119":-0.09498874937242528,"120":-0.25831936672981193,"121":-0.17552829142298593,"122":0.05498234503518192,"123":0.06859208133301675,"124":0.025219808157231443,"125":-0.23314572737457384,"126":-0.08462118829559273,"127":0.1909230740513891,"128":-0.04751019583931091,"129":-0.0696377649642224,"130":-0.11746244189894543,"131":-0.07991812615644237,"132":-0.05937003253821805,"133":0.039503289558245766,"134":-0.2625567639217429,"135":-0.03196478671367726,"136":0.19083698057628337,"137":0.041948646415682314,"138":-0.1966616090196476,"139":-0.04801740403115066,"140":0.04591069183036964,"141":0.12865673314810688,"142":0.036513927277183375,"143":-0.17673231735905376,"144":-0.01129575328504532,"145":-0.06086480870632229,"146":-0.023626371243283956,"147":0.037999182021180904,"148":0.18590972214939194,"149":-0.028515584637681418,"150":0.01161962135746975,"151":-0.2418357746775339,"152":-0.025972349940161465,"153":-0.08710605621986255,"154":-0.030574019342813636,"155":-0.1215418833156737,"156":0.4827799403222785,"157":-0.1243231314624999,"158":-0.09922288329613987,"159":-0.012395711457914457,"160":-0.1931751639043565,"161":-0.08309082112334913,"162":-0.09687196164299211,"163":0.2563066075241155,"164":0.02694668285927662,"165":-0.19505732002441545,"166":-0.18047334152692412,"167":0.11908149394152778,"168":-0.007695927213681057,"169":-0.039392932818805126,"170":-0.10674800105829789,"171":0.01789456610603798,"172":0.05741391084377748,"173":0.06361321536780859,"174":-0.1125712301380748,"175":-0.0849702081296482,"176":0.010785822166718218,"177":0.12821633168149021,"178":-0.18165266013130613,"179":-0.007279981891862365,"180":0.053636750507086405,"181":0.15242504036430818,"182":0.08100741343942516,"183":-0.09752151897349391,"184":0.004790090157421657,"185":0.009731418593129829,"186":-0.062300256968581054,"187":0.06376852851326133,"188":0.14085500352414632,"189":-0.06997458633674947,"190":0.03844515730557091,"191":0.19223808508003498,"192":0.17699179342488083,"193":-0.06727085337857826,"194":0.11069151117881389,"195":-0.026536437147111056,"196":0.30066635237838185,"197":-0.16531579599615726,"198":0.0416912731911296,"199":0.12758638798470925}},{"sx":5,"sy":5,"depth":8,"w":{"0":-0.029755745372940467,"1":-0.04024579246035318,"2":0.07288840227245716,"3":0.05284363577338032,"4":-0.0831513772456076,"5":0.08321106660016529,"6":-0.14679055714851882,"7":0.04084948901982626,"8":0.15499024256549845,"9":-0.05171816959768718,"10":0.03362800177923486,"11":0.14006953507859704,"12":-0.1463195271311276,"13":-0.002142835282353716,"14":0.0020902581081267127,"15":-0.04426038807887919,"16":0.019524734540292105,"17":-0.1881403605237329,"18":0.15172523809547353,"19":0.21374039097002973,"20":-0.06976789878823117,"21":0.05747086071868277,"22":0.3961899887450851,"23":-0.0421403709576439,"24":-0.06178857918293547,"25":-0.10102872763893243,"26":0.3781133040077807,"27":-0.1771139985793753,"28":-0.18597246144411175,"29":-0.1046380855385177,"30":0.20609517688728785,"31":-0.16692800978586694,"32":-0.13404967992951117,"33":-0.028197161563996917,"34":0.0025900917582766343,"35":-0.17034434224377207,"36":-0.13474997992872378,"37":0.12941901817666102,"38":-0.05544123827589651,"39":-0.05148606863725989,"40":-0.12298962249043761,"41":-0.07672922344393251,"42":-0.07116119264051508,"43":0.1804581583530109,"44":-0.07439768578487631,"45":0.020744235798229108,"46":-0.037266224652622144,"47":-0.007786309368939755,"48":0.056309813867111765,"49":-0.3070772227496203,"50":0.03952524593633339,"51":0.24147346381137713,"52":-0.1764247437721492,"53":0.02312840741980349,"54":0.20090304794178646,"55":0.17322288927097276,"56":0.1395482999514234,"57":-0.357187498469886,"58":0.22879257661920138,"59":0.18405385099538343,"60":-0.15620702803446573,"61":0.08756715673241179,"62":0.22644200837069492,"63":-0.1415089962388212,"64":0.06001852892438525,"65":-0.11038639918368102,"66":0.08279268496586291,"67":-0.10637546802910962,"68":-0.14638583719764733,"69":-0.009221364449540734,"70":-0.015048389677184491,"71":-0.34856239701271524,"72":-0.04152979936716144,"73":0.10169402527807495,"74":0.1881347982709985,"75":-0.05812242369120828,"76":-0.06625804098714874,"77":0.015535905856423273,"78":0.06930621445260114,"79":-0.04497313408946659,"80":-0.11484812249897121,"81":-0.1474342194570824,"82":0.025323079403277295,"83":0.21790993405324718,"84":-0.05651055547711059,"85":-0.0796016991949001,"86":-0.07588161154486198,"87":-0.06521782323554615,"88":-0.11608610432469148,"89":-0.23231312223336625,"90":0.051873037479938676,"91":0.18329164747024657,"92":-0.31019443073652675,"93":-0.061862895152647895,"94":-0.1297327371333469,"95":-0.04498482739838215,"96":0.28987692460979164,"97":-0.3663554329885911,"98":-0.13309224114065857,"99":0.09063205883629778,"100":-0.06117059273982122,"101":0.1232917668878492,"102":-0.00858747693981788,"103":-0.29982050476449346,"104":0.17343258756177293,"105":-0.15591537546395556,"106":-0.09426915701745603,"107":0.021901638162566132,"108":0.18418744133063472,"109":0.10508340687512614,"110":-0.2596708097207181,"111":-0.24655398129248648,"112":-0.002424970921922556,"113":-0.09953004050244921,"114":0.1310990316116691,"115":-0.13781872706166523,"116":0.12217199083969511,"117":-0.06469572230651195,"118":0.0663988248021232,"119":-0.03429620669262033,"120":-0.1309182067576683,"121":-0.1990989038671751,"122":0.009979103706484457,"123":-0.03408536540743826,"124":-0.19446498470593934,"125":-0.17290077757278824,"126":-0.05235309377584378,"127":0.059924015203727095,"128":0.11647532118288134,"129":-0.35777848054703854,"130":-0.05294394665719928,"131":0.19622685566240172,"132":-0.17010189469158657,"133":-0.10790692610489405,"134":-0.08826687907154171,"135":-0.1576255055527073,"136":0.15716490273681646,"137":-0.1822625735216004,"138":-0.30664013334913337,"139":-0.1364093484944477,"140":-0.0009992034168939546,"141":0.04742826813030866,"142":-0.5334893055712115,"143":-0.38605240268285546,"144":0.11060495863308037,"145":0.011283219321500018,"146":-0.3007627325563816,"147":-0.3004757545014828,"148":0.43766299671509434,"149":0.04593727916879425,"150":-0.13703129234926262,"151":0.09959150669759595,"152":-0.10574905424374995,"153":-0.08031092926737614,"154":-0.015119995800205052,"155":-0.30135435124198584,"156":0.2290511543763824,"157":0.05118893121951508,"158":-0.20512287697983056,"159":0.06321827892565045,"160":-0.12077201311503502,"161":-0.18267912465487082,"162":0.07253019525910238,"163":0.07232801180942071,"164":-0.028779995491420993,"165":-0.23243751930654558,"166":-0.05140000117669098,"167":0.04341737097341705,"168":-0.04482950951238117,"169":-0.0463368725889966,"170":-0.23326025220111807,"171":0.034650578383764834,"172":-0.22359061722270399,"173":-0.05926025723107353,"174":-0.1532877015375882,"175":-0.14879627820457167,"176":0.2787354361816655,"177":0.01934786114651736,"178":-0.3813892624435893,"179":-0.06703457169380507,"180":0.03934946891332104,"181":0.18991905269685752,"182":-0.09960855437907254,"183":-0.19053234309034933,"184":0.10175420561106542,"185":0.1673936358594104,"186":-0.069467889830539,"187":-0.07294921997938343,"188":0.09509964294703324,"189":-0.0896284643476583,"190":-0.2103857018998861,"191":0.02549491921189834,"192":-0.036206672196128754,"193":0.21835350153257085,"194":-0.012823624245798268,"195":-0.12985261482840513,"196":-0.018844302437906787,"197":-0.03500692789914815,"198":-0.30197739136970264,"199":0.11282996024860487}},{"sx":5,"sy":5,"depth":8,"w":{"0":0.10425247500144541,"1":-0.21084762339154103,"2":0.1980684971245349,"3":0.0442999131119216,"4":0.018349385488969052,"5":0.060705963307554206,"6":0.057022091591400106,"7":-0.15408999760028647,"8":-0.11782162681171558,"9":0.054775359393662564,"10":0.1466473451404176,"11":-0.053111364066026755,"12":-0.14091513598297398,"13":0.05870180872552533,"14":-0.06231830787758837,"15":-0.11724169825889945,"16":0.00026536074664829275,"17":0.18389629726308002,"18":0.2794405200510558,"19":0.06089553619864286,"20":-0.21642750950714462,"21":0.028068512259699523,"22":-0.006283801519432266,"23":0.08030644642651708,"24":-0.06355993950033323,"25":0.21658324549922733,"26":0.22137253497583284,"27":0.2894994274928058,"28":0.00472203991054081,"29":0.20744683517440052,"30":-0.03980628024733496,"31":0.07301759953392124,"32":0.04578350286184571,"33":-0.06526544744253063,"34":-0.2308551749854146,"35":0.07880747077940418,"36":0.13375387059990557,"37":-0.01297095819374991,"38":-0.09572817085870011,"39":0.019195787144308682,"40":0.17492497620727218,"41":-0.23638541006448566,"42":0.0028870554252907444,"43":-0.06261335476333825,"44":0.28260042534994084,"45":0.0027732421710406924,"46":-0.05183218129933446,"47":-0.08927240635795725,"48":0.17194837098660887,"49":-0.1453773234072222,"50":0.010032005577642488,"51":-0.10488619203372627,"52":0.0922221804934889,"53":-0.03998358850209459,"54":-0.030805350716983402,"55":-0.13723977503164703,"56":-0.045005732308010596,"57":0.20390910679654128,"58":0.17025233671382303,"59":-0.11503259157819068,"60":-0.035433147377757414,"61":0.12804947560775565,"62":-0.1646325147665037,"63":-0.1405205924872838,"64":-0.1346663270375944,"65":0.13437264743278082,"66":0.04135330732108426,"67":0.22295526113836842,"68":-0.22894631798556334,"69":0.17944115602370347,"70":-0.125811549543113,"71":-0.060937571345025164,"72":-0.08169484673676679,"73":-0.09560298750834023,"74":0.032655229733922,"75":0.017007661574178722,"76":-0.09162121331874527,"77":-0.012856682747967503,"78":0.002273476399781365,"79":-0.02574151061758306,"80":0.10325847946771022,"81":0.03744218265424955,"82":-0.13310972181343492,"83":-0.11455700303024649,"84":-0.16120790498720755,"85":0.02654650994639067,"86":-0.21413605176134795,"87":0.08062679386519275,"88":0.13386703208560813,"89":-0.15099204673395034,"90":-0.16246851056336342,"91":-0.3083108211741517,"92":0.18895531028008364,"93":-0.027437760829897538,"94":-0.24079376866587146,"95":0.13337531775810255,"96":0.021173186284695174,"97":-0.15186917875973172,"98":-0.0988582064171914,"99":-0.17852184032793658,"100":0.17926802633592276,"101":-0.029697213834499078,"102":-0.08038661498172488,"103":0.11910323133200097,"104":-0.13039027361046468,"105":0.0361946823124783,"106":0.18552034482218768,"107":-0.01869749677376553,"108":-0.012756986199569552,"109":-0.094897735026793,"110":0.06430686205401426,"111":-0.1378905450005766,"112":-0.13195463245197606,"113":-0.15369320972692388,"114":0.3283209651327963,"115":-0.018598114031300916,"116":-0.09232065316584463,"117":-0.03440441500538417,"118":0.15662881116959854,"119":0.005871527310889071,"120":-0.06404362183248725,"121":-0.12400918595771607,"122":0.023856022878694094,"123":-0.2145841647395781,"124":-0.10319731132995227,"125":-0.20870964905242095,"126":-0.3903368431631847,"127":-0.16605526447487512,"128":0.1119726942134874,"129":-0.268977511636128,"130":0.12910112608933724,"131":-0.15011650898202283,"132":0.1370698806169362,"133":0.016493293133241084,"134":-0.25266417561823074,"135":-0.2591258442472949,"136":0.1832631369859154,"137":-0.2861103642724596,"138":0.07440993838935447,"139":-0.11684581673085763,"140":0.26319019004816413,"141":0.014240971190218629,"142":-0.08393783280773566,"143":-0.0271744653216665,"144":0.02747452976881892,"145":-0.1534234069519583,"146":0.07026130452089749,"147":-0.10527620415343161,"148":-0.1447484341494246,"149":-0.029100033631758816,"150":0.08778206591947739,"151":-0.008265415226391232,"152":-0.06522929773622035,"153":-0.020268154622494032,"154":0.05060436114325581,"155":0.00015984826791838646,"156":-0.19337381733774497,"157":0.1187457248047069,"158":-0.13456183138303324,"159":-0.13454557212426868,"160":0.001442210044446497,"161":-0.1079245904406044,"162":0.439589842301266,"163":-0.08083290673710451,"164":0.031426487678921894,"165":-0.14376038066244287,"166":0.10335742241287635,"167":-0.11713689822272128,"168":-0.02356703420294981,"169":-0.2566944184425522,"170":0.25477338556432355,"171":-0.05730020788855799,"172":-0.1691248355420327,"173":0.06584115129591746,"174":-0.16226871678044133,"175":-0.19132640954963495,"176":0.02899685731060427,"177":-0.0842585444901864,"178":-0.05124605401829137,"179":-0.11281871791128077,"180":-0.10336065720667982,"181":0.03501518318831841,"182":-0.0908400591055163,"183":-0.10260810837705192,"184":0.05620000542387769,"185":0.006962818731817181,"186":-0.11168068710281505,"187":0.04495814054929811,"188":0.00512066326427949,"189":0.09380094656416815,"190":-0.2847621667876921,"191":-0.14317707453809808,"192":-0.13042982132372502,"193":-0.07453450653789394,"194":-0.31424881445735475,"195":-0.029961465683651663,"196":0.011223705871629004,"197":-0.03792357068067017,"198":-0.2272952225400481,"199":-0.22275477696684823}},{"sx":5,"sy":5,"depth":8,"w":{"0":-0.23199490597658304,"1":-0.3427394797658533,"2":0.09410280549485674,"3":0.24669203526720543,"4":-0.28695035606688635,"5":-0.21302823523468148,"6":0.01606546679543656,"7":0.008173620080418598,"8":-0.08770409794714148,"9":-0.29152312825402765,"10":0.11668034123234595,"11":0.2229242207599583,"12":-0.30435580675992335,"13":0.04572209708858939,"14":0.18818290601812793,"15":-0.0907386890190474,"16":0.009647833959096627,"17":-0.3322329657352354,"18":0.2553179361227474,"19":0.2752467344330674,"20":-0.24466663309144823,"21":0.17205577298202857,"22":0.18413414584203602,"23":-0.06985636943902386,"24":0.1648148841527625,"25":-0.01692919205637362,"26":0.24160178894615472,"27":0.028755936501022646,"28":-0.17320208040169163,"29":0.045900959840733696,"30":0.20729835122630377,"31":-0.065027693046826,"32":0.10252905977622889,"33":0.013585302259357212,"34":0.15852360510876415,"35":0.04331301632437104,"36":0.021234027620010937,"37":-0.06405943407978477,"38":0.216077858902266,"39":0.09318614805581836,"40":-0.22987886159902057,"41":-0.19182339859929295,"42":0.14903910039034307,"43":0.1471238449740611,"44":-0.3240327214968321,"45":-0.11774733501351871,"46":0.07216325590312028,"47":0.029372735566981695,"48":0.038855035349681044,"49":-0.4251869911170148,"50":0.18325862059021142,"51":0.29033119281031466,"52":-0.25414853194429854,"53":0.2411145478983805,"54":-0.016255211375660425,"55":-0.09589987883395945,"56":0.2375436837467674,"57":-0.2821723337356802,"58":0.1789278499911163,"59":-0.0152636741915653,"60":-0.2065056555574616,"61":0.1683437468346312,"62":0.12748760711825347,"63":-0.3046755749940249,"64":0.029081814366422907,"65":-0.16500500957878134,"66":-0.007728207744307186,"67":0.02544843544448032,"68":-0.033474942434392266,"69":-0.03648020296352477,"70":-0.18502956534532045,"71":-0.22108982206426472,"72":0.043666020929164905,"73":-0.015013983757691744,"74":0.15728838154331495,"75":-0.17845153222785157,"76":-0.034483774934980414,"77":-0.1275124228828306,"78":0.00935236535607462,"79":-0.026639200938961258,"80":-0.07956118083632382,"81":-0.283612536900674,"82":0.11785181973766401,"83":0.03922125688081726,"84":-0.07646147082738326,"85":-0.1651382475103053,"86":0.006954476212553934,"87":0.018159942648364853,"88":0.06087710150372426,"89":-0.38773238399170773,"90":-0.036918676721512556,"91":0.1802000070815557,"92":-0.15519576191088,"93":-0.057793440922879,"94":-0.11317172267704784,"95":-0.24517185533037564,"96":0.19792763693941756,"97":-0.1110825245155528,"98":-0.12766691012855325,"99":-0.09384551231907959,"100":0.018225478740785506,"101":0.04744379410303267,"102":-0.1662450797821402,"103":-0.20320654246990943,"104":0.1905487732560699,"105":0.12128360413317456,"106":0.05682758871253929,"107":-0.2511490988940391,"108":0.40541206206081426,"109":0.0015256190825433825,"110":-0.08168723340300148,"111":-0.05312276482775293,"112":0.0028931691234912434,"113":-0.01827100510381669,"114":0.028005925494932644,"115":-0.4915636353901268,"116":0.18064988399575088,"117":0.08311612355551894,"118":-0.03610570154771004,"119":-0.11203583048168017,"120":0.14342840387315606,"121":-0.4325168124897081,"122":-0.007025702761283977,"123":-0.06220188894918377,"124":0.01369390361440458,"125":-0.06699985350643611,"126":-0.13624813384368167,"127":0.09346061634872346,"128":0.06654513829476232,"129":-0.1578848150530072,"130":-0.16691269238814557,"131":0.11788786948447146,"132":-0.012826682418085966,"133":-0.06209518713268473,"134":-0.3501413126760626,"135":-0.25673950468262197,"136":0.1546527670561289,"137":0.1533663280441382,"138":-0.24487307212529183,"139":-0.09904868785824639,"140":0.09589859989402674,"141":0.037529381119019434,"142":-0.12980994681413974,"143":-0.0298091734784552,"144":0.00650376208076779,"145":0.06812798841322773,"146":-0.01744946861500743,"147":-0.29804164539814393,"148":0.2445982935405286,"149":0.056364101309963416,"150":-0.19245654058323988,"151":0.10321662708212269,"152":-0.07222766560201008,"153":0.13875085995740236,"154":-0.032668549982335066,"155":-0.2913084014588978,"156":0.09447089556906293,"157":-0.015660959679889966,"158":-0.1578085259557081,"159":0.007448231816970503,"160":0.09981680057266475,"161":-0.1570609883704879,"162":-0.21720656465717378,"163":-0.10054734708137497,"164":-0.29173768306992004,"165":0.05049284221126037,"166":-0.2510175533202937,"167":-0.1252386878247312,"168":-0.06133765646034367,"169":-0.03506342878601256,"170":-0.19641772375151798,"171":-0.05724785027123314,"172":-0.19871086331492122,"173":-0.01523297115627291,"174":-0.024734860970268658,"175":-0.05632822534829645,"176":0.026360129505910875,"177":0.05964327077550783,"178":-0.01849812114360238,"179":-0.14560776853909246,"180":0.07244992615689849,"181":-0.10641943133399133,"182":0.19802252924881972,"183":0.027252252481424988,"184":-0.20811287622001984,"185":0.07420908827234607,"186":-0.00652433218656875,"187":-0.1659537132858515,"188":0.06881392602712068,"189":0.07213725945652168,"190":-0.027223511412647974,"191":-0.12181384156347493,"192":-0.08951294915635923,"193":0.025343802768272094,"194":-0.019783236943251726,"195":-0.09928197719551098,"196":-0.14538212021412888,"197":-0.002684286894803963,"198":-0.3160741768581283,"199":-0.07149476617387981}}],"biases":{"sx":1,"sy":1,"depth":16,"w":{"0":-0.11594141277819313,"1":0.03183663301298979,"2":-0.04964877027357475,"3":0.0680558436196652,"4":-0.07127699604980842,"5":0.012388437984335065,"6":0.0169318086955729,"7":-0.05209092276908853,"8":-0.001036053873726438,"9":-0.031248660013329838,"10":0.0793321579721775,"11":0.11738496264715018,"12":0.01916285147788889,"13":0.10456288502506325,"14":0.05221655571876683,"15":0.05199749071994675}}},{"out_depth":16,"out_sx":14,"out_sy":14,"layer_type":"relu"},{"sx":3,"sy":3,"stride":3,"in_depth":16,"out_depth":16,"out_sx":4,"out_sy":4,"layer_type":"pool","pad":0},{"out_depth":10,"out_sx":1,"out_sy":1,"layer_type":"fc","num_inputs":256,"l1_decay_mul":0,"l2_decay_mul":1,"filters":[{"sx":1,"sy":1,"depth":256,"w":{"0":-0.13239535294540353,"1":-0.14103375125773931,"2":-0.06187434444457637,"3":0.03932361226708321,"4":-0.007696683176296457,"5":-0.030074044760340316,"6":-0.08639852885347506,"7":0.0040412462672935485,"8":-0.011733747187797131,"9":0.05628586520946293,"10":-0.028477094117560615,"11":-0.024533831927196166,"12":-0.016911083735986206,"13":-0.021842358686160707,"14":-0.04692798917904825,"15":0.02242902349726164,"16":0.0018196176446080875,"17":-0.17070772570972145,"18":-0.12165064604271471,"19":-0.21357382464277178,"20":-0.06606805354681841,"21":-0.08744161402738164,"22":-0.10995788929567811,"23":0.007901694941538142,"24":-0.1462804003879035,"25":-0.1733617219760595,"26":-0.1671400853385268,"27":-0.13516627425361505,"28":-0.09276927429405453,"29":-0.08309906171264267,"30":-0.07338395871113157,"31":-0.05333233569598137,"32":0.019974853586930044,"33":0.01529685837764222,"34":-0.15670240506913688,"35":-0.04564408679447367,"36":-0.14107782651211856,"37":-0.13441079152087945,"38":-0.07298514928779892,"39":-0.07182717603024699,"40":-0.06116342989924643,"41":-0.1029810492811506,"42":-0.16145800200703922,"43":-0.1894725285557219,"44":-0.012285354792115075,"45":-0.09638736588400683,"46":-0.0029850686241466445,"47":0.12351838937260157,"48":-0.09891690737523733,"49":-0.049383271387854394,"50":-0.1687696845568916,"51":0.04574004897361207,"52":0.006690651764714571,"53":0.00755289570774943,"54":-0.187804929956981,"55":-0.004422794363674476,"56":0.0144439782540688,"57":-0.024639552626008906,"58":-0.11189784418434479,"59":-0.14826026742735954,"60":0.031051726832539248,"61":0.12342067279999437,"62":0.022121345836939,"63":-0.013626592279680081,"64":-0.021177321990815477,"65":-0.08269752767384368,"66":-0.051710889171570705,"67":0.01591101755844918,"68":-0.1428700498818867,"69":-0.04016265954237185,"70":-0.05881071794671058,"71":-0.0034522400224685852,"72":0.07261645941459918,"73":-0.008060854542141992,"74":-0.08940282928646155,"75":0.02695156901405836,"76":-0.1422546930530888,"77":-0.0845275429255502,"78":-0.03740366206338434,"79":-0.006161190392941884,"80":0.018564583519453625,"81":0.17165507187106757,"82":-0.2601061933082091,"83":-0.053062889883161254,"84":-0.007678607265660467,"85":-0.10409840522410434,"86":-0.13629757469867396,"87":-0.07817488736846305,"88":-0.15822380973692504,"89":0.014306569917127868,"90":-0.06700139030871508,"91":0.017698054839887744,"92":-0.1552556546191103,"93":-0.04919178575739393,"94":-0.0747454507971773,"95":-0.052507261716777165,"96":-0.12397291538789312,"97":-0.2514088235178496,"98":-0.23156210194753388,"99":0.08214851490463886,"100":-0.24625453056282096,"101":0.04699933865230381,"102":0.07836033066066792,"103":0.0040909248469833456,"104":-0.13003709120482831,"105":-0.16332784496283764,"106":-0.039857354854617374,"107":0.07107162056275927,"108":0.06550923921297856,"109":-0.01784298680542245,"110":-0.22253141257133904,"111":0.03232148778487965,"112":-0.3415073397975764,"113":-0.07158081675821065,"114":-0.10263085890779891,"115":0.1608470892464856,"116":-0.2602369813117999,"117":-0.21673642903361878,"118":-0.0687861434066285,"119":0.04936094992580436,"120":0.04118023510844085,"121":-0.1949457361152964,"122":0.016572614988520893,"123":-0.34587814225044533,"124":0.20064899478836143,"125":0.0659433161386508,"126":0.18203110029882077,"127":-0.2206310131545432,"128":-0.26212859882519696,"129":-0.02257889388939307,"130":-0.04942030961361823,"131":0.038179589579301225,"132":-0.12730580373801048,"133":0.018537138416398594,"134":-0.03990148746376056,"135":-0.023891885676662075,"136":-0.27091323791277644,"137":-0.06510268519407557,"138":-0.06436291250733661,"139":-0.09705171178737376,"140":-0.3486845892964528,"141":-0.0023922789562182537,"142":0.042080032285662664,"143":0.004880764074573777,"144":-0.08607743933591853,"145":0.062064242070701804,"146":-0.0845464356996739,"147":-0.18090005220833832,"148":0.10252536214268627,"149":0.08580957758909316,"150":-0.3452860938978202,"151":0.08559107731004595,"152":-0.1368147938805219,"153":0.06569704358218276,"154":0.09086792534359277,"155":0.17138650992785862,"156":-0.012221448721037404,"157":0.16975583070216327,"158":0.03208141059250508,"159":0.036732652265996306,"160":-0.048916174909728924,"161":-0.10530261704815495,"162":-0.30664963336280193,"163":-0.2051516105424486,"164":-0.12493115969105761,"165":-0.22026978722572593,"166":-0.43913896661731816,"167":-0.3339011370810059,"168":-0.06653272468435709,"169":-0.0842305930732941,"170":0.21751135434141702,"171":-0.016072109136603386,"172":-0.002749987245363522,"173":-0.17088392418053572,"174":-0.11892631926598587,"175":-0.11887888963338404,"176":-0.17649263546357272,"177":0.2050428792894799,"178":-0.032572603734270955,"179":-0.07103846308432239,"180":-0.13940430971483,"181":0.07563635542272633,"182":-0.019302610128642695,"183":-0.24387759939996706,"184":-0.016272612454768562,"185":-0.027401894588094083,"186":-0.06456735568739065,"187":0.16995285270721647,"188":0.03801286854635484,"189":0.1097778034170998,"190":-0.27706477786112954,"191":-0.02206321019311782,"192":-0.19861768255641266,"193":0.1611543298206407,"194":-0.06778020779999326,"195":-0.08125047797919759,"196":-0.057203391514697326,"197":-0.08576045131975385,"198":-0.06110120460505937,"199":0.07040346579810436,"200":-0.2789734007772398,"201":0.09461231147819965,"202":-0.08196131550891746,"203":-0.07064644627921916,"204":-0.1240640145869062,"205":0.07178219391245777,"206":-0.11532995350515139,"207":-0.022702193902909867,"208":-0.18645680923930863,"209":-0.08299678467387289,"210":0.015882836237873774,"211":0.09909804979172328,"212":-0.14281793993014824,"213":0.11123243374137584,"214":0.03558889734411184,"215":0.06164306433265447,"216":-0.13055054450788656,"217":-0.2528878081086236,"218":0.03675412916225547,"219":-0.09223036515078598,"220":0.14367847078734503,"221":-0.040729425688300666,"222":-0.05575571918658156,"223":0.017206315649528584,"224":-0.06710580172726469,"225":-0.3761916358731516,"226":0.06958647148962649,"227":-0.010807034908688055,"228":-0.092951624763105,"229":0.004493549353784125,"230":0.14277362028306104,"231":0.010696026806964383,"232":-0.14580365939502973,"233":-0.051296733124891594,"234":-0.25979559033053234,"235":-0.23534450036407448,"236":-0.031695284474530294,"237":-0.06296638537803718,"238":0.15242901406937234,"239":-0.10789415034014746,"240":-0.05489258596562144,"241":-0.04153951029073775,"242":-0.1017707140102643,"243":-0.26064009702115554,"244":0.06152383000667723,"245":0.050061457643696405,"246":-0.13235789959564165,"247":-0.021724958115454874,"248":0.08369712898251762,"249":0.15980915187874528,"250":-0.3279790369554121,"251":0.15140635104339642,"252":-0.22818920934803477,"253":-0.170704032571872,"254":-0.19450531619627437,"255":0.13655357924460393}},{"sx":1,"sy":1,"depth":256,"w":{"0":-0.051750141514715985,"1":-0.08485071098412474,"2":0.015296234932760168,"3":0.05258247726110153,"4":-0.0219550388011001,"5":-0.09940817490662575,"6":-0.09761085872993995,"7":-0.03281519521348304,"8":0.008129070716322014,"9":0.027991610930906904,"10":0.005598270174581396,"11":-0.01184887931287832,"12":-0.07944543560773258,"13":0.0694900805208389,"14":0.09955689449370117,"15":-0.04581662948703969,"16":-0.20923728952838935,"17":-0.024949535088460026,"18":-0.12746475822824413,"19":-0.18878958777937935,"20":-0.13553834377971055,"21":0.030400930834380745,"22":-0.028792261893589178,"23":0.06478324456461186,"24":-0.07239537247309319,"25":-0.03872703838494134,"26":-0.14262792358425735,"27":0.04795633643467826,"28":0.0022212152197402615,"29":-0.011138794237607594,"30":-0.03283565665220347,"31":-0.13170575512348015,"32":-0.021948567239679282,"33":0.14985121559723186,"34":-0.10426025908458127,"35":-0.08960027862230709,"36":-0.17733154135869006,"37":-0.13422668837688914,"38":-0.2276616096825789,"39":0.06465838519931556,"40":-0.18583627486580706,"41":0.1704809981606977,"42":0.11804753433379173,"43":0.005936036016053405,"44":0.09228951744406806,"45":0.20073633088452153,"46":0.11681822732804933,"47":-0.005316474443265194,"48":-0.08715670230660585,"49":0.15243008288048307,"50":-0.07817826347739464,"51":0.03691428771131859,"52":-0.119286354441532,"53":0.12005869472968929,"54":-0.2547421954064807,"55":-0.2473872040402751,"56":-0.22869661571200142,"57":0.19203944562317166,"58":0.012930911720968037,"59":0.02440176352284686,"60":0.05973599511824237,"61":0.23226610034176903,"62":-0.11264822565356643,"63":0.16394507800787725,"64":-0.1497985193930967,"65":-0.19332803004839172,"66":-0.01732938731878832,"67":-0.10377417139577626,"68":0.13377941485336556,"69":-0.03687405866887817,"70":-0.10734080506681978,"71":-0.008677589191373658,"72":-0.10641284812229104,"73":0.042265254960765566,"74":-0.018182956938543965,"75":-0.22208393246390593,"76":-0.13589866336402456,"77":-0.032535978749635756,"78":-0.15190491002306564,"79":0.04704946223757895,"80":-0.15901055269776396,"81":-0.33678532613382983,"82":-0.04655730685890101,"83":-0.05993274257240714,"84":-0.17781332659778798,"85":-0.1649773539147298,"86":-0.10810307010346157,"87":-0.09663089765027577,"88":-0.1909558128178304,"89":0.012545926642778505,"90":0.007065481350443943,"91":-0.06091003998716372,"92":-0.10622216121630142,"93":-0.26059791788036896,"94":-0.01379925550118651,"95":-0.0785908477193576,"96":0.02163060029338938,"97":0.05152318898154749,"98":-0.02880602054367196,"99":-0.08796797497137124,"100":-0.1711291547645871,"101":-0.005455817267981895,"102":-0.350795228351058,"103":0.012942499043470597,"104":-0.2956368621504585,"105":0.0616190536690778,"106":0.3169403147132202,"107":0.15976157593752158,