{"layers":[{"out_depth":1,"out_sx":28,"out_sy":28,"layer_type":"input"},{"sx":5,"sy":5,"stride":1,"in_depth":1,"out_depth":8,"out_sx":28,"out_sy":28,"layer_type":"conv","l1_decay_mul":0,"l2_decay_mul":1,"pad":2,"filters":[{"sx":5,"sy":5,"depth":1,"w":{"0":0.0749254147527078,"1":0.13334183412465594,"2":-0.47624082856710187,"3":0.019019973651112417,"4":-0.00860805269538263,"5":-0.16463713389092116,"6":-0.20484991785221812,"7":-0.4203702962258784,"8":0.287927353525286,"9":0.3079518089935782,"10":-0.5083142837669592,"11":-0.2567285509630971,"12":0.07843242761376983,"13":0.5063773887723929,"14":-0.019950046997266834,"15":0.10928079875608761,"16":0.5027079939675287,"17":0.7127554973085019,"18":0.40358961823638895,"19":-0.3197593502281579,"20":0.25361858449384733,"21":-0.06075699013584185,"22":-0.26234299612634093,"23":-0.5031936844345936,"24":-0.5321458074101378}},{"sx":5,"sy":5,"depth":1,"w":{"0":-0.6407113447994268,"1":-0.2195195566937633,"2":-0.009062867686960702,"3":0.6302475697233897,"4":0.26098980788562093,"5":-0.5658133198629521,"6":-0.6936804756139661,"7":-0.0429674431929028,"8":0.2419635282090228,"9":0.5434804794035178,"10":-0.2712553836722584,"11":-0.5642650252014508,"12":-0.7828872561937205,"13":0.03740522790467607,"14":0.010934501204992179,"15":0.05478624568620054,"16":-0.2961056691850423,"17":-0.6014943801640444,"18":-0.43193994348134035,"19":0.016281493354879845,"20":0.21735207433230216,"21":0.18030966028915069,"22":-0.20504305981869597,"23":-0.06478601548624531,"24":-0.040219316902554904}},{"sx":5,"sy":5,"depth":1,"w":{"0":-0.9807520467831584,"1":-0.3330278218176567,"2":-0.4144249041588535,"3":-0.29261662273362915,"4":0.16338673669935502,"5":-0.0482502634263386,"6":-0.5052657494169104,"7":-0.27980703592362594,"8":-0.39613180916759355,"9":-0.38869664669621173,"10":0.7401156510748479,"11":0.07800293621362947,"12":-0.21698839405308293,"13":-0.12683831345652719,"14":-0.4931526178637192,"15":0.2823675898292575,"16":0.599012099068993,"17":0.21536262451363042,"18":0.32043575103349253,"19":-0.16440363132181693,"20":0.0223242170101824,"21":-0.052244530315097557,"22":0.21016289856182224,"23":0.28091271603343493,"24":0.14631663059928274}},{"sx":5,"sy":5,"depth":1,"w":{"0":0.047711683635890824,"1":-0.056014833664802706,"2":-0.16054407368503118,"3":-0.34487028495359995,"4":-0.42151001388373527,"5":-0.009894783141844657,"6":-0.3002890180535602,"7":0.06759911163505912,"8":0.09722828829411562,"9":0.19549033846511754,"10":0.4827254499095063,"11":0.30547143701028406,"12":0.18963009231361172,"13":-0.035515225826920044,"14":0.23364975498778967,"15":0.008927447778857624,"16":0.27551877425827825,"17":0.04773183558128661,"18":0.06318955843375612,"19":-0.7812680255682216,"20":-0.5920491448604034,"21":-0.4858472451348796,"22":0.45758048291068276,"23":-0.04997727805412966,"24":0.1504920827477375}},{"sx":5,"sy":5,"depth":1,"w":{"0":0.3544888154562217,"1":0.3126177783364303,"2":-0.1491912361684811,"3":-0.25454841052568694,"4":-0.33635375991064864,"5":0.3842890680774218,"6":0.11783779681323242,"7":0.056615853553612684,"8":-0.3560879556118936,"9":-0.4966953203429936,"10":0.29955413712639284,"11":0.33822382570607085,"12":-0.3981657695387032,"13":-0.44000300708689843,"14":-0.26992082851047183,"15":0.34198725890652926,"16":0.05118636588065199,"17":-0.3463311875246384,"18":-0.20759209064138734,"19":0.07572018606659535,"20":-0.08515381558928645,"21":0.2052859946493823,"22":0.09453647956149842,"23":-0.32868044302721966,"24":0.25042873703270696}},{"sx":5,"sy":5,"depth":1,"w":{"0":0.0034771956557056094,"1":0.13816787486826426,"2":0.15331182125301243,"3":0.3736281533720801,"4":0.1734841263490684,"5":0.2695251518894146,"6":0.04689844741665056,"7":0.26589467467724565,"8":0.12267824480619913,"9":0.0374672352715061,"10":0.26485547274032356,"11":-0.06532334167429696,"12":0.04951103952294668,"13":0.009516913004738453,"14":0.2980473931658732,"15":-0.2924831051456921,"16":-0.16586230122222856,"17":-0.30024720456437615,"18":-0.1651510713663078,"19":-0.042391459620620464,"20":-0.1643032882321126,"21":-0.2831387698845168,"22":-0.3258500421061332,"23":-0.34112537027605844,"24":-0.20011109846931915}},{"sx":5,"sy":5,"depth":1,"w":{"0":0.19967986605722604,"1":-0.0713870953451294,"2":-0.2797197610430568,"3":-0.40922931520087147,"4":0.13618260454163328,"5":0.09385266194133567,"6":-0.3599422172912294,"7":-0.7483561926335063,"8":-0.07849618443884746,"9":0.0771790956761105,"10":-0.22568576912727842,"11":-0.8295079144922415,"12":-0.05759667042689621,"13":0.08926428226684353,"14":0.3600437957174919,"15":-0.700271949995679,"16":-0.22395869501945004,"17":0.1292278539079471,"18":0.11496993169648323,"19":0.17219616315648487,"20":-0.43003026285042834,"21":-0.27953146940867935,"22":-0.019835066102296333,"23":0.3811653779603776,"24":0.08818723287996347}},{"sx":5,"sy":5,"depth":1,"w":{"0":0.05463912525192483,"1":0.4380504748625062,"2":0.3371218068362796,"3":0.4242416455022562,"4":0.2752791559535391,"5":-0.5636510118286172,"6":0.4963940514117478,"7":0.4714153873711294,"8":0.27998949353912234,"9":-0.47091059417246206,"10":-0.7925289364477368,"11":-0.5392488304162681,"12":-0.26357999931047515,"13":-0.7934018230225724,"14":-0.83456901661887,"15":-0.6005526534063105,"16":-0.8913127086689427,"17":-0.9315765313433053,"18":-0.8517345229766067,"19":-0.15436624905143442,"20":-0.053763254739152715,"21":-0.2745985564860346,"22":-0.29963559068584866,"23":0.2865624500339734,"24":0.37021595436455407}}],"biases":{"sx":1,"sy":1,"depth":8,"w":{"0":-0.181361733009275,"1":-0.019453282213202337,"2":-0.017179084403664516,"3":-0.10457939140042675,"4":-0.0347348984070856,"5":0.04885657398785153,"6":-0.03152946002946322,"7":0.2095336014595398}}},{"out_depth":8,"out_sx":28,"out_sy":28,"layer_type":"relu"},{"sx":2,"sy":2,"stride":2,"in_depth":8,"out_depth":8,"out_sx":14,"out_sy":14,"layer_type":"pool","pad":0},{"sx":5,"sy":5,"stride":1,"in_depth":8,"out_depth":16,"out_sx":14,"out_sy":14,"layer_type":"conv","l1_decay_mul":0,"l2_decay_mul":1,"pad":2,"filters":[{"sx":5,"sy":5,"depth":8,"w":{"0":-0.0479887643077982,"1":0.14675149890076186,"2":-0.15924567103551251,"3":-0.16853744463684991,"4":0.05648318278315583,"5":0.029019804972569868,"6":0.1893184101532441,"7":-0.1492419401251685,"8":-0.22618129297612308,"9":0.11311207854524762,"10":-0.2622253587218582,"11":-0.010367576121436121,"12":0.031629584159070516,"13":0.1655495714363815,"14":-0.04057364208970982,"15":-0.2755151125527185,"16":-0.15984603563715413,"17":0.11392860512603356,"18":-0.19240838892855597,"19":-0.19627862495724177,"20":0.17943188886176223,"21":0.0008637289558713424,"22":-0.09466949154335448,"23":-0.139839219910172,"24":0.20900442732456176,"25":0.05416177044919837,"26":-0.10519879266027198,"27":0.007474089780308646,"28":-0.06972492518189018,"29":-0.046418757961230725,"30":0.014997975240829204,"31":-0.07962664738113685,"32":0.35610569694039107,"33":-0.27098582538675486,"34":0.007510686480182442,"35":-0.13263088611983057,"36":-0.46659870331267794,"37":0.05136334947261688,"38":0.06323786272285294,"39":-0.08937937431084514,"40":-0.07469223285494213,"41":0.261983062022943,"42":0.13212835083668828,"43":-0.0200346597637812,"44":0.059796963284546215,"45":-0.11609220236298694,"46":-0.0631249207961763,"47":-0.19357685543355807,"48":-0.35554938269597997,"49":0.142237740216889,"50":-0.1910606197130656,"51":-0.15994874810488655,"52":-0.1311090990216189,"53":-0.05131106681620055,"54":-0.013565763184618225,"55":-0.22298134302581843,"56":-0.21206657712433727,"57":0.20567402671946547,"58":-0.11343140157810609,"59":-0.18431440850334696,"60":-0.1937473513405362,"61":-0.04006009601081518,"62":-0.06259487214227746,"63":0.14998768805441953,"64":-0.053582205173936,"65":0.09829272386922898,"66":-0.16605622092468608,"67":0.03977585547683707,"68":-0.32374810389249264,"69":0.14545420520243418,"70":-0.1471330060723522,"71":0.1314455588268713,"72":0.11067182208454714,"73":0.19879889970938677,"74":-0.3409320864737038,"75":-0.12604669742247138,"76":-0.15186381768192833,"77":0.38091498345614533,"78":-0.006745720513331084,"79":0.03569816241334721,"80":-0.11720161628154688,"81":0.21373014558182235,"82":0.07479528435485999,"83":-0.1507717424498079,"84":-0.04930923864389181,"85":-0.13713803318640272,"86":0.055201789718955965,"87":-0.17479301429989316,"88":0.006163272027061918,"89":0.3477431910359058,"90":-0.0006939046486073431,"91":-0.04179728213155048,"92":-0.13073953231769084,"93":-0.1277232521564574,"94":-0.17247218924668478,"95":0.02677076379587859,"96":-0.16247240515006295,"97":0.10750311422504219,"98":-0.11621479798838762,"99":-0.13642687080198287,"100":-0.45007057600370426,"101":0.056060270170967395,"102":-0.3384228158581403,"103":0.30890114413786424,"104":-0.08579344915680504,"105":-0.1115180750190486,"106":-0.02898762755856618,"107":-0.23437774528046898,"108":-0.3135361274039768,"109":0.020777416307855314,"110":-0.19093911506092737,"111":0.44735860948685247,"112":0.08570856971070075,"113":0.22714204967024734,"114":-0.24632937469974972,"115":-0.2772383031262089,"116":-0.0767813354007611,"117":0.11616647626208347,"118":0.01567797302073345,"119":0.05858826413441303,"120":0.04204698481906374,"121":0.0510956506773667,"122":-0.03722058474833335,"123":-0.2984144712073335,"124":-0.08074444302790496,"125":-0.2868561851986565,"126":0.16676373607908418,"127":0.19305895186546643,"128":-0.04740595067866945,"129":-0.03702534957173858,"130":-0.23447763049505713,"131":-0.19727962281504038,"132":-0.2146429941444712,"133":-0.19160705537823233,"134":0.005994113674295828,"135":0.2778564253652066,"136":-0.012035599048727239,"137":-0.2933128676894434,"138":-0.06395412558525901,"139":-0.16078498264422275,"140":-0.2798922584025264,"141":-0.21604853132010568,"142":0.1507101912831255,"143":0.3550646678066009,"144":-0.04541463024523401,"145":-0.34263939492406625,"146":0.33337910789973085,"147":0.05956714094131068,"148":-0.4475817210935565,"149":-0.1829003166252062,"150":0.16038482076784547,"151":0.05412868220819426,"152":0.0815696650660119,"153":-0.3505742350966905,"154":0.3591110260098437,"155":-0.03192653983013797,"156":-0.2523377903251695,"157":-0.3303685205082828,"158":0.18505907582884218,"159":0.02754718833212822,"160":0.558900765562008,"161":-0.22170106476604576,"162":0.15383446742085155,"163":0.040842376810556046,"164":-0.1459515280684753,"165":-0.48288527756321004,"166":0.24201941526831985,"167":-0.32546290333602407,"168":0.4586026099135533,"169":-0.31932580556014756,"170":-0.019608789460014573,"171":-0.0744185167472921,"172":-0.08006340955157686,"173":-0.23614533345300093,"174":0.08241821615689443,"175":-0.31260439433220144,"176":0.22518035615405035,"177":0.04412884565445108,"178":-0.0047500872430984754,"179":0.11316533847246972,"180":-0.029571738475856257,"181":0.08321675810562645,"182":-0.03743255380979672,"183":-0.26127262385283917,"184":0.0781573374972056,"185":0.23654606617305002,"186":-0.00934715697843789,"187":0.15346494029695074,"188":-0.10940494930553143,"189":0.2741932640816625,"190":0.2126271726711026,"191":-0.21778554196775407,"192":0.12335911410071668,"193":0.034390025227248634,"194":0.12498340526778397,"195":0.2544194380702839,"196":-0.1332851286566272,"197":0.14650955817104167,"198":0.031628183846224185,"199":-0.09297385327113593}},{"sx":5,"sy":5,"depth":8,"w":{"0":-0.1542982743735679,"1":0.24287646311422365,"2":-0.12567365992224555,"3":-0.14618552718570174,"4":0.12333762025278247,"5":0.05174963717732921,"6":0.04685475483856574,"7":0.2874877856698297,"8":-0.1201908128070917,"9":0.05285126623204302,"10":-0.17254217203501168,"11":-0.18349691150049663,"12":0.03854042879404079,"13":0.10686193545005825,"14":-0.08715266768362939,"15":0.40227774675993094,"16":0.018686017359803513,"17":0.2279020009347406,"18":-0.3089027016085879,"19":-0.2911488659248304,"20":0.005612075232100102,"21":0.041851654763056245,"22":0.13774406178931758,"23":0.31577748097654107,"24":0.011686485103372696,"25":0.08436235567502941,"26":-0.36054013010774366,"27":-0.022654537641494006,"28":0.0985082008312431,"29":0.17367989217380186,"30":0.1610242669029959,"31":0.1582426638048542,"32":0.2204694970512691,"33":0.19134942499715366,"34":-0.39819974159546934,"35":0.03686840874687718,"36":0.09591477546789773,"37":0.11147245985149012,"38":0.35362750210150323,"39":0.16618227555553552,"40":0.08760192995439957,"41":-0.06452250979865021,"42":-0.11668961326699688,"43":-0.4066850096574,"44":-0.18258654489298218,"45":-0.3426354204065379,"46":-0.015967382321371834,"47":-0.03840410058453775,"48":-0.0483221858621914,"49":-0.13722054066874345,"50":-0.011900923803501818,"51":-0.45890963375479615,"52":-0.36848897391840735,"53":-0.3897966628194306,"54":-0.206599763570618,"55":0.10544283499594208,"56":0.041358830290585444,"57":0.13088100342315784,"58":0.10727512069017468,"59":-0.2988666926291685,"60":-0.4926626574822573,"61":-0.01752343340818999,"62":-0.25688860036302585,"63":0.1759386645785106,"64":0.05328484994972191,"65":-0.03028340367961555,"66":0.16565255197043788,"67":-0.22191322490718252,"68":-0.4607756488799101,"69":-0.031792507391493405,"70":-0.5783458340215623,"71":0.12165012683368046,"72":-0.27525808254452777,"73":-0.03930082935589865,"74":-0.22111576590082269,"75":-0.26673487849573413,"76":-0.1703025070169086,"77":0.023846939096214714,"78":-0.4401281154739391,"79":0.03729070154505416,"80":0.25125345415289,"81":-0.3564264749656256,"82":-0.0834704561053466,"83":-0.41560714165480117,"84":-0.40600839261592137,"85":-0.4081447002223426,"86":0.27574944822304676,"87":0.0626240349550578,"88":0.13987792022744033,"89":-0.49749974641455347,"90":-0.008460449045593262,"91":-0.10896419156621447,"92":-0.376355137540816,"93":-0.3055595402738496,"94":0.1916317046117145,"95":0.07374768003044138,"96":0.037337917692877566,"97":-0.41425808366033245,"98":0.05870059768514195,"99":-0.21843664791065984,"100":-0.19923626989680066,"101":-0.45145055077637186,"102":-0.14818649799043626,"103":-0.007007081805661931,"104":-0.1314648536823047,"105":-0.4948100945110711,"106":0.2681902387939486,"107":0.03109100762685354,"108":0.011663455666405904,"109":-0.44638363418628063,"110":-0.06766617052578454,"111":0.07104114366713296,"112":-0.2790379283667076,"113":-0.5673586945257303,"114":0.39096360597992497,"115":-0.17114117350815866,"116":-0.24242651731122591,"117":-0.5976697561575869,"118":-0.029344505072061763,"119":0.35051110913454586,"120":0.3840231670811541,"121":-0.40080383788648494,"122":-0.002611109582295568,"123":0.06293461750847693,"124":-0.13366244751107742,"125":-0.14876323438814226,"126":0.1420457797837734,"127":-0.06715208858195826,"128":-0.05047155110205917,"129":-0.2600266944287781,"130":-0.07529013561506724,"131":0.2800975802043303,"132":-0.14112518455486087,"133":-0.0016475684438541551,"134":0.021949920320968055,"135":0.2392458833491589,"136":-0.13211083047685201,"137":-0.02173408324595941,"138":0.1543885592682965,"139":0.08521169776999028,"140":-0.002846039667767794,"141":-0.12410676806926306,"142":-0.2364129900999947,"143":-0.07114967330857876,"144":-0.2241608609623459,"145":-0.07576535974044671,"146":0.10233635921446156,"147":-0.06805036360007691,"148":0.14400167372654607,"149":-0.06228953647876277,"150":-0.2097283816888093,"151":-0.12134963313077293,"152":-0.12625561317237008,"153":-0.04638811918701271,"154":0.1951586635487517,"155":-0.028204632084965073,"156":-0.13735515769775505,"157":-0.11376221436546723,"158":0.06495420362036908,"159":-0.19014812352039942,"160":0.07365319796404028,"161":-0.21371809783083626,"162":0.006449660794797717,"163":0.11552798574728151,"164":0.007344666919245908,"165":0.13262903921960809,"166":-0.09750090421001739,"167":-0.2545291173132458,"168":0.09673425940935372,"169":0.15909603001949219,"170":-0.05060379573577926,"171":0.1329905095355989,"172":0.007297137017470675,"173":0.22212860981640822,"174":-0.1977884059901821,"175":-0.33046808289532054,"176":0.01688291371638657,"177":0.16577833490870122,"178":0.042531465749359856,"179":0.17902557650156364,"180":-0.13192331005364716,"181":0.20044111450233415,"182":-0.21405538675605884,"183":-0.22130683602456677,"184":-0.1825723065060258,"185":0.337967572626848,"186":0.2603989385431634,"187":0.28926541299559383,"188":-0.05946405229109419,"189":0.16341774825145963,"190":-0.21736894463838644,"191":-0.0642336913764436,"192":0.06929129083029449,"193":0.5242659523461126,"194":0.2832442160188508,"195":0.28638467045297245,"196":-0.09569793358882088,"197":0.046284046311700924,"198":-0.07063539437013826,"199":-0.08095870499589997}},{"sx":5,"sy":5,"depth":8,"w":{"0":0.28379928985338265,"1":0.08313926807044404,"2":0.1988750963379214,"3":-0.015354053349663055,"4":0.3653347299747609,"5":0.1698741775867513,"6":0.15829511722757195,"7":0.07462282652664039,"8":0.14743524660770446,"9":-0.21235886322671987,"10":-0.1701679297345845,"11":0.17709657228747155,"12":0.4164084834958361,"13":-0.038239395027801215,"14":0.3256151293983262,"15":-0.19719227260386227,"16":0.3795045861302134,"17":-0.28439437019892383,"18":-0.22821983826176823,"19":0.3262793281450702,"20":0.09285472606611682,"21":-0.3446625797643092,"22":0.36125829207288696,"23":-0.16236734388292018,"24":0.27429490664941103,"25":-0.38767367724104146,"26":-0.44114980120908587,"27":-0.0800858169610613,"28":-0.37162428896431604,"29":0.0009315424891131819,"30":-0.002006035956770824,"31":-0.06119609426091436,"32":0.24214177382076515,"33":-0.0695214189512903,"34":-0.19178125045559707,"35":0.1436671695606086,"36":0.047853260813726275,"37":-0.02431000151347087,"38":-0.0866752892693481,"39":-0.07752630759192392,"40":-0.05899624727787499,"41":0.27173084669370906,"42":-0.18249185499972756,"43":0.16627771856050794,"44":0.1537137543743064,"45":0.09419017202564627,"46":-0.000885671986163935,"47":-0.23973839079324166,"48":0.13314944675855742,"49":0.414603468330431,"50":-0.1795330432677775,"51":0.00013995070843248782,"52":-0.07413859685997178,"53":0.02431857803985659,"54":0.14702100003424345,"55":-0.08556533411901207,"56":-0.2542654156420691,"57":-0.07122960054690797,"58":-0.24471612512941734,"59":-0.2179231210065085,"60":-0.049265533878491675,"61":0.060112760276910496,"62":0.27047538499045065,"63":-0.14658641520140428,"64":-0.04168030146815192,"65":-0.05319237685845412,"66":-0.3581652649535288,"67":0.0852147940016314,"68":-0.23343489939604614,"69":0.16032835964792205,"70":0.08280754268291521,"71":-0.067075328881012,"72":0.013197110925774342,"73":-0.09754898440162914,"74":-0.20539238758653566,"75":0.46636987753054826,"76":-0.08789728560257368,"77":0.0542220723298845,"78":-0.20763376621140622,"79":-0.07718273237092171,"80":-0.02459109637509651,"81":0.29907684482777674,"82":0.14260236591523723,"83":0.020991961674874063,"84":-0.2831680948938915,"85":0.1241499278625626,"86":-0.1624695936272219,"87":-0.3036358103951096,"88":0.15186654139973996,"89":0.3048707159691634,"90":0.051866201169624926,"91":-0.0299739345869247,"92":-0.24245042308156492,"93":0.1699465235120449,"94":-0.18624712068618723,"95":-0.1165376304442156,"96":-0.11959988879817755,"97":0.2958706605704427,"98":0.08410612012888201,"99":-0.09586047016038991,"100":-0.5202924897021267,"101":0.24918515692830986,"102":-0.17961158646442457,"103":-0.16906488655907675,"104":-0.2848220818566167,"105":0.09388223921602462,"106":0.19769671146913415,"107":0.304384597542169,"108":-0.3882489711715989,"109":0.21848762715650286,"110":-0.40345331500825576,"111":-0.0023090544734848647,"112":-0.22428304679783645,"113":0.11392178504102106,"114":0.12147959645187363,"115":0.37385585462367876,"116":-0.20441100216440067,"117":0.10736736286752595,"118":-0.670138771406199,"119":0.030457392882890257,"120":-0.08224562700925832,"121":0.005226701110061521,"122":0.4493013490659595,"123":0.2648248569675626,"124":-0.26122576412536336,"125":-0.02799994560371582,"126":-0.06054697731172215,"127":0.12276640095950263,"128":-0.12257885615129988,"129":-0.11309802033770838,"130":0.2544361282948672,"131":0.0551228433159189,"132":-0.27145591662807417,"133":0.09389519635141945,"134":-0.16514642523999634,"135":0.2476670799541944,"136":0.012208108457664143,"137":0.2898375059172335,"138":0.021668097354826218,"139":0.013090164733720586,"140":-0.45427362842743857,"141":0.2124003480306489,"142":-0.22408322565708638,"143":0.18835518530816564,"144":0.01750813280331675,"145":0.017048342163194216,"146":-0.15673681758522284,"147":-0.08317546036336144,"148":-0.6575209933780847,"149":0.274599722269551,"150":-0.1866732772680918,"151":-0.08094866537644453,"152":0.18939846636657545,"153":-0.03282234551241678,"154":-0.13948203576767343,"155":0.14571948323504832,"156":-0.21090887445268025,"157":0.07031772715800268,"158":-0.24904063023209388,"159":-0.24475101549669204,"160":-0.1073912207010426,"161":-0.005270245495627819,"162":0.4277402024043413,"163":0.0012976626209668858,"164":0.07405918921138831,"165":-0.2529818127625595,"166":0.08638826825663605,"167":0.1500412536898987,"168":0.14967921931796824,"169":-0.3562708645305038,"170":0.21472964961736732,"171":0.15563343359723267,"172":0.016491571272545743,"173":-0.4762296534444727,"174":0.10101956645553746,"175":0.18992201659464736,"176":0.23486791081173852,"177":-0.3112021473157497,"178":0.1391147873062799,"179":-0.1423764240404832,"180":-0.13140484582395448,"181":-0.23603308023928307,"182":0.12612342383051017,"183":0.272952348916562,"184":0.24759567953110706,"185":-0.20861851471208398,"186":-0.07772446550665561,"187":-0.3758583691341801,"188":-0.009598939136536627,"189":0.13987399565852043,"190":0.23136809648192508,"191":0.01498705843489771,"192":0.06432422751169548,"193":-0.21924289949869505,"194":-0.0477855505718964,"195":-0.04151680149358592,"196":-0.0289858456049939,"197":0.08203254691323862,"198":-0.08817364690203151,"199":-0.3735190866191119}},{"sx":5,"sy":5,"depth":8,"w":{"0":-0.06181976833608693,"1":-0.12438279375078112,"2":-0.15928604358485499,"3":-0.11646840922658043,"4":-0.19094806420746974,"5":-0.14310492388237622,"6":0.16590122047527273,"7":-0.042081239621234265,"8":0.30304408115646964,"9":0.005288491801610653,"10":-0.23686388953810208,"11":-0.321987692858456,"12":0.029244747823280844,"13":-0.2773209505315171,"14":0.3878073413562627,"15":-0.10049113217064914,"16":0.16011433432947195,"17":-0.2156282930851768,"18":0.22915273406214692,"19":0.02873414467998882,"20":0.03414558677903074,"21":-0.11456910890692393,"22":0.051272463321547855,"23":0.027807445140297298,"24":-0.1629540796982259,"25":-0.12819621381679194,"26":0.43862574343653526,"27":0.12956407607524784,"28":0.12762366906157385,"29":-0.00771775162525933,"30":-0.20719673223923463,"31":0.12193282371621679,"32":-0.10089236355901285,"33":0.008884251132559048,"34":0.36764406820042156,"35":0.012115616340298962,"36":-0.31463863693309396,"37":0.0024095618835593044,"38":-0.04485037498867221,"39":-0.031926722096812764,"40":0.23217292393368852,"41":0.05046408673615935,"42":-0.11769560265283892,"43":-0.2504693799015824,"44":-0.3196928822738016,"45":-0.26864385820748166,"46":0.33507195406332757,"47":-0.06518053261043119,"48":0.2298556276288949,"49":-0.011012250529016773,"50":-0.2061118314188921,"51":-0.11168200381688044,"52":-0.029856062094272322,"53":0.12334550493505034,"54":0.03919290090826502,"55":0.003431992007799871,"56":0.027317016636107555,"57":-0.13066929884491063,"58":-0.24987154812018753,"59":-0.006388180960806691,"60":0.24603208265885315,"61":0.05257573304072231,"62":-0.3426009392257338,"63":0.10284630939267884,"64":-0.20479930176399805,"65":-0.12664754449366247,"66":-0.08954059548977972,"67":0.14245798649591496,"68":-0.11582130074150315,"69":0.04754685558375989,"70":-0.18944128878001046,"71":0.15280952842536727,"72":-0.14385325094252435,"73":-0.03273173478503006,"74":0.10304816006380686,"75":-0.017474831227559617,"76":-0.26971244070901246,"77":0.0488584286105742,"78":0.017006993477753418,"79":-0.15996004365411828,"80":0.4220367712709529,"81":0.12353125944796658,"82":-0.12293028555142539,"83":0.06338413936420062,"84":-0.15246456011048148,"85":-0.02954396033761883,"86":0.008026971203627692,"87":0.13254885622287937,"88":0.08310648454958089,"89":-0.050977493944713265,"90":-0.17683177843342013,"91":-0.2462447836339683,"92":0.15599275208817065,"93":0.045116459456524455,"94":-0.29440539775985236,"95":-0.025710380269036055,"96":-0.2583068410717478,"97":-0.09783049156515522,"98":-0.5384270586935378,"99":-0.3439584659199299,"100":0.11953349337143128,"101":-0.13693166157781955,"102":-0.16472650616847934,"103":0.06633748734609252,"104":0.0845152270769046,"105":0.012672752973674085,"106":-0.37149695361829793,"107":-0.1995402041639226,"108":-0.12238620111927641,"109":-0.1615670169329712,"110":0.14583325683196974,"111":-0.23331761767989168,"112":0.15258818455573697,"113":0.24762157922836267,"114":-0.03587195487309232,"115":-0.10313367828028179,"116":0.06445446171511393,"117":-0.20364708451966756,"118":0.29337260764906503,"119":-0.16303912272689103,"120":0.02258550880447983,"121":0.024272840796966667,"122":-0.3224015722196927,"123":-0.2525722080468542,"124":-0.11019796372293737,"125":0.12185500839117429,"126":-0.27853542718299906,"127":0.7480639832688809,"128":-0.0794652730815905,"129":-0.4366500386037646,"130":-0.27451753621493524,"131":-0.1866530403874035,"132":0.06654647700673877,"133":-0.11771719358194692,"134":0.02736154787330368,"135":-0.11173913202446907,"136":-0.06463242976880544,"137":-0.25034980214287517,"138":-0.050079926921397476,"139":-0.3707572131617433,"140":-0.08312444568199275,"141":-0.4741260618130664,"142":-0.05341150033068255,"143":-0.5316720280906623,"144":0.13230594971920284,"145":0.3367697870680303,"146":0.2158345621113772,"147":-0.32605688741627925,"148":-0.26542573434580785,"149":-0.06471993090164166,"150":0.13757175387726428,"151":-0.219787744230725,"152":-0.01350281558604311,"153":0.4959172938558195,"154":-0.10870894472279644,"155":0.13164882411794307,"156":-0.09014590843150663,"157":0.11098054936304555,"158":-0.20356998267808635,"159":0.4288628946981565,"160":0.26275431508409486,"161":-0.39513373216528414,"162":0.05354252881994704,"163":-0.1945127181682748,"164":-0.13365844802269472,"165":-0.5372081187123179,"166":-0.07216939208755238,"167":0.4392044613518283,"168":0.15956460465075084,"169":-0.4318614750175427,"170":-0.1387216413801433,"171":-0.22435530018560057,"172":-0.2621339386370964,"173":-0.4458305211439631,"174":0.07053967042534964,"175":0.029308507896904794,"176":-0.07946376511349537,"177":-0.04306951111758027,"178":0.07942098754870891,"179":0.01007625995871632,"180":-0.3006768753452234,"181":-0.3534396642041413,"182":-0.06542391690788203,"183":0.0633513439070709,"184":-0.11144479100208363,"185":0.26647365433393444,"186":0.3683723594153342,"187":0.13998090792961942,"188":-0.2005067611916561,"189":-0.22073371858752053,"190":-0.2594498464627292,"191":0.37052970304917576,"192":-0.020040154021389433,"193":-0.17548048487386908,"194":0.3356211617822073,"195":0.19505513716180867,"196":-0.1588019040677938,"197":-0.22563191996471268,"198":-0.12430609348521998,"199":0.30033774668497865}},{"sx":5,"sy":5,"depth":8,"w":{"0":-0.18476766057329,"1":0.003384466591124042,"2":0.05306392356822076,"3":0.3126711691301432,"4":0.11927811053100304,"5":0.15448638481398025,"6":-0.4632204159317908,"7":-0.4229490231233288,"8":-0.249725608247954,"9":0.06405451757494413,"10":0.07694490143553567,"11":0.04423184558541799,"12":0.2510462983230117,"13":-0.0691031277259964,"14":-0.45758351425059957,"15":-0.20038778438578142,"16":-0.09032567174085765,"17":-0.029886922896892442,"18":0.06047549233168886,"19":-0.07633895418800668,"20":0.053793430139409765,"21":-0.044915217242798074,"22":-0.17869889950963563,"23":-0.21746897756870792,"24":0.11612453673055877,"25":0.12405333861230297,"26":-0.07940763104735916,"27":-0.06704880638854663,"28":-0.13796934760420065,"29":-0.1643172485516612,"30":0.06053662666113095,"31":0.04556334392625374,"32":0.07464379652785112,"33":0.02125791353816231,"34":0.009448415804336651,"35":0.028972747995344127,"36":0.07280776404072875,"37":-0.0027906168772683466,"38":0.00019071908908622798,"39":-0.18764110365586853,"40":0.026492902384886857,"41":0.07363310052671776,"42":0.1647590967528623,"43":0.08756685840179695,"44":-0.15807509474601067,"45":0.13274181808656751,"46":-0.5255080466561348,"47":-0.1383782163750705,"48":-0.026062181017679605,"49":0.26520592176852814,"50":0.10714451523228903,"51":0.23087512851930644,"52":-0.062408566498397613,"53":0.007594891473201666,"54":-0.32815045221420963,"55":-0.06867026600543319,"56":0.1408481884486744,"57":-0.16632725515481922,"58":0.16581683417825643,"59":0.08012906586010983,"60":-0.04471626272463752,"61":0.027427466716372095,"62":-0.2531127985401094,"63":0.04824149314083683,"64":0.25470656068550057,"65":0.02555534910328704,"66":-0.041414950798568335,"67":-0.014689587711048339,"68":0.10819764508843255,"69":0.14716542795702786,"70":0.08712066647732217,"71":0.10983741894920587,"72":0.19668352124609642,"73":-0.22755059882149478,"74":0.17760904483309017,"75":-0.04841593906440432,"76":0.43714267186529665,"77":0.14917570246817444,"78":0.09248600496013873,"79":0.1755975780331725,"80":0.054761175060231204,"81":0.05486259894264729,"82":0.16403266670609945,"83":0.17843422370344483,"84":-0.22209714790848775,"85":0.3787091233005134,"86":-0.31261269621993937,"87":0.05811893992519386,"88":0.09101348819599399,"89":0.14065459326439841,"90":0.25924630550572375,"91":0.17330957315666265,"92":-0.16777961083671245,"93":0.2870695582466475,"94":-0.4950848102992162,"95":0.00800445271756237,"96":0.06624598738539986,"97":0.14876692340777775,"98":0.3737190372002862,"99":0.22796459022095023,"100":-0.053655196628041704,"101":0.18721441835631877,"102":-0.43094818532447965,"103":-0.13541292923616854,"104":0.12588416223219878,"105":0.18655046394792185,"106":-0.005516565936422669,"107":-0.07541540615385067,"108":0.2077886481213729,"109":0.19871803495124196,"110":-0.16260898695296658,"111":-0.06353621221095812,"112":-0.06875370029714982,"113":-0.1447043318641083,"114":0.0006591273104257101,"115":-0.15636532728053212,"116":0.3170015214112826,"117":0.03970836001110026,"118":-0.251698180837788,"119":0.17057416827057795,"120":-0.08332084904808114,"121":-0.10530349531976706,"122":-0.15043114017338294,"123":0.044138616109077024,"124":0.1327914967783574,"125":0.07638616749992197,"126":-0.1642167395182435,"127":-0.07778053317037743,"128":0.036854211831581433,"129":0.009322887427087633,"130":-0.21544959341964512,"131":-0.07034808686104468,"132":-0.09565087804072064,"133":0.02687008690384103,"134":0.0436225152789016,"135":0.12277231583008992,"136":-0.21842585899883118,"137":-0.2489306850761585,"138":-0.18977287541852073,"139":0.018181396302537737,"140":-0.05493220077260934,"141":0.030771421494806758,"142":-0.13603166418498785,"143":0.01969377094240626,"144":-0.08649504433463295,"145":-0.17881518341067332,"146":0.019062998104034178,"147":-0.06478521332106522,"148":0.19025063532558048,"149":0.055348702548819705,"150":-0.09073468064332378,"151":0.07792450674547981,"152":0.09599679817139574,"153":-0.57684655405458,"154":-0.11684418408100086,"155":-0.10285361603456021,"156":0.06395894730546026,"157":-0.297646283545747,"158":0.007361898264285551,"159":-0.076780152273307,"160":-0.00741787281711094,"161":-0.1381193786524349,"162":-0.31058632668859276,"163":0.2311688226200429,"164":-0.10384645888531166,"165":-0.4564947173198843,"166":0.13324938236802952,"167":0.047869969551995545,"168":0.05457425065141474,"169":-0.23003648513067879,"170":-0.014911382155635436,"171":-0.01652263457537529,"172":0.01240902513744801,"173":-0.33208842807058975,"174":0.14315284405752113,"175":-0.019761060862963704,"176":-0.12618790406112426,"177":-0.35889670412180924,"178":-0.09334600572583725,"179":-0.12023643390701595,"180":-0.002659565164583693,"181":-0.16715598665732362,"182":0.20986369851523515,"183":-0.3113997740034492,"184":-0.022391512411476713,"185":-0.3089882683348589,"186":-0.07333429988111152,"187":0.017877060036468096,"188":0.16896505555526262,"189":-0.24893602026318634,"190":0.14879467889367892,"191":-0.3982161010401324,"192":0.011363765422525995,"193":-0.22265234961329122,"194":-0.09275169392557907,"195":-0.26911658962864976,"196":0.1721012616376418,"197":-0.25771010802282673,"198":0.10477602067251758,"199":-0.20487125948227608}},{"sx":5,"sy":5,"depth":8,"w":{"0":-0.3739533434356806,"1":0.41667570155457145,"2":0.07007988007527524,"3":0.4059726777058629,"4":-0.16373562642792086,"5":0.42074862318082307,"6":-0.16398622602653093,"7":-0.16312698708454787,"8":-0.5183275074536664,"9":0.14633400689118314,"10":0.2258017700081423,"11":0.3954190295964417,"12":0.18541129642704737,"13":0.029963077754597785,"14":-0.298015465768673,"15":0.054822483198633434,"16":-0.5079695642392226,"17":0.03915845809288884,"18":0.198179567174122,"19":0.014150512332808271,"20":0.26862960585887025,"21":-0.39537309870839726,"22":-0.08697596880841547,"23":0.11254369031271011,"24":-0.14441316691805064,"25":0.05016854336959491,"26":-0.0033793835594350887,"27":-0.12381666882854138,"28":-0.18507314437151398,"29":-0.39135142047351507,"30":0.2479145767790203,"31":0.22266540388715889,"32":-0.22492026774344995,"33":0.10117731535859324,"34":-0.29625853715899303,"35":-0.0007494830173887857,"36":-0.4245622868377825,"37":-0.12759418099956762,"38":0.41637997266082066,"39":-0.1108387370243202,"40":0.4353703770323254,"41":0.2111625307712882,"42":-0.5515277599477716,"43":-0.027115238558103386,"44":-0.26756382795161593,"45":-0.025104545244208125,"46":0.08866021306521556,"47":-0.08262284626938758,"48":0.15781869077331986,"49":0.159454997158033,"50":0.023489331568329823,"51":-0.044499084008783024,"52":-0.00007850511296272325,"53":-0.18721278817830025,"54":0.15951904701720818,"55":-0.539165007541877,"56":-0.27211388638638023,"57":-0.011339625792900621,"58":0.2660930719563248,"59":-0.015217915284295547,"60":0.21511798877496185,"61":-0.1250919047992953,"62":-0.04413657681381458,"63":-0.3924945217733021,"64":0.13097550409108552,"65":-0.15981078247581917,"66":-0.04418253580438203,"67":0.11530554132295524,"68":-0.1396112340456357,"69":-0.17302045298945962,"70":0.05856833126486765,"71":-0.187684491042442,"72":0.12413857947063847,"73":-0.019696678048755016,"74":-0.3916152763444445,"75":-0.310335692098719,"76":-0.31877506052070875,"77":-0.03816589600229008,"78":0.16823078602505448,"79":-0.3893722608992466,"80":0.8348482854704228,"81":-0.3603537919689953,"82":0.07440104540352112,"83":-0.215339520074539,"84":-0.0672089733815992,"85":-0.05994854256803087,"86":0.10695691814747027,"87":-0.4033380138060294,"88":0.5212540509474991,"89":0.0468439218965923,"90":0.10475086376966018,"91":-0.13992329264170142,"92":0.12724694416723434,"93":0.1010667528225354,"94":0.057928325782274956,"95":-0.20116007775326952,"96":0.06793742825683825,"97":-0.006676627019663572,"98":-0.13009039564847766,"99":-0.08842370757735743,"100":0.039438044672318706,"101":0.0950708076972098,"102":0.07531021797554295,"103":-0.18918472367499703,"104":0.022601085321107488,"105":-0.27960407815986943,"106":0.026547983667325237,"107":0.06233310711798603,"108":-0.172402254194875,"109":0.11343111819199543,"110":-0.17866069554703756,"111":0.0018189895263603954,"112":0.37911061911814947,"113":0.041351537070592845,"114":-0.19891082579694855,"115":-0.21081699269016624,"116":-0.21367878706316765,"117":0.26815748410381623,"118":0.1353913475974079,"119":-0.23844885956594095,"120":0.13475973866792865,"121":-0.4890623316930595,"122":0.1112463495333829,"123":0.09376975210182846,"124":0.1543715127374481,"125":0.19714994429655078,"126":-0.19913975844739146,"127":0.0728716853437165,"128":-0.02260588508034294,"129":-0.12888761740191557,"130":0.08888060665518172,"131":0.06485485084108178,"132":-0.04264816679028808,"133":0.01416910325574591,"134":-0.036705433595035176,"135":0.22694134296317026,"136":-0.013699618157415543,"137":-0.1941171482090155,"138":0.21272350508384102,"139":0.0019087939592186197,"140":-0.0791620590856354,"141":-0.1494631158011239,"142":-0.00740082740255079,"143":0.03843858715195955,"144":0.17299437262353015,"145":-0.15552199251234933,"146":0.12276159374371337,"147":-0.04945536175460313,"148":-0.20237743518254922,"149":-0.0415474922949208,"150":0.06882542552915318,"151":-0.08532923964451211,"152":0.22328129608704678,"153":0.11979696080389315,"154":0.03709136438596248,"155":0.057054374508290456,"156":-0.06278195047336729,"157":0.0004359363749131748,"158":0.10346289691499666,"159":-0.048724199708074886,"160":-0.46954843690664505,"161":-0.09388105458135416,"162":0.017160836753209743,"163":-0.008703574824180485,"164":0.029498515425131856,"165":-0.1717969169293352,"166":-0.3653618033708521,"167":-0.03579940597000286,"168":-0.18012355199075905,"169":-0.13178606539497284,"170":0.11966821321110133,"171":-0.05851643115931894,"172":-0.44835047809023826,"173":-0.32695340933802935,"174":-0.09991707972479344,"175":0.2324015194253785,"176":-0.08950314055756238,"177":-0.21693271371429412,"178":0.2588654852879041,"179":-0.03380012404781365,"180":-0.1691473599002065,"181":-0.18406756726232756,"182":0.031028679575712058,"183":-0.0611312708570051,"184":-0.06095471754867755,"185":0.09266744492248635,"186":0.15418769392975099,"187":0.019655756452888626,"188":-0.10236984498156787,"189":-0.09240761446201781,"190":0.13276539114254027,"191":-0.004874909857458786,"192":0.11818361320484697,"193":0.07425196053944123,"194":0.0544217721763655,"195":0.014839326306271657,"196":0.045375552541876155,"197":-0.06347044406712073,"198":0.2922310610238978,"199":0.22804266373891913}},{"sx":5,"sy":5,"depth":8,"w":{"0":-0.061683275124022816,"1":-0.017186353826621693,"2":-0.009498070290725958,"3":-0.24044879989658646,"4":-0.08818530078832676,"5":-0.49810608656576816,"6":0.08571067444681511,"7":-0.17024976045475465,"8":0.08562826630136211,"9":0.17802840857377358,"10":0.26166648686506294,"11":-0.24206313968878865,"12":-0.24249806956474432,"13":-0.26514275409349425,"14":0.2487403350672346,"15":-0.19432333207728145,"16":-0.09000397607327267,"17":-0.0011522487785654264,"18":0.32093056122465974,"19":0.08134286732230547,"20":-0.33247675598680926,"21":-0.033146745644171347,"22":-0.0901674845774278,"23":0.07491747364449787,"24":-0.3955459699489156,"25":0.05442771541150573,"26":0.03215707059687521,"27":-0.012997560024253545,"28":-0.18273055844125016,"29":-0.08130418332932463,"30":0.043702519411072116,"31":-0.321127621407478,"32":-0.13966077326120063,"33":-0.20685834605194944,"34":-0.22615669406577274,"35":0.24976834820442356,"36":0.18815346198538008,"37":-0.2110270580321004,"38":0.18377970949918965,"39":-0.45763301972013076,"40":-0.28926457912996106,"41":-0.22921192861497708,"42":0.0003296259073957337,"43":-0.18988407043080469,"44":-0.37950914891101484,"45":-0.38249154480035,"46":0.1508108897329417,"47":-0.016184834074171452,"48":-0.07945285489330155,"49":-0.08211232769519325,"50":0.1895161802759767,"51":-0.012579677534066143,"52":-0.10801285174256993,"53":-0.14799732503423996,"54":0.05255052754926401,"55":-0.042068507747154746,"56":-0.0906694641730365,"57":-0.051141366450823,"58":0.04931525730275995,"59":-0.13274444906677682,"60":-0.009190226428174934,"61":0.12753124737144875,"62":-0.02326242193043248,"63":-0.21074090012535895,"64":-0.055429736845318794,"65":0.19853444854263164,"66":-0.17023135042283616,"67":-0.0991441170991608,"68":0.04128749083961803,"69":0.22877864517727606,"70":0.15284548742969248,"71":-0.3898030964628948,"72":-0.019532927926388225,"73":0.19354906575116712,"74":-0.44569871513755793,"75":-0.1104191027420117,"76":-0.034899655001733185,"77":0.15812069000789278,"78":0.09648585794287907,"79":-0.46033492650011354,"80":-0.09782935258597099,"81":-0.14371900075482422,"82":0.05145912621148962,"83":0.053245459411186045,"84":-0.09732123430250939,"85":0.15429570923622798,"86":0.10885780331054468,"87":-0.1328396187052815,"88":-0.0008331457542582099,"89":0.0815082836835802,"90":0.013003465627431147,"91":0.267059146832942,"92":0.04267181192648468,"93":0.23813144210177695,"94":-0.11261731295215456,"95":-0.06162078375355815,"96":-0.04902117204897909,"97":-0.014113675661885027,"98":0.03622990224978077,"99":0.10390014379891795,"100":0.17189673381417836,"101":0.16069995310378005,"102":-0.17407633764843886,"103":0.01736107859073182,"104":-0.007785235763373342,"105":0.12489598035251935,"106":-0.15385439178792878,"107":-0.01745327393366167,"108":0.08565615736452446,"109":0.22544021749033213,"110":0.0880652909757291,"111":0.012374643385821575,"112":-0.1278426522570514,"113":0.24005218179607732,"114":-0.1494032456025381,"115":-0.2232656200522246,"116":-0.23610374185439623,"117":0.3440379715896991,"118":0.0988293132005369,"119":-0.20822544133930385,"120":-0.14309214358176042,"121":0.014356684458198243,"122":-0.3146381185949075,"123":-0.1195649825566815,"124":0.2810369180999765,"125":0.22067083408880567,"126":-0.17908489103323386,"127":-0.09162310017680515,"128":-0.19970195061960583,"129":-0.2644460288029917,"130":-0.24856457011092797,"131":-0.11005805889244599,"132":0.1055088213139525,"133":0.23152763286902367,"134":-0.1899133472570196,"135":-0.049741879200087366,"136":-0.19319386394317023,"137":-0.2250091655569829,"138":-0.20499365880622014,"139":-0.035935098284388484,"140":-0.05368667760384412,"141":0.08764326294866027,"142":-0.287651704690745,"143":0.12450261823664337,"144":-0.3049690727950113,"145":-0.23696372537433524,"146":-0.20631495955867554,"147":-0.01127319726152324,"148":-0.11491778409522617,"149":0.034034070332234344,"150":-0.21080968325488528,"151":0.021523764960423408,"152":-0.17408155444333326,"153":0.22200996733719613,"154":0.266790342764641,"155":0.017401071833761217,"156":-0.005359716750516214,"157":0.2635479109696533,"158":-0.21329544908762288,"159":0.20596265134777253,"160":-0.13416172172774035,"161":-0.0000593773092689221,"162":0.06290897912872136,"163":-0.013983973238624704,"164":0.38545381457114986,"165":0.0027671684023381905,"166":-0.23294116823722094,"167":-0.10975471475001428,"168":-0.20625306651242378,"169":-0.03318716019278942,"170":-0.07253858871732918,"171":-0.14914841367666648,"172":-0.06127975354187868,"173":0.13953850121672084,"174":-0.4197320934003679,"175":0.2441245946691987,"176":-0.37577043744194855,"177":-0.06173288861547914,"178":-0.0837177748989255,"179":0.012829934473167678,"180":-0.07013220058218252,"181":0.02149846776967039,"182":-0.3976974874266318,"183":0.20063572720089917,"184":-0.4470572348459744,"185":-0.0007549536261371908,"186":-0.31492017809949957,"187":-0.10441637424922492,"188":-0.14075270679042517,"189":-0.022947639015990697,"190":-0.21142450794249565,"191":-0.08491925349233831,"192":-0.28991942883564753,"193":-0.35455626331583456,"194":-0.003420753374366079,"195":-0.040168384896913004,"196":-0.3115555758218057,"197":-0.7053347820488882,"198":-0.18203643462730973,"199":-0.12540431183637904}},{"sx":5,"sy":5,"depth":8,"w":{"0":0.0013092249863309537,"1":-0.26404297438966107,"2":0.059878796931732675,"3":0.06372562544040804,"4":-0.42554882472085503,"5":-0.24655413626679257,"6":-0.19500458473772037,"7":0.03224726244490616,"8":0.01909803376242602,"9":-0.39119503820294743,"10":-0.04542955183138993,"11":0.01947417073146023,"12":-0.2099339967490775,"13":-0.031407481158031055,"14":0.014671329186522189,"15":-0.012550997189115969,"16":0.1292002979991398,"17":-0.4148574837420237,"18":0.06670346357123763,"19":0.14597566876974138,"20":0.2573784005383105,"21":0.055085342443068036,"22":0.09682670903402295,"23":-0.2684302373698084,"24":0.06037368984268305,"25":-0.20301405624493427,"26":0.2914128494074034,"27":0.1531847971295699,"28":0.3979093270308598,"29":0.026401497978121344,"30":0.03770426418219302,"31":-0.17236690063337462,"32":0.156403440421728,"33":0.058102769467458064,"34":0.2766508770526577,"35":0.02408421871844281,"36":0.22131690061423318,"37":-0.08096975124842568,"38":0.4324433696167169,"39":-0.09176012509151495,"40":-0.22094955734588118,"41":-0.18290107419611895,"42":0.07619282126877269,"43":0.2537821943335834,"44":-0.31809925755442586,"45":0.2943752980924206,"46":-0.2230822689758173,"47":-0.06072241019309406,"48":0.02830404770100788,"49":-0.11903513784653039,"50":-0.18785124596485844,"51":-0.04998828085712128,"52":0.19822529822937404,"53":0.03932319467160751,"54":0.08226845479863758,"55":-0.3258795223137548,"56":0.0320933386041326,"57":-0.11328758100421549,"58":-0.21662497208177273,"59":-0.12091669801515822,"60":0.2539055324468443,"61":0.02746384925252148,"62":0.24237964010658306,"63":-0.157261575445483,"64":0.200140297816992,"65":-0.15613583017135862,"66":0.0011226484714185738,"67":0.0016461541931138788,"68":0.46206164479886164,"69":-0.09145866954035771,"70":-0.10077944260865583,"71":-0.15173040130913276,"72":0.4165747469302573,"73":0.09658460337344797,"74":-0.014813006442614218,"75":0.13553042950570743,"76":-0.05250565620094115,"77":-0.14588254096728148,"78":0.18219718969365434,"79":-0.10638056957734872,"80":-0.04813563247254786,"81":-0.20275826230097846,"82":-0.20910022524584726,"83":0.05188881723284977,"84":0.09520733478814715,"85":0.19767780619502012,"86":0.055997609223774794,"87":-0.6920055404595432,"88":-0.046115704081154354,"89":-0.3136262881335502,"90":-0.49643014380574724,"91":-0.05664692491253723,"92":0.3557095498228585,"93":-0.009338891532960351,"94":0.025082961724869037,"95":-0.6023750663892482,"96":0.0544081840284488,"97":-0.18803719801263374,"98":-0.39154051506017334,"99":0.0016309572577604407,"100":0.21358384562382637,"101":-0.07340821056151528,"102":0.04186119677441488,"103":-0.17345128382598585,"104":0.04690369119546615,"105":-0.02267862348115181,"106":0.015692111288671054,"107":-0.3066780173408459,"108":0.3169090705900648,"109":-0.16550977215191856,"110":-0.2106743368192655,"111":-0.08234360416075415,"112":0.27379463067792426,"113":0.08057578021706116,"114":0.026341308073492633,"115":-0.18374900006679953,"116":-0.33232434044905634,"117":-0.005873926047849278,"118":-0.11156204678470774,"119":-0.023277034775123297,"120":-0.03829738118960457,"121":0.1507689497582379,"122":-0.12512322546697122,"123":-0.21422236445463014,"124":0.16949217056104765,"125":-0.017025115031997815,"126":0.05183134771850778,"127":-0.856689202590718,"128":-0.4179405208941985,"129":0.16096284515364936,"130":-0.3650112653371489,"131":-0.04350241361285436,"132":0.19680537916534016,"133":-0.06356703384554437,"134":-0.16506556003104544,"135":-0.5257142980146745,"136":0.04591418992067193,"137":-0.11424950468155268,"138":-0.3913707853468257,"139":-0.1388103629761404,"140":0.0245195724804207,"141":-0.42665992723667095,"142":-0.21661593159299125,"143":-0.17348102315634453,"144":0.32304858703996925,"145":-0.10926000528866517,"146":0.15766427284179663,"147":0.10522349638195634,"148":-0.34522452605021703,"149":-0.27882427443738045,"150":-0.3387402820926028,"151":-0.142914495759909,"152":0.10480395020834554,"153":-0.14799811144983882,"154":0.27592586860071683,"155":0.05658387322090108,"156":-0.24312195481717572,"157":-0.22098500175515307,"158":-0.1208367669370209,"159":-0.1881678290844659,"160":0.06672873224877604,"161":0.3492215937552099,"162":-0.013784974731846663,"163":0.1742925706053178,"164":-0.09404895348630339,"165":-0.13618636328889025,"166":-0.0045738467822319965,"167":-0.35693181939496466,"168":-0.06795658854616378,"169":0.07992164925257901,"170":-0.24641504504870304,"171":0.3736905370675097,"172":-0.24915967029758548,"173":-0.014678515084099546,"174":0.22982189079155932,"175":0.03287619810697581,"176":0.20416677493150084,"177":-0.13017105212992683,"178":0.016254938181684473,"179":0.25681952914278006,"180":-0.26379514824048567,"181":0.06360956439570668,"182":-0.0988800787766051,"183":0.06764625668427289,"184":0.09936935637680398,"185":-0.523168586451848,"186":0.18114524374831523,"187":-0.042607261587452025,"188":-0.3411487633175342,"189":0.35097858663397563,"190":-0.3064069716963884,"191":0.05742698129516851,"192":0.3322470396541793,"193":-0.27356685032068356,"194":0.13061689137178592,"195":0.12296494450401414,"196":-0.2927115078292941,"197":0.26493987376782313,"198":-0.08858171809198886,"199":-0.15024477879399628}},{"sx":5,"sy":5,"depth":8,"w":{"0":-0.4189296340283611,"1":-0.17249608937384775,"2":-0.013265269948820444,"3":-0.26820674305654896,"4":-0.5534514916541379,"5":0.0018420547428942284,"6":0.06374131160061217,"7":0.30900253037571385,"8":-0.02628459369404945,"9":-0.10253774203874967,"10":-0.21089128110638422,"11":-0.20147760999737221,"12":-0.5926676491183857,"13":0.09214841814790618,"14":0.1106938739260221,"15":-0.018254518674273284,"16":0.017530749135949923,"17":-0.15358782056058842,"18":-0.36909078623373104,"19":-0.2098221710057451,"20":0.10715221784623781,"21":0.1117111337440035,"22":-0.030811584426938363,"23":-0.5118757730770345,"24":-0.26642684188345434,"25":-0.08785297011462256,"26":-0.5253054075356546,"27":-0.2184094100108256,"28":0.09735644178472877,"29":0.06928355629723927,"30":-0.26954631246233046,"31":-0.06953355879056974,"32":-0.2656338895754496,"33":-0.20535656361164886,"34":-0.17684779503881923,"35":-0.18392362034749016,"36":0.21684864433877019,"37":0.08623135276534888,"38":-0.08009860595752429,"39":0.16460174228888388,"40":-0.20779331287823044,"41":-0.17832350978728995,"42":-0.38179160119204064,"43":-0.5291179395040484,"44":-0.5605745531483562,"45":-0.3759615851742698,"46":0.3632855699188751,"47":0.13947172746278955,"48":0.09682436976865359,"49":0.10969344712902603,"50":-0.24127258234746193,"51":-0.06430768872026509,"52":-0.3497436444300438,"53":0.16096235185083385,"54":0.16703266470613215,"55":0.00009654285970059785,"56":-0.06934319681977705,"57":0.07086880852443378,"58":0.05117140719223919,"59":-0.22495131480202804,"60":0.27431109947963317,"61":0.13019686984714365,"62":0.08551913635537131,"63":-0.16894071528026974,"64":-0.19600200002044613,"65":-0.04020553322076491,"66":-0.03838440430662666,"67":-0.111340534818211,"68":0.0797534197438257,"69":-0.17230665278288548,"70":-0.11980757290590979,"71":-0.03446692282796936,"72":-0.28136014809696624,"73":0.00497953042931055,"74":-0.23088508900267524,"75":-0.34196270845571797,"76":-0.06887193862099049,"77":-0.2876480142283288,"78":0.11738233606848654,"79":0.10776904038042924,"80":0.18032218516276105,"81":0.10898958287513678,"82":-0.3248541685209887,"83":-0.1000779788526335,"84":-0.09247841494206191,"85":-0.21276505306450932,"86":0.40085681227001285,"87":-0.2486925759804396,"88":0.035741842071932955,"89":0.251294958801453,"90":0.08378972409614477,"91":0.062326309104972506,"92":0.05074956262097046,"93":0.19640706783443274,"94":0.09124967990236459,"95":-0.01441127813823547,"96":0.12348383133528905,"97":0.21895778017802006,"98":0.1733910674067802,"99":0.06477541895414961,"100":0.1700280586314129,"101":-0.11971569379262081,"102":0.08345286914499739,"103":-0.04118611214933929,"104":-0.4099680779067394,"105":-0.14232350545467737,"106":-0.13523186849593888,"107":0.0591514905159571,"108":-0.0043047065214263484,"109":-0.22035701338680275,"110":-0.054788518636799115,"111":-0.0793412558332637,"112":-0.4260099459062877,"113":-0.061664360686706804,"114":-0.2590292352401422,"115":-0.24294399065810854,"116":-0.46555166777773843,"117":-0.63230430938166,"118":0.3279799894642117,"119":-0.027255786423631023,"120":0.09021585551363674,"121":0.2343751009823806,"122":-0.12109527688637657,"123":-0.30265960936352293,"124":0.05071061403208929,"125":-0.029147025154925132,"126":0.486797425872259,"127":0.02527784291433921,"128":0.22890610252186017,"129":0.3051719426701594,"130":0.20232111885908702,"131":0.15508299069003956,"132":0.06447543631630552,"133":0.18840163408000238,"134":0.32282540815013144,"135":0.21118880861642744,"136":-0.031405439656331864,"137":0.09938654613725245,"138":-0.18081209161244574,"139":0.1916851112805539,"140":0.09772235466836802,"141":0.01348187911673878,"142":-0.11386717861519326,"143":0.0407162651744739,"144":-0.4552454336049603,"145":-0.16055880699577724,"146":-0.40156103020488987,"147":-0.10808289582019091,"148":-0.16054652286413382,"149":-0.38871936057276,"150":0.04690869126144458,"151":-0.04519647672371437,"152":-0.1972137712363924,"153":-0.07936689099858664,"154":-0.41085556203612866,"155":-0.08664940345828606,"156":-0.23369149222238206,"157":-0.484539499673079,"158":0.29456714628422953,"159":-0.3511311956870888,"160":0.06585394683491302,"161":0.14027357196847198,"162":0.014607617174976568,"163":-0.3107698601540692,"164":0.061795814720969025,"165":-0.19383003235367618,"166":0.3261367889094901,"167":0.0022903259578280944,"168":-0.18665318384782947,"169":0.2733051384154251,"170":-0.015025843672675848,"171":-0.20268333449675394,"172":0.29049736645458246,"173":-0.08061109326733072,"174":-0.11578445684719392,"175":-0.02003092584667015,"176":-0.1511708566999747,"177":-0.2877189225017813,"178":-0.23554316443363718,"179":-0.30809914268398353,"180":0.11048897911669506,"181":-0.3615530997311326,"182":0.057733984462378395,"183":0.21372638149979467,"184":-0.18860190197256355,"185":-0.06283505013989751,"186":-0.024810298726119635,"187":-0.22400812726069322,"188":-0.32162127398359625,"189":-0.7172031850720526,"190":0.13130310167102435,"191":0.13632991449652995,"192":-0.10278602675300952,"193":-0.012745450934159904,"194":0.07934851189655849,"195":-0.20681528070383623,"196":-0.2587964909463101,"197":-0.5132817768872835,"198":0.3164149007177325,"199":-0.20383403146632792}},{"sx":5,"sy":5,"depth":8,"w":{"0":0.13832324363008192,"1":0.4130060983971692,"2":-0.0032180943379581045,"3":-0.041285133182159185,"4":0.18231898523804535,"5":0.05571730455689662,"6":0.022922659175319705,"7":-0.06164492952051607,"8":-0.2583359857547388,"9":0.323304492275331,"10":-0.19548833711913363,"11":-0.06847110600086007,"12":0.341420864219301,"13":0.03746959990305105,"14":-0.061554233250293945,"15":-0.11216483811657775,"16":-0.37494246314704494,"17":0.42483144290433933,"18":-0.22831959820648862,"19":-0.31757553515187664,"20":0.463196043232895,"21":-0.05650069082031409,"22":0.011174793240311025,"23":-0.24185392915405637,"24":0.0027974250701064633,"25":0.46192715804801243,"26":-0.16272354020544236,"27":-0.24721788795558497,"28":0.41649075990007556,"29":-0.2737970587803522,"30":0.15121530089268045,"31":-0.22096584642269287,"32":0.18267258313253582,"33":0.01866108580529835,"34":0.2541123542449881,"35":-0.0573148802863512,"36":0.1582559923271348,"37":-0.7026833650913187,"38":0.1848171721880148,"39":-0.06679043806977933,"40":-0.29050722405875423,"41":0.42349513596714644,"42":0.05980184486722592,"43":-0.2178696874041968,"44":0.033257500140993,"45":0.2184146700628343,"46":-0.07183486466550662,"47":0.1823471043638766,"48":-0.3788338813244677,"49":0.13669376456548743,"50":0.052852744826291743,"51":-0.139999936345529,"52":0.10575876915305733,"53":-0.001257791132423797,"54":-0.1175478772506601,"55":-0.041710454829074706,"56":-0.06604492865287684,"57":0.10404278103962376,"58":0.07243403650865426,"59":-0.2620016600261146,"60":0.05763051379151615,"61":-0.5821397858454708,"62":0.05007416759567193,"63":0.23725053077200461,"64":0.35613294779581933,"65":-0.08281467526187718,"66":0.16359913693328348,"67":-0.051304276628160186,"68":-0.5436854248548679,"69":-0.3538288187274954,"70":0.10744046326255968,"71":0.028004656372456454,"72":0.27523487184793755,"73":-0.29601119149624483,"74":0.06049944072461587,"75":0.24330315972316716,"76":-0.30002114171470595,"77":0.0472176493135093,"78":-0.00588096453882595,"79":-0.36765772743147535,"80":0.15014621301761139,"81":-0.06696678565945867,"82":0.1535131411440832,"83":0.04380469221354401,"84":-0.18855255277122376,"85":-0.24048282680316407,"86":0.23456512717448533,"87":0.11919135458066774,"88":0.17074429914179817,"89":-0.16352560357387944,"90":0.020088543184444283,"91":-0.07862597000183445,"92":-0.34193010495598686,"93":-0.18686606994744817,"94":0.1726399517363438,"95":0.11342318853679544,"96":0.3264770068135854,"97":-0.0570711991715562,"98":0.048824800397013896,"99":0.38213459838432967,"100":-0.26112368150052434,"101":-0.4435142507033496,"102":0.18374441280199189,"103":-0.21409190730169547,"104":0.1387051577395571,"105":-0.4984878683484431,"106":0.17779288352631287,"107":0.029862539480864553,"108":-0.16646595428327382,"109":0.049686853771324695,"110":-0.045288958048454404,"111":-0.15991411573817668,"112":0.026279467468363134,"113":-0.3160189714655636,"114":0.06974399397972315,"115":0.2097063293878992,"116":-0.2013430546010819,"117":0.30341237032211343,"118":-0.1053946683277308,"119":-0.23863952413268438,"120":0.1678828958825141,"121":-0.1795208436330838,"122":-0.08603423985391642,"123":0.17725974295457553,"124":-0.30208357372787453,"125":-0.6665653709504493,"126":0.16646324347878425,"127":-0.15753554947172496,"128":0.22080283168452472,"129":-0.18344083588128365,"130":-0.1730634973089636,"131":-0.1388970124908441,"132":-0.25622304607672963,"133":-0.25896482514251357,"134":0.05992698496285617,"135":-0.2168295317092914,"136":0.13682640978845323,"137":-0.3907486624764043,"138":-0.171575039539355,"139":0.09332529009286822,"140":0.05529826631401251,"141":-0.05620739326274025,"142":0.27201788758292444,"143":-0.4474194548259041,"144":-0.0971072898456557,"145":-0.378080211652544,"146":-0.2704793184427298,"147":0.06967078566200798,"148":-0.12732965356417106,"149":0.04060592136399281,"150":-0.024363019154852984,"151":-0.3620816440067014,"152":0.07482969815181256,"153":0.11724120217398035,"154":-0.25282942011643433,"155":0.017777641560650526,"156":-0.1932957499036984,"157":0.16757268166459288,"158":-0.13378857132960748,"159":0.0789829134903455,"160":-0.11239202374477394,"161":-0.09634447187372581,"162":-0.339104324289343,"163":-0.1364857326890841,"164":-0.13539315982473102,"165":-0.3218928639918884,"166":0.03351564658352664,"167":-0.30107487874972105,"168":-0.2714625773075655,"169":-0.015613710781788123,"170":-0.2415295585123423,"171":-0.329171340175534,"172":0.3698105213215024,"173":-0.10681053245816463,"174":0.18409147432828774,"175":-0.5461060190668381,"176":-0.1398349470248067,"177":-0.05916342458184364,"178":-0.15803253310052184,"179":0.1326235210907514,"180":0.02907675693386674,"181":-0.0031288235573733005,"182":-0.1441763198265822,"183":-0.36221099345364677,"184":0.2892437355409426,"185":0.04124586007049683,"186":-0.06370218533391134,"187":0.35987738749150466,"188":0.027125242927634734,"189":0.1331827774585932,"190":-0.5504061798447165,"191":0.14300267334465594,"192":0.225660002614416,"193":0.22613269089591428,"194":0.4170382057291817,"195":0.20688106975443096,"196":-0.09409099823714234,"197":0.16973500176614503,"198":-0.36400201889214034,"199":0.3674083957077292}},{"sx":5,"sy":5,"depth":8,"w":{"0":-0.34031476335362754,"1":-0.32408724729823213,"2":-0.15052709532224692,"3":0.4633898311044135,"4":-0.056882721029366215,"5":0.2600339288221713,"6":-0.20210222814508805,"7":0.004131169671135054,"8":-0.5812018308014677,"9":0.09913734189803856,"10":0.10634455610375883,"11":0.18923580844820115,"12":0.10033725263065604,"13":-0.21159993590973433,"14":-0.051213452174516456,"15":-0.09054685084804343,"16":-0.3741183549046476,"17":0.13152005307530987,"18":-0.0738367770256251,"19":0.04831684821331037,"20":0.16064282626913337,"21":-0.40655802773364036,"22":0.10696494416484321,"23":-0.2504846090125461,"24":-0.1326825273488691,"25":0.349159003119177,"26":-0.12950144502613126,"27":-0.070261239873555,"28":-0.20854959802087633,"29":-0.1069205480004032,"30":-0.10446803111985269,"31":0.019330686038994394,"32":-0.375855549848698,"33":0.4308608821559574,"34":-0.22691627249417104,"35":-0.02568221004385477,"36":-0.39824941258242336,"37":0.08407698049616295,"38":-0.5052607600992458,"39":0.0721920429216476,"40":-0.5587698207319403,"41":-0.15657738437271665,"42":-0.14980763462990737,"43":-0.17099701674862608,"44":-0.17050629102805095,"45":0.17868810361366635,"46":0.16339397370824613,"47":0.04127303737480159,"48":-0.25951803836993126,"49":0.0982322693346883,"50":0.033307849391367834,"51":0.08694495023396437,"52":0.13967348427275558,"53":0.17681814683528646,"54":0.09726219776644537,"55":0.04906242410615372,"56":-0.23167627442285427,"57":0.044603560597603224,"58":-0.07937051520882485,"59":0.06290819350844834,"60":0.2890660520071633,"61":-0.10863449376643657,"62":-0.03252795265716317,"63":-0.12617357633769405,"64":0.1394160216268508,"65":0.21864058660957272,"66":-0.05583041290200097,"67":-0.16896769561094446,"68":0.08176752330310819,"69":-0.22317999551572973,"70":-0.00911945537399941,"71":0.15070330987034666,"72":-0.4184386144370233,"73":-0.03110023464006606,"74":0.03090205360675613,"75":-0.21661485037910738,"76":-0.1348981663613398,"77":-0.4384172739845321,"78":-0.256851709452475,"79":0.17619509714937417,"80":-0.43400793300722057,"81":0.47274400419126145,"82":0.17881212179672518,"83":-0.16433731464403845,"84":-0.31151108842027975,"85":-0.007726070993585227,"86":0.38331413249588325,"87":-0.10087075720893489,"88":-0.2194109381364607,"89":-0.08871335906131422,"90":0.17833395274009414,"91":0.05437659513532082,"92":0.042473244428697196,"93":0.16657161621251018,"94":0.016438248429109018,"95":0.02702077648406108,"96":-0.015190541116126253,"97":0.33752445994695063,"98":0.17508628472601723,"99":0.22020994118783468,"100":0.2115710653688838,"101":-0.19635026052211424,"102":-0.18703403949541464,"103":0.09990865316677847,"104":0.14212382701183743,"105":0.040703292312012036,"106":0.0985783205133471,"107":0.1417271272622485,"108":0.15599662372314596,"109":-0.20083686529274444,"110":0.09130425754315202,"111":-0.27303970030849767,"112":0.1158398108458088,"113":0.06922847740475736,"114":0.03365769936893628,"115":0.20277317647856877,"116":0.0902400421697262,"117":-0.14076019123136085,"118":0.1991884555847447,"119":-0.29988437077495456,"120":-0.8745693774618778,"121":0.5333644938736368,"122":-0.23932089172999793,"123":-0.03404164300124608,"124":-0.2460940694599664,"125":-0.0869508708284065,"126":0.27143900815608507,"127":-0.10956253710217494,"128":-0.43428748980463605,"129":0.10842961190924594,"130":0.008460738682220841,"131":0.16845306221273368,"132":-0.13330425791993208,"133":0.01376692528688292,"134":-0.06432284976574881,"135":0.19370142081068076,"136":-0.012302682445479687,"137":0.1771785389624535,"138":0.040392131260761834,"139":0.2887364567026122,"140":0.16702620473935192,"141":0.13234928368520585,"142":-0.2502236019358642,"143":0.28348149411919016,"144":-0.1302742381877591,"145":0.08297141452614752,"146":0.014736128610728125,"147":0.24095844114004547,"148":0.21615919407818085,"149":0.06095426825196283,"150":-0.0616025266855426,"151":0.12456731086302474,"152":-0.10700622100411403,"153":0.2995179135151932,"154":-0.06493345663116483,"155":0.12264166440395122,"156":0.012008312329616737,"157":0.2700059754393679,"158":-0.00482376632374139,"159":0.21356816286268052,"160":-0.6735571207574983,"161":0.34751488892046994,"162":0.015926490269782954,"163":-0.11675861357176942,"164":-0.2205384547506153,"165":-0.1572662490953841,"166":-0.023809504079976535,"167":-0.15348457729449508,"168":-0.6105216290799738,"169":-0.07442229379407411,"170":0.0015445841390943843,"171":0.005202207260288481,"172":-0.23858465989721317,"173":-0.25243016828398035,"174":-0.30729016768047784,"175":-0.2265257472599341,"176":-0.3212259227947212,"177":-0.3326400617105758,"178":-0.13242920673245362,"179":-0.04395587318679292,"180":-0.19456239500854325,"181":-0.24935381100238513,"182":-0.3597168293538877,"183":0.04142938419348068,"184":-0.14853356039295784,"185":-0.3498088483724771,"186":0.13425271011153303,"187":-0.16323956716860302,"188":-0.07470610287106226,"189":-0.232349436743664,"190":-0.10201838528201239,"191":-0.06594484872204338,"192":-0.11151830919488101,"193":-0.16969934440468412,"194":0.07204280307387921,"195":-0.11563603417746443,"196":-0.11420077778149319,"197":-0.1530586055491567,"198":0.024707272911027353,"199":-0.10950527287285218}},{"sx":5,"sy":5,"depth":8,"w":{"0":0.13980133008721654,"1":-0.07055402870824108,"2":0.1777173637743897,"3":0.3051638303468751,"4":0.08096060587587536,"5":0.245664778460323,"6":-0.28031894655455747,"7":0.1301958443725679,"8":0.21069404085732077,"9":0.028921622796223186,"10":0.38577258828336763,"11":0.2755402908902237,"12":0.017374514798703576,"13":0.021404374693329273,"14":-0.40287072277750724,"15":0.10259415652112214,"16":0.4609150912217153,"17":0.1633153263326082,"18":0.31763981708576877,"19":0.2387430992294189,"20":-0.3396272845154641,"21":-0.10288229733809967,"22":-0.10796201421912978,"23":0.17130109302665397,"24":-0.03259512798206255,"25":-0.1080848140681213,"26":0.1929701332629986,"27":0.20226514123428416,"28":-0.4494285151422889,"29":-0.06655277640239497,"30":-0.2229457901411316,"31":-0.1992772258172639,"32":-0.08602710483601943,"33":-0.16095236201751964,"34":-0.13692845936674586,"35":-0.24118736458905762,"36":-0.5767811906163388,"37":-0.09738948252623573,"38":0.04250027470184162,"39":-0.3414089107452031,"40":-0.09993934027015368,"41":-0.027510437177351472,"42":-0.04707652650226066,"43":0.39736402452035935,"44":0.18617099492734962,"45":0.20558673565329894,"46":-0.11340706284106769,"47":0.3914365421572981,"48":-0.020558099761272246,"49":0.33579610759029055,"50":0.17447844142448868,"51":0.3088012204421689,"52":0.03436820111590394,"53":0.12077110078397137,"54":-0.02506278246400484,"55":0.10578795274385468,"56":0.14294794589331822,"57":0.33367643316675005,"58":0.1947826781814849,"59":0.08490208695403763,"60":-0.13033847516709826,"61":0.05507671687627465,"62":0.021117932934167912,"63":0.20005833528521128,"64":-0.09906025961057291,"65":-0.12280327063235813,"66":-0.2445979132527828,"67":-0.04888208355904294,"68":-0.036694709197171715,"69":-0.08126940252287544,"70":0.029536437252214807,"71":-0.14808669863574161,"72":-0.18710369598435178,"73":0.12067208778267847,"74":-0.6725717260822033,"75":-0.3012518155455499,"76":-0.45533034335535905,"77":0.03217867115058727,"78":0.31310955487635816,"79":-0.17532115005189144,"80":-0.4229432284990595,"81":-0.10291881459284799,"82":0.09947435907815577,"83":-0.00553107125818009,"84":-0.07802393784519004,"85":-0.020711194162845396,"86":-0.2750196009650326,"87":0.20642640163932024,"88":-0.21367787481071063,"89":0.03757218370683352,"90":-0.09029632389333665,"91":-0.2296575829404314,"92":-0.09268467590010217,"93":-0.010438277900957058,"94":-0.017687515424842867,"95":0.3059238619605338,"96":-0.027437584165291504,"97":0.21256277858232533,"98":-0.3090128554697485,"99":-0.16030546984349237,"100":-0.12161024801979249,"101":-0.08331480687215505,"102":0.32014665680215804,"103":0.007853328716303403,"104":-0.04744897775673104,"105":-0.030395939426486364,"106":-0.4808979243360577,"107":-0.225740163760562,"108":0.08514702954598813,"109":-0.2977640492912108,"110":0.01621631239025301,"111":-0.14888633366978146,"112":-0.13673282970995598,"113":0.10783322531315445,"114":-0.6857155184086543,"115":-0.30979813937850686,"116":0.05604890527662886,"117":-0.03371485587882854,"118":0.3305133197483929,"119":-0.5469130117261681,"120":-0.3668301678433132,"121":-0.13815634132227303,"122":0.13732593318273195,"123":0.06301596409773999,"124":-0.09130514395227754,"125":-0.23546261900921647,"126":-0.23084233451454922,"127":-0.09288228074881141,"128":-0.4149055483452939,"129":-0.06829226376375001,"130":0.10306545955040851,"131":0.055789902340309463,"132":-0.3186425083560459,"133":-0.2902969594498269,"134":-0.016268223130411992,"135":-0.20371885292606925,"136":-0.28902765921444756,"137":0.1258583733327941,"138":-0.11880715536807712,"139":-0.13544023936712885,"140":-0.2170636454123672,"141":-0.013439562194002668,"142":0.15684200749441107,"143":-0.17127803782734757,"144":-0.25930132099603886,"145":0.16672903564930078,"146":-0.22205828339554487,"147":-0.21158580564340645,"148":-0.011763192272053344,"149":0.06798621929879718,"150":-0.038593024820264214,"151":-0.18660538562292012,"152":-0.05488380687040139,"153":0.3557098332196446,"154":-0.10572966257529218,"155":-0.18832996296487034,"156":0.08106698600127081,"157":0.19601555329073775,"158":0.12695572704532088,"159":-0.2630438505583676,"160":-0.3015078615020352,"161":0.23357565136181482,"162":0.08645051935028064,"163":-0.1341770441693459,"164":0.1191676132071426,"165":-0.12276172228941877,"166":0.25095970409421114,"167":0.3313431813890822,"168":-0.40204133431422756,"169":0.1494913936634333,"170":0.16399518590679393,"171":-0.09675326341431295,"172":-0.11114733605397527,"173":-0.25035340746687124,"174":0.13516869716045668,"175":0.21018093628774526,"176":-0.1968975908604562,"177":0.1477293114046506,"178":0.11782470626039487,"179":-0.3464918304370296,"180":-0.11559324663605505,"181":-0.2251352391531896,"182":-0.02042863795089514,"183":-0.10982101457132018,"184":-0.1387571027711501,"185":0.07179779677197938,"186":0.33036585452873285,"187":-0.2998180057894342,"188":-0.22568562671702025,"189":-0.2699902126558654,"190":-0.09428219836163738,"191":0.0061202382530240315,"192":0.1741423496044527,"193":0.26203595728132417,"194":0.2992230967033806,"195":-0.05287075956600279,"196":-0.10812423489713308,"197":-0.1029460877339812,"198":-0.04625486749317902,"199":0.11010253106436964}},{"sx":5,"sy":5,"depth":8,"w":{"0":-0.2535966942865952,"1":0.15791043856636555,"2":0.6214637605649241,"3":0.14983981921196113,"4":0.4032252517137994,"5":0.06434208339713379,"6":-0.02268465245226444,"7":-0.2558258463202566,"8":-0.11847092130388441,"9":0.09289308717285437,"10":0.3993787927569348,"11":-0.07747035836874926,"12":-0.16180481449182346,"13":-0.034946339726139954,"14":-0.043793143302652465,"15":-0.24964003723169564,"16":-0.11860560338117149,"17":0.20526425305173254,"18":-0.03510942578679502,"19":0.0002000723002044784,"20":-0.11905406139052709,"21":-0.017470998389546268,"22":-0.000845263481831675,"23":-0.23569625391596727,"24":0.43256427430921757,"25":-0.17897207476923607,"26":-0.08519980481958843,"27":-0.045243960346440786,"28":0.1226528902782442,"29":-0.1288316357314639,"30":0.01213212046673886,"31":-0.3630030368909221,"32":0.2877442145251853,"33":-0.11111865232915151,"34":0.048129378341432376,"35":0.005814033785563093,"36":-0.00715364671369609,"37":0.2678150130742261,"38":0.00466888021501596,"39":-0.028543789237729076,"40":-0.06663925630596117,"41":0.3460631546830649,"42":0.25440068350394096,"43":-0.03909167455504469,"44":0.5088170523411287,"45":0.19187223760465888,"46":0.0026355558990176567,"47":-0.2099619309451837,"48":-0.21869568122114147,"49":0.04172628608760145,"50":0.13971384978458007,"51":-0.30406012254641535,"52":0.02092320189739967,"53":0.09166670574416377,"54":-0.23661009533878843,"55":-0.13565278552324983,"56":0.016546306951839552,"57":0.10484800004649106,"58":-0.08343029990212611,"59":0.0842774427783533,"60":-0.2685351291878223,"61":-0.14830715145177714,"62":-0.07644515105089192,"63":-0.16616772829318002,"64":0.3394379821189936,"65":-0.11158110334166008,"66":-0.12304796034182972,"67":-0.0056874910965403515,"68":0.14389556380348878,"69":-0.21017562860487848,"70":0.05706170397219394,"71":-0.2596438976674866,"72":0.3287017815506491,"73":-0.19557759894379764,"74":-0.432836534578233,"75":0.039539495005680374,"76":0.10696360963505379,"77":0.2198237185958649,"78":0.11012209132040039,"79":-0.15944901825519817,"80":0.11823099366274202,"81":-0.03970289029816875,"82":0.27023543910111475,"83":0.1682797801370209,"84":0.5006453661541789,"85":0.13351729731782846,"86":0.3886258329986688,"87":-0.06929632258575734,"88":-0.20914938573699643,"89":0.07898245103590552,"90":-0.10494238775759807,"91":-0.21931239741352246,"92":0.15593506000383378,"93":0.05648377167596911,"94":-0.07665290066661401,"95":-0.19438850235051827,"96":-0.04625470620355093,"97":0.11164854878268046,"98":-0.3575115089484325,"99":0.0244628882465481,"100":-0.21222890666494876,"101":0.013926846528005944,"102":-0.04721630648968024,"103":-0.43137446794262924,"104":-0.10766499072689772,"105":-0.06666115219629025,"106":-0.26632352985986196,"107":-0.015554757320588381,"108":0.2607807101890569,"109":-0.16087220865614518,"110":-0.14379502883113074,"111":-1.0373626526337287,"112":-0.08054956692650372,"113":-0.041269504077620645,"114":-0.31746451060920733,"115":-0.018669336634720157,"116":0.21954528442281024,"117":-0.1291363486917587,"118":-0.1997924899207204,"119":-0.10775618771894792,"120":0.15359279819848617,"121":-0.1762836949980364,"122":-0.4485926980479872,"123":-0.15346922744666736,"124":0.33749347408158337,"125":0.10058404651497732,"126":0.12237265297534843,"127":-0.21909942729484994,"128":-0.33260297694437996,"129":0.006955723069253375,"130":-0.2581595749198051,"131":-0.1357644407330699,"132":0.3154556204612934,"133":-0.23021484925465308,"134":0.03629109867190028,"135":-0.26017715278347214,"136":-0.16153147285974237,"137":0.17073556863415265,"138":-0.317031452359458,"139":0.28318053450879593,"140":-0.009182127967131956,"141":0.04882987073240736,"142":0.04931757188579152,"143":-0.6548644944865616,"144":-0.14225921499599525,"145":0.24614842083756658,"146":-0.09639924218858636,"147":0.10792940931665161,"148":0.31972892910625367,"149":-0.06840401484768312,"150":-0.10194560139482256,"151":-0.8762150055496785,"152":0.2907186928536807,"153":0.2371587031204858,"154":0.14990058777408585,"155":-0.02554000844619278,"156":0.003845739864749908,"157":-0.1667422541714585,"158":-0.26026275423835143,"159":0.032769286138055714,"160":-0.35407161915166,"161":-0.19771369401253322,"162":0.1117333751707745,"163":0.04947613867095757,"164":0.11851477714724815,"165":-0.46744523875421706,"166":-0.0857431619915937,"167":-0.4565717920988224,"168":-0.20661288826865842,"169":-0.028992007885092354,"170":-0.008540831698306717,"171":0.10652924119212023,"172":0.17634514698839363,"173":-0.6508834927514704,"174":0.035536784136939996,"175":-0.29114948253425615,"176":0.05971816414798927,"177":0.24604959368158122,"178":0.029280063552642534,"179":-0.15390086334046707,"180":0.09585328215053579,"181":-0.08766281364474551,"182":0.19146454960255077,"183":-0.3330278161906226,"184":0.060293743091122315,"185":0.36903687123693546,"186":0.11227110977795729,"187":-0.028183660450790862,"188":0.33069198534374455,"189":0.09295780391210984,"190":-0.10798177093476337,"191":-0.14596805988578088,"192":0.34609275525946265,"193":0.38483924847685047,"194":0.46502322563859616,"195":0.12878587792046983,"196":-0.23186752011876813,"197":0.3168236878719138,"198":-0.16318858210135856,"199":0.2646543882693465}},{"sx":5,"sy":5,"depth":8,"w":{"0":-0.09269156582082083,"1":-0.2158088507525202,"2":-0.08778228910655345,"3":-0.06295358117435661,"4":0.21208584055295188,"5":-0.21276095288365485,"6":0.03630568834479044,"7":0.08138649546990676,"8":0.048801668077871604,"9":-0.37919259417102064,"10":-0.05065846039019678,"11":-0.3058872723989887,"12":-0.002406079819092534,"13":-0.4938163918437199,"14":0.06504951631742921,"15":0.10156557905500412,"16":0.23667436865454503,"17":-0.2793328659177908,"18":-0.21588543188935289,"19":-0.15197834805724592,"20":-0.22885346694475098,"21":-0.31583849660019964,"22":-0.0513326502222392,"23":-0.018039967250856367,"24":0.2248165438963434,"25":-0.1753714872203787,"26":-0.2647193023140593,"27":-0.19041546472335819,"28":-0.05404226248071821,"29":0.07920840266142087,"30":0.11017367275018336,"31":-0.018950392503658764,"32":0.15217463663051237,"33":-0.12803159061131558,"34":-0.11454287862494111,"35":-0.20123068694185844,"36":0.14685195762432365,"37":-0.10672229332588319,"38":0.08823920948477008,"39":-0.191670846002979,"40":-0.06172550147075141,"41":-0.30736299562564695,"42":-0.29259125671200437,"43":-0.15062468148087452,"44":0.11651509154233455,"45":-0.21412535216681475,"46":0.06885425611246863,"47":0.11111047430212562,"48":0.2698250671216039,"49":-0.376413098858599,"50":-0.5056540030042572,"51":-0.34717355114617054,"52":-0.028504926268371394,"53":-0.18792279490636998,"54":-0.019609586286055414,"55":-0.08772074665344197,"56":0.31908924044809683,"57":-0.19430162463177197,"58":-0.2535091345657745,"59":-0.18862428822984326,"60":-0.11268316903714708,"61":-0.118876575122614,"62":0.12556348280428592,"63":-0.3475572217801398,"64":0.14711359806895152,"65":-0.09859355552388648,"66":-0.1709933728327897,"67":-0.09444667133318504,"68":0.10614097380035602,"69":-0.008720565954324709,"70":-0.13951165367230303,"71":-0.381286593482552,"72":0.14843728894788288,"73":0.14677699974603095,"74":-0.15337220688091355,"75":-0.13255645934399635,"76":0.04323357712539434,"77":-0.22717662529354543,"78":0.36056003252362573,"79":-0.2598263891566477,"80":0.2942090218429291,"81":-0.12215875896980743,"82":-0.145572875613443,"83":-0.2582695922460807,"84":0.10900781893685245,"85":-0.2010135817382085,"86":-0.027877601005666743,"87":0.10745401455016501,"88":0.10237289868351335,"89":-0.05837933218077539,"90":-0.02522899714163221,"91":-0.06184136563652223,"92":-0.07076583924681529,"93":-0.34167314182561115,"94":0.04747129688418084,"95":0.008420378143332258,"96":0.031386657016116315,"97":0.05184975504596827,"98":0.015463893622136505,"99":0.06461787910255178,"100":0.014054932232215843,"101":-0.3861520370759582,"102":0.19373066933148317,"103":-0.13887692892228143,"104":0.03796064603381542,"105":-0.023429987607684725,"106":-0.059262908375136134,"107":0.1363277406507173,"108":0.19207083430948713,"109":-0.3148905881787832,"110":-0.21482873170326128,"111":-0.07841491335553995,"112":-0.06697214421492861,"113":0.23144451165612512,"114":0.12870866482922666,"115":0.024380949872747134,"116":-0.23180932810746227,"117":-0.2888900407151956,"118":0.2476391056245626,"119":-0.22150464291002978,"120":0.1465962746605653,"121":0.12914847766230364,"122":0.20711706800583593,"123":0.017457573976182427,"124":0.017751811216159815,"125":0.06653185651810219,"126":0.010119166575378981,"127":0.22812235583328372,"128":0.015601707633261604,"129":0.18558836842425244,"130":0.10480602046949944,"131":0.2979707089339266,"132":0.08820677663192593,"133":-0.08066663412786294,"134":0.052254639557903534,"135":-0.140129502987382,"136":0.07426146933232863,"137":0.39968343595727673,"138":0.08464878074662725,"139":0.4303463555828357,"140":-0.06452789347644981,"141":0.07274716870791244,"142":-0.10702788355167442,"143":-0.4678556719571486,"144":-0.10660178859608459,"145":-0.11595151107323953,"146":0.07276757676833435,"147":0.24577844742528418,"148":-0.2649914568603505,"149":-0.2838839100918324,"150":-0.7094515422635398,"151":-0.18550398841241325,"152":0.1237926653488449,"153":-0.0460514886244786,"154":0.2982101517305485,"155":0.031036795884274927,"156":-0.44460177949159746,"157":-0.33696107602833175,"158":-0.0873314781863391,"159":-0.22115594521128393,"160":0.08258198800022179,"161":-0.28982176428341977,"162":-0.05391786870744888,"163":-0.1131479557766169,"164":0.01524267763888162,"165":0.29601361964183237,"166":0.022986966096245794,"167":0.02689743046365438,"168":0.2547895702259803,"169":-0.24144445944638257,"170":-0.1945353070158687,"171":0.23463879616853586,"172":-0.00019114937057100384,"173":0.3179481477065293,"174":-0.3254136612099044,"175":0.3271668530767496,"176":-0.06579547203669618,"177":0.19856490929871629,"178":-0.07593575032463838,"179":0.27688071801528047,"180":-0.19441741017425263,"181":0.35575379447110955,"182":-0.08973751615407882,"183":0.26795027602090554,"184":0.20050700472419583,"185":0.08803728251909157,"186":-0.1307623153575053,"187":0.1612479437493816,"188":-0.46379508604709885,"189":0.03691711721747685,"190":-0.34369342165937317,"191":0.06560973657471146,"192":0.19745799449201282,"193":-0.16447026081289107,"194":0.12514953714134083,"195":-0.07696101751580495,"196":-0.3050880556948725,"197":-0.044010605983729675,"198":-0.308395011055401,"199":-0.2051427605635864}},{"sx":5,"sy":5,"depth":8,"w":{"0":0.12534909773962172,"1":-0.15554664774200289,"2":0.23315474754398488,"3":0.32573439022620726,"4":-0.13426752851404103,"5":0.050891411675555574,"6":-0.23304479491091107,"7":0.0711424630878325,"8":-0.17984016362852034,"9":-0.42759529345345765,"10":0.39660949682459135,"11":0.2069161445502811,"12":-0.053583926198621415,"13":-0.017777969705860076,"14":-0.2869437721455843,"15":0.050133738292262704,"16":-0.3564673481973232,"17":-0.17819249416946423,"18":0.44415883243193144,"19":0.40072132671776367,"20":0.0966600622965942,"21":-0.5980984787373522,"22":-0.10013642082602132,"23":-0.2805775074027572,"24":-0.04455611233815849,"25":-0.4851081619492722,"26":0.45021741536342846,"27":-0.1345926432296526,"28":-0.09057300252808514,"29":-0.3970126861450976,"30":-0.03407557139866796,"31":-0.10668376498373665,"32":0.009700141722320942,"33":0.11935734867062106,"34":0.34651856808191567,"35":-0.11510497700869772,"36":-0.030695566614294564,"37":-0.29853463898804433,"38":-0.02365709809687689,"39":-0.24722252831443164,"40":0.39261097942770745,"41":-0.2903659291618206,"42":-0.20308262195539237,"43":-0.03274905119769132,"44":0.09907487766689985,"45":-0.02063058507272946,"46":0.1512189662628078,"47":0.0749498883027715,"48":0.1250342034791675,"49":-0.2548102421998058,"50":0.07798276571712363,"51":0.03222419643516011,"52":-0.22498405375107527,"53":0.11078053859430007,"54":-0.25221360863679865,"55":0.15608266249661693,"56":-0.36851430758962295,"57":-0.16504837342680223,"58":0.16924352021026207,"59":0.23232426096109324,"60":-0.08169026884858285,"61":-0.3450115405788194,"62":-0.2912703677376135,"63":-0.25921137459217886,"64":-0.19777813614360462,"65":-0.19745532485444617,"66":0.24324737740591906,"67":-0.03138934322914852,"68":0.06073802161228578,"69":-0.4723854482153285,"70":-0.1655358927713403,"71":-0.42342441224085225,"72":-0.35608403201128247,"73":-0.043176869244820934,"74":0.1825148758095882,"75":-0.07132418141579959,"76":0.0104075444899958,"77":-0.44420579958121525,"78":-0.11069951245252967,"79":-0.5529822621946762,"80":0.3682502907296651,"81":-0.3871477760041475,"82":-0.31037488398436014,"83":0.33521016602568926,"84":0.20947870492184903,"85":-0.2344594649868369,"86":0.21780438869121221,"87":-0.25536556631990154,"88":0.3133284286501438,"89":0.07112306143992775,"90":-0.1333474477599153,"91":0.1903834569781049,"92":-0.07332340251321395,"93":0.12729697143485552,"94":-0.0835749011743063,"95":-0.059388024820388366,"96":-0.025758007303980264,"97":-0.003258242293624045,"98":0.0034274511669076793,"99":0.01319500227603285,"100":-0.05416406453482764,"101":-0.12242940538045387,"102":-0.08727377088703873,"103":-0.3275524944614959,"104":-0.11020823090363129,"105":0.20917410786097174,"106":0.07913941407945592,"107":-0.06435409760471415,"108":0.09082414814023902,"109":0.058490998299049926,"110":-0.052873781481984905,"111":-0.25983452181594274,"112":-0.1797731859882124,"113":-0.025733565976050036,"114":0.3240866575869933,"115":0.01937938587907507,"116":-0.01801952055988785,"117":-0.1299089051490166,"118":-0.06929694383600782,"119":-0.2351197867961003,"120":0.22485591886206546,"121":-0.1842766242900243,"122":-0.12947352897318046,"123":0.07651793408331217,"124":0.08936859180098314,"125":0.10437559363457476,"126":-0.11865747623934667,"127":-0.18893352976797895,"128":0.3654473247564872,"129":0.02199324763389448,"130":-0.06712426527410091,"131":-0.04058138622476474,"132":-0.05947264552959277,"133":-0.0018884051325103227,"134":-0.1264369958138895,"135":-0.07577481275265761,"136":0.21133457797936872,"137":0.04478925899764568,"138":0.07700289123765641,"139":-0.0658853757201489,"140":0.2112507145332649,"141":-0.12815683393773028,"142":0.1542823270899034,"143":-0.15939150734267526,"144":0.0552048045405595,"145":0.2810018030872119,"146":-0.2673696971858628,"147":-0.1691787527861279,"148":0.1033679190826142,"149":0.09133317728667935,"150":-0.018186906784051292,"151":-0.5251966219717794,"152":0.17900763950076853,"153":0.48466757381248526,"154":-0.24371291968975609,"155":-0.09169646637034383,"156":-0.2856483666389113,"157":0.19778004210361563,"158":0.05038616401090926,"159":-0.0012511103292960025,"160":-0.04718129735228201,"161":0.08130135994578298,"162":0.06486781268285942,"163":-0.012318569567613695,"164":-0.2142954749545755,"165":0.30095555467871504,"166":-0.4811375496406411,"167":0.17363442930186435,"168":0.30990488093067525,"169":-0.1627515792408753,"170":0.05926302009000038,"171":-0.05583045584552047,"172":-0.049227070455229005,"173":0.17915151602061127,"174":-0.28240858423341497,"175":0.16899517047341023,"176":0.2784742669630472,"177":-0.08088901411336873,"178":0.019099518919023235,"179":-0.18948014966122578,"180":0.14249264397782282,"181":0.03201913081677143,"182":-0.2637221002082251,"183":-0.03329621499966438,"184":0.19713070518784334,"185":0.1911192824001145,"186":-0.06239647925004773,"187":-0.02399473179118754,"188":0.060714716842402365,"189":0.04979629045866331,"190":0.012380003954170904,"191":0.029769904745131213,"192":0.183608575567673,"193":0.46056504062446313,"194":-0.3883610912007166,"195":-0.06450592794094945,"196":-0.21446956461870553,"197":0.18472472128650302,"198":0.2384064000904292,"199":0.14120995691252822}},{"sx":5,"sy":5,"depth":8,"w":{"0":-0.31177846495885747,"1":0.657165913463281,"2":-0.10039263704596946,"3":-0.23639519728621028,"4":-0.35331718734700246,"5":0.4546197547512384,"6":-0.09499652421092418,"7":-0.07808688423026502,"8":-0.48607279309313794,"9":0.4338970669963369,"10":-0.31617051814438335,"11":-0.13542892065700118,"12":-0.24024794423107576,"13":0.2809620486421197,"14":-0.09515858018375517,"15":-0.3602211197520246,"16":-0.19521310495614475,"17":0.23498666637072213,"18":-0.06553859559781725,"19":0.26861341417582607,"20":0.021410939914699424,"21":0.09295663329305041,"22":0.1051023880220716,"23":-0.33531653160705055,"24":-0.08408148444113042,"25":0.15915453230409415,"26":0.39835083219768647,"27":0.1938895928906079,"28":0.0023900180053528257,"29":-0.28628032312730967,"30":-0.11491355425935834,"31":-0.308862329196512,"32":0.040757895517910266,"33":0.15241467679317316,"34":0.36453427978375463,"35":0.090040306141857,"36":-0.09777919821431642,"37":-0.39206404563372965,"38":-0.4091696600862187,"39":0.009964734701992857,"40":-0.13860571863692536,"41":0.0675531825761459,"42":0.13485511581806703,"43":-0.26084799105205153,"44":-0.5165241004732911,"45":0.012058813889206916,"46":-0.004286519171254352,"47":-0.0475623910922406,"48":-0.04088912436193445,"49":0.20109426717759357,"50":-0.13439983023359178,"51":-0.11332514485578873,"52":-0.2764374639776249,"53":-0.046761359736351836,"54":-0.016612228926317946,"55":-0.2624541618100291,"56":-0.11666061997567269,"57":0.3907345755048352,"58":-0.3384651855112422,"59":0.06031811483169043,"60":-0.06073238915343854,"61":0.03341463045181753,"62":0.3256222937819117,"63":-0.4831580890697265,"64":-0.20530819099848938,"65":0.1312248880099217,"66":0.0949775847440077,"67":0.17022377947255773,"68":0.1140105553751412,"69":-0.06720728533676472,"70":-0.2022690236073394,"71":-0.5021811003233893,"72":-0.04634426145898523,"73":0.15540482009942994,"74":0.3749901997027976,"75":-0.06929680361470948,"76":0.15905649511007836,"77":-0.23273465562531967,"78":-0.14376831316170596,"79":-0.1408327442825787,"80":0.3697652984804866,"81":-0.2951083727922729,"82":0.01500239841623513,"83":0.1626340135368302,"84":-0.484334187887597,"85":-0.1733737945739819,"86":-0.1531571533474569,"87":-0.09176822958673826,"88":0.0280974085184314,"89":-0.2885660148721825,"90":0.07755891677340195,"91":0.3754578692640253,"92":-0.401157483380579,"93":0.05353173966845668,"94":-0.06221143571577381,"95":-0.09085706015401943,"96":0.08932804668212083,"97":0.31067383166644624,"98":-0.2416361541145062,"99":0.09421210182237015,"100":0.005877383024733501,"101":0.12281102011159205,"102":0.2823697514844901,"103":-0.40307497973797213,"104":0.0028596831723894287,"105":0.14145892575493094,"106":-0.33876977407881326,"107":0.10546957546998274,"108":0.16656969157323642,"109":0.02004240297821845,"110":-0.0762141782508297,"111":-0.3613802910955183,"112":-0.017872717984667212,"113":-0.0981057246381624,"114":-0.21105000625840456,"115":0.13971797991850118,"116":0.155689949542895,"117":-0.007655045310784628,"118":0.02164155566255037,"119":-0.20156575702256252,"120":0.17778833373321148,"121":-0.05725687139552407,"122":-0.12326973281044508,"123":-0.04907663095468202,"124":-0.2815544923737483,"125":0.16740950493216408,"126":-0.050112661243623326,"127":0.2723175901321131,"128":0.10606934851123384,"129":-0.17754393587752987,"130":0.0722210472472096,"131":0.025061265213563975,"132":-0.22004130299341373,"133":0.15460237040925576,"134":-0.05313000869925895,"135":-0.0379641958101485,"136":0.04450044152576185,"137":0.14272513764658892,"138":-0.04687603493144436,"139":0.12625824537292563,"140":0.04856329446186983,"141":0.035431257932222106,"142":0.38654062543226064,"143":-0.35581414160392044,"144":0.14996150095368577,"145":-0.15309419620865897,"146":-0.2304470665672399,"147":-0.15174708726750613,"148":-0.0012996224281051887,"149":-0.06783709220684137,"150":0.10261716678082,"151":-0.3277997228495561,"152":0.0607718492186738,"153":-0.09589193440268826,"154":-0.3100761146105387,"155":-0.14179735978685024,"156":0.017362036945853716,"157":0.06680656624608707,"158":-0.17074177156651232,"159":-0.14149559642418313,"160":0.25474848779075865,"161":-0.1439283439283202,"162":-0.18360348369929716,"163":-0.2884892038360527,"164":-0.2839515976473828,"165":-0.24917165068460662,"166":0.25798517347044403,"167":-0.2760195801165989,"168":0.1550157105818918,"169":-0.03537315809699675,"170":-0.0623456340055358,"171":-0.35496828030701744,"172":-0.2312727027240299,"173":-0.15937712656257222,"174":0.1260595571307343,"175":-0.18466196194473714,"176":0.11883654208361888,"177":-0.14229696749308834,"178":-0.13370646609392622,"179":0.0709741557174203,"180":0.0968599746268098,"181":0.0009275511799313181,"182":0.33792065091572204,"183":-0.32936843462690624,"184":0.2190451571598058,"185":-0.12158225741243463,"186":-0.14025703593666114,"187":-0.04291791990652862,"188":0.046453670136580166,"189":-0.023976135562399425,"190":0.01711152525967018,"191":0.03873331405690064,"192":0.13199149339078325,"193":0.011204098070106906,"194":-0.1627714737227641,"195":0.073911320485309,"196":0.06571598180146225,"197":0.18902917960043905,"198":-0.07692248329219652,"199":0.013898716056436377}}],"biases":{"sx":1,"sy":1,"depth":16,"w":{"0":-0.2935135243197695,"1":-0.1525065880095555,"2":-0.1938354034090275,"3":-0.34164976655075835,"4":-0.05811353076463914,"5":-0.18246616842194432,"6":0.018422290551840716,"7":-0.061078490695982604,"8":-0.061792932357200445,"9":0.19223515096804497,"10":-0.03422622868822284,"11":-0.12764430843029145,"12":0.027779638049766846,"13":-0.0038731318580078372,"14":-0.19128550375129555,"15":-0.01909325267941649}}},{"out_depth":16,"out_sx":14,"out_sy":14,"layer_type":"relu"},{"sx":3,"sy":3,"stride":3,"in_depth":16,"out_depth":16,"out_sx":4,"out_sy":4,"layer_type":"pool","pad":0},{"out_depth":10,"out_sx":1,"out_sy":1,"layer_type":"fc","num_inputs":256,"l1_decay_mul":0,"l2_decay_mul":1,"filters":[{"sx":1,"sy":1,"depth":256,"w":{"0":-0.20190186412199249,"1":-0.18746206476147148,"2":-0.04596491127258819,"3":-0.20114134256880548,"4":-0.21421599112755293,"5":-0.11662974618086412,"6":-0.0775671242373738,"7":-0.05642041677817054,"8":-0.2076981849975549,"9":-0.05989908978363009,"10":-0.30010086264575775,"11":-0.1590452625017506,"12":-0.24762740481892875,"13":-0.10930702806424125,"14":-0.28184489507966665,"15":-0.11462405252302926,"16":-0.3257414101875323,"17":-0.09362592052334441,"18":-0.22530998670828004,"19":-0.2780276782968865,"20":-0.31499052976028125,"21":-0.20245365992338815,"22":-0.12008846098158879,"23":-0.3223406622157531,"24":-0.4166154689120224,"25":-0.08785959222635902,"26":-0.44767464025951476,"27":-0.23064773053927437,"28":-0.25868916139632686,"29":-0.30512068134597314,"30":-0.22344036918770488,"31":-0.020676451448706716,"32":-0.26186668375468514,"33":-0.028676339544976445,"34":-0.07894197632254898,"35":-0.1744727253394253,"36":-0.39533167799626606,"37":-0.10795324357856716,"38":-0.20755980359613355,"39":-0.5272331346039849,"40":-0.48918085505592224,"41":-0.08980761710707093,"42":-0.31922572850458975,"43":-0.05346718844582905,"44":-0.3420945372383223,"45":-0.3040175193285863,"46":-0.10012527073218803,"47":-0.2385862270693186,"48":-0.27473446802837304,"49":0.1438117135609038,"50":-0.14375633886900666,"51":-0.18371094821755102,"52":-0.09788009930315446,"53":-0.2993968869743844,"54":-0.3074908587572762,"55":0.013830773665502246,"56":-0.3068059644496221,"57":-0.26100847906967034,"58":-0.09894111734617966,"59":-0.13337328626399586,"60":-0.2696094648440128,"61":-0.21698452973399848,"62":-0.2898450289519019,"63":-0.18422458587294438,"64":-0.5533218056024461,"65":-0.4233842990597428,"66":-0.37718046926421644,"67":-0.45545688150630376,"68":-0.2208221138752653,"69":-0.27464230019418456,"70":-0.30028889302789835,"71":-0.11396318342046295,"72":0.030096976195350407,"73":-0.032567282337947846,"74":-0.3105133546537321,"75":-0.41676141602194955,"76":-0.18088697669897824,"77":-0.263795344362673,"78":-0.34750562614115305,"79":-0.15499467854068094,"80":-0.505125592538912,"81":-0.2463247320787647,"82":-0.6210629541200543,"83":-0.2935044838785272,"84":-0.337366854962852,"85":-0.17998950777847642,"86":0.14196784307268584,"87":-0.4033213867844174,"88":-0.059291996317981856,"89":0.010484535005407197,"90":-0.4234045238398307,"91":-0.24039787704169074,"92":-0.13914924194512313,"93":-0.4666109361926131,"94":0.06548665860572774,"95":-0.4109940444450783,"96":-0.15898066891265808,"97":-0.3497334358389462,"98":-0.2378692986940473,"99":-0.28844882893074486,"100":-0.3653824709410162,"101":-0.44127423741479865,"102":-0.07063085720385445,"103":-0.4777236879931233,"104":-0.41569423606374317,"105":-0.3242485366186774,"106":0.13235481358431508,"107":-0.11440710161424653,"108":-0.1428033116241205,"109":-0.22271185601908278,"110":0.06822432835982865,"111":-0.1953775492383065,"112":-0.25220412541369863,"113":-0.23433644790969121,"114":-0.25729627197712496,"115":-0.12877023118921038,"116":-0.05944206244474616,"117":-0.5907986512665592,"118":-0.6450800552785155,"119":-0.20395284901097754,"120":-0.045848720982464564,"121":-0.40675516636016645,"122":0.2796327896506973,"123":-0.5066103726913623,"124":-0.20433892572256918,"125":-0.29694110918439526,"126":-0.1791028988779732,"127":0.04375213774772107,"128":-0.7545474625189965,"129":-0.6774547679288475,"130":-0.1417840894007643,"131":-0.34798857210193496,"132":-0.3037419233444641,"133":-0.11115882100558191,"134":-0.3653535984895315,"135":0.029109314535436918,"136":0.09966483914737456,"137":-0.007845708150501864,"138":-0.19894838198840512,"139":-0.1700102064046854,"140":-0.02140656183212281,"141":-0.001230319218886145,"142":-0.3654753596021139,"143":-0.17443836767804405,"144":-0.6424758476733509,"145":-0.3138230094303978,"146":-0.35050230929543935,"147":-0.2927227716263748,"148":-0.3609630234515932,"149":-0.29465635156505066,"150":-0.0892193943233888,"151":0.09367764666696568,"152":-0.049168685525432736,"153":-0.47349200814334275,"154":-0.04972318177864859,"155":-0.14268641660921005,"156":-0.03590314033701806,"157":-0.09743703989671831,"158":-0.30280431481593495,"159":-0.12322548916069267,"160":-0.18529454277714602,"161":-0.13998485274667427,"162":-0.428334954357584,"163":-0.006010841393300967,"164":-0.3303050684504231,"165":-0.2988789982779439,"166":-0.03058573969600195,"167":-0.31324697508345734,"168":-0.09098058014688463,"169":-0.1872624436875679,"170":-0.020800906462155242,"171":-0.08072110853621849,"172":-0.05728854395229618,"173":-0.22177997354836643,"174":-0.4453906373047049,"175":-0.2917562063496969,"176":0.10808935586121718,"177":-0.4915665650395596,"178":-0.01471306697398287,"179":0.0623611704197013,"180":-0.18143779353086498,"181":-0.022059469785587246,"182":-0.08365358380405902,"183":-0.5741951196035281,"184":0.2258457072012549,"185":0.12585055007078863,"186":0.18445830859809112,"187":-0.24433388288122732,"188":-0.193558320698471,"189":-0.11337220781501006,"190":-0.49927256072166765,"191":0.03410670692361408,"192":-0.10212132853292513,"193":-0.3622015530477356,"194":-0.018590264342274877,"195":-0.387194334169017,"196":-0.15221268644755018,"197":-0.03491636561174384,"198":-0.17153802971604074,"199":0.09255211487443044,"200":0.03341962954337545,"201":-0.26440577190070685,"202":-0.3925890596284878,"203":0.01378892762003686,"204":-0.02613083245833731,"205":0.10630871755837715,"206":-0.23463876638716932,"207":-0.09319240120762166,"208":-0.027971311865457288,"209":-0.2460375206014399,"210":-0.3312620710846381,"211":-0.47853394637752195,"212":0.05984260059229195,"213":-0.246138479529093,"214":-0.1852873231416033,"215":0.3204145518467829,"216":-0.515810363885026,"217":-0.5953105411309716,"218":-0.22132176795424197,"219":-0.251719214338786,"220":-0.07789024750286472,"221":-0.12394853382883586,"222":0.029592149809869715,"223":0.053126303379774566,"224":0.04261204695519839,"225":0.1051411278355101,"226":-0.18052972850794033,"227":-0.22309617007660035,"228":0.2012165000217299,"229":-0.3765167460379465,"230":0.006071497156282534,"231":-0.45880768580803116,"232":-0.6320902605125487,"233":0.061424580190824925,"234":-0.2400151850766302,"235":-0.08278746580172347,"236":-0.8757552782462593,"237":0.003692988450832296,"238":-0.39369468079517345,"239":-0.6064208583108031,"240":-0.00654210536788612,"241":-0.017898274216307138,"242":0.14345071285972674,"243":-0.1104128329365196,"244":-0.44456118617368673,"245":-0.2020188932966363,"246":-0.1298395286388768,"247":-0.39633061206127146,"248":-0.33262776765372026,"249":0.20286738333865056,"250":-0.9804047934551803,"251":-0.08727699953971235,"252":-0.7704406662587284,"253":-0.263956300420477,"254":-0.42886122906126084,"255":-0.09302464599121861}},{"sx":1,"sy":1,"depth":256,"w":{"0":-0.19575208016708562,"1":-0.0860000596916203,"2":-0.1532282575003722,"3":-0.32033960251811877,"4":-0.14789460110675962,"5":0.01943142383639565,"6":-0.026046480982135457,"7":-0.15581843789731004,"8":-0.07799393359049032,"9":-0.1617990526565386,"10":-0.18805521820935084,"11":0.08074179069401358,"12":0.029983160932971792,"13":-0.10304255368044161,"14":0.13751918406366417,"15":-0.005285091624575358,"16":-0.20177972375644326,"17":-0.3393834048527335,"18":-0.3033654975982985,"19":-0.34652490186135787,"20":-0.26020572230720274,"21":-0.13787998794893508,"22":-0.10904780446094751,"23":-0.2027739909961621,"24":0.20414746590433278,"25":-0.3197237210506925,"26":-0.15874177567048156,"27":-0.4278044760700386,"28":-0.06108940953516221,"29":-0.2837605685795187,"30":-0.47258538355383783,"31":-0.04926978327246073,"32":-0.22738222424234497,"33":-0.40312065457574525,"34":-0.12073226620549463,"35":0.005822453209503605,"36":-0.5249075829475126,"37":0.056000055977304085,"38":0.17492479940304148,"39":-0.11801699140159351,"40":0.2060359561434431,"41":-0.2740335003517872,"42":0.32220788052335597,"43":-0.09018726377128543,"44":-0.0032744281728159194,"45":-0.5049663748430196,"46":-0.1911003413653214,"47":-0.10380469688058261,"48":-0.1290713582564013,"49":-0.22326423514238244,"50":-0.16557372534998133,"51":0.05739979771554166,"52":-0.4941357735905775,"53":-0.06654383280086247,"54":-0.0788502384324036,"55":-0.010998836087721063,"56":0.1059820343015243,"57":0.19712516437624128,"58":0.06139466879930406,"59":0.0038116325792251007,"60":-0.06403985851601039,"61":-0.19788330442763022,"62":-0.15290618188159966,"63":-0.15931437414327146,"64":-0.2042155400787886,"65":-0.23315033974631239,"66":-0.10885859219693657,"67":-0.17227373955351968,"68":-0.30920894573235824,"69":-0.07485149801196836,"70":-0.16308159703090455,"71":0.03469577774721146,"72":-0.20048490090576304,"73":-0.40234326930270325,"74":-0.2859684957472959,"75":-0.2619813694999914,"76":-0.50623941106249,"77":-0.23474489189507974,"78":-0.21298758046693658,"79":-0.19870828649102898,"80":-0.21304050521516216,"81":-0.39440231863163494,"82":-0.31785051925955593,"83":-0.47024377996335087,"84":-0.3526070018963315,"85":-0.2320967377392521,"86":-0.30632758984712866,"87":-0.6378153493611102,"88":-0.19799924582704537,"89":-0.482272643838397,"90":-0.2197719382025917,"91":-0.143349821684142,"92":-0.4100268148620976,"93":-0.6844775730714661,"94":-0.4280512371937581,"95":-0.10116561809090349,"96":-0.13518904905862592,"97":-0.4041044291403692,"98":-0.1193662316469509,"99":-0.14346754496827385,"100":-0.6357969785245102,"101":-0.27268506080793675,"102":0.0354169876394493,"103":-0.2197949239476812,"104":0.02508704626791726,"105":-0.3034713258403181,"106":0.24860072134351713,"107":0.0672037055478794,"108":-0.11781689343737971,"109":-0.15765262913126082,"110":-0.3824001396716445,"111":-0.07224527513183936,"112":-0.11908805255206414,"113":-0.06919052574897443,"114":-0.37648164291203495,"115":-0.11113464762918869,"116":-0.5916572936929289,"117":-0.2823578320187181,"118":-0.16465720806282136,"119":0.14400782790908012,"120":0.10327297644796253,"121":-0.08859077615837728,"122":-0.24331206275415143,"123":-0.26776554170931005,"124":-0.17397074393743756,"125":-0.15832172692816265,"126":-0.3724668931561399,