{"layers":[{"out_depth":1,"out_sx":28,"out_sy":28,"layer_type":"input"},{"sx":5,"sy":5,"stride":1,"in_depth":1,"out_depth":8,"out_sx":28,"out_sy":28,"layer_type":"conv","l1_decay_mul":0,"l2_decay_mul":1,"pad":2,"filters":[{"sx":5,"sy":5,"depth":1,"w":{"0":-0.0975029167067036,"1":0.09404403432066909,"2":-0.35397397423577653,"3":0.20598990486765756,"4":0.05785319206118237,"5":-0.4353196175563176,"6":-0.16840659295638688,"7":-0.2973269443562691,"8":0.32151371542307927,"9":0.24712501822296634,"10":-0.4959913994221712,"11":-0.05020830054925433,"12":0.14772623233086535,"13":0.43357089982544306,"14":-0.014766236815940472,"15":0.10335943905840107,"16":0.509660630578522,"17":0.6749678339964339,"18":0.45322333421988487,"19":-0.2136869884457254,"20":0.31016744495532095,"21":-0.05665709003967495,"22":-0.2593230669526264,"23":-0.5783035163977583,"24":-0.9260368297848949}},{"sx":5,"sy":5,"depth":1,"w":{"0":-0.4237908943215306,"1":0.07545686302384425,"2":-0.04083206283364181,"3":0.5313668042130644,"4":0.2579298163478138,"5":-0.6357759214412085,"6":-0.530827926451406,"7":0.18018334607857966,"8":0.21401303859722656,"9":0.48355405538989926,"10":-0.2978372534732704,"11":-0.2504211327650387,"12":-0.5348857599341648,"13":0.15473364772948528,"14":-0.13539552274484248,"15":-0.11325851708385823,"16":-0.12318637469713749,"17":-0.2766167989566401,"18":-0.13576281962993222,"19":-0.01290102298567539,"20":-0.21169150410182835,"21":-0.21844985462347585,"22":-0.3200501756890725,"23":0.07168553440091714,"24":-0.09200436782599873}},{"sx":5,"sy":5,"depth":1,"w":{"0":-0.9988189028170734,"1":-0.27212212944238157,"2":-0.3380195242048089,"3":-0.42939235209634175,"4":-0.050578305582746216,"5":-0.3644008609123087,"6":-0.39431264187622744,"7":-0.2270347693584732,"8":-0.34697164443003425,"9":-0.3506902299695024,"10":0.6190562233504883,"11":-0.01550442118627232,"12":-0.3228552712856425,"13":-0.09068145408050785,"14":-0.554767454581279,"15":0.49608345863815784,"16":0.6200318075563448,"17":0.14738194779193636,"18":0.4085645406466622,"19":-0.14355692674640472,"20":0.33593542950826233,"21":-0.010563669181784589,"22":0.23853853531764183,"23":0.32580208565269303,"24":0.08528615804135219}},{"sx":5,"sy":5,"depth":1,"w":{"0":0.0861721501940784,"1":0.004132381536047912,"2":-0.08850441053490915,"3":-0.32323213402552575,"4":-0.29763227159836836,"5":0.017341815633671664,"6":-0.2229800625540035,"7":0.03419758912640898,"8":0.0829365415186886,"9":0.13983604366363434,"10":0.3989602473569689,"11":0.14281879170469322,"12":0.1032163540015322,"13":-0.11291160137987939,"14":0.24072231967570532,"15":0.16764519451703808,"16":0.27978588171823215,"17":0.08783474192704552,"18":0.22519769246255167,"19":-0.7080001517195227,"20":-0.5211170980374948,"21":-0.3361508069144583,"22":0.36561265665690484,"23":-0.16057630994509905,"24":0.08453347046427886}},{"sx":5,"sy":5,"depth":1,"w":{"0":0.29969453667449686,"1":0.3355288730168022,"2":-0.10250075515737496,"3":-0.219807125803971,"4":-0.35453361304954184,"5":0.4164017824008512,"6":0.13759731106577047,"7":0.1286377212588315,"8":-0.15274707373697335,"9":-0.46346366071945866,"10":0.27780559088054435,"11":0.2286758867093009,"12":-0.4928386368649941,"13":-0.36391852954438614,"14":-0.3040875721335516,"15":0.4231593467784853,"16":0.03658264759323296,"17":-0.2570781641923893,"18":-0.1307551326455008,"19":0.011491668133312908,"20":0.05380803792226745,"21":0.25097218927532056,"22":0.12815916519867984,"23":-0.4168113223468052,"24":0.14321258251501445}},{"sx":5,"sy":5,"depth":1,"w":{"0":-0.051170418828688474,"1":0.30020694163029044,"2":0.2780570193028461,"3":0.5637538579802966,"4":0.42805163221871767,"5":0.25704615218255455,"6":0.19155033992962844,"7":0.4600953496599972,"8":0.28519411391737876,"9":0.2623598250989145,"10":0.22068878857114582,"11":-0.02782003534389146,"12":-0.05070226264546188,"13":-0.0494543334697112,"14":0.3672572307526133,"15":-0.3310980296281205,"16":-0.3260131727808227,"17":-0.4503058531452839,"18":-0.11338740536513492,"19":-0.03188598071381743,"20":-0.14209469908224243,"21":-0.4002595818863868,"22":-0.3124515021531775,"23":-0.16213210026080205,"24":-0.2149256193849445}},{"sx":5,"sy":5,"depth":1,"w":{"0":-0.32723452925103785,"1":-0.2686890273316714,"2":-0.08608496064555217,"3":-0.22773101840862528,"4":0.3660943861213667,"5":-0.28786900820645317,"6":-0.1019231546529411,"7":-0.4769580999098762,"8":0.014518860434751639,"9":0.15288076869765607,"10":-0.15006681070582809,"11":-0.5667122781986158,"12":0.0008679282137082716,"13":0.043897735066637876,"14":0.3533479999215882,"15":-0.5073179160423367,"16":-0.2555371454234476,"17":0.24774748286650278,"18":0.07128968781444106,"19":0.20893843317479474,"20":-0.3276320181243792,"21":-0.24756650348831047,"22":0.0607486145353544,"23":0.433737800091666,"24":0.12589569021149932}},{"sx":5,"sy":5,"depth":1,"w":{"0":-0.04772115496203274,"1":0.452153139640039,"2":0.40810518792525374,"3":0.40813971933849713,"4":0.24606253919323307,"5":-0.6902298545101004,"6":0.45204608381498956,"7":0.4407171146082807,"8":0.1862439535385096,"9":-0.4781061674888516,"10":-0.6901683995814268,"11":-0.4669428826719345,"12":-0.24670457845892096,"13":-0.6705826555718661,"14":-0.6632242483997163,"15":-0.19926097384527336,"16":-0.7063016927611088,"17":-0.6583669862506311,"18":-0.607956333920208,"19":0.07676478098381631,"20":0.1912343918214188,"21":-0.1641137753809636,"22":-0.3988331439346029,"23":-0.020079404384923605,"24":0.3006645183922689}}],"biases":{"sx":1,"sy":1,"depth":8,"w":{"0":-0.020813950890527306,"1":0.06781465122445142,"2":-0.008265645569002382,"3":-0.036344509788807,"4":0.01097198333230971,"5":0.0667413975688821,"6":0.04602588147688954,"7":0.23755998357112715}}},{"out_depth":8,"out_sx":28,"out_sy":28,"layer_type":"relu"},{"sx":2,"sy":2,"stride":2,"in_depth":8,"out_depth":8,"out_sx":14,"out_sy":14,"layer_type":"pool","pad":0},{"sx":5,"sy":5,"stride":1,"in_depth":8,"out_depth":16,"out_sx":14,"out_sy":14,"layer_type":"conv","l1_decay_mul":0,"l2_decay_mul":1,"pad":2,"filters":[{"sx":5,"sy":5,"depth":8,"w":{"0":-0.03986479796387762,"1":0.08293137766586627,"2":-0.15673989189590562,"3":-0.0016913670363933563,"4":-0.043555860617999674,"5":0.07508177363589591,"6":0.20913279189312653,"7":-0.014972065199316867,"8":-0.09505623007775832,"9":0.17142326369235356,"10":-0.23739647483973536,"11":-0.0018280881643701367,"12":-0.0132465409482136,"13":0.2129263581558133,"14":0.02924472683464786,"15":-0.10837085018606085,"16":-0.17037997171238056,"17":-0.0248932646872094,"18":-0.16644405712809107,"19":-0.11739574771032353,"20":0.0757167111429793,"21":0.18939256621241898,"22":-0.02282183390136867,"23":-0.13623035086759216,"24":0.12720966573024015,"25":-0.12222370354174505,"26":-0.06550791960671193,"27":-0.01766321578754434,"28":-0.13459608722330985,"29":0.07883142274908415,"30":0.01856182605612747,"31":-0.10839597978220875,"32":0.21622961362504522,"33":-0.20841804466788955,"34":0.0032284584336199243,"35":-0.06067052481711649,"36":-0.3090317901505341,"37":0.06794256092232563,"38":0.014035047665566316,"39":-0.13161889223206183,"40":0.07703921024791693,"41":0.17120730001305232,"42":0.04171638575646562,"43":-0.1248297362202807,"44":-0.10318121044787892,"45":-0.037950695379724966,"46":-0.017078610254586544,"47":-0.0485731102968243,"48":-0.07674555587027224,"49":0.14901266214972,"50":-0.15104684309012997,"51":-0.12247127769611733,"52":-0.0508135782192291,"53":0.08895271573056293,"54":0.0011762257215527153,"55":-0.15827910749614973,"56":-0.010389487666008107,"57":0.1929218603171831,"58":-0.07120967778755292,"59":-0.15488355748460758,"60":-0.06964010465656063,"61":0.07133596633068379,"62":0.06476259668900117,"63":0.14951231519223734,"64":0.09241961185470435,"65":0.045857407919659136,"66":-0.11891769668737709,"67":0.10661541353240443,"68":-0.12498458991322126,"69":0.15257959539201338,"70":-0.06669400049499603,"71":0.06662017046791112,"72":0.14225100360348128,"73":0.04775130781797956,"74":-0.13861661126111893,"75":-0.0012505587930831269,"76":-0.04778935679769964,"77":0.3807391574366641,"78":0.025298483695452293,"79":-0.004494798813882655,"80":-0.08688639297554422,"81":0.10349972565288747,"82":0.02395758660190806,"83":-0.11039728423989553,"84":-0.1368576858527375,"85":-0.10703293733976776,"86":-0.06037588843922647,"87":0.08108150830281281,"88":0.03203703341618231,"89":0.228661055615078,"90":-0.017650667010218078,"91":-0.007873529832161757,"92":-0.09698357822763409,"93":-0.1521069164182058,"94":-0.14905594884795167,"95":0.1786834049363553,"96":-0.28270091686972854,"97":0.04842936233657685,"98":-0.10422243592999282,"99":-0.042854961382580464,"100":-0.2977924915301181,"101":0.0500783515582357,"102":-0.10915055627534809,"103":0.2546852264456692,"104":-0.21714840315433628,"105":-0.03068863683514804,"106":-0.22041351141290055,"107":-0.25252045907923243,"108":-0.1861734000597672,"109":0.01059922878311066,"110":-0.12144725257617259,"111":0.4057925528277041,"112":0.06039384159989079,"113":0.10793964682256851,"114":-0.3477393698615804,"115":-0.2011434796242949,"116":-0.09047969074317011,"117":0.17658203638658415,"118":0.03937051057834464,"119":-0.06732242018501058,"120":-0.04762527058949822,"121":-0.00599374328385353,"122":-0.08852871472977399,"123":-0.3606004220398463,"124":-0.060988584600311355,"125":-0.2787617246788684,"126":-0.03307790898628493,"127":0.21838830573829587,"128":-0.09594484372343662,"129":-0.08302843553859211,"130":-0.16948082206695778,"131":-0.19848587403515422,"132":-0.0030784780171552563,"133":-0.2690357685041275,"134":0.04706105029657799,"135":0.285543548274411,"136":-0.07765109814779542,"137":-0.1457266663457333,"138":0.048332924714534986,"139":-0.24104601019068644,"140":-0.16264340387902848,"141":-0.3464566140570439,"142":0.18220832500805884,"143":0.15430997343044794,"144":0.0017598020446270989,"145":-0.2402165470473743,"146":0.29954437311138893,"147":-0.08502934926595446,"148":-0.1795585014935431,"149":-0.14093559127554892,"150":0.030407612797577976,"151":0.08986469760389788,"152":-0.05745268770361055,"153":-0.22959100209320593,"154":0.10258718788316741,"155":-0.16061198358090334,"156":-0.05952634330282591,"157":-0.140411803744235,"158":0.004058102200407279,"159":0.02215738518614168,"160":0.3833634113842449,"161":-0.19358776568257394,"162":0.00927738433721475,"163":0.04674669575049314,"164":-0.08270897606919071,"165":-0.49989041758034947,"166":0.13939006089882697,"167":-0.04582063050412412,"168":0.4027552310092949,"169":-0.21006356473975338,"170":-0.045229117282673814,"171":-0.07434200036659694,"172":-0.1361044757851742,"173":-0.329000921747176,"174":0.19929949686813964,"175":-0.18239104346648702,"176":0.252858606985925,"177":-0.13847439503065123,"178":0.02198407755353763,"179":0.14861170997455725,"180":-0.12900304314649938,"181":-0.03770233997130642,"182":0.0003468408686583235,"183":-0.38076435273046827,"184":0.14918213414459272,"185":-0.11299455014598102,"186":0.08743558556713696,"187":0.28912447130857816,"188":0.10513746850097196,"189":0.07591665081702079,"190":0.1323246096077518,"191":-0.34266871014804695,"192":0.08784776172371275,"193":-0.06762804879830671,"194":0.14144601118249897,"195":0.07189967208017736,"196":-0.05993745856837257,"197":-0.015890729632379395,"198":0.12609421057173928,"199":-0.19904274355871243}},{"sx":5,"sy":5,"depth":8,"w":{"0":-0.06523039546202661,"1":0.16323364968287526,"2":-0.2217012942074293,"3":-0.0005937062590848919,"4":-0.03314477813092805,"5":0.147801707584411,"6":0.01632051875442999,"7":0.20840857393998294,"8":-0.06414470676014947,"9":0.15948839926628858,"10":-0.16559484650413472,"11":-0.10892879310801387,"12":-0.0990517491322415,"13":0.1774282381155592,"14":-0.052102573081277095,"15":0.3146443656770137,"16":0.040246141328279236,"17":0.2204797249019429,"18":-0.13533717866686654,"19":-0.18690794090531163,"20":-0.06758976185014955,"21":0.0893680883743475,"22":0.012403002047727074,"23":0.30891477781480003,"24":0.16637221183147677,"25":0.07450778221230199,"26":-0.2718569668494988,"27":-0.06736616112984115,"28":0.18493574528297405,"29":0.2543806598150405,"30":0.08725831545501668,"31":0.07967959472649488,"32":0.16256736055130955,"33":0.17718880847308544,"34":-0.2754011004877556,"35":0.08021492341265184,"36":0.006849985156546259,"37":0.17194721729857085,"38":0.1960199662983459,"39":0.07195132235673962,"40":-0.045629024522832955,"41":-0.07968653325970051,"42":0.04193750990635569,"43":-0.2968042804731725,"44":-0.33923509337871344,"45":-0.22263523086515438,"46":-0.07135977323383876,"47":0.030793112811052546,"48":-0.07464286810055105,"49":0.03292259307578565,"50":0.06066160110044108,"51":-0.34252533827213993,"52":-0.32993301027817895,"53":-0.26821037356957306,"54":-0.12121787106413624,"55":0.08769845699287396,"56":0.02486854453391612,"57":0.06388616029029877,"58":0.1896818321671184,"59":-0.2568681505785695,"60":-0.20504670801269026,"61":0.041075356786816765,"62":-0.15686923212258713,"63":0.24157892497829947,"64":-0.13140953762557742,"65":0.06897800254380247,"66":0.11870578252181639,"67":-0.256528720783765,"68":-0.2145236603053187,"69":0.060486716310729285,"70":-0.15022710837431644,"71":0.16098231334373214,"72":-0.30563586677596344,"73":0.10698897102127623,"74":-0.2142640539212638,"75":-0.24385986229397505,"76":-0.019225580853130746,"77":0.12245796323300046,"78":-0.17891890945079805,"79":0.14094214625207466,"80":0.21221476576095996,"81":-0.028872688984387197,"82":0.12083452242032214,"83":-0.2558884492579388,"84":-0.29301701727129104,"85":-0.3080182305113472,"86":0.17241705394311455,"87":-0.03244428325715843,"88":0.11867782907452529,"89":-0.2038545426545986,"90":0.11880714691083244,"91":-0.12117453649347623,"92":-0.22364466701904323,"93":-0.21238804801189462,"94":0.14712058143861587,"95":-0.0314506553289895,"96":-0.07685652819142494,"97":-0.1734169253747606,"98":0.11961428929866103,"99":-0.17955976900084208,"100":-0.11907743488447048,"101":-0.3648745446950158,"102":-0.1279821513738641,"103":-0.10221374667110271,"104":-0.2824963579062839,"105":-0.19935509244358984,"106":0.2935100493593498,"107":0.027928500422884386,"108":0.05259232100134056,"109":-0.4358377031274909,"110":-0.09852812259760002,"111":-0.019169670881906724,"112":-0.27605276303375836,"113":-0.2650980499566495,"114":0.2867278575626494,"115":-0.07221977448535218,"116":-0.11349422671036186,"117":-0.3599945287831606,"118":-0.10495860173449574,"119":0.2758055950063105,"120":0.3318117052680577,"121":-0.2996118080233243,"122":0.010662357443640602,"123":-0.016791336856068418,"124":-0.08155854162120114,"125":-0.08815031092198582,"126":0.03264982900293312,"127":-0.1232588918107696,"128":0.0496619737917205,"129":-0.18540713833511088,"130":-0.1208867996991045,"131":0.24184977421875603,"132":-0.02718292605152134,"133":0.06838337753684261,"134":-0.09416368118702542,"135":-0.011661308354703684,"136":-0.03611622304544436,"137":-0.06269219268648109,"138":0.0580249649051167,"139":0.10814641299625825,"140":-0.06727044568884225,"141":0.04627313224789014,"142":-0.1411685138892097,"143":-0.20063043206214767,"144":-0.22565095136952848,"145":-0.07804561721663002,"146":0.18447405552471752,"147":-0.030483970503864526,"148":0.04109508858523567,"149":0.09845372920554542,"150":-0.11496267892193583,"151":-0.19702049209860595,"152":-0.13366546894921624,"153":-0.20973191001960248,"154":0.3124116921647868,"155":0.03907332813602252,"156":-0.04188952076111222,"157":-0.08720044391595841,"158":-0.024205635964215877,"159":-0.20614940564683149,"160":0.1343696504636428,"161":-0.1824699131864984,"162":-0.1589006519989354,"163":0.12588837240735828,"164":0.12862367348849799,"165":0.051638516584900304,"166":0.03344831439328942,"167":-0.2246209994323448,"168":-0.03139658969422828,"169":0.05275921419627118,"170":-0.012175661771716447,"171":0.2230159266911999,"172":0.1347744122436027,"173":0.1245519299730511,"174":-0.08563001477833038,"175":-0.18150626206222786,"176":-0.035070666368572895,"177":0.20161451372270128,"178":0.06450213357072776,"179":0.04470659947661601,"180":-0.12283920276514378,"181":0.10116227748415259,"182":-0.08161867755814921,"183":-0.04331754211241308,"184":-0.06549278982527854,"185":0.2985120756764176,"186":0.17057725247259561,"187":0.17611076673757792,"188":-0.19309213903564482,"189":0.1651499603165232,"190":-0.11902615759215324,"191":0.04395630168505787,"192":0.11167766366199328,"193":0.26367461669067527,"194":0.2067280610968968,"195":0.11408455029539094,"196":-0.10363244140391953,"197":0.09373479382968931,"198":-0.13026961690809424,"199":-0.06014366604538272}},{"sx":5,"sy":5,"depth":8,"w":{"0":0.12135815225412837,"1":-0.3103737158543961,"2":0.035462841195043185,"3":-0.07583874917388098,"4":0.3860788582500283,"5":0.034139081100337344,"6":-0.1419728748856247,"7":-0.039821057098100035,"8":-0.023436939182959284,"9":-0.19740412137483063,"10":-0.3239484153920944,"11":-0.12175853046998995,"12":0.2712381335556049,"13":0.025660947814429843,"14":0.1489488469462075,"15":-0.24083816672459984,"16":0.11847317750444111,"17":-0.08962032351403665,"18":-0.26005259544052245,"19":0.09547933375018014,"20":0.018074343736420445,"21":-0.07432245939668558,"22":0.14330157301798394,"23":-0.21198624675312872,"24":-0.03562796918005853,"25":-0.25347202997822316,"26":-0.33422612028316123,"27":-0.1010967999086547,"28":-0.0631412005422558,"29":0.18754913615694416,"30":-0.058725881881846055,"31":-0.19386051559660972,"32":0.04092288813627074,"33":-0.07012358035418156,"34":-0.29334758437234904,"35":0.06519138535968706,"36":0.01313674122041823,"37":-0.012797370789403946,"38":-0.09715456262163881,"39":-0.27214250787799993,"40":-0.1227244197385241,"41":-0.06578507949051127,"42":-0.11817645001686189,"43":0.11740211792371655,"44":0.10032624375919418,"45":0.06974246216454053,"46":-0.16983805021314277,"47":-0.1573177326405369,"48":0.053663812648076285,"49":0.2658884928960637,"50":-0.03878330008664866,"51":0.07623268266694559,"52":-0.10177826820994365,"53":0.11901849067597942,"54":0.06583796700238818,"55":-0.06580178909038173,"56":-0.051809561336038326,"57":-0.14851005015214788,"58":-0.06182777451518465,"59":0.02612721391006241,"60":-0.020513410748792215,"61":0.10083781138984255,"62":0.15357402041440182,"63":-0.1600526837148794,"64":-0.10421205543063684,"65":0.007033626763740632,"66":-0.24766773723452282,"67":0.06259176626930907,"68":-0.24099755914586105,"69":0.16397597583754775,"70":-0.015392163917736604,"71":-0.08874820225726092,"72":-0.011171136016343931,"73":-0.052916403026717906,"74":-0.07659311279563713,"75":0.33484853353636745,"76":-0.061899156137843185,"77":0.06289980926885962,"78":-0.10085160880480638,"79":-0.32659589942942724,"80":-0.1960192373911079,"81":0.20564084316641984,"82":-0.16324581755487894,"83":-0.028413441271943864,"84":-0.21172464316997922,"85":0.003700523482327303,"86":-0.20441255957092733,"87":-0.05345291574212638,"88":0.15400599241649332,"89":0.11293811703624276,"90":-0.06852189515525783,"91":0.07566786584160726,"92":0.010264181207964811,"93":0.13934110026811405,"94":-0.07723440730575672,"95":-0.11932018042722334,"96":0.07134022710738194,"97":-0.0015512984994722413,"98":-0.09405413345629086,"99":0.04499469396173703,"100":-0.35681382657786964,"101":0.21078170471753002,"102":-0.20447710802899066,"103":-0.21586288818218502,"104":-0.15031246512500207,"105":-0.06655959249711758,"106":-0.01154574965805053,"107":0.1395975491457092,"108":-0.2795700055894163,"109":0.19580235292477516,"110":-0.1453687558703841,"111":-0.06573042563136264,"112":-0.018319122430511703,"113":0.0637494557669682,"114":-0.06181595334811778,"115":0.14042708967355227,"116":-0.18667023581899472,"117":0.18746268467219845,"118":-0.27295374019088525,"119":0.048290414805807376,"120":-0.0905495193636262,"121":-0.08288801808222687,"122":0.18086832159504818,"123":0.016467572580397365,"124":-0.1683108873392045,"125":-0.1400338781104499,"126":0.07603391228043817,"127":0.05647452510642696,"128":-0.09932602046627226,"129":0.009271348578634883,"130":-0.0022986868361866645,"131":-0.052233524423642014,"132":-0.21173041678090293,"133":-0.020626831324450794,"134":0.006331167669131402,"135":0.11308117857317668,"136":-0.012764917876959476,"137":0.19604766116588584,"138":-0.017011272500063505,"139":0.09094058104781517,"140":-0.15751267084359735,"141":0.08438888446110604,"142":-0.05609044418733277,"143":0.09769081886173539,"144":0.04509793026474361,"145":0.020607995498753525,"146":-0.12246621458020565,"147":-0.012051471360229197,"148":-0.35859818665092685,"149":0.15895611052346947,"150":-0.0855016288968804,"151":-0.03376398995463492,"152":0.1018752296240864,"153":-0.06521090100372456,"154":-0.28945852615878787,"155":0.01538397914838761,"156":-0.09936951905478979,"157":-0.014906877293020742,"158":-0.07928695559217273,"159":-0.1621809110944558,"160":-0.050393745289950484,"161":0.00812733173863472,"162":0.2773986200371206,"163":-0.04293341357291225,"164":0.09990374336583153,"165":-0.19168632158784482,"166":0.02097567217149426,"167":0.000304085661239623,"168":0.06374327393847504,"169":-0.1115198050228421,"170":0.15853814297057875,"171":-0.0405483796490266,"172":-0.10230238255187867,"173":-0.34489635538520635,"174":0.08942503462313882,"175":0.06417259306158334,"176":0.1146425818051701,"177":-0.1628388007439091,"178":0.15156432997608657,"179":-0.18591159871919963,"180":-0.1541146587462592,"181":-0.11687997284485144,"182":0.08259726861310514,"183":0.07446150842442713,"184":0.14591173739273067,"185":-0.13798905211085855,"186":0.10509270759378059,"187":-0.30138656872052166,"188":-0.039442859610183435,"189":0.05818312988435891,"190":0.06790546195877578,"191":-0.0060268922443392,"192":0.1026020101973635,"193":-0.24098056910829144,"194":0.0429984570281638,"195":0.0509940855398507,"196":-0.09954893139360402,"197":0.1127016325720911,"198":-0.19811575233368198,"199":-0.18061881263585705}},{"sx":5,"sy":5,"depth":8,"w":{"0":-0.11565053226590842,"1":-0.01569233982742927,"2":-0.22500978370536193,"3":0.02430481023606698,"4":-0.11103249478297765,"5":-0.0006291409824027775,"6":0.008887990204975181,"7":0.22208286081990308,"8":0.14150753861516482,"9":-0.06763695071018375,"10":-0.06439445968975528,"11":-0.10104544712409003,"12":-0.031595019130789784,"13":-0.14843013427411333,"14":0.13714013496179323,"15":-0.09664020674448016,"16":0.14524549962988603,"17":-0.16123496050484648,"18":0.28124448484758124,"19":0.036286320883759604,"20":-0.04792458646862761,"21":-0.06284316606779587,"22":0.037560097841545854,"23":0.06815362777878269,"24":-0.16896900141051424,"25":-0.037588095463863075,"26":0.22662167887195964,"27":0.08509703220708985,"28":0.028290194188236632,"29":-0.06478079793729652,"30":0.056463838954632896,"31":0.09453852131733893,"32":0.03165622906640188,"33":0.09128030985769865,"34":0.11049479482720133,"35":-0.004253389253387572,"36":-0.08709111188907381,"37":-0.04289495938743306,"38":-0.038728888604282065,"39":-0.04500619767457466,"40":0.23560986493953112,"41":0.19597566716899026,"42":-0.11125785575017326,"43":-0.125086648672497,"44":-0.14543698988703568,"45":-0.0724948304479329,"46":0.2804626860018444,"47":-0.038270285119141226,"48":0.31956351435793795,"49":0.09117634731789903,"50":0.02910046594570224,"51":0.01704495675679307,"52":0.013298545418756,"53":0.11624846483213515,"54":0.05506578410961351,"55":-0.07748327634750492,"56":-0.07446519354684349,"57":-0.024057677930367928,"58":-0.002470424960187858,"59":0.04050447680387703,"60":0.09409706454726915,"61":0.008284829853514442,"62":-0.18972457785023192,"63":0.05615668410873998,"64":-0.1458267356452216,"65":-0.013796764890959653,"66":-0.05822540753030748,"67":-0.05204121466070192,"68":-0.17458131449532682,"69":-0.04889239801231559,"70":0.025603658324949555,"71":-0.006838714956751307,"72":0.09138895073788489,"73":-0.0930569011379175,"74":0.13969388077808584,"75":-0.024802426227608778,"76":-0.12891870308623,"77":-0.1260967297905665,"78":-0.05632830548539529,"79":-0.13665422962517698,"80":0.33088955148258475,"81":0.1287996936066845,"82":0.06952621207244448,"83":-0.020380934292659518,"84":-0.07354623950545032,"85":-0.10980240962664087,"86":0.042404760527238135,"87":0.24075275936255303,"88":-0.0703529762581904,"89":0.0001174980505043469,"90":0.20921444959024982,"91":-0.1520545604332524,"92":0.08149103771451906,"93":0.06169746951728703,"94":-0.06771443595946512,"95":0.006149180637926982,"96":-0.24335520574646108,"97":0.0335232496135778,"98":-0.20873188039803128,"99":-0.14715163321110228,"100":0.029107172232510685,"101":-0.0686304355348321,"102":0.02066518787825756,"103":0.06614552751289277,"104":0.18085043703986553,"105":0.11122382029612109,"106":-0.15397625037086207,"107":-0.1431299213566091,"108":-0.22040685999191187,"109":-0.07914135026144918,"110":0.04301983061512636,"111":-0.25254427199398793,"112":0.09130398264850946,"113":-0.11496285415147899,"114":-0.07885597597312807,"115":0.007287287635522068,"116":0.05082188875440677,"117":-0.15495093163458715,"118":-0.07557886866184012,"119":-0.23328410736435828,"120":-0.01872975694314114,"121":-0.212762416488509,"122":-0.25058619207036154,"123":0.06863539210245882,"124":-0.046000959709732135,"125":-0.01020448777765365,"126":-0.28852809375667143,"127":0.32513660848848586,"128":-0.17005440230544294,"129":-0.2982384529630517,"130":-0.054953462327981976,"131":-0.010724289770951224,"132":0.059900814469109,"133":-0.16209734578243912,"134":0.06592227365411024,"135":-0.1825424041984006,"136":-0.053236474339734184,"137":-0.021327929469207696,"138":0.024449181144573135,"139":-0.1820798192271493,"140":-0.1710380371527535,"141":-0.26204059336256674,"142":0.08681129162170789,"143":-0.20425347215343098,"144":0.06852865748891862,"145":0.2245098102416674,"146":0.12824118949429691,"147":-0.21662624670114142,"148":-0.28704063427605636,"149":0.019095255321361925,"150":0.11970054295969107,"151":0.0048311670133258785,"152":-0.019086143290271296,"153":0.1409562202690738,"154":0.03629550616573321,"155":-0.07552264038301099,"156":0.01944023848310768,"157":0.1526387014770651,"158":-0.10791808833670807,"159":0.2887373311447052,"160":-0.05894988828864121,"161":-0.17011496243768137,"162":-0.2029793644164602,"163":-0.1724236795678458,"164":0.012487998725840676,"165":-0.14366633834188725,"166":-0.037662736050424084,"167":0.3263579341832331,"168":-0.16453949344917193,"169":-0.18500741938800058,"170":-0.12671801945696912,"171":-0.1386984503010273,"172":-0.1287867168700662,"173":-0.1354753808082526,"174":0.18909235343811628,"175":0.10569341914496906,"176":-0.12746705130966127,"177":-0.05663932402331208,"178":0.061200834237176704,"179":-0.105723438143487,"180":-0.16302970409857515,"181":-0.1298696499972787,"182":0.15318974634142332,"183":0.09526920632846604,"184":0.01108889712176789,"185":0.11095119425882423,"186":0.22114749787890736,"187":-0.059784441635313115,"188":-0.12127644105856752,"189":-0.24742229470301802,"190":-0.15542780194070696,"191":0.14452287043304018,"192":-0.14490719285569933,"193":-0.15735691240766853,"194":0.06984812623844525,"195":-0.041399465004637676,"196":0.00823458324480612,"197":-0.12482392950620866,"198":-0.14580140340313982,"199":0.1912279563852499}},{"sx":5,"sy":5,"depth":8,"w":{"0":-0.051339813728030356,"1":-0.00210411933270926,"2":0.12770849406309467,"3":0.250809099607738,"4":0.010498665505567559,"5":-0.004605239947088745,"6":-0.10044891674340511,"7":-0.05737330672301188,"8":-0.18234070686502052,"9":-0.035055527416276475,"10":0.17953844977855976,"11":0.13684603932022762,"12":0.07044406554725638,"13":-0.13597411580357865,"14":-0.4239097231008184,"15":0.05633769740747762,"16":-0.14179376491984672,"17":0.11730140780205119,"18":-0.044294800461348434,"19":-0.21319880854356502,"20":-0.03017659542569618,"21":0.03831205487608907,"22":-0.03112887236991646,"23":0.027773076076643668,"24":0.04639009040948044,"25":-0.01756511311850063,"26":-0.1014362576099007,"27":-0.15137829341639017,"28":-0.1173421477408611,"29":-0.15762260952777601,"30":0.024203777505149904,"31":0.019109105705138935,"32":0.084230072096,"33":-0.06087499769825992,"34":0.07810322155314185,"35":0.14153412331201895,"36":-0.1352198231378567,"37":-0.13117716356445433,"38":0.00879660336573525,"39":-0.14756617286841767,"40":0.06495152673145994,"41":0.13459736016744753,"42":0.14206676658548628,"43":0.11016475847750003,"44":-0.16781674300516022,"45":0.12304630596575082,"46":-0.34226516100915405,"47":0.06190052270039607,"48":0.06784023254368172,"49":-0.08672456160589352,"50":0.16593556089272596,"51":0.11271584411868868,"52":0.01433019962813597,"53":-0.05387643485499784,"54":-0.3034127247629205,"55":0.09690512430334615,"56":0.17997365805413304,"57":-0.13013618108057046,"58":0.3178032637534548,"59":0.12269276013958368,"60":-0.08139514203169426,"61":0.02518268354795827,"62":-0.049018090651413125,"63":0.004768896168821474,"64":0.32015187738440914,"65":0.11022121091996646,"66":0.05523859166151719,"67":0.15158490819962658,"68":0.03547107933104343,"69":0.10351881665816752,"70":0.013154793400954434,"71":-0.0277812106212072,"72":0.09574818552885776,"73":-0.07038481318217792,"74":0.09848734212172276,"75":0.0033679483604947677,"76":0.20212102056798917,"77":0.17229579876478396,"78":-0.023055056416003562,"79":0.029554205740339307,"80":0.18225539366728705,"81":0.18077589835224095,"82":0.18137082954663375,"83":0.14510780663905792,"84":-0.11573272639288991,"85":0.23697587794490954,"86":-0.15783923088856772,"87":-0.08284316076535682,"88":0.08435384609783063,"89":0.1556438665674613,"90":0.21211121992814627,"91":0.05295557048621824,"92":-0.17860222540826506,"93":0.2529225028321201,"94":-0.3454468654333501,"95":-0.07324705330353434,"96":0.11941911535938697,"97":0.22659854454883188,"98":0.2620381290526839,"99":0.0836124419293345,"100":0.0029309605675427713,"101":0.27283263304402117,"102":-0.15398110691784592,"103":-0.06947465273941206,"104":0.2478539975652211,"105":0.15221950019248012,"106":0.013451172299552285,"107":-0.029324710031836086,"108":0.15783239120754944,"109":0.1757060873131616,"110":-0.0512096793065007,"111":-0.05772201942409073,"112":0.03930764477241107,"113":-0.09385226605006379,"114":0.061597383587217794,"115":-0.06067860360943856,"116":0.17337701152559656,"117":0.06582344750255673,"118":-0.04699966448402279,"119":0.10226261928477966,"120":-0.22592290040079097,"121":0.14409512937511787,"122":-0.12873173252543774,"123":-0.017989492675217246,"124":0.09852333058492621,"125":0.13335503320525172,"126":-0.1559164761531975,"127":-0.004029967324906767,"128":-0.04050989180886568,"129":0.05725560574952944,"130":-0.038151064850696886,"131":-0.1487483153534112,"132":-0.0343662817119603,"133":0.03244850321459156,"134":0.04701348389910343,"135":0.15806767840323502,"136":-0.054643648746574104,"137":-0.18576363467100018,"138":-0.17527812792395306,"139":-0.18575340458291204,"140":-0.04744183082850848,"141":-0.014034772226826633,"142":-0.12657998949987145,"143":0.1670343232177374,"144":-0.07508073900505273,"145":-0.20853332805158814,"146":0.0023459024683362313,"147":-0.041972190571511955,"148":0.06348282991028313,"149":0.031117793383122084,"150":-0.05533870650695907,"151":0.0832107622686325,"152":0.005759090907758066,"153":-0.3343249221857861,"154":-0.15915997835438564,"155":-0.1695248793007302,"156":-0.00788693052815951,"157":-0.19536918924090993,"158":-0.0595283105143882,"159":-0.03101080032372824,"160":0.0367202174808931,"161":-0.07450952900182073,"162":-0.03318866067017607,"163":0.05450211530044892,"164":-0.15148971316485446,"165":-0.3818329270608512,"166":-0.07485976193502246,"167":0.241098270758201,"168":0.12544530638956208,"169":-0.14680282264787206,"170":-0.022996109178976928,"171":0.006112169717276138,"172":-0.01543411103719154,"173":-0.36013181894676066,"174":-0.021894476559808067,"175":0.13557519333691292,"176":-0.0741596821300177,"177":-0.36225756680579674,"178":-0.11582524312967758,"179":-0.17977812242134264,"180":-0.013906888374894687,"181":-0.2698952578670748,"182":-0.0030596882643391336,"183":0.03081274982331816,"184":-0.03198334536571177,"185":-0.2584179701538645,"186":-0.20361603260397196,"187":0.007373065592268084,"188":0.029587557115081865,"189":-0.22149209827692573,"190":0.1547123773650755,"191":-0.16766340712197803,"192":0.02051737201570818,"193":-0.20767972721127262,"194":-0.31052299703266956,"195":-0.2753309275384087,"196":0.058379421365978304,"197":-0.289270466509247,"198":0.06914593773456844,"199":-0.14562702264535818}},{"sx":5,"sy":5,"depth":8,"w":{"0":-0.2708149323326012,"1":0.30284324903876897,"2":0.018219179502140873,"3":0.10245723921057165,"4":-0.13772530186545576,"5":0.20512320527693848,"6":-0.00397548170102199,"7":-0.07660415207792388,"8":-0.11179745358209073,"9":0.19651722524397638,"10":0.20453885734872593,"11":0.20160560844245212,"12":0.0648153857526313,"13":0.09266040385176033,"14":-0.13595014177020526,"15":0.033259684116191165,"16":-0.16387856648995164,"17":0.06617873789004805,"18":0.06839785474196322,"19":0.014940129458502904,"20":0.12670995375340216,"21":-0.0670578632818339,"22":-0.16983180834375577,"23":0.08807176242078384,"24":-0.19538913929868745,"25":0.11820844475193067,"26":-0.21930295143954304,"27":-0.1579068770966495,"28":-0.0648604495395671,"29":-0.013287483334625162,"30":-0.03495385716079659,"31":0.17154030045617177,"32":-0.2766894929788394,"33":-0.09991403256492835,"34":-0.2671230171116434,"35":0.032340929717498905,"36":-0.22704374860150886,"37":0.08045833382652672,"38":0.0635198873453741,"39":-0.06508531740422903,"40":0.31874050450974734,"41":0.1628649784535994,"42":-0.3180515468086211,"43":-0.06158953591433901,"44":-0.15166534998891593,"45":-0.006551977786387605,"46":0.2191496714734815,"47":0.01608741604865662,"48":0.18764131916439306,"49":0.1605607486036179,"50":0.11942064458690854,"51":0.005751361777691602,"52":0.0379389194660787,"53":0.08887565781200062,"54":0.039794851411582954,"55":-0.2680188326206363,"56":-0.36425414411647394,"57":0.07017224704956954,"58":0.29971740251312834,"59":0.03865023304568199,"60":0.09293735985571537,"61":0.03944629102450416,"62":-0.11104838389457762,"63":-0.06299850393958807,"64":0.020850437421991826,"65":-0.16703543956436856,"66":-0.09026995550801636,"67":0.040391520226441664,"68":-0.08396964133883991,"69":-0.12344616756386678,"70":0.03369433702547117,"71":-0.03011927179203498,"72":0.07437243289945474,"73":-0.09956726708194784,"74":-0.10905632514700797,"75":-0.25499558829496904,"76":-0.21466666401444112,"77":0.0013628195543123737,"78":0.13748969338342512,"79":-0.3304711919630703,"80":0.5083499125556352,"81":-0.12064161472728274,"82":-0.06735859299594829,"83":-0.0335487103598262,"84":-0.04447323472237091,"85":-0.1167557818539124,"86":0.11210007293981651,"87":-0.3214471511146691,"88":0.29093833875890796,"89":0.08372743240530899,"90":0.21071782311347514,"91":0.11545808186975684,"92":0.16873761273927476,"93":0.040724495591787216,"94":-0.07562755151402362,"95":-0.21862416623459185,"96":-0.052613198535488244,"97":-0.08063605260981307,"98":-0.11232880231499122,"99":-0.10509500000829236,"100":-0.08698259202157273,"101":0.030551778351153008,"102":0.047805874434727606,"103":-0.1940453314381537,"104":-0.008793801394080399,"105":-0.04240765731967073,"106":-0.10282398772068504,"107":0.05569873842345865,"108":-0.22535183938010822,"109":0.09792568745892198,"110":-0.18756325042431177,"111":-0.05247729635034251,"112":0.2278140872931434,"113":0.10291467761892022,"114":-0.10823508619165019,"115":0.047650267865371215,"116":-0.141098880623443,"117":0.26146793413148267,"118":0.12701180501531822,"119":-0.19254540133117126,"120":0.0927305635011628,"121":-0.2799252725015917,"122":-0.02062641763421758,"123":-0.0358086888330281,"124":0.13444002855220363,"125":0.026807128880954018,"126":-0.1371728251899415,"127":0.026151674169699896,"128":-0.13626351844392445,"129":-0.10279350069742836,"130":0.015110308304787918,"131":-0.06617273221063079,"132":0.08771834044522167,"133":-0.11325169001178571,"134":-0.09327256388598243,"135":-0.001711904601202931,"136":-0.051511064160861986,"137":0.04842419985652813,"138":0.13207077836712444,"139":-0.18478342601705502,"140":-0.13296182560575903,"141":-0.19539969532144993,"142":-0.11039011852302213,"143":-0.01290682678023323,"144":0.010376919896583172,"145":-0.05610525362065778,"146":0.09870029578892268,"147":-0.06399516339067626,"148":-0.20602154115764904,"149":-0.0440382845317239,"150":-0.020451238489783658,"151":0.029321541450708873,"152":0.06523810417761065,"153":0.10166740283270545,"154":-0.11686329317809335,"155":-0.018965477338122417,"156":-0.016903144760036157,"157":0.0607867731661249,"158":-0.051056254049732706,"159":-0.019463001081910007,"160":-0.13598170936849072,"161":-0.17075392174891277,"162":0.03676657637097182,"163":0.02960878007647863,"164":0.0613909485908534,"165":-0.1216728233384372,"166":-0.2152474784049858,"167":0.053840760966862224,"168":-0.15086531312335488,"169":-0.1763275778736916,"170":0.0027427948461480503,"171":-0.2131045783950849,"172":-0.2174566180973807,"173":-0.20028943375223313,"174":-0.18612235775042424,"175":0.0329476269774675,"176":-0.07341088857324993,"177":-0.0932856160849289,"178":0.17951257904420514,"179":-0.03447741869739897,"180":-0.29894245506746964,"181":-0.03631815757982242,"182":0.022034738105431113,"183":-0.01134653969228376,"184":0.015440595087897276,"185":0.050134287808646844,"186":0.2567276221066942,"187":0.1443639844204237,"188":0.0007965151023359301,"189":-0.12821339838589324,"190":0.14360473630841816,"191":-0.01785819712769836,"192":-0.1505326097335658,"193":0.08965180290168873,"194":0.05040091726372298,"195":-0.11010548812239883,"196":0.06786632579479472,"197":-0.08777551385596419,"198":0.04221858108666356,"199":0.04555341387013597}},{"sx":5,"sy":5,"depth":8,"w":{"0":-0.2340854199493884,"1":0.025933335693966268,"2":-0.04901817525668007,"3":-0.20739155349109922,"4":0.0178552359456425,"5":-0.11014759943248695,"6":-0.05726574979297116,"7":-0.17270973588965563,"8":-0.08752287020056901,"9":-0.10484043744653201,"10":0.09912225154477045,"11":-0.22925654311009927,"12":-0.1654083371486611,"13":-0.26298801761829066,"14":0.055571933770407964,"15":-0.23287674192944294,"16":-0.11276941735000354,"17":-0.19535977474368818,"18":0.21315475274014561,"19":0.04227497189454049,"20":-0.1685840956523623,"21":-0.11166865812663984,"22":-0.1318139336990268,"23":0.10529293592154584,"24":-0.15201970078677599,"25":0.16639637942159902,"26":0.027166823580576344,"27":0.09465968108267267,"28":-0.2379098033088916,"29":-0.02591406715625356,"30":0.08880213514666653,"31":-0.2431382987934318,"32":-0.016300831199908706,"33":0.05857413840557058,"34":-0.12517048964001024,"35":0.040970663951148865,"36":-0.029021771784134783,"37":0.10422214808567595,"38":0.14447971207215488,"39":-0.3438461226748425,"40":-0.14016874018509057,"41":-0.039267492324468786,"42":0.17311621636943264,"43":-0.05778258652319886,"44":-0.17392788966832648,"45":-0.07008462466369995,"46":-0.013530143473884712,"47":-0.25132318439609996,"48":-0.07177341938935629,"49":-0.14236321953475234,"50":0.2545971572287284,"51":0.1725034030391505,"52":-0.13566823209009232,"53":-0.04700305757825385,"54":-0.2345599265925252,"55":-0.0914454371343412,"56":-0.18754784642596228,"57":0.05772117713529413,"58":0.037046308176580674,"59":-0.017779181241677836,"60":-0.010932633351203976,"61":0.12026149398585477,"62":-0.09921899304687615,"63":-0.13036038887521328,"64":-0.0348463660890108,"65":0.18876598381335458,"66":-0.04578553721303222,"67":0.013199766729057332,"68":-0.10287041584227374,"69":0.22088533364012883,"70":0.08442158847345199,"71":-0.15536318532842625,"72":-0.03056808601637397,"73":0.09922670299073154,"74":-0.23943139064562668,"75":-0.05741306364280588,"76":-0.15432107499352613,"77":0.14573082099758763,"78":-0.08072668630769783,"79":-0.25165119712148704,"80":-0.03607585896863369,"81":-0.04966944213362197,"82":0.045982487283994636,"83":0.18550455260521515,"84":-0.025641924093451646,"85":0.22158269646943884,"86":0.1164817561761286,"87":-0.029498084462237357,"88":-0.00005414248279803191,"89":-0.03212447374829423,"90":0.07543743494551781,"91":0.221010665646859,"92":-0.03429516586092728,"93":0.23793141203176227,"94":-0.31338406732622043,"95":-0.01759633768967839,"96":-0.12396239066769307,"97":0.04303749091317648,"98":0.005461707407529653,"99":0.06498852161199756,"100":0.14355764094527493,"101":0.10002877062651788,"102":-0.1825008978192559,"103":-0.05491754956219751,"104":0.07126584501184935,"105":0.13409963677197254,"106":-0.06339259277421457,"107":0.07234887005889083,"108":-0.028384040664773125,"109":0.13937194433861888,"110":-0.007736876980577549,"111":-0.08099745195217221,"112":0.07540590021311937,"113":0.14767221937905267,"114":-0.13821989216572983,"115":-0.14388066860578327,"116":-0.21906762478275554,"117":0.22944476427720786,"118":0.008437836881580485,"119":-0.24427809886167504,"120":-0.12336249814893264,"121":-0.0002420002290288024,"122":-0.1330542810502235,"123":-0.029271455080026102,"124":0.22805878857469528,"125":0.1508592597070423,"126":-0.11674756681249374,"127":-0.01847094993267487,"128":-0.10080077287880362,"129":-0.027397610189045105,"130":-0.18759592096667288,"131":-0.04701606083519983,"132":0.09643761700070289,"133":0.1701537296501061,"134":-0.28766835133462126,"135":-0.17376189098466446,"136":-0.23658111424625747,"137":-0.12364931423450135,"138":-0.22954764343186748,"139":0.03293268602152803,"140":-0.04928500374047299,"141":0.020358691896867072,"142":-0.23101309354662067,"143":0.09040127321356388,"144":-0.23749077553573575,"145":-0.17472145469211192,"146":-0.18391247047403828,"147":-0.055203595938272,"148":-0.10192692866496561,"149":0.03774838244064499,"150":-0.22173020887261208,"151":0.020566082005386902,"152":-0.1633820015063836,"153":0.12718732693954235,"154":0.27112477141840363,"155":-0.07841680350186905,"156":0.04163637046164772,"157":0.16333049245149386,"158":-0.07912333234540389,"159":0.15935028427712186,"160":-0.08382999830150303,"161":0.01973097980769467,"162":-0.11101970255754158,"163":0.10184402025526508,"164":0.3035097186077853,"165":0.02387333482588694,"166":-0.1795455990209973,"167":-0.20613856081906046,"168":-0.3123999756500316,"169":0.10531684595613437,"170":-0.1882696296231859,"171":0.024740446768387037,"172":0.019682504807750384,"173":0.07113540820057883,"174":-0.3380065354262917,"175":0.08898760830051025,"176":-0.3443797233594752,"177":-0.09767390130512288,"178":0.024991407275176635,"179":0.02222967168716151,"180":-0.03592885225386367,"181":-0.08501991637318043,"182":-0.20907825446163872,"183":0.18963620708728357,"184":-0.23759249550603898,"185":-0.022781535817090283,"186":-0.16847122793914038,"187":-0.1809830738855236,"188":-0.08216733147238083,"189":-0.13360620190719855,"190":-0.157512955933784,"191":-0.013194567662463344,"192":-0.2218161743098034,"193":-0.12880787566986704,"194":0.08197629721619834,"195":-0.16307924167455598,"196":-0.1841915128437719,"197":-0.4279608644221878,"198":-0.14838225901362626,"199":-0.030483306751279995}},{"sx":5,"sy":5,"depth":8,"w":{"0":-0.008790640577948705,"1":-0.26921914512120526,"2":-0.17020654368084587,"3":0.09502668259572196,"4":-0.10810833524919886,"5":-0.17908891597643484,"6":-0.049830545517522,"7":-0.12853514578250844,"8":0.021367406368746716,"9":-0.28325368535296025,"10":-0.1547367374071679,"11":0.039926462256878,"12":-0.03813782470288632,"13":-0.03633514734461859,"14":0.013567488700684173,"15":0.0051759181546738005,"16":0.13579114635981984,"17":-0.19282233405867513,"18":-0.12553961237746764,"19":0.10308358091787426,"20":0.16249002780371288,"21":0.06543683721590582,"22":0.015268588358310221,"23":-0.26771861712487244,"24":0.15975334932575427,"25":-0.16715782307116323,"26":0.03449835634447056,"27":0.08497526911503188,"28":0.18949483639962023,"29":-0.07770851217940013,"30":-0.002490252839686979,"31":-0.267389623974656,"32":0.18823941337936212,"33":-0.007807058791441553,"34":-0.02675011813491855,"35":0.04433883150006057,"36":0.14429712088087793,"37":-0.20518867222071502,"38":0.20545475460920318,"39":-0.2055143297989587,"40":-0.1947618068499258,"41":-0.12833123481769948,"42":-0.19260081709990354,"43":0.07904352612518416,"44":-0.09519686040656676,"45":0.15241931107834306,"46":0.09294842991987154,"47":-0.1562865440980689,"48":0.04050883607351811,"49":-0.21698115629446904,"50":-0.20271595809429582,"51":0.026787564698192518,"52":0.17819796583628325,"53":0.00888854241660369,"54":0.06522137633516818,"55":-0.24145615143619398,"56":0.10898681719368175,"57":-0.02779065939332392,"58":-0.2713711546532723,"59":-0.02682246937573092,"60":0.12583006018975806,"61":0.07687030821069969,"62":0.003308218360728898,"63":-0.19716135548264555,"64":0.036695630993265685,"65":-0.14224455919963594,"66":-0.09489237270609403,"67":0.052184286472825935,"68":0.22661879434166265,"69":-0.043136038968138,"70":-0.08304394087949281,"71":-0.17370804051413805,"72":-0.02578798059036779,"73":0.03378134140320913,"74":-0.2113192695437397,"75":-0.059532002017978654,"76":0.004107361028380684,"77":-0.0810394756864484,"78":-0.012708939658535234,"79":-0.030691390384302263,"80":-0.08468145469018505,"81":-0.046285316217999306,"82":-0.31064575163721775,"83":0.0869858789908871,"84":0.06957858852659012,"85":0.008608104427455354,"86":0.06099207119706107,"87":-0.34893924571958757,"88":0.05755736230554373,"89":-0.12611778100253043,"90":-0.4408660800285041,"91":-0.03908604320345762,"92":0.30116085551691874,"93":0.012603497744130946,"94":0.058557288041626236,"95":-0.3819810893773999,"96":-0.02446469276722027,"97":-0.0533793855801098,"98":-0.29745260638235455,"99":-0.003983010470676063,"100":0.19463068511834128,"101":-0.030844745461845322,"102":0.012399045876457283,"103":-0.15442585171205295,"104":-0.19330914687869472,"105":0.05309205482233092,"106":0.01967430074289289,"107":-0.1523547195555975,"108":0.22219171843466712,"109":-0.08356649279610358,"110":-0.07134185017564676,"111":-0.10991825410061226,"112":0.07800107337011666,"113":-0.003719474580545698,"114":0.052478344187782223,"115":-0.11502477041476487,"116":-0.1467574920943298,"117":-0.040662478771889714,"118":-0.21065429097822735,"119":0.020496140919422676,"120":-0.055417797034074484,"121":0.022692848605853435,"122":-0.09099157097477088,"123":-0.006686235078212538,"124":0.15443027082024147,"125":0.07941658902822253,"126":-0.0006502251663855181,"127":-0.5516569875013029,"128":-0.2438951099368817,"129":0.1406275422943819,"130":-0.16212129593125238,"131":0.03621439039603808,"132":0.20900388195946668,"133":0.09551243419420273,"134":-0.07771699747578487,"135":-0.24239787383331166,"136":0.09102023034461651,"137":-0.012181570683262649,"138":-0.19306928201492743,"139":0.00009093577350495426,"140":0.19564286054139032,"141":-0.3055358315184257,"142":-0.15390860159533434,"143":-0.06342824818402296,"144":0.24122048026232637,"145":-0.08519522450984117,"146":0.1475513363729565,"147":0.1103232142366964,"148":-0.22513727363141167,"149":-0.13708134597778843,"150":-0.14950999900351378,"151":-0.08865242886648247,"152":0.05917895615914715,"153":-0.1862850305989581,"154":0.18752423764282328,"155":0.041413273304747776,"156":-0.011422307223679058,"157":-0.2491428343076259,"158":-0.137628630213271,"159":-0.012580857471268924,"160":0.11839963415538327,"161":0.06905319716768787,"162":-0.04688176829387983,"163":0.22384667640352066,"164":-0.01729962290394959,"165":0.07128954307345693,"166":0.02959633824118101,"167":-0.19891852197934,"168":0.1179734294904043,"169":0.02813059899083849,"170":-0.06197289949181397,"171":0.36870255613223896,"172":-0.09708427138098655,"173":0.05670863704342691,"174":0.2170792653557798,"175":-0.0691987532301023,"176":0.2872430920512266,"177":-0.06709809829380232,"178":-0.07442904273449093,"179":0.3202587338504571,"180":-0.049709263375089976,"181":0.07356992563044747,"182":-0.09750295373509532,"183":-0.08308627633107821,"184":0.10517975380986304,"185":-0.3831266122100217,"186":0.08674221946054426,"187":0.01799318155853387,"188":-0.26075538317606756,"189":0.30868940078880563,"190":-0.16328157553154923,"191":-0.08343269113460033,"192":0.3571777985613357,"193":-0.15979875123145224,"194":0.09192417655564657,"195":0.18756713877540887,"196":-0.11905987955834037,"197":0.20294700467074184,"198":-0.030920334941093804,"199":-0.21913042655188736}},{"sx":5,"sy":5,"depth":8,"w":{"0":-0.3839571569671877,"1":-0.04876144474229046,"2":-0.10688808043501043,"3":-0.3007483611748079,"4":-0.35911736475575085,"5":-0.15265402741265763,"6":0.1301277492749615,"7":0.23381379912605654,"8":-0.10280185719329393,"9":0.013699783701265416,"10":-0.1962651909923866,"11":-0.0909424831799411,"12":-0.254976561296586,"13":0.012794724053605211,"14":0.21485193245172893,"15":0.04066263129298088,"16":0.0830664834372712,"17":-0.028541872945035747,"18":-0.23037068329678187,"19":0.10096620876779479,"20":0.15633749401841282,"21":0.027737107340931325,"22":0.15443449001179801,"23":-0.34207127186817743,"24":-0.13672824938986564,"25":-0.006853574889371187,"26":-0.049752641954936956,"27":-0.04064835653149734,"28":0.19009289485437267,"29":-0.03232093117361288,"30":-0.08446331254041181,"31":-0.03373349398879662,"32":-0.16596591237673775,"33":-0.07364144675437541,"34":0.005680990280622947,"35":0.0023284389719939657,"36":0.2446459046976554,"37":0.1059635246699695,"38":0.014510539957446578,"39":0.20374760436501285,"40":-0.24793948211789096,"41":0.041832712231999004,"42":-0.19209460668477144,"43":-0.4518650199498713,"44":-0.48931617098736296,"45":-0.25293690935802804,"46":0.40713412095764995,"47":0.20580095512854552,"48":0.148054145920781,"49":0.008723248281749049,"50":-0.1636527482890713,"51":-0.018506498683622585,"52":-0.17571972163860858,"53":0.038266052680124354,"54":0.28473414129488306,"55":0.00006526423188244997,"56":0.11163589670338706,"57":-0.013885945586591024,"58":0.06584120806301032,"59":-0.045469784308451944,"60":0.2045691329382361,"61":0.014958811223714178,"62":0.06795814219327047,"63":-0.2590407659424312,"64":-0.09187361208556084,"65":0.03533637437712787,"66":-0.1462984492371525,"67":-0.04698626671490836,"68":0.19547157121544081,"69":-0.133616614361355,"70":-0.04077435640415343,"71":-0.08172522571579716,"72":-0.29976667265362306,"73":0.054597649367397846,"74":-0.2594872291693564,"75":-0.21687320505773935,"76":0.06703865488051107,"77":-0.24226720881233496,"78":0.23602467254193474,"79":0.09199111044034701,"80":0.21120377664175372,"81":0.18851205551589,"82":-0.23224844549289436,"83":-0.1586925022321737,"84":-0.09914514338544506,"85":-0.22404293463671734,"86":0.41379718221599965,"87":-0.11945883853126912,"88":0.20435071956237405,"89":0.1548843190260172,"90":-0.005000648331136278,"91":0.04910283162711034,"92":0.11252714547960585,"93":0.08822044353299618,"94":0.15101421899434872,"95":-0.09157790369022405,"96":0.25695854908826904,"97":-0.03128259952720238,"98":0.07575269587181754,"99":0.04792285289197041,"100":0.21988334722454989,"101":-0.09375117274912255,"102":0.02165120025793073,"103":-0.1260168005663791,"104":-0.40762769621241485,"105":-0.12177544143674322,"106":-0.21329096009022924,"107":-0.08189978794134933,"108":0.14970840492746576,"109":-0.088830280002225,"110":-0.05648587579648723,"111":-0.1387625158042022,"112":-0.12115545680503793,"113":-0.048309598428507884,"114":-0.2578098852887308,"115":-0.37183764546380066,"116":-0.2557538227340989,"117":-0.4587069476017275,"118":0.3724938666741654,"119":-0.043223234642661194,"120":0.1237113305930923,"121":0.13099602245520153,"122":-0.15437681477775347,"123":-0.21503338143759393,"124":0.006087826957361339,"125":-0.13898280073365582,"126":0.42210907459362285,"127":-0.023597382284813694,"128":0.193739852212488,"129":0.2433723398736593,"130":0.09209648791092594,"131":0.046464250242272125,"132":0.09044079627137336,"133":0.12563558083971021,"134":0.28420609996412294,"135":0.07854884467719138,"136":-0.016445328796446754,"137":0.0011605819288049244,"138":-0.2897601287834491,"139":-0.031817515531629675,"140":0.15292547542035584,"141":-0.050682820286407,"142":-0.1903612129571539,"143":-0.04669431598778634,"144":-0.42584781456334764,"145":-0.10706427975956871,"146":-0.3437955538385656,"147":-0.28156044562035404,"148":0.03558402823814482,"149":-0.48208090900047307,"150":0.008403814522039458,"151":0.009130990941549256,"152":-0.062101326909508495,"153":0.030385459661203585,"154":-0.3653388524064012,"155":-0.253407889058583,"156":-0.2699629106100946,"157":-0.3047566777373506,"158":0.20021776988303874,"159":-0.14424358629910258,"160":0.11442645631542124,"161":-0.07482951064100438,"162":0.14259438899678356,"163":-0.18249008588629803,"164":0.0353778609183754,"165":-0.09071528401525744,"166":0.1880216580795105,"167":0.04000351190280355,"168":-0.006279473109899487,"169":0.10187642917772474,"170":-0.021565294714810813,"171":0.02226433499193489,"172":0.35406959458804516,"173":-0.14520516262027372,"174":0.00576365554023497,"175":-0.19069642736028344,"176":-0.09026564867195565,"177":-0.24641834718909114,"178":-0.24566440405839968,"179":-0.10033480605651253,"180":0.14117823263738818,"181":-0.3738394632033962,"182":0.013761452337628158,"183":0.045083940295846,"184":-0.18156417684227702,"185":0.008950144123996315,"186":-0.0637814083375194,"187":-0.1764891029108769,"188":-0.21202053218112538,"189":-0.45666458304048807,"190":0.06102257340837409,"191":0.08176421773396117,"192":0.015041927796045792,"193":-0.024014518511438127,"194":0.06587876300208576,"195":-0.20302905923220765,"196":-0.23418255061425508,"197":-0.22667387982147552,"198":0.17695566348116787,"199":-0.09938634951861537}},{"sx":5,"sy":5,"depth":8,"w":{"0":0.17765900831272483,"1":0.20359522806256145,"2":0.02773941320883532,"3":-0.012582487344699049,"4":0.17923183056778885,"5":0.01084073933078062,"6":0.09746879903533115,"7":-0.013541234035116145,"8":-0.07581679298326542,"9":0.2039367836162589,"10":-0.047930197535791676,"11":0.04889817133549919,"12":0.18458266882230043,"13":0.0018992038007000366,"14":-0.13063332333430708,"15":-0.14873771199440156,"16":-0.14830674116864226,"17":0.27731705308027393,"18":-0.1282198457245946,"19":-0.02514657116687014,"20":0.24522225305234346,"21":-0.08857991582960023,"22":-0.004311228768361113,"23":-0.052980949520544184,"24":-0.2686512090696225,"25":0.11817943282508875,"26":-0.06961438088267517,"27":-0.12838662327546524,"28":0.2594827952268554,"29":-0.15021341295035426,"30":0.04815532471330461,"31":-0.0021059211363437117,"32":0.031412385397089466,"33":0.09937155006735891,"34":0.02582969085663028,"35":0.015884694656085593,"36":0.03371157695581532,"37":-0.24898308211355644,"38":0.19502932834345355,"39":-0.06777391020420251,"40":0.0843273860641503,"41":0.3416740310621022,"42":-0.034872982511404964,"43":-0.12045999080232651,"44":0.018479035788522256,"45":0.016821242279352402,"46":-0.1162818535345925,"47":0.0959996800974827,"48":-0.28029675134519233,"49":0.13608531434801466,"50":-0.009779479769345784,"51":-0.08750289167497047,"52":0.17586781712155922,"53":-0.08701468124761698,"54":-0.012775242644633152,"55":0.08476780093764219,"56":0.08359734740539414,"57":0.08940141515948294,"58":-0.04298422437274963,"59":-0.08146081775219219,"60":0.07279404952627617,"61":-0.30737591287511606,"62":0.11159276218586218,"63":0.27772346295225103,"64":0.3412285875062858,"65":-0.06201323279334141,"66":0.09887309311831341,"67":-0.011342504294247685,"68":-0.17236179866592757,"69":-0.20664163381572404,"70":0.11422994003946393,"71":-0.013191132855502894,"72":0.2765446527857222,"73":-0.17337143447125516,"74":0.06477757481096244,"75":0.2136428024688718,"76":-0.1591942506741609,"77":0.07136601074739993,"78":0.031177154340269575,"79":-0.18520319297138008,"80":0.02496109965810458,"81":-0.017824742984435666,"82":-0.025571411265889278,"83":0.03042913252602661,"84":0.014456380586249993,"85":-0.1569709212300255,"86":0.051541055990687624,"87":0.08472827267136754,"88":0.2502748924107068,"89":-0.11930502658792522,"90":-0.13117274952678648,"91":-0.1965319333270374,"92":-0.0529188854154656,"93":-0.04738888968711126,"94":0.20095470429446216,"95":0.16693949947115871,"96":0.4081117267682613,"97":-0.051577659675592094,"98":-0.13492623153490085,"99":0.20859337149512952,"100":-0.23534313018945133,"101":-0.31262294726284656,"102":0.12900418527432655,"103":-0.18777854381083056,"104":0.10982308747725684,"105":-0.25029790399049245,"106":-0.013524576533304692,"107":-0.011638546036035275,"108":-0.017806834199093596,"109":0.12880710693864703,"110":-0.030591001946292915,"111":-0.16068985147404374,"112":-0.03937109833951492,"113":-0.20244722970426418,"114":0.027397325500517388,"115":0.11407056658575149,"116":-0.10188911351662179,"117":0.25890715679871956,"118":-0.047241839090599785,"119":-0.19961971657406238,"120":0.14974253306947355,"121":-0.10731473994796187,"122":-0.14678364337114527,"123":0.05298821519331388,"124":-0.068818164884066,"125":-0.44435387243991115,"126":0.11366081870382941,"127":-0.003087720617690965,"128":0.3022107762564393,"129":0.006538024402416313,"130":-0.04636268323322251,"131":0.057965737035951835,"132":-0.17228077942903866,"133":-0.0984024544790047,"134":0.04435852562884436,"135":-0.19214917123174796,"136":0.33938721970319535,"137":-0.2611747015032343,"138":-0.02939065373099948,"139":0.10906664731196827,"140":0.08080564607988366,"141":0.07232164641524197,"142":0.0650575250518333,"143":-0.3690706504326695,"144":0.0060411899970849135,"145":-0.19602543450891616,"146":-0.0719766784804899,"147":0.01920906555988712,"148":0.02075702433824106,"149":0.03178818345157602,"150":-0.06703629070976344,"151":-0.3671117755209341,"152":0.20596132453101335,"153":0.07464319549197913,"154":-0.09927372081355894,"155":0.03202517084313341,"156":-0.09727466982841197,"157":0.16235446180344096,"158":-0.22640813195024084,"159":0.03415535286507344,"160":0.061878211958120606,"161":-0.06963183440411295,"162":-0.192797635631706,"163":0.11877678424430645,"164":0.04816694664773559,"165":-0.10462772113782792,"166":-0.027483722692389443,"167":-0.25921526632511777,"168":0.0006059779487376836,"169":0.008283611777143115,"170":-0.19526234722964794,"171":-0.0029000396895264365,"172":0.3574834336356138,"173":-0.01749375688576391,"174":0.19776023671375798,"175":-0.364808111598848,"176":-0.0467803693948322,"177":-0.11235244503221647,"178":-0.09289979782687278,"179":0.12556622399229486,"180":0.17284494835400294,"181":0.016384660164176917,"182":-0.25993401604975996,"183":-0.39491690768327364,"184":0.10674808813499051,"185":0.020270474986765166,"186":-0.22344164636085728,"187":0.16403530900516664,"188":0.0838196588703499,"189":0.09504991345348421,"190":-0.3528185683622129,"191":0.0983461809853915,"192":0.17545354474144684,"193":0.02128744834085937,"194":0.2607340591275384,"195":0.24026086581739178,"196":-0.09569756169132193,"197":0.012922617212357964,"198":-0.31407474343827374,"199":0.2889312007805488}},{"sx":5,"sy":5,"depth":8,"w":{"0":-0.1999074062424195,"1":-0.04562510503662975,"2":-0.11727075734971405,"3":0.21065480060254788,"4":-0.1113547565820264,"5":0.056408555664133886,"6":0.00701762830810525,"7":-0.16328087405786565,"8":-0.11333562135872874,"9":-0.057894609500406966,"10":-0.01362501858431641,"11":0.09204401130472782,"12":0.07881247751484076,"13":-0.11759033360384685,"14":-0.05422069556356906,"15":-0.17282709413765499,"16":-0.2234353540776151,"17":0.08950697009233227,"18":-0.15239268436175318,"19":0.14519811043703598,"20":0.14724798478582182,"21":-0.06859347617725653,"22":0.049223397188520895,"23":-0.15259216865431258,"24":0.16805578157850973,"25":0.17385045524970985,"26":-0.154405174977052,"27":-0.13634071430855663,"28":-0.12158219866416807,"29":0.017768061676676293,"30":-0.06848046579934722,"31":0.16748261405144227,"32":-0.0856511454136959,"33":0.24243877763254199,"34":-0.04569684543274411,"35":0.03763044643894558,"36":-0.16145356165919103,"37":0.07309445685941697,"38":-0.2610285981104659,"39":0.18514304247505617,"40":-0.48009156560351607,"41":0.10836642032495025,"42":-0.08027474044078499,"43":-0.1478144165120245,"44":-0.06857549902638331,"45":0.05624907216538091,"46":0.2609026264654527,"47":-0.01976039425808348,"48":-0.21501809755029072,"49":-0.053187938102347405,"50":-0.016400340751085665,"51":0.03307161112806846,"52":0.05739158309729593,"53":0.06361487181416885,"54":0.1188088871525958,"55":-0.18661068258670943,"56":-0.2777334331635138,"57":-0.06595290868297102,"58":-0.10654685013208584,"59":0.03518503569691762,"60":0.152076009667225,"61":-0.20478634072480437,"62":-0.1693343060539223,"63":-0.16079096745766924,"64":0.05355603047871059,"65":-0.02849613323131036,"66":-0.05334341289668641,"67":-0.2139756224497986,"68":-0.02118508847998813,"69":-0.15701497221032748,"70":-0.03093655615708591,"71":0.1636602830493825,"72":-0.1362529269155572,"73":-0.1518685109877464,"74":-0.06509173528180265,"75":-0.15045823452010662,"76":0.007207200302097353,"77":-0.36809693993009923,"78":-0.13496054593840942,"79":0.20759248684008,"80":-0.2772522444947628,"81":0.39435430678645356,"82":0.11045031536888049,"83":-0.2608617602774871,"84":-0.2310450809481706,"85":0.02518839389573893,"86":0.37343245531051267,"87":-0.16037947102518263,"88":-0.04701203351820647,"89":0.021441847705827164,"90":0.10624897177918995,"91":0.119509859784253,"92":0.06898571828972949,"93":0.13128411635469697,"94":-0.07929375833891714,"95":-0.2907325192653056,"96":-0.13905592400037972,"97":0.033317652252166687,"98":0.1329362620889163,"99":0.06314953749229411,"100":0.16766063163753317,"101":-0.1894682457046622,"102":-0.42540647186217373,"103":-0.004462758220169045,"104":0.0492408088210628,"105":0.014570986991576667,"106":0.02886608283925998,"107":0.11533239723863833,"108":-0.08503065084157797,"109":-0.09526736374643485,"110":0.10633231374604604,"111":-0.11196316631295306,"112":0.27307839890403374,"113":0.03945566210723922,"114":-0.04910950999180574,"115":0.14857713705566736,"116":0.0974120426215896,"117":-0.06444127084700717,"118":0.19531198549004603,"119":-0.2869204933706269,"120":-0.35103859534506054,"121":0.44029215384626663,"122":-0.14808244700934453,"123":-0.20010502845723652,"124":-0.28568381378533975,"125":-0.04908720122744999,"126":0.3312551660421358,"127":-0.02156589991679792,"128":-0.3025226688470512,"129":0.21880974710414017,"130":0.029044023919286472,"131":0.05868121825488693,"132":-0.04806424777859721,"133":-0.0184512013005753,"134":-0.00959943446825113,"135":0.1207508844522247,"136":-0.3580206428694148,"137":0.16732412617080203,"138":0.057143407218270624,"139":0.06988118792010137,"140":0.2669453062004491,"141":0.15573776777616324,"142":-0.2416724452832435,"143":0.21317028475100874,"144":0.04137903105178844,"145":0.010891144538643935,"146":-0.1090410789902323,"147":-0.04988817361490477,"148":0.06444436545912989,"149":0.09606518800902925,"150":0.01780144266289362,"151":0.19308596263694358,"152":0.1836364338059638,"153":0.14127031752094713,"154":-0.1945070768129998,"155":0.07624591535047066,"156":0.05024719226395843,"157":0.23039018155885366,"158":-0.01502071603712708,"159":0.14542051630042405,"160":-0.2911174228530872,"161":0.2204631454548282,"162":-0.0717211496744992,"163":-0.2546401523371118,"164":-0.23933917989170128,"165":-0.0328134395694141,"166":0.09480909062479967,"167":-0.18556564428361974,"168":-0.23642130771932005,"169":-0.025152943159942674,"170":0.02860662144448085,"171":0.06280457468625503,"172":-0.037994972143593785,"173":-0.17782676393955738,"174":-0.07619348712399503,"175":-0.31777831967709447,"176":-0.19639908562643435,"177":-0.13501771865454068,"178":-0.02515448608173439,"179":0.020940901820812832,"180":-0.040193395060916896,"181":-0.2554769980960919,"182":-0.20584892570167243,"183":0.029157036083809942,"184":-0.2783182571981064,"185":0.04031707453971636,"186":0.09203341178289948,"187":-0.27876907244305,"188":-0.06577924271737297,"189":-0.15920138007581144,"190":-0.015600364299887606,"191":0.05926218764826638,"192":-0.20209796700232627,"193":-0.10820612590414466,"194":-0.030980517208471166,"195":-0.2500671456434692,"196":-0.11179766993332568,"197":-0.07646367704812229,"198":0.020879314591171306,"199":0.05745071306425753}},{"sx":5,"sy":5,"depth":8,"w":{"0":0.2147147304614943,"1":-0.19338716499052117,"2":0.24745351332741847,"3":0.13997389251558365,"4":0.10685642706157464,"5":0.23984782628405843,"6":-0.16362150379140325,"7":-0.03206875332050563,"8":0.13407070463279275,"9":-0.14317590978806385,"10":0.45510660238178274,"11":0.20233179640964,"12":0.022203854759618585,"13":-0.09132084922770771,"14":-0.32211392690675544,"15":0.10920803225618618,"16":0.31869495998136327,"17":0.025722734179033747,"18":0.3782733092882872,"19":0.17306807045105302,"20":-0.15949472561398934,"21":-0.22239469592021013,"22":-0.13781065569535791,"23":0.03598976348606274,"24":-0.07722442300445477,"25":-0.17433569143707123,"26":0.1991184702857993,"27":0.08720822841513039,"28":-0.3035909492183063,"29":-0.028262539955029444,"30":-0.13142523690971222,"31":-0.016544115913582586,"32":-0.13103088505484517,"33":0.053712375892466274,"34":-0.09249564305043073,"35":-0.15433658707434228,"36":-0.43673200568846354,"37":0.030400667423006913,"38":0.1532389688930942,"39":-0.15903001786591506,"40":-0.06812577797176456,"41":-0.06018055021147696,"42":0.04818351884168563,"43":0.1964313524814297,"44":0.17077107492125118,"45":0.1793946374114232,"46":-0.11529287285477352,"47":0.3722876045338031,"48":-0.061686309670546925,"49":0.1483895002380542,"50":0.08404969668026632,"51":0.04565388988831195,"52":-0.05146815574003479,"53":0.12582017931397863,"54":-0.12176282493899857,"55":0.21517371403583502,"56":0.13309622472805316,"57":0.12892414190373475,"58":0.056567151307473605,"59":-0.011983210848937774,"60":0.07732296159677995,"61":0.03532771517763845,"62":-0.12326179227676144,"63":0.30124638923493424,"64":-0.14440350693973034,"65":-0.23155956145256984,"66":-0.0800941863827448,"67":-0.16711612514204055,"68":0.02614024402680037,"69":-0.03616498915302974,"70":0.03236315351203788,"71":-0.10821477413733195,"72":-0.14045435064039424,"73":0.1067435157200112,"74":-0.3137765861448183,"75":-0.18874040393605684,"76":-0.49108860013850053,"77":0.10941176250576141,"78":0.1846613088809666,"79":-0.27528607175723663,"80":-0.3909446358598626,"81":-0.0791315020276382,"82":0.038054904560255946,"83":-0.04768235307368204,"84":-0.06252079279766264,"85":-0.036606973795093,"86":-0.21151400661788916,"87":0.1555983693795019,"88":-0.21969727055449906,"89":-0.020903625966555286,"90":-0.014822274400140452,"91":-0.1651055603405817,"92":-0.12987588563837862,"93":-0.01320092342456606,"94":-0.10537466755646639,"95":0.3116981975424621,"96":-0.10424232496295552,"97":-0.04759659406297159,"98":-0.23296717375578055,"99":-0.07787445837354366,"100":-0.030532466039574963,"101":-0.13897893911679632,"102":0.02095932374738767,"103":0.0920411586913652,"104":0.05135941104894214,"105":-0.008132548530275582,"106":-0.17762921455770816,"107":-0.16333327016236357,"108":0.13513186758172066,"109":-0.25757959737888564,"110":0.08784983571014779,"111":-0.10378377115575943,"112":-0.026012010724202995,"113":0.007814607851241044,"114":-0.2621470690792121,"115":-0.21868678146766465,"116":-0.042252599431931936,"117":0.06097824185590782,"118":0.14715033149423284,"119":-0.26264794025263327,"120":-0.20171767496243168,"121":-0.06235485136682561,"122":0.13568418029948429,"123":-0.04339679024539624,"124":-0.08980072927791882,"125":-0.24655240804854436,"126":-0.30808559800618157,"127":0.09988948278754343,"128":-0.3333972887565929,"129":-0.12154910367408624,"130":0.013355198362893436,"131":-0.13883736289826693,"132":-0.1552054213619796,"133":-0.3145330795787693,"134":-0.04598127959909102,"135":-0.08873016143714559,"136":-0.27671446756646756,"137":-0.03914906248120439,"138":-0.024329411375117724,"139":-0.2219534863584607,"140":-0.23890432257092256,"141":-0.10647436892874408,"142":0.020443590075246515,"143":-0.18999252577694228,"144":-0.15398074375778129,"145":0.09198872779106336,"146":-0.11459452471009127,"147":-0.11878460020407117,"148":-0.02699921996309258,"149":0.12472948944901724,"150":-0.04892404466069623,"151":-0.051731861625518745,"152":-0.07902865361216263,"153":0.1868299665466891,"154":-0.03151309811737369,"155":-0.14652367277949163,"156":-0.03999331642204563,"157":0.17509162623956806,"158":0.09643405352836981,"159":-0.07719533231209605,"160":-0.2655549826695393,"161":-0.0633578914112536,"162":0.1277302071735827,"163":0.032622048346789945,"164":-0.05185865973486107,"165":-0.17150256113245435,"166":-0.06556359084181418,"167":0.15317891952826487,"168":-0.29948799011416705,"169":0.09131857544611789,"170":0.191985151730993,"171":-0.06966109244020338,"172":-0.14075668679264225,"173":-0.21878903485878534,"174":-0.045447960668710104,"175":0.06585506870453409,"176":-0.30727416338670127,"177":0.08115076352971368,"178":0.0900032085338153,"179":-0.337920740025573,"180":-0.07756708950407423,"181":-0.1627901368111093,"182":0.09693974203642011,"183":0.03794908190708446,"184":-0.18017568931730496,"185":-0.08597149027873245,"186":0.3278388463758009,"187":-0.26175003492893917,"188":-0.0353641398097947,"189":-0.26711553238882046,"190":-0.03767769814382067,"191":-0.0033785405708817106,"192":0.25427766467840274,"193":0.008087400989524738,"194":0.16064623634995465,"195":0.021310034742365876,"196":-0.07638483950823462,"197":-0.10695650099465967,"198":0.08847576823756467,"199":0.01938888345096555}},{"sx":5,"sy":5,"depth":8,"w":{"0":-0.24458986498787852,"1":-0.08165255352751977,"2":0.4296658058674174,"3":0.17016125926189357,"4":0.2673091987232896,"5":-0.20446352807002924,"6":-0.1410397315164378,"7":-0.23539181610712484,"8":0.029758565891026746,"9":0.018373147987040674,"10":0.3999063891177633,"11":-0.30812039987147233,"12":-0.16706262923941317,"13":-0.1459769214076349,"14":-0.016965979805628004,"15":-0.05634569266067716,"16":-0.19821568289234112,"17":0.08988646406803978,"18":-0.053896413662402394,"19":-0.15591652710931528,"20":-0.1106208520625717,"21":0.019426742967769767,"22":-0.04180573588285313,"23":0.017372728172276964,"24":0.1505584183368064,"25":-0.026654044819476416,"26":-0.07020947509184292,"27":0.008823890855709749,"28":0.017311769080934507,"29":-0.12976028599638997,"30":0.08372367075027956,"31":-0.18213872497178651,"32":0.3140438652356762,"33":-0.05531634426475532,"34":0.15803534037066608,"35":0.16523604333399897,"36":0.04404294172339144,"37":0.11302372676185847,"38":0.018476745687023944,"39":-0.19981968315835102,"40":-0.0009803392498433593,"41":-0.07053961902656662,"42":0.13145351039113912,"43":0.084606775960867,"44":0.29069416345356697,"45":-0.029298807186835803,"46":-0.023520658985849947,"47":-0.2692529656111476,"48":-0.08066626122751774,"49":-0.03516449494095239,"50":0.19433813729207355,"51":-0.18869543100396388,"52":0.17710418890443286,"53":-0.0211340683166121,"54":-0.05073245075337983,"55":-0.17189588665812347,"56":-0.10246107293839166,"57":0.09344935008124522,"58":-0.14145726721331917,"59":-0.010648522542053611,"60":-0.1538893195011537,"61":-0.07551088364662997,"62":0.13869382142965536,"63":0.07637147498117906,"64":0.23237928035351185,"65":-0.008585107451755098,"66":-0.1677262928736345,"67":0.02463908459921132,"68":0.0785544824632884,"69":-0.08013579546424138,"70":0.20750318978403504,"71":-0.13781847801796457,"72":0.3334403923510528,"73":-0.19545020308580216,"74":-0.21841767492525632,"75":0.08598440108382226,"76":0.1688874791573166,"77":0.029520469636265194,"78":-0.07943145622785384,"79":-0.24472364041834893,"80":0.1729074243878002,"81":-0.05236456030740911,"82":0.04354869023289683,"83":0.1511895735351792,"84":0.2969041641610315,"85":-0.03798472151149161,"86":0.17694642641403108,"87":-0.20271402735375924,"88":-0.3522198253642559,"89":0.037793997264369744,"90":-0.20393723443758485,"91":-0.061685758402149876,"92":0.3022291106696613,"93":0.0375075615765986,"94":0.05255365708243222,"95":-0.1369454820358009,"96":-0.042048382012657724,"97":0.13989073448020858,"98":-0.3738148127697414,"99":-0.006744651668557409,"100":-0.0702238563504727,"101":0.03094167646330612,"102":0.19642072489861964,"103":-0.21137760812887257,"104":-0.026572835291440135,"105":0.02345542032805899,"106":-0.15799777135423446,"107":-0.08561552589648781,"108":0.2077239533050574,"109":-0.015003672241309279,"110":0.019325420797910414,"111":-0.7363419845456216,"112":-0.18730600044938006,"113":-0.16135678011224266,"114":-0.2635268776206893,"115":0.05611103131920984,"116":0.25913888095959325,"117":-0.08718401697486601,"118":-0.253568491464345,"119":-0.31565316387637343,"120":0.1104411472284139,"121":-0.22597598872496863,"122":-0.31054079373660115,"123":0.00353715824774589,"124":0.21317202196476637,"125":0.12934071027908378,"126":-0.19712429771904233,"127":-0.23964241281776996,"128":-0.3906138880027629,"129":0.026931481276662245,"130":-0.18424290810644717,"131":-0.22326412544454727,"132":0.2747090608438768,"133":-0.183903335361135,"134":0.07118535882234046,"135":-0.25617413681480133,"136":-0.14448379883890802,"137":0.1739617503672725,"138":-0.301269388834202,"139":-0.0035768172461960158,"140":-0.03292789380679633,"141":-0.02477331179978351,"142":0.13957965663244273,"143":-0.4138396183233207,"144":-0.14066767087895787,"145":0.2908905254450456,"146":-0.1062980674133127,"147":0.06899123149437307,"148":0.21319983467019546,"149":0.027624213535848492,"150":-0.0476782194799995,"151":-0.7183672476763183,"152":0.018204257927040925,"153":0.17815550960993984,"154":-0.03182774014268936,"155":0.10606898005872473,"156":0.05004301839317902,"157":-0.08381111780413693,"158":-0.22845234729297603,"159":-0.14261897894632233,"160":-0.10657501691681266,"161":-0.338381486636188,"162":-0.14032913799312866,"163":0.008809485608460505,"164":0.11348973050587385,"165":-0.09501025699336887,"166":0.005757781256231167,"167":-0.20791650640206324,"168":-0.274150656644883,"169":-0.08281239118615766,"170":-0.20131261276721396,"171":-0.08157862311556545,"172":0.10791957653091473,"173":-0.2955922532262203,"174":0.15644768156375086,"175":-0.358207623928507,"176":-0.06258578621173616,"177":0.04373598548821005,"178":-0.12700160897811513,"179":-0.03173917518384299,"180":-0.14705864869957366,"181":0.015048278848656015,"182":0.18407088243248743,"183":-0.23777364103287293,"184":-0.003592616197816844,"185":0.33999227824692163,"186":0.021222945184353338,"187":0.08086685323572373,"188":0.23345881648996356,"189":0.1624655715863633,"190":0.09419997823467215,"191":-0.3070063430551627,"192":0.13466440707438085,"193":0.28728528316861324,"194":0.28887247602957716,"195":0.04585876627715473,"196":-0.09300702101073552,"197":0.2647011004590734,"198":-0.2367298081094021,"199":0.16983367493806778}},{"sx":5,"sy":5,"depth":8,"w":{"0":-0.31305107149240186,"1":-0.18157527818673466,"2":-0.24500104822644733,"3":-0.002008220833624868,"4":0.2598420597317506,"5":-0.1502030961977333,"6":-0.11011948115094468,"7":-0.028879814555923547,"8":-0.11312641462675357,"9":-0.06089569233811015,"10":-0.1626317961950347,"11":-0.23657007947778683,"12":0.003619915869006989,"13":-0.3711509324279556,"14":0.11209550305471026,"15":0.09135607007411722,"16":0.19706792425864977,"17":-0.017207948495425996,"18":-0.19928304974595534,"19":-0.19557582383417943,"20":-0.1482672667978537,"21":-0.2495423049318374,"22":0.06435490126205803,"23":-0.1664612026247347,"24":0.2755225950065233,"25":-0.12079911049745704,"26":-0.20549544134890355,"27":-0.03192521402539122,"28":-0.05256966296829936,"29":0.041579646074724134,"30":0.1001300726334352,"31":-0.1441322100131523,"32":0.03799138870577487,"33":-0.21093757383191702,"34":-0.034759060394230226,"35":0.09750325960894311,"36":0.18532915519094043,"37":-0.10838387549154614,"38":0.0054290756958155235,"39":-0.09171092682504074,"40":-0.21794827569996694,"41":-0.14752024317184556,"42":-0.3418116750148257,"43":-0.18477807248503436,"44":0.14117254027319506,"45":-0.25750776552390553,"46":-0.021734879835427826,"47":-0.053146049172643435,"48":0.13166322673235276,"49":-0.13719852329702567,"50":-0.4019078868855317,"51":-0.2245365079081681,"52":-0.1432088936846373,"53":-0.29555642928479575,"54":0.048355669481239344,"55":-0.1413399842818426,"56":0.14872274960992726,"57":0.04649268742963371,"58":-0.2799255983861595,"59":0.03744705019094182,"60":-0.09912178300632615,"61":-0.06728598905917943,"62":0.1110024765320431,"63":-0.3208082715261803,"64":-0.05220140465143875,"65":-0.021991265933332775,"66":-0.31694863577825205,"67":-0.000952744800373548,"68":0.1434927095205396,"69":0.10118641242188034,"70":-0.15960340263178224,"71":-0.16349472172136414,"72":0.021363637690517127,"73":0.032629297394506825,"74":-0.19936621571232724,"75":-0.06995262503271095,"76":0.1950599589017242,"77":-0.12331288369934307,"78":0.20909165128401955,"79":0.08891674073594684,"80":0.08466063546444981,"81":0.07805297546455417,"82":-0.07532042351954427,"83":-0.13996686185250073,"84":0.0911279133285641,"85":-0.30098749722700924,"86":-0.11112514348698965,"87":-0.022585177544734915,"88":-0.057824046256423955,"89":0.07790978481710187,"90":0.03746605234409545,"91":-0.17618541615310387,"92":-0.07321067564462874,"93":-0.17347342632103177,"94":0.12862741749873124,"95":-0.1575567761828918,"96":-0.03603756670864803,"97":0.01477570266605863,"98":0.10620886441830095,"99":-0.026925918143083618,"100":-0.05329261562291544,"101":-0.2566210704328328,"102":0.15225562117105368,"103":-0.18650020342959395,"104":-0.038608794151461845,"105":-0.006880586766520124,"106":0.015948460293961693,"107":0.04793754541119218,"108":0.26066876996009897,"109":-0.17101445387335665,"110":-0.14899245695249708,"111":-0.005530365464882507,"112":-0.018990991780126736,"113":-0.0463674177596961,"114":0.08263936507916006,"115":-0.17710210995183429,"116":-0.04762393930044,"117":-0.10779186961036272,"118":-0.12777866631857523,"119":0.06838678723273461,"120":0.1654365398706217,"121":0.06761071253551669,"122":0.028001834163481693,"123":0.1261534367885885,"124":-0.015245666055360835,"125":0.06482832882304117,"126":-0.12406402662810911,"127":-0.09468274606146972,"128":0.11222680196343918,"129":0.08818943732509804,"130":0.07033640164495496,"131":0.2777331730618917,"132":0.0889889817410967,"133":-0.04662966726471192,"134":0.054436193304086666,"135":-0.24893699005144276,"136":0.028736782498921212,"137":0.24368919334679248,"138":0.07664712918104487,"139":0.29116153142004125,"140":-0.056394878246308594,"141":0.148084960935533,"142":0.03231641274627301,"143":-0.27873885711149404,"144":-0.09557208235529277,"145":-0.0626581296430581,"146":0.010449953466538481,"147":0.12048538548494686,"148":-0.08485382400914478,"149":-0.07825776125982101,"150":-0.41287926538228265,"151":-0.08736534745337192,"152":0.01649760845276423,"153":-0.06338076365076016,"154":0.21938898065531603,"155":0.019193065542548644,"156":-0.11389732473717061,"157":-0.22606934057553174,"158":-0.05568964665681424,"159":0.03333735717650845,"160":-0.015445747447850051,"161":-0.12118381503821063,"162":-0.21120657907794782,"163":-0.0658955986130262,"164":-0.002802638114118436,"165":0.24538293538351325,"166":-0.1729327617407736,"167":0.13298363062274823,"168":0.06737354722551073,"169":-0.12236379467052301,"170":-0.06234890467183627,"171":0.0730157839856334,"172":0.048112004509884315,"173":0.15405609229714476,"174":-0.1625569454457898,"175":0.30973552854347086,"176":-0.20179350229360618,"177":0.10389178911163988,"178":-0.10820268874499485,"179":-0.12775400397531184,"180":0.01062956775185966,"181":0.2608251783159182,"182":0.11627525878959619,"183":0.1707402801700093,"184":0.030347709067680084,"185":0.0793882232558206,"186":-0.14436296743628527,"187":-0.048340846744298546,"188":-0.19541554859566082,"189":0.059561075061001376,"190":-0.17946003779857087,"191":0.03882856488638003,"192":0.06126866432902908,"193":-0.23228444457248074,"194":0.158531376367822,"195":-0.03235559657322472,"196":-0.07978120842118888,"197":-0.08256041571139125,"198":-0.32115523388801653,"199":-0.043352938300444524}},{"sx":5,"sy":5,"depth":8,"w":{"0":0.09757982249943978,"1":-0.027162599283958914,"2":0.3874210098527247,"3":0.19014557487738853,"4":-0.07432814394900994,"5":-0.2151220164180544,"6":0.005947232889410354,"7":-0.031032474885467627,"8":-0.0349862698850641,"9":-0.11711949027252401,"10":0.3118527462365533,"11":-0.06052972041820134,"12":0.06565704568306607,"13":-0.11674568793102129,"14":-0.08158840089889265,"15":0.02362626361755172,"16":-0.18485207430067316,"17":-0.10151311622217211,"18":0.34499120550416823,"19":0.14928034021872325,"20":0.006283430703221722,"21":-0.47248487673067824,"22":0.019740956637272055,"23":-0.08217698498061754,"24":-0.014485851330629561,"25":-0.211076073967041,"26":0.32709313396743556,"27":-0.28426268098849367,"28":0.0034556276179108225,"29":-0.28099498202414097,"30":-0.041475012617392636,"31":-0.1363405699957434,"32":-0.08637279307979832,"33":-0.00479453256794061,"34":0.19100767178709505,"35":0.0349619532492978,"36":0.14578988112454516,"37":-0.23781500000747205,"38":-0.14238538834377348,"39":-0.07432106698976239,"40":0.16830645575325004,"41":-0.1809269968070618,"42":-0.061344538662140874,"43":0.07825195333345436,"44":0.13750702608475637,"45":-0.08401582592784967,"46":-0.012911315425639528,"47":-0.11415112432171978,"48":0.10346386085125579,"49":-0.05808986402208154,"50":-0.0008073941717841344,"51":-0.005973037474470406,"52":-0.06348309955759229,"53":0.11814670956634842,"54":-0.06516063593060187,"55":-0.01352553450767452,"56":-0.057148607832351164,"57":-0.18255635642935783,"58":0.10806716715778984,"59":0.13780546971098206,"60":-0.1972625045108361,"61":-0.22173417465293382,"62":0.008905434094048554,"63":-0.10210708848053451,"64":-0.227390780155641,"65":-0.07606246722681931,"66":0.10478633014299986,"67":0.0035203827951723965,"68":0.08127329682980182,"69":-0.13817433450032635,"70":-0.038872840940816715,"71":0.029501009925243692,"72":-0.47291543460225655,"73":0.009704320760707581,"74":0.12659485129183473,"75":-0.16414520529806143,"76":-0.047089610989631804,"77":-0.1419044148362762,"78":-0.061856920938637816,"79":-0.18102739980569277,"80":0.22874291327006155,"81":-0.25568910407451967,"82":-0.1477547317503712,"83":0.19632925292856881,"84":0.18998598589125543,"85":-0.14977876476310079,"86":-0.06074747633632045,"87":-0.3914437217931432,"88":0.3193024966147984,"89":0.03416350816793925,"90":-0.19508214176218258,"91":0.12948810986523857,"92":0.015363854431920421,"93":0.12046164603410912,"94":-0.04642479760716861,"95":-0.29869177154562165,"96":0.04404239938995258,"97":-0.006188308968882474,"98":-0.07674642407814312,"99":0.0037829587548054216,"100":-0.07022431772440622,"101":-0.054183248422504805,"102":0.0051943839861250535,"103":-0.16783822192734768,"104":0.02354576588077495,"105":0.09514541221397245,"106":0.06751514781097333,"107":0.07927188139334762,"108":0.166180524585649,"109":0.06901261399820054,"110":-0.0170778137316257,"111":-0.11994601286866842,"112":-0.0657032103273685,"113":-0.05191358736266247,"114":0.18809561580020237,"115":0.0662514795993483,"116":-0.00454811475216094,"117":-0.0699889742198616,"118":-0.0755940658093614,"119":-0.18157408248327211,"120":-0.0059587741654578774,"121":-0.17806854624074037,"122":0.009969800330858439,"123":-0.024018332747015717,"124":0.130971991513261,"125":0.055397195940596174,"126":-0.11829946399079766,"127":-0.16048938082913017,"128":0.2769174258883951,"129":-0.004422178293365697,"130":-0.17161665901173015,"131":-0.05155784327064352,"132":-0.02816956061692168,"133":0.0176671740437586,"134":-0.04192951552911643,"135":-0.14707011912130818,"136":0.1142978020716267,"137":0.024817978974151916,"138":-0.14206760889392547,"139":0.1788587665851968,"140":0.10404781067176691,"141":-0.002374211724194698,"142":0.06308121138423815,"143":-0.07330900595401467,"144":0.058197435582492976,"145":0.3009155627973809,"146":-0.14365366327025983,"147":-0.024845850084065913,"148":0.07652500001418086,"149":0.10887897766719319,"150":-0.060532218706956756,"151":-0.18095555582441714,"152":0.19415464594347598,"153":0.3201590888310071,"154":0.010733699185092146,"155":-0.008044336792986878,"156":-0.25075672489983997,"157":0.17619049454197372,"158":-0.07087365460875028,"159":0.19216022319876158,"160":0.04598550147094022,"161":-0.1836146217387367,"162":0.14684634064311852,"163":0.1151724333550792,"164":-0.2516991451237022,"165":0.11575486540482283,"166":-0.2782841000129433,"167":0.08159989313478046,"168":0.2893429886281223,"169":-0.07317609516214697,"170":0.09508422047022984,"171":0.1985329382314993,"172":-0.09804763233251362,"173":0.08830186253930355,"174":-0.24685505844204284,"175":0.22057064335273627,"176":0.11468289240545923,"177":-0.14247578373471323,"178":0.04036511611642158,"179":-0.11784636160287151,"180":0.10906733702471327,"181":0.06717789761580036,"182":-0.10863120218694329,"183":0.06167980500365268,"184":0.23734345920930108,"185":0.16658378514476752,"186":-0.10100034184861928,"187":0.10725004305019097,"188":-0.02101334862419228,"189":0.008966483071801723,"190":0.024224350262563372,"191":0.09933530468468951,"192":0.218760218914027,"193":0.3799309746750674,"194":-0.13131485017854705,"195":-0.06832392456752193,"196":-0.2219034016573294,"197":0.14001949112991469,"198":0.10146022725934944,"199":0.2000146802659441}},{"sx":5,"sy":5,"depth":8,"w":{"0":-0.057079479849802627,"1":0.24783607409078084,"2":-0.06974114842951959,"3":-0.050515168432350384,"4":-0.23451987285542691,"5":0.3542862601108711,"6":-0.00535370530522929,"7":-0.054980661357297234,"8":-0.19899595848181512,"9":0.24364983870470383,"10":-0.39320940944891286,"11":-0.05957568199045627,"12":-0.07057286703714709,"13":0.16488619085180867,"14":0.04648349431271076,"15":-0.31164087899734655,"16":-0.04793684604411473,"17":-0.01455632101321851,"18":-0.21269611114153408,"19":0.22273024641005132,"20":0.07688452700235328,"21":0.1299935771131046,"22":-0.07826930691026804,"23":-0.35143614663989725,"24":-0.07697040439573011,"25":-0.04691942760995692,"26":0.17103635609775192,"27":0.030177407240783275,"28":0.1837011558769948,"29":-0.1929543512487326,"30":-0.17239089127238444,"31":-0.16984250767729556,"32":0.060794274260386715,"33":0.02176828145820652,"34":0.07928913317154401,"35":0.06535149552049271,"36":0.0033499945560437295,"37":-0.23199169181823387,"38":0.08176321495148094,"39":-0.04757729024321726,"40":-0.11219127127930381,"41":-0.19520272128421412,"42":0.2169405045612644,"43":-0.04788344187102531,"44":-0.2514034429698217,"45":-0.03425644834966911,"46":0.04194929368690625,"47":-0.23409491038293442,"48":-0.00027260771033798224,"49":0.20887281462409651,"50":-0.1683075303754872,"51":0.025508325023059542,"52":-0.13374702655514212,"53":0.02799443045987707,"54":0.07305323886481653,"55":-0.4365352924498958,"56":0.053586125654101376,"57":0.07371348653642805,"58":-0.21135380483355923,"59":0.11915626895761279,"60":0.050889845478069816,"61":-0.011161288440531643,"62":0.1743198277070973,"63":-0.4498334087748649,"64":-0.1118815816208137,"65":-0.11636567598585026,"66":-0.06577700861301727,"67":0.12472303997215024,"68":0.1810959063995253,"69":-0.10653903921143729,"70":-0.24155125828656296,"71":-0.2464847974627953,"72":0.0797047175079115,"73":0.1149505145607068,"74":0.09429275068639068,"75":-0.03234399574712234,"76":0.12400223535400721,"77":-0.20324090572896045,"78":-0.026779551510357973,"79":-0.12196640131595983,"80":0.12623907634367604,"81":-0.17333823321619896,"82":0.00707239903068733,"83":0.11400520041606689,"84":-0.23630092528110005,"85":-0.14557871271144943,"86":-0.20587098789626843,"87":-0.19272871991727084,"88":0.03014716062947071,"89":-0.06291723881541128,"90":-0.004819302856247023,"91":0.31604659498724574,"92":-0.06893653955828173,"93":0.04578590888709196,"94":0.1726828590649689,"95":-0.3147508779926705,"96":0.026534921194426426,"97":0.18769493484505514,"98":-0.30821671371112747,"99":-0.03214351510688031,"100":0.09136986142813905,"101":0.12465000323305171,"102":0.08142539730669243,"103":-0.39723598577940894,"104":0.018536716094035312,"105":-0.00147849140383766,"106":-0.31782170907041407,"107":0.08036865255306666,"108":0.10861918963790815,"109":0.032306270417762066,"110":-0.07623622940013722,"111":-0.18406201253121995,"112":0.03655970121754113,"113":-0.0615706780369449,"114":-0.1567973147392856,"115":0.11559304713106694,"116":0.09569492865047366,"117":-0.01771525762045364,"118":-0.041447312946364674,"119":-0.05550808545330416,"120":-0.14753776482630598,"121":0.01573869056046354,"122":-0.17905195924256703,"123":-0.0201285211873315,"124":-0.1604184777487803,"125":0.09043566462874952,"126":-0.023299864006324274,"127":0.16091324033272153,"128":0.06855390228382177,"129":0.056751471780401644,"130":0.002057048394700972,"131":-0.08662419290174078,"132":0.005394531575021962,"133":0.13405715341919067,"134":0.038221685615234174,"135":-0.02678342631570397,"136":0.026470781816208485,"137":0.24303456404024187,"138":-0.1977247352449433,"139":0.0881361160460824,"140":0.19397750863889507,"141":0.17826264598883673,"142":0.25029066838037756,"143":-0.34835958940791073,"144":0.045494266695346106,"145":0.03473434734394053,"146":-0.10940925638051116,"147":-0.003320505478343258,"148":-0.049342919395109576,"149":-0.007416711241965381,"150":-0.05557481359267622,"151":-0.11273479757869471,"152":-0.04300111549170467,"153":-0.2639579972340355,"154":-0.06902669279307869,"155":-0.04472266644703091,"156":0.0004087448572343722,"157":-0.01556588919279606,"158":-0.17862695875234486,"159":0.002303467981193574,"160":0.13444079564196196,"161":-0.06977232486451972,"162":-0.18769402856931153,"163":-0.18472290864665694,"164":-0.1483315827259869,"165":-0.1558490299730794,"166":0.2663388389939804,"167":-0.2163288980916915,"168":0.20599732617702354,"169":-0.06530860799488597,"170":-0.06978356728016406,"171":-0.16645204306495404,"172":-0.048057836338125805,"173":-0.13387329258548325,"174":0.1561922733485088,"175":-0.1532570777486539,"176":0.07709680608711103,"177":-0.06700490361710291,"178":-0.013476645986412909,"179":0.03880676978410633,"180":0.1596049901862458,"181":0.09421601571426869,"182":0.11528280866452155,"183":-0.20584973927143188,"184":0.03439831027698113,"185":-0.15798165361506347,"186":-0.05783697047008548,"187":0.038943857019014774,"188":0.06670523801626581,"189":-0.03555810316068954,"190":0.10579837411015747,"191":0.04589517989673207,"192":-0.02165574121731128,"193":0.008348440153101287,"194":-0.04434348688518176,"195":-0.08996888080454654,"196":-0.016489073462999142,"197":0.18573962196130106,"198":-0.15183836434681702,"199":-0.002031404666151008}}],"biases":{"sx":1,"sy":1,"depth":16,"w":{"0":-0.07128092898787683,"1":-0.028438236731566157,"2":-0.04811705297991088,"3":-0.0558195970671235,"4":0.0221544266736627,"5":-0.07901322979057071,"6":0.15025996651693474,"7":0.09348210010004776,"8":0.07899710319012089,"9":0.10749977985448884,"10":0.005539132605290071,"11":-0.008032438572604167,"12":0.022471185744796004,"13":0.07341665878671992,"14":0.10364143279642,"15":0.03319329249261434}}},{"out_depth":16,"out_sx":14,"out_sy":14,"layer_type":"relu"},{"sx":3,"sy":3,"stride":3,"in_depth":16,"out_depth":16,"out_sx":4,"out_sy":4,"layer_type":"pool","pad":0},{"out_depth":10,"out_sx":1,"out_sy":1,"layer_type":"fc","num_inputs":256,"l1_decay_mul":0,"l2_decay_mul":1,"filters":[{"sx":1,"sy":1,"depth":256,"w":{"0":-0.060254661612940776,"1":-0.10122254618403335,"2":-0.09233596116406823,"3":-0.04945285035896214,"4":-0.17376309299170795,"5":-0.13338664850053944,"6":0.005249291084507974,"7":-0.0029881335877542927,"8":-0.11172568305851809,"9":0.0414658804859996,"10":-0.23323701538617425,"11":-0.07173428329836694,"12":-0.24270238687915938,"13":-0.1325344719087693,"14":-0.13756792091218342,"15":-0.052814160953613534,"16":-0.17391306033319226,"17":0.026187911702219825,"18":-0.07718223192377908,"19":-0.06994211753458793,"20":-0.09414996346507132,"21":-0.08104426703850678,"22":-0.03421548293045558,"23":-0.15456185764019484,"24":-0.1840203088546846,"25":0.020157254936136293,"26":-0.2718515102985308,"27":-0.10206763622494334,"28":-0.07486347693606452,"29":-0.09873764287838863,"30":-0.08372729634515241,"31":0.0020891115196108034,"32":-0.1576819289806166,"33":0.06706327496950372,"34":0.006154456142341154,"35":-0.0617415108264439,"36":-0.1667185271048716,"37":-0.06735001602226019,"38":-0.06508099051790932,"39":-0.3414732733030685,"40":-0.10896684675919698,"41":-0.0023145207449646356,"42":-0.1680437310920429,"43":-0.008015421222953805,"44":-0.1788718256793016,"45":-0.06683273496277273,"46":-0.039240262912843896,"47":-0.05124746485686359,"48":-0.17198826303037534,"49":0.14764211612308942,"50":-0.12795470665889966,"51":-0.06170407304362049,"52":0.026878637873425294,"53":-0.11078187333650297,"54":-0.024076285600882357,"55":0.06289633718533601,"56":-0.01624284353671704,"57":-0.15704502157738992,"58":0.035540961676787164,"59":-0.14317889715284546,"60":-0.11311746731325752,"61":-0.1403493909053449,"62":-0.22091963442537219,"63":0.03071614935935576,"64":-0.33561971800970747,"65":-0.1824736160993423,"66":-0.2201273231776228,"67":-0.22483178324747716,"68":-0.15677268403633213,"69":-0.2724121297950463,"70":-0.06607847854207201,"71":0.167028810079823,"72":0.18239184957230933,"73":0.08173374460839583,"74":-0.1520219368017592,"75":-0.15267205626834685,"76":0.009107566448519077,"77":-0.06765316969986011,"78":-0.21509993248287268,"79":-0.0670975536124723,"80":-0.1929220726711301,"81":-0.13711379749709166,"82":-0.2614238791832295,"83":-0.08193687222873139,"84":-0.12691945578467048,"85":0.0013490834675767929,"86":0.20053229217733004,"87":-0.09465256169077407,"88":-0.03266349611246634,"89":0.059881775186869005,"90":-0.1857036635792497,"91":-0.021708584375335235,"92":-0.0881563050549274,"93":-0.18673033987927762,"94":0.07940706874781359,"95":-0.24987778345282718,"96":0.035619603117411615,"97":-0.22975149772019046,"98":0.000515875377503287,"99":-0.11140218174899302,"100":-0.11009426348651848,"101":-0.05838959233726941,"102":-0.007345372133490885,"103":-0.218957400702169,"104":-0.14549223285819576,"105":-0.10211683263832588,"106":0.07337903141820976,"107":0.008567944492813286,"108":0.007360570844418593,"109":-0.07678574882435349,"110":0.1559943243554854,"111":0.08309499134137839,"112":0.10306851317789723,"113":-0.14687765898913793,"114":0.014955262160324117,"115":0.011442915602950507,"116":-0.0062484933118537945,"117":-0.31935314115466107,"118":-0.24546135759487483,"119":0.031116859450224594,"120":-0.017374500970021255,"121":-0.1746642211142439,"122":0.22155158351068965,"123":-0.22523631347316583,"124":0.01811006347290083,"125":-0.09076869047445141,"126":-0.004242721016699746,"127":0.17451181156195716,"128":-0.3166884551469632,"129":-0.4285950132460589,"130":0.10156174321714778,"131":0.03373380294091746,"132":-0.13121967613344745,"133":-0.007514405017620739,"134":-0.05815443498935161,"135":0.03846030120926758,"136":0.10516917575940479,"137":0.10543594584806179,"138":-0.021268328621635545,"139":-0.03831992102076548,"140":0.04555552633432578,"141":0.014708169329005993,"142":-0.2264729758791838,"143":-0.03355781813788812,"144":-0.25038694489659424,"145":-0.25552308629396214,"146":-0.06542120200951834,"147":-0.1496997414444007,"148":-0.1543309358259979,"149":-0.04467260433147537,"150":-0.005966700543343856,"151":0.1294452630818122,"152":0.1079948001764642,"153":-0.24308788850322088,"154":0.01539476159663301,"155":-0.07741779820399455,"156":-0.05229595135682233,"157":-0.014801691898042212,"158":-0.24317586713024578,"159":0.10116854539061113,"160":-0.13492142883739486,"161":-0.03635134427870066,"162":-0.22259489756724862,"163":-0.07272735620911262,"164":-0.37299396560442905,"165":-0.025712695110904564,"166":0.07791210230822893,"167":-0.09772251299857364,"168":0.012487504114071882,"169":0.1113419115803284,"170":-0.051285542906637345,"171":-0.01610985567856042,"172":0.10675854054787826,"173":-0.05617665320715779,"174":-0.2329532162216878,"175":-0.18155226441570416,"176":0.2493461247743424,"177":-0.13403911630754442,"178":0.12442320782572446,"179":0.05404762959952337,"180":-0.03393327764250871,"181":0.04858616787461679,"182":0.0624475851765855,"183":-0.1661567810328824,"184":0.2093891405439846,"185":0.13316496860304564,"186":0.1524587300865042,"187":-0.04980313793136646,"188":-0.06789975586747883,"189":0.06583972126436867,"190":-0.052403182012999365,"191":0.12524545810201923,"192":0.033548868976613105,"193":-0.1676834864822427,"194":0.09454026050719272,"195":-0.1211882986885359,"196":-0.12167355462335117,"197":-0.01530718183885163,"198":0.03073445811948397,"199":0.11623445298138389,"200":0.028847622848127672,"201":-0.10008393909743482,"202":-0.08138436263149544,"203":0.07575855219425692,"204":0.04427831968387188,"205":0.028466755278516716,"206":-0.182642712143446,"207":0.04318756905206618,"208":0.1092896213962751,"209":-0.07711245270475504,"210":-0.1562734890292541,"211":-0.10533565776723365,"212":0.10049124606872552,"213":-0.1264650127595173,"214":-0.1418982902027356,"215":0.22050139520322573,"216":-0.2732076427228132,"217":-0.17009443186081336,"218":-0.032348911323471174,"219":-0.1620011665821908,"220":-0.08150421188389449,"221":-0.09458532318852174,"222":-0.09150225951649248,"223":0.05466513770281848,"224":0.09028169272948912,"225":0.07504926533873911,"226":-0.09635789559430509,"227":-0.0490963021819814,"228":0.21738780782798867,"229":-0.12218065400566178,"230":0.04387957833351391,"231":-0.16018804615268606,"232":-0.24425196742774002,"233":0.05236455507060367,"234":-0.2125219075732945,"235":0.004388257270908161,"236":-0.2830636640801016,"237":0.13875175407151877,"238":-0.03856780196151753,"239":-0.4031170604530169,"240":0.07788131923824992,"241":0.11015722518963351,"242":0.09171924940175649,"243":0.09403464510282433,"244":-0.18926830974384196,"245":-0.1238329691664249,"246":-0.04598220537134784,"247":-0.08430880016199062,"248":-0.05637797923242211,"249":0.09202344671329782,"250":-0.36329523183883583,"251":0.08810797861650244,"252":-0.4562473988588141,"253":0.09015656235318556,"254":-0.27571648083476646,"255":-0.11948980068110192}},{"sx":1,"sy":1,"depth":256,"w":{"0":0.034039537212971024,"1":-0.007742723828797398,"2":-0.11410363705569393,"3":-0.14505381096376077,"4":-0.15956774654323577,"5":0.0020739321129434438,"6":0.07754988230363295,"7":-0.15562543744218724,"8":-0.038428619124598384,"9":-0.11252763978263046,"10":-0.01852880366906827,"11":0.08418795826252774,"12":-0.056674196008748096,"13":0.017979806657105895,"14":0.13321815946829446,"15":-0.03287231037782445,"16":-0.010904639108983453,"17":-0.20182095456993174,"18":-0.20049784558833947,"19":-0.03483355818896098,"20":-0.1114941147882735,"21":-0.10996302588178798,"22":-0.043147417412332495,"23":-0.3070837159444134,"24":0.13836839216727922,"25":-0.21301696743004273,"26":-0.16331827729102477,"27":-0.15285871456289435,"28":0.03272457272924859,"29":0.043864081050989094,"30":-0.28682093115903917,"31":-0.03344979912108923,"32":-0.08570357106018359,"33":-0.26112417482663985,"34":-0.059502072228856506,"35":0.08918985714580048,"36":-0.3472277186257253,"37":0.07527027737798601,"38":0.08614456668630953,"39":-0.08724829477424541,"40":0.1637676266961772,"41":-0.1271067842217983,"42":0.27983617945507616,"43":0.0997181958663577,"44":0.07380471758810256,"45":-0.20531386409593277,"46":-0.10236881671508795,"47":0.026792152463434627,"48":0.0005472261975666003,"49":-0.20142658062284213,"50":0.016567630873198885,"51":0.06855971457991918,"52":-0.1875302170649863,"53":0.14005338339882292,"54":0.049349970588565814,"55":-0.07419874256410218,"56":0.07624190781175517,"57":0.16172267433634008,"58":0.17324794491307902,"59":0.024556108014083332,"60":-0.0029343205846408303,"61":-0.12187587852865395,"62":-0.014218283164687902,"63":0.020075847865898448,"64":0.009624278187307702,"65":0.019033328139181124,"66":-0.15286915081211863,"67":-0.004978353436208751,"68":-0.1639920710371332,"69":-0.09663832123403904,"70":-0.07319084206389793,"71":0.0643714253256678,"72":-0.12495052676745581,"73":-0.3309083289405423,"74":-0.15085971184113392,"75":-0.1477325797441116,"76":-0.3968165242445272,"77":-0.1536169942418655,"78":-0.0939610953336618,"79":-0.1228969387922241,"80":-0.17322518700703993,"81":-0.1308554511696252,"82":-0.08733821526535379,"83":-0.25272152770544787,"84":-0.21348172858875925,"85":-0.15755283678595508,"86":-0.06532683113160839,"87":-0.20423897997803364,"88":-0.1894645142010779,"89":-0.11936889491697286,"90":-0.31807414212122753,"91":0.027151503333479283,"92":-0.030771568931828388,"93":-0.19900902282753982,"94":-0.2891089729417226,"95":-0.06383145440046299,"96":-0.07456011661799873,"97":-0.262479095782397,"98":0.10248478697744039,"99":-0.17058827384714784,"100":-0.316215584037633,"101":-0.2206646259062921,"102":0.047832655244106466,"103":-0.035441911663898894,"104":0.15580048667701304,"105":-0.021268919749179487,"106":0.1263316440356494,"107":0.0354688291248595,"108":0.08687637020037493,"109":-0.00094848663396176,"110":-0.1527773152279678,"111":0.14176591360445723,