{"layers":[{"out_depth":1,"out_sx":28,"out_sy":28,"layer_type":"input"},{"out_depth":10,"out_sx":1,"out_sy":1,"layer_type":"fc","num_inputs":784,"l1_decay_mul":0,"l2_decay_mul":1,"filters":[{"sx":1,"sy":1,"depth":784,"w":{"0":0.05817634864410919,"1":-0.007235250948417841,"2":0.019609928013349653,"3":0.0504276347726188,"4":0.058152703586586404,"5":-0.007081117239473221,"6":0.04789206922747706,"7":0.035017029229645676,"8":0.03195517540975905,"9":-0.014014523738903736,"10":0.028895732316786688,"11":0.08139681585094219,"12":0.05690072894728438,"13":0.008197307943838541,"14":-0.03405399719477359,"15":0.055956936827104606,"16":0.05010982683763485,"17":-0.005342814789707748,"18":0.022665922375696156,"19":0.03487205184837837,"20":0.01573990356211512,"21":-0.04300020997089933,"22":0.05363890371615974,"23":0.044141948347250576,"24":0.0010739603668965536,"25":-0.00877521667695424,"26":0.0610790234352389,"27":-0.0022922083902722264,"28":0.039664431333552866,"29":0.015001244518183906,"30":0.0630552980192566,"31":0.06641563305023468,"32":0.037533213683686194,"33":0.04147916341253019,"34":-0.028904064144507413,"35":0.048669231778717015,"36":-0.0039650953599339785,"37":0.03946849310846387,"38":0.09266419400840807,"39":0.0059629515831916445,"40":0.03035337317399927,"41":0.08313314067948195,"42":0.046931645226492166,"43":0.03800565408407274,"44":0.025716197351863583,"45":0.0702158868345401,"46":-0.039497214776694045,"47":0.030759333945996694,"48":0.005205237086516878,"49":0.0489851061599126,"50":-0.027479343835713474,"51":0.05460101421131562,"52":-0.02649246821267863,"53":0.05438494992232278,"54":0.04761560206362697,"55":0.034855350117148756,"56":0.034895883527662715,"57":-0.003145679789018687,"58":0.026854635466539004,"59":0.0013182904599287344,"60":0.06066873952039808,"61":0.009005683868403615,"62":0.005349526341153281,"63":-0.009163350810827826,"64":-0.004935129462303887,"65":0.015082266428682316,"66":0.0029644452223679648,"67":-0.0019084482250318522,"68":0.05555788438757524,"69":0.031170713175570172,"70":-0.01477371135589926,"71":0.034420686774541555,"72":-0.03447626323004932,"73":0.00856861977901845,"74":-0.04474682592193881,"75":0.0014108370582773307,"76":0.012940900936419418,"77":0.038111613060682926,"78":0.02436370549029272,"79":0.024877866997864304,"80":0.043588725184733154,"81":0.02160628117630456,"82":0.09922139382889034,"83":-0.023618654163550776,"84":-0.013097443628570845,"85":0.018633209924068393,"86":0.017016597797995303,"87":0.018002560263603966,"88":-0.01740733288455549,"89":0.04837280563093004,"90":0.060876812147809385,"91":0.058351544520187336,"92":-0.0006234361193269667,"93":-0.03021302782919699,"94":-0.04762436772781892,"95":-0.07113049388391739,"96":-0.10613698705082661,"97":-0.09933591322670811,"98":-0.11277380181109307,"99":-0.11643977920337768,"100":-0.14741396094588347,"101":-0.1448486196341022,"102":-0.09899696584426565,"103":-0.0396369965409247,"104":0.028091449622582573,"105":-0.022151437976615628,"106":-0.018977446667443068,"107":0.08024161939825865,"108":0.04562024638549065,"109":0.07951595056376577,"110":0.04537344931747724,"111":0.04822854973879142,"112":0.01882640504724535,"113":-0.004589679081853758,"114":0.061743672366766804,"115":0.03341211676050749,"116":0.014806561345593905,"117":0.024731674226359388,"118":-0.053565919462545394,"119":-0.00269452769210461,"120":-0.06715473193897285,"121":-0.08564339615318368,"122":-0.14406040735022682,"123":-0.13665478867488898,"124":-0.15173555612017342,"125":-0.21917222697069808,"126":-0.16778170799701375,"127":-0.1756269477854945,"128":-0.2792920043517309,"129":-0.1492939064651001,"130":0.0036005666438316433,"131":0.01825742021119164,"132":0.012873303291981967,"133":0.02620411558536121,"134":0.060554852808461845,"135":-0.0032902147775398277,"136":0.046274529682646275,"137":0.008022714832247629,"138":0.05238572268421218,"139":0.009891621474192607,"140":0.036386025901882245,"141":0.025608657615754312,"142":0.0453104769825457,"143":0.03370522712014928,"144":0.045439769522194376,"145":0.00861378524922023,"146":-0.016593710161715063,"147":-0.08733461754388103,"148":-0.19529786576548883,"149":-0.21017531047442253,"150":-0.26814400902458146,"151":-0.2300523854003678,"152":-0.059494172221342824,"153":-0.11729883465793756,"154":-0.007871492876873448,"155":-0.003438905285314917,"156":0.0035297311380851643,"157":-0.018666221613948777,"158":0.04916360081313566,"159":0.12740453057808412,"160":0.08350565032137107,"161":0.048602187831546684,"162":0.014469121053928722,"163":-0.019273618184419337,"164":0.019008308909669255,"165":0.023254100323491234,"166":0.0213527996348824,"167":0.016390410595320554,"168":0.040518469355253786,"169":0.08091026913018672,"170":0.049637189335745145,"171":0.024829861310572236,"172":-0.0011394139634692943,"173":-0.041028623350976574,"174":-0.041322778472046316,"175":-0.13718390201152494,"176":-0.2307723684178095,"177":-0.21115227602711065,"178":-0.21879139984710888,"179":-0.12750587333432767,"180":-0.034323000170232446,"181":-0.04248642017177526,"182":0.06938642590825385,"183":-0.09607229630471376,"184":-0.07724034256159355,"185":-0.04191025498113469,"186":-0.07315284671615818,"187":0.07463121478507125,"188":0.00807816870334621,"189":-0.0700705390039504,"190":-0.17600578875592543,"191":-0.110136046116765,"192":-0.1689214345011228,"193":-0.004596446891215123,"194":-0.01317597720165378,"195":0.006572228856822853,"196":0.006300998885634378,"197":0.04644590451492614,"198":0.01836152184502569,"199":0.0528117001265884,"200":-0.046112179611218065,"201":-0.08082062643565245,"202":0.01011384202418868,"203":0.004607384123803176,"204":-0.03476222987960827,"205":-0.019732013513356583,"206":-0.058736502614974206,"207":-0.057964018587253766,"208":-0.04454445525847715,"209":-0.06886073889590236,"210":-0.10229642235920906,"211":-0.1224176120125037,"212":-0.10075695837746408,"213":-0.014056705531741414,"214":0.014353473832249079,"215":-0.0020632974191338734,"216":-0.03962500969210508,"217":-0.11791398509144717,"218":-0.17883600392659818,"219":-0.2612262043547055,"220":-0.21399674245652597,"221":-0.15454078787709388,"222":0.05187037308725302,"223":0.0633308762071033,"224":0.12682169515339975,"225":0.04764883646178035,"226":0.0872008411217913,"227":0.05268718719198772,"228":0.04740730999534289,"229":0.01380912859632524,"230":0.05578488472520277,"231":0.014138333012211493,"232":0.12825270380406584,"233":0.09723268810561593,"234":0.1257043967317291,"235":0.021611677603466235,"236":0.01785732065545233,"237":-0.01354018139767512,"238":0.01363486035492575,"239":-0.07456343917358382,"240":0.05748603603151684,"241":0.02631794960151033,"242":0.05218474580537728,"243":0.07703699196559873,"244":-0.044352094520689764,"245":-0.12983833102775819,"246":-0.13652424445422548,"247":-0.11303511688748039,"248":-0.18328364717104617,"249":-0.11595624139930291,"250":-0.054667920933099606,"251":0.010577133053714247,"252":0.01178501300510605,"253":0.009615250016043662,"254":0.006927843549266233,"255":0.06153573364164837,"256":0.10599245082593935,"257":0.048479183353806854,"258":0.1443412024974346,"259":0.16773129462182634,"260":0.15888493423188244,"261":0.22409201603458012,"262":0.21376995311940605,"263":0.20878701961252755,"264":0.14084451107650733,"265":0.12902830432330986,"266":0.04587893619800913,"267":-0.014086999194367435,"268":0.03085845747001689,"269":-0.00827566290235888,"270":0.12319765781411704,"271":0.02737529736699103,"272":0.03597152114596989,"273":0.08444791637067206,"274":0.028818776930227306,"275":-0.04996584288715933,"276":-0.19214823140221854,"277":-0.09079845195052456,"278":0.04996190084113604,"279":-0.041488248821446264,"280":0.09541055896012506,"281":0.03767921722222916,"282":0.07499784449137889,"283":0.079920484621138,"284":0.06013342073005601,"285":0.14947395170477268,"286":0.17338213850411485,"287":0.25980861347975126,"288":0.17290922484044594,"289":0.21236635201555198,"290":0.2100575274914416,"291":0.19029985306638392,"292":0.07916779970697904,"293":-0.040003870284029755,"294":0.15469997470812305,"295":0.06427292328935717,"296":0.09799165506505036,"297":0.1483424011762066,"298":0.14705827812139993,"299":0.22328654259891997,"300":0.26704237271232795,"301":0.2422262690969594,"302":0.1346033621114314,"303":-0.012515518793027782,"304":-0.1009390907145769,"305":-0.03072896047521809,"306":0.03771068876722606,"307":0.014037259384372976,"308":-0.014206036452152685,"309":0.03328634718461655,"310":0.04798694806622067,"311":0.10262000002085699,"312":0.10807538955292247,"313":0.1502210049205899,"314":0.22191559322616375,"315":0.16844995283584305,"316":0.15996085242781338,"317":0.17223443559995658,"318":0.16779537975570086,"319":0.12044444367728592,"320":-0.009532590644361436,"321":0.02725595041002606,"322":0.2952985209889182,"323":0.3572514668472183,"324":0.29789760158873646,"325":0.3937075770037273,"326":0.4663833308497107,"327":0.3693610544449763,"328":0.3392445173207245,"329":0.23130029749132547,"330":0.14102856964040117,"331":0.05523427556851977,"332":0.018983298297889663,"333":0.03606297703382956,"334":0.00705118539999551,"335":0.07172123956850202,"336":-0.00624360337431085,"337":-0.005513598506789492,"338":0.0598940479890485,"339":0.0586686119136459,"340":0.07968138566773598,"341":0.11712394820916437,"342":0.1527482560165465,"343":0.15117968032352103,"344":0.11516661730909568,"345":0.041419659739410544,"346":-0.04785586717754563,"347":-0.18040575276829593,"348":-0.3120773192659443,"349":0.028572632113639283,"350":0.571046932542858,"351":0.4773525605123918,"352":0.3620608760186113,"353":0.3877713156966522,"354":0.43223542768498324,"355":0.36358023479458534,"356":0.26592053409430494,"357":0.13943080499813393,"358":-0.025834101243349058,"359":-0.024645308132059715,"360":0.03528609361727186,"361":0.030783160205541005,"362":0.05950663022652503,"363":0.0466894136723851,"364":0.05161269551444684,"365":0.04235384178718537,"366":0.06763031002292959,"367":0.04832196627798991,"368":0.05440538835198381,"369":0.05234489350307356,"370":0.0898860720004449,"371":0.0750445414547875,"372":0.05083218060651822,"373":-0.17672020116235937,"374":-0.23977762273100883,"375":-0.45354005560463334,"376":-0.35948689888979585,"377":0.20468686995745417,"378":0.5496566335300666,"379":0.4291042860961751,"380":0.2621873808114987,"381":0.26666081527326146,"382":0.29913814071097966,"383":0.2889343639095306,"384":0.14430417060644607,"385":0.033302445966066824,"386":0.022695763323504956,"387":-0.0847103593967752,"388":-0.04431212916862774,"389":0.03523710844430089,"390":0.04357393888902418,"391":0.06713213959050492,"392":0.09235396487414763,"393":0.01513989534041153,"394":0.010174122587513941,"395":0.08068803171125692,"396":0.09911873346035156,"397":0.026103521521348122,"398":0.017318543470768107,"399":0.044048161707119476,"400":-0.046384016232426044,"401":-0.182841026866498,"402":-0.3540436774440826,"403":-0.43947969931375147,"404":-0.2596993701568984,"405":0.302917422763752,"406":0.5670499088567018,"407":0.34958600561025155,"408":0.19922096092395686,"409":0.222857700417567,"410":0.19090533809200533,"411":0.16008669605073642,"412":-0.014031574377533452,"413":-0.050484458660681034,"414":-0.09823834683818854,"415":-0.04942432859631682,"416":-0.008839594933728559,"417":-0.00820911265543429,"418":0.06866837235858556,"419":-0.02946320788172352,"420":0.05801353578628816,"421":-0.03189970230027208,"422":0.04826452968768704,"423":0.03761510014845595,"424":0.03447832706609608,"425":0.02522091848765241,"426":-0.031010303864542114,"427":-0.043637364054612195,"428":-0.08061495427030331,"429":-0.2045740548455286,"430":-0.22017170271188524,"431":-0.17421381543298098,"432":0.12622393494420067,"433":0.5085497202877197,"434":0.5920160940579307,"435":0.3909570853274058,"436":0.20881528344215503,"437":0.18175177489359615,"438":0.008853347952123378,"439":-0.01533148441385636,"440":-0.15814565686721788,"441":-0.1467509210923365,"442":-0.17842167811591494,"443":-0.1262639174788271,"444":-0.05390190872727918,"445":0.04842641909365614,"446":0.044589867625799785,"447":0.08923344840939472,"448":0.01111228492108792,"449":0.029101310965816043,"450":0.03676105054787576,"451":0.02010185281802682,"452":0.02282094267359506,"453":-0.033555418733706016,"454":0.006802185431303004,"455":-0.07111354853639718,"456":-0.058760504917350506,"457":-0.04325167636463585,"458":0.03197557530560732,"459":0.19603956605108758,"460":0.24514647350644939,"461":0.4890100494616415,"462":0.49352904749380355,"463":0.3449797845725909,"464":0.1408286675511427,"465":0.07711151259023602,"466":-0.07475651162363789,"467":-0.19246624960682038,"468":-0.2300520619092197,"469":-0.2365821651548633,"470":-0.1764086936392796,"471":-0.12971417578949485,"472":-0.056445899390754575,"473":0.023598715693919147,"474":0.05994463723544423,"475":0.05882406364575677,"476":0.05809231885389984,"477":0.04260954317989709,"478":0.053609753517125054,"479":0.002099186990707228,"480":-0.019209950686328314,"481":-0.11625171321678676,"482":-0.1937850025798741,"483":-0.2449678956304572,"484":-0.0923825369166373,"485":0.07709587925396706,"486":0.153749542714003,"487":0.3155231139610405,"488":0.3571226251430015,"489":0.44868369663168195,"490":0.4719163095356907,"491":0.14587851119719086,"492":-0.10170578153289352,"493":-0.1327399344678997,"494":-0.2098742102731289,"495":-0.3308038068450957,"496":-0.36692909026629816,"497":-0.3182556758221183,"498":-0.32341335706448815,"499":-0.25653705642827057,"500":-0.09835029653161743,"501":-0.06517517961813026,"502":0.023707958083462145,"503":0.0018415521226813156,"504":0.027732085998537572,"505":0.0078336280089733,"506":0.014503755127366649,"507":-0.04978692128223041,"508":-0.038894564045703565,"509":-0.2414475177760079,"510":-0.4062831669916391,"511":-0.33176189081544766,"512":-0.20299160239465872,"513":0.00532872686001099,"514":0.1746523384552543,"515":0.17490640940511645,"516":0.18923409956290704,"517":0.38014807947354123,"518":0.18069357940084974,"519":-0.031355473642009815,"520":-0.30743315533076454,"521":-0.3809630715087184,"522":-0.3179447201780828,"523":-0.34709840914965767,"524":-0.33262993513779193,"525":-0.31142928697294797,"526":-0.3070676643575342,"527":-0.21187423296914573,"528":0.009476780066216044,"529":-0.030312377127043058,"530":0.0038610148816106663,"531":0.05579485328992558,"532":0.0648320629919585,"533":-0.010475827423017883,"534":0.03829558001980746,"535":-0.0589539037850047,"536":-0.0590712012859824,"537":-0.24876973793427024,"538":-0.3621075510592142,"539":-0.34259175387426566,"540":-0.3108114659678613,"541":-0.21561538168871786,"542":-0.14295775968974408,"543":-0.16721972747993513,"544":-0.24106514267623946,"545":-0.10535587283541746,"546":-0.07677031503437108,"547":-0.23935987439156725,"548":-0.4258673270759472,"549":-0.38936405448870964,"550":-0.3203934539985469,"551":-0.3357987089523163,"552":-0.40231717271663553,"553":-0.3836011005670782,"554":-0.28074093227624963,"555":-0.14439727382179895,"556":-0.076646060151865,"557":0.01664760686811119,"558":0.02359761164953599,"559":0.023568794707186612,"560":-0.020234510689685566,"561":0.035542033303255297,"562":0.04327330260687779,"563":-0.03553137037068825,"564":-0.08348297488631602,"565":-0.2811285808965386,"566":-0.3257397212788297,"567":-0.32373135587219976,"568":-0.44299036099359373,"569":-0.2544828590083377,"570":-0.20489633847063254,"571":-0.2581980073262839,"572":-0.2673532485940797,"573":-0.14309225446131274,"574":-0.2575606812919914,"575":-0.3294258354463859,"576":-0.3054178468493377,"577":-0.305643742540206,"578":-0.3024328478861813,"579":-0.30508170035994625,"580":-0.29461618866545614,"581":-0.21655691019110912,"582":-0.15421201791509814,"583":-0.07007287720933426,"584":0.004011122240381744,"585":0.07916789907526928,"586":0.10474389769098881,"587":0.006800208827294423,"588":0.045375178521681506,"589":0.0440101287068025,"590":0.008523825690984081,"591":0.014391969260515097,"592":-0.09238108669406507,"593":-0.2267564889592123,"594":-0.23776681084184778,"595":-0.2333725118527093,"596":-0.2860892775980048,"597":-0.14940996660993405,"598":-0.12775039293759116,"599":-0.1847154766346762,"600":-0.2082107146568899,"601":-0.1596681100953531,"602":-0.12246383747129355,"603":-0.01651693638700031,"604":-0.11964503658242574,"605":-0.13744567240847533,"606":-0.171858086097081,"607":-0.15352647029423702,"608":-0.1998154551322956,"609":-0.03139763161056473,"610":-0.0828933304086671,"611":-0.0019147092395397287,"612":0.05011244774576892,"613":0.07736470045069577,"614":0.026880616647368814,"615":0.05599729046927145,"616":0.058120304880562065,"617":0.008573215029846995,"618":-0.02958736985072602,"619":0.038150219918248254,"620":-0.008288801123572557,"621":-0.16261711011590485,"622":-0.1866229316390011,"623":-0.14139662402726152,"624":-0.21858073964372626,"625":-0.11653441205442466,"626":-0.046260674881505724,"627":-0.0025712321327860466,"628":0.030089433519464203,"629":0.13683048487709387,"630":0.10165981015801084,"631":0.17929038494034782,"632":0.09511664219683418,"633":0.08343900511904818,"634":-0.006512189381936519,"635":0.025688266249024767,"636":0.007891100452206685,"637":0.08146803549906753,"638":-0.02210994157053369,"639":-0.043818781657960514,"640":0.02963129887663804,"641":0.05262548086670794,"642":0.03162687516922207,"643":0.011635392592689508,"644":-0.005434309273570005,"645":0.06995417404137103,"646":0.046317014383943,"647":0.055030524976630475,"648":0.014705282540150444,"649":-0.04495847514942267,"650":-0.09338033253572926,"651":-0.14644703137308535,"652":-0.16865064208676916,"653":-0.10880805855563931,"654":-0.07753466805920196,"655":0.027445379971860258,"656":0.10497913901466925,"657":0.23631043813670838,"658":0.18612337714565294,"659":0.2433400080878502,"660":0.2695939039018289,"661":0.2994583511011531,"662":0.2234807737246802,"663":0.26399029020785747,"664":0.16026455584376825,"665":0.10082100924535568,"666":-0.03367568698670832,"667":0.02399594910687973,"668":0.06930271626619605,"669":0.06880175303521048,"670":0.07255984474524126,"671":0.02716878005587114,"672":0.06317605646613451,"673":0.013732829664289488,"674":0.054722859430781236,"675":0.037891157102602595,"676":0.022106364860360384,"677":0.04464967957297911,"678":0.0012596839227140223,"679":-0.08025562030009481,"680":-0.03251210105496954,"681":-0.09797720535673238,"682":-0.14379655466120836,"683":-0.12768726563012,"684":-0.09759468761182152,"685":-0.054368988246501423,"686":0.1267000670714978,"687":0.1456661606563121,"688":0.1976062099089905,"689":0.2370311778335149,"690":0.18609199483714792,"691":0.16125675913490542,"692":0.12841281241924166,"693":0.09011410950620354,"694":0.0671275585729545,"695":0.05639989877855886,"696":0.026119332910210166,"697":0.0236416187910419,"698":0.007730611218646168,"699":0.01269001576220769,"700":0.09308003954763598,"701":0.07223273272340297,"702":0.012797923465154766,"703":-0.0006684802968914912,"704":0.00924327489825566,"705":0.08001462001560129,"706":0.03645897152875856,"707":0.05418436032260753,"708":0.06185199602120883,"709":0.08421075175076327,"710":0.026787214073085267,"711":0.011917184317644547,"712":0.07507158394966713,"713":0.037848073337775776,"714":0.023192914417545056,"715":0.002847136010562759,"716":0.10883537807723935,"717":0.12196676505719484,"718":0.13715669909761127,"719":0.1024042115309991,"720":0.08285654581562871,"721":0.0659361760078282,"722":0.03603256156224469,"723":0.016026171011089864,"724":0.10857531946522257,"725":0.018101410252020066,"726":0.06274747783266706,"727":0.007856066212727815,"728":0.0537444172906954,"729":0.030865344262149184,"730":0.04163965706029132,"731":0.03434293351315574,"732":0.0863585085936199,"733":0.06506450683537933,"734":0.01903659970763074,"735":0.019042222015689236,"736":0.024167386697640285,"737":0.06407742462516984,"738":0.08136527490424074,"739":0.1251062990561455,"740":0.09894046804406531,"741":0.07886581680637508,"742":0.07021922170132311,"743":0.09581339814405312,"744":0.09207353675132827,"745":0.09409072116866202,"746":0.05096600140618606,"747":0.07107795490846625,"748":-0.028453493563315967,"749":0.03385257941624032,"750":0.04743506478888778,"751":0.04416119871983323,"752":0.038631306810261556,"753":0.023221894692425245,"754":0.06733025159639809,"755":0.02849685678088078,"756":0.01422179323069642,"757":0.05346463254078577,"758":0.07650972427905607,"759":0.07862607039921263,"760":0.03191810344247377,"761":0.027947702260214296,"762":0.013863507040072403,"763":0.006181424076329561,"764":0.0014171225945309735,"765":0.06167342560399075,"766":-0.03587925819575495,"767":0.01569144362363325,"768":0.10424271132098849,"769":0.10396844552917943,"770":0.053297991894616176,"771":0.025251378207716283,"772":0.06100079507972728,"773":-0.0032073293538841846,"774":0.037584545841938696,"775":0.05366122630254847,"776":0.03142865776697002,"777":0.05918095337400799,"778":0.0756121669158686,"779":0.08651399581277013,"780":-0.009586072662222434,"781":0.00177201475982561,"782":0.014360143250392464,"783":-0.006689450861912155}},{"sx":1,"sy":1,"depth":784,"w":{"0":0.025788773709706572,"1":-0.030994352563112115,"2":0.03857557081851693,"3":0.026561297266419995,"4":0.04259249914979484,"5":-0.02399464676791031,"6":0.038657820987531594,"7":-0.015721611905573307,"8":0.020942698403239084,"9":-0.016934529113118577,"10":-0.01697074485665078,"11":-0.05652695199657956,"12":0.0115933979767024,"13":0.021992370749488524,"14":-0.050263469111145896,"15":-0.018808885634015025,"16":0.031946390898468784,"17":0.06855255192867807,"18":0.0031727600035772597,"19":0.0072356418312098806,"20":-0.009695168446901797,"21":0.043102590121370986,"22":0.05432461949692973,"23":-0.05173250795610349,"24":-0.0016312485756701026,"25":0.03480439036657363,"26":0.0015447488762967093,"27":0.020896225855961677,"28":0.008133103272808508,"29":0.054673913629997045,"30":-0.010996032336453519,"31":0.006761054140401337,"32":0.012250346389029835,"33":0.06767574744954212,"34":-0.0085560563464027,"35":-0.02463025693822379,"36":0.03585387845272231,"37":0.026739151642699202,"38":0.009374269803343861,"39":0.04177441525732769,"40":-0.03909397699467724,"41":0.0031427619331405926,"42":-0.03207399695953452,"43":0.019016305609649755,"44":-0.0010589354100617857,"45":0.02609201684021595,"46":0.02528074925912907,"47":0.009070621445268502,"48":0.050093849986908655,"49":0.033243341322929755,"50":-0.02267803076060264,"51":0.01829131544403675,"52":-0.015248181261937825,"53":0.03674568187026154,"54":0.0074858603613516305,"55":0.011266048475391565,"56":0.05353523057912877,"57":-0.03794907835081533,"58":0.0786099685949697,"59":-0.001541482197675506,"60":0.01818352502617431,"61":-0.050076934098758956,"62":-0.0501668710405978,"63":0.008279292739714512,"64":0.03290938283074358,"65":0.02695424807819436,"66":0.02701579481867367,"67":0.05774283483398718,"68":-0.013816558183019747,"69":0.018996377377713678,"70":0.0010153443413855432,"71":0.03940478047841805,"72":0.06600207392923886,"73":0.13304856200857806,"74":0.15710509749024917,"75":0.11680151677900222,"76":0.08313513461728755,"77":0.045588847091357396,"78":0.07643607861615026,"79":0.0405887555737992,"80":-0.00519622954473948,"81":-0.0090471604942388,"82":-0.006692924699037796,"83":0.015761421526727742,"84":0.022500324354622604,"85":-0.02448850438001052,"86":0.03877808794891659,"87":-0.03413324387169742,"88":-0.00371801941996394,"89":-0.0014640912033262814,"90":0.051535607327676626,"91":-0.03936475535076574,"92":0.004863989510882163,"93":0.040541958455051916,"94":0.03918924715027342,"95":-0.031306355680317303,"96":-0.05548411832979563,"97":-0.0319397502634752,"98":0.006120467599994569,"99":0.09096798045353871,"100":0.19898604159769231,"101":0.20018919878984986,"102":0.27307497461332647,"103":0.31960014338529513,"104":0.1303294443618058,"105":0.10593379201984207,"106":0.06423178988482282,"107":-0.021279687401641625,"108":-0.0314867223319214,"109":0.04763085868958449,"110":0.02414743343309316,"111":-0.05828470314864423,"112":0.03536752397190046,"113":-0.00045005099515729014,"114":-0.028343271982468377,"115":0.0882699465153863,"116":0.02429663075189948,"117":0.07482527592089162,"118":0.03872748772993373,"119":0.020076825877923452,"120":0.0021213159537201,"121":-0.004891146999173913,"122":-0.051276875614294753,"123":-0.14185265697206803,"124":-0.15765594155325613,"125":-0.2535694336299845,"126":-0.20304775045939194,"127":-0.13597942357032128,"128":-0.07220053762231872,"129":0.07969893388518799,"130":0.15095299581349947,"131":0.1440845214302854,"132":0.06872164221705977,"133":0.08951202659069135,"134":0.07834892762411222,"135":0.016732016757066898,"136":0.024385087507020623,"137":-0.017749625940253432,"138":0.0015056176040138694,"139":-0.043201207510379674,"140":0.035621424703964226,"141":0.055920645294804616,"142":-0.004273998126716714,"143":0.06419567832261185,"144":-0.05291787849679933,"145":-0.080954596639458,"146":-0.0287797515419713,"147":-0.021702363321198622,"148":-0.07342536744108703,"149":-0.09506128971981216,"150":-0.17370236915388346,"151":-0.2304025918255928,"152":-0.22025544123248444,"153":-0.32157969638141054,"154":-0.30982488257992347,"155":-0.21867339443720019,"156":-0.12562136050617664,"157":-0.05567511823125725,"158":-0.0935770165714715,"159":-0.09017955550730268,"160":-0.03128966630890261,"161":-0.03940662971606698,"162":-0.027967713877733814,"163":-0.0033711476750000967,"164":-0.018828330771379194,"165":-0.018187578559117464,"166":-0.005162782070740354,"167":0.02241370126444682,"168":0.05168271882092423,"169":0.029112382339517576,"170":-0.05919072153667417,"171":-0.02871590695882874,"172":-0.03777833093363924,"173":-0.08134932954427783,"174":-0.026857242664821826,"175":-0.10649813528808658,"176":-0.027630624437507044,"177":-0.1992885697132031,"178":-0.26780313048290866,"179":-0.14648216470873654,"180":-0.2629231071492183,"181":-0.2325606388625036,"182":-0.22704982354488493,"183":-0.1428544627941706,"184":-0.12305805526869047,"185":-0.13831599727939928,"186":-0.19921284651703947,"187":-0.336685947433,"188":-0.2968968431683212,"189":-0.1635621111524338,"190":-0.08802286896113128,"191":-0.04700121056665709,"192":-0.15256953486647487,"193":-0.047336305565733344,"194":0.023684834459012743,"195":0.0063915966739075195,"196":0.010130660516348219,"197":-0.021215412224319136,"198":-0.006660817237818525,"199":-0.03153047575483762,"200":0.031086181535399583,"201":-0.048555832124498766,"202":-0.06422700893047788,"203":0.015374225129144428,"204":-0.02946384990301901,"205":0.006419619743699839,"206":-0.04520782810587185,"207":-0.021530043280255824,"208":-0.1183271424316008,"209":-0.14014701382100372,"210":-0.12221011508922584,"211":-0.08341613971493375,"212":-0.04221631393887276,"213":-0.1681568540590089,"214":-0.33389130049149185,"215":-0.4187746663959319,"216":-0.30192064049109774,"217":-0.22017366862345417,"218":-0.17066520308254163,"219":-0.06968152646333406,"220":-0.14397622241135452,"221":-0.1222461496964495,"222":-0.019618184700642846,"223":-0.025427695123138336,"224":0.057814988774094155,"225":0.047472190608353344,"226":0.02065793751864223,"227":0.0010656644168260253,"228":0.012558623207681084,"229":-0.046263251120151304,"230":-0.04098819941291691,"231":0.08126451691594999,"232":0.17362785229884356,"233":0.2168559167924436,"234":0.13872924146001403,"235":0.08232797071615139,"236":-0.01573087407949632,"237":-0.115936049946244,"238":-0.29052687586941944,"239":-0.24884586982962664,"240":-0.13431069337822657,"241":-0.26993952962363016,"242":-0.41087378342057956,"243":-0.3517429127061024,"244":-0.26385472170422075,"245":-0.16511233793734967,"246":-0.1736103291157596,"247":-0.19316970579601428,"248":-0.1245243069032121,"249":-0.07487326464401878,"250":0.0020706490431857474,"251":0.03968308451064758,"252":0.006318789575619962,"253":-0.05159366870464168,"254":-0.05830368610359517,"255":-0.021442150098260147,"256":-0.0011023777217459294,"257":0.01448398321244874,"258":0.06464149526854633,"259":0.1570791636021811,"260":0.24813030281047724,"261":0.23917961755980097,"262":0.2467157748557528,"263":0.18151142722173574,"264":0.14730743166655233,"265":-0.14376519922366668,"266":-0.26266487940941063,"267":-0.33217425297861525,"268":-0.3414423014359396,"269":-0.35855527059137043,"270":-0.3564942415493178,"271":-0.1683346292718226,"272":-0.07703916622621586,"273":-0.034772655637926565,"274":-0.07200671912710678,"275":0.022347290050603746,"276":-0.07867396041804328,"277":-0.04179665229564872,"278":-0.020152456537731768,"279":0.016145971183055177,"280":-0.03487183178120707,"281":-0.020051362677972848,"282":0.04648083014402557,"283":0.032487679418399376,"284":0.022395119415190106,"285":0.1315372299746827,"286":0.2547339801089446,"287":0.28624657720789715,"288":0.23847158379298272,"289":0.26301075491361203,"290":0.307042580175767,"291":0.3461435518423478,"292":0.24065781574948722,"293":-0.02217983169347777,"294":-0.2796251316500247,"295":-0.43062355804574975,"296":-0.33039752449065884,"297":-0.14910502453369143,"298":-0.054758570378809386,"299":0.0755378449685942,"300":-0.008767229570387168,"301":0.10409717288667171,"302":0.1300240831030687,"303":0.07480222267775616,"304":-0.051573424159330555,"305":-0.0442687135023615,"306":-0.025234798139733273,"307":-0.007804411154251148,"308":0.002314081094989026,"309":0.06798250388242619,"310":0.01105994284216616,"311":0.002289842381148316,"312":0.052567505705293956,"313":0.12422428489215727,"314":0.21465656273517314,"315":0.2618104614684954,"316":0.2916972742738038,"317":0.23377647335502186,"318":0.26657269616565815,"319":0.26326460552041325,"320":0.30398483527777403,"321":-0.005621163019535169,"322":-0.3142909824769215,"323":-0.4234630741428476,"324":-0.07059068382475259,"325":0.21506513568473357,"326":0.27008166538167694,"327":0.17444912824409925,"328":0.19750649832062003,"329":0.24610789403871705,"330":0.11928294422397441,"331":0.1020311122370614,"332":0.08895670721300494,"333":-0.012352290305487887,"334":0.005187925844403318,"335":0.027287390466435506,"336":0.02637699557059825,"337":0.027084960993780344,"338":0.028904288515058475,"339":0.019493975290833403,"340":0.024911136238273613,"341":0.17069034914507283,"342":0.20066038546700302,"343":0.3093941903752046,"344":0.21294501312092867,"345":0.1283607775467547,"346":0.10074281896898955,"347":0.09063894590732596,"348":0.18014976747757472,"349":-0.0656944484616391,"350":-0.3308157634221133,"351":-0.187599852207319,"352":0.22579404190051366,"353":0.4324291370396928,"354":0.3069355373525495,"355":0.15870529822887083,"356":0.2212454187559522,"357":0.1663130459210487,"358":0.17892014605746673,"359":0.11882724732581038,"360":0.06272431047947401,"361":0.03373080132307298,"362":-0.04579126706480915,"363":-0.0030471645460640575,"364":-0.01955070536763467,"365":0.012348158744465954,"366":0.019844109447731597,"367":-0.012013278662804784,"368":0.050116995475797614,"369":0.15898990481163983,"370":0.208945183865411,"371":0.22375947067574892,"372":0.09279099656121609,"373":0.004192765330391655,"374":0.048280334632313175,"375":0.07609797606377004,"376":0.14315705557918956,"377":-0.1169606905225658,"378":-0.31119553924638554,"379":0.07178284279683632,"380":0.354255812264711,"381":0.4442874747369837,"382":0.2049247090619022,"383":0.2131592643395248,"384":0.2640717830596132,"385":0.19382764690259868,"386":0.1646584433488376,"387":0.09696131044380266,"388":0.04557913591512055,"389":0.030097706933216364,"390":0.046967338003169455,"391":0.04772929105360234,"392":0.01968682905087403,"393":0.07773704886386833,"394":0.0763737804804955,"395":0.080735104541461,"396":0.07673928893478502,"397":0.11841198593202053,"398":0.10850864385266881,"399":0.08191796263192892,"400":-0.04281425282831737,"401":-0.13313843506563305,"402":-0.11610966235461101,"403":0.03846271585777581,"404":0.047494429901926274,"405":-0.15758655309470979,"406":-0.08387407460129061,"407":0.21569816276806725,"408":0.49279025644473035,"409":0.4922938941265257,"410":0.245317521247517,"411":0.0902673232462369,"412":0.2230454774651366,"413":0.22809325042541184,"414":0.1940590266466005,"415":0.06693318055262792,"416":0.09995483388314673,"417":0.010925958268252805,"418":-0.020148001229660872,"419":0.07199161566477794,"420":0.016673784292858613,"421":0.060541646613156495,"422":0.011042925349029351,"423":0.027540702283685888,"424":0.022605363487780587,"425":0.0012824515150242635,"426":0.06383972354029319,"427":0.06738481654445612,"428":0.1375653079855029,"429":-0.1260380338927793,"430":-0.05182555993462264,"431":0.12614972009346984,"432":0.17440753171808338,"433":-0.15036004146777884,"434":-0.01781350865001141,"435":0.4403938563221282,"436":0.7134444381405931,"437":0.5162883894439084,"438":0.12457482181463145,"439":0.049645137485375905,"440":0.07857840204372447,"441":0.08063571487774382,"442":0.06212783431560422,"443":0.062145594125776374,"444":-0.005298884605062724,"445":-0.014780848419928598,"446":-0.023038293693895213,"447":-0.07826951343516073,"448":-0.048663877402401766,"449":-0.005999469372167961,"450":0.03127197551846218,"451":-0.0005670833579981342,"452":-0.08167327753983614,"453":-0.10227944384896885,"454":-0.0747109224706357,"455":-0.0023132620289904055,"456":0.0804078461130383,"457":0.14013682343682146,"458":0.2203295169632057,"459":0.4562206294512026,"460":0.26151660826629297,"461":0.025650558409345613,"462":0.18328369168891165,"463":0.48573375606112723,"464":0.7028773274434412,"465":0.3821789320109277,"466":0.026930962824422942,"467":-0.08948814724260067,"468":0.024254204836875338,"469":-0.051079495344766544,"470":-0.048324916729811644,"471":-0.06346307148258773,"472":0.00787279196277806,"473":-0.005884896587200388,"474":-0.00022394381986197727,"475":0.026129997339977114,"476":0.007805487490531575,"477":0.02656289204429633,"478":0.05644434357296764,"479":0.0040606280761187425,"480":-0.12301028059681161,"481":-0.1943595911806303,"482":-0.2752472706970196,"483":-0.0933232795743562,"484":0.09593326322800123,"485":0.3233046832614302,"486":0.5408565405943201,"487":0.5312123971008353,"488":0.36531549722824247,"489":0.15505984802575523,"490":0.233805436513639,"491":0.30655885044499526,"492":0.2528667125111023,"493":0.053272169226193954,"494":-0.08879491094080816,"495":-0.17389489334215627,"496":-0.13752937188275102,"497":-0.28829682267769363,"498":-0.15842449090093405,"499":-0.0866233527584435,"500":-0.09257578320009974,"501":-0.05287595839915008,"502":-0.008674133471554225,"503":0.025344700875915213,"504":-0.03120916748135646,"505":-0.01352553300400238,"506":0.010836674867053659,"507":-0.04098663135652369,"508":-0.19942759861957635,"509":-0.34668435276247245,"510":-0.47197802587123316,"511":-0.30462810220792397,"512":0.01971718259982717,"513":0.2718874975613897,"514":0.44462858288153273,"515":0.4274383456818396,"516":0.27457971178923823,"517":0.04296458417548191,"518":0.12510533794573486,"519":0.11671862710068176,"520":0.020977217928359326,"521":-0.0779259405548785,"522":-0.15425767945340735,"523":-0.15150549139679304,"524":-0.16397014048985706,"525":-0.24588076809545248,"526":-0.2403232603719204,"527":-0.11929145083936875,"528":-0.06519972166179329,"529":-0.00697497533463241,"530":0.022640887097766453,"531":0.008855431257244485,"532":-0.052567029619707,"533":-0.00534111133228996,"534":0.0009054440356970789,"535":-0.07646877046824962,"536":-0.16643852247544116,"537":-0.3919247329817585,"538":-0.5686005439103707,"539":-0.35890508031687884,"540":-0.18463257277152997,"541":0.04244435868845631,"542":0.13469994879127076,"543":0.12193658289890373,"544":0.024355067029554412,"545":0.028943709857906577,"546":0.009724351191100681,"547":0.04967435428151346,"548":-0.0725300844376014,"549":-0.0794788674985513,"550":-0.13051524821782468,"551":-0.10396472559882906,"552":-0.18254187963425478,"553":-0.1935132237966332,"554":-0.20622591807601723,"555":-0.04261763477361045,"556":-0.028796251024443754,"557":0.02359950887515706,"558":-0.07035289259687907,"559":0.041552820078191874,"560":0.020940743673966394,"561":0.009062672814194468,"562":0.02482476772996586,"563":-0.07877819698055574,"564":-0.2771936950174273,"565":-0.3075282729820794,"566":-0.43696695407881936,"567":-0.42974234363101255,"568":-0.3341219282393177,"569":-0.17074239451287207,"570":-0.047692598469593464,"571":-0.06587876562999338,"572":0.014532709639256096,"573":0.04471854248892788,"574":0.13162600192970858,"575":0.125991635507114,"576":-0.13520784634160257,"577":-0.038084341275758105,"578":-0.15778666558689305,"579":-0.19939546117482673,"580":-0.25410550247503405,"581":-0.2443620631634751,"582":-0.1557669717406044,"583":-0.07425919082761984,"584":-0.011934656268743873,"585":0.012376344207171753,"586":0.009269456401479375,"587":0.0220140522459069,"588":-0.04931332417033653,"589":0.06814063124751006,"590":0.007884821566468997,"591":-0.06037416559043586,"592":-0.19751150306898138,"593":-0.33691496563691514,"594":-0.345613620315237,"595":-0.3080666326238485,"596":-0.37776420479998346,"597":-0.24249586912650614,"598":-0.20453416542160846,"599":-0.07637384631677958,"600":0.03957287665888509,"601":0.20896513986723045,"602":0.10832527092748248,"603":-0.013236986652156398,"604":-0.11501153059212857,"605":-0.12718384644620195,"606":-0.12816991379604054,"607":-0.25283306154944235,"608":-0.24784230695329063,"609":-0.22836350729599547,"610":-0.07817711735324649,"611":-0.034972753333806374,"612":-0.0059101434448437275,"613":0.03400536455779571,"614":-0.019518634406370694,"615":-0.003888795281772634,"616":-0.02439549312275255,"617":-0.02171023269844018,"618":0.012836988111058684,"619":0.04309195685672071,"620":-0.1464016591181139,"621":-0.0999892519467272,"622":-0.19184290508199905,"623":-0.19060811311691125,"624":-0.16648705472985392,"625":-0.2917812817674631,"626":-0.2389375128963891,"627":-0.23732082881388275,"628":-0.23394604537552002,"629":-0.10845300266141122,"630":-0.21926364950269206,"631":-0.22222228937283375,"632":-0.23306747771469338,"633":-0.20443702373423656,"634":-0.1181034704293635,"635":-0.14901091790218232,"636":-0.07723788548261588,"637":-0.08217319473159104,"638":-0.06346461541983052,"639":-0.037289453838646354,"640":0.0404784807565621,"641":-0.01545846086123585,"642":0.0011687362542104382,"643":0.007203045511009771,"644":0.0035318145136427385,"645":-0.027486463637797807,"646":-0.042491536812658645,"647":0.035971698834254044,"648":0.0314900949401152,"649":-0.036272430447414204,"650":-0.12939224156380993,"651":-0.10544625375401756,"652":-0.03516677153843544,"653":-0.11592899339324185,"654":-0.12987775364886536,"655":-0.158666792195581,"656":-0.232970771417698,"657":-0.21914133564154276,"658":-0.3579488119068753,"659":-0.2791824358221684,"660":-0.11583683698233913,"661":-0.026592591006456334,"662":-0.02320738830512057,"663":0.03049136051700472,"664":0.10477778513093385,"665":0.06793895529687186,"666":0.047806214642260585,"667":0.04863163215719283,"668":0.021680427074483897,"669":0.029467841755856945,"670":-0.005788623127013396,"671":0.03727322522501792,"672":0.042800767625771965,"673":-0.06545419136654218,"674":0.022344644312783154,"675":-0.021175847992299754,"676":0.017380363671948514,"677":-0.007949991008266584,"678":-0.05910086167118679,"679":0.0010239177832607033,"680":0.039933532552765064,"681":0.03488510819874841,"682":0.020624292867748615,"683":-0.00780841349321697,"684":-0.09370288400845474,"685":-0.07435691401856673,"686":-0.07236451378478712,"687":0.05513523754857104,"688":0.1938145816014675,"689":0.18043255832395927,"690":0.11208088997659292,"691":0.11658695616518343,"692":0.1514465297751698,"693":0.06651006874789592,"694":0.00038141617419401466,"695":-0.020410397087689453,"696":0.04377462530439215,"697":0.05658410164543848,"698":0.000815776452006219,"699":0.031887310679489675,"700":0.04278707020254721,"701":0.05586242663949533,"702":-0.018612393439822083,"703":0.0390480048193105,"704":-0.07398353246795522,"705":0.01853478539479036,"706":-0.0012922596597859395,"707":-0.0171935148567217,"708":0.12326551608431385,"709":0.04739823108062459,"710":0.06447021654692998,"711":0.09603536438962537,"712":-0.0023321674656733528,"713":0.03638681022809006,"714":0.12907410976079425,"715":0.11095848067751557,"716":0.12536078544839332,"717":0.15782523431998563,"718":0.1649552024871745,"719":0.14263429885002427,"720":0.0964478547499743,"721":0.0378355777997796,"722":-0.004761341244863334,"723":0.007469552395180157,"724":0.015942572486924274,"725":-0.02656130477561099,"726":0.027393080579696916,"727":-0.005858708392976865,"728":-0.013303108086084012,"729":-0.03155043788662092,"730":0.027217835933077427,"731":-0.0026407478668052696,"732":0.05538747856599184,"733":0.06700897385635522,"734":0.016493485685302407,"735":0.047533568409016326,"736":0.06949384416024364,"737":0.06728181318986225,"738":0.05474633680114375,"739":0.08643557890877519,"740":0.10719573854274539,"741":0.11029674931905145,"742":0.05261616496058441,"743":0.11605157040894087,"744":0.0882792498616462,"745":-0.020260174033860087,"746":0.018189413619581186,"747":0.02953641581417965,"748":0.03175199074693943,"749":0.00046158691134854654,"750":0.03752167565599479,"751":0.04649561991820919,"752":-0.0075606469617465,"753":-0.000026226421849370854,"754":0.05956444689710118,"755":0.06743136964346225,"756":-0.042855171656290034,"757":0.02984454631783129,"758":-0.012257849039570591,"759":0.010014558445803652,"760":0.015027462302716302,"761":-0.029690933912881926,"762":-0.0043293937047107186,"763":0.017476087609369216,"764":-0.056087761239227735,"765":0.02460257357539938,"766":0.019519875996977017,"767":-0.00451089024436894,"768":-0.0018824946916344409,"769":0.045589578093264596,"770":0.013931635357777226,"771":-0.004280988540555246,"772":0.06819286375630837,"773":0.031007892059200782,"774":0.005360526799628407,"775":0.028528452063428845,"776":0.034240846598805746,"777":-0.06298630218894903,"778":-0.014107150405689321,"779":0.008472012981213686,"780":0.049875832091933164,"781":-0.019527853331923542,"782":-0.027846516699414854,"783":0.018079634514910053}},{"sx":1,"sy":1,"depth":784,"w":{"0":0.031830053747588995,"1":0.03505334674791756,"2":0.004472945762302404,"3":0.0471328149675188,"4":-0.08076702193121904,"5":-0.02159534082023171,"6":0.03045636642996418,"7":0.028460945237377386,"8":-0.02605659977678154,"9":0.04904338066652437,"10":-0.05805880774486973,"11":0.03698141806838074,"12":0.023237157092353043,"13":-0.03588911402437474,"14":0.016606717823233287,"15":-0.009647103565226016,"16":-0.04518877626540685,"17":0.037476144532482596,"18":-0.000938096478144811,"19":-0.05685025378326403,"20":-0.004296389726079293,"21":0.006135476280284253,"22":-0.016247615017669116,"23":0.024329993538405464,"24":0.0406357410220587,"25":0.019306556937585356,"26":-0.0035279250081589665,"27":0.011807397367516655,"28":0.04540282348755847,"29":0.014077046658342265,"30":0.022591861648090038,"31":0.05141314300138594,"32":0.023769244632783352,"33":0.042968208113692,"34":-0.026457547662996777,"35":0.035285786965515764,"36":0.005809761142280085,"37":-0.004002787013190206,"38":-0.015024987586560677,"39":0.06215809507476104,"40":-0.03527536331902442,"41":0.03249022446349088,"42":0.024365982089846406,"43":0.016100606559555048,"44":0.013095010290613395,"45":-0.0698250988317733,"46":-0.02669587563849601,"47":0.04680026691381599,"48":-0.01811900501484741,"49":0.016877832313750892,"50":-0.02628646120294827,"51":-0.027432017660351565,"52":0.0019603851129606537,"53":0.06472271051514675,"54":0.011550422700979848,"55":0.011761796895858502,"56":0.07038946166293784,"57":0.00785790731215718,"58":-0.013024184210495988,"59":-0.002610008052019262,"60":0.003114594798897219,"61":0.03618900863940832,"62":0.0066740779523974695,"63":0.02915628728221012,"64":0.006578482940937558,"65":-0.00987444382913498,"66":0.0195288327537958,"67":-0.02533253217566012,"68":-0.050369351821038695,"69":-0.07451338645640505,"70":-0.0770059719567064,"71":-0.07622130690727756,"72":-0.09922370791492932,"73":-0.130648819957179,"74":-0.11539120412204011,"75":-0.09300307175013889,"76":-0.09152597458326658,"77":-0.05651887048804384,"78":-0.04045821775484431,"79":-0.05300846508219455,"80":0.0213636309961908,"81":-0.018907248529122886,"82":-0.017428238191108066,"83":-0.02273700107793863,"84":0.01427436100513786,"85":0.05551732356142643,"86":-0.012929418887218273,"87":0.031192499991901334,"88":-0.05432701745014516,"89":-0.019165144448398792,"90":0.01090046363063051,"91":0.0011224197879379715,"92":0.038833695988382044,"93":0.04994155258835579,"94":-0.0009563114397824291,"95":0.0890724184060588,"96":0.06012397401802122,"97":0.03854174766446046,"98":-0.0637956241682164,"99":-0.08116076456759967,"100":-0.16134314644370984,"101":-0.22313723734531138,"102":-0.19789750237182752,"103":-0.20269572079982165,"104":-0.14710734469825565,"105":-0.12704157480562306,"106":-0.11353938101959128,"107":0.0036180033710867675,"108":0.02572138171446952,"109":-0.039750968503304326,"110":0.03894781950266479,"111":-0.030682071405121775,"112":-0.00728558814066688,"113":-0.021753762597867533,"114":-0.06064738325171449,"115":0.005693954063205008,"116":-0.0011181879883581573,"117":0.027398825848922292,"118":0.03191838464016354,"119":0.025802392183140933,"120":-0.05859920707267504,"121":0.13234020445319689,"122":0.12407178096268218,"123":0.288410131309958,"124":0.3269279271417889,"125":0.21318001539319195,"126":0.21489427075290857,"127":0.04683999519428552,"128":0.038088902093955566,"129":-0.0870851001183861,"130":-0.09313029263234202,"131":-0.15874214088782365,"132":-0.14009372997924555,"133":-0.06510250593031289,"134":0.002596157411985538,"135":0.015484155689934003,"136":0.0469367088131307,"137":0.036448141547762825,"138":-0.015063641986793521,"139":0.014411580837245079,"140":0.0178279346119916,"141":-0.04117314646505099,"142":0.031056594940051252,"143":0.0465270308266076,"144":-0.005319482902779501,"145":0.02324840179341206,"146":0.06583830184081205,"147":0.06049596666244212,"148":0.18669060932243564,"149":0.1849007922591639,"150":0.26080253285505967,"151":0.274965811116653,"152":0.29166549476592,"153":0.07313213743703302,"154":-0.04215738737882242,"155":-0.2528679470956263,"156":-0.4270298446668159,"157":-0.513465061653481,"158":-0.24875949592851274,"159":-0.1597203582120809,"160":-0.0517927836596717,"161":0.10143390703575589,"162":0.09199276780551446,"163":0.08022504008989445,"164":0.08263101642376235,"165":0.012612272831790707,"166":0.06941308716552182,"167":-0.05706947282250969,"168":0.022344463908853494,"169":-0.06391775779598037,"170":0.010597536377448443,"171":-0.0006795892385471412,"172":0.012241219023863308,"173":0.005335302451155779,"174":-0.00507353570054347,"175":0.02003035804915256,"176":0.07324450006940117,"177":0.17773818948071876,"178":0.22858005919733607,"179":0.14295615453957525,"180":0.1728280989219736,"181":0.1439939248625738,"182":0.2140794267006647,"183":0.17238340992523238,"184":0.1251322951825326,"185":-0.045765906419584744,"186":-0.08833864699301464,"187":0.007721586013740426,"188":0.001352075349510148,"189":0.09518742984727421,"190":0.09467011815593884,"191":0.12059272166700145,"192":0.21196038061403735,"193":0.07801064365538561,"194":-0.018917641246456042,"195":-0.046099033827094606,"196":0.028326602110499116,"197":0.01783005070242639,"198":-0.019317621652717804,"199":-0.0018106323631887319,"200":0.01626297857459191,"201":0.014337600832515398,"202":0.010521855233065624,"203":0.06062723684427229,"204":0.06581473564646424,"205":0.0070843255163578235,"206":0.019151016848834093,"207":0.1841222309094509,"208":0.28564634961934615,"209":0.38409641418490775,"210":0.4652064229454545,"211":0.535255868538022,"212":0.4037275989669867,"213":0.15992735675177872,"214":0.11341475895324782,"215":0.1503688904694656,"216":0.2136993157042728,"217":0.1406898005041354,"218":0.16360901352055157,"219":0.20969591959071396,"220":0.28930111681009285,"221":0.20360351166095747,"222":-0.0706571813962746,"223":-0.014578707370587267,"224":0.004111130037981395,"225":-0.0015001250195868046,"226":-0.019137318673989902,"227":0.002133842246449786,"228":0.04301860976710787,"229":-0.024119477405625464,"230":-0.02405946684940699,"231":0.07909970306987972,"232":-0.019134855972072883,"233":-0.10236764086408032,"234":0.01502048008118649,"235":0.25024947387994023,"236":0.33187254050920945,"237":0.4069901250925148,"238":0.4244813096890754,"239":0.41081240682086745,"240":0.24600774035439363,"241":0.1996352145931341,"242":0.15174880498398843,"243":0.1958030765378576,"244":0.2191810089759148,"245":0.23638857028088436,"246":0.1516449148581986,"247":0.17707440051461507,"248":0.2013858110905773,"249":0.19894980265398007,"250":0.022023333564463267,"251":0.009901101988514344,"252":-0.00905598238064814,"253":0.022575432999554175,"254":-0.03362359303868324,"255":-0.04257990607789155,"256":0.0032892150055058023,"257":-0.024479801565026535,"258":-0.06781863443407159,"259":-0.0394170115435868,"260":-0.07090375450310986,"261":-0.10284839234855703,"262":-0.023433239786381323,"263":0.09734134361751522,"264":0.025959418319645287,"265":0.15104675827994896,"266":0.2801180073926168,"267":0.28223049484592994,"268":0.24604279199728318,"269":0.12224063086008694,"270":0.272902231667215,"271":0.08206950848854035,"272":0.04970087181224167,"273":-0.02539971158913194,"274":-0.07782493362479886,"275":0.027449773868249372,"276":0.14401553848027285,"277":0.1285194132245577,"278":0.02890154814698096,"279":-0.01226544416759799,"280":0.015651085928973175,"281":0.022208962614678113,"282":-0.00810867645868925,"283":-0.013698498371963932,"284":-0.03063637999566167,"285":-0.028439859162092147,"286":-0.042662890311845884,"287":-0.13158775680013932,"288":-0.12008292292097934,"289":-0.1480477450454535,"290":-0.073372111913107,"291":-0.1811826513132222,"292":-0.34741367471570433,"293":-0.18483065002160773,"294":0.19012912662377499,"295":0.34523077272367636,"296":0.24722397322738454,"297":0.03703601040022293,"298":-0.0037951058041142322,"299":-0.10430687314681869,"300":-0.20668564857825186,"301":-0.21659755025920663,"302":-0.26885784204062635,"303":-0.18277497460563144,"304":-0.01608948315540158,"305":-0.02093427777331031,"306":-0.021548696056932617,"307":-0.0030228251229187414,"308":-0.002116120356112999,"309":0.027255803324164454,"310":-0.02422727302560645,"311":-0.03114605821539936,"312":0.050856059495000924,"313":-0.08659685871637614,"314":-0.12127291949687459,"315":-0.20654514780619085,"316":-0.17657416212311447,"317":-0.08406544470660718,"318":-0.12763748193512495,"319":-0.2950255907791865,"320":-0.4976902423583041,"321":-0.24889749998279245,"322":0.22997870071618695,"323":0.5342649204490282,"324":0.22212810331168534,"325":-0.184052726991821,"326":-0.1740563563571412,"327":-0.1972486267204609,"328":-0.2487938146621722,"329":-0.3138738132321245,"330":-0.4014281839427905,"331":-0.3501969079254155,"332":-0.040079441941179635,"333":0.015349356246052017,"334":0.01962885076606982,"335":0.004440757657400932,"336":-0.013898654211251015,"337":-0.0046301290125266275,"338":-0.019380599631836852,"339":0.014430845386909481,"340":-0.03143844219665923,"341":-0.053035206061280114,"342":-0.14345141245550103,"343":-0.2750769285884936,"344":-0.2306712993606835,"345":-0.1801388492971625,"346":-0.18857136716757833,"347":-0.2848987920036152,"348":-0.35705132687768965,"349":-0.1375500517631975,"350":0.37789731573875723,"351":0.3461454762920452,"352":0.007361814811212381,"353":-0.13651222952296965,"354":-0.11498525206905867,"355":-0.004961944955439151,"356":-0.15275158960438048,"357":-0.451626188630802,"358":-0.5401570030478966,"359":-0.4675015539319378,"360":-0.17139006667082027,"361":0.011012653494613072,"362":0.0006377789386413004,"363":0.015235653121893325,"364":0.05077800677409222,"365":0.04763131258371199,"366":0.021849778520351627,"367":0.00038013982019052925,"368":0.0482857128225213,"369":-0.17191647420203904,"370":-0.2786066146445769,"371":-0.3452528003942524,"372":-0.26109750527665576,"373":-0.1760153788436001,"374":-0.19763756492084897,"375":-0.2929581349127627,"376":-0.22948779014052653,"377":0.09763999026175839,"378":0.41393756271528986,"379":0.29180030260636464,"380":0.04540645828061925,"381":0.08137862150520064,"382":0.226779051690223,"383":0.2135435978841991,"384":-0.24420902786421064,"385":-0.49076914297196017,"386":-0.5769639599257266,"387":-0.5099082210093575,"388":-0.1700496745349077,"389":0.0707208137184344,"390":-0.062078384920711605,"391":-0.03915946184556038,"392":0.007360413784204331,"393":0.055858609743412904,"394":0.02864949919393868,"395":-0.0014888596220160766,"396":0.016195551687995854,"397":-0.26767023289453207,"398":-0.2999268303951127,"399":-0.3541746349672228,"400":-0.3049603045315063,"401":-0.17578540418799446,"402":-0.29436216226160056,"403":-0.3107034495711926,"404":-0.15630477809602877,"405":0.31575823277213666,"406":0.3819153653195122,"407":0.19891227460706762,"408":0.13652742760807585,"409":0.10497951977859026,"410":0.3065666653127719,"411":-0.023809779152444803,"412":-0.23368518791070467,"413":-0.5082649978332758,"414":-0.4969569524739019,"415":-0.4605260192508793,"416":-0.22539322244148077,"417":-0.03896871784717713,"418":0.04809024080808833,"419":-0.03955422166792893,"420":0.05151779799242176,"421":-0.02189529165208557,"422":-0.00006999855103128523,"423":-0.034036177497583336,"424":-0.04871319804079595,"425":-0.2186457196706716,"426":-0.33133684382630346,"427":-0.39006386980188484,"428":-0.32731497036254226,"429":-0.2457963931889338,"430":-0.23918822706862877,"431":-0.3331404636885736,"432":-0.21187361728965237,"433":0.13292971462752257,"434":0.15303021720834095,"435":-0.04581965759072203,"436":0.015191236422194733,"437":0.10420854743597983,"438":0.07268018309669937,"439":-0.07190983843076104,"440":-0.23466984886854858,"441":-0.3186450491823395,"442":-0.48634574578108136,"443":-0.3668130586041987,"444":-0.13161307450780432,"445":0.06705371462606273,"446":-0.015988885044858184,"447":0.017964870543733347,"448":-0.01256152426342302,"449":0.05724873690729964,"450":-0.019721824352452504,"451":0.04312387677230691,"452":-0.015966235142581952,"453":-0.14194408305932285,"454":-0.23943314002350172,"455":-0.34041532374696554,"456":-0.36638400719316044,"457":-0.326063709056384,"458":-0.4098839110292054,"459":-0.324497101347874,"460":-0.09551032589148863,"461":0.1768118120087062,"462":0.11619604201008968,"463":0.050371318136475995,"464":0.08734202016159913,"465":0.21109376789436546,"466":-0.08192757709994482,"467":-0.06573970682726142,"468":-0.14033078841007257,"469":-0.18399637879171432,"470":-0.21022106770475352,"471":-0.16181188043748454,"472":0.009363479281676284,"473":0.025936827141875396,"474":0.0032935614431446373,"475":-0.07290982220687461,"476":0.015035406263139981,"477":-0.04130297604011069,"478":-0.03470582142411988,"479":0.050758334452240116,"480":0.020427478275551584,"481":-0.09419711395688737,"482":-0.06611168672203928,"483":-0.21646571589896071,"484":-0.15794668764914366,"485":-0.30074114020851955,"486":-0.5122088570744043,"487":-0.5162439462498799,"488":-0.19771589281725815,"489":0.1253895645939412,"490":0.19786714488323698,"491":0.2658693978887661,"492":0.2175215195279578,"493":0.08796407955081267,"494":-0.04366114935404349,"495":-0.07331721441993999,"496":-0.004858256898860659,"497":-0.0001603994353721283,"498":-0.03294033232543952,"499":-0.03957151762282306,"500":-0.048234443160388385,"501":0.0445895092228073,"502":-0.01769504187118889,"503":0.0005897242245988753,"504":0.0033756787613967686,"505":0.042251609159423574,"506":0.0027289188727235127,"507":0.09641581372696777,"508":0.10562856739210366,"509":0.013287858011420987,"510":0.1668216555029989,"511":0.09042736566708393,"512":-0.09011095113405469,"513":-0.4148200153866293,"514":-0.5690973271617548,"515":-0.5142020821072192,"516":-0.21369583579479345,"517":0.05956796938188376,"518":0.10924221599919567,"519":0.16557920000584425,"520":0.05284014274083376,"521":0.05072641549968372,"522":0.045028112890662705,"523":0.031643193720140156,"524":0.14616143500851325,"525":0.08744807950924263,"526":0.09219337689708425,"527":0.027802293982866516,"528":0.0407068147858902,"529":0.05100189029581325,"530":-0.020107854221136708,"531":-0.047698122512504694,"532":-0.02377543250242364,"533":-0.014150870594398594,"534":0.039363087813132656,"535":0.13168379673746375,"536":0.16067040701552643,"537":0.13678633756314618,"538":0.29077175259956484,"539":0.21485050182483284,"540":0.030381791319631563,"541":-0.2904184270100533,"542":-0.37535264885910735,"543":-0.3663520228164759,"544":-0.28101655152184374,"545":-0.025532091272240032,"546":-0.0073956812822957045,"547":-0.10892158030866149,"548":-0.16194552694132033,"549":-0.05245465961854485,"550":0.022836517896372532,"551":0.04756912033314386,"552":0.18275713871965196,"553":0.09169364081213303,"554":0.0957833205330678,"555":0.09944188476114496,"556":0.03341211575791684,"557":0.045210740601396245,"558":0.0035502983069868555,"559":-0.0019663533782065816,"560":-0.01893827499369203,"561":0.062498273575162536,"562":0.062308931141667676,"563":0.1677123705962101,"564":0.1694511912189878,"565":0.12841258991100124,"566":0.25925201847359813,"567":0.2934289623701538,"568":0.16131959593933842,"569":-0.09034809520995589,"570":-0.2711379025031791,"571":-0.06786117811533748,"572":-0.15266918626477946,"573":-0.1447410025400299,"574":-0.18387439182828744,"575":-0.2281007090854097,"576":-0.1724763330817871,"577":-0.057372766798391116,"578":-0.05038828150013233,"579":0.17834933912978002,"580":0.12220952388117858,"581":0.13023886883038466,"582":0.1240661511683231,"583":0.005739699628141843,"584":0.09295036799088044,"585":-0.027939427566279183,"586":-0.0023000930666435345,"587":0.03664756721341185,"588":0.006675406702518205,"589":-0.013024244464232471,"590":-0.012473423160583481,"591":0.07696094190163616,"592":0.08579692285477376,"593":0.13123641585949256,"594":0.14612765638813022,"595":0.2698734342279297,"596":0.15765154658333833,"597":0.06508512194527626,"598":-0.11922074399590088,"599":-0.06879907630873061,"600":-0.16634812689638726,"601":-0.2234934998163844,"602":-0.22531421041735064,"603":-0.26834672302435497,"604":-0.21877110162113675,"605":-0.04381153635335044,"606":-0.005888785884082378,"607":0.09756640295305698,"608":0.2115265698718047,"609":0.20888685500744894,"610":0.09453713291806534,"611":0.03927377852484864,"612":0.014445991848176834,"613":0.03162676705468581,"614":0.04345189440939688,"615":-0.02883606250253377,"616":0.044606049657976904,"617":0.013485802371589804,"618":0.027024689889187905,"619":-0.014540219581273887,"620":0.0966803856387153,"621":0.08690847816415725,"622":0.08488655168789278,"623":0.13442033207724685,"624":0.09395964826428224,"625":0.1653931163546861,"626":-0.015980414604339348,"627":-0.06983916881621949,"628":-0.18826828142527435,"629":-0.23242270591712666,"630":-0.24176282376304264,"631":-0.1975507185208847,"632":-0.12331652458261225,"633":-0.048414759967786644,"634":0.05970166797837936,"635":0.04599813513635038,"636":0.20766944939397197,"637":0.17287328709407454,"638":0.057818995593296764,"639":0.05182155342384245,"640":-0.0020108778141235957,"641":-0.009061388869044552,"642":-0.01364764746059293,"643":0.03859156591442861,"644":-0.03893821798960031,"645":-0.01667588156809262,"646":-0.014964773088694202,"647":-0.050169684311640435,"648":0.0664997202476854,"649":0.05161788491546303,"650":0.15042151858322395,"651":0.07011071180444528,"652":0.03757959017795611,"653":-0.003467685365852101,"654":-0.08880622954390313,"655":-0.1941646512866024,"656":-0.2893406569881366,"657":-0.2711885556675161,"658":-0.1890690796312979,"659":-0.18566400295724333,"660":-0.0843268625401911,"661":-0.056765184545847745,"662":-0.01699602935453073,"663":0.06510128533751397,"664":0.07458724439425148,"665":0.027060950026490296,"666":0.004103433517794405,"667":-0.004766723586885777,"668":-0.026887203486231033,"669":0.02434021674444413,"670":0.05639898657885268,"671":-0.028732864542865815,"672":0.005834230634330494,"673":0.04053127270251528,"674":0.05649498501713238,"675":0.024550229775782625,"676":0.03889456146309745,"677":0.05611297318262645,"678":0.09378963728060008,"679":0.09522439877917799,"680":0.1307509585769768,"681":0.0826622949987247,"682":0.02239089066419636,"683":-0.0022389464904535787,"684":-0.0018880894109142708,"685":-0.08518477100165968,"686":-0.1207809275139418,"687":-0.020244069328032018,"688":-0.00013269094833748594,"689":0.08560865710260049,"690":0.10679556039092453,"691":0.04414719461903182,"692":0.0713379798783855,"693":0.09818312648532773,"694":0.05689025271235438,"695":0.03560063343697527,"696":0.013890761194380222,"697":-0.031074422181399098,"698":-0.028390693229364234,"699":-0.07159844489363598,"700":0.034172723034228455,"701":0.013095257913729464,"702":0.00016613889058306086,"703":-0.004413160184994096,"704":-0.06895928150922208,"705":0.08442864169113211,"706":0.06228308365285501,"707":0.07508529666766016,"708":0.13217137208428473,"709":0.22820358105859478,"710":0.2884584509338968,"711":0.2779687346787085,"712":0.3368686064025008,"713":0.2878977220000121,"714":0.14921773384265583,"715":0.16304948008840825,"716":0.1434367806449034,"717":0.22328102726061103,"718":0.24904735387509339,"719":0.12104550061955774,"720":0.1361951432086035,"721":0.054688251933320414,"722":0.057182555862067184,"723":-0.03167456744681653,"724":0.006526693059544412,"725":-0.027383236394549638,"726":0.0033461989398529636,"727":-0.015346421331523606,"728":-0.010492270346422822,"729":0.003419019842674853,"730":0.015162872718901895,"731":-0.005374872230048273,"732":0.01758115999329685,"733":-0.010083420280657526,"734":0.023237361177666626,"735":0.011254910267343977,"736":0.023381833747744964,"737":0.09907261164718537,"738":0.12164081067407864,"739":0.055209391712978576,"740":0.05497510275785908,"741":0.0899452153598773,"742":0.05964774688010242,"743":0.032628327303,"744":0.013489598232397931,"745":0.021120208283723484,"746":0.05022786200959237,"747":0.030640211296542156,"748":0.022391467966475176,"749":0.05337047399090834,"750":0.054596276556068794,"751":-0.05293684306989767,"752":-0.02508374259256898,"753":0.015878439013433093,"754":-0.01521689281383112,"755":0.01498515900921633,"756":0.04663516024013522,"757":-0.02329574822459259,"758":-0.012386001427248255,"759":0.005627909329250343,"760":-0.013753091688901297,"761":-0.007747487626057763,"762":0.01709987378916404,"763":-0.015265023823806668,"764":-0.04214623019991105,"765":-0.02905798720929511,"766":0.014033920128689427,"767":0.019420866877918185,"768":-0.04601441633374029,"769":0.036599921709608754,"770":-0.021224126395591205,"771":-0.04255017920518523,"772":-0.024937190143715107,"773":0.07037461905623273,"774":0.011685128913275465,"775":-0.0029639178480160514,"776":-0.019645488265312233,"777":0.03311902432123119,"778":0.006795385160384169,"779":0.020521983720121404,"780":-0.0054816747692149155,"781":0.04243759908562335,"782":-0.00131168163986628,"783":-0.0001566119876416566}},{"sx":1,"sy":1,"depth":784,"w":{"0":-0.028078446922531215,"1":0.022027916429473913,"2":-0.024097413353955145,"3":0.03361110346556289,"4":-0.05333409752959526,"5":0.026123167758485125,"6":0.0029795220946573064,"7":-0.013867535508223255,"8":0.0034528226837552377,"9":0.0037771830526419146,"10":-0.04140201568901021,"11":0.05014519453667719,"12":0.012392300424745007,"13":-0.028056609485041364,"14":-0.055934167339029665,"15":0.0514274805050031,"16":0.00028478205950088634,"17":-0.040870773961910606,"18":0.0025869895238548736,"19":0.005692168738015843,"20":0.04112279070525488,"21":-0.008102772230105236,"22":-0.012902754291489748,"23":0.03215782255790494,"24":-0.011662735010382761,"25":-0.025176101734062296,"26":-0.046318026654594766,"27":-0.02268063487991311,"28":0.047976810624389014,"29":-0.024448756375686508,"30":-0.02732733875142689,"31":-0.034278350821425066,"32":-0.06713667564072172,"33":0.007463279538058631,"34":0.03401602876131192,"35":-0.007358705377090017,"36":-0.03558224326600217,"37":-0.0016796454670410846,"38":-0.047993048653915474,"39":0.04717829565180273,"40":0.01341211387711527,"41":0.05246553070308823,"42":0.07854231565053442,"43":0.028545628042267606,"44":0.024959903642471075,"45":-0.03732989994106921,"46":0.009889043383376029,"47":-0.005442063433590524,"48":-0.02754222354291884,"49":-0.05861581286718571,"50":-0.000463839116451723,"51":0.001070743441647167,"52":0.03906758560236092,"53":-0.04665689243122839,"54":-0.017136458644846517,"55":0.06177185174009355,"56":0.01295847340971322,"57":0.041470998215792906,"58":-0.03035711884037558,"59":0.03412201620599656,"60":-0.03490007081140104,"61":-0.03980011091826545,"62":-0.019871385912598464,"63":0.07200292332751611,"64":-0.003045898105704849,"65":-0.024114188148060135,"66":-0.004450926665045244,"67":-0.00010332853256059499,"68":-0.0120569645953982,"69":-0.004638262107185956,"70":-0.04199008408033354,"71":-0.12328491685330227,"72":-0.12725853522743208,"73":-0.11771034535630387,"74":-0.10384054119049227,"75":-0.10755673961861757,"76":-0.06682702098130862,"77":-0.017617202611125638,"78":-0.027717358766827793,"79":0.03520531008249124,"80":-0.012507832409947937,"81":-0.008023134702347393,"82":0.012695870223803737,"83":-0.0007853552505042651,"84":0.025622761928014236,"85":0.008141726519015489,"86":-0.04634328589089367,"87":-0.015819455147045827,"88":0.03876509361035477,"89":-0.029773634624576453,"90":0.04046927289393775,"91":-0.07917748742195693,"92":-0.018439371732549822,"93":0.07652008070994364,"94":-0.0005823532152653391,"95":0.07452611443591112,"96":0.08669383699974446,"97":-0.011929416344247806,"98":-0.08096488077222945,"99":-0.07460630713400966,"100":-0.15474001587924355,"101":-0.16113708610019697,"102":-0.17271069843294878,"103":-0.16313152992787866,"104":-0.10508131973086209,"105":-0.03129779752366965,"106":-0.009029421896589233,"107":0.019517794183561674,"108":0.032435966594707384,"109":-0.001518995258624873,"110":-0.007226584431257092,"111":0.022995170622219587,"112":-0.007218513147439035,"113":-0.03442252207234049,"114":0.04131819647884069,"115":0.011245572651492257,"116":-0.020212812484411286,"117":0.019657764857423037,"118":0.026676278326440754,"119":-0.013967173230456782,"120":0.037029720467639554,"121":0.1336386193722752,"122":0.1597954119544674,"123":0.10602071531514139,"124":0.16646472614527327,"125":0.09377899041763944,"126":0.02753931633284163,"127":0.02486125218938834,"128":0.06277208284206834,"129":0.015141345633023731,"130":-0.05165305630510124,"131":-0.14823803130923516,"132":-0.028949615991003146,"133":-0.033574581025123305,"134":-0.03935503360387511,"135":-0.05278257179485477,"136":-0.016970336080978733,"137":-0.06666261582853467,"138":-0.013623890513354582,"139":0.01639768382453604,"140":-0.05349185558482017,"141":0.030505538605072383,"142":0.013836897919988567,"143":-0.05489988757996606,"144":0.011521177894036932,"145":-0.005863102203482266,"146":0.04586721529173903,"147":0.07421869861647933,"148":0.17553877106534138,"149":0.2878074838137491,"150":0.23352546333345553,"151":0.02405824730999302,"152":0.01154627476940731,"153":0.021912246803536987,"154":-0.08443081881931683,"155":-0.06619676612347053,"156":0.13519241490226394,"157":0.09948932104782637,"158":-0.038807923951704286,"159":-0.07722160613589454,"160":-0.023665231612465143,"161":-0.045515492170854974,"162":0.054110346959157396,"163":0.01650627726706771,"164":0.00476328339741781,"165":-0.026166985630163,"166":0.03188394823549907,"167":-0.00028420944050844645,"168":0.0069898533491978745,"169":0.020273387115594087,"170":-0.01875634147018394,"171":-0.004336972519419233,"172":0.000744818870850667,"173":0.06111351789504892,"174":0.08578811970601594,"175":0.21710882276614185,"176":0.29264642261569673,"177":0.18004310032246992,"178":0.0437351407895333,"179":-0.05817118525056663,"180":-0.05284346609663462,"181":-0.15888852915528953,"182":-0.28895370090900263,"183":-0.43758864287135696,"184":-0.16169286810896766,"185":-0.048021242343462195,"186":0.059095155338353994,"187":0.06440407198180839,"188":0.05365282377460841,"189":0.13711320249601291,"190":0.07418137424956914,"191":-0.018302340987489275,"192":-0.022615046059708026,"193":-0.03914434280667446,"194":-0.01409624592514789,"195":-0.0110754706246952,"196":0.000828403078823907,"197":-0.021940675058623772,"198":0.04466581469066252,"199":-0.015090114844167233,"200":0.0691664395818694,"201":0.07437872805223117,"202":0.15052158120372355,"203":0.2283608004850604,"204":0.11597720069839523,"205":0.1453911006392269,"206":0.11811659101003541,"207":0.09191617238883712,"208":0.0585310777075774,"209":-0.14568756467919805,"210":-0.41160242525194024,"211":-0.4804414961992689,"212":-0.3758171584060536,"213":-0.04851711560271715,"214":0.10136126354217409,"215":0.09466229268958073,"216":0.05207383398031133,"217":0.14121221216159544,"218":0.03280822723100838,"219":-0.06654023392110513,"220":-0.1148991802475474,"221":-0.10104404291331623,"222":-0.04789204617677589,"223":0.012460894847814999,"224":-0.0023380269184996175,"225":-0.01847106817511661,"226":-0.0023841887310627414,"227":0.008283376636885052,"228":0.09434555278974133,"229":0.06918927067816943,"230":0.09063624725621136,"231":0.07127432695296879,"232":0.062378878096624166,"233":-0.02641557217763607,"234":-0.0080373291464599,"235":-0.07809076537550252,"236":-0.13153601181449306,"237":-0.29578624797241543,"238":-0.20334809954190233,"239":-0.15457308847019985,"240":0.02738702224308713,"241":0.14479064830311827,"242":0.20457408080939177,"243":0.15146403629488314,"244":0.19138836630828238,"245":0.08474485211614051,"246":0.0155844408688578,"247":-0.1317652486088562,"248":-0.18390879784347305,"249":-0.02300886517769802,"250":-0.018808884208150675,"251":-0.013549211954577868,"252":-0.040571435840294885,"253":0.016761142540551877,"254":-0.06416987044223738,"255":0.09198831749104754,"256":0.047461353753838725,"257":0.04882643976479653,"258":-0.014721885257211796,"259":-0.07527505704601956,"260":-0.12077798567551089,"261":-0.16226676701313894,"262":-0.17008459224938352,"263":-0.24042226867689567,"264":-0.26178600538498437,"265":-0.17342928906528768,"266":0.0038741853485663117,"267":0.2965951686890626,"268":0.5014091281729596,"269":0.48305357779309754,"270":0.2925560545267404,"271":0.24196556687360918,"272":0.32745703938564025,"273":0.07321282176838052,"274":-0.09999178446831196,"275":-0.17472356611015857,"276":-0.1774749811114079,"277":-0.003354254128276178,"278":0.010303933109083882,"279":0.07176230716090133,"280":0.00879707667110836,"281":0.037871867578954395,"282":-0.014207678253175319,"283":0.048945792096317976,"284":0.07234819767382183,"285":0.016521148636007902,"286":-0.09943994189514989,"287":-0.09618119147087152,"288":-0.3567313856757064,"289":-0.4231680331815088,"290":-0.4083291019467993,"291":-0.2956793596179131,"292":-0.4047991568475982,"293":-0.09600642058259079,"294":0.15895077949964947,"295":0.5467698080373966,"296":0.576133203690334,"297":0.5467733422801471,"298":0.3343910632753998,"299":0.18967314880600972,"300":0.14714968778566725,"301":-0.030944206752969744,"302":-0.13283740140292888,"303":-0.12341271538849348,"304":-0.04191305761425122,"305":-0.07474379883873591,"306":-0.041861157424917486,"307":0.027910360838331337,"308":-0.00019493882937314739,"309":-0.07603268210330934,"310":-0.029622505204950234,"311":0.05135765396590369,"312":0.005864540881057037,"313":-0.03601740420071061,"314":-0.18658870054341575,"315":-0.3279602221568466,"316":-0.3070740484986027,"317":-0.3831338393262078,"318":-0.2849910179132664,"319":-0.2990121035062456,"320":-0.36027156681010647,"321":-0.333526851649687,"322":0.04075545477946324,"323":0.41208419207528896,"324":0.3041000687668221,"325":0.21872440304871027,"326":0.1688217915063896,"327":0.02790450939001166,"328":0.022973188076819705,"329":0.041678824166988405,"330":-0.02411585322256241,"331":-0.06679541278834157,"332":-0.07054870077094134,"333":-0.022136474594572665,"334":0.0038957845561782044,"335":-0.022092294133007805,"336":-0.031037157043092328,"337":-0.0301622432082397,"338":0.04877031844708959,"339":-0.05055012672757936,"340":0.04804135781663841,"341":-0.04334456420299186,"342":-0.19222606488161312,"343":-0.2542167159806948,"344":-0.2218727350818453,"345":-0.3259294431096553,"346":-0.2007243730955654,"347":-0.25148036197866924,"348":-0.5130627817180431,"349":-0.5211799191857949,"350":-0.3281424564767847,"351":-0.18237850183595783,"352":-0.16827621587583025,"353":-0.07615994695512429,"354":-0.1183679836318342,"355":-0.1466405148728992,"356":-0.039663082387297835,"357":0.012031317146768847,"358":0.02924399740183046,"359":-0.07064425010585657,"360":-0.03889102667492843,"361":-0.018494790016766457,"362":0.0011669069832580597,"363":-0.03017478340938711,"364":0.030581055197320444,"365":-0.02105389858819616,"366":0.01147273403888766,"367":0.0006859665581770765,"368":0.040282799297438276,"369":0.006984578499089808,"370":-0.11078119739077896,"371":-0.11560907573426991,"372":-0.1290636861937975,"373":-0.16804983006339985,"374":-0.030028026282009353,"375":-0.33615831547360403,"376":-0.7076431786312701,"377":-0.6238850042648544,"378":-0.5429012193877315,"379":-0.4773237726674249,"380":-0.27932432921118244,"381":0.005119442588812267,"382":-0.134121833219409,"383":0.01488894309097543,"384":0.08185365777976275,"385":0.0011105030111969055,"386":0.0321065811874484,"387":0.01509028988541795,"388":-0.016040891424519404,"389":-0.00009495536419514374,"390":0.06530795388266512,"391":0.011134226647328358,"392":0.028751670955815115,"393":-0.0008238164893426653,"394":0.032324165756931277,"395":0.026830438146826167,"396":0.033251206702993544,"397":0.055716200269272716,"398":0.11943576033448804,"399":0.10206224140909546,"400":0.11669823585616304,"401":0.04581662290193418,"402":-0.045458598571937354,"403":-0.31532798026809383,"404":-0.5703748752793691,"405":-0.48372761732364505,"406":-0.4660996357893115,"407":-0.3960979559901742,"408":-0.3803182735555119,"409":-0.1542445380825228,"410":0.23324457631965437,"411":0.20165963174654875,"412":0.21034281399208607,"413":0.14430150408410225,"414":0.10394336835952961,"415":0.08288453194818346,"416":-0.013275057948652538,"417":-0.013355427586038485,"418":-0.006557867464792546,"419":-0.018162610764962728,"420":-0.08892297281979816,"421":0.0345730044910946,"422":-0.018231251942217606,"423":-0.008135393330398843,"424":0.007615115532138064,"425":0.2194504291260175,"426":0.3088598056848014,"427":0.3633969212595376,"428":0.21902784889543964,"429":0.06338903194268479,"430":-0.10469736631887555,"431":-0.3424798297984577,"432":-0.4349430846287969,"433":-0.443268330196107,"434":-0.3484900463168749,"435":-0.20099431455069816,"436":-0.2117060701544174,"437":0.016298843657739658,"438":0.30093087757344644,"439":0.37391120732993277,"440":0.35934511479627584,"441":0.23824384675310248,"442":0.163132746671675,"443":0.11033040421864175,"444":-0.006454043888355329,"445":0.007681318240136952,"446":-0.012705315978701155,"447":-0.002749590085140413,"448":0.011371601291714183,"449":-0.054886529281699,"450":-0.05406368437407561,"451":-0.0282333101598293,"452":0.12140435193977975,"453":0.17277437227840942,"454":0.38042697930298863,"455":0.36704480273460466,"456":0.33376905728803813,"457":0.011402286059572789,"458":-0.2514793160369845,"459":-0.4396288621734295,"460":-0.5054910150321215,"461":-0.3102998987210786,"462":-0.13172879539441326,"463":-0.012199102623907901,"464":-0.019409000071259515,"465":0.17786213066294124,"466":0.25410141157513083,"467":0.3717017871372327,"468":0.2840706619272508,"469":0.19326769912787825,"470":0.14981618603079022,"471":0.09303689754066795,"472":0.046707557419671794,"473":0.05828421338971751,"474":-0.024331394619819435,"475":-0.022316670833827,"476":0.05729626953914593,"477":-0.042353319461962295,"478":0.0024358367970502568,"479":0.022837842592868793,"480":0.1145467465739535,"481":0.20693084560420621,"482":0.2988644906015531,"483":0.3098880706666519,"484":0.10976083232633865,"485":-0.19886267784340597,"486":-0.46198836931739634,"487":-0.47562843249947023,"488":-0.22168390838326857,"489":-0.059866927924966604,"490":0.18586654670951344,"491":0.06206000235651316,"492":0.11482415236358484,"493":0.09069659423007795,"494":0.12968238854894093,"495":0.09868237367523151,"496":0.1135926718855151,"497":0.15541950229926507,"498":0.15802873433770842,"499":0.12069857040968268,"500":0.1352069132450678,"501":0.04760347436647982,"502":-0.020247359320451505,"503":-0.025554769496576337,"504":-0.032617378391967974,"505":-0.0225343722348244,"506":-0.000538055833697156,"507":0.0894694580729261,"508":0.10134423225367278,"509":0.15023764428302677,"510":0.15320168404528267,"511":0.1612379300931893,"512":-0.021685657296936556,"513":-0.17395626916352736,"514":-0.30765761459524854,"515":-0.35202606424532706,"516":-0.09028475569041276,"517":0.17265419257467535,"518":0.27353106445895586,"519":0.07746004738538441,"520":0.02851562764484974,"521":0.14584488871612855,"522":-0.044328000302397114,"523":-0.053521033854628176,"524":0.019544044765593526,"525":0.1492076781369204,"526":0.1104681341074989,"527":0.038564503550374246,"528":0.11482242130275018,"529":0.045724882654274275,"530":-0.005178651917408066,"531":-0.04200603558279301,"532":-0.05068021892493125,"533":0.017947924470742938,"534":-0.05706695522134899,"535":-0.031983389091261576,"536":0.0910500713883261,"537":0.1294975415350194,"538":0.08540215526457634,"539":-0.050271522350839,"540":-0.09216510947955966,"541":-0.10729516115804881,"542":-0.16352447738072437,"543":-0.15987504178632636,"544":0.08696462626127135,"545":0.19897966857522625,"546":0.15462631103828184,"547":0.034316622551543614,"548":0.07264891613083599,"549":0.08594084482180417,"550":-0.010179097393207276,"551":-0.049057147663030806,"552":0.06427393590267123,"553":0.1350106222117153,"554":0.008500512177441605,"555":0.056434816416183406,"556":0.08219003543631774,"557":0.027752585200703905,"558":-0.040767486610329105,"559":-0.016650928240797055,"560":-0.05577866462200744,"561":-0.022945232942010577,"562":0.008456948822401129,"563":0.009731483670332742,"564":0.12044417116683834,"565":0.10684312374336193,"566":-0.011730190415148193,"567":-0.07022889134166672,"568":-0.18654625401158326,"569":-0.0565289847934932,"570":0.05306135286879998,"571":-0.0013512152759003126,"572":0.004714672949060911,"573":0.05687352007849596,"574":0.02636374880091024,"575":0.052940568945085864,"576":0.13292881039531457,"577":0.05741124497529427,"578":-0.07267386904587268,"579":-0.04302143572993122,"580":0.056622701191030946,"581":0.07442759968319461,"582":0.07373332495805032,"583":0.04027505317820322,"584":0.03749345690655897,"585":0.04878710707728546,"586":-0.02573846016016192,"587":-0.008022470535741993,"588":-0.007949230828734223,"589":-0.00037268989878288085,"590":-0.008245974475126955,"591":0.053476998787631166,"592":0.08894034180521189,"593":0.12761391988813012,"594":-0.002354809432424665,"595":-0.038009485288374,"596":-0.10372358239040533,"597":0.051233788344484214,"598":0.12818661834664852,"599":0.13391612241162004,"600":-0.11129552921752824,"601":-0.09993727234903829,"602":-0.05599732497984882,"603":0.03125832525202016,"604":0.09437830537612271,"605":-0.014469169259882425,"606":-0.003975291197493549,"607":-0.02268667240415572,"608":0.042995989904656785,"609":0.054132397005249654,"610":0.09115083297334878,"611":0.016750595725483416,"612":-0.015390340302928636,"613":-0.0040744467312599335,"614":0.01917604122975934,"615":-0.00227198040307487,"616":-0.08307421337588775,"617":-0.004671920343125185,"618":-0.0051255918593740525,"619":0.0014263909777860035,"620":0.08328532670167538,"621":0.0927803103883219,"622":0.04822715368853986,"623":0.03028488864491763,"624":0.0051145825792563064,"625":0.16669774423007083,"626":0.1405001577087936,"627":0.07560383048856263,"628":-0.08251682722078361,"629":-0.07145286282540561,"630":0.025817823413067317,"631":0.19542025276253072,"632":0.03061169196095635,"633":-0.06368358733444507,"634":-0.04981487843503286,"635":-0.09077801733193953,"636":-0.005926838885131605,"637":0.013374832235926696,"638":-0.01328414719681966,"639":0.020366435247343925,"640":-0.023149082700331475,"641":-0.029938497026972665,"642":-0.049850748698079886,"643":0.04469625987000022,"644":-0.03329208883143308,"645":0.08509861863568871,"646":0.05350956720517148,"647":0.00687015826067008,"648":0.07558911447407468,"649":0.05240996404408362,"650":0.07055886676289806,"651":0.04453102781708309,"652":0.006621620039648541,"653":0.026064567120916354,"654":-0.06767884423984155,"655":-0.08396350206823266,"656":-0.17626804569153726,"657":-0.11913162014714238,"658":-0.06157992134073278,"659":-0.0362093075420053,"660":-0.13626404069526046,"661":-0.16302780325833136,"662":-0.1670755600929706,"663":-0.13460419820178565,"664":-0.17616833170045929,"665":-0.09915662276350679,"666":0.008127531793678628,"667":0.0053510440549061076,"668":0.0562103624865076,"669":-0.008187144447371368,"670":0.04825905236484546,"671":-0.012932009153815241,"672":-0.023882202541441494,"673":0.0019836621042976198,"674":-0.029236537882236457,"675":-0.07422439635549531,"676":0.0782555103131368,"677":0.027146857185831933,"678":0.06657245228640873,"679":0.040238915167885914,"680":0.0005949189116323484,"681":-0.03155528056210921,"682":-0.10989041335656931,"683":-0.06195460541355772,"684":-0.01703082789375826,"685":-0.0715942209731144,"686":-0.07103790632551658,"687":-0.12466526392746209,"688":-0.2692392955613067,"689":-0.2591603416330267,"690":-0.25938940457510806,"691":-0.18489554286361184,"692":-0.09315895957082382,"693":-0.04714379184368174,"694":-0.09640691131900345,"695":0.009162549541302438,"696":-0.014498207779672284,"697":-0.05683345000105919,"698":0.007968524038371226,"699":0.03451513924584904,"700":0.04573414630451185,"701":0.027369567843489085,"702":-0.010726774569112113,"703":-0.012203592031220711,"704":-0.006631984116514339,"705":0.003434249063587273,"706":-0.02902809064585115,"707":0.07478320029376478,"708":-0.00262623016567399,"709":-0.016886712686388007,"710":-0.011184732965752276,"711":-0.07625014800002107,"712":-0.07719796148196988,"713":-0.046808387574709835,"714":-0.03136444204769362,"715":-0.022043417322408325,"716":-0.11320798715119847,"717":-0.19749923091301572,"718":-0.17950829498368448,"719":-0.15548721612228755,"720":-0.07343566903055193,"721":-0.016876361080120715,"722":-0.006876827643441747,"723":0.012185040197366758,"724":0.04437543789929697,"725":0.03727271381967918,"726":-0.033093547018023604,"727":-0.004887421442236765,"728":-0.01031446687802277,"729":0.010407570767536787,"730":0.049704249267292305,"731":-0.015383852529991493,"732":0.007474418098363936,"733":0.010019065049878104,"734":0.022170211289645157,"735":-0.06309563224589723,"736":-0.03651278327526581,"737":0.02493059323844661,"738":-0.014876226924376785,"739":-0.05687776742459913,"740":-0.0572165534585448,"741":-0.009686197229554406,"742":-0.008329213692936295,"743":-0.05119785084986979,"744":-0.05739003029477477,"745":-0.10110769996562521,"746":-0.10088291019123531,"747":-0.01991171800300752,"748":-0.025396485561907867,"749":0.009477285679064612,"750":0.05743125943387154,"751":0.03623439302077767,"752":-0.006498807030723924,"753":-0.03140600223284629,"754":0.0030537095717327557,"755":-0.024044929779854764,"756":0.06520605169055285,"757":-0.021776379755918174,"758":-0.008821216379349038,"759":-0.06688087648352688,"760":-0.04950312440198106,"761":-0.061282018057182565,"762":-0.007213478260382081,"763":0.0020895645080353364,"764":0.0113760643014526,"765":-0.029845749430232077,"766":-0.010450451750896416,"767":-0.02053664332473415,"768":0.022339293564816995,"769":-0.02318456216289081,"770":-0.03400717503544234,"771":0.03280348894892466,"772":0.03781102637537011,"773":-0.03211301065170366,"774":0.0142191336832804,"775":0.0010210783660563245,"776":-0.03482455912186859,"777":0.016320867117572743,"778":-0.10551219283296215,"779":0.01757625017147761,"780":-0.02414783885038168,"781":-0.022670795555345905,"782":0.0013683708248923804,"783":-0.007767364824369949}},{"sx":1,"sy":1,"depth":784,"w":{"0":0.027916451031709144,"1":0.051022472718925314,"2":-0.002230359426534986,"3":-0.06272146923784261,"4":0.03433660780165982,"5":-0.038909424747976984,"6":-0.052462831958170204,"7":-0.013728052200142154,"8":-0.0333738777522914,"9":-0.008850227563037109,"10":-0.009473032467315484,"11":-0.009359503653690832,"12":-0.06027452361568424,"13":0.054785181668783184,"14":-0.014549746059034146,"15":-0.005739460029914406,"16":0.008786771850850904,"17":-0.010847814943115375,"18":-0.0181685666741251,"19":-0.0014197103542100999,"20":-0.02125697497225571,"21":0.053649650781963806,"22":0.004704179796143584,"23":-0.022425456395733023,"24":-0.03282850410798054,"25":-0.05106050608716402,"26":0.0047805974621540105,"27":0.011896576879932631,"28":-0.03163594927787742,"29":-0.06070848166092579,"30":-0.022170245240353284,"31":-0.0049136811033002785,"32":0.0037633430136933157,"33":0.061169777299631155,"34":0.0035541568132559072,"35":0.03521761103035973,"36":0.014607534926517146,"37":0.022993833204691814,"38":-0.0027410209937018103,"39":-0.024304783063501496,"40":0.022112641814237236,"41":0.022858326649703452,"42":-0.01323141139347808,"43":-0.0037213063099947137,"44":-0.00046525211858733297,"45":0.010201181141649921,"46":0.0042961725129614945,"47":0.0036427103633173866,"48":-0.02301669418442861,"49":-0.007553688912066174,"50":-0.03709749742224347,"51":-0.02505906086923796,"52":0.0505074651847165,"53":0.008431800661739952,"54":-0.025027462596363726,"55":-0.0010530349491108565,"56":-0.06034255636842401,"57":-0.06360681635708275,"58":-0.012062613324036658,"59":-0.004055903241168067,"60":-0.028738847103617005,"61":-0.012534021171754938,"62":-0.04024551100314559,"63":-0.018543920980773725,"64":-0.05397421020863315,"65":0.009261396494185576,"66":0.017256316710494317,"67":-0.006491388052813028,"68":0.0009621790536782817,"69":-0.008363101031461853,"70":-0.03799260357493405,"71":0.0412651097098109,"72":-0.039298516209094,"73":-0.002687495401814517,"74":0.03534864187119978,"75":-0.04255965484687577,"76":-0.019986902953874803,"77":-0.003708604621113485,"78":0.010030171230815996,"79":0.008391768533454903,"80":-0.0029738030990349136,"81":0.033378507182630586,"82":-0.004270287706248629,"83":-0.0038353552347182547,"84":-0.04926824628900541,"85":0.036857147856006155,"86":-0.040266865065985605,"87":-0.01713499063260306,"88":0.01135016144631985,"89":-0.07160401635715131,"90":-0.020476729781281917,"91":0.013698813465151312,"92":-0.027173259686471548,"93":-0.03325337739427943,"94":-0.09475955395927249,"95":-0.08054325635143766,"96":-0.09447156265993784,"97":-0.10076203313523496,"98":-0.12556413995806426,"99":-0.09645176511131012,"100":-0.08905062365458319,"101":-0.1413588694910725,"102":-0.08607871445374993,"103":-0.0618850590718517,"104":-0.0038365431951283995,"105":-0.004588203651632077,"106":0.021370551302847315,"107":0.029814809893185724,"108":-0.013573021176819073,"109":-0.029383261196779115,"110":-0.02394771268222393,"111":0.05587248697731579,"112":0.010376827207831512,"113":0.001318190315450135,"114":0.051041379201123144,"115":-0.031410116841820296,"116":-0.03675374369390321,"117":-0.019946528401746776,"118":-0.0034012806138242484,"119":-0.08149280508517859,"120":-0.18379175906137002,"121":-0.17091221835036782,"122":-0.14844675213570319,"123":-0.2259703945830149,"124":-0.21994087352202252,"125":-0.18043707074626442,"126":-0.19647613299502484,"127":-0.13407948710743547,"128":-0.0827464951883551,"129":-0.04557181765283177,"130":-0.03370286718608404,"131":-0.008348096210831709,"132":0.0021378367091895484,"133":0.11977624784645262,"134":0.06383646710816651,"135":-0.035598364199312865,"136":-0.017528597515660653,"137":-0.0037124904319076955,"138":0.040971416876996555,"139":-0.0017112383096408814,"140":-0.05334483650075682,"141":0.005459153393360535,"142":0.0012053222645058092,"143":-0.056021318118302,"144":0.011906923853047547,"145":-0.06827503486905555,"146":-0.15703529656860085,"147":-0.20887768661783668,"148":-0.2831332631208185,"149":-0.3340403576125955,"150":-0.3612406419811202,"151":-0.2715947040085842,"152":-0.21169143677165103,"153":-0.14592457665658348,"154":-0.13998255058393208,"155":-0.08890156901890534,"156":-0.13614282718362825,"157":-0.007092456961434236,"158":0.12454902877220844,"159":0.06246736394143201,"160":0.11107262993772882,"161":0.10498144278534263,"162":-0.016586839400384155,"163":0.005427358132732539,"164":-0.038262817842726206,"165":-0.00004733775190918617,"166":-0.06805914830109604,"167":-0.04658296720199915,"168":-0.0020302317109989958,"169":-0.015819507820686814,"170":-0.012233400421503528,"171":0.02851567681945914,"172":-0.03669318105856412,"173":-0.09389865517706958,"174":-0.08699813779187666,"175":-0.16774902835916503,"176":-0.2338571585262792,"177":-0.2818230022322719,"178":-0.23261395004621643,"179":-0.1899184346671243,"180":-0.11330315380152924,"181":-0.01356076554390242,"182":0.04017820014482342,"183":0.05851278329083972,"184":0.10050515302580211,"185":0.15985497735820967,"186":0.06559268787158348,"187":0.10279930548727945,"188":0.1967090920254252,"189":0.08430660223225045,"190":0.02669646037501571,"191":-0.05134891863623745,"192":-0.012172873064417312,"193":0.02034561613044492,"194":0.04951726730634584,"195":0.04237070046403662,"196":-0.055213411705098706,"197":0.0516378548470127,"198":-0.037867853344029215,"199":0.017436500442252045,"200":-0.07120764670332101,"201":-0.10974281656648609,"202":-0.138634833593476,"203":-0.10782421964938636,"204":-0.13650196903190587,"205":-0.09334128982013351,"206":0.033665532408558976,"207":-0.011879368038034521,"208":0.08798652502330823,"209":0.11459050929267896,"210":0.28768262964344743,"211":0.2699084947957418,"212":0.27261669582381587,"213":0.24860667555457608,"214":0.15307361756670662,"215":0.13063616764836308,"216":0.11037089998012885,"217":0.05635922308239831,"218":-0.009144833830996355,"219":0.0628701634548185,"220":0.013061625881171483,"221":0.07067004905487045,"222":-0.008984194214539054,"223":-0.003510816757365572,"224":-0.029671882720710092,"225":-0.04892766380541919,"226":0.03078873596969798,"227":0.009360979869177357,"228":-0.04192891693034612,"229":-0.07061069196871142,"230":-0.09860627142496821,"231":0.0168505248427473,"232":0.06177906429507738,"233":0.12214614545334791,"234":0.11033639857493945,"235":0.12788870100950964,"236":0.15061929508007213,"237":0.2121044355000616,"238":0.3648302338672869,"239":0.3336685431229954,"240":0.2969918603942582,"241":0.31706721930511406,"242":0.35443291444345026,"243":0.25843432990738097,"244":0.1577598895881597,"245":0.09100851208909598,"246":0.044127997157742405,"247":0.157419858046349,"248":0.23676490117881438,"249":0.06998706135837957,"250":0.02653966798398804,"251":0.0024205599011921717,"252":-0.04494290937432421,"253":0.018896365502842474,"254":0.003602075785677409,"255":0.039099071943055126,"256":-0.017164579539585084,"257":-0.001494441558983018,"258":0.008684123898783385,"259":0.09334931513644726,"260":0.26756131390680254,"261":0.2642020271598391,"262":0.19282234645378943,"263":0.2585775884349776,"264":0.1863702893011185,"265":0.2842098546748575,"266":0.46642374948741266,"267":0.40511632934593117,"268":0.30456960693554685,"269":0.2078876329263848,"270":0.33719925050321853,"271":0.3169779781602364,"272":0.20708477465509123,"273":0.11875623840912093,"274":0.14520187170984686,"275":0.2004857142310395,"276":0.14948447418602714,"277":0.08696321636209975,"278":0.008742515330134933,"279":0.034349125762760176,"280":-0.07825988331825355,"281":0.01931261867734925,"282":-0.005671148073357616,"283":-0.0075491978606286566,"284":-0.030803919165447825,"285":0.03937618837417986,"286":0.10109686608707258,"287":0.18223170075145825,"288":0.26425828873615836,"289":0.29074336584360433,"290":0.16738617964524097,"291":0.23004769079543708,"292":0.24177159023684433,"293":0.42517463278230255,"294":0.41788184678814827,"295":0.2590306652726927,"296":0.07299616695326372,"297":0.03536556008887312,"298":0.21832187528712307,"299":0.13697208652018378,"300":0.11145518806672453,"301":0.17017996754903145,"302":0.24685393305473552,"303":0.1981893983675917,"304":0.03494954507861932,"305":0.058110449454616686,"306":0.06115410721079972,"307":0.016490717261170466,"308":0.06020965153767846,"309":0.01009161861572785,"310":0.018103945603634822,"311":0.029881752558439653,"312":0.012378964420014254,"313":0.06574633181051347,"314":0.14161159165944212,"315":0.25324556278546584,"316":0.22866881493915117,"317":0.19769250644580624,"318":0.13891307804108996,"319":0.26071027058108276,"320":0.29699233164182237,"321":0.4310589206895738,"322":0.28745925766552416,"323":-0.014392801814096188,"324":-0.24799624636252326,"325":-0.2060142645124509,"326":0.043575480688629556,"327":-0.05282685415136313,"328":-0.0017027039444890292,"329":0.12381646557162392,"330":0.16821510545821752,"331":0.09301768088035717,"332":0.11466856238436937,"333":0.00872738499855922,"334":-0.035950991056396514,"335":-0.0037476794270595243,"336":-0.03616007283091615,"337":0.01851750087625556,"338":-0.005051933690732409,"339":0.044953780971072506,"340":0.03250736930044205,"341":0.04319453086236915,"342":0.14107457004917498,"343":0.13422928963535646,"344":0.11397409430257208,"345":0.08789224039346662,"346":0.026385539789937025,"347":0.15810920378515353,"348":0.24852450445706636,"349":0.2830506336778713,"350":0.12703757580572034,"351":-0.11893043577760808,"352":-0.2893010856342098,"353":-0.17943919229000663,"354":-0.12041841437971958,"355":-0.22401942145169976,"356":0.0009058428789589254,"357":0.16508224225136603,"358":0.13899655800670982,"359":0.13517574314279124,"360":-0.031005614095368957,"361":-0.011238403951758702,"362":-0.03339135712015263,"363":0.05000497358164527,"364":-0.009742295813691454,"365":-0.026405307107829835,"366":0.03334921940851391,"367":0.004363694949814155,"368":0.018590900317199874,"369":0.03614865114374526,"370":0.08612805767706432,"371":-0.05535326833981351,"372":-0.055948752768588066,"373":-0.09367336976106552,"374":-0.18632026647248318,"375":-0.16347269952377214,"376":-0.07843173588245464,"377":0.07235127896726633,"378":0.11061620745094394,"379":-0.022058851174418838,"380":-0.3145822684243951,"381":-0.39784416301518866,"382":-0.35584469172483985,"383":-0.17992006132494368,"384":-0.09046217538937525,"385":0.05119364882012147,"386":0.06906411586535528,"387":0.07436300761775715,"388":-0.009157010627309869,"389":0.03353683185683974,"390":0.010715541582955066,"391":0.03894474793628795,"392":0.048350115803831036,"393":-0.000894435948387409,"394":-0.03097976779777074,"395":0.0019716619896922977,"396":-0.022104526480757378,"397":0.032800902234905914,"398":-0.05880273470109891,"399":-0.2030722856035888,"400":-0.2380401652813652,"401":-0.21717586990802365,"402":-0.29350548463221215,"403":-0.48329120680665244,"404":-0.45400817880414335,"405":-0.20236907513412375,"406":-0.039425124866321805,"407":-0.16379638285013157,"408":-0.42773659190071966,"409":-0.5191439577251257,"410":-0.3375031068509764,"411":-0.22309580191333947,"412":-0.131930839322636,"413":-0.028591469646028603,"414":0.05243577401016751,"415":0.03852996341194728,"416":-0.006838171092206332,"417":-0.09120788926557019,"418":-0.04505378999814635,"419":0.021938083679149005,"420":0.01864250750336074,"421":0.004102318986221243,"422":0.044083872153386425,"423":-0.03893659383601934,"424":-0.02938049729472396,"425":-0.09016740210701071,"426":-0.13834407856282646,"427":-0.3132361531362581,"428":-0.3208893834237602,"429":-0.25829633478114905,"430":-0.371832117757734,"431":-0.417494281286026,"432":-0.2778243307210674,"433":-0.10079340604166698,"434":-0.060031605756488506,"435":-0.29053343821736893,"436":-0.48088793140333114,"437":-0.4956564176666117,"438":-0.2473071226349493,"439":-0.15165558567064527,"440":-0.09800982368052952,"441":-0.021634679943402582,"442":-0.014431951411391286,"443":0.014314780367758977,"444":0.024616136205050775,"445":-0.09168023496703522,"446":0.013364280487530421,"447":-0.012411154582612027,"448":-0.0677319906501093,"449":0.0649325445005635,"450":0.01376549936466121,"451":0.0002930485827626575,"452":-0.023237924611550338,"453":-0.11240461319904053,"454":-0.12448785724158551,"455":-0.2275333346614637,"456":-0.32853796295324633,"457":-0.29742000551008,"458":-0.26326145446743177,"459":-0.33142107542168225,"460":-0.3337212571116766,"461":-0.06794949507367226,"462":-0.23990963923459954,"463":-0.3617690425061479,"464":-0.4811418726661657,"465":-0.3755400636475573,"466":-0.19386387296495702,"467":-0.16314819260139304,"468":-0.10828525041226508,"469":-0.09494468987711628,"470":-0.102879638795143,"471":-0.023316834361691754,"472":-0.09959996929700046,"473":-0.06509589121366544,"474":-0.07175134466149818,"475":-0.04398114687401869,"476":0.011222606101994272,"477":0.02621591587352628,"478":-0.013554593152282112,"479":0.033623581219846634,"480":-0.060284096130718584,"481":-0.06929918340640732,"482":-0.1288783483139039,"483":-0.19686773985016717,"484":-0.23158076922536183,"485":-0.22575847660285533,"486":-0.12970196754636518,"487":-0.17721772274859157,"488":-0.26217832229011395,"489":-0.34983403663754165,"490":-0.321391930255568,"491":-0.41055531080242325,"492":-0.32773546154538846,"493":-0.20855885863582888,"494":-0.07432093148966618,"495":-0.12135173299191487,"496":-0.10890911153448479,"497":-0.09662589635734706,"498":-0.12115605023132145,"499":-0.1409998917395699,"500":-0.1161465223724864,"501":-0.1097263780616583,"502":-0.05487589228958773,"503":-0.03338897662752754,"504":0.034747851407749386,"505":0.01508106526472806,"506":-0.006577298970269022,"507":-0.004554955187788191,"508":-0.06988849845008462,"509":-0.11158474614612497,"510":-0.06807780305208021,"511":-0.04375439296289324,"512":0.010644900554916513,"513":-0.0917118916113237,"514":0.003054554654713057,"515":-0.1563446585317146,"516":-0.3057680981351706,"517":-0.3569733659967299,"518":-0.37598118518701495,"519":-0.3048810432684058,"520":-0.22505105185493957,"521":-0.1522190288725884,"522":-0.03699560058250587,"523":-0.13422618689779475,"524":-0.16688751819092315,"525":-0.20142997187872452,"526":-0.24481682129218446,"527":-0.23301047322870555,"528":-0.14290726095881287,"529":-0.15697754825674215,"530":0.030951611729148783,"531":0.0062845143421682475,"532":0.016629338423089966,"533":0.0028759195109201875,"534":-0.03656660915090664,"535":-0.11154191424570208,"536":-0.07896778286213021,"537":-0.13122716008745525,"538":-0.09635207056629518,"539":0.028134255619806335,"540":0.09344444665370871,"541":0.19790768433910805,"542":0.20886983271024773,"543":0.015487169713619534,"544":-0.17557793207955594,"545":-0.30686335820529526,"546":-0.2541030918658488,"547":-0.27454930181114157,"548":-0.22754346994828806,"549":-0.2912942439012985,"550":-0.14558574325957616,"551":-0.026704069258714356,"552":-0.16882489040833837,"553":-0.20975005973050567,"554":-0.24795415562693104,"555":-0.1838962428124435,"556":-0.11222606871233845,"557":-0.054877464510354176,"558":0.009717270718917245,"559":0.016819235578007116,"560":0.020903941474484617,"561":-0.0037386821485092727,"562":-0.047042003966731666,"563":-0.010079106356968159,"564":-0.16252051928167888,"565":-0.1521681427141276,"566":-0.13180405603908268,"567":0.06409240851559908,"568":0.1316763905723214,"569":0.2664667052296743,"570":0.28765902206080596,"571":0.16730196870938904,"572":-0.04582992119882732,"573":-0.1101031274720676,"574":-0.1762538938402045,"575":-0.32057957405151505,"576":-0.2905555958331723,"577":-0.2754104580121331,"578":-0.23740760128133312,"579":-0.17824151938633653,"580":-0.3036647415371936,"581":-0.27134044706022925,"582":-0.1580137319456309,"583":-0.15336120051348545,"584":-0.03139720886682834,"585":-0.021218088471871788,"586":-0.04280449306626618,"587":-0.013329248709749837,"588":0.01070781155020969,"589":-0.03676069957928142,"590":0.004814045393770266,"591":-0.025065069240950127,"592":-0.01937981454918233,"593":-0.044570218301900465,"594":-0.11738020953638932,"595":0.037915618152459876,"596":0.10931111510014181,"597":0.1596491029020565,"598":0.22215519161603597,"599":0.15631622125938746,"600":0.06396952300669466,"601":-0.014040558735896979,"602":0.050275928100083724,"603":-0.06636248051155987,"604":-0.13540930975725657,"605":-0.10214954989005232,"606":-0.1768225826377534,"607":-0.14801870677887302,"608":-0.1683990720974774,"609":-0.16207830626084022,"610":-0.10860660819664375,"611":-0.09320844472789969,"612":-0.07851435643580158,"613":-0.005469732519076386,"614":0.0009179745682528419,"615":0.041061046719814906,"616":0.004398966482310281,"617":-0.004115114444478001,"618":0.05459638713838513,"619":0.011284664222544975,"620":-0.06554462326248073,