{"layers":[{"out_depth":1,"out_sx":24,"out_sy":24,"layer_type":"input"},{"sx":5,"sy":5,"stride":1,"in_depth":1,"out_depth":8,"out_sx":24,"out_sy":24,"layer_type":"conv","l1_decay_mul":0,"l2_decay_mul":1,"pad":2,"filters":[{"sx":5,"sy":5,"depth":1,"w":{"0":0.10190778035022006,"1":-0.3364794232713366,"2":0.041448163526313385,"3":0.13325722218022415,"4":-0.030188467444211938,"5":-0.5700471455216064,"6":-0.3817987171561644,"7":0.24364774342238027,"8":0.11405464966525912,"9":0.13944884412446573,"10":-0.5589616551916661,"11":0.46694080640000446,"12":0.6266027544142301,"13":0.17131708365719892,"14":-0.16536455181243098,"15":-0.05547570827715643,"16":0.4435834247653378,"17":0.03873875066635999,"18":-0.49074209710656885,"19":-0.3764754507971441,"20":0.2975905695791029,"21":0.3573175392659197,"22":-0.4544652374667349,"23":-0.24821174323447334,"24":0.09293484194603456}},{"sx":5,"sy":5,"depth":1,"w":{"0":0.012076879717446498,"1":0.3573318481197259,"2":0.03216717160218686,"3":-0.3027653119067112,"4":-0.1415749026593073,"5":0.1570894599603542,"6":0.06528562666769634,"7":0.16654461579046034,"8":-0.3728573704392906,"9":-0.20456513260262385,"10":0.2920388912090463,"11":0.0736694466375042,"12":0.16075447826767877,"13":-0.3117965758780496,"14":-0.3115812132953086,"15":0.19608282623428827,"16":0.10547036372121876,"17":-0.07822335437041505,"18":-0.28606213824141186,"19":-0.293822731602393,"20":0.07980200634346313,"21":0.44209780026281453,"22":0.19221167982856424,"23":-0.570760298710457,"24":-0.37184448217293087}},{"sx":5,"sy":5,"depth":1,"w":{"0":0.20383588616612483,"1":0.0893878185583682,"2":-0.000981250962418854,"3":-0.66962528263701,"4":-1.0240103964533214,"5":-0.25980910568269744,"6":-0.131482358308537,"7":-0.1316375952212662,"8":0.44459351845511713,"9":0.12332934779517345,"10":0.21026935321459292,"11":0.4974460444939702,"12":0.4387850534755987,"13":0.7613599779435041,"14":0.6527074217114399,"15":-0.2733984136926796,"16":-0.023432920224557785,"17":-0.1238470251186253,"18":-0.13305599107953256,"19":0.05291168971016827,"20":-0.04194967043577225,"21":-0.3391330307462822,"22":-0.2270886221043773,"23":-0.27422867076795754,"24":-0.14708195257443085}},{"sx":5,"sy":5,"depth":1,"w":{"0":0.2534965768651411,"1":-0.19937255527492706,"2":-0.10217213603013169,"3":0.15405897709333338,"4":-0.02509192505496975,"5":0.3954592175321844,"6":-0.48868069721242935,"7":-0.17114491150633784,"8":0.09886148275332333,"9":0.7359331397715166,"10":0.17128445810479584,"11":-0.31800797078939425,"12":-0.03050187933967958,"13":-0.14182931253738756,"14":0.4740865755929186,"15":-0.8321692168569641,"16":-0.29582907980917955,"17":-0.26787084340063966,"18":-0.5002483865555559,"19":0.5741436678838354,"20":-0.25654864694251717,"21":-0.32868170728430185,"22":-0.3695417087621212,"23":-0.6152563694532164,"24":-0.3541141940218369}},{"sx":5,"sy":5,"depth":1,"w":{"0":0.07738431621748112,"1":0.18986533279206153,"2":0.06639727568456723,"3":-0.2692546644612827,"4":-0.4571844124540663,"5":0.04110799164777599,"6":0.09032679650267955,"7":0.44447071991263937,"8":0.418466725959569,"9":-0.4026043146901058,"10":-0.09444091583925891,"11":-0.16234692743949947,"12":0.2511690873572601,"13":0.6355753205295971,"14":-0.13699537894205155,"15":-0.15708735028081877,"16":-0.2711973275901374,"17":-0.36538065561882016,"18":0.36160153310725046,"19":0.09413175099383674,"20":0.018046259340653063,"21":-0.09132990516995301,"22":-0.0380287999854152,"23":0.17888797463894082,"24":0.42788936965703656}},{"sx":5,"sy":5,"depth":1,"w":{"0":0.17567519296993842,"1":0.01504192459998121,"2":0.1065905522736527,"3":0.083372536140713,"4":0.2516858117850376,"5":-0.012828861756599712,"6":0.0384701619014496,"7":0.13768458854991972,"8":0.2710932966069805,"9":0.03604056647848383,"10":0.2228358851815344,"11":0.2920260809386389,"12":0.06648352609541008,"13":0.1850766203002351,"14":0.014475248925452544,"15":0.09033557685751889,"16":-0.024642002300413694,"17":-0.008343241497194332,"18":-0.3959414746712628,"19":-0.33970021475223733,"20":-0.3537240268612759,"21":-0.34971886799084523,"22":-0.40162256770187676,"23":-0.09276337844322528,"24":-0.13332665385167797}},{"sx":5,"sy":5,"depth":1,"w":{"0":-0.09644922308588665,"1":-0.11076362614952352,"2":-0.5284421834136966,"3":-0.48652084507042914,"4":-0.16755079271350087,"5":-0.3532730703640794,"6":-0.5736129000226564,"7":-0.4022883289254769,"8":-0.1045544619301028,"9":0.49438108793299185,"10":-0.4874028414786201,"11":-0.24512526362617565,"12":-0.019033573461776334,"13":0.10987863760655737,"14":0.5052577150353174,"15":-0.4640488277700142,"16":-0.08537915644963354,"17":-0.04942760828520407,"18":0.00877876574782141,"19":0.30617581739291716,"20":0.14372866609436108,"21":-0.04657289868325888,"22":0.06735959019481526,"23":0.25732834033170027,"24":0.36642308949240265}},{"sx":5,"sy":5,"depth":1,"w":{"0":0.12049343338283214,"1":0.42378411050166764,"2":0.20527762969524396,"3":-0.12710931360730043,"4":0.16377563789327335,"5":0.37574258541942596,"6":0.18379295202608548,"7":0.09723801064034843,"8":-0.09533585464217245,"9":0.13557868000409398,"10":-0.08749602944353722,"11":-0.11729962414999141,"12":0.07095574054272519,"13":0.03843250579256322,"14":-0.2109708823739483,"15":0.031201056598591945,"16":0.1459577756846036,"17":0.24326904566474822,"18":0.0061338888133731125,"19":-0.4218514426220126,"20":0.06207043364207469,"21":0.09527262477792908,"22":0.33147369436580854,"23":-0.04698660683807228,"24":-0.17025222446037294}}],"biases":{"sx":1,"sy":1,"depth":8,"w":{"0":-0.33576060986833695,"1":0.025884655161453253,"2":-0.2065046430026552,"3":0.03548838310884685,"4":-0.9065662931659996,"5":-0.020963644097301084,"6":-0.06585759204889005,"7":-0.985355509740423}}},{"out_depth":8,"out_sx":24,"out_sy":24,"layer_type":"relu"},{"sx":2,"sy":2,"stride":2,"in_depth":8,"out_depth":8,"out_sx":12,"out_sy":12,"layer_type":"pool","pad":0},{"sx":5,"sy":5,"stride":1,"in_depth":8,"out_depth":16,"out_sx":12,"out_sy":12,"layer_type":"conv","l1_decay_mul":0,"l2_decay_mul":1,"pad":2,"filters":[{"sx":5,"sy":5,"depth":8,"w":{"0":-0.23848973544024832,"1":-0.34614048378805756,"2":-0.08408056497634774,"3":-0.3612101128953413,"4":0.2291875920579753,"5":-0.6551553746171331,"6":-0.3037968918752379,"7":-0.06949193922131253,"8":-0.1829028946331784,"9":-0.6719024906208999,"10":-0.01794273012703169,"11":-0.3494223187428391,"12":0.1426931255425882,"13":-0.41843289833870206,"14":-0.12298248288145869,"15":-0.3087194911168777,"16":0.2537262236690672,"17":-0.2977488572391181,"18":-0.01264422946320334,"19":-0.113867536301735,"20":0.04934741632574742,"21":-0.3563104886935362,"22":0.16525209931149532,"23":0.06061991776489548,"24":0.4220159603185838,"25":0.35992957856307434,"26":-0.22540862752135984,"27":0.03605149515132463,"28":0.22386890959281544,"29":0.12581708962415752,"30":0.2711539525236121,"31":0.21838780172641525,"32":0.320355410328665,"33":0.6265127705203559,"34":-0.11650010925286035,"35":-0.1371969313600353,"36":-0.21041888636854217,"37":0.3153578565895229,"38":0.606649978607183,"39":0.5559490132041287,"40":-0.06307798248525892,"41":0.2239582972901668,"42":-0.004855110908344607,"43":-0.10144032602990408,"44":0.2976117454566274,"45":0.07118051883779455,"46":0.04510286423984951,"47":0.005312845711661038,"48":-0.18033606354593615,"49":-0.19233391776623338,"50":-0.2804203049138857,"51":-0.36173471575782007,"52":0.12913286639711197,"53":-0.05002499450948249,"54":-0.20394830107987238,"55":0.056120039812854655,"56":0.12052833379513879,"57":0.025382150100167866,"58":-0.1286650280783067,"59":0.12937097995452598,"60":-0.15478287157379889,"61":0.23382005678591702,"62":0.06057122769172381,"63":0.33689324604411236,"64":0.21582387671580935,"65":0.37732582491671657,"66":-0.16526078937627048,"67":0.27584707579538315,"68":-0.13403804960939114,"69":0.4700656443590755,"70":0.266955115410207,"71":0.28040062488895273,"72":0.6063641725507941,"73":0.24011008753093172,"74":-0.445702481278181,"75":-0.2556345836476736,"76":-0.5386933915776201,"77":0.2463031206354604,"78":0.16587711072768704,"79":0.13766034636653876,"80":-0.4398211762010478,"81":0.300729228720955,"82":0.4320807037346507,"83":0.32103473050219106,"84":-0.14880221836727509,"85":0.5338645186932186,"86":-0.16627778254810657,"87":0.2583512393024854,"88":-0.4028481582368903,"89":-0.22890508714558075,"90":0.28817846183261137,"91":0.3315312924427087,"92":-0.19807909265310297,"93":0.2278414697192393,"94":-0.4210254147521935,"95":0.08202954556398592,"96":-0.3012078186104398,"97":0.05644851351864695,"98":0.31744068939242187,"99":0.12084225608752748,"100":-0.15923900633611496,"101":0.36971791345286115,"102":-0.41940243870323873,"103":0.08300855555695955,"104":-0.0589915777247007,"105":-0.1670469233449351,"106":-0.23440030410869625,"107":-0.13607588618303001,"108":-0.18018471213476672,"109":0.35057915483344426,"110":-0.5006954513475951,"111":-0.2645541271261938,"112":-0.17545402987278075,"113":-0.2910778532398874,"114":-0.33609577515283284,"115":-0.5797865242830398,"116":-0.262999834654241,"117":-0.1037063178946212,"118":0.09643871524476887,"119":-0.3226831948107446,"120":-0.09838879301010774,"121":0.026063569174434253,"122":0.07794138205693793,"123":-0.004924651108484232,"124":-0.15988209018767832,"125":0.01923207813998768,"126":-0.11464582338829749,"127":-0.14296446035676932,"128":-0.36523159673587835,"129":-0.3672273242190754,"130":-0.27234687512190386,"131":-0.27237524488439546,"132":-0.15671543106734293,"133":0.004003396828487704,"134":-0.19428340461225327,"135":-0.19366627449514137,"136":-0.3589198230555428,"137":-0.3171433099179585,"138":-0.09708256885480755,"139":-0.48593263162253125,"140":-0.35231017195467396,"141":-0.3154256890849495,"142":-0.10186100117683194,"143":-0.1446127225542711,"144":-0.24869732307814155,"145":-0.40354534383161456,"146":0.06928156059229029,"147":-0.49921470026449394,"148":-0.19137553576436495,"149":-0.45542127168596375,"150":-0.06624360572723931,"151":-0.39884934867336747,"152":0.13055489696489328,"153":-0.15969218164156201,"154":0.01503762881059355,"155":-0.09438825490345433,"156":-0.14332486859847973,"157":-0.44155002057820125,"158":0.26682786457968155,"159":-0.0860095346847967,"160":0.32483283348547615,"161":-0.06522735974870789,"162":0.22741055861886167,"163":-0.6888312157898142,"164":-0.1792730857016326,"165":-0.3685530943538561,"166":0.3837610723882576,"167":-0.0364381962905561,"168":0.17348350664458842,"169":-0.11268947337112216,"170":0.3959381144683677,"171":-0.4131142975054807,"172":0.267038229999728,"173":-0.20503983285606917,"174":0.09184580302004922,"175":0.06572286562215816,"176":-0.4101498528129501,"177":-0.046827398329127454,"178":0.13451445329117512,"179":-0.3302379544269365,"180":0.32343129986163344,"181":-0.35942212923121947,"182":-0.11743716792494116,"183":0.207876600993941,"184":-0.2468723319291132,"185":-0.07189253947166716,"186":-0.13927831500475701,"187":-0.08296154518977027,"188":-0.018261808431249617,"189":-0.2606797551375823,"190":-0.02184945989580379,"191":0.0597557763174665,"192":-0.08931739096040084,"193":0.07033784991610541,"194":-0.12842042283429703,"195":-0.05537715184822422,"196":0.17959661615044697,"197":-0.14993753174115856,"198":-0.201121805678003,"199":0.2582508382182646}},{"sx":5,"sy":5,"depth":8,"w":{"0":0.44890621205330117,"1":0.20678778751485025,"2":-0.11470650315278717,"3":-0.3941144355905859,"4":0.12405167899144637,"5":0.13062684792174184,"6":-0.09871784567990997,"7":0.35618956434360516,"8":0.17521217392401228,"9":-0.5111378053644362,"10":0.028122120257389954,"11":-0.048984238495280295,"12":-0.19584764593091009,"13":-0.018358754260304554,"14":-0.3327341537002067,"15":0.15881847440716051,"16":0.23926925337115573,"17":-0.14445559466055807,"18":-0.1148445925151956,"19":0.2923856451398448,"20":-0.07753544849183967,"21":-0.023925013759658078,"22":-0.10120472958999684,"23":-0.009692826770735158,"24":-0.1499554377447693,"25":-0.11971994186335641,"26":0.16373951511159016,"27":-0.008198277316135351,"28":0.19375911859273795,"29":-0.0360026628724077,"30":-0.22033381912317124,"31":-0.01347472925140299,"32":-0.11275268970706447,"33":-0.2883936749903933,"34":0.10659170975350193,"35":0.1183025069746987,"36":0.0790608833612152,"37":0.18602765491508744,"38":-0.1362927139400462,"39":-0.18521940372668333,"40":0.05598933083004567,"41":0.15275433435270983,"42":0.25529325954573184,"43":0.036809488740429976,"44":-0.0026411540741948956,"45":-0.17688999131905003,"46":-0.618278060527722,"47":0.2366645757431305,"48":0.29085400499338687,"49":-0.3044907064898228,"50":0.2067203642980868,"51":0.12767530459364348,"52":0.10505715610662968,"53":0.039138792754838045,"54":-0.19957455006232028,"55":-0.08776542989276348,"56":0.35239964115558814,"57":0.14351998281268377,"58":0.24812132012885454,"59":0.33555391550538405,"60":0.24054045095587126,"61":0.025052448373544613,"62":0.07708805835965503,"63":-0.00543013372513815,"64":-0.23798250771731283,"65":0.07174432872631353,"66":0.04528923283246488,"67":0.07912760393741733,"68":0.06463943133566939,"69":-0.0356909510447651,"70":-0.08958739082000641,"71":0.03893952323829855,"72":-0.1024529836165907,"73":0.2669536521836658,"74":-0.060689093831211134,"75":0.21307909940109296,"76":-0.07974018765704734,"77":0.23449833789192853,"78":-0.2995225401370472,"79":0.03677884757805488,"80":-0.38698819598056183,"81":-0.3462074719577473,"82":0.7319681340018253,"83":0.1001305620191665,"84":-0.003175919866414398,"85":0.1860508894236686,"86":-0.8818191923102062,"87":-0.19905598286920825,"88":-0.22274378174100531,"89":-0.10304484397181692,"90":0.3731810734314047,"91":0.03746489676825455,"92":-0.17994468815748316,"93":0.35353033145401436,"94":-0.38259568118103976,"95":-0.4761336513657455,"96":0.22894406682423982,"97":0.2950599164158535,"98":0.14339639775788326,"99":0.03842082575034626,"100":-0.15032028015407167,"101":0.2780159765503412,"102":-0.16338202228694862,"103":-0.3519056799843317,"104":-0.09474014040105877,"105":0.12085599245236493,"106":0.02428111421329102,"107":-0.1263256243044126,"108":-0.3693072160759583,"109":0.06563441985106847,"110":-0.07353769590911086,"111":0.07079027657814754,"112":-0.04428595109396843,"113":0.18476473751319122,"114":0.006630712346139751,"115":-0.22767121513686445,"116":-0.2869972798790468,"117":0.05580574124912269,"118":-0.3768415594443671,"119":-0.11030837363823356,"120":-0.31249412257767967,"121":-0.053685360973221324,"122":0.3982383837905914,"123":-0.3569388202198922,"124":-0.3083518595301603,"125":-0.18215099060562728,"126":-0.25550853336257817,"127":0.07218228054169408,"128":-0.15188040187052165,"129":0.1481995188650904,"130":-0.06960904020348924,"131":-0.17020555116440703,"132":-0.04204643189642408,"133":0.12027374152088643,"134":-0.27584420337947513,"135":-0.09558335861728821,"136":0.14543338838951445,"137":0.0527679415308558,"138":-0.5214197913747076,"139":-0.22664094020491424,"140":-0.45307025126228306,"141":-0.24159356821291003,"142":-0.16850352727181261,"143":-0.1385639908126318,"144":-0.25266976418694764,"145":-0.04808830725058559,"146":-0.5260220814779603,"147":-0.197011541939321,"148":-0.2255443177098136,"149":-0.19677777753145095,"150":-0.07038803717909858,"151":-0.1914783783371654,"152":0.01403316966710402,"153":0.0659467064044543,"154":-0.5406543495679121,"155":-0.23967199383632606,"156":-0.16071058914760084,"157":-0.3226098189380897,"158":-0.5471892937534331,"159":-0.1667842604983729,"160":-0.31397316006780585,"161":0.21149699713110537,"162":0.09649653416679801,"163":0.006248681416346486,"164":-0.05215696018313967,"165":-0.17350683348061932,"166":-0.06526471719673495,"167":-0.13926643297683697,"168":-0.1440431768206095,"169":-0.053167158800419854,"170":-0.01599746589985705,"171":0.06608330332062279,"172":0.01607926348431347,"173":-0.4104270002863428,"174":-0.11397982285536812,"175":-0.3021251866035488,"176":-0.009491260443632202,"177":-0.020414056830131047,"178":-0.49503049071325383,"179":-0.12470806207658547,"180":-0.1090448874308965,"181":-0.3788987438061777,"182":0.5640424311444449,"183":-0.026448096866934733,"184":0.06070458340562942,"185":0.3073030217805187,"186":-0.26012565884696853,"187":0.11452763580612622,"188":0.14032617102284653,"189":-0.28802280026001614,"190":0.6362394958389028,"191":-0.11119845030463363,"192":0.2944855540970271,"193":0.49015923424567986,"194":-0.5208844083862203,"195":-0.13352370957063073,"196":0.07859771330259939,"197":-0.5387161130117306,"198":-0.1025004971267643,"199":0.11428470567976856}},{"sx":5,"sy":5,"depth":8,"w":{"0":-0.08994695672184554,"1":-0.3134915907457021,"2":0.05472861247891238,"3":0.28750592755155513,"4":0.30303838312350384,"5":-0.06851626817030777,"6":-0.08649034047033029,"7":-0.41283226624409175,"8":-0.13559602512656654,"9":0.18342337960665892,"10":-0.16603965768206705,"11":0.03629540327902336,"12":0.2507128935383975,"13":-0.19327234449932393,"14":0.10205667858373996,"15":0.03097736818544592,"16":0.016253810462389447,"17":0.09714278845714244,"18":0.10370467086806684,"19":0.014748451047672506,"20":0.08533280893669153,"21":-0.05383355310013003,"22":-0.014205853695515878,"23":-0.013534342151219441,"24":-0.07726854433519563,"25":-0.2828632515484896,"26":0.04270096772070024,"27":-0.022781337302733046,"28":-0.05601396851034276,"29":-0.1637297366253768,"30":-0.012093224843686539,"31":0.04915322797257401,"32":-0.08850336753322617,"33":-0.2794968194128958,"34":0.02596198405239936,"35":0.39784988783340486,"36":0.0365972802294999,"37":-0.03667380152594424,"38":0.10617145974341836,"39":0.15413174291067097,"40":-0.29574500532918985,"41":-0.2968723658700841,"42":0.24192070640421662,"43":0.41500453091545103,"44":0.1796554848522665,"45":-0.3062179990734126,"46":-0.3825882142861017,"47":-0.4813709596584814,"48":-0.5217133458799995,"49":0.008751627676115004,"50":0.05867434424920651,"51":0.3808697459550938,"52":0.17499470838933218,"53":-0.044724162391242765,"54":-0.006209072108591068,"55":-0.22734492947163176,"56":-0.21695812020718008,"57":-0.20745212861714205,"58":-0.06415682003108873,"59":0.35446290320832813,"60":-0.00844389391924293,"61":0.31636293946476896,"62":0.002104056304099148,"63":-0.11001394355948337,"64":-0.04914981410868917,"65":-0.24052001931483388,"66":-0.08198866109687013,"67":0.0531697127113375,"68":-0.133654246240289,"69":0.3696119321414567,"70":0.022575750871530884,"71":0.01371628175229074,"72":-0.21749331975907002,"73":-0.03767590505347271,"74":-0.11554979358318619,"75":0.4501197264473752,"76":0.09002026256172588,"77":0.4441057447616248,"78":-0.17197845531263115,"79":0.15949135352679655,"80":-0.23412519642078908,"81":-0.3386599407770657,"82":0.10804657979514008,"83":0.03535745809107864,"84":-0.09988186320527645,"85":-0.1439545548995907,"86":-0.0434840685772731,"87":-0.4273603861307465,"88":-0.4269330331057122,"89":-0.22977673927176234,"90":0.2293683217916436,"91":0.1282212776525464,"92":-0.13991753776997395,"93":0.03461217486032764,"94":-0.12953925588247597,"95":-0.2750416162878253,"96":-0.28378188482310807,"97":-0.6188284717805626,"98":0.254874403207291,"99":0.02659515383923378,"100":-0.2628849411673703,"101":0.3088659328096496,"102":-0.30464165445057734,"103":-0.20743131846943455,"104":-0.272669497850146,"105":-0.3312501772973328,"106":-0.10531665722358144,"107":-0.1285905473404568,"108":-0.250999480510708,"109":0.4550468222908192,"110":-0.4320989063752953,"111":-0.14483292527623212,"112":-0.32479773126311506,"113":-0.14876648740297557,"114":-0.4153235010460954,"115":-0.20570696489877763,"116":0.08672763578933938,"117":-0.039528093245438656,"118":-0.2892509310735446,"119":0.11735536763697554,"120":0.015651065698261676,"121":-0.21646331701439955,"122":0.31560773383546115,"123":-0.15466605042138404,"124":0.033264282690134046,"125":-0.22929289804445818,"126":0.17677120798316232,"127":-0.33632030165301874,"128":-0.10163347290932634,"129":-0.3119638356289982,"130":0.2509805727528308,"131":-0.3604824294373006,"132":-0.018466593357878116,"133":-0.12176636812523293,"134":-0.08201912944274356,"135":-0.3102216289915165,"136":-0.15433703726423106,"137":-0.25134669146558086,"138":0.41046452486190277,"139":-0.5025398417319704,"140":-0.1556269599302847,"141":-0.07542822548020367,"142":0.20377756062187632,"143":-0.2500568530260646,"144":0.10855128304361862,"145":-0.1614513018272808,"146":0.2352295092004514,"147":-0.2915889301261293,"148":-0.3041950253930972,"149":-0.155673607253071,"150":0.14109701456719353,"151":-0.09919001310572689,"152":-0.02271674179363956,"153":-0.0328620586356122,"154":0.10395720582076641,"155":-0.0847175647295885,"156":-0.16041883318370234,"157":-0.4066550856295408,"158":0.163706644632051,"159":-0.023189584014283855,"160":-0.009505049332046494,"161":0.09567029660742284,"162":0.09446623664711919,"163":-0.03555513698524024,"164":0.21096708874492762,"165":-0.01993969207947461,"166":0.3503152239131406,"167":0.06485183470500032,"168":-0.27834757259166043,"169":0.24699672744227472,"170":0.11704648447048835,"171":-0.021304133653567568,"172":0.30081540107813826,"173":-0.15057817729415665,"174":0.21803282008743405,"175":-0.027144861656947558,"176":0.29566966700762404,"177":-0.01835800857050992,"178":0.14803067136304246,"179":0.00788466947521288,"180":0.10392925910868718,"181":-0.08310495736514519,"182":0.24031145922080524,"183":0.019242104364752474,"184":0.046502446250681936,"185":-0.12440697022507125,"186":0.13858633264911793,"187":-0.038390167139631025,"188":-0.012217345826439534,"189":0.03963225374814519,"190":0.08588688677755249,"191":-0.08369599458482628,"192":-0.05274666410825392,"193":0.1302270599702678,"194":0.19599761582113281,"195":-0.088910012140283,"196":0.012904961076108867,"197":-0.09293410753480108,"198":0.30826786341074885,"199":0.19124980025359606}},{"sx":5,"sy":5,"depth":8,"w":{"0":0.08267578979373924,"1":-0.3735058893262037,"2":-0.062418891898177224,"3":-0.04859748169111644,"4":-0.13123752554109483,"5":0.10476487683310343,"6":-0.08276099518293364,"7":-0.40677838269619987,"8":0.11564980501879085,"9":-0.7515165169048967,"10":-0.20180758963513004,"11":-0.3313211194592826,"12":-0.12118008679769882,"13":0.1116892710019458,"14":0.09653652471772153,"15":-0.3029644488687038,"16":0.04218022530045469,"17":-0.6545618295212248,"18":-0.15333196948066488,"19":-0.2026943764417065,"20":0.08831272620597798,"21":-0.06362156718494771,"22":-0.009382692972076057,"23":-0.030757626642683118,"24":-0.0986827955441692,"25":-0.15629106926576425,"26":-0.21166321378026218,"27":-0.4358269121509241,"28":0.14474085117945498,"29":-0.31859570729330466,"30":-0.00603408975473551,"31":0.3741140697838379,"32":0.03600251222408427,"33":0.21319291530172166,"34":0.04678267682761419,"35":-0.587485067547028,"36":-0.08781441727548053,"37":-0.29465564935974975,"38":0.36954741912951034,"39":0.21260057172187488,"40":-0.3650910146027061,"41":-0.24487858086826175,"42":0.5364327902835342,"43":0.17402924712637355,"44":-0.019897129105290613,"45":0.2283072251577893,"46":-0.04835579032977961,"47":-0.404923824811524,"48":0.3089720108486506,"49":-0.23034765471519558,"50":0.04416371668638685,"51":-0.07645420856427752,"52":-0.08958378933773135,"53":0.11314935623233277,"54":-0.09555834987790046,"55":-0.2745791991015481,"56":-0.10261600097195647,"57":-0.16718774061315375,"58":-0.3998717073582491,"59":-0.07475714705904642,"60":0.3040798986522621,"61":-0.08756075498564539,"62":-0.01686614522225583,"63":0.06180447890356337,"64":-0.12169322219651872,"65":-0.09374965960454748,"66":-0.6140219582036592,"67":-0.27884613463007657,"68":-0.0011464816782984107,"69":-0.21539488992772574,"70":0.15091654899208898,"71":0.6873093300393551,"72":0.45074928562088623,"73":0.2042955029919646,"74":0.2637271115447615,"75":-0.49930700776182085,"76":-0.1714645475951361,"77":0.09505546834577713,"78":0.26719469857087463,"79":0.36645186793237844,"80":-0.06602350991683012,"81":-0.063906342587334,"82":0.6340820115581659,"83":0.058165768672376925,"84":0.05079569903010931,"85":0.29441663327519546,"86":-0.2741568276121288,"87":-0.49913379290206444,"88":0.2546455551660452,"89":0.2871863032807104,"90":-0.2972413816517538,"91":-0.25763396988389553,"92":-0.26324735411066735,"93":0.02366883638366281,"94":-0.3883471501011459,"95":0.26177586200880565,"96":0.34854774523012616,"97":-0.034997000189979,"98":-0.6637204988476264,"99":0.019336716168665894,"100":0.0699707708434349,"101":-0.042556070299951135,"102":-0.11637481395168832,"103":0.18648466321232002,"104":-0.09826324763589796,"105":-0.030653258191875386,"106":-0.39685505545384375,"107":-0.02832131098040445,"108":0.2626447843151347,"109":-0.3509835966395446,"110":0.11695991546459007,"111":0.5109860295671501,"112":0.0945093440985498,"113":0.3878698404797655,"114":0.00678591405527163,"115":-0.21313866146111657,"116":-0.07854422948318988,"117":-0.20792072210729706,"118":-0.14859136616403426,"119":0.08770731730107552,"120":0.05912020883856507,"121":0.1176873433881849,"122":-0.1766145070509378,"123":-0.29060554429056273,"124":-0.017849893352152257,"125":0.13694662939476893,"126":-0.12425669936156858,"127":0.27512548618211485,"128":0.1357174538928342,"129":0.2625830696683164,"130":-0.5314288071054785,"131":-0.26997757018701185,"132":-0.307226900452092,"133":0.14273459372399858,"134":-0.17029311467723404,"135":0.20619657697928975,"136":0.4531324001081565,"137":0.2777765636299456,"138":-0.6211764524737794,"139":0.23888714610746584,"140":-0.003365865855262373,"141":0.1093258907262308,"142":0.13367574385240244,"143":0.0616857497544827,"144":-0.23467748483784379,"145":0.3683108660556884,"146":-0.15797909694306136,"147":0.2981137505555238,"148":0.36444694116261306,"149":0.05155604047038655,"150":0.28324284520450543,"151":0.1358930096060317,"152":-0.5744425550170315,"153":0.000881147020049212,"154":0.21886609386228456,"155":0.404389703536913,"156":0.23065312346872507,"157":-0.032606298582592196,"158":-0.5395649457619723,"159":-0.1168557431958586,"160":0.05093002720804123,"161":-0.07282785159729571,"162":-0.5656673830336357,"163":-0.14361028898407185,"164":-0.19038011056663137,"165":0.07840335931757349,"166":-0.07865405642271442,"167":0.10947744890144291,"168":0.08560614448818753,"169":0.147054859805608,"170":-0.35633535577561054,"171":0.004491497302591404,"172":0.019799108771789295,"173":0.010580026044119267,"174":-0.3008460963209605,"175":-0.1301881654503277,"176":-0.13770014448007933,"177":0.29144184743392515,"178":-0.3523121356198358,"179":0.17773870548244297,"180":0.004744947259627999,"181":-0.24196533447184174,"182":-0.1821772500232507,"183":-0.08302033055358887,"184":-0.12307000249056987,"185":0.3223825439959812,"186":0.19906742752133236,"187":0.26843812610973733,"188":0.2542200093343044,"189":-0.23525146795857027,"190":-0.1273599778691523,"191":-0.09341608720614827,"192":-0.1564809193456479,"193":-0.09683378093806183,"194":0.5852953770240649,"195":0.21467720588831143,"196":0.12080177010801624,"197":0.038135792581118995,"198":-0.4167768838787981,"199":-0.3730930960104418}},{"sx":5,"sy":5,"depth":8,"w":{"0":0.16402594066945378,"1":-0.28050443214142834,"2":0.008949926084721603,"3":0.22064756621563236,"4":-0.08258011161849212,"5":0.2363766418720909,"6":0.1426679020421724,"7":-0.21533068639832137,"8":0.3308023892991452,"9":0.1492815405259144,"10":0.055520138292432665,"11":0.3642691775223682,"12":0.20094052576271287,"13":0.2997774305703202,"14":-0.009593888633530877,"15":-0.09198420409565883,"16":0.18817595101651183,"17":-0.06809530660839935,"18":0.29549643080153787,"19":0.06444519123265409,"20":0.3050998464011767,"21":0.34057273370373253,"22":0.05125800887841821,"23":0.025277547491457133,"24":0.12578737719479408,"25":0.02656231618982031,"26":0.40963821916567805,"27":-0.04973153095778035,"28":-0.04417404097428968,"29":0.24071126639338702,"30":-0.061956633433228755,"31":-0.3350484593800646,"32":-0.1491566943425595,"33":-0.2642748481730542,"34":0.07392816410631291,"35":-0.27468590300833334,"36":-0.2620070383223246,"37":-0.05703402122118518,"38":-0.21124296133981518,"39":-0.3745409064659193,"40":-0.07658176436478564,"41":-0.38675748058581727,"42":0.14920722603963385,"43":0.0032048168118742103,"44":-0.10261600512584397,"45":0.0364255219609906,"46":-0.317788461702706,"47":-0.28057329219079996,"48":-0.31791268185489924,"49":-0.20214918264844972,"50":0.18269004885973314,"51":0.2173987405939725,"52":-0.13753578192656304,"53":0.11648301407284885,"54":-0.3923020440040279,"55":-0.36856185283330234,"56":-0.13251783017611446,"57":-0.2414774163297061,"58":0.3341700539187009,"59":0.02350149899039015,"60":-0.03927630144945182,"61":0.0109493714360958,"62":-0.0616461369499891,"63":-0.25628381241361553,"64":-0.049536829281284285,"65":-0.16310800786658863,"66":0.21431595902561648,"67":-0.1427878725550335,"68":-0.08833883327916138,"69":-0.03667778172768041,"70":-0.21803787945204067,"71":-0.2993618670618157,"72":-0.06278229310974444,"73":-0.17038393230098406,"74":-0.21092439876790647,"75":-0.0032365157603740577,"76":-0.12956529152405746,"77":-0.2112045791973514,"78":-0.2730247529625227,"79":0.049970878055966735,"80":-0.40438445597899386,"81":-0.23334723436926716,"82":-0.21670880305097964,"83":-0.24039545884018523,"84":-0.2933848151114246,"85":-0.31476623867799386,"86":-0.1577226025951681,"87":-0.350916270255231,"88":-0.3316528191490155,"89":-0.32118408225284906,"90":-0.20386448101315335,"91":-0.03494487024285979,"92":-0.15678562960283693,"93":-0.2869376157560153,"94":-0.5141561243705975,"95":-0.184508848733274,"96":-0.3888018738773881,"97":-0.41152716397156297,"98":-0.20102724798234875,"99":-0.20226538441567743,"100":-0.03871768330281099,"101":-0.2766181248280264,"102":-0.48297750498704983,"103":-0.19111264206867318,"104":-0.29404544447662706,"105":-0.2510211745065854,"106":-0.20158208006685402,"107":0.006831162083052053,"108":0.0017008946791230108,"109":-0.20352825783436412,"110":0.12260411057454329,"111":-0.14485740355104015,"112":0.2567133400010553,"113":-0.10436072974423742,"114":-0.097340156161855,"115":0.2648901435921711,"116":-0.36256815339037024,"117":0.05878625643617467,"118":0.30060314942219657,"119":-0.027838299439809828,"120":0.15810144088869352,"121":0.1454596725805142,"122":0.12919395917467882,"123":-0.0905990553347798,"124":0.08089321632260514,"125":-0.25973599498045197,"126":0.01191675437423226,"127":-0.11522571806065224,"128":0.08299715163585604,"129":0.17433961611504278,"130":-0.12688887742102845,"131":-0.19516041666330095,"132":0.06897623892904346,"133":-0.5370063849044476,"134":-0.2716765276394955,"135":-0.04637259510869966,"136":-0.28345783154613746,"137":0.21751649087969507,"138":-0.30013719457706,"139":-0.15354138059058536,"140":-0.007638038769940341,"141":-0.5251497015741378,"142":-0.368346625571138,"143":-0.17672935780003055,"144":-0.3277171832727032,"145":0.00787473352311722,"146":-0.09637864930220394,"147":0.2503869645855632,"148":0.06278601229804381,"149":-0.36491602693075104,"150":0.02195228323862891,"151":-0.08633718918694148,"152":0.01994468001929758,"153":-0.06736431606738427,"154":0.28647938181788285,"155":0.25714572965396,"156":0.30732780681883554,"157":-0.26466629425388627,"158":0.35022646947045893,"159":0.1808316451129047,"160":0.19357123600146003,"161":0.5783252869099658,"162":0.1322086007402682,"163":0.15314561541986227,"164":0.3279473896223777,"165":-0.2860326474586559,"166":0.004010391089716418,"167":0.637459552383784,"168":-0.04477100084999944,"169":0.4972507853575225,"170":0.10062558927439624,"171":0.2670667339411824,"172":0.14523573579564547,"173":-0.15556117662560018,"174":0.17049505226848755,"175":0.39297609342752804,"176":0.040126547049402425,"177":0.6141635070772143,"178":-0.034853606725423515,"179":-0.023209433970832638,"180":0.06826700619682174,"181":-0.21921784244913123,"182":0.007233103480559771,"183":0.14288200164161732,"184":0.021318597929888824,"185":0.2758318726242415,"186":-0.15530697267810073,"187":0.11669500036218942,"188":-0.06620258987687555,"189":-0.2188329846486679,"190":-0.2334194320492732,"191":-0.20734444925893095,"192":-0.05942422639359276,"193":-0.05358033071848176,"194":0.011745624255326922,"195":0.43078162436628764,"196":0.15043758625565837,"197":-0.047048476602426226,"198":0.2290305120905673,"199":0.016923100371214857}},{"sx":5,"sy":5,"depth":8,"w":{"0":-0.16875617247921576,"1":0.11605979200023775,"2":0.31010378119749976,"3":-0.13736183843710997,"4":-0.15427618255966563,"5":-0.03302151465949379,"6":-0.004726718470087914,"7":-0.08838683526477491,"8":0.02209154737854783,"9":0.4912004618618036,"10":-0.2570514623117617,"11":-0.06523566695555211,"12":-0.3599960239050616,"13":-0.26606419431800427,"14":-0.4537100030014513,"15":-0.07422040157334077,"16":0.5151005419382284,"17":-0.15636907127358668,"18":-0.33748751793437237,"19":-0.20328915978979262,"20":-0.2971206876753877,"21":-0.1066962469246794,"22":-0.3347234570651461,"23":-0.3863337273907831,"24":0.2187369913993253,"25":-0.0923711828025796,"26":-0.5886551776108759,"27":0.3406065770127129,"28":-0.3436531209725486,"29":0.3626036553469264,"30":0.01714214413087564,"31":-0.1610650574813481,"32":0.005645286505246078,"33":0.04074676658886367,"34":-0.0757028853644271,"35":0.30278388682358526,"36":-0.11787478175238686,"37":0.4073169661563438,"38":0.26435437403629924,"39":0.11829647024723483,"40":0.19100263646363255,"41":-0.3074369158285082,"42":0.5177706955201445,"43":0.09174672956151998,"44":0.4923938142071039,"45":0.25462903452987834,"46":0.029097739420557527,"47":0.08373507889160497,"48":-0.3834237972203034,"49":0.010551675131304325,"50":0.021295881761566708,"51":-0.2671330570232777,"52":0.4208975646743293,"53":-0.3303168741283,"54":-0.1387855110773481,"55":0.13283580658248342,"56":-0.07133985963833589,"57":0.3307830672558192,"58":-0.5250154753599948,"59":-0.6602984857283585,"60":-0.24468939827129949,"61":-0.3309863647604552,"62":-0.1820561875004274,"63":-0.0002681364932435948,"64":0.4652040917768344,"65":0.28014251960003955,"66":-0.0842683241539079,"67":-0.4267341037328082,"68":-0.24783574592461668,"69":-0.24295713984181175,"70":-0.07172646882676305,"71":-0.04699174734194178,"72":0.2740879927611394,"73":0.04253377545597292,"74":-0.08504398339105078,"75":-0.21461630674309315,"76":-0.1849291233440551,"77":-0.0775797458233179,"78":-0.15135105084858086,"79":-0.16953772143184664,"80":0.6122420593683685,"81":-0.3289957960793864,"82":0.24289384115829907,"83":-0.051145503442909614,"84":-0.06867315658833538,"85":0.4007237193112411,"86":0.06039033404367318,"87":0.16740183487268828,"88":-0.13037266872139486,"89":-0.4556401534268691,"90":0.2166256160625298,"91":0.05127913770733333,"92":0.4424790346719447,"93":-0.09768692276366032,"94":0.21391305943136055,"95":0.07956798041714366,"96":-0.7889063363996119,"97":-0.012362292461123612,"98":-0.008096946649089689,"99":-0.32727857320571924,"100":0.2808993303267023,"101":-0.18224033431332834,"102":0.1589464355187129,"103":-0.015693995150852628,"104":0.03832190831867867,"105":0.07125665902708025,"106":0.0011790114045085592,"107":-0.4714736436191214,"108":-0.17864710598783407,"109":-0.14126813079650896,"110":-0.1005195605959126,"111":-0.20902018467013603,"112":0.32323286142140983,"113":0.28850868151293607,"114":-0.4886155172881863,"115":-0.184486865790789,"116":-0.18557978423371865,"117":-0.3144018110477192,"118":0.02585277208534241,"119":-0.14143572109062985,"120":0.4328832063223464,"121":-0.13503572729489513,"122":0.22100903352333637,"123":-0.34549867736106527,"124":-0.06061262256552341,"125":-0.14239665404063115,"126":-0.17603710998848834,"127":0.008378682336698461,"128":0.27559879731547593,"129":-0.23234790616738837,"130":-0.06505373161623347,"131":0.027936726162051694,"132":0.01890315142588822,"133":-0.45934904594949283,"134":0.09041637655671611,"135":0.10610993170162729,"136":-0.4147248509192256,"137":0.1732865628328254,"138":-0.17279120134945405,"139":0.05079947422357779,"140":0.17003166484130117,"141":-0.24920730440981237,"142":0.32567322871243437,"143":0.257346600539423,"144":-0.6189597672019129,"145":-0.1807336011784448,"146":0.1763689273280663,"147":-0.0009052646653271496,"148":0.3495032483247224,"149":-0.18851959584301275,"150":-0.19668761043331376,"151":0.10713358387627629,"152":-0.28221273097323957,"153":-0.005724352914303723,"154":-0.013775356058513691,"155":-0.7460528160914484,"156":0.4669006248280966,"157":-0.4902061720132373,"158":-0.17613399180395686,"159":0.07710101492063817,"160":0.15227619280646038,"161":-0.4628757426471441,"162":-0.07051990395654932,"163":-0.22618856779314142,"164":-0.2024012095068157,"165":0.04336174743853549,"166":-0.12874101899766682,"167":0.09466284225079785,"168":0.30934433945089385,"169":-0.21422143141772734,"170":-0.35193715015072025,"171":-0.11676247121842724,"172":-0.29371610783065427,"173":0.21372718180883488,"174":0.0036464140135308706,"175":0.018285772110947184,"176":0.0654722276105887,"177":0.007436861399935872,"178":-0.37837581736318177,"179":0.03421929352671924,"180":0.09105612242681246,"181":0.21805067998307523,"182":0.30060380362153216,"183":0.016074185395223355,"184":-0.12357364085343052,"185":0.03786562801459143,"186":-0.22530406977799267,"187":0.3123940853539993,"188":0.2677888234585172,"189":0.1313473240196526,"190":-0.029163631810290185,"191":0.20880108113769486,"192":-0.3236017878397355,"193":-0.22370538357778594,"194":0.05192609505492567,"195":-0.0425811338869847,"196":0.6707190114699034,"197":-0.04486997968076712,"198":-0.3773578303038098,"199":0.2501940872250781}},{"sx":5,"sy":5,"depth":8,"w":{"0":-0.025081245582787164,"1":-0.4701750539896171,"2":0.0006393353869835854,"3":-0.21914633468940928,"4":-0.0236671114634043,"5":0.2865608936052136,"6":-0.10849148946786755,"7":-0.5181344988722911,"8":0.06976864686231453,"9":-0.015779674508361076,"10":-0.41557112800798407,"11":-0.03707826693239605,"12":-0.16099251123569538,"13":0.26257971884979253,"14":-0.016942213887008607,"15":0.20113846935350138,"16":0.053240605391826006,"17":0.2989271073593907,"18":-0.6927762468783867,"19":-0.3122726980153037,"20":0.0033859231078501692,"21":-0.012783746117189212,"22":0.23223114314822832,"23":0.4086029676474558,"24":0.1037271911888353,"25":0.16908411922323202,"26":-0.45344798230200417,"27":-0.41392218623053795,"28":-0.0387319870665586,"29":0.019885596857378597,"30":0.2110306343754954,"31":0.275910152700316,"32":0.0023533949601602985,"33":-0.26711383576164865,"34":-0.5647357011534103,"35":0.2224402435166827,"36":0.1428348428580772,"37":0.2241661189182292,"38":-0.017914539332147154,"39":0.21544205798599483,"40":-0.1430536133338987,"41":-0.40791080258503204,"42":-0.44626848922015433,"43":-0.3496984567628576,"44":-0.10372528490419516,"45":-0.1574659048900743,"46":0.13176235647406126,"47":-0.4549847417986755,"48":0.23441238031108558,"49":0.08175222602696837,"50":-0.3046918264825996,"51":0.04623317402244566,"52":-0.1767326884638279,"53":-0.04182664458186294,"54":0.26065149789300374,"55":0.03501685459827095,"56":0.0799780565135492,"57":0.12182669399188542,"58":-0.4511612477486759,"59":-0.045183381733464915,"60":0.09272316304372306,"61":-0.24892079197678477,"62":0.08628560868135843,"63":0.10631901259316028,"64":-0.06641133850935285,"65":0.1798117812350107,"66":-0.48519281114282836,"67":-0.22389938351716634,"68":-0.06702323165833547,"69":-0.055798658680989655,"70":-0.48382652205292953,"71":0.2770468811462193,"72":-0.3461343255479712,"73":0.09830440730407178,"74":-0.5144353291589859,"75":0.3672628582065796,"76":-0.007516837622176885,"77":0.1377568468666552,"78":0.1256591494022905,"79":0.22176613976955942,"80":0.16256834491665192,"81":-0.15159427762915464,"82":-0.14204925274700653,"83":-0.10173925532820113,"84":-0.04649130819305924,"85":-0.3925732714195422,"86":0.3333273549421199,"87":-0.19544153426792918,"88":0.035372903972241354,"89":0.18945119992126708,"90":0.018631550309441646,"91":0.3857235269860262,"92":0.06877447449139638,"93":-0.18262249373201495,"94":0.1707383035873986,"95":-0.1898635872704659,"96":0.10896106268503081,"97":0.12115416130363173,"98":0.0011475825650282237,"99":0.3186236142487095,"100":-0.006023494200437502,"101":0.056088301883011095,"102":-0.2705177744499587,"103":0.21951017772721965,"104":-0.16384039343411258,"105":0.22897847654966927,"106":0.07973767153114301,"107":-0.07931038967717668,"108":-0.2509180944355504,"109":0.02725741841515506,"110":-0.25252761431062226,"111":0.10583768407705878,"112":0.09100150931554832,"113":0.2543992713586785,"114":-0.2268640559024306,"115":0.18440409606109917,"116":-0.07996462877387801,"117":0.07448738718869363,"118":0.0736079331503442,"119":-0.03202675285543097,"120":0.04897565683735185,"121":-0.07060858551140126,"122":-0.20809162635419967,"123":0.0703810861817504,"124":0.08441896342123993,"125":-0.5533316147939177,"126":0.17491922672478688,"127":-0.1866474609134917,"128":-0.007597023180641191,"129":-0.03532800063221089,"130":0.11386049972920519,"131":-0.004297493270565953,"132":-0.1232507110097782,"133":-0.2914574341026907,"134":-0.014705074958625193,"135":0.05340798380932906,"136":0.044420608234690136,"137":0.0969105213441551,"138":0.1375816125038586,"139":-0.02061374088655537,"140":-0.33344082309821516,"141":0.04321377567887535,"142":-0.3380453087764536,"143":-0.055326265762342654,"144":-0.4658085402291546,"145":-0.019088748724104945,"146":0.12866142762860194,"147":-0.21219097348006527,"148":-0.2740979740300582,"149":-0.05641065046650086,"150":0.0568235320931586,"151":-0.2712495035884903,"152":-0.0006906517933254,"153":0.13466474932398778,"154":-0.0736491218988687,"155":-0.3642468881681342,"156":-0.05450957683982954,"157":-0.2459550429287983,"158":-0.04295024258514362,"159":-0.38628082139189646,"160":0.24809885931180758,"161":-0.09688405698312037,"162":-0.5587784510576096,"163":-0.010930941791574127,"164":-0.003796588086578563,"165":-0.351150098636989,"166":0.24516499393578525,"167":-0.15296904214787493,"168":-0.03235102709958532,"169":0.11720509785100412,"170":-0.2999905051132307,"171":-0.03771719769725978,"172":-0.08847367277972293,"173":-0.19158060113172995,"174":0.16531055852321797,"175":0.03965071292923978,"176":-0.6083515420044697,"177":0.08382376761558251,"178":-0.21037147301017836,"179":-0.09608696361722972,"180":-0.4551971520692797,"181":-0.08915704790880538,"182":-0.5116803573629426,"183":0.020507418288220038,"184":-0.14996435571863279,"185":-0.07062840186050312,"186":-0.29565023696224924,"187":-0.25622150834469504,"188":-0.36741136764714,"189":-0.18473620479786146,"190":-0.11903725913514891,"191":-0.12359883595138964,"192":0.36550248168104427,"193":0.009579229568957919,"194":-0.22297015913987145,"195":-0.0010144516545105482,"196":-0.15736228734627158,"197":-0.17361091398754067,"198":-0.16072123861944732,"199":-0.05417574702953662}},{"sx":5,"sy":5,"depth":8,"w":{"0":-0.5527305148683064,"1":-0.2130474578561906,"2":0.44128571647399273,"3":0.09523838768458491,"4":-0.21639794233211473,"5":0.20526341357872502,"6":-0.2132305685375558,"7":-0.36604481282392437,"8":0.08701151532202157,"9":-0.1484585595468814,"10":0.003674347189711476,"11":0.140956956403533,"12":0.053819863601694544,"13":-0.09389319992488881,"14":0.03586094402908632,"15":-0.05873961117736652,"16":0.08938520316914772,"17":-0.22269386647480072,"18":-0.23682991265961228,"19":0.08614739545120376,"20":0.2528998431661482,"21":0.20939007346079833,"22":-0.02273698150968052,"23":0.3966053723095023,"24":0.1962245406046097,"25":-0.17873286639322927,"26":-0.14848992381486514,"27":-0.07978469615629424,"28":0.05892507884994786,"29":0.11619695308376252,"30":-0.07916198195383554,"31":-0.018604648456227123,"32":-0.007602874814511802,"33":0.04477090111684921,"34":-0.08706823183970756,"35":0.12911139913146075,"36":-0.02038750843030657,"37":0.1518613437994598,"38":-0.11053497197712533,"39":0.0847614244839269,"40":0.19406301921117974,"41":-0.2140404918452182,"42":0.01682962194873433,"43":-0.12110041720094292,"44":0.2796063238670296,"45":-0.21409027910024492,"46":-0.017799428458530678,"47":0.08401886211199285,"48":0.3016182229435982,"49":0.10751268258093989,"50":0.012891094921607409,"51":0.09203393955702992,"52":-0.0075134033186400485,"53":-0.10124820649176222,"54":0.1592739143751437,"55":-0.10702600825171132,"56":0.2644929430611451,"57":0.14951960620759588,"58":-0.15461612392004462,"59":-0.009383460369209859,"60":0.08089981974055392,"61":0.15966438241276068,"62":-0.0004973483717838377,"63":0.024622648141871026,"64":0.01243773817843501,"65":-0.029533057937965006,"66":-0.16534951733166786,"67":-0.12381209529057122,"68":-0.05144995995852365,"69":0.006352911559069591,"70":-0.16776662548632318,"71":-0.14148415108093643,"72":-0.10336550163521244,"73":-0.06789515037374923,"74":-0.1788090538333355,"75":-0.10663098538485731,"76":-0.07754729983003938,"77":-0.08483845560634029,"78":-0.20821792060232278,"79":-0.25877148984715176,"80":0.7915035951457186,"81":-0.05566389717763969,"82":-0.47163691838207206,"83":-0.1014477616425142,"84":0.13456666809556442,"85":-0.195819020089624,"86":0.24671170724429337,"87":0.20962344816343909,"88":0.16194787345703698,"89":0.33589514977723883,"90":0.0070840158724849705,"91":0.11621015406139855,"92":-0.2471259765412861,"93":0.13785391076351156,"94":0.5634293931373533,"95":0.040164502866572936,"96":0.1711180724502522,"97":-0.01410950229934833,"98":0.06291377880855069,"99":-0.00005091673578935862,"100":-0.14680581610369878,"101":0.25871952085579975,"102":-0.049629387807836066,"103":-0.017062928510225717,"104":-0.06067597471182331,"105":-0.1607960680227098,"106":-0.07992894806617871,"107":-0.11505768603261063,"108":-0.18110273923237938,"109":-0.15021845809523862,"110":-0.1777525020852469,"111":-0.3984665141806736,"112":-0.22169898572458857,"113":-0.35954083092180006,"114":-0.3074047004052064,"115":-0.2790737615443854,"116":-0.20784392160017745,"117":-0.22491336168719464,"118":-0.258855201273655,"119":-0.27635275463651304,"120":0.48531849594534987,"121":0.42774611455302264,"122":-0.138144543396793,"123":0.17392127862820364,"124":0.12148941187919993,"125":0.14511376350055286,"126":0.33871991839783494,"127":0.12961404335478272,"128":0.15508164640423977,"129":0.028668079386562857,"130":0.1544821358696246,"131":-0.13842254233895115,"132":-0.08397802068023147,"133":0.11514207826998572,"134":-0.23275434794837901,"135":0.07809803697568886,"136":-0.3185970909245926,"137":-0.0011912957889955752,"138":-0.061554224643529006,"139":-0.1082274676604522,"140":-0.26278492523481756,"141":0.11099991694098893,"142":-0.12380213591471367,"143":-0.20308832995259135,"144":-0.16280482024709342,"145":-0.39772898289716907,"146":-0.2078818248534934,"147":-0.29886938663878754,"148":-0.17760869110506985,"149":-0.23393315837073528,"150":-0.14929426279007652,"151":-0.23421490275496415,"152":-0.14746937678479483,"153":-0.38792278247239986,"154":-0.01702450430119168,"155":-0.30410594503815364,"156":-0.17804051171342772,"157":-0.17566914100589137,"158":-0.25322111727618096,"159":-0.2214377143218759,"160":0.024985763454017824,"161":-0.046128291981993357,"162":0.1039650413729789,"163":0.11977791091572162,"164":0.27817969913252993,"165":0.09037165778028945,"166":0.004329888101088164,"167":0.012039130583546326,"168":-0.04947841044630901,"169":-0.1744002267409449,"170":0.17462707227067237,"171":-0.8387017688508741,"172":-0.025903581468076708,"173":-0.47170860180463703,"174":0.01621265727076141,"175":0.13100414426440404,"176":-0.2268648338989713,"177":0.2997301361972289,"178":-0.04592037904208576,"179":-0.40130026466494273,"180":-0.0018095102402725881,"181":-0.08592395767301564,"182":0.10051498701697338,"183":-0.016058513345621066,"184":-0.3803377689161987,"185":-0.2945782068568538,"186":0.01595684664270271,"187":-0.11384247127156664,"188":-0.07581986191254823,"189":-0.23645686339966424,"190":0.08678051480537628,"191":-0.12070269296034915,"192":-0.23189036732099122,"193":-0.15375760276087716,"194":0.15626003017115234,"195":-0.1424453727447393,"196":-0.037865537387940774,"197":-0.2473427316769868,"198":0.1420088105155039,"199":-0.24608679883157672}},{"sx":5,"sy":5,"depth":8,"w":{"0":0.013245479591927461,"1":0.06268689218482955,"2":-0.1218721594571409,"3":0.02938407829581058,"4":0.039749318559233075,"5":-0.07420820352336177,"6":0.023825373336406202,"7":-0.18281225638648108,"8":0.07038469962635904,"9":0.21282454084952301,"10":-0.21823218752887097,"11":0.17398255578193908,"12":-0.0674839711793948,"13":0.020868218886401495,"14":0.019413728442398314,"15":0.010302067876924774,"16":0.08576397478215854,"17":0.2049076335578744,"18":-0.12583833030778308,"19":0.022863579129937688,"20":-0.07743897061541288,"21":-0.019837716774588517,"22":-0.15736598724494502,"23":-0.023141720210782646,"24":0.027717145021570667,"25":0.12460526538110185,"26":-0.06393624323595287,"27":-0.13796805852998095,"28":-0.2180216469695727,"29":0.19643898358992143,"30":-0.12008507078288556,"31":-0.09406854259728613,"32":-0.013680658831408883,"33":-0.08152895204977366,"34":-0.08651581214783637,"35":-0.12364282036576484,"36":-0.3392182248708406,"37":0.1285673213076338,"38":0.007970488110209879,"39":-0.32297914291469304,"40":0.20415087347375785,"41":0.11881551153608204,"42":-0.302838810118804,"43":-0.014717714594240632,"44":0.005653706518125948,"45":-0.029728485358504166,"46":0.027275762212258702,"47":0.09498844398356837,"48":0.03438328598179374,"49":0.12644418513235606,"50":-0.18371074189118072,"51":0.049804578770654855,"52":-0.13944554890368466,"53":-0.14620545205251048,"54":-0.18931922648158753,"55":0.10535487476885685,"56":-0.004846704677583252,"57":-0.008625846539548558,"58":-0.21514048117762863,"59":0.008124607117184542,"60":-0.22546422891576737,"61":0.1622456875088291,"62":-0.17547593723347724,"63":-0.08204972514567824,"64":-0.1393164230212215,"65":-0.26530457466388707,"66":-0.014312965362712735,"67":-0.3377475053686896,"68":-0.16152435253374053,"69":0.07952491765694987,"70":-0.06959896399154748,"71":-0.2068652486321996,"72":0.020445256147852527,"73":-0.15799304195655364,"74":0.14278064961126738,"75":-0.35451619216762814,"76":-0.21216027732381637,"77":0.07148726399541584,"78":0.19943250880795635,"79":-0.36579073351096,"80":0.2612452315453522,"81":0.12854838346302325,"82":-0.21261142543534378,"83":-0.10944479483813976,"84":-0.12884910526519663,"85":0.06428902828630646,"86":-0.2054746708293504,"87":0.10196834363608255,"88":0.01006530713282454,"89":0.06675559393493809,"90":-0.1597719990357497,"91":-0.25375320921857536,"92":-0.14270477743036894,"93":-0.13119091437101987,"94":-0.27763647887820897,"95":-0.06531565488816049,"96":-0.06378317099869213,"97":-0.3025076770515816,"98":-0.06156303334889264,"99":-0.3924389713401583,"100":-0.24575063789805818,"101":-0.10807494005203742,"102":-0.007160604258947607,"103":-0.19998274620485615,"104":0.08756582438508118,"105":-0.16999248055005198,"106":-0.018993457593386213,"107":-0.47606992281102467,"108":-0.29261742497216015,"109":0.05365358808495176,"110":-0.06718545801068705,"111":-0.28304818552933303,"112":-0.11283181925183894,"113":-0.14694453273633998,"114":-0.061307925803024785,"115":-0.20276436194956202,"116":-0.26941146149396167,"117":-0.03899192646934307,"118":-0.10764467023643792,"119":-0.22881105092670842,"120":0.3014059862282525,"121":-0.05778485203041514,"122":-0.24184907152149224,"123":-0.3013798351985791,"124":-0.3035897004467107,"125":0.10027035679059015,"126":-0.0821982845113145,"127":-0.19633624615268613,"128":0.1484975256615018,"129":-0.3504400871711069,"130":-0.21891805150980412,"131":-0.5402302822468277,"132":-0.055123020988563705,"133":-0.16332016103550134,"134":0.19928772913456405,"135":-0.13299798061339838,"136":0.10302771821119115,"137":-0.13718287661091624,"138":0.3545477615196363,"139":-0.41306074349712624,"140":-0.1617132768981513,"141":-0.07853789808850357,"142":0.13123277191471022,"143":-0.24589022132718633,"144":0.23382938585907967,"145":0.06541481724967882,"146":0.3716681532749725,"147":-0.21025686330275722,"148":-0.2010597876844036,"149":0.09407120299788128,"150":0.13163493059590703,"151":-0.1289166684158757,"152":-0.2006455517845186,"153":0.11457542021115248,"154":0.11330652949729922,"155":0.008050185210320835,"156":0.03100584736109163,"157":0.012271173582319477,"158":-0.11856086232633152,"159":0.03414956563008782,"160":0.21729723951871074,"161":0.2753945930779379,"162":-0.20045647223091764,"163":-0.4571888867653409,"164":-0.2370209447863634,"165":-0.1257433547651073,"166":0.21327352123358265,"167":-0.0745318005308222,"168":0.3548532585911438,"169":-0.2484649515515554,"170":-0.12398003146126127,"171":-0.5805967757752784,"172":-0.045217968402825215,"173":-0.3571604947830045,"174":0.4068760427938989,"175":-0.020135768310394507,"176":0.6205968766815445,"177":0.13526925803328613,"178":0.11216772425641927,"179":-0.25288012232411716,"180":0.028426517476120162,"181":-0.048787170206355285,"182":0.25797986544951956,"183":-0.18861333111604825,"184":-0.0013574851920003606,"185":-0.14015149207251226,"186":-0.04727500903270756,"187":-0.19456160514425871,"188":-0.00816532750602432,"189":0.07237893279320884,"190":-0.028869853582177172,"191":0.13236003697706009,"192":0.17663801124345618,"193":-0.18463333985900948,"194":0.06070765337119699,"195":-0.23475717339361651,"196":-0.2920769258822871,"197":-0.09534437990873176,"198":-0.1460159390045557,"199":0.13633931882023523}},{"sx":5,"sy":5,"depth":8,"w":{"0":0.29151881978802,"1":-0.5161689377401647,"2":0.13534218826900862,"3":-0.796243014995286,"4":-0.16835495330250203,"5":-0.4012027227309194,"6":0.2925259939203325,"7":-0.5019947560165593,"8":-0.025215344118018193,"9":-0.4059807983048521,"10":0.0219571220900226,"11":-0.7390366101672168,"12":-0.25171389438504466,"13":-0.4823285159794042,"14":-0.24197549096254542,"15":-0.24932671178950344,"16":-0.10325577175991796,"17":-0.18187135440999558,"18":-0.1379217989312309,"19":-0.33198819259364276,"20":-0.14451165206259764,"21":-0.5415948363637292,"22":-0.5580840155807474,"23":-0.3916067191205701,"24":0.03630182997320247,"25":-0.3321419173625159,"26":-0.3323741203556064,"27":0.03495050277494298,"28":-0.11054366210679334,"29":-0.5726734031066993,"30":-0.3699941138814839,"31":-0.33522066297916947,"32":0.1992641210601108,"33":-0.34396829026082865,"34":-0.3477620389164763,"35":0.4958456435564397,"36":-0.14212769730266378,"37":0.11667007839770027,"38":-0.44773906725304063,"39":0.05801408985174998,"40":0.10817265414384997,"41":-0.18945552259010387,"42":0.00006074750547573212,"43":-0.3402274765641355,"44":-0.03189279044015274,"45":-0.10752530820713689,"46":0.0722519762629301,"47":0.26503338905501744,"48":0.03943423457128205,"49":-0.28770657156275414,"50":0.33885782247111224,"51":-0.11960914574834272,"52":-0.0523225790416557,"53":-0.03064241067928467,"54":0.20349917057604425,"55":0.095799178654838,"56":-0.04745735764602708,"57":0.06806137836684249,"58":0.21539692687509504,"59":-0.13106234616714282,"60":0.13768645534846263,"61":0.040263344097142995,"62":-0.1272623774339569,"63":0.21322522506311414,"64":-0.028259810787228373,"65":0.1532247072001875,"66":0.051133079859837956,"67":-0.4058853963971489,"68":0.0015943343757333975,"69":-0.19198362707663752,"70":0.03935601328124086,"71":0.04173012930885816,"72":-0.1444862643892332,"73":-0.030325575646851642,"74":-0.20240762031033072,"75":-0.4686513923353944,"76":0.062067180408706145,"77":-0.21908650700758103,"78":0.22288648377780243,"79":-0.03289634436078401,"80":0.049962004333930894,"81":0.1959946998829683,"82":-0.22831942775068464,"83":-0.19052120583127397,"84":0.08172435486777105,"85":0.17296535124863505,"86":-0.1187396402266556,"87":0.3487251527930988,"88":0.1315179802686426,"89":-0.2349492894450349,"90":0.23162968644390922,"91":-0.01806850321382856,"92":0.09216987920374257,"93":0.10488144454010942,"94":-0.05562346350829326,"95":0.03896063645077752,"96":-0.05329641082200923,"97":-0.07313169509189002,"98":0.2331569122690743,"99":0.17171705031921689,"100":0.20490882251617704,"101":0.30212799845521016,"102":0.15221166052871543,"103":0.2961596838568713,"104":0.4494699196734109,"105":0.027842812290948614,"106":0.15230849859889242,"107":-0.04567638194736831,"108":-0.07245936977786362,"109":0.17934153424487925,"110":0.033146393505405325,"111":-0.14581611922990684,"112":0.15734909246541212,"113":-0.12828903331541475,"114":0.47249841497323186,"115":0.025056233367912656,"116":0.39283603047899,"117":0.10444680223557129,"118":0.19698824955522382,"119":-0.043486960750641644,"120":-0.053745157013487366,"121":0.11574637539012625,"122":-0.11504945325468878,"123":0.09233001375951422,"124":0.16970150616299595,"125":-0.002751456553974456,"126":-0.23230901282334218,"127":0.03959657465444072,"128":-0.08304598705055252,"129":-0.013778592409440484,"130":-0.14297386604642093,"131":-0.07086964982170664,"132":0.2316947003206013,"133":-0.0829933154055362,"134":-0.504182170427696,"135":0.08297802246362082,"136":-0.18166466114788032,"137":-0.024646082068611228,"138":0.08923679112287645,"139":0.008828105378083656,"140":0.1968192596642409,"141":0.054764460673044094,"142":-0.17595235943661236,"143":0.12796079092460783,"144":0.07721988871551341,"145":-0.04567988493535634,"146":0.0960543527228985,"147":-0.11933615654169581,"148":0.030630173683087507,"149":-0.033658744635417986,"150":-0.29511072063459903,"151":0.018187639217238146,"152":0.34300549383870454,"153":-0.1894075107092637,"154":0.09271835804239882,"155":-0.0199065810851674,"156":0.12672075293134274,"157":-0.004041247744107212,"158":-0.16683077470012506,"159":0.04615273194700701,"160":-0.04957195663867525,"161":0.09518459178464536,"162":0.04207427000688333,"163":0.42483328867327563,"164":-0.12533712451922752,"165":0.3992376314343703,"166":-0.5560360972057695,"167":-0.20174911627660483,"168":-0.14106166225531275,"169":-0.06687055824763129,"170":0.07935697010173286,"171":0.07074373249666063,"172":0.13434715778619116,"173":0.10061041134130314,"174":-0.5204451204306294,"175":-0.13867613849638485,"176":-0.1825354313079959,"177":-0.2582182227285317,"178":-0.34963609554658764,"179":0.3595074549870956,"180":0.25143838884460107,"181":-0.20448018690643094,"182":-0.34295481218364104,"183":-0.17671757328432258,"184":0.18144627767213986,"185":-0.20647729607613488,"186":-0.24777151885751894,"187":0.33768294002471616,"188":-0.062164855542842165,"189":-0.16444185872697795,"190":-0.45594434504341463,"191":-0.13053548812594362,"192":-0.0015106336805725115,"193":-0.05594505573014463,"194":-0.13836585926336004,"195":0.005954936353273675,"196":-0.03824243214074733,"197":-0.10922297410576438,"198":0.0017024833513920974,"199":-0.09723155715175993}},{"sx":5,"sy":5,"depth":8,"w":{"0":-0.10455081940959839,"1":0.07537855948992972,"2":-0.3168174908424188,"3":0.3309234840171466,"4":0.05287793869527542,"5":-0.09093164932261633,"6":0.16892886512170174,"7":-0.060420773954518975,"8":-0.0615548545417764,"9":0.3162429490935066,"10":-0.09149332993288804,"11":0.42109921813419926,"12":-0.07967216701602926,"13":0.1890683640731576,"14":0.23121229024435738,"15":0.06530506529822998,"16":0.19819479056420758,"17":0.17216295077983473,"18":-0.08625812744476777,"19":0.4663791310662522,"20":-0.1619591087881584,"21":0.19760070504035918,"22":0.11474205402857648,"23":0.04582890779340192,"24":0.04623155575727423,"25":0.19821845975208072,"26":0.00834442507947323,"27":-0.07168499435647686,"28":-0.17023171661334488,"29":0.3113020613177169,"30":0.14147781943503585,"31":0.24571266335453384,"32":0.12543579701857427,"33":0.5603849947745022,"34":-0.3285041092933463,"35":-0.08466988682230998,"36":-0.035031414621070116,"37":0.01029852247903292,"38":0.2179796692272866,"39":0.04036585381010775,"40":0.10628307023211017,"41":-0.16563407197750496,"42":-0.30117332596584,"43":-0.26977943988632,"44":-0.29437806552352475,"45":-0.23132158439037026,"46":0.07054816479111357,"47":-0.28281377865877805,"48":0.005255703614512654,"49":-0.05022614207141749,"50":-0.14376402243936628,"51":-0.17654660848729292,"52":-0.4002580579239096,"53":0.004995625602390444,"54":-0.1916533207853785,"55":-0.2516038124649668,"56":-0.033722031412964384,"57":-0.22101067711086725,"58":-0.19499501081092643,"59":0.11421529293881039,"60":-0.21860743277427447,"61":0.045359064452308466,"62":-0.3526658125258343,"63":-0.3351200183886073,"64":-0.03791411701537507,"65":-0.2621436406212991,"66":-0.128982772459168,"67":-0.030361896758202406,"68":-0.10267372917465094,"69":0.022320437404386464,"70":0.027083916421906693,"71":0.017851344706976413,"72":0.041243515349796867,"73":0.29082407911045693,"74":-0.27508480028821847,"75":-0.12248804617765867,"76":-0.12351833883567823,"77":-0.176428398838866,"78":0.08332897178594408,"79":-0.15627333259869414,"80":0.14691761059420852,"81":-0.05332597252464765,"82":-0.29026334364461165,"83":-0.3943055620054817,"84":-0.4096401322901745,"85":-0.1979024543615445,"86":0.11843035463441987,"87":-0.29220929732408024,"88":0.17203003765838526,"89":-0.206807995611096,"90":-0.05042053307817812,"91":-0.33191005291143194,"92":-0.29150869767975474,"93":-0.3504599593948826,"94":-0.07795447035483169,"95":-0.16219113161990345,"96":-0.07007690776126112,"97":-0.19326078812884573,"98":0.19168577147274835,"99":-0.047491007994920634,"100":-0.3056621258662005,"101":-0.30766495777648617,"102":-0.42653982368565296,"103":-0.1475912083147212,"104":-0.42942894843551677,"105":-0.48057233619518264,"106":-0.02954705029684253,"107":-0.037803405271078915,"108":0.09268389813801156,"109":-0.5791151360734889,"110":-0.09570458432042035,"111":-0.07935610396587743,"112":-0.06132358588098773,"113":0.0054915683394350205,"114":-0.3251139786598087,"115":-0.25041457112658616,"116":0.029889595269266572,"117":-0.6250357325043654,"118":-0.12214668574257492,"119":-0.17215735003092436,"120":0.17562634021161372,"121":0.008385431670687784,"122":-0.03253968859234311,"123":-0.48534567239582477,"124":-0.13787117905013024,"125":-0.19600255119847232,"126":0.22813108967302761,"127":0.15402095790978926,"128":0.058385749455363185,"129":-0.09236148648821181,"130":0.33610629390122343,"131":-0.00038454680022005617,"132":0.03139745689573183,"133":0.11040945203541962,"134":0.09533432535313996,"135":0.25373861843428136,"136":-0.14824655424798538,"137":-0.022762076619878783,"138":0.4943953329936362,"139":0.14985761415418328,"140":0.35424196061202695,"141":0.23787631539576526,"142":-0.21895860616865614,"143":0.17782306988761573,"144":-0.7307466509543772,"145":-0.483325979098757,"146":0.1480466811107482,"147":0.02174515935108163,"148":0.27928558486380545,"149":-0.1306661136384178,"150":0.05491142745980169,"151":0.009911203872071112,"152":-0.13905234678453907,"153":-0.3420813908575589,"154":-0.06455530889902296,"155":-0.22511133568904415,"156":0.07566698368707667,"157":-0.47382915314554097,"158":0.20054487676148883,"159":0.022193927068335496,"160":-0.035620757324219134,"161":0.1789144329157252,"162":0.454321670245716,"163":-0.08634605586190915,"164":0.015322918204488339,"165":0.3063244802818312,"166":0.1209165599379049,"167":0.44070589385994774,"168":-0.10178920595412434,"169":-0.27907955996256595,"170":0.35444836713508665,"171":-0.058649230559225794,"172":-0.09455314104181217,"173":0.3554847696489662,"174":0.056378457064457904,"175":-0.14247685514495764,"176":-0.2516613412098795,"177":-0.13681511336453936,"178":0.16884573399431077,"179":-0.009323835437729397,"180":0.09721989834353315,"181":0.26838834831959296,"182":0.018265054018758876,"183":-0.23797542458286555,"184":-0.1748611515222015,"185":-0.15548000873744083,"186":-0.11046762060931099,"187":0.10386242695057381,"188":0.1564435963649513,"189":-0.0831795513321862,"190":-0.069210306596403,"191":-0.03394786001659027,"192":-0.06434062965775526,"193":-0.11425161264439046,"194":0.09208318076193603,"195":-0.2941888480868565,"196":0.10807527271956188,"197":-0.1667922085324946,"198":-0.15856869379789504,"199":0.08352027740808604}},{"sx":5,"sy":5,"depth":8,"w":{"0":0.24226873950177547,"1":-0.0504731416893232,"2":0.1509490533739562,"3":0.40420439525288576,"4":0.37178543098636047,"5":-0.20906786174855518,"6":-0.11230984584135995,"7":-0.2125458607765317,"8":-0.3240404161412509,"9":-0.0359036354547756,"10":-0.14132066232818735,"11":0.08356911280364492,"12":0.36935617170905305,"13":-0.2206236979153861,"14":-0.2893096720735747,"15":0.32118298815306,"16":-0.29734895137686224,"17":0.037880062780728106,"18":-0.006860091283165024,"19":-0.13949337868357672,"20":0.2567288011217086,"21":-0.16128958073106434,"22":-0.030895101384207313,"23":0.30286711205809275,"24":-0.35098106958235975,"25":-0.09486300277372064,"26":-0.06417086979062016,"27":0.1543252415814044,"28":0.02684802808102245,"29":-0.15388272766163247,"30":0.21377346709727696,"31":0.02003295418836903,"32":-0.02858883833671695,"33":0.24072477536546616,"34":-0.25308829951916223,"35":-0.21062958054003683,"36":-0.14238552122071818,"37":-0.14694791533062318,"38":-0.032776407006518966,"39":-0.13144873042689237,"40":0.13424419768908388,"41":-0.06764735515289806,"42":-0.25416801911783093,"43":-0.10046450865258631,"44":0.22322875349962124,"45":-0.2790734750196907,"46":-0.09333478953610244,"47":0.13946863398682277,"48":-0.2630733267271567,"49":0.20002392564650098,"50":0.10109589461649196,"51":0.13407601636826305,"52":0.023287557210754876,"53":-0.007103951714834095,"54":0.18129371933047395,"55":0.34738343152252776,"56":0.0070852334742350686,"57":0.3204572097636489,"58":-0.01655440897273783,"59":-0.043303955686718854,"60":0.009327958840841895,"61":-0.04325883252873436,"62":0.03585909295266225,"63":0.3219553356672182,"64":0.12299211376348056,"65":0.23145628312156744,"66":-0.2808627152484026,"67":0.16763321189122118,"68":-0.09411071885388897,"69":-0.23369319497024782,"70":0.00583168577337056,"71":-0.31712887039974824,"72":-0.12269906278803636,"73":0.12448341469481587,"74":-0.4253874895553389,"75":-0.3149944716805226,"76":-0.14255365054111044,"77":-0.39834500471733747,"78":0.04210826664607482,"79":-0.13008799776345376,"80":0.20399836209604244,"81":0.24675771291264748,"82":0.06339458903160253,"83":0.17541526359260012,"84":-0.1272041995828973,"85":0.3462122817345558,"86":-0.082927300294489,"87":0.058461496368785074,"88":0.13194914962308352,"89":0.3537916641438651,"90":0.22285422245740508,"91":0.12599305499830235,"92":-0.2918175206417645,"93":0.378128567284117,"94":0.14099993550369483,"95":0.11660517774046711,"96":0.20181724723321406,"97":0.2082730419304583,"98":0.1037462925649758,"99":0.1296683058552044,"100":-0.3092239672052558,"101":0.1815238231423438,"102":0.011128909780938572,"103":0.19169318643915903,"104":0.019145261659921968,"105":0.1403280114280664,"106":-0.3322085674949819,"107":-0.009351293662703068,"108":-0.15417576693412832,"109":-0.16100503572132213,"110":0.15706432237140297,"111":-0.2791726234183219,"112":0.03105762876744,"113":-0.14093392661668308,"114":-0.16171994630145808,"115":-0.16739123842032178,"116":-0.011417121493306988,"117":-0.6680441857861813,"118":0.30406625943046106,"119":-0.13930722452169497,"120":-0.4313499955440237,"121":0.18551689669876514,"122":0.42301618704788435,"123":0.2943170427632475,"124":0.08308713631576453,"125":0.5840561447324728,"126":-0.5872698153120368,"127":0.14222742696109675,"128":-0.16688883679052863,"129":-0.2264019573660238,"130":0.042264305236739526,"131":-0.005668984583398003,"132":-0.07306200950272719,"133":0.10308851250561821,"134":-0.36105637036871885,"135":-0.056972101076360276,"136":-0.0708273631501289,"137":-0.3381633507767998,"138":-0.3341941633778045,"139":-0.5066811889903249,"140":-0.3442743538034358,"141":-0.1410635210446072,"142":-0.04815731194183952,"143":-0.16019009490937106,"144":-0.03847216150477525,"145":-0.16391652964293138,"146":-0.09100521715271363,"147":-0.1283472935599156,"148":-0.22308272657679912,"149":-0.4737651039719481,"150":0.2561560211950789,"151":-0.25225146524631475,"152":0.02803340177411611,"153":-0.25984013281342677,"154":-0.34894562424119424,"155":0.04039891350195503,"156":-0.15221042318933542,"157":-0.4571967972039873,"158":0.34808411387513977,"159":-0.133714723940662,"160":-0.040464494401123034,"161":-0.267451779326869,"162":0.05338779521213965,"163":-0.071455669377047,"164":-0.1403167701357522,"165":0.1657144468661155,"166":-0.32768858985510363,"167":-0.2212694725853593,"168":-0.09324937286087837,"169":-0.20664649342299363,"170":-0.25808045846153677,"171":-0.17679438588070231,"172":-0.1714262276790375,"173":-0.08483725860534634,"174":-0.20532277961856124,"175":-0.1980565402485607,"176":-0.22194736773352647,"177":-0.26360358692112157,"178":-0.21913606292683074,"179":-0.13697001353552724,"180":-0.0419772387848346,"181":-0.2045956848669697,"182":0.08141943316315618,"183":-0.1727766617100276,"184":0.15751935233929937,"185":0.01440726537156217,"186":0.041231778806479186,"187":-0.21312687187092494,"188":-0.10242716485979134,"189":-0.23529489959270913,"190":0.3190553067810693,"191":-0.24168148972606587,"192":-0.16064911800452178,"193":-0.19521660402345378,"194":-0.09422499344107473,"195":0.16737072104399453,"196":0.17693764058252312,"197":-0.24751305261149187,"198":0.3764680828017416,"199":-0.12123831713554462}},{"sx":5,"sy":5,"depth":8,"w":{"0":-0.7777377655940818,"1":0.09601545016291146,"2":0.1989254492365339,"3":-0.21094946069506176,"4":0.3856972784686593,"5":-0.2852983292274258,"6":-0.7169385969560921,"7":0.11713966717619483,"8":-0.5995593045496015,"9":0.17006401872461058,"10":-0.08505155679717938,"11":0.06272011758038577,"12":-0.15905195836947272,"13":-0.35685649102732186,"14":-0.32141232379524337,"15":-0.38255217833138466,"16":-0.08016848066157406,"17":-0.21328771423704662,"18":-0.15635737846893288,"19":-0.1893615029901736,"20":-0.353800700573829,"21":0.2573095441109769,"22":-0.7630670953303733,"23":-0.527639257433817,"24":-0.24076167237669216,"25":-0.5356027798878927,"26":0.1634942580212472,"27":-0.35786920695360963,"28":-0.379161424462168,"29":0.5738096507152813,"30":-0.6916563712072671,"31":-0.5023267905616191,"32":-0.24440486062187652,"33":-0.3404776749515588,"34":0.3631300462251254,"35":0.048622303389236586,"36":-0.27760828342358024,"37":0.2675656652149375,"38":-0.47182953188104987,"39":-0.19310009331795105,"40":0.14702170078291146,"41":0.1267133332215913,"42":-0.22380155608446567,"43":-0.03183541658477149,"44":0.017863328114262906,"45":0.08081785248302528,"46":0.0021773195414283263,"47":0.2788980613673674,"48":-0.21834323614713375,"49":0.40208101932422113,"50":-0.2944879753578049,"51":-0.09545836156737897,"52":-0.2543409611996298,"53":-0.18983398711248634,"54":-0.22974381935923247,"55":0.09657445516908818,"56":-0.28509862665085756,"57":0.4057044869397346,"58":-0.10714000212512081,"59":-0.22050427227878905,"60":-0.2310646942009631,"61":-0.48404439425914914,"62":-0.010009093812314377,"63":-0.31053808194506094,"64":-0.2747183185475259,"65":-0.21810163888380335,"66":0.3927171550285413,"67":-0.10048339558862991,"68":-0.19675480664393413,"69":-0.7979468534894746,"70":0.3676518345192527,"71":-0.32729436052117566,"72":0.10270367995171778,"73":0.228481824872082,"74":0.6756780416915633,"75":0.20740546405321672,"76":0.0200378115389376,"77":-0.34502559754221374,"78":0.38303138878954407,"79":-0.17231280258685402,"80":0.42500597471847035,"81":0.19973973197418998,"82":-0.17040891475056363,"83":0.10149040783282894,"84":-0.32827976022238897,"85":-0.10139116036084117,"86":0.3691144891526121,"87":-0.06840456055363835,"88":0.3932857843446383,"89":0.4836774629092279,"90":-0.11781846175594345,"91":0.18506318462827262,"92":-0.39852309183044216,"93":-0.27987001727406446,"94":0.156773170723075,"95":0.05108489942380575,"96":0.2026618955035036,"97":0.47812478864221275,"98":0.07926409532431963,"99":0.4843176698863981,"100":-0.2381731656681804,"101":-0.15814788309800787,"102":0.18563569200010102,"103":-0.35776630115183955,"104":0.0854334097263398,"105":0.006739172611414426,"106":0.35199835096297094,"107":0.40752110609282094,"108":0.1139923882518771,"109":-0.1454954979062354,"110":0.26867635809917323,"111":-0.41536457936413584,"112":0.07111929903565486,"113":0.00956933715695484,"114":0.40501050048594306,"115":0.4436516644236665,"116":0.3223766133910568,"117":0.2878906354289145,"118":-0.23610923930114322,"119":0.10819683799133202,"120":0.5480842509374241,"121":-0.16211504433002305,"122":-0.0012047425351519388,"123":0.0030587971787548354,"124":-0.17964784862398878,"125":0.04194778264026379,"126":0.11773741639531267,"127":-0.5340981923043759,"128":0.10376798258587919,"129":0.10525933528607173,"130":-0.06660666973517032,"131":0.07758497656726349,"132":0.030031255354686297,"133":-0.157708131950306,"134":-0.24542020515035062,"135":-0.22190422389967834,"136":-0.08999282826809854,"137":-0.051081571368523655,"138":-0.27396878438340255,"139":-0.02904345761509129,"140":-0.045519357096952935,"141":-0.09354196220185515,"142":-0.47050234303477995,"143":-0.2944221768189276,"144":-0.046614835256692695,"145":-0.45404718686786977,"146":-0.15449936449974846,"147":0.015046527275277756,"148":-0.12015672560564501,"149":-0.044816062586752387,"150":-0.16116419951898311,"151":-0.377748639743363,"152":-0.07957562457652162,"153":-0.3360594577538155,"154":0.29643671012429856,"155":-0.13815609949762875,"156":0.3329144058541832,"157":-0.019235700836994045,"158":-0.4599826248809283,"159":-0.21000043485684483,"160":0.45395045355979075,"161":-0.3013696195807107,"162":0.005883405557174967,"163":0.10866317722049024,"164":-0.124830792420616,"165":-0.4236243782252046,"166":0.07128528053647834,"167":-0.30350276168119705,"168":-0.24877184517133907,"169":-0.3041843088084437,"170":0.15765905602802066,"171":0.02961925707915879,"172":0.1662194702771045,"173":-0.21778641831798037,"174":-0.042554653198564364,"175":-0.3796235071811026,"176":-0.0634482449626166,"177":-0.5172499901569234,"178":0.21577906703878924,"179":-0.26025721701619375,"180":0.3455172403652339,"181":-0.23343516227015598,"182":-0.1833241050804756,"183":-0.2818152473937855,"184":0.17367854534103852,"185":-0.288651238190252,"186":0.26726719861008175,"187":-0.20774497839804315,"188":-0.05581094082181833,"189":-0.15436939104850933,"190":-0.0033379954511800684,"191":-0.10145171353746095,"192":0.3942224438478371,"193":0.10881474906858654,"194":0.2850895495118961,"195":-0.03658838317221258,"196":0.04799990641255576,"197":-0.08607190420377603,"198":0.358808015297915,"199":-0.06414434921271993}},{"sx":5,"sy":5,"depth":8,"w":{"0":0.20900321029839125,"1":-0.23141524989084925,"2":-0.13690763629024624,"3":-0.04391415906975315,"4":-0.16317888883081685,"5":-0.2722519081231505,"6":0.11547180753487991,"7":-0.06500414950776137,"8":0.17780641421808016,"9":-0.2236863165912915,"10":-0.2988158167445037,"11":-0.02972544798023695,"12":-0.17330475376049165,"13":-0.07904774604939697,"14":0.20643649376311668,"15":0.027337169644712986,"16":0.11613091067893296,"17":-0.07360224189546853,"18":-0.11289680556055583,"19":-0.41825134675664766,"20":-0.2583203080268628,"21":0.028520499857592283,"22":0.2824543129873706,"23":0.11999516909901421,"24":0.6772392450616793,"25":-0.07156589628585724,"26":0.2792876823897061,"27":-0.7817814445146234,"28":-0.597041997714754,"29":0.161604453659568,"30":0.05745050790758363,"31":0.062425710337602934,"32":0.3576497875116304,"33":-0.11767567882091838,"34":0.4550758472805928,"35":0.06954506274448338,"36":0.12045914401426659,"37":0.1739503725672308,"38":-0.05228479474447195,"39":0.10604193382138144,"40":0.041438441811054834,"41":-0.04273160255769528,"42":-0.011945890475076807,"43":-0.12242146087209595,"44":0.009583621541750248,"45":-0.15035681590857208,"46":0.05694678082811518,"47":0.012684967316313491,"48":-0.13210279425763294,"49":0.07056880204443729,"50":-0.3232676046801339,"51":0.0038941598352280446,"52":-0.22668542842057965,"53":-0.14009374940021235,"54":0.17522897285896225,"55":0.05177545507109106,"56":-0.13109127732986614,"57":0.040349970822357986,"58":-0.2246145324025347,"59":0.1780424351808688,"60":-0.22968426852408833,"61":-0.10643960298389288,"62":0.050157843315322914,"63":0.23148237188775103,"64":0.14964266685082933,"65":-0.008843335935412146,"66":-0.07456151399670712,"67":-0.3692384924035977,"68":-0.22616685149370094,"69":-0.23322352034954696,"70":-0.6277632052148443,"71":0.4204901941394238,"72":0.5679912555691388,"73":-0.31573904522360735,"74":0.2785834773216624,"75":0.06549854776517575,"76":0.02851980476499774,"77":0.2301689109991577,"78":-0.36108372210081513,"79":0.3012985157452968,"80":-0.0634636882271112,"81":-0.08545917453584709,"82":-0.18677984410558962,"83":0.048357292308664125,"84":-0.07700672805703934,"85":-0.3210316741902975,"86":0.30306386322819523,"87":-0.22647776124518165,"88":0.07297552511924676,"89":-0.06209226159468127,"90":-0.3520025760423252,"91":0.03676299191160617,"92":-0.08261329133453121,"93":0.03740199804052447,"94":0.1582257513308136,"95":-0.1312880599190467,"96":-0.5323320001996923,"97":-0.34688029794790515,"98":0.32892949958894885,"99":0.43530998122369186,"100":0.20426088710341755,"101":-0.11844942179710183,"102":-0.08231475284503076,"103":0.29961342516922834,"104":-0.5313123822464482,"105":-0.5654804115090822,"106":0.5044352786365706,"107":0.2628451423645925,"108":0.5723784815174617,"109":-0.0066517933796004,"110":-0.759146153634248,"111":0.1922436815375511,"112":0.2147765247512216,"113":-0.2356210311584682,"114":0.19046344902691725,"115":0.08471549348125544,"116":0.24816275382631922,"117":0.04352469465241302,"118":-0.41999766068802064,"119":-0.26847425761769506,"120":0.159293358999146,"121":-0.166398358459658,"122":0.2210007528986428,"123":0.0774101123434732,"124":-0.21166648191275989,"125":0.07863708397353397,"126":0.004288669657722861,"127":-0.2410253158488119,"128":-0.0548994241820176,"129":-0.4242430891138939,"130":0.41914099787333003,"131":-0.2533771308851427,"132":-0.07493651140831353,"133":0.2064348686317768,"134":-0.03637886067543907,"135":-0.30320222249955964,"136":-0.3923559982557385,"137":-0.6149239556790655,"138":0.47113913727139745,"139":0.20135374256339647,"140":0.07067554025278175,"141":-0.009379792955497051,"142":-0.07575773994087441,"143":-0.2723152491040792,"144":-0.0535985511031304,"145":-0.24945911219877748,"146":0.17271095749579626,"147":0.0028447122998143605,"148":0.38789050227446625,"149":-0.17862219686528555,"150":-0.4778575940757563,"151":-0.07214369566100055,"152":-0.013898874542308967,"153":-0.3163857105643939,"154":-0.12245520370323863,"155":-0.1690892068883602,"156":0.4448757021354916,"157":-0.13875515612679815,"158":-0.802861396736416,"159":-0.17759229506549334,"160":0.06794310170240328,"161":-0.2532365840770536,"162":0.31295326340273516,"163":-0.3393160313193471,"164":-0.08896828654821383,"165":0.27505223430330766,"166":0.03273221387482749,"167":-0.3982116030794221,"168":0.2826565941790968,"169":-0.35176557260466196,"170":0.037341268911713715,"171":-0.3223828952490909,"172":-0.30828445250426223,"173":0.21387983318224954,"174":0.18403416646185689,"175":-0.39464479017548315,"176":0.4782270453950665,"177":-0.5574061725477513,"178":-0.166721801348055,"179":-0.6562052283638389,"180":-0.3424572592095187,"181":-0.008494883305735303,"182":0.29599600249413494,"183":-0.08181236971315418,"184":0.7319388961526204,"185":0.10155271317843642,"186":-0.21263548641182162,"187":-0.3025144430609731,"188":0.048474797630464916,"189":-0.02131263721665116,"190":0.2974830005365237,"191":0.21419993907024967,"192":0.35145773245319667,"193":0.08949502350013096,"194":-0.4166723888078653,"195":-0.14417644245449635,"196":-0.0007776608950967675,"197":0.2182921032371029,"198":0.22227284962648947,"199":0.18967079045808832}},{"sx":5,"sy":5,"depth":8,"w":{"0":-0.007258126402872527,"1":-0.0011078070566109515,"2":-0.01766931672656939,"3":0.0021168265159684694,"4":-0.020165133858935567,"5":-0.002909051366324457,"6":0.005592761839778499,"7":-0.0031017319804600655,"8":0.009736971139933359,"9":0.0023791074210436996,"10":-0.016618612928040972,"11":-0.01848958526072461,"12":-0.0010764944765345264,"13":-0.014892380933011153,"14":0.006717093629945813,"15":-0.013128967808986362,"16":0.0038861465574023123,"17":-0.01285448291858649,"18":0.007641587957042442,"19":-0.014170448120106718,"20":-0.010223238811846617,"21":0.0036294550774614302,"22":-0.01595027629225896,"23":0.00044522039945338196,"24":-0.028884789842861233,"25":-0.014669089437713417,"26":-0.014299363018904183,"27":-0.00857519410384681,"28":-0.0055624804091964665,"29":0.00850392955776353,"30":-0.01080321948706987,"31":-0.0032938063255249003,"32":-0.013636377880234037,"33":-0.008353751861114327,"34":0.010507340599702526,"35":-0.0036046340069152585,"36":-0.0032604104588512266,"37":-0.0009440486970162604,"38":-0.015175471097689798,"39":-0.0012666734864172859,"40":-0.00012200476192712163,"41":-0.0036540423209747166,"42":-0.0012374069213067055,"43":-0.019900800800496537,"44":-0.0037026563756972506,"45":0.007183037453580342,"46":-0.002538171417979163,"47":-0.0034162125340954363,"48":-0.004307555822385832,"49":-0.02238196567504906,"50":0.004051291086393302,"51":-0.004897557513014376,"52":-0.003542858316187818,"53":-0.02555027927534717,"54":-0.016941230850422328,"55":-0.002691299101957673,"56":0.010548038021657729,"57":-0.012331063287038842,"58":-0.000537838621413768,"59":-0.016730276478535228,"60":-0.004459439736407466,"61":0.005672701021304193,"62":-0.007981285520976796,"63":-0.007594027088806762,"64":0.007005850965299677,"65":-0.025667658016371782,"66":0.012984753847865252,"67":0.00325019014124059,"68":-0.00530109742922204,"69":-0.011818381895676045,"70":-0.005737823047634885,"71":-0.006808878552543279,"72":0.004760607943511166,"73":0.009498828192050569,"74":0.008009497449429229,"75":-0.01178358669617766,"76":-0.000813884601291609,"77":-0.02210533344240137,"78":0.006037511103444835,"79":-0.002246913759840225,"80":-0.026934284065982635,"81":-0.009976402563440902,"82":-0.004347395181652585,"83":0.014154699835601603,"84":0.001705206162750948,"85":-0.007331845560559372,"86":0.0008231979283257731,"87":-0.0008986978385323685,"88":-0.03098300457023344,"89":-0.018485854998311135,"90":0.0030999785983108854,"91":0.006634433024575243,"92":-0.015890996442490438,"93":-0.015365126880969386,"94":-0.0010472945495167123,"95":0.01019314415651403,"96":0.005663082303962075,"97":-0.008925372678353527,"98":-0.011810064971931608,"99":-0.0022766444328752144,"100":0.011823913147374843,"101":-0.020440123562005287,"102":-0.005797160159299534,"103":0.00850566177954591,"104":0.012293446190720413,"105":-0.02311538786434754,"106":-0.014309151814887447,"107":-0.009757988492681363,"108":-0.008304581998964194,"109":-0.011081128571044008,"110":-0.008666555601634438,"111":0.008525257698208888,"112":-0.0071817407529178,"113":-0.02368583467736047,"114":0.004317545991885726,"115":-0.006741794467999776,"116":0.009217006422350548,"117":0.0044822519605874755,"118":-0.0177793399959519,"119":-0.0249984199093184,"120":0.001223429454762854,"121":-0.0059099285490108525,"122":-0.005037287292361581,"123":-0.021983115269319977,"124":-0.021035435155490997,"125":-0.0027961818416818163,"126":-0.014062083830197872,"127":0.0013659597732823398,"128":-0.01591957301932769,"129":0.0018041706856512844,"130":0.002432846313790804,"131":-0.0006446554483327577,"132":-0.000194188338321746,"133":-0.003606902728786872,"134":-0.008876830988957616,"135":-0.005019179739982709,"136":-0.012630418805498872,"137":-0.00736256470704555,"138":0.011130851419865286,"139":-0.005569589041361653,"140":0.009579319022913603,"141":-0.010186032209730009,"142":0.009401919225136281,"143":-0.009764637041751458,"144":0.0033340132114785324,"145":0.0025250320898889556,"146":0.0012649465591397597,"147":-0.013173743517563697,"148":-0.009557491021470327,"149":0.0035538519940836585,"150":-0.02280623729773321,"151":0.0016787268261611705,"152":0.015370787170026113,"153":-0.001576955808814748,"154":0.0031428500951399332,"155":-0.012634924336196344,"156":0.01794753350001045,"157":-0.004126168810203652,"158":-0.012969010361682323,"159":-0.0014808211967362456,"160":-0.00793499014048963,"161":-0.026176819436799382,"162":-0.0031776442724981632,"163":-0.005703952896941696,"164":-0.0014701621941710622,"165":-0.009718761717045445,"166":-0.009403625680623934,"167":0.0010713449875287115,"168":0.00022092141032718684,"169":0.013835802591106254,"170":-0.022540627684839547,"171":-0.012101143952381517,"172":0.010128282219062658,"173":0.011241162846605366,"174":0.0025821760332113692,"175":-0.005240948675015748,"176":-0.0015262536085568245,"177":-0.018014912016270385,"178":-0.002279318413973919,"179":-0.004103280847434787,"180":-0.004813783346020027,"181":-0.003150545980884992,"182":-0.0273614246794658,"183":0.0034624230306982712,"184":-0.006782463328919096,"185":0.010003345044634397,"186":0.003424359400613911,"187":-0.0196388062814053,"188":-0.0038665617008480087,"189":-0.022412214918378436,"190":-0.006319027456374636,"191":-0.002934102745527702,"192":0.0013500733886297185,"193":-0.005732441920176144,"194":-0.013188981083261537,"195":0.0012933471226475558,"196":0.0031228046749716084,"197":-0.01133445679459037,"198":-0.010688206714482432,"199":-0.000438260960652793}},{"sx":5,"sy":5,"depth":8,"w":{"0":-0.2798887213006189,"1":0.15633178953607416,"2":0.0897187377933823,"3":0.4991605047283511,"4":0.13634894841759465,"5":-0.08302023464915421,"6":-0.3601750349499729,"7":-0.15381803431690869,"8":-0.11369796180114701,"9":-0.43489965023834953,"10":0.13476957189491903,"11":0.15535321534662844,"12":0.2555271390571328,"13":-0.21904815833712538,"14":0.06475794685110901,"15":-0.15036528539658237,"16":-0.1581317439078085,"17":-0.031255348811875604,"18":-0.2174885287787926,"19":0.10852286217234162,"20":0.22515900712687406,"21":-0.19706111328292247,"22":0.07487664315952401,"23":0.14786629993749487,"24":0.1063293405697458,"25":0.41155123089297174,"26":-0.21715613716418355,"27":-0.11669231048562616,"28":-0.004742097316210374,"29":-0.32927756624673005,"30":0.06076768180220921,"31":0.5019023175319757,"32":-0.07321115698666056,"33":0.08771961418459766,"34":0.35874574928825836,"35":-0.1723919472702618,"36":-0.1874598225520098,"37":-0.2630825553913213,"38":-0.029803376997166845,"39":0.10778602630064661,"40":-0.1522735323399908,"41":0.42361111776322785,"42":-0.20042014516245807,"43":0.2748309505691987,"44":-0.06667736719648973,"45":-0.18076865977113263,"46":-0.3478053281084355,"47":0.026188549059896916,"48":-0.24081192009431482,"49":-0.24490714090702037,"50":-0.4130325551395729,"51":0.03016214516606207,"52":0.06724009821546792,"53":-0.0835407812848408,"54":0.024445224740402685,"55":-0.28306206626622427,"56":-0.2450702796301489,"57":-0.16059356396949204,"58":-0.2786224287568132,"59":0.06620739890053569,"60":0.12253159843906644,"61":-0.012553556066702316,"62":0.01586523396105373,"63":-0.019980150177548846,"64":0.19932254677914557,"65":0.46773747198177307,"66":-0.24261492126251405,"67":0.0033488609150661465,"68":-0.12954711621887602,"69":-0.13325840583129206,"70":-0.029353001422957773,"71":0.1947902647334486,"72":0.020275537389896122,"73":0.17097206038147225,"74":0.035533643695193545,"75":0.012784772168484025,"76":0.039570497291378966,"77":-0.1573031427504741,"78":-0.27936433171304137,"79":-0.027517274076228636,"80":-0.3108619445404899,"81":0.4245478163792559,"82":-0.2990840704118056,"83":0.08125256583554125,"84":-0.11639127969809243,"85":-0.13479068404705283,"86":-0.307444501380622,"87":0.34341337421495366,"88":-0.3821136941721647,"89":0.09568991261779604,"90":-0.3327501702469635,"91":0.004886662271087347,"92":0.021050898031107563,"93":-0.38755584473117594,"94":-0.17023175921335504,"95":-0.32053188486157846,"96":-0.028722802814028305,"97":-0.18508033363495616,"98":-0.09185569065265208,"99":0.14825524562206288,"100":0.21997545171304084,"101":-0.20477391672669837,"102":0.25435288961989977,"103":0.0373526582617059,"104":0.07662092851702837,"105":0.2917703159528417,"106":0.18388756200291353,"107":0.08988603980755559,"108":0.1460090426270028,"109":-0.2396177882962519,"110":0.20649621188927766,"111":-0.03812980666917444,"112":-0.027520361772681762,"113":0.1362156891529088,"114":0.030527129093744977,"115":0.028976530361446547,"116":0.2729982659725199,"117":-0.3198772857746315,"118":-0.5900485352821979,"119":0.01891815232516529,"120":-0.058443255262581324,"121":0.10180965681404713,"122":-0.019145433980761784,"123":-0.14144151111241038,"124":0.21632531893970672,"125":0.030127289724397464,"126":-0.19874316601997274,"127":0.14563883601974376,"128":-0.35185590540073997,"129":-0.043119151233773224,"130":-0.15990378361261762,"131":-0.07113532261639297,"132":0.011385486778750023,"133":-0.25375360008291226,"134":-0.26901076040113353,"135":-0.17425011764934056,"136":-0.23496002559984203,"137":-0.08688501550553002,"138":0.31236883777757163,"139":0.04680389538496364,"140":0.32334211707935984,"141":-0.45045940075396157,"142":0.2026484305896614,"143":0.02750692255773648,"144":-0.16946734772419242,"145":0.07426638071961385,"146":0.2202437841419073,"147":-0.015786456679191894,"148":0.29061247163130327,"149":-0.4451011985221476,"150":0.3008917063539716,"151":0.3757988227067824,"152":-0.03793414891277438,"153":0.10472943509287366,"154":-0.0013743119760456588,"155":-0.06862130357652607,"156":0.223862278978109,"157":-0.10665669892748009,"158":-0.5749964767625914,"159":0.33843219259357976,"160":-0.2850861085865036,"161":0.1571332738518221,"162":0.10667158265451862,"163":-0.2554289031404058,"164":0.16270675039315888,"165":-0.2053525286778342,"166":-0.12628466633193883,"167":-0.0009994260637983291,"168":-0.10147089934694246,"169":-0.024707760257859833,"170":-0.3228741857933721,"171":-0.42022777139588474,"172":-0.12040200565208901,"173":-0.514208603465802,"174":-0.14329080283270354,"175":0.19812127457216572,"176":-0.18924310793689467,"177":0.0097364157000121,"178":-0.30121955965384645,"179":-0.04512984245237083,"180":-0.058174532410085314,"181":-0.4099970051442614,"182":0.4553227350769061,"183":-0.06370291051180227,"184":0.10451839767932505,"185":0.015988529787642942,"186":-0.2914552440076349,"187":-0.0325563041499108,"188":0.2918870065481531,"189":-0.2846969994357947,"190":0.21443654238105392,"191":0.14920819665516444,"192":-0.008544871487110632,"193":-0.03733188557704793,"194":0.08571130882958831,"195":-0.3247202439227303,"196":0.04678146512385769,"197":-0.09090129523450186,"198":-0.4340984661382178,"199":0.07645338715818163}}],"biases":{"sx":1,"sy":1,"depth":16,"w":{"0":0.022702420880513996,"1":-0.20748285310378448,"2":-0.35685298521885905,"3":-0.7227385018219541,"4":-0.3148494743063117,"5":0.11133742262640813,"6":-0.20850148669551424,"7":-0.3272492253839563,"8":-0.16580384077610005,"9":-0.021710409047442036,"10":-0.36068916306273113,"11":0.008945260804434856,"12":-0.33796604272387165,"13":-0.42527565758531954,"14":0.0020208736564632126,"15":-0.2635991470393616}}},{"out_depth":16,"out_sx":12,"out_sy":12,"layer_type":"relu"},{"sx":3,"sy":3,"stride":3,"in_depth":16,"out_depth":16,"out_sx":4,"out_sy":4,"layer_type":"pool","pad":0},{"out_depth":10,"out_sx":1,"out_sy":1,"layer_type":"fc","num_inputs":256,"l1_decay_mul":0,"l2_decay_mul":1,"filters":[{"sx":1,"sy":1,"depth":256,"w":{"0":-0.05192595192232695,"1":-0.1227891756376531,"2":-0.15854587279471596,"3":-0.32474125931258574,"4":-0.6141376451233791,"5":-0.2056196268395407,"6":-0.10784558880663345,"7":-0.017851939869168647,"8":-0.1296430388270387,"9":-0.3814948058683197,"10":-0.02950912992450078,"11":-0.13279965307383126,"12":-0.539549785027921,"13":-0.07970149545848894,"14":-0.0036036100357931993,"15":-0.47475316648251437,"16":-0.058790583777717474,"17":-0.16508656114041367,"18":-0.20307741999171855,"19":-0.20633227468981236,"20":-0.8159653637882309,"21":-0.3297910858633087,"22":-0.4073804974966251,"23":-0.36532811251612946,"24":-0.3965791371233438,"25":-0.4854758968471879,"26":-0.1747152757729763,"27":-0.1149518597990426,"28":-0.6077334346290002,"29":-0.27915141535854865,"30":0.013144002969067295,"31":-0.574137094660139,"32":-0.26827854524744316,"33":-0.4393776141118133,"34":-0.33447694392207217,"35":-0.21156932602701448,"36":-0.45909130719552504,"37":-0.4004023144142456,"38":-0.5872753337164458,"39":-0.683610950391118,"40":-0.2904649115517514,"41":-0.04984061011727917,"42":-0.4766458640547365,"43":-0.5174507660961364,"44":-0.285705061656318,"45":-0.4572039216751578,"46":-0.004110615866819311,"47":-0.33007992640261347,"48":-0.5868844176636719,"49":-0.32040941835163916,"50":-0.12539480463671518,"51":-0.5258819655068039,"52":-0.40859393954565765,"53":0.02908016084781794,"54":-0.40499042502058974,"55":-0.4052881941560389,"56":-0.3398228555751618,"57":-0.4561754450435199,"58":-0.21128826459157557,"59":-0.9747785525423676,"60":-0.2993134420941506,"61":0.14898320515616378,"62":0.011745138621843459,"63":-0.04144526864684756,"64":-0.3702995521617903,"65":-0.48961793107931506,"66":-0.6670668508644262,"67":-0.5548228349531569,"68":-0.5593835005593554,"69":-0.2921145018556833,"70":-0.08122763473074032,"71":0.05060851469066199,"72":0.12620643085204547,"73":-0.34012034346404635,"74":-0.17036126175017258,"75":-0.029170664203674233,"76":-0.49842680912577114,"77":-0.40060341739260985,"78":0.0004534656361601549,"79":-0.24658364755170034,"80":-0.549984175741724,"81":-0.2433930065809607,"82":-0.8597435091626363,"83":-0.09493183419194048,"84":-0.5266000252088104,"85":-0.44739479947867744,"86":-0.20130183174856353,"87":0.07507203406812799,"88":-0.17861250400807366,"89":-0.26712175275564126,"90":-0.47922891283880775,"91":-0.2932981876963435,"92":-0.5319032644138522,"93":-0.6532347470015596,"94":0.008090642785981587,"95":-0.8393535502098569,"96":-0.46357122189724975,"97":-0.453344044073375,"98":-0.3886586888445916,"99":-0.38854583697470046,"100":0.012624961676287344,"101":-0.21458382687046065,"102":-0.5092981006691657,"103":-0.6917316596658387,"104":-0.5025877040154717,"105":0.04460775890639488,"106":-0.593177269792751,"107":-0.6630051678657962,"108":-0.5181511759610986,"109":-0.35398038293666767,"110":-0.013671538229126942,"111":-0.31236165436119934,"112":-0.6854243780140641,"113":-0.5391866314520917,"114":-0.0655087129154103,"115":-0.5501210184480484,"116":-0.4818032508741113,"117":-0.20890624873829416,"118":0.1719628414740252,"119":-0.581502070915323,"120":-0.508095407529972,"121":-0.1714485767931064,"122":-0.32294917640784504,"123":-0.9256769417835613,"124":-0.23594154877634138,"125":-0.03613877009861087,"126":0.004418364966146847,"127":-0.063080098595356,"128":-0.641112585709339,"129":-0.3774755651634931,"130":-0.8777418470689907,"131":-0.2962938448830895,"132":-0.4052244515406824,"133":-0.5115508399396813,"134":-0.11587749884479336,"135":0.02281855293635684,"136":0.11640770863855145,"137":-0.4323157126235875,"138":-0.37477391141248384,"139":-0.19579935042444063,"140":-0.9193826972138582,"141":-0.4291434231395438,"142":-0.006244126683703655,"143":-0.19493262852525703,"144":-0.32200949410806295,"145":-0.14466936177679504,"146":-1.200582618171311,"147":-0.2914114898064442,"148":-0.3729622509890223,"149":-0.4508853765826388,"150":0.031739072307084996,"151":-0.13156737881267452,"152":-0.16401879670009473,"153":-0.2689873460694563,"154":-0.44683635568861074,"155":-0.4058570846371444,"156":-0.5806413339077816,"157":-0.5115570139369877,"158":-0.013072891314197312,"159":-0.2846842032525044,"160":-0.41766286311787953,"161":-0.3677610435435168,"162":-0.2747113970453242,"163":-0.5941377402328917,"164":-0.06400736453261617,"165":-0.6061996786883499,"166":-0.3869104317754231,"167":-0.4151574427676157,"168":0.09506794266254426,"169":-0.47625662586973594,"170":-0.5005868854833223,"171":-0.536325106166244,"172":-0.0693960077849056,"173":-0.7210105788946961,"174":-0.005016809708046145,"175":0.0749516287317672,"176":-0.1628501492920766,"177":-0.3979628376175752,"178":0.054071020557383685,"179":-0.3562387271843451,"180":-0.563092158414387,"181":-0.7031304647137764,"182":-0.02433082038965093,"183":-0.12799015905249228,"184":-0.16960410919950306,"185":-0.6495270192789462,"186":-0.5060269367305053,"187":-0.05109562460554387,"188":-0.3693831119634477,"189":-0.11245081661947917,"190":0.007082567997804554,"191":-0.05194714378066002,"192":-0.679396718398269,"193":-0.07595209450438896,"194":-0.21100217684199313,"195":-0.07383594546471904,"196":-0.3299826519508075,"197":-0.2900201210504219,"198":-0.24069563107895317,"199":-0.05579032898203869,"200":-0.07483474271312239,"201":-0.5759017394008236,"202":-0.26845122975431734,"203":-0.09099242873558078,"204":-0.8588795711173256,"205":-0.47501843826819967,"206":-0.002812137390278663,"207":-0.2320104372497874,"208":-0.2677467891609427,"209":-0.09706445888401022,"210":-0.11078646542789028,"211":-0.3125593119740929,"212":-0.4705622253721037,"213":0.00799998005751723,"214":-0.5726713040895046,"215":-0.29529767086339115,"216":-0.05673221242978819,"217":-0.42512273522070576,"218":-0.13058906778492282,"219":-0.4063731972865579,"220":-0.5306390691685903,"221":-0.6154694051451086,"222":0.0008452223583207849,"223":-0.09755077452236621,"224":0.12361371213537925,"225":-0.10007126798846844,"226":-0.04784662112463096,"227":-0.6993824103599925,"228":-0.10275788549313662,"229":-0.44994835045536874,"230":-1.1786905544023745,"231":-0.32384460788156494,"232":-0.08280843296666009,"233":-0.5361236891716716,"234":-0.38687288433808914,"235":-0.8311666704406045,"236":-0.5915318011537559,"237":-0.37056452766920356,"238":-0.007687135301943246,"239":-0.8238611748523308,"240":-0.26864829017255193,"241":-0.7332153135394136,"242":-0.04944704421043245,"243":-0.2619096115404692,"244":-0.23816889490641985,"245":-0.9605783959953812,"246":-0.4100069871754684,"247":-0.3537268941219655,"248":-0.14091096505650674,"249":-0.4133182115984937,"250":-0.1895782252597085,"251":-0.528295476424318,"252":-0.6320267356181608,"253":0.022023892777514695,"254":-0.012779977650340224,"255":-0.5330508097443626}},{"sx":1,"sy":1,"depth":256,"w":{"0":-0.07138385465927946,"1":-0.2750119539813602,"2":-0.41270746953119164,"3":-0.1437910690363071,"4":-0.02033986415291298,"5":-0.0632841038261568,"6":-0.07438221390616542,"7":-0.016842600830730678,"8":-0.3443840844369696,"9":-0.14286105945641586,"10":-0.14637328649456036,"11":-0.2318846365800693,"12":-0.33153910991228985,"13":-0.0946322847024397,"14":0.0028025302887862555,"15":-0.352946239415417,"16":-0.03970724037655224,"17":-0.44909919873015586,"18":-0.4897800605857997,"19":-0.26486449244622157,"20":-0.1608855261219498,"21":-0.11664529182398947,"22":-0.022199994260573522,"23":-0.02314481026823643,"24":-0.6415068307904681,"25":-0.6271243061794963,"26":-0.6801295246054629,"27":-0.006333310983261456,"28":-0.5344513058116759,"29":-0.6136490182574877,"30":-0.00803646566941161,"31":0.13930367201993663,"32":-0.03848102212224842,"33":-0.24888304786481888,"34":-0.3595751121548095,"35":-0.12249581152043536,"36":-0.029687879529271675,"37":-0.36810152097623666,"38":0.17052668679209304,"39":0.17246880802226686,"40":-0.3486445921857022,"41":-0.407171722097529,"42":-0.8359487444479465,"43":0.24035354740048442,"44":-0.5441427578538779,"45":-0.46062177065399346,"46":-0.0020851361859373155,"47":0.09992700095255501,"48":-0.09117345382904132,"49":-0.21125375586290704,"50":-0.10282836687851622,"51":-0.18185037335709275,"52":-0.6003520421229263,"53":-0.5053750314546737,"54":0.18666064556221607,"55":-0.2654966034389743,"56":-0.11809459713660606,"57":-0.09240826849576647,"58":-0.318583937171083,"59":-0.2276866074365055,"60":-0.10769659807735785,"61":-0.054248290120613316,"62":-0.00469489541739806,"63":-0.29360351766445,"64":-0.4611163365869145,"65":-0.3011387063593717,"66":-0.44322162151562466,"67":-0.8782752895271102,"68":-0.4492338096273342,"69":-0.3269405276978172,"70":-0.23986201834576218,"71":-0.016443766566747103,"72":-0.2963586466380585,"73":-0.13750699169262734,"74":-0.18401634983120388,"75":-0.726057300305876,"76":-0.3907501907743703,"77":-0.3126946581632913,"78":0.004644973958540671,"79":-0.8422702656537696,"80":-0.1816656183797253,"81":-0.38626930447107916,"82":-0.4711359436748847,"83":-0.6123060839004154,"84":-0.32255421942195456,"85":-0.5613922521799696,"86":-0.43460468648799944,"87":-0.1289381567533597,"88":-0.29035753983650475,"89":-0.49092653824125243,"90":-0.3037800971517957,"91":0.12228463353438383,"92":-0.3989946865057991,"93":-0.6995576762471774,"94":0.0004395359600199166,"95":-0.30034989300578413,"96":-0.4991474791952681,"97":-0.6244933550563077,"98":-0.30178087744355964,"99":-0.10358328794588975,"100":0.09770539529019252,"101":-0.6085834585854686,"102":-0.03746697895808573,"103":-0.38405324698625964,"104":-0.16377240900901274,"105":-0.4438144660815299,"106":-0.38222118806617883,"107":-0.15890249573461937,"108":-0.4115412503912233,"109":-0.6393267989717419,"110":0.006540697730586482,"111":-0.018690702146458946,"112":-0.3926018976182245,"113":-0.5715295907252669,"114":-0.10025434856664553,"115":-0.322914028945083,"116":-0.5403729260781526,"117":-0.8378643696243767,"118":0.03779076047442762,"119":-0.5166136211333897,"120":-0.31240443925945194,"121":-0.48373858607905273,