{"layers":[{"out_depth":1,"out_sx":24,"out_sy":24,"layer_type":"input"},{"sx":5,"sy":5,"stride":1,"in_depth":1,"out_depth":8,"out_sx":24,"out_sy":24,"layer_type":"conv","l1_decay_mul":0,"l2_decay_mul":1,"pad":2,"filters":[{"sx":5,"sy":5,"depth":1,"w":{"0":0.0387903509180778,"1":-0.45747136446557457,"2":0.034281019191881965,"3":0.1908019767073844,"4":-0.043035670160101354,"5":-0.4733415739767331,"6":-0.40463154035735827,"7":0.21589620892253392,"8":0.1792408487010281,"9":0.12088449441551964,"10":-0.3837441007103988,"11":0.47735702310086336,"12":0.6804751905379206,"13":0.13614179332464788,"14":-0.17613244943022052,"15":-0.007088926783327607,"16":0.45991199550032813,"17":0.08155895727089289,"18":-0.5587254168910805,"19":-0.42782298589377044,"20":0.27161835313259314,"21":0.19227360284073922,"22":-0.4033294304447141,"23":-0.17675177478187626,"24":0.11342417709668336}},{"sx":5,"sy":5,"depth":1,"w":{"0":0.017465225168678267,"1":0.2689695422021863,"2":0.002573353162673011,"3":-0.2843299841153347,"4":-0.15490204409391972,"5":0.13149347377652976,"6":-0.0020578475831152737,"7":0.17027733961390618,"8":-0.37762240685666293,"9":-0.20996224197018873,"10":0.20529931264848225,"11":-0.04009773244131427,"12":0.16141413903091134,"13":-0.34645038471943806,"14":-0.4594095054623678,"15":0.1731047685816659,"16":0.11434913883999691,"17":-0.001690714097847186,"18":-0.35570761066209294,"19":-0.35474405872593456,"20":0.1678410175429119,"21":0.4331901332387277,"22":0.07098684453687863,"23":-0.6030523339025915,"24":-0.25377094376609544}},{"sx":5,"sy":5,"depth":1,"w":{"0":0.1486605820453924,"1":0.07482765419193746,"2":-0.021786692881166508,"3":-0.7058275602576934,"4":-0.9816865556579397,"5":-0.21882869584698833,"6":-0.12167674840117765,"7":-0.10723919952640874,"8":0.30835250562546007,"9":0.0026400391124392617,"10":0.21017586612672287,"11":0.46192331989159424,"12":0.45582554160981753,"13":0.8115105697046314,"14":0.6902209034735678,"15":-0.2080008545892117,"16":-0.007791271466460955,"17":-0.08418846287472079,"18":-0.10662388174320313,"19":0.06665489815000367,"20":-0.11369969971515223,"21":-0.3328074777198796,"22":-0.1702918904185029,"23":-0.22357250814692303,"24":-0.13795549544668723}},{"sx":5,"sy":5,"depth":1,"w":{"0":0.3139171168566691,"1":-0.11921941496567057,"2":-0.15356847027365836,"3":0.036379266580618186,"4":0.05039875366173302,"5":0.3965312839884293,"6":-0.3644673618394212,"7":-0.14885666534382336,"8":0.05594018278776825,"9":0.7086518829746787,"10":0.047325044829671446,"11":-0.33929911248933675,"12":-0.03336234795718636,"13":-0.04539571982121553,"14":0.5824161121487842,"15":-0.9966349512708313,"16":-0.356742126883022,"17":-0.3133250709335549,"18":-0.5125242139828651,"19":0.6676528560002728,"20":-0.251499321747191,"21":-0.3605505766328824,"22":-0.4067415389521186,"23":-0.7754513868913114,"24":-0.3066995410989859}},{"sx":5,"sy":5,"depth":1,"w":{"0":0.0707936293610025,"1":0.19391730271240742,"2":0.08928445576050589,"3":-0.2800683752054191,"4":-0.589996478056499,"5":0.038736637396327815,"6":0.17579127952579454,"7":0.6296076285674429,"8":0.43429032248229177,"9":-0.5945882771850186,"10":-0.10682075160276577,"11":-0.17636220920731177,"12":0.32872015531346205,"13":0.771241142876727,"14":-0.19006462772903035,"15":-0.154913898055969,"16":-0.32523720475586965,"17":-0.39808662892800495,"18":0.42847486562529663,"19":0.07378108580241578,"20":-0.020786489323903794,"21":-0.053688209705821784,"22":0.035294782125331346,"23":0.2631072632372986,"24":0.3551278571172187}},{"sx":5,"sy":5,"depth":1,"w":{"0":0.17178081268313408,"1":-0.042807377174720995,"2":0.008846449078177611,"3":-0.0053203665865294205,"4":0.36349933135885537,"5":0.00398076177517246,"6":0.047402006534753544,"7":0.10914069400639281,"8":0.18394098675239565,"9":0.1198750545628431,"10":0.19034683118709048,"11":0.32143520445432505,"12":0.12999651334568083,"13":0.209081724243384,"14":0.06382889552280713,"15":0.0377691082741269,"16":0.04340273641430998,"17":0.03521864204951532,"18":-0.29546036584518687,"19":-0.3827008949900202,"20":-0.4379713349490187,"21":-0.48921304330962606,"22":-0.5654265641436655,"23":-0.1276508074383219,"24":-0.05503394837334396}},{"sx":5,"sy":5,"depth":1,"w":{"0":0.021112053819686352,"1":0.17396685863742922,"2":-0.4477862464676813,"3":-0.5183776791783998,"4":-0.12259907555968105,"5":-0.3423663683028382,"6":-0.7041183464003732,"7":-0.42214748673161556,"8":-0.06195496225373932,"9":0.47062799456365007,"10":-0.5925958933407973,"11":-0.23201582261341339,"12":0.05514895393652858,"13":0.1239031708291557,"14":0.500228332521289,"15":-0.46053040659203415,"16":0.012694101203198041,"17":-0.003474964954118272,"18":0.08230212936999744,"19":0.1913543162700853,"20":0.20684896221635946,"21":-0.0174814445098228,"22":0.026219457369803405,"23":0.20810587244181702,"24":0.3166280551355657}},{"sx":5,"sy":5,"depth":1,"w":{"0":0.10481746986836828,"1":0.3754116701604798,"2":0.2478206900592375,"3":-0.05239593843602655,"4":0.1602663482114563,"5":0.3860640068849754,"6":0.1660524147040791,"7":0.10713653820683411,"8":-0.0811723152165197,"9":0.08137690987246839,"10":-0.09023660823427228,"11":-0.028466125402711644,"12":0.10254012834247904,"13":0.05255056822801197,"14":-0.1948332431292183,"15":0.09653804876357693,"16":0.1613260217795875,"17":0.28447954656138824,"18":0.026214432650881515,"19":-0.4295859629662821,"20":0.038756251580484416,"21":-0.03068445915521016,"22":0.2523918014915878,"23":0.03415967064046331,"24":-0.16595027085599198}}],"biases":{"sx":1,"sy":1,"depth":8,"w":{"0":-0.4143004205369904,"1":-0.05498385587597987,"2":-0.26103541402670594,"3":0.041250876246848506,"4":-0.9442107444100004,"5":-0.027706901395471616,"6":-0.03823911194812416,"7":-1.1132795336518824}}},{"out_depth":8,"out_sx":24,"out_sy":24,"layer_type":"relu"},{"sx":2,"sy":2,"stride":2,"in_depth":8,"out_depth":8,"out_sx":12,"out_sy":12,"layer_type":"pool","pad":0},{"sx":5,"sy":5,"stride":1,"in_depth":8,"out_depth":16,"out_sx":12,"out_sy":12,"layer_type":"conv","l1_decay_mul":0,"l2_decay_mul":1,"pad":2,"filters":[{"sx":5,"sy":5,"depth":8,"w":{"0":-0.1512867727467424,"1":-0.22400156014758055,"2":-0.12926576481528945,"3":-0.29779837811712634,"4":0.3571332501486502,"5":-0.6733590767355132,"6":-0.24113649058348763,"7":-0.1409669595112434,"8":-0.008820434253998796,"9":-0.6635318677727788,"10":0.005823064146534803,"11":-0.42994257436902567,"12":0.18506276584600823,"13":-0.5453426229973927,"14":-0.023352003107061033,"15":-0.23750043463481246,"16":0.4302170582703953,"17":-0.1580144975110322,"18":-0.09636717528498359,"19":-0.17048052301489658,"20":0.015861915671368642,"21":-0.3062080301066293,"22":0.11436961097516919,"23":0.004788982399337318,"24":0.3381714098132739,"25":0.25025478193560147,"26":-0.3540377171167328,"27":0.04538797479784483,"28":0.08806212980538092,"29":0.1433005714744635,"30":0.2631315252005393,"31":0.16835977682790704,"32":0.28557889154931143,"33":0.6925753312523771,"34":-0.09044108608887036,"35":-0.14129386175185094,"36":-0.146631101881058,"37":0.31264670179657317,"38":0.6335701879685761,"39":0.696402020581417,"40":0.05618492759274471,"41":0.21285128776463666,"42":-0.03439684031074296,"43":-0.17964753356561067,"44":0.3346494022985157,"45":0.023449549933330677,"46":-0.022221515677362493,"47":-0.13867813278926333,"48":0.10223311541194695,"49":-0.12823555696443753,"50":-0.2540645714736774,"51":-0.4034946239868204,"52":0.21064279172957187,"53":-0.22534681498446743,"54":-0.15660320650925977,"55":-0.052540409801269713,"56":0.0966882849859808,"57":0.2070903042350354,"58":-0.23562529710725827,"59":0.08685689189019176,"60":-0.26146053228722943,"61":0.15991279383493215,"62":0.07864605563564381,"63":0.33537337103818304,"64":0.19745485719783953,"65":0.3881764013004385,"66":-0.214272577529744,"67":0.3281786113049823,"68":-0.29593261861625314,"69":0.39917552806447826,"70":0.3704607828655122,"71":0.22145507174872398,"72":0.7568681259755986,"73":0.22603162151966188,"74":-0.4796716174186167,"75":-0.2363168182238737,"76":-0.34203707767763053,"77":0.27620406874184883,"78":0.06176376985360751,"79":0.1126467478377969,"80":-0.44041431763492056,"81":0.29437274146782855,"82":0.44683055551052897,"83":0.35782294841045115,"84":-0.15108675882525752,"85":0.6033104185992274,"86":-0.13608578753445266,"87":0.16610290780460682,"88":-0.2953732987972636,"89":-0.10397754035334672,"90":0.18843391706822404,"91":0.31087821415005945,"92":-0.40575286042442943,"93":0.18219515585575652,"94":-0.37736823422475957,"95":0.16383680027235503,"96":-0.3708547288255897,"97":0.15706828947818227,"98":0.22164230470115068,"99":0.18187281500986557,"100":-0.33348130803854864,"101":0.3667550259927336,"102":-0.20991158925238462,"103":0.07525024449997568,"104":0.034963094243859634,"105":-0.2010106663056555,"106":-0.2742070888906023,"107":-0.1992555100657877,"108":-0.2201954636285518,"109":0.4138146929343215,"110":-0.5971637283399132,"111":-0.260896802980877,"112":-0.09837725580688914,"113":-0.21717605170880025,"114":-0.2965383788000363,"115":-0.5945872232158803,"116":-0.16010484553369567,"117":-0.177757832125255,"118":0.05058331766504234,"119":-0.26625652913758147,"120":-0.07649722286179769,"121":-0.05021493274382549,"122":0.04550056872682796,"123":-0.09968431183324934,"124":-0.11609272207159287,"125":-0.11267978046702691,"126":-0.21532489385207693,"127":-0.15231481980796183,"128":-0.48016835818448905,"129":-0.4168460749882294,"130":-0.23907367546599878,"131":-0.23506125684215157,"132":-0.10150853373986282,"133":-0.09403166101975101,"134":-0.30126117409122316,"135":-0.1456963255983816,"136":-0.4238379284422659,"137":-0.3668363924943119,"138":0.03164237835663961,"139":-0.5633138897253176,"140":-0.30021447060057727,"141":-0.276007862876061,"142":-0.01392079062797787,"143":-0.14081710961419316,"144":-0.03532413220998013,"145":-0.2846361433253177,"146":0.18386063238216632,"147":-0.5294252141310576,"148":-0.3395564373808771,"149":-0.415343141217375,"150":-0.06266416464905274,"151":-0.26836377253232496,"152":0.03612263419029278,"153":-0.15516248649917766,"154":0.06948186849483026,"155":-0.15148536494737783,"156":-0.2716482272494692,"157":-0.43892570787013546,"158":0.2899142259657863,"159":-0.15804001760648015,"160":0.3220285765138346,"161":0.017306176292597387,"162":0.19632107352304623,"163":-0.639604891758383,"164":-0.15887529046803842,"165":-0.3994454915363406,"166":0.5142528937638788,"167":-0.06888900643902711,"168":0.1890674632364555,"169":-0.09406020347608314,"170":0.4060675248075433,"171":-0.4532812116693599,"172":0.13496650988061512,"173":-0.2519437591744399,"174":0.2339363589235317,"175":0.009582071812708095,"176":-0.2862711466157306,"177":-0.0381008145769599,"178":0.22293092497945344,"179":-0.42364176397869363,"180":0.21582659226339704,"181":-0.34517508576142736,"182":-0.02057651127115521,"183":0.2620310342463006,"184":-0.12605055661149314,"185":-0.09600147002781809,"186":-0.15273532951185323,"187":-0.16034332724997277,"188":-0.06167427047301124,"189":-0.3133099156802336,"190":0.01941604470343357,"191":0.13628831522361573,"192":-0.15600424612963648,"193":0.05778640505436964,"194":-0.05350875399110783,"195":-0.12335239223060634,"196":0.2280374499077011,"197":-0.1966262230655703,"198":-0.08443732580544898,"199":0.1610272419890229}},{"sx":5,"sy":5,"depth":8,"w":{"0":0.552630370624375,"1":0.1282582561508078,"2":-0.14381684274438641,"3":-0.32207319902475207,"4":0.2910518585534261,"5":0.05417341404330895,"6":-0.24386436055935629,"7":0.35320631457236557,"8":0.23144927711881172,"9":-0.43028630249278255,"10":0.104725092623017,"11":0.04829488327043911,"12":-0.07346096502324748,"13":-0.04027722136072721,"14":-0.2999718732212748,"15":0.3068434582896852,"16":0.3760547323831635,"17":-0.032136097045124976,"18":-0.04053403164500568,"19":0.2749122436774103,"20":-0.10820933938784859,"21":-0.042683016517041455,"22":-0.25581057195881113,"23":0.04781982961975838,"24":-0.15204836981251096,"25":-0.14830023428957417,"26":0.25140579292655846,"27":0.04565459150860221,"28":0.3430078503633341,"29":-0.005423017140486236,"30":-0.209752800267201,"31":0.018418339143158737,"32":-0.10039579593058244,"33":-0.1675724320545307,"34":0.07909903053247404,"35":0.11185804022571413,"36":0.2219738489813674,"37":0.2575367166785571,"38":-0.18171804493732543,"39":-0.21200067611009854,"40":0.023694297829782638,"41":0.08332001626566216,"42":0.2326329588608137,"43":0.07515670220865431,"44":0.12887548864281698,"45":-0.019047615426717165,"46":-0.7060352166157797,"47":0.2377586648828233,"48":0.3254476573578726,"49":-0.28466481533694377,"50":0.2909421614060237,"51":-0.0010107185906488103,"52":0.10914322188194901,"53":0.14411208176425425,"54":-0.2758134271222025,"55":0.014860709379187658,"56":0.2423215206973745,"57":0.24608201589756762,"58":0.29797791641634164,"59":0.22054062413095316,"60":0.2259106425286893,"61":-0.021353161992489485,"62":-0.06327481528017499,"63":-0.05257072711859655,"64":-0.33190335914943253,"65":0.04664938046773662,"66":-0.1302922962587244,"67":0.026825967762889792,"68":-0.03360989208682635,"69":-0.10332703512358862,"70":0.016761177180829916,"71":-0.04702282922053259,"72":-0.13092760409846646,"73":0.29724502036088973,"74":-0.11369589909873487,"75":0.17314977009674618,"76":-0.1299956819672969,"77":0.1747744276387489,"78":-0.3550507538652074,"79":-0.06977046527120401,"80":-0.4573402501961862,"81":-0.3448455829839335,"82":0.7487367065785795,"83":-0.02959148231901086,"84":0.05007578866292149,"85":0.30157885136337004,"86":-0.9508434817976661,"87":-0.13947125481640418,"88":-0.24393894302875946,"89":-0.19080951494286427,"90":0.28488852129811093,"91":-0.07069150488447588,"92":-0.2666974518698466,"93":0.4644943903336317,"94":-0.32880534526187855,"95":-0.42939347015732315,"96":0.3023637917735763,"97":0.28886236129172405,"98":0.17697483760857488,"99":-0.03688910611028159,"100":-0.15908753119915722,"101":0.2446601290549431,"102":-0.19553146315851436,"103":-0.3879508431587168,"104":0.023539912984514685,"105":0.19979404262863107,"106":-0.03484143398379103,"107":-0.16445101415519364,"108":-0.5472466990344418,"109":-0.05913994344071289,"110":-0.13101719389570815,"111":0.04670747791881668,"112":-0.21558237326618845,"113":0.15557651807349143,"114":0.010477011374553893,"115":-0.10642470587172655,"116":-0.334900851179644,"117":0.06683350863700745,"118":-0.5425391599678756,"119":-0.22482887197756982,"120":-0.20235917397714256,"121":-0.02534515425040713,"122":0.2396320859196638,"123":-0.4630096679515948,"124":-0.3331440599683018,"125":-0.19613573642906296,"126":-0.26994550652639837,"127":0.19537535717690735,"128":-0.20340066678145888,"129":0.23673449439423058,"130":-0.16809442697452048,"131":-0.13709155163085815,"132":-0.23130518141296028,"133":0.1613660201638422,"134":-0.12397641031243192,"135":0.0015043094933348724,"136":0.20502304932389595,"137":0.1518726570103516,"138":-0.461324688457924,"139":-0.08431004612074308,"140":-0.42666017185475036,"141":-0.14445966854992268,"142":-0.09002658997581524,"143":-0.014314412468024123,"144":-0.07956763847217,"145":0.03622455958378977,"146":-0.4434648324570369,"147":-0.22267374260522876,"148":-0.2894567646636238,"149":-0.0776253858421074,"150":-0.017982177096791938,"151":-0.1270623681024664,"152":-0.05221736560737452,"153":0.04432523597824385,"154":-0.45630336542760436,"155":-0.07949245898547476,"156":-0.21896006382484076,"157":-0.25998142780892153,"158":-0.519787709605595,"159":-0.3630371767403005,"160":-0.17465085924196283,"161":0.3419677407633956,"162":0.029075493830221632,"163":0.033501705964954547,"164":0.023387301191446688,"165":-0.2820732628349331,"166":0.025006048216613327,"167":0.01397011562744865,"168":-0.04913049132296442,"169":-0.006795761709420471,"170":-0.16855425948433767,"171":0.04265117334728872,"172":-0.049501183336119345,"173":-0.3325412441728652,"174":-0.05343573667056444,"175":-0.27282153308637885,"176":0.03727705799424602,"177":-0.04091077248924666,"178":-0.4562258171373955,"179":-0.18719288895093303,"180":-0.24321101937247527,"181":-0.31951538359764825,"182":0.5827715565935854,"183":-0.022784805173736267,"184":0.1479502005253466,"185":0.41858919441797626,"186":-0.061722674510059125,"187":0.19241496792279605,"188":0.1822044455721956,"189":-0.34412967982167714,"190":0.7375077948554835,"191":-0.19498407330215084,"192":0.3405667576325359,"193":0.5584853738820529,"194":-0.35268499406196796,"195":0.0010252128060994098,"196":0.2536379808087312,"197":-0.4838457540346996,"198":-0.045560984796899955,"199":-0.03920989594434545}},{"sx":5,"sy":5,"depth":8,"w":{"0":-0.22340224499803676,"1":-0.16475748020763784,"2":0.00017046364576215554,"3":0.1980861537284818,"4":0.2943275799809331,"5":-0.15889810246774422,"6":-0.16397499015991507,"7":-0.40415594700914786,"8":-0.15173149716598083,"9":0.11483337892178137,"10":-0.37353252991148567,"11":0.20322887894795136,"12":0.1594306728225178,"13":-0.15982664366532723,"14":0.22973294474267575,"15":0.0038626986363687775,"16":-0.006150319487283785,"17":0.11789028644835867,"18":0.10047919166634715,"19":0.10597757170876636,"20":0.23085483063475223,"21":0.004837191339703654,"22":-0.040069289399208334,"23":0.13953218733999614,"24":-0.09558192545979306,"25":-0.37353497788844486,"26":0.1600603156335387,"27":-0.00850569590197844,"28":0.0030132750483946756,"29":-0.004533954856733037,"30":-0.007792476300489828,"31":0.2031712996695703,"32":-0.035902707867790734,"33":-0.39149516030827775,"34":0.008702418004685243,"35":0.35104152217386886,"36":0.009381589061179103,"37":0.015430696877772876,"38":0.07671457332027576,"39":0.20691253944230897,"40":-0.217371858001059,"41":-0.2169675662085535,"42":0.335423366298436,"43":0.40638378947521625,"44":0.15473277574107613,"45":-0.23114702225105746,"46":-0.47192382165371854,"47":-0.43938981391393006,"48":-0.4877457536548855,"49":-0.10966467001892488,"50":0.07185142552569665,"51":0.2902516277820321,"52":0.05594374674630042,"53":0.03880567669267527,"54":-0.1280507569376058,"55":-0.15177947263319103,"56":-0.34614423912190573,"57":-0.21591084143945713,"58":0.01653247875594834,"59":0.20294336973446497,"60":-0.06751323333541749,"61":0.3196055185003901,"62":0.039863528393905154,"63":-0.09971788120376253,"64":-0.14860280953937965,"65":-0.3007484690996507,"66":-0.1141187566775283,"67":0.0099662667020603,"68":-0.2251304643117163,"69":0.33044380805807244,"70":-0.1592447508155135,"71":0.0841309348991206,"72":-0.24585050749068632,"73":-0.21720582141036307,"74":-0.22063378452401936,"75":0.4581263623042926,"76":0.11144316258045522,"77":0.42326760275895786,"78":-0.1739701587884376,"79":0.17935034504217706,"80":-0.2311306265779538,"81":-0.23463773714528155,"82":0.22192442436802692,"83":0.10518725281667456,"84":-0.04404790376310206,"85":-0.08157597962818222,"86":-0.09545188747629174,"87":-0.3680670493149624,"88":-0.43385823106446963,"89":-0.24901204894393283,"90":0.19770192613062446,"91":0.22201370895313274,"92":-0.14557634268465341,"93":0.0618068159287528,"94":-0.11343719945904432,"95":-0.1924017173328741,"96":-0.320191978634777,"97":-0.4435691358095854,"98":0.2927209859004806,"99":-0.08916485084719401,"100":-0.2839933358250054,"101":0.2820024030295067,"102":-0.28757180857699444,"103":-0.02061252653831203,"104":-0.2023592343060805,"105":-0.33649484444068906,"106":-0.14122625836672642,"107":-0.2964780751918537,"108":-0.3050950268369055,"109":0.36878968252946387,"110":-0.3752179753112289,"111":-0.046955778428365534,"112":-0.34094080853339137,"113":-0.17606108079404967,"114":-0.6275234309398752,"115":-0.3296767175657414,"116":0.021704017407772985,"117":-0.08944154406560806,"118":-0.34535736580004356,"119":0.14309911937811473,"120":0.06933225717692548,"121":-0.024767338817015677,"122":0.39963996143974917,"123":-0.2909101976235475,"124":0.13968902260408875,"125":-0.24213221811607494,"126":0.21236989263969308,"127":-0.21226023043752806,"128":-0.06229832423108563,"129":-0.21770482734833546,"130":0.2616877766318527,"131":-0.3312117523069523,"132":-0.012246040521207677,"133":-0.2458120862279705,"134":-0.05456163143066545,"135":-0.3144362820425752,"136":-0.13915232936418642,"137":-0.2288356816724158,"138":0.31707418227007056,"139":-0.4418835481234882,"140":-0.20618740580316397,"141":-0.25462140259917637,"142":0.2815273141148242,"143":-0.17412092396262963,"144":0.08294895323596356,"145":-0.15537795720035968,"146":0.16522455672823236,"147":-0.2781257322105479,"148":-0.3736408789824652,"149":-0.1683332980500724,"150":0.1855219684546209,"151":0.014246491652193239,"152":-0.021239820775325536,"153":-0.04143006093667307,"154":0.05738672715497702,"155":-0.05276566416000993,"156":-0.25365097600692404,"157":-0.42318108182922903,"158":0.20509966597912072,"159":-0.051120994696991814,"160":-0.01903437223099583,"161":0.18712994640963274,"162":0.17770686816660095,"163":0.036393267827407504,"164":0.227038915927982,"165":-0.008981543876740565,"166":0.3957950727778205,"167":0.1219264665476334,"168":-0.1709537885588724,"169":0.14457516793599487,"170":0.12544691355025256,"171":-0.014833248264900395,"172":0.29438052218077626,"173":-0.14918309223724194,"174":0.28761145838064867,"175":-0.09318640775135184,"176":0.17706926264162726,"177":-0.010274690897282427,"178":0.2522253097924527,"179":0.06322396483962368,"180":0.11069676065528633,"181":-0.05300581430929292,"182":0.26055525566320886,"183":-0.02021706073026122,"184":0.06110409598514047,"185":-0.07006298116530868,"186":0.20379232740540187,"187":-0.062213435991457705,"188":-0.010962201912366973,"189":-0.009069504084290473,"190":0.07875876098419723,"191":-0.040709947749787874,"192":-0.0712786284433066,"193":0.09937300144139403,"194":0.21141822163108656,"195":-0.09139436785357112,"196":-0.06473239116091799,"197":-0.1398671017358751,"198":0.3279747896090326,"199":0.16246517202915225}},{"sx":5,"sy":5,"depth":8,"w":{"0":0.0880918667806631,"1":-0.5216866393964136,"2":-0.14711193135649098,"3":-0.10624093413075328,"4":-0.17525623551441452,"5":0.13938448764027997,"6":-0.17556395798350277,"7":-0.5061599338460177,"8":-0.04854761506014192,"9":-0.6917906997275041,"10":-0.09341324765966569,"11":-0.4512217705111872,"12":-0.23556826850211077,"13":0.10186579622666284,"14":-0.03540897065344166,"15":-0.29873603404825394,"16":0.03370749645853782,"17":-0.45624408819417495,"18":0.00657597817063682,"19":-0.23802629120353994,"20":-0.030851004773727653,"21":0.0407615844710673,"22":-0.0012208909110050371,"23":-0.08171374521495463,"24":-0.12737728578130592,"25":-0.09113151737694027,"26":-0.11044168272285845,"27":-0.27222328018412645,"28":0.08535805886764349,"29":-0.2778488794987402,"30":0.1270237049997341,"31":0.3454878542229347,"32":0.2951997890976142,"33":0.23480561888506266,"34":0.011000220197355677,"35":-0.6501855026376643,"36":-0.007981592432996617,"37":-0.2915620913709157,"38":0.4919863423430235,"39":0.2610119825596623,"40":-0.45911761982771454,"41":-0.33473487209191227,"42":0.652198194420381,"43":0.19946592581703923,"44":-0.07702894128234317,"45":0.24358044306753304,"46":-0.21272785914681036,"47":-0.37675332933810735,"48":0.23196074241765993,"49":-0.31438409055039734,"50":0.09154013649948331,"51":-0.14628887212928593,"52":-0.055417309904966315,"53":0.1106747870317463,"54":-0.1972403944976893,"55":-0.1928139162074332,"56":0.026124454639549505,"57":0.00013374374133384744,"58":-0.5104714876451645,"59":0.03581702291848946,"60":0.20522924765107695,"61":-0.11676764785481633,"62":0.00023671641726523055,"63":0.1354489592425333,"64":-0.09585040424427875,"65":-0.15509419625764517,"66":-0.5710511769671479,"67":-0.06851294682262932,"68":-0.027967892391266548,"69":-0.15708494599987904,"70":0.21368756551010662,"71":0.6457960793568377,"72":0.4531014620132811,"73":0.16843487858142672,"74":0.27119191767121936,"75":-0.511382908778929,"76":-0.07662538066500262,"77":0.16403817228045808,"78":0.3189921683606042,"79":0.4958031803509938,"80":-0.25987916632324437,"81":-0.05038117740414916,"82":0.776222080613769,"83":0.05038520105698137,"84":0.00022017163151457963,"85":0.3031193424381726,"86":-0.3109193926300056,"87":-0.5242083638359921,"88":0.3259150715926732,"89":0.22621250184459327,"90":-0.2970461847836757,"91":-0.3809999239560406,"92":-0.2480223895230272,"93":-0.06865549616086075,"94":-0.4369124175786392,"95":0.1760856534202345,"96":0.3198632250801398,"97":0.15703798660477525,"98":-0.5610256395236539,"99":0.06669123187461916,"100":-0.010509359610391376,"101":-0.0765934540602785,"102":-0.06969869239723463,"103":0.23870650474501384,"104":-0.1025779768075067,"105":-0.03193837256509781,"106":-0.4611496028208471,"107":0.01876832181587198,"108":0.1429810697997025,"109":-0.29825168770139654,"110":0.15865947802914318,"111":0.45298311591087415,"112":0.0267563880829802,"113":0.30625797409777966,"114":0.05181985121405654,"115":-0.271108500841029,"116":-0.09525677758629242,"117":-0.21867216855176874,"118":-0.16033334236592353,"119":0.01936938607183413,"120":-0.12495369745472472,"121":-0.03586916436635361,"122":-0.21222899550563135,"123":-0.3178146485410897,"124":-0.2271164097307356,"125":0.1275365634311308,"126":-0.0889698021946285,"127":0.3920926634059725,"128":0.11316623900710077,"129":0.28554919151459446,"130":-0.6666459113385131,"131":-0.29670293364097344,"132":-0.265637718402449,"133":0.07211181291769425,"134":-0.12086656594067038,"135":0.1906112779946231,"136":0.5298936725443962,"137":0.36184621124010974,"138":-0.6593864355704298,"139":0.3214487015940443,"140":-0.03270427518503426,"141":0.17949056524788662,"142":0.22313725430474807,"143":-0.00919383554031599,"144":-0.19594123412863687,"145":0.3824681786832054,"146":-0.2763464603438463,"147":0.2194095718440346,"148":0.2651284824105763,"149":0.018567223632608213,"150":0.31031213381940054,"151":0.06565568495807834,"152":-0.6346487168331985,"153":-0.10215345203850702,"154":0.2076476183063012,"155":0.42560243934636743,"156":0.0929481195294826,"157":0.07324157746889462,"158":-0.556527126559543,"159":-0.0714810650263124,"160":0.030090518565477845,"161":-0.08457468861296275,"162":-0.5947597843184996,"163":-0.0983976876043074,"164":-0.3087755381834053,"165":-0.017565590250459263,"166":0.04087023164135034,"167":0.12829693271662407,"168":0.14148957282416796,"169":0.09410412049272045,"170":-0.2875561804352635,"171":0.09000957086609354,"172":-0.04171791702834857,"173":-0.07544632513953625,"174":-0.24483160888179123,"175":-0.23907204182561828,"176":-0.19621965570653666,"177":0.38735517554462706,"178":-0.19452745189209927,"179":0.15669403317641464,"180":0.18068093837766416,"181":-0.2847182841901151,"182":-0.1606408999744027,"183":-0.038036530050463,"184":-0.27186256963645083,"185":0.31095983414582207,"186":0.04153058647685034,"187":0.23914975821281667,"188":0.20799855944460258,"189":-0.3347253136681717,"190":-0.1835462807412648,"191":0.016552469123362865,"192":-0.0743727740385585,"193":-0.0063109371931472135,"194":0.46124986973904786,"195":0.09362354782822685,"196":-0.05204450961141668,"197":0.0723015106993936,"198":-0.5111636734759145,"199":-0.36012118212711897}},{"sx":5,"sy":5,"depth":8,"w":{"0":0.21647206941068037,"1":-0.0621027105801843,"2":-0.14005995886999184,"3":0.35803397657872726,"4":0.04875601816560099,"5":0.24663925377715262,"6":0.1024805412788255,"7":-0.17874311220401073,"8":0.0848597777716969,"9":0.29553608178430996,"10":-0.06049963569134552,"11":0.4083562439355591,"12":0.23004027426835044,"13":0.22460231403637232,"14":-0.040435592835354875,"15":0.0008058349686247337,"16":0.19372238373035464,"17":-0.06136605338290044,"18":0.21096669961622586,"19":0.048135924722071115,"20":0.3688471998697469,"21":0.32418915930300995,"22":0.07025450003519237,"23":-0.020042029685535145,"24":0.030721214024020574,"25":0.014652722862119055,"26":0.44719419873944355,"27":-0.11738087370224286,"28":-0.015926209444684265,"29":0.2008792513723091,"30":-0.09268222450005216,"31":-0.21010507046907134,"32":-0.23256662045879434,"33":-0.3989095356275667,"34":0.16074367599769432,"35":-0.11904573943367419,"36":-0.16766844100497383,"37":-0.12411897605383614,"38":-0.06567946261746181,"39":-0.30761877215758376,"40":-0.10440071301561438,"41":-0.46965830115085966,"42":0.12062236202177223,"43":0.09140609535152161,"44":-0.01650255163305468,"45":0.008428545740503902,"46":-0.4308235947199113,"47":-0.2627322293899171,"48":-0.4020422188356962,"49":-0.24830721977533238,"50":0.06313443520953943,"51":0.19323893450002763,"52":-0.248229616538492,"53":0.10718209214032584,"54":-0.27194493546130394,"55":-0.295616424753485,"56":-0.17769162464774596,"57":-0.2868921926089164,"58":0.29487863694738187,"59":-0.06796911045735608,"60":-0.08876845562471392,"61":0.014031142589345017,"62":-0.1299157594829579,"63":-0.24666435695712585,"64":-0.2035869991270427,"65":-0.12138049592843934,"66":0.24151772799466975,"67":-0.11880999057841865,"68":-0.06280408825235934,"69":-0.014245967028204895,"70":-0.16254643969293137,"71":-0.17464652981307874,"72":-0.048643511394070964,"73":-0.1640537108791715,"74":-0.25265172530585284,"75":-0.026504467349346576,"76":-0.09165362106725375,"77":-0.12304938332271097,"78":-0.2515911862195199,"79":0.190578866593402,"80":-0.47989388349387524,"81":-0.29736878430992386,"82":-0.14288416125287315,"83":-0.14128521337848085,"84":-0.28544966706781155,"85":-0.30155063688425143,"86":-0.17380986208157848,"87":-0.20231922315586437,"88":-0.3671284519270423,"89":-0.44112406672043036,"90":-0.17867270442444969,"91":-0.03282222416709972,"92":-0.10902077849905044,"93":-0.23792506440099348,"94":-0.6352626954645765,"95":-0.11012894628459749,"96":-0.43334218472253183,"97":-0.48008994687596696,"98":-0.20034006814706704,"99":-0.20150767830474753,"100":-0.12899812488056614,"101":-0.2726962554219404,"102":-0.520692895668942,"103":-0.2188552400307149,"104":-0.2874763255020357,"105":-0.22280731277519764,"106":-0.20304641387370082,"107":0.08777295518326213,"108":-0.024085427568167856,"109":-0.112797428764332,"110":0.22906452194225974,"111":-0.09529043458981686,"112":0.3557870541785295,"113":-0.04498405826093395,"114":-0.22786802292592595,"115":0.17209227206935507,"116":-0.2673189614379718,"117":0.05391797429635968,"118":0.38527266460167836,"119":-0.028908759415215573,"120":0.17152069887650467,"121":0.1653238014330414,"122":0.16824039379989483,"123":-0.10586548500523701,"124":-0.07657894115073717,"125":-0.18375061854176472,"126":-0.013824184010284504,"127":-0.08094264853003999,"128":-0.0022487276958064032,"129":0.10857779256446048,"130":-0.01627881561177352,"131":-0.1049558970467139,"132":0.12305294862418903,"133":-0.386991134731638,"134":-0.22823352893634344,"135":-0.004556024394938819,"136":-0.287726458575678,"137":0.20208832612937047,"138":-0.23128050703084443,"139":-0.12383481016689875,"140":-0.03085053404375084,"141":-0.5332521225559803,"142":-0.42810157041388264,"143":-0.13838773327201812,"144":-0.47875494789365375,"145":0.023501123299696076,"146":-0.19876143702634091,"147":0.27055673286886583,"148":0.12183712080673623,"149":-0.5162838127206143,"150":0.012715884446078522,"151":-0.11392142611791745,"152":0.08904835252375883,"153":-0.030287262386074817,"154":0.13332358426440602,"155":0.20349602169468062,"156":0.27620213078662115,"157":-0.3536238722131233,"158":0.31185507045700456,"159":0.16704644928647158,"160":0.20381059990444542,"161":0.7163791495169611,"162":0.18549519808781348,"163":0.33163735432540015,"164":0.1449761479723784,"165":-0.2607440601221359,"166":0.08865886806844626,"167":0.661506181961784,"168":0.11679947360541795,"169":0.4928050100064363,"170":0.21505098458798866,"171":0.3404038320291937,"172":0.15050081873112794,"173":-0.09909519502828013,"174":0.25861435947432326,"175":0.297672574381865,"176":0.055177044848243956,"177":0.6197401754035076,"178":0.05665890162157601,"179":0.014430986806649348,"180":0.1744681570191648,"181":-0.25072348112380355,"182":0.021264832134253814,"183":0.0035613284734788545,"184":0.03682897492522353,"185":0.23911156671280906,"186":-0.22044308801210571,"187":0.11624395117615964,"188":0.008287329904040281,"189":-0.16193979953669715,"190":-0.19468593617850655,"191":-0.11879290377509434,"192":-0.07902167171762381,"193":0.08264124899039654,"194":-0.06312330016982784,"195":0.5250672669787144,"196":0.17271888405276,"197":0.06251002621191552,"198":0.26271821809861884,"199":0.06107110035722647}},{"sx":5,"sy":5,"depth":8,"w":{"0":-0.1165276983400184,"1":0.0043614819251554,"2":0.19212805688065632,"3":-0.1389740337572527,"4":-0.27760028971426054,"5":0.005732420566468931,"6":0.1380298224297614,"7":-0.00459618045014051,"8":0.11685975991408114,"9":0.3719494943689103,"10":-0.16672092428410643,"11":0.0333313619628599,"12":-0.6188087045077588,"13":-0.1474561705619105,"14":-0.456866919227811,"15":-0.0690139881277346,"16":0.4228112358056581,"17":-0.20321092466976176,"18":-0.2445959779000924,"19":-0.07604619787227836,"20":-0.20579878911690613,"21":-0.026146676451064933,"22":-0.2784425623095947,"23":-0.3190894768548516,"24":0.1260208049566755,"25":-0.1881236887199332,"26":-0.5431008129942165,"27":0.48887005165880476,"28":-0.35997971941303614,"29":0.3614386271932654,"30":0.03257079914742667,"31":-0.1560470274506386,"32":0.0063975316879486335,"33":0.014035675002211949,"34":-0.13679210117330526,"35":0.11410650365283043,"36":-0.2525204940870097,"37":0.30758395192317467,"38":0.2455920230673082,"39":0.08982489675530692,"40":0.1312914715233516,"41":-0.2596373142773084,"42":0.4735126327602287,"43":-0.1389750806755627,"44":0.5025030081898225,"45":0.20020157363329558,"46":0.07277858827520761,"47":-0.01029522816394786,"48":-0.5001154487920701,"49":0.07632846768038681,"50":-0.12523606658619538,"51":-0.2208056240887119,"52":0.22706652359355034,"53":-0.3746519042342902,"54":-0.08550144366780478,"55":0.04657101278574195,"56":-0.09225547774966347,"57":0.30482594195680607,"58":-0.33565929417903106,"59":-0.6045817474534151,"60":-0.25796908010750275,"61":-0.29223501649023015,"62":-0.06805029777315422,"63":-0.1516846814794245,"64":0.5090345390601839,"65":0.21744626142197035,"66":-0.049013893175966904,"67":-0.23303812270918703,"68":-0.19025273268090498,"69":-0.18746746419857838,"70":-0.12149108536398172,"71":-0.10937929899982785,"72":0.12079591796131536,"73":0.057041179994167614,"74":-0.0614292472834869,"75":-0.2953530847404939,"76":-0.1172700574310552,"77":-0.14553787057730105,"78":-0.231505037398066,"79":-0.23929728784425378,"80":0.473453275532441,"81":-0.41148666066181355,"82":0.3508189320397913,"83":-0.09230138252530473,"84":0.0008439683169409055,"85":0.29395082592557925,"86":0.06442694607286888,"87":0.09160700932177442,"88":-0.1919894922221331,"89":-0.47880319698340584,"90":0.2400697186703303,"91":-0.07806600278279399,"92":0.393657549297541,"93":-0.2639661144890031,"94":0.21711506814678286,"95":0.14931595141936416,"96":-0.7242203222759356,"97":0.014621486402091214,"98":0.03839045422145706,"99":-0.5669600544634356,"100":0.29281117054646916,"101":-0.12891454897320123,"102":0.24297872565479514,"103":-0.16525415702802715,"104":0.17843028228051314,"105":0.07331363039975834,"106":0.13987290795217883,"107":-0.5641689297492076,"108":-0.020674839840777205,"109":-0.18724657268848804,"110":-0.08553354133316203,"111":-0.2593850677114603,"112":0.30789716170072035,"113":0.31753634141899323,"114":-0.4566178931613959,"115":-0.15600525453279931,"116":-0.03865281073521955,"117":-0.34929005285596876,"118":-0.03175563125323024,"119":-0.21910269461201284,"120":0.6138958015786146,"121":-0.2211686598384004,"122":0.26762293414915167,"123":-0.24907340409879727,"124":-0.08810886365860282,"125":0.0371508111233056,"126":-0.11583391809518233,"127":-0.0023024546601310317,"128":0.34700910295621035,"129":-0.26849952155943835,"130":-0.0847952712228919,"131":-0.0009468641234051102,"132":0.01659729995951349,"133":-0.53252147607264,"134":0.055281605931965426,"135":0.1307212312671927,"136":-0.3263009524284864,"137":0.23925297583252766,"138":-0.2780966799479916,"139":0.0441422071495036,"140":0.19426548391397294,"141":-0.29947026441314745,"142":0.350359612061306,"143":0.215529434544808,"144":-0.450428202453377,"145":-0.09209809117207883,"146":0.1370811213449715,"147":-0.21673198902536867,"148":0.3997341054920559,"149":-0.23252246890238853,"150":-0.1783532899171078,"151":0.016683292327737513,"152":-0.27751514522890863,"153":0.013369368450834775,"154":-0.2149458957415314,"155":-0.6046750212946401,"156":0.397432236128507,"157":-0.4437593456396739,"158":-0.12387717316202365,"159":0.08044053574967032,"160":0.1874951176307309,"161":-0.3731214613985412,"162":-0.1389961793318169,"163":-0.08639329855249198,"164":-0.12462965486759651,"165":0.20865084169306025,"166":-0.04878052877679743,"167":0.02653474463793581,"168":0.3632677548374176,"169":-0.2905371086329062,"170":-0.3216814187272699,"171":-0.13799139856701767,"172":-0.39485417991342575,"173":0.28758359068954326,"174":0.0825403512019096,"175":-0.020071906665264486,"176":0.15535646542096926,"177":0.05885382270283595,"178":-0.45871459025351735,"179":0.12760662342428716,"180":-0.04701113418528591,"181":0.2609177379256069,"182":0.17285635085907633,"183":0.10645306627123835,"184":-0.18404249486498866,"185":0.030293740435521598,"186":-0.1292487469025023,"187":0.2116586319332537,"188":0.42039535417517276,"189":0.08266541859611806,"190":-0.030646639609239565,"191":0.17638508492786792,"192":-0.23990845725624366,"193":-0.11083856987911195,"194":0.11813592125112081,"195":-0.1445855320406203,"196":0.7610558990028272,"197":-0.10040364199096218,"198":-0.4747720590900763,"199":0.3076367543997379}},{"sx":5,"sy":5,"depth":8,"w":{"0":0.054797091890785674,"1":-0.2978817714902401,"2":-0.04680199071726968,"3":-0.14711537024877286,"4":-0.07924978332881867,"5":0.33359927239211046,"6":-0.20285636520607203,"7":-0.40324569719808,"8":0.00747175624812595,"9":-0.22203591484709506,"10":-0.3102669533671642,"11":-0.0669640025759531,"12":-0.15239798764195853,"13":0.19660674091990626,"14":-0.18258209672825737,"15":0.13899003423239117,"16":-0.15654285295510825,"17":0.17318505546801555,"18":-0.6417118880851634,"19":-0.22767614322361385,"20":-0.16556526283246048,"21":-0.09947276892089889,"22":0.21288670992200354,"23":0.43920758259338677,"24":0.15485557635574912,"25":0.1517339674174713,"26":-0.4444656667275283,"27":-0.5048531215561213,"28":-0.09128264288986049,"29":0.0635010772971143,"30":-0.03339701799733931,"31":0.24465676412244153,"32":-0.22121717187823786,"33":-0.2494490262383267,"34":-0.4084855832409568,"35":0.2479356686600904,"36":0.1444927303023311,"37":0.24439770143976802,"38":0.0626542822801242,"39":0.20360134631966195,"40":-0.17244797057468533,"41":-0.4047001357657977,"42":-0.455981120098227,"43":-0.27611233463513013,"44":-0.17293647318555302,"45":-0.16911363652899755,"46":0.04756694882272504,"47":-0.3771792095285058,"48":0.1267220035600142,"49":-0.057996286287179837,"50":-0.383200636563383,"51":0.06632099501611081,"52":-0.17680613100379655,"53":-0.026128515698486718,"54":0.23630315052915324,"55":0.09894609237830464,"56":0.05594925139581853,"57":0.1102044090968108,"58":-0.44743346812630663,"59":0.049135401282792174,"60":0.10953657842794495,"61":-0.31550340953766504,"62":0.1145745687615415,"63":0.0652044565158976,"64":0.019035578810316922,"65":0.17617324615781485,"66":-0.37666956369467025,"67":-0.2150582440254009,"68":0.05250252007436926,"69":-0.14010680839069486,"70":-0.40820137780004184,"71":0.17059785517482498,"72":-0.3632579954889565,"73":0.12994023721293052,"74":-0.36711907530341287,"75":0.4064795781572381,"76":-0.04793892354919694,"77":-0.000050942015582726625,"78":0.0349948531997632,"79":0.11021750503155187,"80":0.052848853602367185,"81":-0.02138614776388373,"82":-0.1679745193667658,"83":-0.03249099674440872,"84":-0.04583890895094474,"85":-0.46815657390510673,"86":0.38598116638158575,"87":-0.17420395058619456,"88":0.03270263620926802,"89":0.1954884126834854,"90":0.057726807087858385,"91":0.5044524655353776,"92":0.20461822170377697,"93":-0.16508415389936887,"94":0.2236603284470444,"95":-0.1591006305129603,"96":0.08499187988828666,"97":0.20119364875014958,"98":0.04276569276462587,"99":0.4309883922533212,"100":0.10396041300948237,"101":0.006090489391047782,"102":-0.22193977637514106,"103":0.2265283278943293,"104":-0.1326286161524712,"105":0.24043772756542336,"106":0.06478096587449102,"107":-0.10988807448033469,"108":-0.11756547331899778,"109":-0.06235046286646973,"110":-0.24200604096531783,"111":0.16403087505846808,"112":0.05573730373554234,"113":0.23048754385465103,"114":-0.16445586804900234,"115":0.16722608140515696,"116":-0.13739131654676656,"117":0.13953660159604686,"118":0.0664577320410217,"119":-0.007823889415626343,"120":0.06660378990040507,"121":-0.10170903992136839,"122":-0.21954428592504538,"123":0.19758508722872722,"124":-0.1382866623271892,"125":-0.6682390441490736,"126":0.2180764526500842,"127":-0.1846767323674047,"128":0.026027137991404107,"129":-0.13509571179259883,"130":0.11540813068467748,"131":0.08860659509863734,"132":-0.02425258476732657,"133":-0.35894796288716196,"134":0.04096011502535875,"135":0.07038104682200992,"136":0.1251378379161418,"137":0.12423698840136539,"138":0.07685654626028861,"139":0.005263443981458603,"140":-0.3751846960523117,"141":0.037001750753110636,"142":-0.3998037206076445,"143":-0.05419763154316489,"144":-0.2478904568223466,"145":-0.0480354232364097,"146":0.11435395699625925,"147":-0.2790209027703516,"148":-0.24943333602951442,"149":-0.061938458701332494,"150":0.11949788001778043,"151":-0.23373317148071643,"152":0.07481522996939821,"153":0.18636989213304148,"154":0.017744566685273744,"155":-0.2935829850293454,"156":-0.028142807076411012,"157":-0.25753768192040244,"158":0.06527546608607684,"159":-0.32834003000088186,"160":0.25970001371357243,"161":0.017967155282287046,"162":-0.5107410231569365,"163":0.04175318958086834,"164":-0.18685209950292725,"165":-0.3732389288888534,"166":0.17444568542147437,"167":-0.16472526410273353,"168":0.01696329267928524,"169":0.12066182045218013,"170":-0.2621664947217097,"171":0.11904257904763112,"172":-0.10434775082286675,"173":-0.15108721956415758,"174":0.18944640738756205,"175":-0.014920736345467804,"176":-0.39279439913087255,"177":0.10450998278249865,"178":-0.1916672242228375,"179":-0.108307685492052,"180":-0.41865041163904865,"181":0.09892228681081666,"182":-0.4986172251919214,"183":-0.023645707749718522,"184":-0.15983079028846348,"185":-0.008790076628697241,"186":-0.21856397718827839,"187":-0.21779197864894323,"188":-0.4153227902251402,"189":-0.18865131124516032,"190":-0.09469573349077884,"191":-0.17680126627152007,"192":0.31800414282121253,"193":0.0794960751533373,"194":-0.15911620052889866,"195":0.04262737432543283,"196":-0.2201139727286946,"197":-0.16597825147127526,"198":0.01247490100450516,"199":-0.008288224002637585}},{"sx":5,"sy":5,"depth":8,"w":{"0":-0.5165793963230991,"1":-0.28025537864758365,"2":0.4847672074539558,"3":0.14129709935859153,"4":-0.21548357189323938,"5":0.26301355251839453,"6":-0.23465733395830196,"7":-0.3098673067990185,"8":0.0925253643517495,"9":-0.25130837665844946,"10":0.06836362205274743,"11":-0.005808609303955643,"12":0.1937345121077321,"13":-0.14055809996580546,"14":0.02207444404555462,"15":-0.06092748649071491,"16":0.06756053514526984,"17":-0.2347623358541691,"18":-0.21307769414169206,"19":-0.013185343943600126,"20":0.24483454700417834,"21":0.13068636921820656,"22":0.00976088190476152,"23":0.5168940396906914,"24":0.25119338272439595,"25":-0.14230036815194105,"26":-0.2426369355871008,"27":-0.03947485963754504,"28":-0.017792276412247832,"29":0.0456909465051425,"30":-0.01065110116597965,"31":0.0078015162790392115,"32":-0.005342991102113669,"33":-0.028184100388090907,"34":-0.10636320647902005,"35":0.09372751076457783,"36":-0.08534982663931884,"37":0.10680421092706281,"38":-0.08301014941048303,"39":0.1430005873201354,"40":0.2743039741144922,"41":-0.1802615392840551,"42":-0.054522265486873826,"43":-0.21751797985309707,"44":0.33008265323398495,"45":-0.19349607177721848,"46":0.030451224580696223,"47":0.11734859763416153,"48":0.2698946946003943,"49":0.07782331430144317,"50":-0.040174531104711975,"51":0.05087077528634827,"52":0.191769013341752,"53":-0.1539752023807846,"54":0.1978366986385363,"55":-0.08006596424111533,"56":0.27716933305776753,"57":0.12316378384418326,"58":-0.16910724298667074,"59":0.09253128121551794,"60":0.06225381950175571,"61":0.11854949573913148,"62":0.09346254786038889,"63":0.06404130448916881,"64":0.09116450395623729,"65":0.028656232906057476,"66":-0.18802889572378784,"67":0.016126097167709286,"68":-0.0586893537407987,"69":-0.0420006488829577,"70":-0.07757580000110409,"71":-0.17769749992427905,"72":0.0056916399224729635,"73":-0.0145829618556924,"74":-0.24083892725874767,"75":-0.16659623022126058,"76":-0.10945479154317737,"77":-0.15695363382175173,"78":-0.22256565292818364,"79":-0.37512466259703464,"80":0.8290358412631297,"81":0.02403540653582433,"82":-0.4514114960952067,"83":-0.11075612015790644,"84":0.037322730075920636,"85":-0.06201572340503683,"86":0.2240574465775157,"87":0.25667523131530967,"88":0.15378898916536296,"89":0.27956207738747807,"90":-0.19890250543105675,"91":0.26251737399711084,"92":-0.29879464364000125,"93":0.23792398068021495,"94":0.6293303712305681,"95":-0.044922186127164275,"96":0.21723076383362144,"97":-0.03667730749200492,"98":0.02978289078702646,"99":0.18547568352522076,"100":-0.0653324471804093,"101":0.3273575310849144,"102":-0.05495131049756835,"103":-0.14940823524510802,"104":-0.03733098985668886,"105":-0.11860262360455616,"106":-0.06504242111304988,"107":-0.07961924357754112,"108":-0.09692414416174366,"109":-0.15617960694182456,"110":-0.14322395280533054,"111":-0.3058289146416007,"112":-0.15596090869279355,"113":-0.3705463783395402,"114":-0.2253746319091661,"115":-0.30223661434650917,"116":-0.1738609002274357,"117":-0.2724275084284244,"118":-0.23650650904552334,"119":-0.2292388953801213,"120":0.34437232726831835,"121":0.40208624383650304,"122":-0.17228666463288766,"123":0.06167954924903674,"124":0.1600334979419012,"125":0.11981926640816122,"126":0.24090068246329338,"127":0.1534309151080212,"128":0.1508340499003575,"129":-0.09565358688078923,"130":-0.017390365191094,"131":-0.18083598371466894,"132":-0.22097242645267529,"133":0.10452084523578634,"134":-0.27584748594271646,"135":-0.012809066688734614,"136":-0.2072711812015629,"137":-0.21421974991845677,"138":-0.03328567562234696,"139":-0.046363487766058316,"140":-0.24693261440266143,"141":0.114022699151321,"142":-0.06909660431681566,"143":-0.2979692065552398,"144":-0.10838700347328813,"145":-0.485704780272075,"146":-0.16508464429240607,"147":-0.2707239124465635,"148":-0.16605078853843178,"149":-0.19877394889141264,"150":-0.14621861106573153,"151":-0.16416297839632468,"152":-0.11860204374892562,"153":-0.394241002401735,"154":-0.046981921523621566,"155":-0.31794093288337666,"156":-0.1554706121296736,"157":-0.12571917285066342,"158":-0.22998541517069812,"159":-0.16299777463391532,"160":0.32477449583425533,"161":0.016041479269016803,"162":0.06190375884365314,"163":0.0861671968845587,"164":0.24574469916989133,"165":-0.13056817446067878,"166":0.017757765109128878,"167":-0.06269786849537363,"168":0.14884962248774597,"169":-0.03788409155966831,"170":0.06487130692289764,"171":-0.838531917806357,"172":0.01600893252963669,"173":-0.4006290587810119,"174":0.24804706488392478,"175":0.060161116945699644,"176":-0.15948621937514837,"177":0.25236031201910036,"178":-0.04662457684584544,"179":-0.3804670051169403,"180":-0.07183984292079519,"181":0.02729621223267221,"182":0.25913875718438056,"183":-0.13559425124462465,"184":-0.30710918666148396,"185":-0.2680432582496901,"186":0.06199307910961361,"187":-0.08188772899975862,"188":-0.09737579442293068,"189":-0.10842155024104361,"190":0.045665885762943115,"191":-0.08234952437581432,"192":-0.2168876477800367,"193":-0.2991986214915519,"194":0.1751297876314707,"195":-0.25348080149906016,"196":-0.022154283641078205,"197":-0.15757976254901435,"198":0.10499515933962707,"199":-0.11249288806608983}},{"sx":5,"sy":5,"depth":8,"w":{"0":0.07259425294355253,"1":0.04820441524862645,"2":-0.11938134689069392,"3":0.010099759216705608,"4":0.07186684882325106,"5":-0.11088393628546675,"6":0.0559939805693301,"7":-0.21257714650631448,"8":0.059485751296483286,"9":0.14791665625013278,"10":-0.34468106893813344,"11":0.0799539725664951,"12":-0.11117421735389897,"13":0.01768439887407281,"14":-0.0029678356845494742,"15":-0.01406834412740395,"16":0.06928590879411133,"17":0.19472423243239625,"18":-0.13975571087954702,"19":-0.024648509193735485,"20":-0.07051859265550119,"21":-0.10414914698006887,"22":-0.21342754252038154,"23":-0.08663965800286397,"24":0.007576367746397931,"25":0.09934438780410576,"26":-0.04586101461033086,"27":-0.07063285957031497,"28":-0.2717340929514644,"29":0.11699225325759262,"30":-0.17367810518667737,"31":-0.20044310651309868,"32":0.027252535016396982,"33":-0.12895321002195873,"34":-0.2042149410196504,"35":-0.26961166491552774,"36":-0.30177613881896076,"37":0.0986205085568882,"38":-0.12511954125064534,"39":-0.35626355294628576,"40":0.10016328999539591,"41":0.21444588828749553,"42":-0.3248025102452295,"43":0.09356001577654031,"44":0.028049317414817677,"45":-0.06828084756266417,"46":0.04002651261648396,"47":-0.05786527954601902,"48":0.0489143765930609,"49":0.054306073114588675,"50":-0.27859640062046725,"51":0.11008198928204793,"52":-0.23253976208332333,"53":-0.12602059984801917,"54":-0.17748003748452781,"55":0.06441472650860404,"56":0.02709297602479394,"57":-0.020129175960923656,"58":-0.22098085164755024,"59":-0.05134508869090597,"60":-0.18155489915670098,"61":0.16620086892645045,"62":-0.19878971988216754,"63":-0.11607918537355869,"64":-0.10403648919556543,"65":-0.22998205848381958,"66":-0.01267653821067089,"67":-0.2572964055261861,"68":-0.21505946216906419,"69":0.05228182280161517,"70":-0.13559711565915428,"71":-0.23832542962156555,"72":0.01659975548730878,"73":-0.09619183233726597,"74":0.02500258648050278,"75":-0.3031739674429626,"76":-0.22045436840548346,"77":0.015136962104010818,"78":0.10586151530131714,"79":-0.36403849620837175,"80":0.2887674095069826,"81":0.13605194135145107,"82":-0.2595069699494801,"83":-0.10231598700219217,"84":-0.1972546616760408,"85":0.023451070938780728,"86":-0.15352261106891657,"87":0.11265869055617417,"88":0.10769419622209597,"89":0.07729760012745399,"90":-0.190871938447098,"91":-0.2665229493705763,"92":-0.1999301286167399,"93":-0.044292638349503026,"94":-0.35469048415670473,"95":-0.06028737713450663,"96":-0.07879797646367717,"97":-0.2860438794200169,"98":-0.07216929504792029,"99":-0.3830112776317925,"100":-0.2112939579927649,"101":-0.10122353384609954,"102":-0.0020287641621347156,"103":-0.24236045841346865,"104":0.13018089658512816,"105":-0.167674985715121,"106":0.1633550149864361,"107":-0.3633307365404862,"108":-0.20949388363605165,"109":0.01902979128440077,"110":-0.0008231518894742512,"111":-0.2796928793746707,"112":-0.09701625117187385,"113":-0.09804618562755049,"114":-0.10411685401058729,"115":-0.17905917796110987,"116":-0.25166028245215016,"117":0.01701327860340356,"118":-0.0775927344750026,"119":-0.24773816219012745,"120":0.2053757038204202,"121":-0.03994678605314683,"122":-0.28736406442336837,"123":-0.39831848466071373,"124":-0.24931018102169672,"125":0.06057267813101938,"126":-0.08686943708809748,"127":-0.15386458829811867,"128":0.24643419500468747,"129":-0.26589821897745985,"130":-0.16867880511044536,"131":-0.5243610444250522,"132":-0.184602161577798,"133":-0.20806673245307045,"134":0.17483965023427214,"135":-0.06910712428955185,"136":0.052572190736157244,"137":-0.08712077991103652,"138":0.3345559937999305,"139":-0.40083476080528097,"140":-0.1834617057564461,"141":-0.0533365899915136,"142":0.16779863861048028,"143":-0.27194891860867343,"144":0.28554218155780414,"145":0.0684958541782135,"146":0.35769927345857255,"147":-0.18444888547384283,"148":-0.14536577025417685,"149":0.04838470624880647,"150":0.1677866334288145,"151":-0.10221535718094718,"152":-0.26707344224714935,"153":0.17996404913138475,"154":0.1212836744780283,"155":0.07849985035679147,"156":0.033174361113195786,"157":-0.002672609506520776,"158":-0.1494392512870544,"159":0.153644328364531,"160":0.2611968330140341,"161":0.2100738532187745,"162":-0.12362973654607166,"163":-0.4635398102397731,"164":-0.1908745893773636,"165":-0.006972238764045462,"166":0.28591333722722717,"167":-0.06016564602705477,"168":0.3908739419760363,"169":-0.09826632051065365,"170":-0.05020042504611781,"171":-0.564497578019125,"172":-0.045615733393425076,"173":-0.38681095113024366,"174":0.45817109037241466,"175":-0.010615754719865486,"176":0.6255575237033782,"177":0.115217520859031,"178":0.12298561131908647,"179":-0.3136973090699177,"180":-0.08192559926341646,"181":-0.0786461595389699,"182":0.30827573467941327,"183":-0.236466209572955,"184":0.11913285657036074,"185":-0.12747207323106446,"186":-0.09194745136089182,"187":-0.15930164834301663,"188":0.0010505001812536685,"189":0.03875343326976416,"190":-0.0015080146722416953,"191":0.04188897226215861,"192":0.16543379902196279,"193":-0.2307149642774778,"194":0.027029730092847953,"195":-0.1760775063177796,"196":-0.033867154084955914,"197":-0.11712214292789258,"198":-0.08500281942122043,"199":0.08639617353748003}},{"sx":5,"sy":5,"depth":8,"w":{"0":0.3178735435335877,"1":-0.5910004260620592,"2":0.15103459586076814,"3":-0.7468626255848793,"4":-0.19428347125349077,"5":-0.2956446369996907,"6":0.3659315527698125,"7":-0.5015279461717398,"8":0.023334289787815328,"9":-0.41592178001795505,"10":0.012611880028192909,"11":-0.5695067467849338,"12":-0.3407593860610544,"13":-0.3707274245995317,"14":-0.33624231967362966,"15":-0.19968496101137018,"16":-0.08490376112761913,"17":-0.24230744008632038,"18":-0.22356441174883837,"19":-0.43108651703551404,"20":-0.11329569368860992,"21":-0.5073111529581131,"22":-0.6354366840084563,"23":-0.3707838523336206,"24":0.018757238832806174,"25":-0.4596842380022165,"26":-0.3436857497985246,"27":0.06392905214062722,"28":-0.14238262077603914,"29":-0.6513221398445111,"30":-0.32970113473260404,"31":-0.241100595883272,"32":0.1974920950564182,"33":-0.2792830774764685,"34":-0.11219963676124024,"35":0.694359052101629,"36":-0.18046538349700814,"37":0.06731984332888574,"38":-0.43898621318762665,"39":0.004028614394337792,"40":0.12046347338930927,"41":-0.2617323048426515,"42":0.11818819369139132,"43":-0.323695009422807,"44":-0.09054817615157186,"45":-0.21389798447446823,"46":-0.01624745250199942,"47":0.2707066714270803,"48":0.08184102624313805,"49":-0.20365368598937608,"50":0.3949723058758488,"51":-0.03875176317194491,"52":0.02054917879779835,"53":0.04254641488837232,"54":0.0575203145189861,"55":0.06351115383863293,"56":-0.10306890158846288,"57":0.106930231143634,"58":0.23522203083956883,"59":-0.050007309167269094,"60":0.10297101994277254,"61":-0.00021324891965512273,"62":-0.07201819935953226,"63":0.18494976257673526,"64":-0.11156948286738698,"65":0.17404793398217094,"66":0.06186557547704706,"67":-0.39435198322626835,"68":0.1480114812998619,"69":-0.180680961605866,"70":-0.02423905738787919,"71":0.1288592448481351,"72":-0.24728934647691098,"73":0.06743333335336162,"74":-0.2737531033727269,"75":-0.30020948157811383,"76":-0.03134335567546519,"77":-0.11209661955501685,"78":0.12506985026578632,"79":0.03085319711415671,"80":0.04896790778149639,"81":0.21070792076255218,"82":-0.2103243032500077,"83":-0.14364532173219743,"84":-0.11002215274510464,"85":0.1551288856681466,"86":-0.22076434250804383,"87":0.4030865513147622,"88":0.004669868067197978,"89":-0.20432363349514646,"90":0.22406577314261247,"91":-0.044410486454212215,"92":0.18193127676159865,"93":0.1083843639932635,"94":-0.026377010844810006,"95":-0.11420152262983113,"96":-0.010873244144782725,"97":-0.062179986521558574,"98":0.20560835855671344,"99":0.19981629141267285,"100":0.12235424971039957,"101":0.3053511146117206,"102":0.15189825239665672,"103":0.209031255246223,"104":0.46111664787067314,"105":0.040473235938805856,"106":0.12164955993567322,"107":-0.09414312965486497,"108":-0.035152299374958916,"109":0.09387593192171528,"110":-0.012918863699744501,"111":-0.20083041948895083,"112":0.14515685568436038,"113":-0.14369399655956197,"114":0.5026461887291273,"115":0.10266682808743756,"116":0.4159733927774364,"117":-0.050200300866394244,"118":0.16471550442023228,"119":-0.07381224284087556,"120":0.008089708357867903,"121":0.22463521871903996,"122":-0.14639441703196862,"123":0.03263761438142771,"124":0.22882607600896723,"125":-0.023140151978101986,"126":-0.19895819720738456,"127":0.058453602983245506,"128":-0.1755935081808176,"129":0.08396294182462333,"130":-0.2696167099012795,"131":-0.009413613129322939,"132":0.2552742389016391,"133":-0.18948836314281772,"134":-0.38462714106469803,"135":0.03267891632549667,"136":-0.15907252074072542,"137":0.13221618943148694,"138":0.0018790185702985426,"139":0.0391890156922233,"140":0.34241063941339983,"141":0.031011350307236243,"142":-0.131309003677836,"143":0.07517789445932,"144":0.18430964356311513,"145":-0.0191012820556008,"146":0.09710939587261697,"147":-0.07485597139916504,"148":0.05489155249091258,"149":-0.059825680218244366,"150":-0.40882583192414634,"151":0.048904224920751777,"152":0.28355425495825826,"153":-0.23024478327309575,"154":0.21450483753255115,"155":-0.04011169638673635,"156":0.15960590719039117,"157":0.058955882763945124,"158":-0.15640473959803383,"159":-0.08534428187784684,"160":-0.04622611213290249,"161":0.012289757702657113,"162":0.04314556681251107,"163":0.3765010119299133,"164":-0.043463986681627556,"165":0.3655857497902738,"166":-0.5265927712935764,"167":-0.290728759098415,"168":-0.14739307202351015,"169":-0.14898018358563322,"170":0.02704806459039743,"171":0.17171419104947824,"172":0.14932001429877206,"173":0.1476634323498927,"174":-0.4664990432483953,"175":-0.13609422160254428,"176":-0.11304637771061991,"177":-0.1771328979068341,"178":-0.34262513522036137,"179":0.4271684313973469,"180":0.2459519933677907,"181":-0.2105985586795429,"182":-0.33701609589202025,"183":-0.1170052468569378,"184":0.18638427288381915,"185":-0.26836443366480234,"186":-0.2577427406689395,"187":0.32387290580969413,"188":0.07287502390746058,"189":-0.19601303219005342,"190":-0.6245484257751743,"191":0.05331917233146427,"192":0.007823723176219577,"193":-0.14421567979029346,"194":-0.2057588877399181,"195":0.05093135722628359,"196":-0.07376199360362504,"197":-0.0924158153585223,"198":-0.03675352955790647,"199":-0.007985134930094995}},{"sx":5,"sy":5,"depth":8,"w":{"0":-0.06487625420387573,"1":-0.027177788444293423,"2":-0.25870753867459656,"3":0.09164502938629929,"4":-0.0007481240189118534,"5":-0.094733957454833,"6":0.1497128090222329,"7":0.0207806945544482,"8":-0.003175285309994806,"9":0.4386488460986549,"10":-0.14683847083881835,"11":0.4071343971219296,"12":-0.15655854220976628,"13":0.14980085776857643,"14":0.20222997739072252,"15":0.1178725794620057,"16":0.18455849112058037,"17":0.15885107868210493,"18":-0.09875647587735463,"19":0.5403335816084679,"20":-0.12687884890749018,"21":0.21476395608996948,"22":0.12318085397365279,"23":0.11626820240688364,"24":0.029858588580652882,"25":0.18559778498229682,"26":-0.03728472297492749,"27":-0.09025133828043437,"28":-0.04621421724235839,"29":0.33254393404910343,"30":0.051754557470005576,"31":0.19182628421830797,"32":-0.0824100235669203,"33":0.5918011691655201,"34":-0.26933143592354325,"35":-0.01034657760422463,"36":0.17201414932960837,"37":-0.09951634537634914,"38":0.28824543640953354,"39":-0.010510046260687406,"40":0.13915449953439832,"41":-0.2034465580045172,"42":-0.299753263012519,"43":-0.30438602206253357,"44":-0.1925725340817599,"45":-0.20734671867884003,"46":0.08153946061678718,"47":-0.1739370221839361,"48":0.030908743856011566,"49":0.037280908482310186,"50":-0.13351748870387545,"51":-0.2596727292498311,"52":-0.3426056043589555,"53":0.06493714854788511,"54":-0.17274789924358272,"55":-0.14613573678529068,"56":0.05680620402348473,"57":-0.21666086082685557,"58":-0.24778749106380962,"59":0.15032425721354353,"60":-0.38792228948988317,"61":0.1016710017360785,"62":-0.21676500637382953,"63":-0.1926190811476957,"64":-0.08981175388824007,"65":-0.3188336396123206,"66":-0.0675902166629894,"67":-0.0026541205258333402,"68":0.035504258446165546,"69":0.06676605435314581,"70":0.10297703866009587,"71":-0.08688639790809209,"72":0.08007222011394835,"73":0.19463031035877962,"74":-0.2552049537659688,"75":-0.01597932192702068,"76":-0.09728504624557964,"77":-0.14626809890523262,"78":0.24061140193699018,"79":-0.22954419474267668,"80":0.1419346166746131,"81":-0.04806478328459198,"82":-0.3304893651142117,"83":-0.33026514801002615,"84":-0.4591526484858945,"85":-0.24312343590160013,"86":0.04244400556355719,"87":-0.2730437681664481,"88":0.2359260568608046,"89":-0.2118272644015584,"90":-0.042845429420577064,"91":-0.2928027103118785,"92":-0.29202040492301207,"93":-0.27248369305424386,"94":-0.08580546764999174,"95":-0.0952845866589374,"96":-0.08593367953038081,"97":-0.14980947579592477,"98":0.19471418620072897,"99":0.10594950067370024,"100":-0.4198841833190251,"101":-0.29174218115419326,"102":-0.488848687176238,"103":-0.08372379879627961,"104":-0.28555738657591906,"105":-0.6135732237503819,"106":-0.1051647233122331,"107":0.013980684057725715,"108":0.06746262000383518,"109":-0.4017631399480064,"110":-0.002494503286814754,"111":-0.14704668744749186,"112":-0.08430892513561311,"113":0.02806987492406454,"114":-0.4320041641571305,"115":-0.17175871046853117,"116":0.05818019847152554,"117":-0.594122810902585,"118":-0.09520241455953994,"119":-0.1805945954919865,"120":0.26736468204902136,"121":-0.027459245149468826,"122":-0.10836000653762644,"123":-0.517172096393559,"124":-0.11010219509952655,"125":-0.22858976679829893,"126":0.2660762768320669,"127":0.07213828061202257,"128":0.0439101203984192,"129":-0.19931349461155257,"130":0.34193748253172057,"131":-0.09598756707262539,"132":0.015666919328945303,"133":0.07592186753727957,"134":0.11916100205273478,"135":0.3574283763343642,"136":-0.23668973051716913,"137":0.1223033115267988,"138":0.3980341645419562,"139":0.22812679949335812,"140":0.3428485554354941,"141":0.11022309121965426,"142":-0.2789373918079154,"143":0.28110698811036594,"144":-0.8273601635931853,"145":-0.37299705895381635,"146":0.0692429265948853,"147":-0.09001584703902116,"148":0.3322152744494854,"149":-0.23868285425983674,"150":0.08948106069392743,"151":0.09397351268768343,"152":-0.13334503309572304,"153":-0.3612197364008461,"154":-0.07253447395655899,"155":-0.20495525581998733,"156":-0.08764776195140388,"157":-0.5313468637372191,"158":0.2527161462021447,"159":0.03915637688013871,"160":0.01939814457417838,"161":0.1398648309263612,"162":0.43976241933417043,"163":-0.13546521256039318,"164":0.0015123295674686497,"165":0.37194321503464883,"166":0.07682056223540078,"167":0.4651312250771595,"168":-0.08947475894461651,"169":-0.33889758993664587,"170":0.4281769080180446,"171":-0.09369347174429805,"172":-0.0725844981260772,"173":0.4434152968666791,"174":0.10684359612342445,"175":-0.13142897762262942,"176":-0.2081125541438842,"177":-0.19574484033346046,"178":0.21932679358841695,"179":-0.01287792133985455,"180":0.26615515237119486,"181":0.22128422988987206,"182":0.03447597057936483,"183":-0.24806816901366024,"184":-0.191906157784379,"185":-0.10967776880290538,"186":-0.08126531354523611,"187":0.19499923579748066,"188":0.15937752761281201,"189":-0.11061182637732786,"190":-0.06705731629954591,"191":0.030467448908803887,"192":-0.13117548745709476,"193":-0.2410473420600363,"194":0.2741782981831408,"195":-0.2614663087385892,"196":0.1204052832402838,"197":-0.08135940563806864,"198":-0.24245363479605042,"199":0.07012264801995259}},{"sx":5,"sy":5,"depth":8,"w":{"0":0.2379483867106623,"1":0.03593868639853629,"2":0.051933631250116574,"3":0.3503859045961725,"4":0.3653227665669558,"5":-0.31896718472238206,"6":-0.19380196112752907,"7":-0.2244713307429013,"8":-0.41654982458052053,"9":0.06896701114131949,"10":-0.20458176502440004,"11":0.15714918982817805,"12":0.38290455992613437,"13":-0.10073768325929844,"14":-0.28123953990653316,"15":0.33054619241692534,"16":-0.2579750511929186,"17":0.08616837054905967,"18":0.057249239065852914,"19":-0.16006820425231105,"20":0.37390442652947886,"21":-0.14896315311383826,"22":-0.08802201041131262,"23":0.29929561685337935,"24":-0.3951884817846977,"25":-0.04481210534833409,"26":-0.16035797636869062,"27":0.17800588625930006,"28":-0.03824545801004602,"29":-0.22219958157843042,"30":0.04379267561174991,"31":-0.04239296438587198,"32":-0.14292404848864468,"33":0.1274048349371642,"34":-0.38218066186394256,"35":-0.07075684206299508,"36":-0.2115547148799744,"37":-0.27965965360835915,"38":-0.048163783995216806,"39":-0.29359650143895083,"40":0.06289774035014724,"41":-0.04829402391282985,"42":-0.24041044152419266,"43":-0.19224061275406618,"44":0.08994442344899718,"45":-0.3132210333769563,"46":-0.08055816150194234,"47":0.21634909290036528,"48":-0.24949800525804988,"49":0.20451799891189082,"50":0.13245999607673978,"51":0.01694768011614471,"52":0.059454980119619374,"53":0.005565788540337434,"54":-0.0029560736635226223,"55":0.3547332761586117,"56":-0.1387985265054773,"57":0.3382306105881141,"58":-0.002139051835315903,"59":0.07091623218355336,"60":-0.03925854647397689,"61":-0.08836717840818382,"62":-0.0961301691042525,"63":0.21649535792288147,"64":-0.0562612451709424,"65":0.19054557942991962,"66":-0.21599364654233427,"67":0.1354595296608407,"68":-0.05719099044196406,"69":-0.320263660792758,"70":-0.05223137003582366,"71":-0.3177221159934887,"72":-0.17073170510802402,"73":-0.0038248823646989637,"74":-0.2623474396109256,"75":-0.3570520476826128,"76":-0.1910441928213894,"77":-0.5747203505409588,"78":0.1700097643316746,"79":-0.2522739913175679,"80":0.05455386160376877,"81":0.33151633301955413,"82":0.039234898936382975,"83":0.23698799230405973,"84":-0.1481760430646365,"85":0.48503553439666197,"86":-0.06901733206538513,"87":0.134755056730843,"88":0.008038829054665216,"89":0.29510840393558774,"90":0.23789359902503954,"91":0.13061018153349854,"92":-0.21607924865409397,"93":0.4374313382602282,"94":0.07348611855240421,"95":0.14611207684581778,"96":0.10659646173391678,"97":0.243697934433791,"98":0.02475231936540968,"99":0.18732005695061232,"100":-0.2633553804126271,"101":0.1008923184137274,"102":-0.00413659742029961,"103":0.1733278612983318,"104":0.04526472176044362,"105":0.18047283503125325,"106":-0.2844117292021828,"107":-0.047227891798003206,"108":-0.11850629095508518,"109":-0.2831804436029761,"110":0.18174325873048164,"111":-0.21183931025031247,"112":-0.10462057823507524,"113":-0.09665930160501685,"114":-0.008131503052997013,"115":0.05172980286500708,"116":-0.08156500111947405,"117":-0.5713404031432615,"118":0.26364597810882207,"119":-0.19423885451991937,"120":-0.505732360800044,"121":0.09700626994504738,"122":0.4723733256340784,"123":0.23690338961040314,"124":0.15107263052312958,"125":0.5580158651027912,"126":-0.5802364589648689,"127":0.1778649151918223,"128":-0.07952593847545981,"129":-0.24060355299774996,"130":0.05305417357381995,"131":-0.11052708702307926,"132":-0.12677371345006322,"133":0.04315550348652081,"134":-0.35410197705000124,"135":0.13310741745549107,"136":-0.13919201172592519,"137":-0.31146799867953834,"138":-0.23626741265163018,"139":-0.5805145860884606,"140":-0.28400459410307605,"141":-0.13285574896438268,"142":-0.22407037402302402,"143":-0.1461934664843404,"144":0.020798245385186133,"145":-0.20031736296642244,"146":-0.004097949827449851,"147":-0.2394334430538757,"148":-0.18882157543799585,"149":-0.46363667502748773,"150":0.21891285468983068,"151":-0.23661752131380073,"152":-0.03335318706285995,"153":-0.21873677168065317,"154":-0.43719888766923426,"155":-0.04997571995566835,"156":-0.2663873746053947,"157":-0.49045748608675777,"158":0.2910886687432545,"159":-0.22817583651217413,"160":-0.02062830540020282,"161":-0.30578124508433113,"162":0.01686461247242431,"163":0.12530950830930887,"164":0.003177638074665059,"165":0.4266089537897498,"166":-0.3365746622470302,"167":-0.2272997174064001,"168":-0.11638240079208359,"169":-0.17171047704995138,"170":-0.25242266749272435,"171":-0.11762857526631093,"172":-0.2749899123323139,"173":0.10908984286116682,"174":-0.4696572485411542,"175":-0.19909357777907633,"176":-0.3580737944043939,"177":-0.22632053408559433,"178":-0.27610168503746246,"179":0.008568704267252291,"180":-0.08815395236616333,"181":-0.2122623771769001,"182":-0.004532578239897034,"183":-0.2386487664330912,"184":0.15564458247293167,"185":0.03127600048494221,"186":0.032676084252927534,"187":-0.24726472276522585,"188":-0.11363845809524765,"189":-0.1480691562490427,"190":0.2774258541047273,"191":-0.21484627214417176,"192":-0.31304212725709046,"193":-0.23855233128137102,"194":-0.12058383609318557,"195":0.2674117400039166,"196":0.02567903648486025,"197":-0.41418771055840914,"198":0.42678966444504524,"199":-0.2218554886701774}},{"sx":5,"sy":5,"depth":8,"w":{"0":-0.6273560650629415,"1":0.18230232243570144,"2":0.050133046438942085,"3":-0.15262201827243368,"4":0.5871117047258501,"5":-0.4177426220852048,"6":-0.798529095739392,"7":0.24864868084605216,"8":-0.542866877959929,"9":0.2225998287586526,"10":-0.10418877315766262,"11":0.22079485176474303,"12":-0.0012007308908988136,"13":-0.33842170060911414,"14":-0.21248111271069994,"15":-0.42426006633966706,"16":-0.11896399046181892,"17":-0.26896381283150755,"18":-0.00604396029294751,"19":-0.08806043456824782,"20":-0.14115883703010654,"21":0.31172766885904163,"22":-0.7336792284355599,"23":-0.5260831987962364,"24":-0.11540394739792055,"25":-0.5672796388955915,"26":0.19447342655989663,"27":-0.21504381166985465,"28":-0.4499627732951169,"29":0.7035828282540759,"30":-0.7387780123970166,"31":-0.420039635299542,"32":-0.20826434154066012,"33":-0.40380915211202706,"34":0.31310294541660605,"35":0.03809692266466891,"36":-0.2081918637201825,"37":0.29728059902723625,"38":-0.5445553824583962,"39":-0.21094442071083871,"40":0.29088821353100536,"41":0.17391324463439617,"42":-0.26424770055017666,"43":-0.12542285552220678,"44":0.07095415981692403,"45":0.029943446572787014,"46":-0.09749294000910327,"47":0.267988853915907,"48":-0.18230350679405233,"49":0.45941298615320303,"50":-0.5069894637729998,"51":-0.04379473420062471,"52":-0.321688006180233,"53":-0.1815854807133524,"54":-0.14724132880299484,"55":-0.08239028886568575,"56":-0.34407784095243826,"57":0.31578078088533446,"58":-0.3269466685035104,"59":-0.24613303470905107,"60":-0.24190327001466203,"61":-0.5591695614791026,"62":0.01272944151315501,"63":-0.42308369267356166,"64":-0.2900169748422738,"65":-0.20436323229049314,"66":0.36405367422527357,"67":-0.07514911520566576,"68":-0.2763417562702124,"69":-0.9182739712961487,"70":0.5458307070370519,"71":-0.23191072007388006,"72":0.04608368802485276,"73":0.2399773143396987,"74":0.722579706137149,"75":0.2307119101345447,"76":-0.02503084872915057,"77":-0.351636451203392,"78":0.4359884989553521,"79":-0.22431454972773113,"80":0.2917073400687156,"81":0.22287041878304786,"82":-0.21227905311403006,"83":0.22993915045920157,"84":-0.5878963211540633,"85":0.016135204306620608,"86":0.28663315968881903,"87":-0.14754315833171855,"88":0.3373973323461468,"89":0.5615152590597898,"90":-0.12603155808198768,"91":0.20876694219973088,"92":-0.5735282152169012,"93":-0.37424152078091455,"94":0.24728341386355165,"95":0.037095687920935524,"96":0.13005921844427137,"97":0.39259415228806865,"98":0.026500978380703352,"99":0.4262725181041461,"100":-0.38644126125207867,"101":-0.28767642607564653,"102":0.20834829639289976,"103":-0.3389716720820498,"104":0.04472260998804565,"105":-0.036504666791228525,"106":0.4670196648688033,"107":0.455298812020175,"108":-0.07735900810052937,"109":-0.1587148455475286,"110":0.357165165555885,"111":-0.3271001847946918,"112":0.07000460095995945,"113":-0.04353475717257194,"114":0.5680566878930472,"115":0.4984955454779043,"116":0.2972355528573787,"117":0.3857032528178011,"118":-0.15624039836415682,"119":-0.05849604972180347,"120":0.3519994142924401,"121":-0.2083086491273869,"122":-0.1403150080725681,"123":0.09717837594925595,"124":-0.21899901694748333,"125":0.023880172578129664,"126":0.07443722192228658,"127":-0.45862853991408886,"128":0.18108979738832412,"129":0.036609519351190334,"130":-0.19905742207072963,"131":0.1056447003813646,"132":-0.13822774124068224,"133":-0.141384481024325,"134":-0.26203004051294226,"135":-0.16864055834316918,"136":-0.020795204391398297,"137":-0.06366065812635943,"138":-0.23433410756144957,"139":0.048559172436441755,"140":-0.03635019589390476,"141":-0.038850110479454025,"142":-0.5238791124680545,"143":-0.24272688491724856,"144":0.0639745726331026,"145":-0.3367390058109784,"146":-0.20276156229753226,"147":0.0027248024316825084,"148":0.04508569201147819,"149":0.028276210426852078,"150":-0.3023054285038498,"151":-0.2786473699481507,"152":-0.07445458289681356,"153":-0.36715570253385477,"154":0.3593547093858005,"155":-0.2496831210529741,"156":0.4427575456740515,"157":0.04667144292502164,"158":-0.590699507222538,"159":-0.09956850751368856,"160":0.39238434332144956,"161":-0.39126940035940616,"162":0.014618937116957928,"163":0.028858299502834913,"164":-0.026859169017607442,"165":-0.4956501408656898,"166":-0.01223668815291445,"167":-0.3613417272615848,"168":-0.15134700878560622,"169":-0.33408554106021815,"170":0.10989986476732672,"171":0.09514424482343313,"172":0.17228165162713333,"173":-0.2304812433142905,"174":-0.10887502733504782,"175":-0.36276844136280517,"176":-0.11026946321097714,"177":-0.4074002976448264,"178":0.19226791132459753,"179":-0.13331632673238256,"180":0.4516219368863985,"181":-0.3764519239043483,"182":-0.1943279766420699,"183":-0.30867408288713755,"184":0.07369981718344754,"185":-0.24125117942563937,"186":0.40458615956077737,"187":-0.23105320232557167,"188":0.12286076887252598,"189":-0.022370820999293294,"190":-0.12277591534482081,"191":-0.11684955490609363,"192":0.5875938557972803,"193":0.11560777279140139,"194":0.23178441646518758,"195":0.00897676568361383,"196":-0.017379410297104075,"197":0.025689099228700604,"198":0.39559010617142165,"199":-0.19784729195237033}},{"sx":5,"sy":5,"depth":8,"w":{"0":0.15039908135943159,"1":-0.21556724203764493,"2":-0.19431530379950765,"3":-0.014241309792745606,"4":-0.30247888664163847,"5":-0.14042268707750027,"6":0.048346568896326395,"7":-0.0056185902476956805,"8":0.2156266800932046,"9":-0.26420902713126904,"10":-0.31365360750343113,"11":0.05188291569184608,"12":-0.1671580369495914,"13":0.004628707253179565,"14":0.20362206254450566,"15":0.09187463391247891,"16":0.0948852955014018,"17":0.09882779273387601,"18":-0.16862468262178865,"19":-0.3451409223485934,"20":-0.24305905767566466,"21":-0.03559972703378069,"22":0.34175190960582263,"23":0.22640642285286544,"24":0.7531855842620038,"25":-0.058462729313395266,"26":0.2040445909865301,"27":-0.6523694584854329,"28":-0.761402389070238,"29":0.1256488149904838,"30":0.07652581746245782,"31":0.021225340210525676,"32":0.4939690846717327,"33":-0.04127536421529153,"34":0.31362810012283215,"35":0.14213422991871258,"36":0.09763006370110626,"37":0.19023281724107202,"38":-0.12564134561959972,"39":0.11598678871089667,"40":0.1440645385239573,"41":-0.039852483975621196,"42":-0.016125512403256752,"43":-0.061840442680694746,"44":-0.13622508864033522,"45":-0.18289615130463432,"46":0.07146583540884185,"47":-0.009997731361035395,"48":-0.0930015284759359,"49":0.08145830733832608,"50":-0.36367287170186546,"51":-0.011992702695140486,"52":-0.405961537282967,"53":-0.13968191535790817,"54":0.12853026816416027,"55":0.0332580461034823,"56":-0.0369074629652692,"57":0.057629622290418625,"58":-0.40561467368914633,"59":0.31493518594150943,"60":-0.24137232552314633,"61":-0.13186117621877613,"62":-0.04001468468536094,"63":0.18241299695781193,"64":0.16345881884155838,"65":-0.1294315336969429,"66":-0.09332800866924068,"67":-0.36016566883181295,"68":-0.12876340546048154,"69":-0.2793675342501588,"70":-0.8226529150221495,"71":0.5068216689350792,"72":0.5091892390982613,"73":-0.38282789084762503,"74":0.26961143166757057,"75":0.009558987555645078,"76":0.2477375815300673,"77":0.10254844110177226,"78":-0.28522734717796644,"79":0.3664014254496822,"80":-0.05346329564805246,"81":-0.1107786193081434,"82":-0.08050268138769581,"83":0.2205750433202205,"84":-0.15651437240290572,"85":-0.14215030923342795,"86":0.2034832271453837,"87":-0.1661889515463268,"88":-0.015320240770524067,"89":-0.09841536458132796,"90":-0.3873956565423398,"91":0.06523239602354997,"92":-0.022639917446487728,"93":0.09568682882131192,"94":0.029930649696310666,"95":-0.2320689881838891,"96":-0.5019926995882082,"97":-0.2830514768158445,"98":0.34134406986996785,"99":0.4183685294920714,"100":0.20539600320602666,"101":-0.18928227613049056,"102":-0.2780172006587816,"103":0.22046625704355938,"104":-0.5921316540068987,"105":-0.6331699692236905,"106":0.5345531452864972,"107":0.19420876695181127,"108":0.6916486234607286,"109":0.013143056662303906,"110":-0.7747136742339894,"111":0.24893143516637717,"112":0.2719823262477495,"113":-0.2800152495840879,"114":0.07172781114777094,"115":0.18967623280737378,"116":0.1888814887032026,"117":0.07220257505621042,"118":-0.40282182645986986,"119":-0.3323283827555597,"120":0.12263697309507864,"121":-0.19561149075297957,"122":0.17290099834845857,"123":0.05699483668371881,"124":-0.23377041225902379,"125":0.09814139283746995,"126":-0.05701866734700448,"127":-0.21633475925495563,"128":-0.10545351756843915,"129":-0.549871637878325,"130":0.4458194106265411,"131":-0.241353665549965,"132":0.08827664447085692,"133":0.22200950249251106,"134":-0.09202317623907073,"135":-0.46285887135478393,"136":-0.16661276432041616,"137":-0.544763376050719,"138":0.4470987782532366,"139":0.0794866636840187,"140":-0.0019579143306992356,"141":0.011096313905030419,"142":-0.15825864534464626,"143":-0.38631009455309406,"144":-0.13758329819157464,"145":-0.21009396595738233,"146":0.2123923016393009,"147":-0.10412242921097467,"148":0.4120215287828489,"149":-0.20594989028989996,"150":-0.46715371602576844,"151":-0.11668356033182943,"152":0.01660907822064233,"153":-0.27089761910335514,"154":-0.06033244176464701,"155":-0.0550959390581083,"156":0.3545401246760522,"157":-0.2636870090747116,"158":-0.7812287658559999,"159":-0.26586025047576867,"160":0.07089434846884081,"161":-0.23227696466468828,"162":0.5314012842885554,"163":-0.4618962578927442,"164":-0.12556882806740693,"165":0.2975916762714123,"166":0.07133392419043398,"167":-0.35078308766507166,"168":0.2856775071625588,"169":-0.36930129724879485,"170":0.0679402096208829,"171":-0.456393744833788,"172":-0.4059649510446207,"173":0.11098840308201459,"174":0.1323801265574978,"175":-0.39239596198220267,"176":0.3530267459817907,"177":-0.37038678831571004,"178":-0.18338676882070837,"179":-0.7730884284699399,"180":-0.3703699281072612,"181":-0.19915999733034903,"182":0.31144952725225705,"183":-0.02129966134681489,"184":0.734739792628351,"185":0.16070989727056445,"186":-0.16239823306120438,"187":-0.23816748945959035,"188":0.11194287274736607,"189":-0.09764218711261063,"190":0.375785284907366,"191":0.19970932957518525,"192":0.46410917735408974,"193":0.1335414215755632,"194":-0.512097479243628,"195":-0.17630390282015238,"196":-0.057936670040806805,"197":0.14673023284830242,"198":0.2735350608601112,"199":0.18276263550845231}},{"sx":5,"sy":5,"depth":8,"w":{"0":-0.002938075443377816,"1":-0.0005485928476526943,"2":-0.007172921107356221,"3":0.0004957897753878121,"4":-0.008186058531274173,"5":-0.0012395455678213298,"6":0.0022078648528907727,"7":-0.0012588282975309886,"8":0.0039527342703357254,"9":0.0009461712771503224,"10":-0.006746344412595162,"11":-0.007553280162347601,"12":-0.00043700413076043905,"13":-0.0060516360558608585,"14":0.0027268075802179114,"15":-0.005329719093001202,"16":0.0015775855197985619,"17":-0.0052234563027174314,"18":0.003102111135337215,"19":-0.005907719561088762,"20":-0.004150135172904379,"21":0.0012637050762674313,"22":-0.0064750324115224805,"23":0.00018073771663584557,"24":-0.011725812581559076,"25":-0.005955997121756235,"26":-0.005804842330965086,"27":-0.003643475114340706,"28":-0.002258095112493716,"29":0.003144102348064359,"30":-0.004385566272795887,"31":-0.001337124343463673,"32":-0.005535783837549353,"33":-0.003413648279241875,"34":0.004265466609854311,"35":-0.0018156322240590213,"36":-0.0013235672542218572,"37":-0.0008816013616579011,"38":-0.006159859354658418,"39":-0.0005144108344319823,"40":-0.00005007039076989358,"41":-0.0015245156149582704,"42":-0.0005052021761658838,"43":-0.0081712759899691,"44":-0.0015030974763326618,"45":0.0027861938288177286,"46":-0.001037726550684189,"47":-0.001386641182805433,"48":-0.0017486570798969604,"49":-0.009088640891174846,"50":0.0016446261251286648,"51":-0.0020008626206060513,"52":-0.0014382272762385841,"53":-0.01037266405630945,"54":-0.00687731216922593,"55":-0.0010925358655375099,"56":0.004281987773588155,"57":-0.005008602049717549,"58":-0.00021833618691381024,"59":-0.0069167434335715905,"60":-0.001810314523822722,"61":0.0023023547027211278,"62":-0.0032400117809327153,"63":-0.003082803747947474,"64":0.002844032996041152,"65":-0.010421482053234716,"66":0.005271198725744434,"67":0.0011888060104399468,"68":-0.0021519864008851656,"69":-0.0047976755909318386,"70":-0.0023292621213850478,"71":-0.0027640718258762718,"72":0.0019325872480384482,"73":0.0038540435568481016,"74":0.003251486563226322,"75":-0.004909292246659938,"76":-0.00033039735965179686,"77":-0.008973675507288352,"78":0.0024509632787765696,"79":-0.0009121371413566659,"80":-0.010934002590849498,"81":-0.003953366774071735,"82":-0.0017613606847495021,"83":0.005848029760357942,"84":0.000692230339461796,"85":-0.0028937550425482406,"86":0.00033418595074594137,"87":-0.00036483991720255376,"88":-0.012577585185081296,"89":-0.007509043234805876,"90":0.0012584364142623865,"91":0.0027252112076163013,"92":-0.006450967690546905,"93":-0.006238074081108811,"94":-0.0004251651029375932,"95":0.0041379182140804886,"96":0.002298934563631644,"97":-0.003633387074203154,"98":-0.004794313985176724,"99":-0.0009672161306532547,"100":0.004799922754982496,"101":-0.00829826653865307,"102":-0.002353373926691709,"103":0.0034528828651910867,"104":0.004990525345976064,"105":-0.009395393264822142,"106":-0.005808816103588128,"107":-0.004058258351056757,"108":-0.00337125430448674,"109":-0.004498386390449772,"110":-0.003518198443339542,"111":0.003460837850180146,"112":-0.002915435651068769,"113":-0.009625750495917284,"114":0.0017527069972778535,"115":-0.0028009724699647963,"116":0.0037416540145766715,"117":0.0018195761139894846,"118":-0.007217330587441594,"119":-0.010148136382146455,"120":0.0004970030412132615,"121":-0.002377990330142307,"122":-0.0020448927703506483,"123":-0.00900285979424388,"124":-0.008539358311129966,"125":-0.001159146453546638,"126":-0.005692010353101231,"127":0.0005545128901158868,"128":-0.006462451280387286,"129":0.0007408078098082874,"130":0.00098761011705753,"131":-0.00026109778173674013,"132":-0.00007883097205040938,"133":-0.0014643169881060902,"134":-0.003603468390100134,"135":-0.002037541601197825,"136":-0.005127337197798949,"137":-0.0029953811824614007,"138":0.004518570040384905,"139":-0.002275077955091886,"140":0.003888725461326085,"141":-0.004135121922668213,"142":0.0038156758595550037,"143":-0.00396396573964979,"144":0.0013534391059544955,"145":0.0010056365829166044,"146":0.0005135064634189402,"147":-0.0053540915695235005,"148":-0.0038798741165065645,"149":0.001442690172015033,"150":-0.009258217338985094,"151":0.0006814774338617306,"152":0.006239788157466601,"153":-0.0006508452464645762,"154":0.0012758434937425501,"155":-0.00510902200308806,"156":0.007285821197692556,"157":-0.0016750228204394885,"158":-0.005264382300540467,"159":-0.000601141012794188,"160":-0.0032212179593836773,"161":-0.010748060847453512,"162":-0.001288908284926587,"163":-0.002316324024473184,"164":-0.0005658196887166,"165":-0.0039455059508377716,"166":-0.0035338876964863125,"167":0.00043512870328453256,"168":0.00018142747815987238,"169":0.005988411923576212,"170":-0.009150392893475141,"171":-0.004910995687595098,"172":0.00411158743838888,"173":0.004563374341075527,"174":0.0011119680506233094,"175":-0.002127573941804714,"176":-0.000618427884734605,"177":-0.007230478024528739,"178":-0.0009252919084920377,"179":-0.0016880143030537054,"180":-0.0019541667322182663,"181":-0.0012792112248699564,"182":-0.011080248039104554,"183":0.0014055699615391866,"184":-0.002753348536449102,"185":0.0040454774531537225,"186":0.0013901225095861265,"187":-0.007983039928789381,"188":-0.0015696350254847432,"189":-0.00909887831325223,"190":-0.002564897193464873,"191":-0.001191108137889819,"192":0.0005480637945864886,"193":-0.0023393844383189978,"194":-0.005354035019841626,"195":0.0005383918393806099,"196":0.0012677060331170282,"197":-0.004601235349645379,"198":-0.004401141090619104,"199":-0.00017791252470971314}},{"sx":5,"sy":5,"depth":8,"w":{"0":-0.28434610696765844,"1":0.04086320590845372,"2":0.09864310452910936,"3":0.5245209423351551,"4":0.15549041102932123,"5":0.014769481077652757,"6":-0.3916207409616174,"7":-0.0923840340691962,"8":-0.16749757944262925,"9":-0.6207628928838519,"10":0.19713367522698133,"11":0.10732411110369763,"12":0.29267369398619564,"13":-0.04652953144268075,"14":0.02240148744634503,"15":-0.08466105485836972,"16":-0.16002137374075578,"17":0.015488013457016007,"18":-0.18501414287367757,"19":0.10366141730008423,"20":0.33634533084738893,"21":-0.21135692760964975,"22":0.12067562334423577,"23":0.075480088847819,"24":-0.18978258372638715,"25":0.3005343558193529,"26":-0.23661484782999642,"27":-0.049793700646813634,"28":-0.04959551354401842,"29":-0.4421855002349348,"30":0.10971802368927795,"31":0.42756001832520507,"32":-0.05143594992163248,"33":-0.047783357998708836,"34":0.39364403290798067,"35":-0.14552844105079055,"36":-0.21045359411412862,"37":-0.17585474824332012,"38":-0.16877948157139194,"39":0.1569105924122487,"40":-0.31347782192349555,"41":0.3132697985038504,"42":-0.3547323130634664,"43":0.19182408304284534,"44":-0.10138061230680769,"45":-0.18362747712196065,"46":-0.373372837224886,"47":0.07527938438107178,"48":-0.3013524189397713,"49":-0.18777946169693363,"50":-0.37834959173812494,"51":0.011762859872418747,"52":0.040800171200717925,"53":-0.05377420084231665,"54":-0.07818548674957009,"55":-0.20304188284093908,"56":-0.28619050275730223,"57":-0.14880596864989293,"58":-0.31644960202613065,"59":0.10640895963620596,"60":0.17717868646793267,"61":-0.03168479401724061,"62":-0.0015947257224679092,"63":-0.1268204658418324,"64":0.12314691809610563,"65":0.2517650046903186,"66":-0.21801014081251777,"67":0.07390916142547341,"68":0.016256217757914426,"69":-0.23029267151570518,"70":0.014313868128876642,"71":0.16384053234521828,"72":-0.011862623551551542,"73":0.061433682484681514,"74":-0.06824281577712778,"75":-0.09869323783484331,"76":-0.06938016338767228,"77":-0.11562619459650578,"78":-0.14136999500027253,"79":-0.05288650002640714,"80":-0.314920214991188,"81":0.2660854651878273,"82":-0.25688913541629393,"83":0.06844167820993166,"84":0.04144574556922272,"85":-0.2601684948247345,"86":-0.29210205834242986,"87":0.3650977878052095,"88":-0.3378367797101764,"89":0.08364297736942754,"90":-0.37951394687141743,"91":-0.06305389898908684,"92":0.014194941276625014,"93":-0.4116098224607847,"94":-0.2037537971830359,"95":-0.37587310126590523,"96":0.011262885940133832,"97":-0.1482872009181989,"98":-0.15172976839052837,"99":0.2156517867293576,"100":0.13629098098355982,"101":-0.19679875335012326,"102":0.21193507455224225,"103":-0.013925330652757164,"104":0.19339741182117126,"105":0.15314105743108286,"106":0.22740938963466298,"107":0.20082530854350752,"108":0.22176357407208439,"109":-0.11188005495680861,"110":0.34008267154503424,"111":-0.16240893732616582,"112":0.03858284312799684,"113":0.14136973759945815,"114":0.10588009271110548,"115":0.09703732924420765,"116":0.33185838344170676,"117":-0.18568412037290263,"118":-0.5561019275706993,"119":0.01318415533441154,"120":-0.1708904700770412,"121":0.027356286672070903,"122":-0.06287606730442641,"123":-0.28882668715848997,"124":0.26863137717814256,"125":-0.23113875053236255,"126":-0.10165162563308593,"127":0.1822714088308841,"128":-0.29393464484019083,"129":-0.10599375545401166,"130":-0.13424918572737973,"131":-0.05833431142549577,"132":0.046897425426658285,"133":-0.4055153389995647,"134":-0.40777895136954995,"135":-0.18908545874920812,"136":-0.11691153614569634,"137":-0.10709576517603239,"138":0.31422109347625504,"139":0.07314821183506215,"140":0.279990298462225,"141":-0.4697709136602064,"142":0.21141961507015838,"143":0.03679701368627453,"144":-0.2894373658402678,"145":0.034984902545659925,"146":0.29173262037496317,"147":-0.13460106381467055,"148":0.36055215787145906,"149":-0.5120632124360217,"150":0.3829066339281146,"151":0.23792533770762148,"152":-0.02289959398689991,"153":0.00419236856046393,"154":0.16292461335863173,"155":-0.02803960788711922,"156":0.2642380671343348,"157":-0.26729763503196546,"158":-0.49165589535453036,"159":0.2725946273083998,"160":-0.2754019992422781,"161":0.17168092880942226,"162":0.015480952401935845,"163":-0.27933852385312113,"164":0.13126758252301668,"165":-0.33559809496364973,"166":-0.09442106838652195,"167":-0.06668862520645505,"168":-0.22743322158897383,"169":0.012471238271495325,"170":-0.4704299492018761,"171":-0.4441573001872023,"172":-0.08296227022332722,"173":-0.5295385875930358,"174":-0.2674982733107012,"175":0.16919869335605814,"176":-0.2594004322231928,"177":0.048862686772305576,"178":-0.4006685717462553,"179":0.02501447994261996,"180":0.05981124040781674,"181":-0.49863979555474625,"182":0.4169548683592196,"183":-0.038721172742644555,"184":0.07515780873615864,"185":-0.014351594819176769,"186":-0.4247012486236015,"187":-0.20144473658697598,"188":0.29712115237016995,"189":-0.4802516717798267,"190":0.2563119773019823,"191":0.04479888159473978,"192":0.15902887289356935,"193":-0.17876530891849063,"194":0.11084601642145944,"195":-0.4508581214156024,"196":-0.04130123642397544,"197":-0.18590118030629843,"198":-0.3671973227026563,"199":0.04949819816606233}}],"biases":{"sx":1,"sy":1,"depth":16,"w":{"0":-0.03653925335129524,"1":-0.313643576493955,"2":-0.4771917508751463,"3":-0.9340447619680097,"4":-0.4516635599406853,"5":0.13836342665573495,"6":-0.32988807895966965,"7":-0.4543555267241812,"8":-0.1608671562426123,"9":-0.2116114791577212,"10":-0.4905187409262596,"11":-0.006208975283031128,"12":-0.2937986860713401,"13":-0.5715397114476338,"14":-0.0013697082747178185,"15":-0.24326987776487569}}},{"out_depth":16,"out_sx":12,"out_sy":12,"layer_type":"relu"},{"sx":3,"sy":3,"stride":3,"in_depth":16,"out_depth":16,"out_sx":4,"out_sy":4,"layer_type":"pool","pad":0},{"out_depth":10,"out_sx":1,"out_sy":1,"layer_type":"fc","num_inputs":256,"l1_decay_mul":0,"l2_decay_mul":1,"filters":[{"sx":1,"sy":1,"depth":256,"w":{"0":-0.004690941629409099,"1":-0.15831618293653268,"2":-0.24466771681990154,"3":-0.3217190436373343,"4":-0.6191259809022818,"5":-0.24135002467162014,"6":-0.1023387722760796,"7":-0.02233234127346083,"8":-0.18419843631112792,"9":-0.3828539163746078,"10":-0.046372823877378885,"11":-0.20468556810685842,"12":-0.5645536664771272,"13":-0.06922314095186095,"14":-0.0015466418549611662,"15":-0.4876026976549689,"16":-0.1485614615088496,"17":-0.2748118858130236,"18":-0.35673358032325825,"19":-0.2736370628424717,"20":-0.7433504278942621,"21":-0.4877934184464987,"22":-0.4744183366246556,"23":-0.3504598995392231,"24":-0.49790843900336423,"25":-0.42436735861193126,"26":-0.26079041568176625,"27":-0.25928377364857236,"28":-0.6008320793133263,"29":-0.3055754417133552,"30":0.005330808692428388,"31":-0.5844192562912878,"32":-0.38408858630967846,"33":-0.46502105967171375,"34":-0.44235703348262073,"35":-0.2536732812962805,"36":-0.6107358185081009,"37":-0.541136658026023,"38":-0.6884780620095804,"39":-0.7294946064862529,"40":-0.46786468375468065,"41":-0.06930710333557391,"42":-0.6722121587630929,"43":-0.46165819500346233,"44":-0.39428749300876853,"45":-0.4369501283816494,"46":-0.0016601517965382495,"47":-0.315991325503665,"48":-0.4555612375155731,"49":-0.3086418536007646,"50":-0.09102210717207473,"51":-0.563692904992453,"52":-0.5487212426971284,"53":-0.00723688660579463,"54":-0.34983198367521406,"55":-0.5561137321268268,"56":-0.40018946626306223,"57":-0.4839974269726111,"58":-0.2821444254475133,"59":-1.0856511522637071,"60":-0.2800871251580519,"61":0.04789444950749347,"62":0.004805898810737137,"63":-0.08230068737065382,"64":-0.4675778197923853,"65":-0.4189948028977946,"66":-0.7619477981864565,"67":-0.5996141835741465,"68":-0.675642740755872,"69":-0.3197144110402508,"70":-0.03916665126836369,"71":0.04387246289360136,"72":0.13748328261468237,"73":-0.334166907946989,"74":-0.17993993135562886,"75":-0.13039105334445558,"76":-0.634927592327761,"77":-0.4413001112588719,"78":0.0001128008122166527,"79":-0.29482833999815,"80":-0.6291074126875227,"81":-0.25455017162880655,"82":-0.9096376669925779,"83":-0.2229535357957625,"84":-0.5621500639512307,"85":-0.5324162322293292,"86":-0.2329006391984606,"87":0.07913265087841423,"88":-0.33761746704103035,"89":-0.3066032963406166,"90":-0.5443236312316454,"91":-0.31001660963522154,"92":-0.5765318574119737,"93":-0.8260151930462567,"94":0.0032844053279884396,"95":-0.826065854084309,"96":-0.5283809954800517,"97":-0.5127670257197281,"98":-0.4424102020353821,"99":-0.4736308674650286,"100":-0.04938240284383321,"101":-0.3359293161705476,"102":-0.48227918749951015,"103":-0.6553236556323367,"104":-0.6323447813233299,"105":-0.033003282418111034,"106":-0.7211683503230809,"107":-0.6834726034735431,"108":-0.5379736380236736,"109":-0.44905143874149683,"110":-0.005549976260834481,"111":-0.34742173401418963,"112":-0.6222488215080132,"113":-0.622799892241895,"114":-0.03585997177444847,"115":-0.6007632694257347,"116":-0.6057882504338188,"117":-0.36548577947136546,"118":0.13529717184635992,"119":-0.6858472062544685,"120":-0.5482780201767916,"121":-0.34136771586446546,"122":-0.368740650844577,"123":-1.1106851463266199,"124":-0.2827009854814593,"125":-0.08476777661832637,"126":0.0017940715375265057,"127":-0.013823767239847044,"128":-0.6778080031740406,"129":-0.3102532283752881,"130":-0.9581632509556317,"131":-0.2768056199769717,"132":-0.5843549844065179,"133":-0.5490580912782395,"134":-0.18759968594322599,"135":0.06983806805551589,"136":0.08615089806769285,"137":-0.3849024198554381,"138":-0.39364826469320546,"139":-0.30273293691555575,"140":-1.100560888771156,"141":-0.4332772620280727,"142":-0.0025338160506480963,"143":-0.25217676546556606,"144":-0.42607356209533137,"145":-0.13118482853804045,"146":-1.258535849785103,"147":-0.36138545294055974,"148":-0.4010765397865252,"149":-0.44277429013277103,"150":-0.027063759388383006,"151":-0.08621696689277622,"152":-0.2154631645585084,"153":-0.314422750263158,"154":-0.40811871012234513,"155":-0.37484276223864926,"156":-0.6261859935793155,"157":-0.6406435306782842,"158":-0.005306954777536802,"159":-0.3945835286156681,"160":-0.5800024672728615,"161":-0.4426800093484128,"162":-0.2365363388219846,"163":-0.6956409060038723,"164":-0.14276834981756634,"165":-0.6801142515386637,"166":-0.5486814027190761,"167":-0.44660105130018657,"168":0.05495663956822261,"169":-0.4403249415520131,"170":-0.6174270513401352,"171":-0.66277417192658,"172":-0.17753928602077249,"173":-0.7444058715412366,"174":-0.0020365794840956153,"175":0.006827203022649589,"176":-0.19061306750791235,"177":-0.47351615347968795,"178":0.051175740470731625,"179":-0.4598951314140406,"180":-0.5077736775383348,"181":-0.8357798619390833,"182":-0.19107184321312884,"183":-0.22218210313095474,"184":-0.22481313619470883,"185":-0.7056925584993069,"186":-0.5396182649038205,"187":-0.15086721902341585,"188":-0.48624247220864786,"189":-0.11323716576468659,"190":0.0028805469393014846,"191":0.02118531421293925,"192":-0.7790744449964516,"193":-0.05432078119818028,"194":-0.2931432476338781,"195":-0.05296928551728549,"196":-0.3671281185864409,"197":-0.25143656370675693,"198":-0.23715493089068673,"199":-0.05954973876128894,"200":-0.04209001939003239,"201":-0.6052564341676083,"202":-0.20863747433474888,"203":-0.08504658885549249,"204":-0.8931979590984325,"205":-0.5587111526901402,"206":-0.001118753594659382,"207":-0.1569915820716429,"208":-0.5308231656089127,"209":-0.18490536722915948,"210":-0.20777377552672205,"211":-0.38478086231745573,"212":-0.6139846003423782,"213":-0.0414060184182957,"214":-0.6530454486071419,"215":-0.3137381475275345,"216":-0.0505614890344351,"217":-0.467964745826741,"218":-0.15604720846297931,"219":-0.4226384308303271,"220":-0.6432539753307668,"221":-0.7620648061581118,"222":0.0003430182738929282,"223":-0.1002068374333601,"224":0.049963478086596236,"225":-0.17991759806618257,"226":-0.14494261265847128,"227":-0.877649063952365,"228":-0.28100235130895707,"229":-0.5693968244411811,"230":-1.1967669752385595,"231":-0.36623459569518735,"232":-0.03528996451642814,"233":-0.48540409405548396,"234":-0.621871399073032,"235":-0.9871887363622769,"236":-0.6673250159301533,"237":-0.45103873782417897,"238":-0.0031344063362509964,"239":-0.6901999140307351,"240":-0.3353394393451778,"241":-0.8897134412662574,"242":-0.02354059462569712,"243":-0.28333105869653064,"244":-0.30430052833699556,"245":-0.8154329692975202,"246":-0.46522640861992076,"247":-0.4326907039750858,"248":-0.15185718784737556,"249":-0.4080169871795369,"250":-0.20942279280992115,"251":-0.7295030269467526,"252":-0.7178067430085947,"253":0.01273561385095402,"254":-0.005288699468926376,"255":-0.5243662563929589}},{"sx":1,"sy":1,"depth":256,"w":{"0":-0.07356286949134182,"1":-0.4072463833615864,"2":-0.46356118673642327,"3":-0.0981240752906736,"4":-0.08917197167447799,"5":-0.13985051406664187,"6":-0.04599201024910777,"7":-0.016168843323710387,"8":-0.35638392867707264,"9":-0.16466573353650127,"10":-0.11095757083923279,"11":-0.2840666919690552,"12":-0.3593951275750065,"13":-0.07112143727632476,"14":0.0012828645239154946,"15":-0.4060007763267079,"16":-0.11406680202864217,"17":-0.5359200274444703,"18":-0.6258271355739672,"19":-0.25765112863989836,"20":-0.30321509867146346,"21":-0.31861391811077183,"22":-0.007348410991566382,"23":-0.02284623560280521,"24":-0.6461378136205357,"25":-0.7280048036196255,"26":-0.7907851586581266,"27":-0.07143195914217945,"28":-0.6165940097331738,"29":-0.5712224739104442,"30":-0.0033265835455922664,"31":0.06920952230200668,"32":-0.059634910213792344,"33":-0.27871954638556273,"34":-0.49111461555500235,"35":-0.21602415901135416,"36":-0.15181117563525084,"37":-0.5280582889172938,"38":0.07372698307425499,"39":0.15624744884543965,"40":-0.44582962256864156,"41":-0.47734927760499335,"42":-0.9559265286416014,"43":0.25423251571458844,"44":-0.4975866141561695,"45":-0.5673882672200704,"46":-0.0008493269547320824,"47":0.05338899296227007,"48":-0.2275641910863102,"49":-0.2374882764607241,"50":-0.184846240636687,"51":-0.21083026929160478,"52":-0.7366138041452777,"53":-0.5314165883744228,"54":0.2378969341265136,"55":-0.3412373126196044,"56":-0.22246401488762846,"57":-0.16766099708356716,"58":-0.3848884960895922,"59":-0.266215151046339,"60":-0.07561996640266626,"61":-0.0749056157990924,"62":-0.001965746638092347,"63":-0.4314176362216397,"64":-0.5444033486809842,"65":-0.3016863200691559,"66":-0.5996742402375694,"67":-0.9741130502523381,"68":-0.54629703504719,"69":-0.4098625298432914,"70":-0.2165688544469279,"71":-0.03361937260539998,"72":-0.32766006640548007,"73":-0.21242950709424474,"74":-0.196717340086461,"75":-0.920744778525662,"76":-0.494660727172857,"77":-0.3381644963666754,"78":0.0019931616280466323,"79":-0.8799495423178362,"80":-0.2170340465129309,"81":-0.3614187736842097,"82":-0.5390469042914603,"83":-0.6858866066660212,"84":-0.38440441885364357,"85":-0.7986263584618688,"86":-0.48916467441966716,"87":-0.1623660705503793,"88":-0.3468997121466614,"89":-0.5667337948465532,"90":-0.31261460257735735,"91":0.02637562714641457,"92":-0.5770523539908301,"93":-0.8120967955243399,"94":0.00017810911350393265,"95":-0.4671536419531782,"96":-0.5176059339175064,"97":-0.7316901805220766,"98":-0.24855230853059415,"99":-0.2097661808367734,"100":-0.018582368033418187,"101":-0.7727314428414589,"102":-0.09926407061179933,"103":-0.3697733760587895,"104":-0.13775835977637169,"105":-0.4780263455765492,"106":-0.5133152934509135,"107":-0.23385625156357337,"108":-0.44392045999770663,"109":-0.7488113031493588,"110":0.0026552033985378764,"111":-0.04574478326588416,"112":-0.41447013177050945,"113":-0.6196967743676794,"114":-0.09512272366775824,"115":-0.42234822472669775,"116":-0.5757189127040149,"117":-1.0626722490389824,"118":-0.06356214311156116,"119":-0.5741458509990066,"120":-0.34894737516264507,