{"layers":[{"out_depth":1,"out_sx":24,"out_sy":24,"layer_type":"input"},{"sx":5,"sy":5,"stride":1,"in_depth":1,"out_depth":8,"out_sx":24,"out_sy":24,"layer_type":"conv","l1_decay_mul":0,"l2_decay_mul":1,"pad":2,"filters":[{"sx":5,"sy":5,"depth":1,"w":{"0":0.1386885345421152,"1":0.4969987143661707,"2":0.010318981824011163,"3":0.09629343046158866,"4":0.17811078849597115,"5":0.09816186062546257,"6":0.6482560187152507,"7":0.43773833241525617,"8":0.2884798507084841,"9":0.09502367405413832,"10":-0.0794144421011876,"11":-0.3670657795944565,"12":0.17179270143655548,"13":-0.1493951998322409,"14":0.24121369830684994,"15":-0.27963197570486387,"16":-0.7509407487751628,"17":-0.581142708296865,"18":-0.19548705595065552,"19":-0.17525913622155928,"20":-0.23409410882341475,"21":-0.4700127070579374,"22":-0.4182996527019449,"23":-0.1997693032074645,"24":-0.4828855315640591}},{"sx":5,"sy":5,"depth":1,"w":{"0":-0.132764220656066,"1":0.3151292616531203,"2":0.1882317145050864,"3":-0.2679184146328246,"4":0.03511123328748304,"5":-0.10017325839274825,"6":0.26919446329071745,"7":0.20206571254981812,"8":0.3909598761969993,"9":-0.14948090168137543,"10":0.23129478483296942,"11":-0.19837401809356417,"12":-0.22532141800416366,"13":0.32008659158720043,"14":0.5200377377843213,"15":-0.3356614989261924,"16":-0.044484821658438534,"17":-0.041189198554144435,"18":-0.0139349289260143,"19":0.33452304468807254,"20":0.04717471753564485,"21":0.24621195213007183,"22":-0.08689798724604099,"23":-0.30249736651714787,"24":-0.5114688364451239}},{"sx":5,"sy":5,"depth":1,"w":{"0":-0.1557311646186156,"1":0.04084411885806444,"2":0.052661163279980695,"3":-0.047798023132831303,"4":-0.3776545557753573,"5":-0.3731231993260974,"6":-0.3437141077331869,"7":0.15912733804648566,"8":0.4702806932639542,"9":-0.34472446750246466,"10":-0.03311997278761394,"11":0.4431747953539879,"12":0.31910355707041893,"13":0.100373371200707,"14":0.3293165484444337,"15":-0.14769447870455515,"16":0.22669341282145652,"17":-0.18564891236071276,"18":-0.42202600078173746,"19":-0.15748712644293958,"20":-0.29503665024159187,"21":0.10774676928720547,"22":0.29925305414404724,"23":-0.1936209393768405,"24":-0.21584011266519643}},{"sx":5,"sy":5,"depth":1,"w":{"0":-0.1992246105723217,"1":-0.24104109958877984,"2":-0.45031252110454817,"3":-0.3129150548561116,"4":0.04218158205438233,"5":0.09230311089146594,"6":0.08965761029346646,"7":0.08340369068425135,"8":-0.3491286722552339,"9":-0.5893061068972164,"10":0.5229299941757602,"11":0.11697968645513705,"12":-0.24479632487617176,"13":-0.17320415671378733,"14":0.3208712273606291,"15":0.25434995842411534,"16":0.697726259650961,"17":0.516458157148325,"18":0.0965332218497199,"19":-0.0988943541748592,"20":0.25731121183078265,"21":0.5716134253958535,"22":0.4092729436678884,"23":0.2112475957667716,"24":-0.1366152761382493}},{"sx":5,"sy":5,"depth":1,"w":{"0":0.1129196842074182,"1":-0.05284095975922837,"2":0.293277364546003,"3":-0.33419503510773213,"4":0.155878797628175,"5":0.203338008597668,"6":0.38842117911450375,"7":-0.42681012532700274,"8":-0.4094307488500918,"9":0.4759546812614149,"10":0.2451479006648574,"11":-0.4982872236124954,"12":0.043220425345575325,"13":0.027525814787755898,"14":0.13006288005488054,"15":0.023146528651266506,"16":-0.051309461976295816,"17":0.5347206381593799,"18":0.29383358573365703,"19":-0.30881043951726167,"20":-0.17146554972351952,"21":-0.062412605597994095,"22":0.18852503464460116,"23":-0.0560917958655877,"24":-0.7400756975432128}},{"sx":5,"sy":5,"depth":1,"w":{"0":0.22052368506002779,"1":0.2204957239078635,"2":-0.2648580489484247,"3":-0.3484416542391376,"4":-0.0864867255410578,"5":-0.8034104741237292,"6":-0.546613513532751,"7":-0.34526970612602215,"8":-0.03233325739789596,"9":0.32941879718002265,"10":-0.19199880000669411,"11":-0.4856302460996793,"12":0.10915138168889074,"13":0.011225424128149652,"14":0.4820067489460785,"15":-0.5450062362160452,"16":-0.23832581346836101,"17":-0.3359574557909126,"18":0.5253186542945358,"19":0.14576259218855872,"20":0.10334420430229345,"21":0.02719413849090097,"22":0.5189597871326762,"23":0.8299490782266578,"24":0.1777611592276403}},{"sx":5,"sy":5,"depth":1,"w":{"0":0.48230372304939034,"1":0.4231049054329431,"2":-0.21749686741759733,"3":-0.3419191261771224,"4":-0.13562309248786794,"5":0.7415530694373154,"6":-0.08124540755837799,"7":-0.15735508141431898,"8":-0.41369892180516576,"9":-0.4659013150301463,"10":-0.003646141876604587,"11":-0.03056174455508224,"12":-0.7336577269884724,"13":-0.6604731875761979,"14":0.15267501891114615,"15":0.27091204846706807,"16":-0.3177123520676033,"17":-0.9453389897203928,"18":-0.26000276334811945,"19":0.12070740886528536,"20":-0.34708423539648786,"21":-0.8765104812702582,"22":-0.41829457456470576,"23":-0.03201813062834465,"24":0.41852033849021497}},{"sx":5,"sy":5,"depth":1,"w":{"0":0.1347487338965973,"1":0.11934145337250103,"2":0.5089874488481212,"3":0.32452716147651944,"4":-0.09220794113198773,"5":0.07336367781612403,"6":0.21014204150437957,"7":0.7591868584636289,"8":0.33807112606529965,"9":0.16416653944420256,"10":-0.13594200147590463,"11":-0.16210288223062466,"12":0.18453495856474667,"13":0.43248907040353857,"14":0.3178030423628064,"15":-0.37709383927483553,"16":-0.7538641023641629,"17":-0.2783774827478313,"18":0.14327294194675846,"19":-0.1320277872818127,"20":-0.3629894658836799,"21":-0.87484842287302,"22":-0.22546843007093004,"23":-0.40703493446552785,"24":0.10355152481867688}}],"biases":{"sx":1,"sy":1,"depth":8,"w":{"0":0.17503353810319822,"1":-0.13281123865313732,"2":-0.07856245719626008,"3":-0.0638423816062631,"4":-0.04997737808439074,"5":-0.04321458749240539,"6":0.08059343416516576,"7":0.07739013142098734}}},{"out_depth":8,"out_sx":24,"out_sy":24,"layer_type":"relu"},{"sx":2,"sy":2,"stride":2,"in_depth":8,"out_depth":8,"out_sx":12,"out_sy":12,"layer_type":"pool","pad":0},{"sx":5,"sy":5,"stride":1,"in_depth":8,"out_depth":16,"out_sx":12,"out_sy":12,"layer_type":"conv","l1_decay_mul":0,"l2_decay_mul":1,"pad":2,"filters":[{"sx":5,"sy":5,"depth":8,"w":{"0":0.1314297485456081,"1":-0.05144420324526032,"2":0.014539785241475468,"3":-0.28422030323236436,"4":-0.14758523901418466,"5":-0.22452078123271296,"6":0.04698623095851347,"7":0.09163445205023868,"8":0.008208943814603789,"9":-0.24711452971966955,"10":0.02853173974897252,"11":0.0012429703318011902,"12":0.1463781145273686,"13":-0.07933620400084844,"14":0.2700709551138158,"15":-0.07809160078795042,"16":-0.22732190763220136,"17":-0.14595800810833773,"18":0.20985181302921424,"19":-0.009098162299689353,"20":0.10342341697071744,"21":0.25126654989656927,"22":0.22095805196236207,"23":-0.19551416412967004,"24":0.11838054997828276,"25":0.03959047288908495,"26":0.10894150705570056,"27":0.0840244172134012,"28":0.1263857191160685,"29":0.15173005838816064,"30":0.16961120430837032,"31":-0.01965467922761873,"32":0.16997288619390516,"33":0.16034205876952864,"34":-0.024324458558401554,"35":-0.07436215895745432,"36":-0.005565504004862336,"37":0.23863710987953488,"38":0.40904644185447536,"39":-0.16870965614157643,"40":0.25270732292185355,"41":-0.08230648020886246,"42":-0.28543022291902487,"43":-0.4927415782030507,"44":-0.16862543772497546,"45":-0.3068801997378718,"46":-0.13252752092061798,"47":0.034563363170094265,"48":0.20011924599079295,"49":-0.11681597959526879,"50":-0.004630609512054081,"51":-0.36108156477998765,"52":-0.1685638246697127,"53":-0.24400874667195901,"54":0.006617242691366689,"55":0.13820302079734945,"56":0.16039154883657836,"57":-0.0014475439737160864,"58":-0.1218536324271916,"59":-0.4303773495289124,"60":-0.2512066168989657,"61":-0.20461322009528574,"62":0.1879582667227456,"63":0.18031079272341752,"64":0.08083065499127945,"65":-0.09950352129989042,"66":-0.005220070382745105,"67":-0.2625735810730998,"68":0.10590956382747686,"69":0.1794918294486733,"70":0.3302979028520019,"71":0.044851027782271145,"72":-0.006443331628638529,"73":0.1385401146283915,"74":0.13193834362403012,"75":-0.11358935042709052,"76":0.03285879933127653,"77":0.17036763634581373,"78":0.1881114181596057,"79":0.08106946031277057,"80":-0.0975546871775911,"81":-0.3683192230112729,"82":-0.25286248797677957,"83":0.185712343100014,"84":-0.3983151937945184,"85":0.13894572664727345,"86":-0.2632472978644285,"87":-0.42964352330323335,"88":-0.08844978708661728,"89":-0.4846175757556282,"90":-0.31391915819011484,"91":0.15438151941340492,"92":-0.28783842304902896,"93":-0.023377579353413343,"94":-0.33941496043067676,"95":-0.1547700110517579,"96":-0.10700655353886696,"97":-0.23429621200376466,"98":-0.3712044162374255,"99":-0.12943024791880936,"100":-0.37031727546410675,"101":-0.23196062357902456,"102":-0.356505460095485,"103":0.07350519108968648,"104":0.06767184371758884,"105":-0.029918502094040858,"106":-0.39623460621126744,"107":-0.3979644530483882,"108":-0.2184573240381169,"109":-0.254690751313486,"110":-0.2444755693357076,"111":0.21369360630245518,"112":0.1091118485549801,"113":-0.32338514521503814,"114":-0.27114103304994097,"115":-0.24472974305944165,"116":-0.172632415869149,"117":-0.364751289705659,"118":-0.24353877441242192,"119":0.1498225315727445,"120":-0.009785270950394335,"121":0.12186813859102448,"122":0.16026718470215284,"123":0.2807349300173887,"124":0.038568338308863186,"125":0.03931250733232591,"126":-0.07374856689970563,"127":-0.06946847788479371,"128":0.10751079807332298,"129":-0.09865215095638045,"130":0.19188081959288641,"131":0.14653167662988206,"132":-0.18240996303346002,"133":0.00206890078254673,"134":-0.14906248652600462,"135":-0.13082897786609882,"136":-0.2399117948565676,"137":-0.20711708123293032,"138":0.07386193670579047,"139":0.30667544591026524,"140":-0.0388087151956863,"141":-0.11451318106030918,"142":-0.21137323504994615,"143":-0.22060081709227491,"144":-0.08745467578277698,"145":-0.27901461428801544,"146":0.06064364075375396,"147":0.06769293399862217,"148":-0.10821524975751219,"149":-0.019742846225828784,"150":-0.44873340463410394,"151":-0.17629386673906855,"152":0.02650917114973518,"153":-0.2111165259171546,"154":-0.20318998276560554,"155":-0.022705796683433258,"156":-0.3894173996202765,"157":-0.07810339345913525,"158":-0.3995689379540258,"159":0.08115482678884947,"160":0.19635329436944407,"161":0.06903740617187216,"162":0.09458491116377463,"163":0.12338443990996768,"164":0.20528630448361182,"165":-0.03403645314437744,"166":0.049515659533146184,"167":0.11324287356190448,"168":0.08744557405455197,"169":0.16106573256141204,"170":0.07522484331322789,"171":0.10076947640340654,"172":0.18624897247456582,"173":0.20775170488991673,"174":0.08202193847124549,"175":-0.02172742374747052,"176":0.1062159679095544,"177":0.11297813771145103,"178":0.1123508960105114,"179":0.190367576237752,"180":-0.07127485313505562,"181":0.11767190659621234,"182":-0.14880007274017443,"183":0.09583906862456817,"184":-0.05819101410660881,"185":-0.0226705153105774,"186":0.057550439478050684,"187":0.33874545372254883,"188":0.016163348062440765,"189":0.18752209540270814,"190":-0.23187330352340924,"191":-0.13745350747655546,"192":-0.1451139797992275,"193":-0.04585821142557977,"194":0.008729313169591047,"195":0.3732773894217267,"196":-0.2558938107080302,"197":0.13316285565479485,"198":-0.36342953230284175,"199":-0.3565297654331945}},{"sx":5,"sy":5,"depth":8,"w":{"0":0.19064069810806816,"1":0.0389085963922898,"2":-0.12715411613488076,"3":-0.20307171434492596,"4":-0.19530018566202256,"5":-0.3065543832648625,"6":-0.13565767119437333,"7":0.06089949840389488,"8":0.009320482710940884,"9":0.017821917217028437,"10":-0.15517384700873618,"11":-0.13709398819721588,"12":-0.08222788216173767,"13":-0.060221175908358716,"14":0.012581210401958346,"15":0.10448886797720032,"16":-0.1917254705271913,"17":0.0506084979712211,"18":0.014158930538319082,"19":-0.11888460940171577,"20":0.008741921979070894,"21":0.05409671546206858,"22":0.1166294862041526,"23":0.2762064342836339,"24":-0.1352012558460873,"25":0.06533732552352835,"26":0.021720191924985432,"27":0.15125692808124838,"28":0.1385135521169,"29":0.0665289653516224,"30":0.08372512789457455,"31":-0.13719751362360352,"32":-0.3489137220632539,"33":-0.34681933189083997,"34":-0.07679381778815018,"35":-0.11964831293896656,"36":0.1509693887841452,"37":0.056723295983076426,"38":0.0330655100281131,"39":-0.3662547263064146,"40":-0.227225791704185,"41":-0.011759410934686987,"42":-0.18434508532275706,"43":-0.14544845913945265,"44":-0.10867366952978542,"45":-0.329012917257969,"46":-0.1764631811038324,"47":-0.03768910440170316,"48":-0.1718216139601884,"49":-0.0021963500754000054,"50":0.03907100410432442,"51":-0.20952191247123045,"52":-0.16346078968298136,"53":-0.17597564154019568,"54":-0.16055408932934545,"55":0.062456808338815645,"56":-0.027237100298222114,"57":0.06097407604145525,"58":0.01790423031642722,"59":0.010807866034615615,"60":0.03545395927636361,"61":-0.07215514144929364,"62":0.04177335717215214,"63":0.16276382993172636,"64":0.04732295346083676,"65":-0.004185414112692952,"66":0.005832821785507219,"67":0.05610545618016304,"68":0.07958724555259665,"69":-0.03587900521372553,"70":-0.0720798744127143,"71":0.03229607323565389,"72":-0.033395809921397616,"73":-0.04132268543247032,"74":-0.0489802779532766,"75":0.031880017418111396,"76":-0.16788600104162021,"77":-0.05199756439895854,"78":-0.16584729537942502,"79":-0.03451839852325339,"80":-0.07350441305763962,"81":-0.20702691362855266,"82":-0.10671469599964038,"83":-0.3044072032318411,"84":-0.018748221983333868,"85":-0.3320456360261057,"86":-0.11671752327611538,"87":-0.15559947260289209,"88":0.1641940698210558,"89":0.10652336750038678,"90":-0.06139453239249098,"91":-0.3686768196082063,"92":-0.0494351067883703,"93":-0.20913518651924293,"94":-0.193109224770172,"95":0.04624382102222567,"96":0.1475258378671794,"97":0.09113421283334683,"98":0.18980578778881782,"99":-0.27820884523746603,"100":-0.08025068911831573,"101":-0.21120386324101129,"102":-0.23725752484134993,"103":0.18869285165454502,"104":0.20764247402795016,"105":0.13161173607544838,"106":0.14891757840983383,"107":-0.07410636267604018,"108":-0.1425008106893161,"109":-0.2648595956078133,"110":-0.04986165921599332,"111":0.23874436371617724,"112":0.034578607769832216,"113":0.07777635213808519,"114":-0.22451727941927582,"115":-0.3308688764135363,"116":0.010601335616287337,"117":-0.22593822999609303,"118":-0.3598346884528991,"119":0.08784828873282148,"120":-0.15109480338045278,"121":-0.15368240857726106,"122":0.06898979730813012,"123":-0.006995814019620509,"124":-0.07298189697067525,"125":0.05372606153449871,"126":-0.12388099156664337,"127":-0.211347359260942,"128":-0.0012247388264177085,"129":-0.14476991434273342,"130":-0.031410037468392035,"131":0.0703030762133628,"132":0.006709750945518175,"133":-0.02033562178525017,"134":-0.1502562421638236,"135":-0.01939424426929483,"136":0.18625539037991815,"137":-0.12810797223810147,"138":-0.1975688062145007,"139":-0.16946088475125953,"140":-0.08703118317164509,"141":0.03828652662358153,"142":-0.10110066302233123,"143":0.08781563304650154,"144":0.10885876987820944,"145":-0.11539600585186822,"146":-0.14731910046488841,"147":0.04643245616134825,"148":0.04558329265021996,"149":0.2068756161413793,"150":-0.1512109155463583,"151":-0.17602902000420884,"152":0.04837854836114777,"153":-0.059589966932665,"154":-0.04912924663653777,"155":-0.04922719053379514,"156":-0.01855333055753776,"157":0.28573970792071646,"158":-0.05555864020465636,"159":-0.1256033491084764,"160":-0.08976644987395968,"161":0.006111457352147116,"162":0.1608716570552961,"163":-0.08236783200009881,"164":-0.045523888735166586,"165":0.21991173789498225,"166":0.31016387652132393,"167":-0.1450188354601574,"168":-0.08559967366863112,"169":-0.10259919234620915,"170":0.13497398163807042,"171":0.12092304203422068,"172":0.08038685868424755,"173":0.17269289980928848,"174":-0.05612049845849963,"175":-0.052265833362415345,"176":-0.05425870537192685,"177":0.04810407999398979,"178":0.06407134703404453,"179":-0.005009330118534685,"180":0.0388747277136501,"181":0.193466328605723,"182":0.01069644819208064,"183":-0.0314503174490541,"184":0.10456457363750297,"185":0.1011325404525716,"186":0.0748075859876525,"187":0.0513129966681068,"188":0.26833937979521755,"189":0.2045144483920637,"190":-0.055636021368731234,"191":-0.11222297777965096,"192":0.09923852558965522,"193":0.05377558319519962,"194":0.1576103154695872,"195":0.07135037774208328,"196":0.14216499946327454,"197":0.11529621999821082,"198":0.10290400173390714,"199":-0.04699824334456501}},{"sx":5,"sy":5,"depth":8,"w":{"0":0.14397085416062178,"1":-0.02921274308971905,"2":0.0980315752151341,"3":0.03770947992032388,"4":0.01882034110402368,"5":-0.32446738483626725,"6":-0.004544464570979745,"7":-0.06305175475853558,"8":0.1278765183785897,"9":0.019196659930677873,"10":-0.05613094479839917,"11":-0.30896383265601407,"12":0.09916022186698846,"13":-0.07105418334394509,"14":0.04572789318509014,"15":-0.06448476751393974,"16":-0.0006278495863582081,"17":-0.005251757467862735,"18":-0.08899283691521453,"19":-0.1589504793051255,"20":0.16531297942425335,"21":0.10526197819567511,"22":-0.09578967788926424,"23":0.12736962323172862,"24":-0.00735165445452847,"25":-0.02394134665000586,"26":-0.003157664198629867,"27":-0.028144018914742382,"28":-0.0030423990173494325,"29":-0.11125545025347887,"30":-0.045932808025647406,"31":0.25205796174181894,"32":-0.08689493356234179,"33":0.023815134150378097,"34":-0.23737583825620664,"35":-0.074759987663552,"36":-0.07771298968059713,"37":-0.017409459617068534,"38":-0.056259602715491866,"39":-0.032838955479688424,"40":-0.10296862093677692,"41":-0.02780062528267086,"42":-0.12959396767083872,"43":-0.023597150458887023,"44":0.07132721422718506,"45":-0.04426114607371728,"46":-0.13215890176101674,"47":-0.06438290505711665,"48":-0.015443117555638463,"49":-0.21070533727247642,"50":-0.14572340166410652,"51":-0.16829342237352357,"52":-0.03017780455553207,"53":-0.07239157688066734,"54":-0.058942111523496425,"55":-0.015890887892658797,"56":-0.18117374849657428,"57":-0.0982222290537191,"58":-0.11103431276124887,"59":-0.21564906868937045,"60":-0.20475343974369203,"61":0.06956033530303356,"62":-0.040444205950842006,"63":0.03997474890386453,"64":-0.10316388853993018,"65":0.07816049630793459,"66":0.18843030585069848,"67":0.09793287904449435,"68":0.13433507768458083,"69":0.2880916118976387,"70":-0.0017008852873848636,"71":0.07579287425377668,"72":-0.10674805158935906,"73":0.05550469961116245,"74":0.12952706045761173,"75":0.3219767254382915,"76":0.03949429342983945,"77":0.17263287801515226,"78":0.01998227503051885,"79":-0.05069890727427297,"80":-0.02454376503613595,"81":0.010638254172155526,"82":0.13434984640250952,"83":0.3678276175665622,"84":0.11148961844936503,"85":-0.10229838632668661,"86":-0.019288182063957902,"87":-0.04980743997289247,"88":-0.22197476772761662,"89":-0.16373351459883267,"90":-0.1164879076408215,"91":-0.06049559719052046,"92":0.02153214321196524,"93":-0.24327792856281746,"94":0.0567362312296616,"95":-0.15735246476170528,"96":0.021006128387812736,"97":-0.028268282217207442,"98":-0.04154125347768337,"99":-0.4062071747869832,"100":-0.20833622403755536,"101":0.024024089263677724,"102":-0.10462191336928181,"103":0.13430337125017772,"104":0.07545133893398656,"105":0.019997567807929852,"106":0.13833549327781144,"107":-0.09090308410281218,"108":0.07192287401655309,"109":0.07977535095266099,"110":-0.1209170730012199,"111":0.345276668137994,"112":-0.056567566161295796,"113":0.05876471448162659,"114":0.14510978506387168,"115":0.19397568142299842,"116":0.14764147821035076,"117":-0.06495745384047807,"118":0.3011838511958762,"119":-0.0051222235113903974,"120":0.22575090403254514,"121":0.19109578263907118,"122":0.11642368689321769,"123":0.12665448251061595,"124":0.17243111196704497,"125":-0.11656350870003403,"126":0.4768452302653049,"127":-0.08623175315984369,"128":-0.04122114686288424,"129":-0.17876403376287422,"130":-0.16412540086918695,"131":-0.35998921149001933,"132":0.041316023915065114,"133":0.04270847240795292,"134":0.24277983063249972,"135":-0.20634527978561867,"136":-0.02753617996161882,"137":-0.12950593059464643,"138":-0.20803126119674661,"139":-0.1384498072044854,"140":-0.1604179890808574,"141":-0.07601535908928114,"142":-0.07437174416841058,"143":-0.002590224257478627,"144":0.0005276464960500089,"145":-0.00860625718122015,"146":0.12121442525823607,"147":0.10626359688532423,"148":-0.14063546529061377,"149":0.06771105599237036,"150":-0.2512287032955865,"151":0.26749222909028547,"152":-0.0636454620304546,"153":-0.1288446594927978,"154":-0.11819151195196333,"155":-0.1020943930373651,"156":-0.14257085568835268,"157":0.08111738528051624,"158":0.3007269729962126,"159":-0.170279154590239,"160":0.05521074663685568,"161":-0.07691812217149978,"162":-0.01893606170091411,"163":0.07186170863667982,"164":0.0467092049119468,"165":0.06927683002671173,"166":0.2570530330773675,"167":-0.2335620734185079,"168":-0.24752209017773097,"169":-0.23284707322139037,"170":-0.2261928484082968,"171":-0.12823566927068797,"172":-0.12111501874433118,"173":-0.0034369295878965405,"174":0.04002570102792091,"175":-0.2985177234554561,"176":-0.30254409449659686,"177":0.07084465777307364,"178":0.11606717724175583,"179":0.10695761228496353,"180":-0.2576090277426393,"181":0.16817294222775453,"182":-0.10410127375964569,"183":-0.33041051648924863,"184":-0.06622518818682949,"185":-0.038497714539653956,"186":0.09238045882946826,"187":0.07967979223478733,"188":-0.09248087621016106,"189":0.026904736152628034,"190":0.17501349950644,"191":-0.33664388508020027,"192":-0.02755289153575082,"193":-0.05644849520908522,"194":-0.14175863421792456,"195":-0.22967551991480614,"196":0.02491754895035558,"197":0.030138459829838354,"198":0.23855483919133966,"199":-0.2955929061992347}},{"sx":5,"sy":5,"depth":8,"w":{"0":-0.00039344326242931937,"1":-0.07991571243704415,"2":-0.2041113990414963,"3":-0.13043159504865875,"4":-0.07778091568504285,"5":-0.11920318430663922,"6":-0.05198796339962558,"7":0.060612670296072896,"8":0.1288493644619435,"9":-0.20111825606154438,"10":-0.13860796491966712,"11":-0.382148256204094,"12":-0.31238504421660157,"13":-0.016293077388666144,"14":0.05743255438178989,"15":-0.03502677431692095,"16":-0.07603232463419193,"17":-0.10969615179384869,"18":0.029649827232814743,"19":-0.12184528286427732,"20":-0.20412262919386795,"21":0.12727815628612232,"22":0.002622181142971187,"23":0.14334710828769645,"24":-0.2210720280803622,"25":0.20207086325910767,"26":0.0576491776629868,"27":0.044061966682172334,"28":-0.08948782056455457,"29":0.019815328420674468,"30":0.026899381489703375,"31":-0.22468111491754517,"32":-0.1592430846184128,"33":0.23628970199448734,"34":0.05856927015638238,"35":-0.07715400995112214,"36":0.19041182555098424,"37":-0.18200455675035443,"38":0.0032342932581772166,"39":-0.3145106583119125,"40":0.1116902033779682,"41":-0.26900915213251425,"42":-0.25060717136954214,"43":-0.052102328122947655,"44":-0.2379705195297228,"45":-0.09592923888468555,"46":0.08026360499358223,"47":-0.21759440453359627,"48":-0.01771614474383312,"49":-0.1274270556398761,"50":-0.257048174500454,"51":-0.14009185039288788,"52":-0.5004713465530414,"53":0.016852601123801145,"54":0.18086780962494858,"55":0.10966627961777894,"56":-0.072479552166604,"57":-0.06260582170840895,"58":0.05814352202801508,"59":0.027704915153561712,"60":-0.20913636818939232,"61":0.19717843387489656,"62":0.11761045941022319,"63":0.08388728596635942,"64":-0.2297866533508449,"65":0.00682315933933299,"66":0.06996265044433735,"67":0.057634653204573734,"68":0.03673599363600515,"69":-0.0438128033397269,"70":-0.05446094434378237,"71":-0.342085337353754,"72":-0.13605482625528675,"73":-0.07895945174781786,"74":-0.14311045905219866,"75":0.08492363023147378,"76":-0.07702390644461736,"77":-0.5318073687828866,"78":-0.06197206794183553,"79":-0.3947605862079405,"80":-0.0007760214817572448,"81":-0.20324704088734363,"82":-0.077824176605699,"83":-0.033684076024479516,"84":0.05005764589632909,"85":-0.07898219482011315,"86":-0.16510308308281388,"87":0.031820641605044504,"88":-0.09435983236468577,"89":-0.15175395780732737,"90":-0.1251072504600475,"91":0.08474384629432238,"92":-0.31028747054055683,"93":0.19184434659157923,"94":0.009863088449008768,"95":0.07207485915686447,"96":-0.09497401877720817,"97":0.09700395709065096,"98":0.2845839782110948,"99":0.22904089487441373,"100":-0.18612659783521804,"101":0.14968646658064144,"102":-0.024500773307737277,"103":0.13043635566829961,"104":-0.2521787524973774,"105":-0.06495018272751818,"106":0.16037867673620138,"107":0.2290100207704193,"108":-0.04412538737869878,"109":-0.21478260489686446,"110":-0.015089768175349452,"111":-0.23144308751736,"112":0.01591069133135341,"113":-0.21250497894306197,"114":-0.15906553751748034,"115":0.008953198883045504,"116":0.018831250630820952,"117":-0.3444854426573479,"118":0.12295524613995476,"119":-0.4254218174014848,"120":0.03416470654087671,"121":-0.07086156122730111,"122":0.05063238253332029,"123":-0.08426667208050762,"124":-0.06729273240608312,"125":-0.1294809614944034,"126":-0.01968142401519963,"127":0.019214886970986757,"128":-0.030574774143388123,"129":0.06836334855238561,"130":0.012757723280096542,"131":-0.19373133833939338,"132":-0.12665253001394966,"133":0.1916007027458621,"134":0.12650450664961654,"135":0.21184023457254306,"136":-0.20312620609080712,"137":0.08341194068647056,"138":0.06218164283802219,"139":0.18691338971927857,"140":-0.14053270279559318,"141":0.1345033249500627,"142":-0.16063089612252035,"143":0.26114484848878833,"144":-0.19159166239135683,"145":0.048413058765718546,"146":0.22555002620012995,"147":0.13451936180506696,"148":0.03225924749209525,"149":-0.5386563526197146,"150":0.0680118023572123,"151":-0.0687210079596913,"152":0.05893678370527831,"153":-0.24105463115393422,"154":-0.31869660166122443,"155":-0.21609449566780753,"156":0.06672437544942031,"157":-0.1791211764078755,"158":0.22438689498147577,"159":-0.39118722006540224,"160":0.004331086001796386,"161":-0.1054395378747473,"162":-0.31660053130041566,"163":-0.362213994456784,"164":-0.17138895185640365,"165":-0.1272839730379344,"166":0.05475494287333233,"167":-0.008247828766062313,"168":-0.09407047514613456,"169":0.14827491685759903,"170":-0.03424485284118812,"171":-0.2438114467576601,"172":-0.08550460658005053,"173":0.313901150368311,"174":0.12058003867687059,"175":0.01591821771407643,"176":-0.3459039069054212,"177":0.027552349029937844,"178":0.020907776883324642,"179":0.13991506685891242,"180":-0.11200348255055288,"181":0.15324370922038008,"182":-0.08131710319912837,"183":0.2057689555985614,"184":-0.058995259830979044,"185":0.14037174678873293,"186":0.10168334389510784,"187":0.10345299342242067,"188":-0.05982957592562983,"189":-0.5589091072764265,"190":0.020753812720465274,"191":-0.12060441238375334,"192":-0.08362343165466342,"193":-0.05526939078863119,"194":-0.34313244273173,"195":-0.31504806588394385,"196":-0.016445983907486302,"197":-0.05345210469325255,"198":0.2511741865001801,"199":-0.1339101851681702}},{"sx":5,"sy":5,"depth":8,"w":{"0":-0.3035801164504702,"1":0.24242603565122015,"2":0.10183300139793887,"3":0.22527890396785044,"4":-0.006608089496830966,"5":-0.18898918420600633,"6":-0.103595585587011,"7":-0.07605202897809382,"8":0.06049909994533895,"9":0.14848130605839238,"10":-0.13528872111618237,"11":0.1401210279781988,"12":-0.009661742177890943,"13":-0.08916741866968986,"14":0.14969313288901454,"15":-0.08540076867622698,"16":0.032906073858752195,"17":-0.019127202798245806,"18":-0.1362572111132283,"19":0.0690677970532228,"20":0.028996052793006873,"21":-0.17722135230373745,"22":0.19622289074584176,"23":-0.09658080063910517,"24":0.049494622564768026,"25":-0.022606535935130487,"26":-0.16935426195636324,"27":-0.1058341722288382,"28":-0.052246261362021075,"29":-0.04463585987930789,"30":0.10720329025917888,"31":0.047517208152686674,"32":-0.0803703965790692,"33":-0.10419396934079288,"34":-0.049051053655895765,"35":-0.12257008766976558,"36":-0.09389841810030883,"37":-0.000512838260947994,"38":0.0928883506656391,"39":-0.013769862190561654,"40":-0.1266248221802244,"41":0.13798494077221718,"42":0.11091949675248906,"43":0.09888701006193863,"44":0.06372559064530871,"45":0.009749854830213725,"46":0.07429847160804406,"47":-0.0934250297774295,"48":0.01368649914759085,"49":-0.007049437497897755,"50":-0.18048747444300461,"51":0.10448018209256163,"52":0.095562495931225,"53":-0.15805469183853432,"54":0.20213213086393708,"55":-0.17036976894790395,"56":-0.06527112292838338,"57":0.026213477195699882,"58":-0.1481148853241748,"59":-0.01564481183624899,"60":0.007291945695096152,"61":-0.07880988526893179,"62":0.10339784056218977,"63":-0.15204270294832783,"64":-0.05279819111713954,"65":-0.19742698432814737,"66":0.05056017311748068,"67":-0.10504205675935008,"68":-0.14941469672561417,"69":-0.14231792073470162,"70":0.0052579997828835065,"71":-0.1556899734049744,"72":0.04397717642319143,"73":-0.10531486037881181,"74":-0.004178678975383237,"75":-0.05620385500145904,"76":-0.10126006288009265,"77":-0.07980540175244875,"78":-0.08387716986798559,"79":-0.016511046384608544,"80":-0.12501643886067487,"81":0.1962515652128748,"82":0.18817946477498096,"83":0.27112585263271066,"84":0.21753149625819654,"85":-0.17926367926129544,"86":0.15871390569339927,"87":-0.14583960622205777,"88":0.08387973591273905,"89":0.07903881630659945,"90":-0.15354797630810774,"91":0.05099348090711948,"92":0.16075672680318628,"93":-0.17115980800973857,"94":0.11135287328006542,"95":0.0795829607253799,"96":-0.17374488553002296,"97":-0.0030059038785479977,"98":-0.11108437524989198,"99":-0.11833414328440585,"100":0.07605377902756,"101":-0.1386734935664258,"102":0.012642716480647081,"103":-0.22327952974769213,"104":-0.010496685820235394,"105":-0.037989517881148814,"106":-0.004315866885652709,"107":0.0652638615596268,"108":0.06461834999177465,"109":-0.0673892704756904,"110":-0.0926887845779271,"111":-0.0314125798641085,"112":0.12082951792141035,"113":-0.06992243704697268,"114":-0.10777740824614213,"115":-0.12393744742033613,"116":-0.029840666415623864,"117":-0.07709973777947533,"118":0.02719380965942783,"119":-0.00898494814387879,"120":-0.055649262017994194,"121":0.15910052786101478,"122":0.0663862579987482,"123":0.15650424497985443,"124":0.15738277020431163,"125":-0.07440126799410891,"126":0.15948202105139467,"127":-0.16822346393803192,"128":-0.1536951468195955,"129":-0.006765841986180474,"130":-0.12121394735808744,"131":-0.07775689320835816,"132":0.049637763129223106,"133":-0.027218021081126868,"134":0.06937226103619246,"135":-0.20716543040488786,"136":-0.05946295213007608,"137":-0.04929872031562692,"138":-0.04999364995772517,"139":0.000672614509182097,"140":-0.10747362761556,"141":-0.0415609212949271,"142":-0.13698748273835248,"143":-0.18237767957520928,"144":0.06818681510865386,"145":0.09136016221242442,"146":-0.008905151046927564,"147":-0.09636899036590711,"148":0.14574751271397446,"149":0.017115943454231047,"150":-0.03047972855382399,"151":0.001155576291140041,"152":0.09202957266660516,"153":-0.097282960881065,"154":-0.09311561592389446,"155":-0.08722931998250985,"156":0.07959340767533744,"157":-0.04331237995588054,"158":-0.04659641008106733,"159":-0.02654247999956152,"160":-0.24651486318516416,"161":0.007403310975716364,"162":-0.0048069846013239935,"163":0.029191320741317944,"164":0.027661776587233903,"165":-0.27695360259546964,"166":-0.018223862062671715,"167":-0.05553031130226096,"168":-0.19317123311723491,"169":-0.047506244946005576,"170":-0.057387390094452595,"171":-0.009488610930298944,"172":0.032827159050338325,"173":-0.16311047013231403,"174":-0.14233979900077948,"175":-0.13398113244024254,"176":-0.013550479921923406,"177":-0.09677010751770572,"178":-0.14887076848040506,"179":-0.03390955211571324,"180":-0.10049012439201505,"181":-0.13881062355959567,"182":0.007624892504548758,"183":0.06133557475645948,"184":-0.024390733105125295,"185":-0.14992256123384765,"186":-0.053344648649778725,"187":-0.11208189945110887,"188":-0.1267197123305235,"189":0.03256815497240222,"190":-0.03353177361220231,"191":0.042154485833999125,"192":0.10177364197306564,"193":-0.1413795508138252,"194":-0.1637288664418148,"195":0.02209567748996234,"196":-0.013360604498618119,"197":0.09497950388280087,"198":0.0751902418980214,"199":0.0014591209749739056}},{"sx":5,"sy":5,"depth":8,"w":{"0":-0.1495386232130493,"1":-0.241865446918648,"2":-0.29026561630051334,"3":-0.2422285868520669,"4":-0.22215605077969094,"5":-0.0041476628804738794,"6":0.032448200284682926,"7":-0.3080910078299787,"8":-0.5851364643008903,"9":-0.12338145788431872,"10":0.017907676118882943,"11":0.003980135404476336,"12":-0.15179078081870603,"13":0.10129105070963083,"14":0.1757822080767578,"15":-0.35251275028305723,"16":-0.48152606024287,"17":-0.040480981006144286,"18":0.06964375800250763,"19":0.13346010506996375,"20":0.11547636731618868,"21":0.2621171813156796,"22":0.25410668974160383,"23":-0.2991908417653821,"24":-0.015521353784743654,"25":0.022570472413321697,"26":0.23790325224605585,"27":0.22701875831873045,"28":0.0966329393741038,"29":0.19742371308271486,"30":0.22010074808723376,"31":-0.4254155544388003,"32":0.2936874549151955,"33":0.015344792818129737,"34":0.06353878539771594,"35":-0.012687531909425556,"36":-0.05563753095221613,"37":-0.13267180812402782,"38":0.18523269114184257,"39":0.11233959110544287,"40":-0.21766417808408442,"41":0.014337630435021315,"42":-0.03626306969727229,"43":-0.06747417439166957,"44":-0.3830596982682701,"45":-0.0481401605797101,"46":-0.03943946602989519,"47":-0.4819483193371485,"48":-0.3283194175653469,"49":-0.1301549676103741,"50":0.07788733196208068,"51":0.02150755969911079,"52":-0.26136288519683415,"53":0.035175167050685616,"54":0.008683126800064332,"55":-0.3896947768641465,"56":-0.289937984502684,"57":-0.04324724247148092,"58":0.14863484757202738,"59":-0.00031659309872147153,"60":0.1069325913517635,"61":0.190900286433277,"62":0.11173116483426923,"63":-0.10130214607418013,"64":-0.07470203789177525,"65":0.10193497250778877,"66":0.24181553171148526,"67":0.13186461086743415,"68":-0.04097514733732905,"69":-0.3086156619894592,"70":0.022635544606744037,"71":-0.17840066019123796,"72":0.043236870281188666,"73":-0.05359586444350651,"74":-0.05067420259508074,"75":-0.14929431322237915,"76":0.20060247887476468,"77":-0.14933793092396097,"78":0.01344961125141194,"79":0.10263340049765153,"80":-0.5028878753303876,"81":0.1326323296091504,"82":0.05630566053620914,"83":0.12396540429813174,"84":-0.16352172969196796,"85":0.0744933865890906,"86":-0.20314148351995517,"87":-0.31887454313731833,"88":-0.4275856535013963,"89":0.11360402252897552,"90":0.058591115688482104,"91":0.14229636368538998,"92":0.03966811675379901,"93":0.09043162946686968,"94":0.010006560929014599,"95":-0.34879119141048387,"96":-0.16752764837776915,"97":0.1318824047821247,"98":-0.05209522622618174,"99":0.15858322455803212,"100":-0.08731741087908725,"101":-0.2119173901461323,"102":-0.0554057517714157,"103":-0.022583426193389974,"104":-0.2949853898531492,"105":-0.11699165036213102,"106":-0.002477322919912043,"107":-0.11147347699782849,"108":0.06147653990857577,"109":-0.27111251087541993,"110":-0.11894961151724026,"111":-0.115288773934985,"112":-0.27806055592878776,"113":-0.066141849987577,"114":-0.13100305638855594,"115":0.047569625893312976,"116":0.013013169367296957,"117":0.017579824150113315,"118":-0.19052705603840026,"119":-0.018633263063216093,"120":0.05861136426085668,"121":0.14386368535906385,"122":0.2118200723708003,"123":0.14962505830297218,"124":-0.03932320022701719,"125":-0.0030919242893767806,"126":-0.08826045083188844,"127":-0.038403122860598285,"128":0.1954671053309397,"129":0.16700469010451097,"130":0.07619647637732134,"131":-0.0548383363100804,"132":0.13790461015657826,"133":-0.14464389585663914,"134":0.15562235331409746,"135":-0.09211653838272062,"136":0.08641319435681433,"137":0.13328566757850138,"138":0.0013736731206003814,"139":-0.03742064153835744,"140":0.17424146640787663,"141":-0.3444512034742945,"142":0.07236974554674662,"143":0.2383459170696542,"144":0.056379347888782114,"145":-0.05276689579836007,"146":-0.03611605544378521,"147":-0.06753256360711932,"148":0.09707754446190138,"149":-0.27081479010153325,"150":-0.29801950250530257,"151":0.1070780137230249,"152":0.07336044872645466,"153":-0.14602927493975346,"154":0.13829669902991867,"155":0.06335150343633618,"156":0.001876560790757458,"157":0.03957499352804107,"158":-0.07098043129120117,"159":0.049856778411374,"160":0.07947141749059074,"161":0.0847962923192577,"162":-0.053081379799120615,"163":0.034574905296187015,"164":-0.11536129186751207,"165":-0.12212692597167021,"166":-0.03883879666230121,"167":-0.1267807016998742,"168":0.07375515424859748,"169":0.03913039007414913,"170":-0.09937980326212274,"171":-0.13994855041281937,"172":0.05871014506472156,"173":-0.23382106695848828,"174":0.26740130960230996,"175":-0.008755807993389481,"176":0.09932070745245483,"177":-0.06469776602770294,"178":-0.13340101289136144,"179":-0.37917717639009085,"180":0.009020635269448822,"181":-0.22393525272995574,"182":0.053317363979922795,"183":0.09916474842264053,"184":-0.0596546779002253,"185":-0.2038030447568688,"186":-0.28868151737987924,"187":-0.36439815247944024,"188":-0.25253296975578354,"189":-0.4261582588554369,"190":-0.08431459911399425,"191":-0.0689713220557339,"192":0.23160098076950053,"193":-0.05438586386086738,"194":-0.08083653888496276,"195":-0.47872180220669946,"196":-0.17586858650440176,"197":-0.3204144564595663,"198":-0.06480177739361724,"199":0.011469245825264967}},{"sx":5,"sy":5,"depth":8,"w":{"0":0.30814207741792954,"1":0.011483304825435341,"2":-0.272694022848524,"3":-0.1699129359582478,"4":0.33284142062120914,"5":-0.07356883473456381,"6":0.34987477255254373,"7":0.058899727695497235,"8":-0.05709876121930218,"9":-0.4019258647185997,"10":-0.325625323374674,"11":0.017954081422505937,"12":-0.2682882020798827,"13":-0.054708105563001624,"14":0.1607492298774203,"15":-0.19238373673958217,"16":-0.05497488645910666,"17":-0.2894445084943852,"18":-0.3156619155677531,"19":0.056558857317784594,"20":-0.02929169020099212,"21":0.15190591490845673,"22":0.056871446859616405,"23":-0.25009854351218186,"24":-0.07139689977938093,"25":-0.18902909988469732,"26":-0.1862440061036573,"27":0.029767341300475036,"28":-0.03819665512649361,"29":0.305691896962651,"30":-0.01258186040253027,"31":0.012255685279963542,"32":-0.1094716249040005,"33":0.02739294173314176,"34":-0.09299141567748455,"35":0.10004966253752393,"36":-0.028675700480147157,"37":0.1446703658894317,"38":0.14159336139578516,"39":0.04525706484030774,"40":-0.008422472509449842,"41":-0.013924659305043286,"42":-0.02302430788450323,"43":0.062195116243541425,"44":-0.009990243638521868,"45":0.1503768069809344,"46":0.13124445574394722,"47":-0.08376052845658324,"48":-0.0109077986357479,"49":0.09695420690094785,"50":-0.09438323904044922,"51":0.003274907489751532,"52":0.1225312981844568,"53":0.17179525197008394,"54":0.025536771386878373,"55":-0.23510618450598622,"56":-0.019334600869090113,"57":-0.02257481522338239,"58":0.05542755766617053,"59":0.11464339738951373,"60":0.031219265150946883,"61":0.1740341733459179,"62":-0.1671179570773263,"63":-0.23074812559098198,"64":-0.046660039744051446,"65":-0.04765224858996288,"66":0.19398168165609522,"67":-0.06270932958466842,"68":-0.1235306824569218,"69":0.05581161487106599,"70":-0.003692084734275958,"71":0.012314037223855009,"72":-0.1602492533707048,"73":-0.09639819665537236,"74":0.14944266024907926,"75":0.0487856070859696,"76":-0.016134198863073854,"77":-0.08930424308346857,"78":0.010791292438688763,"79":0.12096327059392875,"80":-0.09260016833971838,"81":-0.0600458729987455,"82":-0.07719709428949752,"83":0.05184386398266644,"84":0.04392030550523675,"85":0.08319163263659371,"86":-0.0682848855448747,"87":-0.32396209389317765,"88":0.18340928997417855,"89":-0.10523823344225607,"90":0.12081049668038493,"91":0.040863668744071394,"92":0.058099307675999835,"93":0.018479379849191235,"94":-0.23277241513103306,"95":0.028950910598888963,"96":0.10666667279851487,"97":-0.07581790285407465,"98":-0.010542077644566144,"99":-0.10993404217663191,"100":-0.15628008895008486,"101":-0.07734530275358238,"102":0.025096881077076996,"103":0.19043549187757322,"104":0.16579799445648202,"105":-0.0018628153285080423,"106":-0.13000269866413441,"107":-0.28391472681453567,"108":0.13676164420749942,"109":-0.08044114335390953,"110":-0.0013648470205039323,"111":0.18149495586494951,"112":0.27470497471328037,"113":0.22211409506046564,"114":0.07240855787922591,"115":-0.1738737157674714,"116":-0.27150529969488313,"117":0.07866198357534895,"118":-0.030708518478607352,"119":0.32634498543777535,"120":-0.15346686310961666,"121":0.009136525108021832,"122":0.05953132933174011,"123":-0.01799089104168436,"124":0.03999647114607478,"125":0.07667731746558375,"126":-0.027395468683280327,"127":-0.26712200884235815,"128":-0.09205583865159422,"129":0.1345530940930907,"130":-0.011819068526182211,"131":0.07225541074293984,"132":0.007937028236406171,"133":-0.16891851152958617,"134":0.11330015259275196,"135":-0.18316169371190066,"136":0.010076299865279106,"137":-0.031207477276036254,"138":-0.24646165717892424,"139":0.12241152522490469,"140":-0.053935985913110496,"141":0.02284974354133503,"142":-0.08336233510369796,"143":-0.01345048401316324,"144":-0.35589675897334117,"145":-0.23176445914495822,"146":-0.10304810975516931,"147":0.22625899574778088,"148":-0.11276879230263033,"149":-0.07497082637421774,"150":-0.0833701385142604,"151":-0.27239245209671986,"152":-0.08110671042670392,"153":-0.010891872894620852,"154":-0.002961854670524568,"155":0.0823344006525864,"156":-0.13996238636035085,"157":0.018862732949363976,"158":-0.2574017520086544,"159":-0.2354405154242725,"160":-0.17921233303836984,"161":0.009242109014996936,"162":0.06507999059856608,"163":-0.04401542881680596,"164":0.17544421061809093,"165":-0.12508412571095429,"166":0.11925899457202016,"167":0.06635114803091552,"168":-0.29708106995625005,"169":0.02339990241281104,"170":0.010090209015811896,"171":0.0324766685628556,"172":-0.11791129931154695,"173":-0.062154886107255336,"174":-0.15940624531164077,"175":-0.2655410457814051,"176":-0.33708595965630156,"177":0.1256825295732227,"178":-0.08849565713795862,"179":0.08081979265387805,"180":-0.006760873907311804,"181":-0.10426760718239401,"182":-0.19768384912142653,"183":-0.1308142018233566,"184":-0.02088352486817793,"185":0.05136451491967113,"186":-0.012286888681761143,"187":0.05880009602700056,"188":0.09874820371382997,"189":0.04277183024057428,"190":-0.2688224903360305,"191":-0.09580909587554422,"192":0.04366739988060399,"193":-0.025517290792612914,"194":-0.055699437538505994,"195":0.028033700878213625,"196":0.12605081097731682,"197":-0.35879173327746866,"198":-0.04140593149257919,"199":-0.13236175679924303}},{"sx":5,"sy":5,"depth":8,"w":{"0":-0.21207674694396253,"1":0.025609446154849145,"2":0.13433939822800497,"3":0.014984491631451047,"4":-0.015001872462443193,"5":0.2747420129887479,"6":-0.050653534561513266,"7":-0.01949345746668237,"8":-0.03839620092717975,"9":0.04643441431772187,"10":0.03146736145285502,"11":0.023989689774307692,"12":-0.05303398547518985,"13":-0.05521022875257227,"14":-0.16107215359297636,"15":-0.05145518846897038,"16":0.06086788527725136,"17":-0.018087607332423334,"18":-0.04506471513004131,"19":-0.10738108576429879,"20":0.11238860963496178,"21":-0.06999453804058907,"22":0.14556946662725362,"23":0.13504719761018813,"24":0.049308433078065574,"25":-0.12602307621770742,"26":-0.13932832336392043,"27":-0.44236831037214736,"28":-0.04536205141042239,"29":-0.12431741230079531,"30":0.24922297983868694,"31":0.07120266780517419,"32":-0.15571335077736317,"33":-0.10257956300951752,"34":0.08930234678387361,"35":-0.35936705231540883,"36":-0.2514438876661089,"37":0.03500709548887263,"38":0.15099183814829603,"39":0.06425791622644364,"40":-0.256311980199212,"41":0.14739590849008932,"42":0.079061788212436,"43":0.03409293270858882,"44":-0.07267215159988137,"45":0.3030822652795742,"46":0.031683800240677254,"47":0.10372681541175073,"48":-0.03983390403069261,"49":-0.024824568656783213,"50":-0.04855969684166353,"51":0.06762231601662426,"52":-0.04101095748305952,"53":-0.18853828896164165,"54":-0.027162593098373742,"55":-0.09730436586321993,"56":-0.03085465404915658,"57":-0.1336010046162698,"58":-0.19294690617059002,"59":-0.18915307608283394,"60":-0.008114544031786474,"61":-0.06751864898112143,"62":0.1647172236827174,"63":-0.129335830680152,"64":-0.049729392191609115,"65":-0.1043304862200835,"66":0.03803408781851888,"67":-0.22932702278439215,"68":-0.19003442660800104,"69":0.20539020742602188,"70":0.14373674399428862,"71":-0.10749189616100945,"72":-0.31187061160284696,"73":0.12261156566955593,"74":-0.04564581806840032,"75":-0.038748480956623976,"76":-0.03892953680334587,"77":0.15912819710004852,"78":0.08979887226447926,"79":-0.09806767596754992,"80":-0.07125408572605323,"81":0.0697353941848553,"82":0.10919498354143135,"83":0.20942924541100935,"84":-0.036549196066106904,"85":0.12419254814854382,"86":0.01608657003734214,"87":0.0374844144216333,"88":-0.06533674098093648,"89":-0.2677367623708114,"90":0.0007816137924015509,"91":-0.058421526834785374,"92":0.08476886852782034,"93":-0.2885902461789072,"94":0.17719190390531908,"95":0.03809849456348455,"96":-0.15542127681703907,"97":-0.1759447784433181,"98":-0.3118810709836526,"99":-0.4113723126596377,"100":-0.13519624278679418,"101":0.15816868290703218,"102":0.22754814895839162,"103":-0.07841011727851906,"104":-0.3214287997940789,"105":-0.10744723880316638,"106":0.08073983597903861,"107":0.03130054087200204,"108":0.0834693640674904,"109":0.25290761614771445,"110":0.14334208106667798,"111":-0.14366319146011228,"112":-0.38684135151549637,"113":0.12097222574863363,"114":0.058544162417955986,"115":0.1703429660903739,"116":0.36670220743864734,"117":0.3739332733136038,"118":-0.030696985300901026,"119":-0.22401948895588053,"120":0.0453942111745964,"121":0.07868631729699781,"122":0.07429265613458702,"123":0.04531205453891196,"124":-0.006453653431969536,"125":0.16492230848832173,"126":0.10100631848395203,"127":-0.06061518968245049,"128":-0.1425941125097667,"129":-0.3655193113976283,"130":-0.14755983177803456,"131":-0.10167277384108328,"132":0.019330276382326532,"133":-0.07303880534174405,"134":0.12111397838472245,"135":-0.21965571739098705,"136":-0.3399645970880473,"137":-0.14281651960468356,"138":-0.1547466121546839,"139":-0.19761491342661422,"140":-0.1153539286996777,"141":0.2664033872711353,"142":0.17722703402022646,"143":-0.16677201767267308,"144":-0.4491899074680881,"145":0.16590406519504353,"146":0.18731873269019575,"147":0.02970339537635972,"148":0.15550088980090102,"149":0.3463769980124538,"150":0.1194831287971516,"151":-0.2914556271742239,"152":-0.38360760388314274,"153":-0.023701273103684514,"154":0.19467149387356655,"155":0.014703679154028497,"156":0.09426574038081792,"157":-0.09137559495225152,"158":0.21884822226858971,"159":-0.10605117797998832,"160":-0.39418369833186423,"161":-0.05241036507611064,"162":0.08755947742290766,"163":0.12314336993553704,"164":-0.0667202677546195,"165":-0.12273237974246409,"166":-0.36819878009287144,"167":-0.28349902109968117,"168":-0.5366485098307852,"169":-0.22533544322306712,"170":-0.05843114618227999,"171":-0.0659051182409538,"172":-0.12720785066250453,"173":0.02583366478274456,"174":0.02475958921630844,"175":-0.6561279692540213,"176":-0.566115608664877,"177":-0.012659643416992085,"178":-0.06553960475707026,"179":0.06819028013112796,"180":-0.05964744182334173,"181":0.3517860904858063,"182":-0.04668573754250189,"183":-0.33398680606495157,"184":-0.36441843464161616,"185":0.07753111495551292,"186":0.05032997180568101,"187":0.06259641520280301,"188":0.03777463476602783,"189":0.0037436226108227945,"190":0.24595399704146054,"191":-0.30624685653876654,"192":-0.15258705078259371,"193":-0.0367701298052404,"194":-0.11519785003090052,"195":-0.05506570132353226,"196":0.06553877821695905,"197":-0.3793574179593079,"198":0.15184304750666697,"199":-0.1688284889438618}},{"sx":5,"sy":5,"depth":8,"w":{"0":-0.03406228403681714,"1":-0.027345422271103474,"2":-0.15433112029867713,"3":-0.007912805343845968,"4":-0.06192830049762509,"5":-0.18313808832316564,"6":-0.046480057770358706,"7":-0.08280464673229118,"8":-0.10130441005959445,"9":-0.10063010039136672,"10":-0.2722144203930705,"11":-0.16060408491788483,"12":-0.03973341207046953,"13":-0.20946124330115068,"14":-0.037063445151532246,"15":0.05129571625586175,"16":-0.3376473194958707,"17":0.009987320348550334,"18":-0.09197385078143439,"19":-0.18829881875811338,"20":0.04840503664359603,"21":0.09620982574914187,"22":-0.2886267946975534,"23":-0.22859842920701928,"24":-0.13075707892120267,"25":0.13871326028499437,"26":0.0259202255241449,"27":0.15965283557170964,"28":-0.02280384944467276,"29":0.28791507328081367,"30":-0.2809041965700569,"31":-0.2790190809495654,"32":0.06181330998837746,"33":0.1864304976289878,"34":0.2458470855558395,"35":0.16677754800726668,"36":-0.00882296331194771,"37":0.21852103051523936,"38":0.02116584015901931,"39":-0.053993437135924915,"40":-0.00537924920965259,"41":-0.08229968473089307,"42":-0.0287451334495474,"43":0.25269440835589485,"44":0.09421861365900307,"45":0.026578493949750433,"46":-0.21067642237061932,"47":0.04610878249558624,"48":-0.018801912192548727,"49":-0.02526059941605043,"50":-0.04539533826638833,"51":0.17695485899760802,"52":0.12434387630298402,"53":0.07029090359679274,"54":-0.29535022558425883,"55":0.07930801232099216,"56":-0.29675950156636466,"57":0.1654324652981137,"58":0.0327333286516211,"59":0.1098206538798724,"60":0.1061890361554083,"61":0.23356790060814125,"62":0.013486893262200846,"63":-0.21325343792973167,"64":0.04514642292016268,"65":0.19706536213574852,"66":0.15981510399826435,"67":-0.05475686442208672,"68":0.0987651990156067,"69":0.02244506478614928,"70":-0.08345290698699881,"71":-0.04718704872689923,"72":0.2846800951520523,"73":0.17653417167973476,"74":0.04176389528479839,"75":-0.18681035866848497,"76":-0.07208015143337589,"77":-0.06256575583509001,"78":0.2640346581801527,"79":0.19842027352428432,"80":0.27139477428755515,"81":0.039336130346750424,"82":0.21827510384387652,"83":0.0277806318070357,"84":0.11429767994342319,"85":-0.3242809448242908,"86":-0.07953647667132097,"87":0.4298663604045042,"88":0.19685784217029562,"89":0.10022257901734517,"90":0.19046117166654997,"91":0.022979445227848772,"92":0.0007326043442791362,"93":-0.15208794902098413,"94":-0.08929930615423971,"95":0.30939568418971825,"96":0.1076791003564283,"97":0.21164186286542594,"98":0.20871926344529063,"99":-0.12215871799466375,"100":0.09349035711306518,"101":-0.09519870139909498,"102":-0.02804367243508557,"103":0.16187246561470486,"104":0.12000063775573992,"105":-0.11191881510448479,"106":0.029458496516926436,"107":-0.18146625571004213,"108":-0.01656133939147004,"109":-0.11784730814326583,"110":0.20857733946751217,"111":0.2451741810819979,"112":-0.08509782148316572,"113":-0.17048494415092802,"114":-0.2771921084166335,"115":-0.18944226876930664,"116":-0.0895171812450847,"117":-0.08756678346201703,"118":0.3222600243644353,"119":-0.0743485816846928,"120":-0.1655804160786685,"121":-0.3026653259432391,"122":-0.39028962889186836,"123":0.024531344385922672,"124":-0.05597117846168125,"125":-0.24778917382186255,"126":-0.054963447673353386,"127":-0.043677909164581356,"128":-0.11417793905956519,"129":-0.05201996456741515,"130":-0.19848397298378914,"131":-0.040905084473749236,"132":-0.1758129331444556,"133":-0.1684811318157146,"134":-0.287293359398757,"135":0.032122798821189784,"136":-0.08071261603968341,"137":-0.20169477166955066,"138":-0.21997306011247328,"139":-0.014287173965038338,"140":-0.22633519847720746,"141":-0.03162991552080526,"142":-0.1822145640349554,"143":0.0504871384651051,"144":-0.13645068333109434,"145":-0.11395755979130327,"146":-0.12242255687107177,"147":-0.1272297690015966,"148":-0.1657089056786029,"149":0.2378650077678221,"150":0.04053906594413531,"151":-0.32876194675951903,"152":-0.39508876442664187,"153":-0.10114759054271719,"154":-0.13634801802440663,"155":-0.09893436090431304,"156":-0.2446509224976633,"157":0.1324577267320589,"158":0.0023208099913427037,"159":-0.4505865139022954,"160":-0.03687822113878158,"161":-0.05872617512068377,"162":-0.007752492078664309,"163":-0.10318658225715759,"164":0.02078765482943698,"165":0.035138501261057345,"166":0.1290283227878898,"167":0.05891417761630037,"168":-0.1298413905219492,"169":-0.023201314090276447,"170":0.0350041538312458,"171":-0.015904984671144918,"172":-0.06183145905006952,"173":0.1269886154312368,"174":-0.2734690302240704,"175":-0.06992451640401968,"176":-0.0905012366622043,"177":-0.06687577204416677,"178":-0.16187433965687775,"179":0.12081291226131359,"180":-0.06776712415216621,"181":0.1256465146000309,"182":0.011081229137662218,"183":-0.03806566406287091,"184":-0.21110765423635958,"185":-0.12296246692476522,"186":-0.11392795782699208,"187":0.04824619471941135,"188":-0.13469752116484898,"189":0.05337815168685945,"190":-0.09202586802144584,"191":-0.3118405831096202,"192":-0.05546436985116081,"193":-0.1398678088622585,"194":-0.06780566610017438,"195":-0.02789822308314561,"196":-0.1581346177528118,"197":0.024918127128960996,"198":-0.0581039720846411,"199":-0.1764784322819926}},{"sx":5,"sy":5,"depth":8,"w":{"0":0.020869081021816446,"1":0.056468709112690745,"2":-0.06997830207878607,"3":0.07476262251787141,"4":0.32899097552377177,"5":-0.15973035861923923,"6":-0.14233471017038335,"7":0.3160475528047273,"8":-0.19183873047085417,"9":-0.1665373753692364,"10":-0.09349431630059146,"11":0.181371301602085,"12":0.2484605970721604,"13":-0.03601817259836458,"14":-0.3029235653163948,"15":0.00600425133980484,"16":-0.05454883599511772,"17":-0.03589142662143748,"18":0.03853468778694806,"19":-0.03389038692611656,"20":-0.09446706517491453,"21":-0.027306433726686383,"22":-0.23065405888191481,"23":-0.004287818751208957,"24":0.0487303074204124,"25":-0.038279247658456535,"26":0.08282934063207943,"27":-0.0015201317343880752,"28":0.043208759783776564,"29":0.04194994913984477,"30":-0.36957531619367445,"31":-0.03390689570004478,"32":0.06572347599942872,"33":-0.09776360924175637,"34":0.047079597001727265,"35":0.1298775381217033,"36":0.018813115822745904,"37":0.14616570844533014,"38":0.014086356360696068,"39":0.0033405808411528367,"40":0.23596126171484424,"41":0.25282142022107945,"42":0.11096106795220646,"43":-0.1129191878388919,"44":-0.013842177351391476,"45":-0.4207421202776668,"46":-0.11310930585598547,"47":0.26563678427798915,"48":0.01362347747873894,"49":-0.02028054175568536,"50":0.021965746406481405,"51":-0.003584156453127445,"52":0.04743679402969501,"53":-0.16080696266381952,"54":-0.13535196718727846,"55":0.22332649402278376,"56":-0.038033035313003775,"57":0.04690516947993172,"58":0.05210909462380638,"59":0.13973842295855865,"60":-0.015476156406160884,"61":-0.019805367578817762,"62":-0.12624210540180042,"63":-0.04862410801943154,"64":-0.1313487654052554,"65":0.09913972387461341,"66":0.04564489726522452,"67":0.06001742697579415,"68":-0.13587347977837683,"69":-0.03213506626354211,"70":-0.15352511803753247,"71":-0.06117770308930862,"72":-0.006872794867358975,"73":-0.11433741390254006,"74":0.04355439578302738,"75":0.0008547122095223583,"76":-0.11102130589692953,"77":-0.12576554701115478,"78":0.0701249064277651,"79":0.20362243922513773,"80":0.14524607474283407,"81":0.06607746266681741,"82":0.08267498270747937,"83":-0.07277841321998486,"84":-0.24649680494946447,"85":-0.12692718743484285,"86":0.00006303087216244377,"87":-0.0037067910229714794,"88":0.07910710787593608,"89":0.02581766872652161,"90":0.01878058871925984,"91":-0.31464608819846546,"92":-0.08833404957222907,"93":-0.01103930618622577,"94":0.05265959924321902,"95":0.20389368013269044,"96":-0.05841830421102896,"97":-0.01951976815934244,"98":0.0842930370897208,"99":0.06902298470855295,"100":0.027702399247128716,"101":0.01114295462296083,"102":-0.17986814419938635,"103":-0.015613227783915612,"104":-0.030594905569432874,"105":-0.13744301066058728,"106":0.12119747750186276,"107":-0.09997405641942224,"108":-0.004877350040341372,"109":-0.2639706450433783,"110":-0.10782077600266023,"111":-0.06229133223054613,"112":-0.08516576831443275,"113":0.020791574228726864,"114":-0.11808957070732994,"115":-0.1783059022472802,"116":-0.03959273661194364,"117":-0.11881959433635066,"118":0.08623286702084795,"119":0.012850751880333838,"120":-0.03309400676738303,"121":-0.2501472127201631,"122":0.12823073417765507,"123":-0.023647671996006533,"124":0.1030779811666686,"125":-0.021838226930614286,"126":0.15118194244517452,"127":-0.2741009486471409,"128":-0.10442601213551267,"129":0.015506962336669577,"130":0.08231309883729131,"131":-0.16135087437005027,"132":-0.09696151770201794,"133":0.18639182838805102,"134":0.054622727177318454,"135":-0.11186590598151781,"136":-0.10794286731827993,"137":-0.050099249081721954,"138":0.07353518403557759,"139":-0.08964748320857936,"140":0.0657193537052303,"141":0.080768159200341,"142":0.22393793197711864,"143":-0.008154680381679002,"144":-0.009743549720112042,"145":-0.02488780841409741,"146":0.03980501440958422,"147":-0.10303347316271981,"148":0.18216456212328197,"149":-0.17134666526597966,"150":0.24126755692386584,"151":-0.15186965081572773,"152":-0.21457936859628818,"153":-0.13143975237902294,"154":-0.012377651163041847,"155":-0.10662241808983808,"156":-0.08991629369197891,"157":-0.1838223271840801,"158":0.11836883952968759,"159":-0.20918843809555762,"160":-0.019467860862444248,"161":0.06092005278957247,"162":0.14009752052166097,"163":0.10046760110588554,"164":0.28642379832614784,"165":0.3172305639465997,"166":0.007296387705239232,"167":0.0005780973230994138,"168":0.07760698773828437,"169":-0.036137240238901976,"170":0.07297591119041863,"171":-0.03850695205803931,"172":0.03009636542061471,"173":0.355709128440207,"174":0.2830885745667378,"175":-0.31376758182637754,"176":0.13831704478475665,"177":-0.09239320225941203,"178":-0.023419367093756624,"179":-0.07741762149943847,"180":-0.0425524716626788,"181":0.2219701571789457,"182":0.31090781876049384,"183":-0.057425038651602575,"184":0.015597209720592808,"185":0.0005779914304539927,"186":-0.0563317539682629,"187":-0.14509355010725716,"188":0.0932970587956395,"189":-0.10597603510347652,"190":0.16314438281593954,"191":-0.12530671314211586,"192":0.026332014641811556,"193":-0.12562209712326186,"194":-0.08308369140974177,"195":-0.09329052883849376,"196":-0.08280869212983484,"197":-0.1314536898730101,"198":0.04691560456398536,"199":-0.11284583588865846}},{"sx":5,"sy":5,"depth":8,"w":{"0":-0.015612308326813863,"1":-0.14005949655598274,"2":-0.13559209926687468,"3":-0.11649084756963622,"4":-0.19147987219618368,"5":-0.0023363784014125313,"6":-0.25297562222311165,"7":0.20059007301868656,"8":0.1095502953114154,"9":-0.09712751248197432,"10":-0.06449321506872553,"11":-0.13443333387411197,"12":-0.062043187648137016,"13":-0.12007354725817201,"14":-0.09227261301977045,"15":0.04949501982113762,"16":0.08759730729578787,"17":0.04858701793025961,"18":-0.04314948672651579,"19":-0.2511656564057741,"20":-0.06636834470392246,"21":-0.09498827227667087,"22":-0.10171020105103487,"23":0.1724403541453231,"24":0.10211954439649926,"25":0.3399221588846311,"26":-0.028404475034337663,"27":-0.23245921768481387,"28":-0.37027077863075464,"29":-0.05848562716918718,"30":-0.32071073770009906,"31":0.3099068553128336,"32":-0.28664556674725833,"33":-0.05391279978137408,"34":0.016964334165557853,"35":0.1983177846040411,"36":-0.10495291629905304,"37":-0.3038758520515792,"38":-0.3130422408542555,"39":0.045771935237301,"40":-0.11623388444142868,"41":-0.21633625236860343,"42":0.0799445989304838,"43":0.09058350739628913,"44":-0.1505874081657748,"45":-0.07188181201913287,"46":-0.3041697076074619,"47":-0.19198973119954368,"48":-0.1152630013568972,"49":-0.32266978309094396,"50":-0.12635213715737323,"51":-0.056649226048095,"52":-0.21183855382590208,"53":0.14736142393530927,"54":-0.1704519391593509,"55":-0.12747332697129937,"56":-0.037236939707563796,"57":-0.1379018666166243,"58":-0.19576877543325788,"59":-0.10243317383712804,"60":-0.07020136599829647,"61":0.20213374704090034,"62":0.06278676412239949,"63":-0.1643242012935709,"64":-0.0420742451752881,"65":0.17579075110938824,"66":0.001046551162279015,"67":-0.006381887957628891,"68":-0.031428528381979376,"69":-0.03876200221518076,"70":-0.12301853399001939,"71":0.07406343539765232,"72":-0.07405535150675667,"73":0.29803113089745553,"74":0.1288724279165023,"75":0.10009350145239435,"76":0.03241773004558548,"77":0.0032238008732510858,"78":-0.2792683444155353,"79":0.1805952874918673,"80":-0.37823447903205343,"81":-0.17318970538699932,"82":-0.10918653186547102,"83":0.04191717980630498,"84":-0.14484774874962583,"85":-0.038116989538482866,"86":-0.19886803064800376,"87":-0.4062567098274598,"88":-0.1531025487614782,"89":-0.046410526571816976,"90":-0.16592951861724411,"91":0.15702875163621546,"92":-0.14006123578098642,"93":0.09219915558802745,"94":-0.1367848426885917,"95":-0.27431449046977247,"96":-0.15385265135307108,"97":-0.09620240048961025,"98":0.02164219124689974,"99":0.12803715447572692,"100":-0.15930235198484255,"101":0.12761145016569703,"102":-0.04136021531081075,"103":-0.23109826801080993,"104":-0.10954125093636656,"105":0.08885674393143202,"106":-0.036376961390958806,"107":0.17418509340112565,"108":0.07030398646059935,"109":0.22182999612223805,"110":0.026942307769546082,"111":-0.06818253370950482,"112":-0.3267829639644242,"113":0.30804575027358344,"114":0.20232844047246754,"115":0.006795387821875296,"116":0.3039126297716438,"117":0.20645928247194748,"118":-0.00998248998258844,"119":0.07050586076268314,"120":0.08922103427636181,"121":-0.045049560323150196,"122":-0.040893821865350774,"123":0.07291376143956455,"124":0.024141360584468134,"125":-0.18380641744117765,"126":-0.233816509084453,"127":-0.05623937923155834,"128":-0.03688035859018879,"129":-0.04539686377940614,"130":0.1450520823829001,"131":0.15731413480361875,"132":-0.02450719128121587,"133":-0.05506880987328061,"134":-0.5043615647567936,"135":-0.01952577523295696,"136":-0.04308505169002764,"137":-0.09217070191938379,"138":0.11215807882313444,"139":0.07604955179412588,"140":0.012526922647298648,"141":-0.10975337715224709,"142":-0.08870704386752136,"143":-0.19914789744859857,"144":-0.0622476060868879,"145":0.10331055072633821,"146":0.11792199159848964,"147":-0.07517320862422892,"148":0.2926193090016601,"149":0.1383773683984334,"150":0.14651386560935462,"151":-0.02751776176019077,"152":-0.1746525529779267,"153":0.12387529668921608,"154":0.24733013532842055,"155":-0.08096222601694356,"156":0.24082988104603273,"157":-0.07292149720510537,"158":0.08811726249713503,"159":-0.1266877500911983,"160":0.1711256921048263,"161":-0.021633353072774843,"162":0.040530462639627084,"163":-0.17190429915774966,"164":-0.055106189402731466,"165":-0.17321392455313608,"166":-0.1556171254124469,"167":0.24910467307149844,"168":0.06743960642547141,"169":-0.0660075704492873,"170":-0.07186380022131347,"171":-0.06622534081243385,"172":-0.13098830548505985,"173":-0.10779932022692712,"174":-0.16466370229213345,"175":0.029701453206960354,"176":-0.14600816089450597,"177":-0.07407676786826177,"178":-0.17227888322199023,"179":-0.25056675878526474,"180":-0.16590116782053915,"181":-0.0898141100493497,"182":0.07493442802146776,"183":-0.08551058632799946,"184":-0.18387913417710514,"185":0.02771262424530889,"186":-0.02687565720537581,"187":-0.2909967359729069,"188":0.06485151186656157,"189":0.07915553334341834,"190":-0.05468643537463737,"191":-0.0275159229878507,"192":-0.3201409992957467,"193":0.0026883556731521047,"194":-0.031562480143723134,"195":0.07045307519439188,"196":0.19232423456906103,"197":-0.15726247163628693,"198":-0.03833635394995072,"199":-0.14910921854239312}},{"sx":5,"sy":5,"depth":8,"w":{"0":0.16507635962660697,"1":0.10931218761196528,"2":0.20646660605678802,"3":-0.33114199756119433,"4":-0.07397316976045369,"5":0.019072013058167844,"6":-0.040810831555757605,"7":0.2592749690949964,"8":0.17983115811058817,"9":0.1588041885020206,"10":0.04183119829707018,"11":-0.1661446332379735,"12":0.23025276096126973,"13":-0.03328921789472837,"14":0.053987305282659194,"15":0.26630378831913215,"16":0.2502813584249495,"17":0.09289967467775258,"18":-0.1311289199778065,"19":-0.21883611116718982,"20":0.16090517044663183,"21":-0.06948679039275973,"22":0.24078972925608724,"23":0.25002605742311135,"24":0.062014831643075974,"25":-0.2482731520911152,"26":-0.23313540596299495,"27":-0.22980336944272853,"28":-0.0889125758015806,"29":0.019807013240603622,"30":0.5005186609979727,"31":0.022347292771087306,"32":-0.28195652948925753,"33":-0.2253892135335859,"34":-0.06368680261252249,"35":-0.009247035216403871,"36":-0.2694170463441232,"37":0.28253927202771345,"38":0.001039691908899861,"39":-0.2848610715947993,"40":0.26255377335685204,"41":-0.03401859101443592,"42":-0.15718595912085015,"43":-0.24192911421534047,"44":-0.07949787755278391,"45":-0.15107183907706492,"46":-0.057843793033954906,"47":0.05738672000714697,"48":0.2646235257305582,"49":0.06315353957245227,"50":-0.13196216058300353,"51":-0.4303123897390937,"52":-0.11681183633585217,"53":-0.1302568073005386,"54":0.045175311166708546,"55":0.17969741076762702,"56":-0.0289793161830213,"57":-0.05995134091620779,"58":-0.09133033006025841,"59":-0.21952657189242142,"60":-0.2513793326809614,"61":0.16289405619901337,"62":0.1543108068339446,"63":0.06504498048649374,"64":-0.09589476686526724,"65":-0.05003008744606797,"66":-0.14011113204848563,"67":0.010333726681823481,"68":0.016733761279778325,"69":0.24609398617036063,"70":0.012749487046114567,"71":-0.3733662192642977,"72":-0.294574308275552,"73":0.007921240868390036,"74":0.016804788087342114,"75":0.11453409040944668,"76":0.0027394784266413187,"77":0.0720276007882358,"78":-0.20593982612935516,"79":-0.34469865098729524,"80":-0.2195679610850154,"81":-0.270961643848824,"82":-0.09962606981712356,"83":0.19852746790882322,"84":0.003963889243695458,"85":0.047875347668371745,"86":-0.13845236749494874,"87":-0.18095474511599804,"88":-0.2968771624980196,"89":-0.19757649100478372,"90":-0.0299716116921912,"91":-0.017721151154711918,"92":-0.34945616300508,"93":0.1613489270451034,"94":-0.16414856117110677,"95":-0.09380398746972352,"96":-0.32676160967793766,"97":-0.03746768236954552,"98":-0.03326941489074714,"99":0.057697514939796676,"100":-0.29978391223209794,"101":0.1514321585349564,"102":-0.13827204040987737,"103":-0.15011025376324405,"104":-0.21752509648415133,"105":-0.030876208553372923,"106":0.011999783356531913,"107":-0.10352993305129043,"108":0.029723563898467045,"109":0.1613690956473003,"110":-0.1609429235344813,"111":-0.19558796075500415,"112":-0.27205090432952506,"113":0.03829346257900781,"114":0.033571304633370415,"115":0.09923125185603826,"116":0.03821252953471936,"117":-0.1151706469930921,"118":-0.20547878373275533,"119":-0.36079070722623197,"120":-0.24166934438398807,"121":0.17410333166538985,"122":0.09525833208888515,"123":0.23364123281586258,"124":0.34847615426797024,"125":0.10610322584264377,"126":0.09049954155157,"127":-0.2451160696282886,"128":-0.07714694712075866,"129":-0.13555637948823826,"130":0.17788016152039596,"131":0.08307587740084138,"132":0.028991929536474958,"133":-0.1302975876932127,"134":-0.2642173096667868,"135":0.18117491760379853,"136":-0.0037403104661728965,"137":0.06653816566095061,"138":0.00806400009036183,"139":-0.12625910953004627,"140":-0.2285081533070719,"141":-0.07851164453589059,"142":-0.13625966593817113,"143":0.12241028694746607,"144":-0.11000053056784675,"145":0.1241112593299636,"146":0.08912922513818047,"147":-0.08634660369307073,"148":0.1902249697028902,"149":-0.05441140708893788,"150":0.012624786813275248,"151":0.0004565719626891272,"152":-0.1327789413410167,"153":0.06141203878963405,"154":0.08143417635576863,"155":0.15081779965729528,"156":0.19115159925730799,"157":-0.1674206117159421,"158":-0.02579953936085195,"159":-0.10397743472901788,"160":-0.22893733800589702,"161":-0.02298059915507279,"162":0.18401792620179067,"163":0.14481975838288705,"164":0.31607640486087096,"165":0.07386355512384016,"166":0.2732695494214604,"167":-0.2876210266877838,"168":-0.19277841734428827,"169":-0.21052149966553654,"170":-0.1687304219621842,"171":-0.048129531886630224,"172":-0.03622814932519893,"173":-0.2368494911738865,"174":0.09306021598515175,"175":-0.16055133387521084,"176":-0.22895412641224175,"177":-0.10235044302719279,"178":-0.0880944830599165,"179":-0.20338699167917285,"180":0.011655639983322884,"181":0.07755984274416158,"182":0.11219989443394018,"183":-0.21723724730754723,"184":-0.2243846009663261,"185":0.1751713050524347,"186":-0.005581014528648764,"187":-0.006609685008707438,"188":0.2568240902414858,"189":0.034367877559223076,"190":-0.07325155189747071,"191":-0.0004315100558352034,"192":-0.059659127030668814,"193":0.13159971117660732,"194":0.13552950026710525,"195":0.19554906001902383,"196":-0.01164672148517575,"197":-0.1703825308123757,"198":-0.31768982358007375,"199":-0.05611026345958707}},{"sx":5,"sy":5,"depth":8,"w":{"0":-0.1394530965908246,"1":0.057631964736799345,"2":0.06320588530397378,"3":-0.08820765492618154,"4":0.003988110728454426,"5":0.06428812269260072,"6":0.12133822341517693,"7":-0.020434389595526917,"8":0.027991950634949025,"9":-0.027520687942315894,"10":0.05701981475021281,"11":-0.13878333338596435,"12":-0.052656170427508586,"13":-0.04744066697650544,"14":0.20418808055090898,"15":-0.12841282349090585,"16":-0.04033893998544093,"17":0.08946281745800974,"18":0.06152962206149934,"19":-0.06351296679029801,"20":0.14998097787326922,"21":-0.08743054800239428,"22":0.08726769323151232,"23":-0.36375299872905775,"24":-0.14831994377311525,"25":-0.10985209714477075,"26":0.05890520250384643,"27":-0.014055836779704208,"28":0.10834168659021157,"29":-0.05430057383378383,"30":-0.2052792475164262,"31":-0.1745385779666866,"32":-0.08232056992382308,"33":-0.22620002811367798,"34":0.011783782570675864,"35":0.07627738858515436,"36":-0.14522985929586035,"37":0.03407480109452247,"38":-0.02908936357179395,"39":-0.16731173476048194,"40":-0.20866807693864853,"41":-0.029547952046666017,"42":0.04213601756076842,"43":0.0404414477389626,"44":0.06500054524226097,"45":0.10547523161444831,"46":0.20295865946961278,"47":-0.37218455034365217,"48":-0.14290684518467114,"49":0.08668116814778105,"50":0.06497708088314359,"51":0.1054834721446241,"52":0.1916507959893715,"53":0.179774116533814,"54":0.18211980544933312,"55":-0.37130820817322246,"56":-0.030197907998222074,"57":0.055675922787070294,"58":0.08675982710775869,"59":-0.08736936615739005,"60":0.1810379110708166,"61":0.06648618024180598,"62":0.03520626210324334,"63":-0.3951570835328043,"64":0.26472247929090176,"65":0.06853395960487099,"66":-0.06515274226174432,"67":-0.03248549119325834,"68":0.02986836148975393,"69":-0.2716748103504545,"70":-0.08234256639696456,"71":0.09348021384865407,"72":0.13842140747916745,"73":-0.07780076717364205,"74":-0.06502352016215485,"75":-0.06257186826985867,"76":0.14932692482162588,"77":0.17266246951077874,"78":-0.027133752155449418,"79":0.07599729887766507,"80":-0.05394659068936475,"81":0.1479772474645881,"82":0.15010342039019461,"83":0.12045578549022107,"84":0.13825843331860457,"85":0.1558063829290388,"86":-0.04732319903451702,"87":-0.007091152322823535,"88":-0.49244122736515106,"89":-0.10045447085510772,"90":0.08398021188630385,"91":0.1691699442998484,"92":0.21757429286376384,"93":0.21117548175614154,"94":0.030311474133474715,"95":-0.08978149401257395,"96":-0.27591962556927907,"97":-0.05329546296158613,"98":0.21900167751138933,"99":0.23600836335404346,"100":0.34912093475986755,"101":-0.03896237690010301,"102":-0.040043400363881314,"103":-0.3055574255412684,"104":0.036968388315882554,"105":0.24484141848794666,"106":0.16017024101972968,"107":0.011447957126167677,"108":0.1438882467305208,"109":-0.04498862384386528,"110":0.001107147464969839,"111":0.048831201400030874,"112":0.11259929896806295,"113":0.06995802274511947,"114":-0.04167118417123939,"115":-0.16174178129454964,"116":0.07877335463671414,"117":0.011728873106356529,"118":0.044377838413656494,"119":-0.04916038877370316,"120":-0.0007644165017506904,"121":0.02065585197730772,"122":-0.006056031156968394,"123":-0.2048741586488101,"124":0.09222238671657225,"125":-0.21693467611155473,"126":-0.14258335087062446,"127":0.16144399427460562,"128":-0.11216084893188565,"129":0.1216549859861826,"130":0.0009419581757977862,"131":-0.040139098237799826,"132":0.02994888929565194,"133":-0.0378066275854131,"134":-0.2221025381770429,"135":0.24357206256719172,"136":-0.5886655952969988,"137":0.09709214430418617,"138":0.1713427357441002,"139":0.31094705145775736,"140":0.34170488107842567,"141":-0.13133636754490255,"142":-0.23197063256276687,"143":-0.21058863113989354,"144":-0.4202482933637272,"145":0.010512106666736198,"146":0.24016062633524213,"147":0.2146253074124247,"148":0.28080320656680646,"149":-0.14393828868760622,"150":-0.3529972015102329,"151":-0.22435814104351107,"152":0.15827502122888967,"153":0.07485399956094654,"154":0.1348547118383722,"155":-0.0849427936509856,"156":0.24747429608602295,"157":0.04631525833647503,"158":-0.005874153135423113,"159":0.013633020638861295,"160":-0.09261462523397762,"161":-0.018889247305291925,"162":-0.15098834601744013,"163":-0.08187972339778087,"164":0.04103336675177868,"165":-0.21194223926118455,"166":-0.0989441003677405,"167":-0.10374927926196222,"168":-0.18401400998917555,"169":0.14910386703112297,"170":0.16653668740993635,"171":-0.0321796369793182,"172":0.28937620819836896,"173":-0.13267029746735345,"174":-0.42073823795266346,"175":0.04075101733424602,"176":-0.18874251792791424,"177":0.32236953221109704,"178":0.04000860202550005,"179":0.005983663081349425,"180":-0.03156857094831071,"181":0.03884310615823718,"182":-0.34287318222567864,"183":0.22942996430750123,"184":-0.19449145429183326,"185":-0.143941718230656,"186":0.14217884653490115,"187":0.32635314023920786,"188":0.22736251009292166,"189":-0.12797035022140243,"190":-0.2895519558364525,"191":0.019563630971125245,"192":0.08588711531169148,"193":-0.22022709618396064,"194":-0.05980784345808371,"195":0.09809257418522896,"196":0.161963297650887,"197":0.1756791298769901,"198":-0.06086082856061044,"199":-0.11148292409339589}},{"sx":5,"sy":5,"depth":8,"w":{"0":-0.24077557902102567,"1":0.11878735785826733,"2":0.1591599211716377,"3":-0.008637270657605998,"4":0.1765744823794275,"5":0.3124560208670212,"6":0.042988003916015406,"7":-0.1049798050669284,"8":-0.03123567564476341,"9":0.10483767955288292,"10":0.10573243838679934,"11":-0.011557703143458404,"12":0.1006417089133384,"13":0.1620286082287793,"14":0.11102295715769166,"15":-0.06333799721163894,"16":-0.04400832348910137,"17":0.12806715117461662,"18":0.014824122821387089,"19":-0.08334661797017553,"20":-0.028927996748616187,"21":-0.20492702224035578,"22":0.01874280940412984,"23":-0.09545472759600213,"24":0.08740773518572986,"25":0.003263828580539481,"26":0.17640673259199338,"27":-0.09133800585261852,"28":-0.14148846673190907,"29":-0.10293388174435734,"30":-0.07911100300542788,"31":0.04586976277483101,"32":-0.2608061318558996,"33":-0.027858776170856032,"34":0.05572355021673061,"35":0.08502055119298706,"36":-0.05014069559467309,"37":-0.24672723990088272,"38":-0.16579996609047234,"39":-0.03911961879825653,"40":-0.29732947744374894,"41":0.02363360828509678,"42":0.1963613829271421,"43":-0.15486099305652865,"44":-0.0014149375151682037,"45":-0.0008896889641689691,"46":0.07058865912369408,"47":-0.13511496958934627,"48":0.03423763262853487,"49":-0.03332149594997023,"50":-0.03829814510435272,"51":-0.22740077321156296,"52":0.05839308777512045,"53":-0.1824594813148081,"54":0.24488029501810657,"55":-0.06356443381958599,"56":-0.09088444163078772,"57":-0.021265754330499882,"58":-0.20968429916539064,"59":-0.4216337729203357,"60":-0.09885109841923138,"61":-0.07562285594603062,"62":0.028401077451676995,"63":-0.005004225658583577,"64":-0.06369534819019163,"65":0.10606030614204023,"66":0.10449859686415953,"67":-0.15026052714150007,"68":-0.1659509135451048,"69":-0.05231064256635879,"70":-0.18215235399846355,"71":0.05790142187015877,"72":-0.15204197065543937,"73":-0.05397204476281414,"74":-0.024538317887923804,"75":-0.16423827633326324,"76":-0.10647505106927352,"77":-0.26467642541070946,"78":-0.18362122346734622,"79":-0.0479160816990458,"80":-0.1874143889444934,"81":0.01746589507737602,"82":0.04274992719894898,"83":0.12490311540581374,"84":0.19805485942300788,"85":-0.05048955170863229,"86":-0.09461400033802501,"87":-0.0061214442068105975,"88":-0.2016676314761743,"89":0.03696919019195537,"90":-0.11286408890548126,"91":0.19214809563106197,"92":-0.03216106449417414,"93":0.20221298429488224,"94":-0.2861387395520228,"95":-0.07490188193725847,"96":-0.07831273156842111,"97":-0.020027206633274387,"98":-0.07130599035227124,"99":0.3027136693170488,"100":0.015968336339716012,"101":0.23681877367872115,"102":-0.24213401766601986,"103":-0.16770999795105296,"104":-0.11867267228693563,"105":0.02298121135836488,"106":0.0714769011386035,"107":0.31553282712174024,"108":0.0015828099228888406,"109":0.2611186275574358,"110":-0.04985690307559574,"111":-0.01953863202409006,"112":-0.29687904768363166,"113":0.012979167662410715,"114":0.07226555882995354,"115":0.16411894968948806,"116":-0.05883944825557712,"117":-0.07631526381549773,"118":0.009456966768634563,"119":-0.20801242615984294,"120":0.09490438784900415,"121":0.3509794197470763,"122":0.21162398408361366,"123":0.03874947061377976,"124":0.2690448668596775,"125":-0.2503144155224625,"126":-0.13772585643755433,"127":0.2022469687903895,"128":0.1363077424991081,"129":0.007721912682329333,"130":0.3634772541249294,"131":0.0793251663139319,"132":0.06831054146183098,"133":-0.07554208402154801,"134":-0.27178968838315165,"135":0.21365216243658053,"136":-0.04888602774064312,"137":0.02209266565554659,"138":0.19504284464827032,"139":0.08830599596689885,"140":0.2231480685869618,"141":-0.36887772787856177,"142":-0.17697026219470757,"143":0.1093955047046941,"144":0.17046839616065415,"145":0.13507103452289404,"146":0.1950132916480822,"147":-0.11875746657621265,"148":0.1549376033180773,"149":-0.11143366913705695,"150":0.07902048181196421,"151":0.1131747675013557,"152":-0.11285087629427855,"153":0.16922073515557592,"154":0.11997134424376807,"155":0.12485777202333086,"156":0.00283377858441018,"157":-0.3068254375724071,"158":-0.005194860068754133,"159":-0.10879023189563174,"160":-0.0016064073534815624,"161":-0.10177172071998619,"162":0.040273867211647,"163":-0.12124280045151412,"164":0.14961404530494357,"165":0.10390405793972637,"166":0.001458167730471103,"167":-0.004133991102593004,"168":0.18734834992995925,"169":-0.08695281758867175,"170":-0.11848836662197347,"171":-0.20931078860408847,"172":-0.15259347445331758,"173":-0.17533556761667263,"174":0.025002960946888104,"175":0.026558908483734826,"176":0.010661334791501833,"177":-0.015569753662621384,"178":-0.2292548768592106,"179":-0.23604167521059752,"180":-0.10283861789810184,"181":0.07271779737916684,"182":0.19987153703117974,"183":0.030159789649459125,"184":-0.09610074139331387,"185":0.03374094514470422,"186":-0.09717784080169249,"187":-0.14108925849035361,"188":0.005108434773056569,"189":0.13732865809289216,"190":-0.029033604442483003,"191":-0.08869938625099208,"192":-0.2374892799516314,"193":-0.0000872295954954034,"194":0.14512418050995107,"195":-0.09809472319261196,"196":-0.002668776835611219,"197":0.08598011301660022,"198":-0.025856563099647453,"199":-0.02236444033212819}},{"sx":5,"sy":5,"depth":8,"w":{"0":0.11356765784158591,"1":0.0056108478358711175,"2":0.1348817771220973,"3":0.043536028965802984,"4":0.08436223780518673,"5":-0.14919731279668827,"6":-0.05609050319061738,"7":0.0864403380740456,"8":0.13052390828998248,"9":0.044333976000879675,"10":-0.07196014275506606,"11":0.08493675892859896,"12":0.09551784465503739,"13":-0.14648363878159026,"14":0.028036391935698228,"15":0.07093101598385303,"16":0.10690004163306707,"17":-0.022869532106568977,"18":0.05852113773202342,"19":0.07255269042161566,"20":-0.04611604454020089,"21":0.1236840973212124,"22":0.07820308516641292,"23":0.04291080765124988,"24":0.015753484454648987,"25":0.1776173892454017,"26":0.02704302302407629,"27":-0.01724063169608391,"28":0.17136820461567598,"29":0.16220426806981963,"30":0.04766876382882636,"31":-0.0458384255798996,"32":0.17994178068134795,"33":0.1949416043108496,"34":-0.025711607447642868,"35":-0.190385078884637,"36":0.10244121310886838,"37":0.08977897301757501,"38":0.03367829235087238,"39":0.23798537731524183,"40":0.14948042358439925,"41":-0.09862550054911429,"42":-0.03931233240549944,"43":-0.07464213148182791,"44":0.03166790344344108,"45":-0.14742566074433874,"46":0.15269973394596173,"47":0.1528031005964379,"48":0.1717595212156583,"49":0.06936584160789938,"50":-0.10059979500671264,"51":-0.16842861374296486,"52":0.02390727002219734,"53":-0.1316191914153743,"54":0.02653527416196095,"55":0.07018516111288446,"56":0.013347171391906764,"57":-0.032577923189229585,"58":-0.09340469435347985,"59":-0.2682591834257911,"60":0.02298813315877422,"61":-0.20426513500110247,"62":0.035104931954555545,"63":0.0127243076149328,"64":0.04801654673582162,"65":-0.1095953007780838,"66":-0.16211208927293827,"67":-0.13833761033683523,"68":-0.14243209242914803,"69":-0.07216720193666325,"70":0.22020288383706857,"71":0.11283054096764955,"72":0.12983593211612343,"73":-0.14426956781210518,"74":-0.2606059527434442,"75":-0.12322027272351774,"76":0.2947796919514281,"77":-0.045453254690962855,"78":0.20357182897529041,"79":0.07917699641531775,"80":0.05374454523662763,"81":-0.23652345707203512,"82":-0.2604716170259243,"83":-0.4159514698866621,"84":-0.11530444868120474,"85":-0.1227898200863402,"86":-0.09125758810659317,"87":-0.030987694544670524,"88":-0.05696015821895484,"89":-0.26626163351804033,"90":-0.21624740725415736,"91":-0.2180580258813221,"92":-0.21842482186210277,"93":-0.14800525430020758,"94":-0.17930131224801896,"95":-0.14596974715785746,"96":-0.23083371640086087,"97":-0.1778461785416682,"98":-0.16622225017459163,"99":-0.1700847149243685,"100":-0.1969487361300715,"101":-0.23088935201059768,"102":-0.23780918008233357,"103":-0.08970125659087659,"104":-0.15396396356029232,"105":-0.16085939611042638,"106":-0.1356411756736274,"107":-0.29997213913489973,"108":-0.11955805640051556,"109":-0.2229627532284696,"110":-0.10467606602506606,"111":-0.12158750875986542,"112":0.030758053656229124,"113":-0.15068931957262804,"114":-0.32198646533538616,"115":-0.2607344918078233,"116":-0.2224708646863386,"117":-0.11501026776938643,"118":-0.14796126539798263,"119":-0.09385537746942456,"120":-0.0889619503149745,"121":-0.16833987642588813,"122":-0.15513333109710567,"123":-0.05385830537919655,"124":-0.25057423195902395,"125":0.11237499396719328,"126":0.11766434394357866,"127":-0.1242542170909617,"128":-0.034642473979306906,"129":-0.19483363760779096,"130":-0.24324618426502181,"131":0.09947631780867759,"132":-0.22363014862922553,"133":-0.01928413816694383,"134":0.2581859087070197,"135":-0.10670439133741226,"136":0.03571309590471286,"137":-0.29069101176727563,"138":-0.05343856205368326,"139":0.10539956656404195,"140":-0.16550452090913811,"141":0.14204864315551133,"142":-0.01931978641640449,"143":-0.0629792652361722,"144":-0.08278155114934636,"145":-0.2470529479769933,"146":-0.11537103921909263,"147":-0.06675364427727937,"148":-0.14644700013282774,"149":0.1151111594696727,"150":-0.17993700614437952,"151":-0.07977062411384211,"152":0.26146100217224827,"153":-0.18653330324790776,"154":-0.08938793057445782,"155":-0.17257011909578546,"156":-0.28105914231087337,"157":-0.19926084883093814,"158":-0.14226860762421364,"159":-0.044472232342367274,"160":-0.16592445563963062,"161":-0.05570151882664049,"162":0.013785929867016123,"163":0.26299369458973665,"164":-0.06124666915719054,"165":0.07748387190729086,"166":-0.1211850346081714,"167":-0.26661134332879693,"168":-0.07553802291034896,"169":-0.009193240684732039,"170":-0.06364217577646537,"171":0.14277760070195925,"172":-0.07051174675279931,"173":-0.024452653344281632,"174":-0.15151830588606413,"175":-0.05228924661197514,"176":-0.09029731456938017,"177":0.1162824158051585,"178":0.03560832405189289,"179":0.17586863752788942,"180":-0.17509858901743564,"181":0.10701052940202951,"182":-0.173345274568523,"183":0.018304335507186027,"184":-0.06893229115952848,"185":-0.2427889601451837,"186":0.003183085734762154,"187":0.32869303078620044,"188":-0.056575589760950215,"189":0.07714992065552931,"190":-0.2224662136994511,"191":-0.11847472930320523,"192":-0.12055228450405056,"193":-0.21437312927142038,"194":0.14829306759822417,"195":0.24816654316363276,"196":-0.19056223640194045,"197":0.11848293309427237,"198":-0.004627129258575878,"199":-0.3285761086163569}},{"sx":5,"sy":5,"depth":8,"w":{"0":-0.2906795943188274,"1":-0.1420640869840156,"2":0.05396234613942821,"3":-0.0023314908895253807,"4":-0.09434466866188192,"5":-0.018660383686664395,"6":-0.11279519905885296,"7":-0.2636066459096392,"8":-0.3915669398171813,"9":0.09916118430934254,"10":0.20329478080325566,"11":-0.04430563359260674,"12":0.08812960337967965,"13":0.30699440865473093,"14":0.051556844398363055,"15":0.043687966426451764,"16":-0.24220397076199848,"17":0.024721283891920895,"18":0.18786473746532956,"19":0.07644424539511302,"20":0.48271642907370016,"21":0.38228235513222764,"22":0.25382561988448843,"23":-0.2410816893308413,"24":-0.19709022693961772,"25":0.04787327198198131,"26":0.15880196249383216,"27":0.009347020434558059,"28":0.40839221179677077,"29":0.07290624540391,"30":0.2542885705189612,"31":-0.2587978308249585,"32":0.07843652040089467,"33":-0.0005086522095407558,"34":0.26102172596011436,"35":0.013247956683232677,"36":0.3451903604007535,"37":0.009527975035484552,"38":-0.11220847922528575,"39":-0.0030180083896425955,"40":-0.01049382472955231,"41":-0.05080469060333631,"42":0.001697698222452882,"43":0.021445687284058323,"44":-0.21384843190790306,"45":-0.11219387921168822,"46":-0.11778576839720553,"47":-0.07383123929334363,"48":-0.10438150718579334,"49":0.09573613529440152,"50":0.14202198280773382,"51":-0.07057018350430187,"52":0.15798856704603711,"53":0.036269187435267934,"54":-0.10999794290386254,"55":0.11248485040552551,"56":-0.3376181380164485,"57":-0.010430762048661344,"58":0.10834272078202853,"59":-0.0403705771926424,"60":0.2476659789605865,"61":-0.15021238199126807,"62":0.06128166609289358,"63":0.05898699363977633,"64":-0.2352564409530754,"65":0.07700531165358025,"66":0.0941416540856043,"67":-0.12585833494824072,"68":0.17584602942491404,"69":-0.26869443144481014,"70":-0.055357716002541156,"71":-0.14007632810389611,"72":-0.23554236865634542,"73":-0.07136317727207361,"74":0.12266281537656898,"75":-0.02755163105308928,"76":0.04038846879692647,"77":0.11404540784167859,"78":-0.02125936420997226,"79":-0.03933765543312788,"80":-0.006414542899426008,"81":0.06917483673713423,"82":-0.24798136680369726,"83":-0.25693935515412053,"84":0.12761913994971916,"85":-0.23508502388353208,"86":0.1370773144518859,"87":0.012169242079524908,"88":-0.08850894510950533,"89":0.11867116231787703,"90":-0.000902263697452717,"91":0.02556950280341367,"92":-0.0977260734558684,"93":-0.298050116886078,"94":-0.07832719766089856,"95":-0.043778757178716585,"96":-0.2698870643067736,"97":0.042694714034650263,"98":-0.00935917721257515,"99":0.09270226626158802,"100":0.0777920565200867,"101":-0.4676619179656395,"102":-0.4490386767470059,"103":0.14609090944479192,"104":-0.137374455404273,"105":0.0957171124114071,"106":0.015882313349598064,"107":0.17252405520025327,"108":0.03170849662918074,"109":-0.16612739846809235,"110":-0.5280136105086382,"111":0.010988813179676904,"112":-0.09217400892779828,"113":0.10908832867391652,"114":0.19147418956363838,"115":0.15592657802613433,"116":-0.2832558325035761,"117":0.29429455586409153,"118":-0.17059351319202185,"119":-0.04206639770246408,"120":0.03460251298280255,"121":-0.01424707236392622,"122":0.0279406056709888,"123":0.07304868516215056,"124":-0.03281484799758328,"125":-0.1662506551634006,"126":-0.023737402778065807,"127":-0.22047899402132654,"128":0.1930704858474556,"129":0.2870256685769546,"130":0.1137410088214968,"131":-0.1558454430084581,"132":-0.06635819463539569,"133":-0.4514550936131689,"134":-0.07788045502732646,"135":0.2243353117762405,"136":0.28351530463099883,"137":0.16472475051263227,"138":0.13017654390668915,"139":-0.1369432765270824,"140":0.036713724129533096,"141":-0.4024185775719786,"142":-0.26886329094268374,"143":0.22717482079626106,"144":0.1459789841383573,"145":0.13139768306426777,"146":0.06705186051279109,"147":-0.09173912227702812,"148":0.031407962755842,"149":-0.23766436879897584,"150":-0.3594644368092062,"151":0.0632772811914861,"152":0.25000032553733303,"153":0.3526391132019148,"154":0.41194688000460816,"155":0.0036942497894315203,"156":0.2904451904684702,"157":-0.12140258111792897,"158":-0.30675515076437637,"159":0.20969186560125455,"160":-0.0550551356459604,"161":-0.15403902075955406,"162":-0.052766490308764485,"163":-0.16455085080974444,"164":-0.031526585046627344,"165":-0.24887432795762174,"166":0.11449036743714702,"167":-0.10758207638260042,"168":-0.20396622979423537,"169":-0.19649797921412795,"170":-0.08581472938765827,"171":-0.08437127279414797,"172":0.07515411946204358,"173":-0.1756760141233694,"174":0.28795171581942436,"175":-0.23245983081583757,"176":-0.12355770437562759,"177":-0.18323075354199853,"178":-0.17398792364910246,"179":-0.041461866713323955,"180":-0.037338645386552696,"181":0.031173367446723332,"182":0.1785863889250662,"183":-0.27005668471428446,"184":-0.011471970947753847,"185":-0.163632955010117,"186":-0.1899437066780553,"187":-0.09315621510676367,"188":-0.10707477215978818,"189":0.13476139056577155,"190":0.042373643664750806,"191":-0.15938811621953541,"192":0.0057566020326279615,"193":-0.11971817448022005,"194":-0.1294337976628509,"195":0.00014135834404943397,"196":-0.0634362369266064,"197":0.2836760133199051,"198":0.07090411882903243,"199":-0.1839958827414455}}],"biases":{"sx":1,"sy":1,"depth":16,"w":{"0":0.007171535556682819,"1":-0.07383373778806122,"2":-0.07321562573666432,"3":0.09246443408101306,"4":0.09738976848717888,"5":-0.003085614344113294,"6":-0.04992861530510418,"7":-0.004711924418457327,"8":0.016664175297190116,"9":-0.021066394375786546,"10":-0.013367205590195084,"11":-0.10245372692718495,"12":0.05788204947287914,"13":0.02933456820545331,"14":-0.12934843117420333,"15":0.06943257168330877}}},{"out_depth":16,"out_sx":12,"out_sy":12,"layer_type":"relu"},{"sx":3,"sy":3,"stride":3,"in_depth":16,"out_depth":16,"out_sx":4,"out_sy":4,"layer_type":"pool","pad":0},{"out_depth":10,"out_sx":1,"out_sy":1,"layer_type":"fc","num_inputs":256,"l1_decay_mul":0,"l2_decay_mul":1,"filters":[{"sx":1,"sy":1,"depth":256,"w":{"0":-0.03295001539898146,"1":0.05235971723681941,"2":-0.20931843142219866,"3":-0.1090992323902998,"4":0.03660411475118743,"5":-0.00407579497873107,"6":0.020144572547721055,"7":-0.004413868185685766,"8":-0.10037165154824534,"9":-0.0548808652837436,"10":-0.04203363669041313,"11":0.011299512530949754,"12":-0.06911274090708192,"13":-0.10672646652329164,"14":0.12848864283123615,"15":-0.21423499615882335,"16":0.023002432148523558,"17":-0.0920132956031815,"18":-0.009850527909834813,"19":-0.2116250428656867,"20":-0.08587835025344472,"21":0.06092698529258743,"22":-0.2253972011482483,"23":-0.07642554414670115,"24":-0.037514412942031214,"25":0.056289671331345506,"26":-0.21008372744948764,"27":-0.0763181386257523,"28":-0.1157659097419631,"29":-0.13756862949902432,"30":0.0361838404426711,"31":-0.10633466504362087,"32":-0.007124618364443303,"33":-0.07456177446600086,"34":-0.31322965847633405,"35":-0.20890671051211054,"36":-0.30188852121502957,"37":0.056138330237412715,"38":-0.0192271129445679,"39":-0.055222899591683826,"40":-0.1607497009267317,"41":-0.17819185588366196,"42":-0.127628313905423,"43":-0.13860738610238788,"44":0.13429992027484616,"45":-0.06345928805910796,"46":0.06138157778676128,"47":0.05931289702784899,"48":-0.007727442967330322,"49":-0.16183896002687925,"50":-0.44600734706895756,"51":0.0010946899707005985,"52":-0.09301264157551058,"53":-0.3438934166179377,"54":0.12323289626719264,"55":-0.12651491799822945,"56":-0.007343343676414005,"57":-0.172567700565273,"58":0.011753763650308368,"59":-0.013650595746825199,"60":0.16187342564633583,"61":-0.08551318966422862,"62":0.0280210163804799,"63":0.03348736305036908,"64":-0.39536512270052,"65":-0.04592438913256113,"66":-0.2116748722221667,"67":0.08418735965115587,"68":-0.0003720912961378524,"69":-0.15675038083251525,"70":-0.1421611935021159,"71":0.12671314265340047,"72":-0.11379062915371313,"73":-0.08774960400618867,"74":-0.06714449261592062,"75":0.04575806605223249,"76":0.09906500072815744,"77":-0.16325990875320665,"78":-0.41663038642783345,"79":-0.5438551859133515,"80":-0.3577795707531307,"81":-0.24394243287451348,"82":-0.07000731018811053,"83":0.0700588611763713,"84":-0.0471220335807795,"85":0.07617696729727798,"86":-0.06362992034687193,"87":-0.022138381041108057,"88":-0.01357226569490518,"89":-0.06972564242432769,"90":0.006438524855177246,"91":-0.0706963436093764,"92":-0.09540469715670157,"93":-0.18412469678566815,"94":-0.045799213785903174,"95":-0.09365163784728145,"96":-0.09301780563532315,"97":0.04112676570542498,"98":0.1278835854822934,"99":-0.13787016029739838,"100":-0.12723708455233232,"101":0.1554596673145368,"102":-0.06037389594357292,"103":-0.01555433875053001,"104":-0.12466973466088845,"105":0.04673532052700887,"106":-0.06584631064982954,"107":-0.11514307150777739,"108":-0.14132524302566782,"109":-0.27846356681646794,"110":-0.017064622769589914,"111":0.1286247708893513,"112":-0.20823039943842625,"113":0.10078823021726466,"114":0.03790211418699563,"115":-0.02384794067117416,"116":-0.015922308093064174,"117":-0.21537274157366515,"118":-0.21576485101269563,"119":-0.09593597590968994,"120":0.002327264825137056,"121":0.14209046969451292,"122":0.22812277226911465,"123":-0.1151901518696261,"124":0.07248838215520474,"125":-0.11235650431091053,"126":-0.4052193117230624,"127":0.1883720208095504,"128":-0.5234547647478183,"129":-0.11506161420965598,"130":-0.03670875239013278,"131":0.12886292532683513,"132":-0.019367932447595975,"133":0.014435280075372564,"134":-0.04253198273359135,"135":-0.020293052668282213,"136":-0.11700240068504571,"137":0.07374346051823151,"138":0.05704837375374629,"139":0.008075462283100172,"140":0.03499415753086902,"141":0.06569726281069188,"142":-0.33406835409568164,"143":-0.08437437266287359,"144":-0.22359404890366638,"145":-0.29698648032281,"146":0.06385858023036156,"147":0.1592179080424396,"148":0.2378110103992063,"149":-0.22184986474548296,"150":-0.09716361824326974,"151":-0.012082725567368153,"152":-0.2634821837383845,"153":-0.12187506841406635,"154":-0.16863437280644622,"155":-0.11482296142913316,"156":-0.009303718073377047,"157":-0.15546526316218548,"158":-0.21830285353877638,"159":-0.22156379133746038,"160":0.008702251411585584,"161":0.1253415452538607,"162":0.11664662671111224,"163":-0.2682276710456728,"164":-0.23109621897766586,"165":-0.020442506175379543,"166":-0.07807487976634929,"167":0.2109721840628836,"168":-0.08584473799885083,"169":-0.18485616601553093,"170":-0.01697907339111608,"171":-0.11037478733607287,"172":-0.3462114056921245,"173":-0.17882807998818293,"174":0.011923820557588116,"175":-0.35244446694292114,"176":-0.45752439667158495,"177":0.17332801444874255,"178":-0.09803040724722152,"179":-0.008368128900271317,"180":-0.11262143811489245,"181":0.043500829692108264,"182":-0.3121315316541801,"183":-0.17541249547790158,"184":-0.041480815021484096,"185":-0.03795354599190719,"186":0.14683781805705848,"187":-0.26857641009845923,"188":-0.42808220988932144,"189":-0.008843471684498321,"190":-0.17140701198583044,"191":-0.10033791240761536,"192":-0.1038506098451001,"193":-0.031857174776675934,"194":-0.13579275650312234,"195":0.056291004405306835,"196":0.043652827613473964,"197":0.00799854415543357,"198":-0.14709013043857846,"199":-0.2613425073666861,"200":-0.026893493844837895,"201":0.12389451854002202,"202":0.010899730700536205,"203":0.015607175285881786,"204":-0.08967770339660368,"205":0.08294767145661396,"206":0.023678105320697883,"207":0.011943396170185711,"208":-0.0004407119626857992,"209":0.03818948420670024,"210":-0.14956005075974937,"211":-0.3314681019227209,"212":0.013433954864459878,"213":-0.15441570673925906,"214":-0.1040153165691616,"215":-0.3572971944870174,"216":0.021589736251458817,"217":-0.09157117012935888,"218":-0.07738130404101548,"219":-0.15367552119577452,"220":0.00597172180610865,"221":0.020641286888508827,"222":0.023803465340904457,"223":0.08238005900785451,"224":0.06777450935546939,"225":0.0636782451211132,"226":-0.4233143772121647,"227":-0.15692727060568745,"228":-0.36991541785185855,"229":0.11791568765627042,"230":0.10268820032087134,"231":-0.08203506604367303,"232":0.07341400949964251,"233":0.09105351363679874,"234":-0.00808738887810201,"235":0.16128320423779588,"236":0.05709008323137563,"237":0.01697501312119899,"238":0.05241277345049893,"239":-0.08502316191485487,"240":0.017230926296660797,"241":-0.03976585364333419,"242":-0.31410778789972815,"243":0.10309162955875281,"244":-0.12383001388545137,"245":0.0991743554325099,"246":0.13423945063321663,"247":-0.05012460399647743,"248":-0.006567727419311371,"249":-0.08112675512215645,"250":0.11813296796411564,"251":-0.00996868300402921,"252":-0.24028367718154828,"253":-0.08840969087765406,"254":0.21339668356604782,"255":-0.2075882891996562}},{"sx":1,"sy":1,"depth":256,"w":{"0":-0.08674813884113036,"1":-0.18353166379170302,"2":-0.16226785576611066,"3":-0.03102168138652698,"4":-0.10497486483654629,"5":-0.06895427427386233,"6":-0.17409929913389124,"7":-0.38207312236886815,"8":-0.119220225348052,"9":0.09030645441111274,"10":-0.3155044776556236,"11":-0.11111321450301415,"12":-0.1009446181208518,"13":-0.16557977594349704,"14":-0.09545413918234079,"15":-0.029315054100194523,"16":-0.20508686206098717,"17":0.005438423519135656,"18":-0.012494586869799474,"19":0.17701358469208478,"20":-0.025870105612792377,"21":-0.01562717732051109,"22":-0.17746437976354718,"23":-0.057271323129236155,"24":0.0214485546148094,"25":-0.012454481872673116,"26":0.013035477439280161,"27":0.13325839210578422,"28":0.10576704257442367,"29":-0.028819575026946626,"30":-0.10262257072372029,"31":-0.08984788321757628,"32":-0.2028129542727784,"33":-0.0784337428110311,"34":0.09437390196975844,"35":0.15315773062349913,"36":0.21610256866945246,"37":-0.017893400527832573,"38":-0.059386900013432546,"39":0.20117314210020237,"40":-0.10316249278016056,"41":-0.10352019971514177,"42":-0.01568560336896301,"43":-0.07110017732792323,"44":0.11278427645145742,"45":-0.30341324724929275,"46":-0.08460799123582433,"47":-0.08429874552063282,"48":-0.2459756173104131,"49":-0.023036071139135156,"50":0.03501352423961645,"51":-0.06250904248826025,"52":0.12279393440881808,"53":0.13218998285547318,"54":-0.04188662331835818,"55":-0.057122947575923275,"56":-0.14370647371260742,"57":-0.17574850971203512,"58":-0.05440607008226983,"59":0.07552669957891864,"60":-0.3273067318358896,"61":-0.3225061269075994,"62":0.037785117061509096,"63":-0.05372416559358743,"64":0.006455247210018928,"65":-0.1482123107241966,"66":-0.1049916267900929,"67":-0.3170390303739626,"68":-0.08630478199111438,"69":-0.03907288816447997,"70":0.00754229322456225,"71":-0.298606061454367,"72":-0.2036266262028669,"73":-0.02428141324610926,"74":-0.28611205770333903,"75":-0.4359509416611612,"76":-0.16109723069074255,"77":-0.23869927790685166,"78":0.007129123378053645,"79":-0.24653004911685744,"80":-0.24200438608582914,"81":-0.10240134345914463,"82":-0.19995729190596226,"83":-0.14741567201121558,"84":-0.028896247677003595,"85":-0.1019923977285502,"86":-0.1373637108919011,"87":0.02282856117824608,"88":-0.03944593974594761,"89":-0.06899756638711232,"90":0.09705388293602349,"91":-0.09401180256430668,"92":-0.32010642119170885,"93":0.21134722812184523,"94":-0.1767364783555923,"95":-0.15801717563238526,"96":-0.24201219144989577,"97":0.01722817268783669,"98":0.1429470422466892,"99":0.18440575060357012,"100":0.3568836771519427,"101":0.15204612715330587,"102":-0.09756570028821429,"103":-0.0037571978664503076,"104":-0.07903639517863224,"105":-0.3053012379745741,"106":0.018259863811271357,"107":0.17696954612572532,"108":-0.017173759622651087,"109":-0.3581222178365182,"110":-0.1924848419505086,"111":0.005009318511727919,