{"layers":[{"out_depth":1,"out_sx":28,"out_sy":28,"layer_type":"input"},{"out_depth":10,"out_sx":1,"out_sy":1,"layer_type":"fc","num_inputs":784,"l1_decay_mul":0,"l2_decay_mul":1,"filters":[{"sx":1,"sy":1,"depth":784,"w":{"0":0.017981557840211247,"1":0.014507100284949477,"2":-0.04024146411801655,"3":0.003122719478809037,"4":0.039799863102441047,"5":0.030039341673600253,"6":-0.0026381042660788734,"7":-0.005964404595613472,"8":0.011426143212967588,"9":0.0036274749303900097,"10":0.01046869138188942,"11":-0.006983165957373452,"12":0.010674418972127366,"13":0.017587649731787464,"14":0.0007021575099877151,"15":-0.04109312082686536,"16":-0.01649092059732078,"17":-0.013443240871342715,"18":-0.029070269756369553,"19":0.0037451929443440336,"20":0.03998174173341315,"21":0.03251752149377633,"22":-0.005687434194654367,"23":-0.008732349197786624,"24":0.040058750740942735,"25":0.02927539551186895,"26":-0.01718876947393802,"27":-0.055518666769080835,"28":0.007676862846409553,"29":0.03226290824180448,"30":0.026053212272921643,"31":0.085747560035976,"32":-0.019453942235958643,"33":0.023650256283506137,"34":0.03304828295824529,"35":0.015680193366833257,"36":0.00039636452393339874,"37":0.022131918416226894,"38":0.021699300411856116,"39":0.0937140692880139,"40":0.0009166878665048492,"41":-0.007336245125158059,"42":0.058782118056858526,"43":0.01325894586518682,"44":-0.00041194090260524897,"45":0.050067391719060286,"46":-0.020581829178841198,"47":0.03606672554980101,"48":-0.003384351689883793,"49":0.07956222227987153,"50":0.01515383045783407,"51":0.009538975250116998,"52":0.017332285541765885,"53":0.034839880002531264,"54":0.022152450568636958,"55":-0.07731421462675951,"56":-0.053109797652597567,"57":0.06481980530120816,"58":0.02210583297647549,"59":0.03659519099605547,"60":0.03959505774576401,"61":0.005852620858120474,"62":0.017062989813835045,"63":-0.014420086141243823,"64":-0.05089473361165202,"65":0.05530909767511722,"66":0.05998494604291161,"67":0.06605114609530088,"68":0.06664161050820738,"69":-0.009676571526187531,"70":0.05300529167055635,"71":0.05476508320857753,"72":0.0654913442701201,"73":0.02724715107674377,"74":0.05206356597483877,"75":0.0881447869027856,"76":-0.019884834106143185,"77":0.026186182491861252,"78":-0.042720419772538126,"79":0.015806078251819237,"80":-0.006812717926024868,"81":0.05798312937861205,"82":0.029439707778046123,"83":0.019795165680338126,"84":0.011498093810261716,"85":-0.00035846153109010074,"86":0.07281412505246283,"87":0.07612874712510062,"88":-0.0007191882979466263,"89":0.017656211775307955,"90":0.00695679095460644,"91":0.042755260847452486,"92":0.0770729226689463,"93":-0.011708634525155172,"94":0.07011625609027183,"95":0.03941982116714086,"96":-0.04674195867775469,"97":-0.06965683883403417,"98":-0.010886388000419366,"99":-0.0819840892633791,"100":0.08772997894621523,"101":0.09809054878904168,"102":0.1446688837758892,"103":0.18363601796630094,"104":0.09043374993256681,"105":0.13272669600050221,"106":0.10565129041434049,"107":0.05178796696888073,"108":0.08576797002843466,"109":0.025631816696584778,"110":0.05341179666904827,"111":-0.03681497822010351,"112":0.009166968978448972,"113":-0.0028591094310495787,"114":0.09570062920131657,"115":0.0012185129484888623,"116":-0.006196187914776187,"117":-0.009316285976172548,"118":-0.007808344395151547,"119":-0.016082696408696466,"120":-0.045386136478767984,"121":-0.09765678978259232,"122":-0.19794986145757384,"123":-0.22003926419431372,"124":-0.3638498940550755,"125":-0.3820321115323115,"126":-0.26778028323430114,"127":-0.1660063877821665,"128":-0.07624550398769757,"129":0.050144245000232665,"130":0.02745179241445129,"131":-0.006869013147262012,"132":0.02227131513607066,"133":0.057532534528725456,"134":0.09634189328706616,"135":0.13313060465199927,"136":0.09640898520467246,"137":0.04328945906391447,"138":-0.05868120476804631,"139":-0.025542202324000514,"140":-0.03260759944585778,"141":0.01960143653535899,"142":-0.044473174149636,"143":-0.019895321566536055,"144":-0.02463339363394252,"145":-0.08793813381574939,"146":-0.07132713006035475,"147":-0.1497950451743296,"148":-0.17742628753832151,"149":-0.1085714371086572,"150":-0.2265105137474462,"151":-0.11537711364200662,"152":-0.12145986265058749,"153":-0.08139298132711449,"154":-0.11344375953752947,"155":-0.1904267376960096,"156":-0.06822766733493009,"157":0.09406835726186544,"158":0.13169603243256953,"159":0.14133434161583813,"160":0.03545837733159849,"161":-0.0129880367893053,"162":0.16165162969560753,"163":0.08567772991806734,"164":0.08547582754719253,"165":0.03919870495963673,"166":0.01614597854032094,"167":-0.004504345321165173,"168":0.032412290695798616,"169":-0.01172434207861594,"170":0.04729697791960564,"171":-0.025244083775741208,"172":-0.09600487898480632,"173":-0.13646781095587848,"174":-0.28044872422095773,"175":-0.32739543621983946,"176":-0.17467857101031944,"177":-0.1806468894240205,"178":-0.1287721294512322,"179":-0.20177787628444332,"180":-0.19408251085843636,"181":-0.07828774534913541,"182":0.04493482657951698,"183":0.030749311610460465,"184":-0.03434236498467959,"185":-0.007766227184382773,"186":0.004809259687087279,"187":0.16536819392425314,"188":-0.0176576860428377,"189":-0.02022726758491247,"190":0.14182862727699677,"191":0.1962206867308614,"192":0.25434690572038243,"193":0.19051585582605937,"194":0.013214392480590986,"195":0.0029252066011213967,"196":0.034248231036666174,"197":-0.008895500448842953,"198":0.05318358959752108,"199":-0.030766733817888255,"200":-0.18070180148633128,"201":-0.26230546741942307,"202":-0.47428716875158977,"203":-0.3140263531788653,"204":-0.1868012373545644,"205":-0.05762054749329089,"206":-0.021578045502618604,"207":-0.09147269122096643,"208":-0.22622693971000368,"209":-0.12918071497089315,"210":-0.01854745367045707,"211":0.07257466251010267,"212":0.05933695684959106,"213":-0.24827007088945754,"214":-0.14757201912011006,"215":-0.14268563128569198,"216":-0.20734961965855517,"217":-0.11501788432608082,"218":0.04980850704761072,"219":0.2497371147462906,"220":0.3282709399138797,"221":0.18134269890022878,"222":0.016931810462859548,"223":0.03321353460430084,"224":0.03537491974030438,"225":0.0710510151838566,"226":-0.05091357694240673,"227":-0.0761386134869676,"228":-0.2520081121183638,"229":-0.3437620966212898,"230":-0.29846340696180945,"231":-0.16066712177908035,"232":-0.002637333698847213,"233":0.17103043097069454,"234":0.1380490126932878,"235":-0.04842944587389665,"236":-0.3419746479359962,"237":-0.25702971935276203,"238":-0.3343269632221962,"239":-0.2261411941592028,"240":-0.160095958743074,"241":-0.3793043842747213,"242":-0.37173021545098545,"243":-0.4120013921598716,"244":-0.2709997385219394,"245":-0.19599273213609764,"246":-0.010972858787133818,"247":0.24447259274760816,"248":0.2707776823297896,"249":0.18207833568291495,"250":0.09940611285775702,"251":-0.01882916325032962,"252":-0.03378830858206996,"253":0.012794589794655748,"254":-0.05041529811238099,"255":-0.13334387662650385,"256":-0.222095929279663,"257":-0.22315902538957777,"258":-0.1023109821400846,"259":0.02159216440992775,"260":0.22338599411084453,"261":0.31746292177931057,"262":0.2758312598956336,"263":0.3091326605157224,"264":-0.021627056329753435,"265":-0.4949171377686306,"266":-0.9437735681090472,"267":-0.9146778316858836,"268":-0.7459010487093871,"269":-0.5044363259561303,"270":-0.5566866508398676,"271":-0.44644068408465276,"272":-0.4475462538978785,"273":-0.35081391471227946,"274":-0.026206695305600186,"275":0.10254693886547095,"276":0.17007831530933223,"277":0.13534136360837937,"278":0.02903352823789884,"279":0.008025926308360699,"280":0.027436785385837985,"281":0.027660932984304387,"282":0.024386848728012535,"283":-0.14987052162727643,"284":-0.19646810587951366,"285":0.04828069887222559,"286":0.18648392226198665,"287":0.3495407712362157,"288":0.2517719686831005,"289":0.3641344959116992,"290":0.4457787393237466,"291":0.7992083699920617,"292":0.4288478496689467,"293":-0.50165067113484,"294":-1.1456865715887157,"295":-1.0455773174828813,"296":-1.0514129129674625,"297":-0.6644719453978534,"298":-0.6452257070678897,"299":-0.4775736526308409,"300":-0.4399669494834656,"301":-0.2478975122429937,"302":-0.0017153765215037707,"303":0.029045205684270624,"304":0.11497345984221419,"305":0.05466273026743136,"306":0.025028491819585726,"307":0.02095536133774578,"308":0.0470113232043167,"309":-0.009289951345218669,"310":-0.05328854548585066,"311":-0.17053907329020998,"312":-0.06784563640596208,"313":0.27020708074744176,"314":0.46068007994930305,"315":0.5002712318703411,"316":0.47715109023085067,"317":0.38614597011212753,"318":0.5290430440604761,"319":0.7573926205582835,"320":0.5925920351153853,"321":0.03890378529143685,"322":-0.7124783146317112,"323":-0.8201817062726947,"324":-0.5223965080848064,"325":-0.35219139573487207,"326":-0.3469424701531579,"327":-0.35431885744595526,"328":-0.11803249615528211,"329":-0.04483306227367879,"330":-0.04531394868144739,"331":-0.002351778972187992,"332":0.09162781209185575,"333":0.029237956462144433,"334":-0.007352123333237665,"335":0.019645361417444464,"336":0.030261187393537982,"337":0.043286909501192836,"338":-0.12633211398420977,"339":-0.07978705924662867,"340":0.15076445913652237,"341":0.32402047043888776,"342":0.4501401329448627,"343":0.4065144107380094,"344":0.3213232975540973,"345":0.3412574553475715,"346":0.5396563019024182,"347":0.7561323121989658,"348":0.9058368739100173,"349":0.7409855765644424,"350":0.012265948916188221,"351":-0.006014608409456397,"352":0.15771095557732473,"353":0.14127252488711703,"354":0.10109372866418559,"355":0.16831918958665393,"356":0.1671535687636001,"357":0.1922287309744307,"358":0.007893150635176685,"359":0.08691826319228523,"360":0.01647695939417094,"361":-0.0347311324318525,"362":0.08173596064898281,"363":0.06019064113968855,"364":-0.02032563021009598,"365":-0.018139141338575852,"366":-0.02980241021080432,"367":-0.007422475820770627,"368":0.08889237786020816,"369":0.22385207727023415,"370":0.34157080854834165,"371":0.3598398486277744,"372":0.47102736975038684,"373":0.4757531003393606,"374":0.6116920835081893,"375":0.9460165943022192,"376":0.9955669543922016,"377":0.6877261786822825,"378":0.30543161547239456,"379":0.45565043734322797,"380":0.4737244891194907,"381":0.4590309305377072,"382":0.30075658677095185,"383":0.16101918185076813,"384":0.14079960739969938,"385":0.1323334684178299,"386":0.03580692062522332,"387":0.04704906801315128,"388":-0.014735489862245281,"389":0.0006873351852710541,"390":0.03481487311182989,"391":0.07183444005384595,"392":-0.012190636657672397,"393":-0.01919171260576671,"394":0.023414464682357618,"395":-0.03992576790697509,"396":0.14965706445854335,"397":0.17996681683355295,"398":0.28178200386609625,"399":0.3445414360578541,"400":0.3432771610112376,"401":0.3685348243516368,"402":0.6186872042550666,"403":0.8069188194200669,"404":0.7192231126164937,"405":0.5751987513910412,"406":0.23337868873503842,"407":0.25745586165275813,"408":0.4122965771707539,"409":0.4788230173728459,"410":-0.03418477418975598,"411":-0.09418730147969724,"412":-0.06243856945798523,"413":-0.06005365846567963,"414":-0.06827900923651804,"415":-0.003250892369993148,"416":-0.029242026759492373,"417":0.024507053184428435,"418":-0.01851978687111628,"419":-0.04408299247195851,"420":0.04342888710188657,"421":0.05597764221952736,"422":0.0395744787430064,"423":0.009593974978045672,"424":0.0009983854831347098,"425":-0.004647349517611301,"426":0.12179918917699992,"427":0.2180774833640058,"428":0.3500517252543761,"429":0.39423009569294876,"430":0.45734505496684774,"431":0.4525579616240613,"432":0.5269037657502335,"433":0.34053514406874896,"434":0.18562812711894974,"435":0.25424191271147695,"436":0.42949937382137215,"437":0.2322193028710942,"438":-0.1044810397222552,"439":-0.31930972456202283,"440":-0.37794315919949245,"441":-0.2617737400606666,"442":-0.18797616110453633,"443":-0.09858807037686103,"444":-0.04078692792592509,"445":-0.06683629454862518,"446":-0.007165680788871099,"447":0.0029630900439267557,"448":0.02064690579358024,"449":0.006604185633077205,"450":0.003512897487497733,"451":-0.011918850501869213,"452":-0.12029473407828803,"453":-0.004958402135919929,"454":0.13140525604079917,"455":0.18678846009115263,"456":0.2935699823105655,"457":0.28635099848815954,"458":0.3434254153796667,"459":0.5319177993313926,"460":0.5214506248763402,"461":0.24983150565458737,"462":0.05399671222240121,"463":0.09261652660155983,"464":0.3338972740424683,"465":0.12016028367290353,"466":-0.07526511378721272,"467":-0.343697653818899,"468":-0.32050642994366463,"469":-0.33171727385385785,"470":-0.2745836218506044,"471":-0.17109978049551589,"472":-0.03304947401611527,"473":-0.020695823958836415,"474":-0.04285878145786181,"475":0.0348107607055995,"476":0.05096290749532804,"477":0.0006178627505365549,"478":-0.05310221858342866,"479":-0.03997351535932701,"480":-0.1553963250648853,"481":-0.13391500650302998,"482":0.02742939000727623,"483":0.27946172344258396,"484":0.2957561339949878,"485":0.28109323335134,"486":0.3504034297564191,"487":0.7062731988020746,"488":0.5489223896062206,"489":0.2695164517705969,"490":-0.10890263636908515,"491":-0.05999437727588823,"492":0.1824085558325086,"493":0.029795697342519103,"494":0.07793431893624624,"495":-0.17873240370281757,"496":-0.09080975617233181,"497":-0.30249921261051305,"498":-0.14676701677982107,"499":-0.046741168244264525,"500":-0.0909411936818919,"501":-0.04583057405009501,"502":0.003978576350986651,"503":-0.012340403604924022,"504":0.011271630150373286,"505":0.0327258817667543,"506":-0.11074068789366134,"507":-0.10588932187185854,"508":-0.17440171447256547,"509":-0.18683992826350526,"510":-0.00878137555892917,"511":0.223015895381746,"512":0.28384169797485964,"513":0.35190838028372734,"514":0.4936450088163629,"515":0.5070167049063647,"516":0.5039170915680935,"517":0.21185409340911246,"518":-0.10614282093128333,"519":0.02342376501345796,"520":0.1800454630903727,"521":0.0712348678470429,"522":-0.05872907504874687,"523":-0.052297481835811614,"524":-0.07450445931737135,"525":-0.1070283224431868,"526":-0.03753601159999569,"527":-0.0000019559285091774942,"528":0.033107598693977586,"529":-0.010936160524421543,"530":-0.031233982140317945,"531":-0.02151576788275294,"532":-0.0336975191427994,"533":-0.0660613495586943,"534":-0.051952916643507756,"535":-0.18303625377841493,"536":-0.2169500639513233,"537":-0.26055364880673926,"538":-0.06855273253360555,"539":0.025782212708425095,"540":0.09966637097869425,"541":0.1261564896266846,"542":0.2286636472512635,"543":0.3417361121404456,"544":0.20837145246002145,"545":-0.007503820777632475,"546":-0.12536189343823806,"547":-0.03845185362984723,"548":0.036520168678819895,"549":-0.004303125915425652,"550":-0.10390875854363364,"551":-0.006192372167839474,"552":0.015309209707037166,"553":-0.06573479056149417,"554":0.025910057876076042,"555":-0.021739128351344936,"556":0.04028815879695734,"557":-0.03231788201675065,"558":0.03786303608425347,"559":-0.008794484118392749,"560":-0.051444508467256164,"561":0.02495152506804107,"562":-0.023529063089436607,"563":-0.1625985534113931,"564":-0.24147962222474792,"565":-0.21348715773433785,"566":-0.23890617212888293,"567":-0.18581106069088255,"568":-0.18324419363423788,"569":-0.21024334503148154,"570":-0.058304226452184374,"571":-0.031360349221467076,"572":-0.07620399659724024,"573":-0.19332862543364404,"574":-0.30671705885343964,"575":-0.15602294159583793,"576":-0.035831626464390705,"577":-0.0838027006222309,"578":-0.09891779204916926,"579":0.054123475153625256,"580":-0.09127153620069264,"581":-0.0424762994675875,"582":0.01536262748470906,"583":0.04664767998893443,"584":0.0031888736974134,"585":0.0033560527299658386,"586":-0.03184143342986467,"587":0.007289401772166705,"588":0.033111729949835224,"589":-0.015387716008711166,"590":0.0476813684902762,"591":-0.013804772927656805,"592":-0.20679669384189991,"593":-0.35073650684542645,"594":-0.2572954447320122,"595":-0.13804836615991345,"596":-0.3099434548420862,"597":-0.2201822657896899,"598":-0.10956737342061203,"599":-0.08440143161945979,"600":-0.022048770448842778,"601":0.015449490689778007,"602":-0.161009376781564,"603":-0.15802617698071755,"604":-0.11482261078379453,"605":-0.0963159731744706,"606":0.01888345873810293,"607":-0.058086764664131756,"608":0.04905420392077075,"609":0.0159642038725311,"610":0.1241700861795209,"611":0.02694968295452114,"612":-0.032890366622903504,"613":0.023516894341378658,"614":-0.016828078228159633,"615":-0.031290655960147046,"616":0.007525437013388574,"617":-0.01658700057093427,"618":0.06820179838024985,"619":-0.049528780024616845,"620":-0.13850510973098382,"621":-0.33659888363380247,"622":-0.44962611221408105,"623":-0.4307832064269203,"624":-0.34758901797895253,"625":-0.28849784490932084,"626":-0.06776220578511562,"627":0.10509670834891759,"628":0.21927637137343356,"629":0.19745752755542934,"630":0.047552190351246734,"631":-0.12345164767916626,"632":-0.1555106877826775,"633":-0.19491999985129654,"634":-0.04793512821916768,"635":0.07606574994027132,"636":0.16359363490857168,"637":0.18384605488787426,"638":0.04726688653087235,"639":0.02971474096180133,"640":-0.005963336020364694,"641":0.019557872800353326,"642":0.022680652341899633,"643":-0.00023985446167643906,"644":0.047761165635459,"645":0.03010401238724551,"646":-0.007261369662654093,"647":-0.044358510526741786,"648":-0.09784163251329814,"649":-0.27260028796515096,"650":-0.47791393490355977,"651":-0.4772125333243471,"652":-0.2666437003267309,"653":-0.2877984784605065,"654":-0.08024738357413647,"655":-0.011171957746312943,"656":0.13979225955028415,"657":0.284430604738866,"658":0.09852031598321345,"659":0.005751360254518783,"660":-0.10614412670238633,"661":-0.11632921715425233,"662":0.10547574543575788,"663":0.28048384678264904,"664":0.33401739510175005,"665":0.32168012505387794,"666":0.14454460614597875,"667":0.054855031643858854,"668":0.0038259629163651322,"669":0.016318451539860453,"670":0.006500027515811647,"671":-0.0075394288351977624,"672":0.013031872881199426,"673":0.007114329244663244,"674":0.060557566537106804,"675":0.03225583872539251,"676":-0.12706256969604937,"677":-0.21363027756743108,"678":-0.30056245121990716,"679":-0.22415397510022925,"680":-0.236937652216037,"681":-0.06708433840462116,"682":-0.06681353989426658,"683":0.0011878615599494268,"684":-0.1090450108178082,"685":0.05520744907473938,"686":-0.17192774415445863,"687":-0.0854400603217209,"688":0.0919120671898255,"689":0.06057888869431803,"690":0.2999687808324527,"691":0.30541781459262946,"692":0.40241867765792266,"693":0.29571451034014873,"694":0.19216721723589464,"695":0.07342474561784071,"696":0.08100345687705457,"697":0.0005978422494804514,"698":0.035915527671207155,"699":0.08647017989938904,"700":0.09612029351700391,"701":0.01939630347188531,"702":0.016116238512931393,"703":-0.03075179755875926,"704":0.03698922204994777,"705":0.030070014502388137,"706":-0.064851226488384,"707":-0.11799403177459376,"708":-0.15495915147901904,"709":-0.23780803348465168,"710":-0.25068468980875,"711":-0.30890126452760025,"712":-0.26637134808717317,"713":-0.3646339688999557,"714":-0.33819277925795715,"715":-0.08006559630857471,"716":0.02940394956076257,"717":0.04865061006012296,"718":0.09179046414702335,"719":0.20432376758569196,"720":0.2539290597699789,"721":0.23481758580431325,"722":0.06643637852616215,"723":0.04567801373725733,"724":-0.00825530398845696,"725":0.0526657993471341,"726":0.029870522707816538,"727":-0.050714976651139596,"728":-0.020158795140634702,"729":0.03747658810479585,"730":0.0542163545565626,"731":-0.022990058044111396,"732":0.043374924483005894,"733":0.026464735726310064,"734":-0.05975555137196136,"735":-0.04831644864255792,"736":-0.05462915275193236,"737":-0.1336187989314905,"738":-0.20458984954006562,"739":-0.1006826819472367,"740":-0.148986198648491,"741":-0.03024896009846209,"742":-0.06540930980311373,"743":-0.16325907066821568,"744":-0.07548249512285479,"745":-0.049974252678656655,"746":-0.047673322781750516,"747":0.06315395876807135,"748":0.13375877198929453,"749":-0.005306120790336011,"750":0.0031829541280010256,"751":0.024062792383811198,"752":0.0198315785056643,"753":-0.02256104589319285,"754":0.07111081616432435,"755":0.016664817846942168,"756":-0.0036252531925829246,"757":0.08445032832605252,"758":-0.07865378531091688,"759":0.01822816729696597,"760":0.07261212277568714,"761":0.00863332013836945,"762":0.005859492142550248,"763":-0.005679797021026956,"764":-0.022116219876078706,"765":0.024110625582384426,"766":-0.039009542119455926,"767":-0.014474322509362102,"768":0.022429571537859367,"769":-0.04729786784803244,"770":-0.06762804609279807,"771":-0.03164931558586929,"772":-0.028648691499565507,"773":0.020880509432632418,"774":-0.06668326762791711,"775":-0.004935151293855946,"776":0.043851901037656266,"777":-0.01926182351407402,"778":-0.005370431866335095,"779":0.056367264595852666,"780":0.023986065992682885,"781":-0.012210312555200472,"782":0.016150305288723944,"783":-0.019251045134240922}},{"sx":1,"sy":1,"depth":784,"w":{"0":-0.04823207473102253,"1":-0.10665121388105571,"2":-0.12750079994849517,"3":-0.059020277299148376,"4":-0.0007714105477869714,"5":-0.0042429882783457905,"6":-0.0672315840621228,"7":-0.04438084034290871,"8":-0.07574486052084886,"9":-0.039994202999020186,"10":-0.12351864961067846,"11":-0.07940036678655805,"12":-0.028860809261771352,"13":-0.05142331676391961,"14":-0.05045381780992925,"15":-0.12796371994633454,"16":-0.016366715383885025,"17":-0.0699186392174206,"18":-0.029562076359788823,"19":-0.04503716957106944,"20":-0.013993583108831472,"21":-0.06781143242030856,"22":0.0013518932835533035,"23":-0.11831221380103413,"24":-0.10953540287665779,"25":-0.06834615452891953,"26":-0.06501369762452755,"27":-0.009129895246314189,"28":-0.04423433749331584,"29":-0.11757174429183687,"30":-0.021721906527259374,"31":-0.06188004824053752,"32":-0.09775777682682132,"33":-0.0640788304477963,"34":-0.09585210739447625,"35":-0.0733906095412661,"36":0.005079172970878042,"37":-0.055230929928727315,"38":-0.06650851599428109,"39":-0.014443406133543333,"40":0.06004582192916695,"41":-0.14136239275340265,"42":-0.07131007814191159,"43":-0.007508324616361683,"44":-0.0727252258143694,"45":-0.15786203458582132,"46":-0.054642565996789044,"47":-0.17363306114152144,"48":-0.006767826776390734,"49":-0.041453530966530754,"50":-0.05887646574445373,"51":-0.05787570924342772,"52":-0.0714600639586906,"53":-0.05224858456618537,"54":-0.06928533874900912,"55":-0.05043923341166401,"56":-0.03165316888496288,"57":-0.06939020376063745,"58":-0.12408812892049007,"59":-0.1381934742918544,"60":-0.01145417788612562,"61":-0.07925832485114172,"62":-0.02371017834350687,"63":-0.007467414044051036,"64":-0.0035746538630421535,"65":-0.054159599880458265,"66":0.11856413095791034,"67":0.05137466705637911,"68":0.07493972464629725,"69":0.18539601531303407,"70":0.12104028711111378,"71":0.14850813570276047,"72":0.06534168530685956,"73":-0.06066323592197559,"74":0.042913888245776625,"75":0.004529764147811195,"76":-0.06122249673983098,"77":0.04732836210739887,"78":-0.04511875935197877,"79":-0.07225634517767505,"80":-0.06145277781217138,"81":-0.08993701308784396,"82":0.019547231269324408,"83":-0.053728064797324004,"84":-0.07651645922591324,"85":-0.04925042884377691,"86":-0.06781574853649781,"87":-0.10774826191545228,"88":-0.042829230549495854,"89":-0.1254013892545947,"90":0.024649199033756928,"91":-0.023750468103914076,"92":0.007544245640488705,"93":0.11815348839552405,"94":0.14427071655773452,"95":0.13977107897422764,"96":0.2484437987332422,"97":0.2868834831252189,"98":0.27926034201940536,"99":0.24673882123151475,"100":0.26623072947938475,"101":0.08814025668339331,"102":0.14140921744676754,"103":0.05048514187611918,"104":0.031766359458070374,"105":-0.022546005577546446,"106":-0.07872457472345483,"107":-0.026078377327860894,"108":-0.03864045872560769,"109":-0.04442371147241306,"110":-0.09474449951014954,"111":-0.10336980442131107,"112":-0.06848718034563313,"113":-0.11472678268405123,"114":-0.07575733839183507,"115":-0.0653351451501441,"116":-0.06578142224619568,"117":-0.07783659893099129,"118":0.004694858122739577,"119":0.0865645404944491,"120":0.09834865664173575,"121":0.03749205288525378,"122":0.16286349779282433,"123":0.250580149041752,"124":0.3376984863170978,"125":0.5113266111745246,"126":0.45945432180851536,"127":0.3033543926881418,"128":0.25140705032804006,"129":0.2826974775116458,"130":0.1889358875173793,"131":0.0346924953914412,"132":0.034079053757089924,"133":0.08881261869938488,"134":-0.031772313431841566,"135":-0.13091653544596674,"136":-0.09206452571271659,"137":-0.07750517290100574,"138":-0.061421924881527486,"139":-0.06994212577657127,"140":-0.0321597463876454,"141":-0.0878840409302533,"142":-0.07325223049689701,"143":0.0028253935600002274,"144":-0.008186619505993014,"145":-0.07971108846354691,"146":-0.09293133064665274,"147":0.05288977573215219,"148":0.02521113109564649,"149":0.0377929394109309,"150":0.036862887938814086,"151":0.2138879784939642,"152":0.3357323079784403,"153":0.3561214943779649,"154":0.3906499723323268,"155":0.3989200057489247,"156":0.37633109229590583,"157":0.5113537990905354,"158":0.4045874093288737,"159":0.3544745118437978,"160":0.2503889691647835,"161":0.19559093037689834,"162":0.001977927732633367,"163":-0.04469028961804782,"164":-0.07315516703740121,"165":-0.05006094987259056,"166":-0.0629517081561026,"167":-0.0873751966935907,"168":-0.06781352707955474,"169":-0.05233893498907047,"170":-0.08924378135193359,"171":-0.04202396921387666,"172":-0.06612005995466191,"173":-0.04581539847861727,"174":-0.02085372860599522,"175":-0.020537066992857966,"176":0.019247131229995808,"177":-0.07874427587921005,"178":-0.11002306700018367,"179":0.0700670124015108,"180":0.16690354992683187,"181":0.1826072222765926,"182":0.24119353323626944,"183":0.17235320240138402,"184":0.09286936591264522,"185":0.19603896643255272,"186":0.2193432080739453,"187":0.3574333325326726,"188":0.3231183012007367,"189":0.1793495559662317,"190":0.06477227689463359,"191":-0.1309783247829089,"192":-0.11676117146018429,"193":-0.043756152304931795,"194":-0.08651763357405168,"195":-0.0860180173482799,"196":-0.016467546035532698,"197":-0.026729999571046607,"198":-0.06932937614931683,"199":-0.08241966258143049,"200":-0.024268662763115675,"201":-0.033973280524383476,"202":-0.03366705515257385,"203":-0.080519957060516,"204":-0.12672264438790048,"205":-0.20788436064975124,"206":-0.15671272620622437,"207":-0.05226104623369393,"208":-0.101918973713735,"209":-0.05830197362728342,"210":0.1257089742790448,"211":0.14827739696832956,"212":-0.06355993161856446,"213":-0.1372450975909829,"214":-0.05365839013041053,"215":0.07936245533192748,"216":0.07700335279848224,"217":0.039606747504234534,"218":-0.007117008671740504,"219":-0.04274685268651972,"220":-0.04264314303213296,"221":-0.08663575483211453,"222":-0.017332682056649687,"223":-0.11311415785466128,"224":-0.08599319502063951,"225":-0.06881852303094911,"226":-0.04419370150920504,"227":-0.04876498857952132,"228":-0.0989098117906151,"229":-0.09049997641981046,"230":0.0953164855429132,"231":-0.052093038584737614,"232":-0.10704437759827479,"233":-0.030390978163896513,"234":-0.039981249433418506,"235":-0.10003713057896257,"236":-0.041515767464967365,"237":-0.02435927238407801,"238":0.020277959002725283,"239":0.1099663374895325,"240":-0.06987350703625274,"241":-0.25424556316353647,"242":-0.23729870319987773,"243":-0.1598016246966564,"244":-0.09540685433047112,"245":-0.0907488210487551,"246":-0.09970553944920835,"247":-0.1430902635151671,"248":-0.07220338194505617,"249":-0.09645700353043817,"250":-0.0208842068416995,"251":-0.02366007756489709,"252":-0.022023169312097367,"253":-0.10568290835681556,"254":-0.1606626218486191,"255":-0.08625058951679716,"256":-0.15851713038358753,"257":-0.03218045590911726,"258":0.03261205116488437,"259":-0.02375540660237592,"260":0.13582091803937987,"261":-0.018496220654460164,"262":-0.0010586768623027686,"263":-0.07244384657835097,"264":-0.208739456756466,"265":-0.08154298247753969,"266":0.15947821479984192,"267":-0.09704943866383374,"268":-0.25779883250758273,"269":-0.3726773723666305,"270":-0.3059121325333302,"271":-0.27412647832901976,"272":-0.2505487497336768,"273":-0.24201250934958018,"274":-0.10039868819577184,"275":0.01460577357696437,"276":-0.08802669786398963,"277":-0.06732427855827307,"278":-0.03634679097586918,"279":-0.024242610891356115,"280":0.007283810135779151,"281":-0.031109098753457687,"282":-0.03146868303966742,"283":-0.07726110579046447,"284":-0.06958063498354021,"285":0.03981999860511224,"286":-0.030574379371560288,"287":0.15393777413758827,"288":0.10929449827885526,"289":-0.10913437287552882,"290":-0.21104138314959203,"291":-0.19988578588191777,"292":-0.27648731125930043,"293":-0.0907650884891803,"294":0.122662691635679,"295":-0.14161319737611697,"296":-0.4556230076318855,"297":-0.510827214048023,"298":-0.3441757345726036,"299":-0.24401253940387008,"300":-0.2440980761541818,"301":-0.26279357907759654,"302":-0.09967599841926106,"303":0.06920732766438306,"304":0.031418618537625585,"305":-0.036532400222346474,"306":-0.08565634825354841,"307":-0.011192758883976396,"308":-0.03425064915005779,"309":-0.11294301426476493,"310":-0.019983237193823392,"311":-0.11724697041427685,"312":-0.1343943356989246,"313":-0.00044120387329983055,"314":-0.028699601858824513,"315":-0.019818257584070742,"316":-0.14438039827064644,"317":-0.16322551267987306,"318":-0.23954139256188098,"319":-0.2789676081274834,"320":-0.21917901624328148,"321":0.062232110695401396,"322":0.2088403779563591,"323":-0.15999371385849942,"324":-0.41527798037633273,"325":-0.3484550804420209,"326":-0.25293554251590744,"327":-0.04160132462489807,"328":-0.1738872439192416,"329":-0.0067319054146786185,"330":0.09135318807494702,"331":0.1828019614932165,"332":0.15771359467646337,"333":0.02442946354714031,"334":-0.08922775950818987,"335":-0.005213709931030215,"336":-0.07433782954873902,"337":-0.016730726485372223,"338":-0.024358709854366892,"339":-0.08351587252205682,"340":-0.08838960603548413,"341":-0.14552896220174943,"342":-0.09397375804193046,"343":-0.14472047101968868,"344":-0.11961527027742005,"345":-0.11839685941260983,"346":-0.10480578743127021,"347":-0.19426576649105137,"348":-0.0088827089197387,"349":0.3735416461575405,"350":0.4663732584838611,"351":-0.049929335645941576,"352":-0.2911371172508057,"353":-0.21261663779829915,"354":-0.001110895697189747,"355":-0.05061767368907109,"356":0.012546959431118696,"357":0.07841800152382455,"358":0.09607434735168738,"359":0.20820932457785254,"360":0.10836388467976188,"361":-0.06722850639767802,"362":-0.08611345539019608,"363":-0.0270466120227802,"364":-0.08690599570958553,"365":-0.07765791539929028,"366":-0.08895863919305251,"367":-0.0859577472862809,"368":-0.1618265439061081,"369":-0.2539645107389111,"370":-0.24372990449791704,"371":-0.13057031894352336,"372":-0.12418354317546379,"373":-0.03485710990466402,"374":-0.1806204536224848,"375":-0.10968660422760675,"376":0.17901884933755127,"377":0.5066240319176537,"378":0.4700265911175019,"379":0.0921811955484299,"380":-0.24745674773987592,"381":-0.18569012273752708,"382":-0.0930530933943894,"383":-0.09574120499150622,"384":-0.13936478266168056,"385":-0.026429112597737135,"386":0.08400362327703978,"387":0.15881845337591755,"388":0.02784965107494085,"389":-0.08019838245640512,"390":-0.08031936642531641,"391":-0.029301230557753896,"392":-0.09375093050853686,"393":-0.0597036334643624,"394":-0.16742577529145722,"395":-0.05098279645221373,"396":-0.19801143195282997,"397":-0.31003754925625915,"398":-0.20410860364347744,"399":-0.24743792172809276,"400":-0.11686286289073573,"401":-0.2307530740716676,"402":-0.17484633393354188,"403":-0.07445207200984123,"404":-0.013678489213020905,"405":0.41664423440082565,"406":0.42625007065722803,"407":0.10587595306822363,"408":-0.33891242425476026,"409":-0.5255740507894744,"410":-0.39290690178843823,"411":-0.3587940831802959,"412":-0.28411846442907573,"413":-0.09042649914440486,"414":0.014099096621392236,"415":0.12234108482899407,"416":0.10846634720432602,"417":-0.05076239997378751,"418":-0.04550087333644462,"419":-0.06535422388501468,"420":-0.09766916781303304,"421":-0.016241577397170807,"422":-0.0644946108809984,"423":-0.12602457600516778,"424":-0.19270452149869363,"425":-0.22011773474329904,"426":-0.3014142764803588,"427":-0.13803351963996524,"428":-0.13686620127220672,"429":-0.15932714126719993,"430":-0.1722393875632334,"431":-0.13947913844058454,"432":0.13349844343189837,"433":0.5808147147005844,"434":0.3955094584969394,"435":-0.160799010884236,"436":-0.48274890309697716,"437":-0.6908979924004205,"438":-0.44629361704271664,"439":-0.3424873194551128,"440":-0.11529105088205605,"441":-0.02224482188859908,"442":0.045751725998736614,"443":0.1086273579090763,"444":0.1267630364925169,"445":-0.10239772302092055,"446":-0.0430534889712056,"447":-0.046388390599256576,"448":-0.05590106665564808,"449":-0.026833445655527956,"450":-0.015505802537298285,"451":-0.05450693639601707,"452":-0.10654121230555352,"453":-0.17387784080886826,"454":-0.20206963723069873,"455":-0.18773177301637614,"456":-0.29174644987766507,"457":-0.14631966750836645,"458":-0.058328094432803824,"459":-0.024432203584797453,"460":0.08349006337754687,"461":0.31658678501787346,"462":0.14630395569810278,"463":-0.4950952694862898,"464":-0.6148045744570383,"465":-0.4811041281386278,"466":-0.22590961599343723,"467":-0.09295443064804151,"468":0.03348898589421122,"469":0.06846064642863478,"470":0.1063902162693964,"471":0.14722370052425654,"472":0.06279327144496702,"473":-0.05853284604119083,"474":-0.008167813478039404,"475":-0.03332678052365745,"476":-0.09601514650719462,"477":-0.01672915098963596,"478":-0.05214748039368551,"479":0.024620496012327624,"480":-0.050491362398989915,"481":-0.09239797931567924,"482":-0.2887441037277442,"483":-0.15136150327533388,"484":-0.2132599427569453,"485":0.0018419145360961946,"486":0.11802319651908337,"487":0.020891526717117293,"488":-0.1545147952299543,"489":-0.2596529397035927,"490":-0.4647731078196721,"491":-0.6294587767655763,"492":-0.37013011975401633,"493":-0.24659130762854745,"494":-0.07482469643658117,"495":0.2312614439277208,"496":0.1918189469870926,"497":0.15146308825758678,"498":0.27356590012342297,"499":0.14181611269667485,"500":0.03558692807511191,"501":0.07235133740977452,"502":-0.1522366871639801,"503":-0.11381850411214835,"504":-0.031350633271596304,"505":-0.0224246171386742,"506":-0.06245078983358754,"507":0.038831186346957855,"508":-0.001793265073867848,"509":-0.07139438015912844,"510":-0.16156607162929135,"511":-0.15463070588485356,"512":-0.05167743505567077,"513":0.14188686016047,"514":0.35534101259024786,"515":0.25723134324164804,"516":0.023769145215772225,"517":-0.2821728261643035,"518":-0.28299706958112375,"519":-0.19668229915252428,"520":0.061151424032895814,"521":0.10180707001554036,"522":0.27533560331974033,"523":0.21640001308586204,"524":0.11868273980456312,"525":0.28477811900001243,"526":0.29772985996470874,"527":0.07748542521160512,"528":0.05425638403729333,"529":0.03585412737848463,"530":-0.1071345718275259,"531":-0.0038363149926908965,"532":-0.10907855301179246,"533":-0.05047401397875772,"534":-0.05166158797772272,"535":0.03792609307044891,"536":-0.015089120030699859,"537":-0.04890227514016446,"538":0.03573384392436188,"539":0.05384039278787062,"540":0.13983542420234227,"541":0.3411503359416766,"542":0.4106752231839506,"543":0.4339885564325677,"544":0.3319549715676306,"545":0.22844016084055746,"546":0.12283261490356905,"547":0.33846181334520203,"548":0.4587382296733738,"549":0.48852833079351704,"550":0.5079460771169555,"551":0.4118373785838226,"552":0.24682574485725672,"553":0.3406174538196509,"554":0.20266402391208335,"555":0.13735880359408872,"556":0.014831340012666077,"557":-0.07673687861833069,"558":-0.14910572964797014,"559":-0.008941907929750595,"560":-0.01739268137045377,"561":-0.03332031917230694,"562":-0.03726636240554765,"563":-0.0157410174904929,"564":0.03935440913856525,"565":0.12086474612020556,"566":0.2818651486301716,"567":0.48136907080339303,"568":0.505166227714794,"569":0.5484853622435274,"570":0.6239000243860784,"571":0.6345009487047303,"572":0.5927689386171336,"573":0.5557070581535107,"574":0.4766831101946683,"575":0.52317386545155,"576":0.4784541097666283,"577":0.5456030752101418,"578":0.5626773696989968,"579":0.3947772826769047,"580":0.38897544093006303,"581":0.3187188615454067,"582":0.2621202993273534,"583":0.07559555558053185,"584":-0.0752172105814923,"585":-0.0556098538734577,"586":-0.01733771112393932,"587":-0.04266916690024873,"588":-0.09394749301353925,"589":-0.145226041180702,"590":-0.06385742494889976,"591":0.023484388117664234,"592":0.05676737404975519,"593":0.167825495540142,"594":0.47488948655992397,"595":0.49147510939296374,"596":0.5002967753212125,"597":0.40208536605747014,"598":0.4590192249880598,"599":0.40310441569190586,"600":0.4423637055409,"601":0.5260793273097825,"602":0.5899729958098836,"603":0.38933505997007595,"604":0.34532293351316656,"605":0.48742706591866675,"606":0.46184103803863746,"607":0.2768514799691451,"608":0.21943219803546093,"609":0.16286817688967317,"610":0.08083449489509333,"611":-0.012478857489853992,"612":-0.09496447169256428,"613":-0.06942270386354969,"614":0.03602064668139222,"615":-0.035984263234095426,"616":-0.10637434984137034,"617":-0.03774090391414826,"618":-0.0509436342337907,"619":-0.039218707390975445,"620":0.015451066267147495,"621":0.199619947114322,"622":0.37549953947185233,"623":0.38337797726915646,"624":0.34877978374266205,"625":0.20737756114487588,"626":0.29460386554673723,"627":0.1402938783607766,"628":0.2560997337891788,"629":0.41688254753204596,"630":0.2708558894361137,"631":0.21547664945891837,"632":0.24955186809462584,"633":0.30573933461425745,"634":0.2884501959127952,"635":0.1892999066752254,"636":0.12993514467694706,"637":0.07576693128816389,"638":-0.04487376683872103,"639":-0.06249660072184393,"640":-0.05288683125438492,"641":-0.04221310705955326,"642":-0.05447513653563819,"643":-0.10050357804520428,"644":-0.05239521569635009,"645":-0.059253262271813385,"646":-0.05796198352595026,"647":0.002072161148203206,"648":-0.03754505133238303,"649":-0.0012989164279957484,"650":0.12800594088291922,"651":0.08937421468252044,"652":0.14686201451248768,"653":0.24772328549867995,"654":0.1756574530501636,"655":0.19793900631431308,"656":0.25209333724562677,"657":0.2875905061932468,"658":0.16586653759263106,"659":0.21411154387702622,"660":0.23617571452904415,"661":0.2609490459230685,"662":0.15641443092658924,"663":-0.006103230564838663,"664":-0.05038394676201622,"665":-0.08324106234125551,"666":-0.1123286244218295,"667":-0.07703445257043355,"668":-0.05134709876461654,"669":-0.09509251372966378,"670":-0.10325713216024972,"671":-0.06550674883722116,"672":-0.03449094672927386,"673":-0.059807084047625775,"674":-0.030445932873762294,"675":-0.09433486667184665,"676":-0.06186534974368244,"677":-0.12826634644874021,"678":-0.2104923017751029,"679":-0.17038504630917126,"680":-0.030482864922135554,"681":0.05410618415468185,"682":-0.0016274645616677493,"683":0.06743448583366214,"684":0.1486167508460807,"685":0.1323342743494705,"686":0.12242005588930913,"687":0.22519159832069796,"688":0.17989770490093027,"689":0.1000629993127309,"690":0.023893703322121134,"691":-0.011336168639562423,"692":-0.10344806603744063,"693":-0.09626376481356308,"694":-0.1295774341750225,"695":-0.08224360369276178,"696":-0.03700615593479782,"697":-0.06106442465595784,"698":-0.039676013059701296,"699":-0.11365302820034955,"700":-0.12529461232708636,"701":-0.0617353899188595,"702":-0.05969128104900657,"703":-0.06535562816735817,"704":-0.08037334815657973,"705":-0.11650403140611221,"706":-0.14940962166704413,"707":-0.1912253862723957,"708":-0.2510545544871302,"709":-0.21015177502945748,"710":-0.062211874563079195,"711":-0.05266823895482435,"712":-0.013949422436239828,"713":-0.12300841439983061,"714":-0.12683790508847415,"715":-0.08125996884867208,"716":0.018366226864515587,"717":0.0732461753858328,"718":-0.13656594965199462,"719":-0.13447965541381113,"720":-0.0840115245792034,"721":-0.042074558101743764,"722":-0.023539480804365617,"723":-0.05793951637388803,"724":-0.0702328141507276,"725":-0.047514669506353614,"726":-0.09850181981905269,"727":-0.09817542144371078,"728":-0.003803106456772875,"729":-0.09972855122846896,"730":-0.017390927192317367,"731":-0.0019449467487350329,"732":-0.009362483284744521,"733":-0.048425401055976015,"734":-0.05908906128828094,"735":-0.12145431719666981,"736":-0.111786871588491,"737":-0.11848366591177902,"738":-0.133113538853956,"739":-0.15555334981349347,"740":-0.11774052036115604,"741":-0.10971006595220165,"742":-0.15233966547084432,"743":-0.10821396746540654,"744":-0.14194707071696952,"745":-0.05250949793905942,"746":-0.13158674551060026,"747":-0.07374143233990672,"748":-0.03422053725746317,"749":-0.027796789427256097,"750":-0.12425450843217155,"751":-0.08913586867914094,"752":-0.04415211453725244,"753":-0.02393625055375463,"754":-0.03962852751779063,"755":-0.08024885330992564,"756":-0.03328957749094731,"757":-0.020613219455239563,"758":-0.0005824120791902659,"759":-0.06709594554169351,"760":-0.08953835782180612,"761":-0.04322676464245263,"762":-0.030082546529790984,"763":-0.08630451018597167,"764":-0.06232409668933639,"765":-0.03691899910382495,"766":0.016616374363191157,"767":-0.02699231504919485,"768":-0.06786982592768351,"769":-0.10323307569572926,"770":-0.09081383644976636,"771":-0.06186595469001654,"772":-0.03076679909109482,"773":-0.02589704428768005,"774":-0.10107557261814117,"775":-0.04155952958820596,"776":0.0007652110232482385,"777":-0.06150407719047159,"778":-0.0452618018919322,"779":-0.018408097554150637,"780":0.04329645308808576,"781":-0.0892006752281424,"782":-0.01917877871308123,"783":-0.06390831647416546}},{"sx":1,"sy":1,"depth":784,"w":{"0":-0.04221123770429021,"1":-0.03968882534359015,"2":-0.07900035166525045,"3":-0.030650048353029508,"4":-0.03191540547147269,"5":0.00003404217135906981,"6":-0.09665907239394936,"7":-0.12148583265762902,"8":-0.11029377256252289,"9":-0.08630347851769789,"10":-0.13967335813178774,"11":-0.05316857054037162,"12":-0.08554663197552952,"13":-0.041232082178076696,"14":-0.0391923893696946,"15":-0.08635739569631486,"16":-0.04913492961494604,"17":-0.09226333527301284,"18":-0.08112401684061804,"19":-0.0911510621294719,"20":-0.0784232098714537,"21":-0.06078099406147229,"22":-0.015989735073489227,"23":-0.02159975525156019,"24":-0.08845768142350893,"25":-0.06700743968960438,"26":-0.10291967085022807,"27":-0.0057014664065319215,"28":-0.05062788805910754,"29":-0.08891997416208108,"30":-0.08046578154773845,"31":-0.0568809538282342,"32":-0.04194851214611426,"33":-0.09421336937922341,"34":-0.06063952939255804,"35":-0.03433211847773496,"36":-0.07641409747254568,"37":-0.04095504904768179,"38":-0.07047716547698858,"39":-0.08507417411956678,"40":-0.03248878154937517,"41":-0.08418353673449563,"42":-0.1022627834016243,"43":-0.0450959644209834,"44":-0.02081431230352811,"45":-0.052198397060218796,"46":-0.07991230199541212,"47":-0.04290258357976795,"48":-0.11748434047951667,"49":-0.055973459042680015,"50":-0.060544541153413366,"51":-0.0796424517572822,"52":-0.0854642908181562,"53":-0.09380258817711681,"54":-0.10228656270618455,"55":-0.15243533583027982,"56":-0.053307604855914216,"57":-0.06488403653641357,"58":-0.0660825757464605,"59":-0.09621299748455021,"60":-0.10636366504052165,"61":-0.02054090407654434,"62":-0.023557988989975884,"63":-0.010096202579357137,"64":-0.0956040628401103,"65":-0.11986894846461865,"66":-0.11004887581525692,"67":-0.04700023913457231,"68":-0.05646920943022232,"69":-0.1499692147052644,"70":-0.12282317493425439,"71":-0.06380341777857168,"72":-0.18999266471822365,"73":-0.09984432628995384,"74":-0.1383798788817232,"75":-0.07366204392879391,"76":-0.12881277602978736,"77":-0.15434000483672375,"78":-0.06889331646536764,"79":-0.06244672879193624,"80":-0.10202298378698986,"81":0.020278373052790774,"82":-0.06054227265495391,"83":-0.06203185764784261,"84":-0.06728223214935619,"85":-0.02118157551245552,"86":-0.06612368575073749,"87":-0.09042350168119594,"88":-0.06135987640721194,"89":-0.12864731250517514,"90":-0.07771026944992382,"91":-0.025744044667202173,"92":-0.03360269223008112,"93":0.030433777416713787,"94":0.08707817370545698,"95":0.05802121232848738,"96":0.021724865715438815,"97":0.008426127123410204,"98":-0.04087980356024619,"99":-0.13933454895177713,"100":-0.18538344972377968,"101":-0.20431780643119957,"102":-0.3055681552789917,"103":-0.3930591481914234,"104":-0.30384220632749237,"105":-0.22272899971962062,"106":-0.1678045999470821,"107":-0.0965092282911703,"108":-0.10057484624211382,"109":-0.10530208194557897,"110":-0.03036397953996507,"111":-0.15974769438828854,"112":-0.028732878507061112,"113":-0.051547472518260355,"114":0.00333659916562328,"115":-0.05215413459793184,"116":-0.03077578317722191,"117":-0.04333862737874759,"118":-0.040323012384157426,"119":0.06277492564443195,"120":0.0711920369958855,"121":0.12484071758570835,"122":0.18755503991321448,"123":0.22514102595817675,"124":0.16626787085450098,"125":0.20068013192597248,"126":0.11604513433833849,"127":0.1251683248790118,"128":0.060395255844841525,"129":-0.0588671367850004,"130":-0.22337893175303664,"131":-0.46130268176940914,"132":-0.5122968363433363,"133":-0.5543538000017,"134":-0.38386946628511964,"135":-0.1717938276137063,"136":-0.07377073305374628,"137":-0.06323028562432344,"138":-0.06348834421208568,"139":-0.050437303699776684,"140":-0.023654303963904878,"141":-0.04343591156937978,"142":-0.08160242493365516,"143":-0.017303925787715273,"144":-0.031215725165265225,"145":-0.05594022592932797,"146":0.0029745963820337917,"147":0.17334456903624942,"148":0.2548617666673974,"149":0.29469348595733397,"150":0.26659917523186644,"151":0.3529778496783988,"152":0.2794969218734671,"153":0.39375650539814694,"154":0.5130019560446447,"155":0.47927857830784537,"156":0.5247670629285626,"157":0.5465159286784288,"158":0.19057186977503898,"159":0.013958376002066052,"160":-0.24872932789593916,"161":-0.30262397140036557,"162":-0.23534909413549718,"163":-0.12734885465334048,"164":0.025482763197748167,"165":0.02941735138026546,"166":-0.09237245503439973,"167":-0.13452919815391534,"168":-0.06671580585768276,"169":-0.004486105764088177,"170":-0.047951625126946076,"171":-0.06810537689315023,"172":0.0007387665360515753,"173":-0.01516512592936054,"174":0.108070108232969,"175":0.1696157520864534,"176":0.26788571143464923,"177":0.382726203931261,"178":0.36888567752334206,"179":0.25447864912497054,"180":0.3947456972510701,"181":0.4985158244530816,"182":0.48510994315048844,"183":0.3980314948248304,"184":0.28033521032319736,"185":0.31469755541184835,"186":0.3367138087651821,"187":0.2847024734240982,"188":0.22051025513186695,"189":0.19618577489951053,"190":0.07431518168040288,"191":0.17588783289881066,"192":0.17762333443248798,"193":0.08716812811995199,"194":-0.01028502006228292,"195":-0.06012820479182297,"196":-0.04761345762555082,"197":-0.06710778345022231,"198":-0.11799930696984812,"199":-0.09457578460661724,"200":-0.0015189170443595872,"201":0.029784000685472788,"202":0.13873755439376734,"203":0.0593645233447424,"204":0.16452813276867653,"205":0.06777473579468524,"206":0.21827215967820526,"207":0.15789949429113775,"208":0.12363594013503437,"209":0.2331033942478303,"210":0.23196201702069189,"211":0.1654384997173083,"212":0.2099937306492201,"213":0.15109220969759388,"214":0.29181674841019145,"215":0.32130592126333385,"216":0.29987050935275955,"217":0.3064992641664019,"218":0.3141528159770401,"219":0.41328393711765593,"220":0.3590248436855361,"221":0.18878109882014332,"222":0.013649714982199766,"223":-0.046914068991180294,"224":-0.03866577789743118,"225":-0.0688435964641934,"226":-0.04952265708888987,"227":-0.03607768569874304,"228":-0.06833499725398395,"229":-0.009004330660009528,"230":0.11900464255660229,"231":0.10626384249451999,"232":0.05444250678931633,"233":0.10956578531779956,"234":0.23521054042830747,"235":0.188248065784634,"236":0.004567636703498866,"237":0.033379387896204656,"238":-0.056799079866330864,"239":-0.014206756481761377,"240":0.11799750699683127,"241":0.07078906609263227,"242":0.09177922048029798,"243":0.276273593913806,"244":0.41194458918715776,"245":0.4694947714103629,"246":0.5657817096027027,"247":0.5954643309248218,"248":0.5352551763670015,"249":0.2675079007867747,"250":0.04151419497287195,"251":-0.0593664604907834,"252":-0.10662658765836712,"253":-0.06600340193205569,"254":-0.10022227191178273,"255":-0.09433563373003706,"256":0.0038627320215096016,"257":0.0226061886829304,"258":0.07152293245136249,"259":0.008251245430117904,"260":-0.00015006628268979513,"261":0.17116324747559145,"262":0.24879570237621706,"263":0.2016947144101439,"264":-0.07513954973416508,"265":-0.1797892022722439,"266":-0.18741753934845234,"267":-0.2540259411139573,"268":0.14761450004102847,"269":0.18043514624250795,"270":0.1569350475655033,"271":0.28412595049270595,"272":0.42798597729348886,"273":0.632729930800939,"274":0.7717742893779794,"275":0.7049828971350229,"276":0.6097032605674936,"277":0.23202001183506726,"278":0.058545824016306716,"279":-0.02315012691238868,"280":-0.07544325616707245,"281":-0.057749994850915795,"282":-0.05681717702078424,"283":-0.09104905345380634,"284":-0.06612297816308685,"285":0.000839008588979168,"286":0.11062671769960208,"287":0.030397397871945946,"288":0.012678299329813422,"289":0.11962860257088705,"290":0.15208867401217732,"291":0.0626072257869304,"292":-0.022657500602934953,"293":-0.10513120913922558,"294":-0.3372613710201169,"295":-0.3470502382016136,"296":0.0018846986298852494,"297":0.20351052609852668,"298":0.2509262177720896,"299":0.20673350535879617,"300":0.18550056738983728,"301":0.21955244914434166,"302":0.4402628070930614,"303":0.5392466393281862,"304":0.36055956681461476,"305":0.24611211607486977,"306":-0.05122063100444832,"307":-0.057305688792283344,"308":-0.06621150533814896,"309":-0.07309243457280039,"310":-0.07667617359884363,"311":-0.09761200273605104,"312":-0.06463483046417802,"313":0.009272478039052017,"314":-0.12390811009072687,"315":-0.13142813911520174,"316":0.0076890164449044856,"317":-0.06868756308280803,"318":-0.009930081786499918,"319":0.08760123037997178,"320":0.07572769807344187,"321":0.17874928240660323,"322":-0.2809485168255939,"323":-0.3966121412898788,"324":-0.08916169028238313,"325":0.017265436324029933,"326":-0.23212588778341642,"327":-0.21108701865618965,"328":-0.21991517140034497,"329":-0.2886429396883698,"330":-0.11035201161748988,"331":0.18257733183345973,"332":0.21839239536758032,"333":0.04210700820080708,"334":-0.036315663637354875,"335":-0.01661590025944908,"336":-0.004379334829044097,"337":-0.04535471461988505,"338":-0.10976115086744104,"339":-0.05957998680086578,"340":-0.17413663627003548,"341":-0.21025835280158103,"342":-0.17653967535153386,"343":-0.35380402349325607,"344":-0.15973102832595812,"345":-0.1453460340751696,"346":0.1419311465478233,"347":0.11256086721916345,"348":0.2973123733208746,"349":0.2224778158824935,"350":-0.3550837534223006,"351":-0.525969555696416,"352":-0.27617812070928943,"353":-0.25197199114398977,"354":-0.3327606254913813,"355":-0.3310714154718673,"356":-0.31890629024363243,"357":-0.3737784012473005,"358":-0.38088267588164415,"359":-0.19688352419983773,"360":-0.06519914665898759,"361":-0.07165398785660172,"362":-0.14512149100627697,"363":-0.028048215550238637,"364":-0.03148832569040573,"365":-0.1046817530003639,"366":-0.06307597943688474,"367":-0.04410486775956237,"368":-0.15765415804992666,"369":-0.2198645764147661,"370":-0.3430321555305894,"371":-0.2571707956316387,"372":-0.18381531157846645,"373":-0.06619809309042791,"374":0.12731716221948222,"375":0.39112336708156614,"376":0.3704692411371481,"377":0.13710041056007266,"378":-0.39655551022456925,"379":-0.48926485637911976,"380":-0.23245558068942954,"381":-0.251572452911507,"382":-0.19499374526550628,"383":-0.35299323073875793,"384":-0.2613916843210267,"385":-0.3819059779946731,"386":-0.33349330277178657,"387":-0.30484087024486745,"388":-0.22333265214315864,"389":0.005359389662936188,"390":-0.07270087130867652,"391":-0.12035370336263974,"392":-0.07289668073820446,"393":-0.07951002240321475,"394":-0.08389573704395915,"395":-0.09443450931244408,"396":-0.12946964431765415,"397":-0.2039868131064982,"398":-0.34644672179350067,"399":-0.3568471066629242,"400":-0.20016016320145275,"401":-0.029784595747361402,"402":0.16080557765836384,"403":0.2857667496805978,"404":0.23782048517002272,"405":0.12011907316769797,"406":-0.2659515093134095,"407":-0.43162985927195263,"408":-0.23274684652031571,"409":-0.21541119664241037,"410":-0.25155646362397427,"411":-0.23747789678027129,"412":-0.31642050634537616,"413":-0.35735262455443495,"414":-0.404944408431054,"415":-0.31084489603147825,"416":-0.1618295224245655,"417":-0.085844832657225,"418":-0.16515545822413658,"419":0.004940669930493605,"420":-0.035713202207478305,"421":-0.048080834462415095,"422":-0.06719289521610071,"423":-0.083992885690015,"424":-0.08793472917580435,"425":-0.09549825506331165,"426":-0.25219730211944713,"427":-0.3319991857958115,"428":-0.21031847780189897,"429":0.008972050614452476,"430":0.1494054660286389,"431":0.04289372537278413,"432":0.22984942836901215,"433":0.03683503254885895,"434":-0.3741169033417175,"435":-0.41350742612359614,"436":-0.293671128800433,"437":-0.2637994296737681,"438":-0.24654364531024298,"439":-0.12398980869383905,"440":-0.2742338422129449,"441":-0.33307851867025745,"442":-0.27635230065226946,"443":-0.1969377670494814,"444":-0.1299666223271939,"445":-0.15557265488274516,"446":0.012854881570244926,"447":-0.022399622129640098,"448":-0.1235662980062085,"449":-0.05935705110381988,"450":-0.0023437073205364043,"451":0.024927336180127463,"452":0.055759754022678194,"453":0.07867130689342362,"454":-0.04730527513375062,"455":-0.25825548682297306,"456":-0.14416680282147887,"457":-0.0223261901003792,"458":-0.11165356948315426,"459":-0.020191379994773946,"460":0.21193053160727549,"461":-0.05399113556938943,"462":-0.2947056448811437,"463":-0.23413144974364758,"464":-0.06617417394849345,"465":-0.10406654803677874,"466":0.09664451897603679,"467":0.060865548981198885,"468":-0.08164433648557,"469":-0.1308867060820161,"470":-0.052840326206073505,"471":-0.014992631307670114,"472":0.0092364256621623,"473":0.04852497189164873,"474":-0.03274121974715504,"475":-0.037350050663176496,"476":-0.08685567610553961,"477":-0.08737253435795414,"478":-0.019156598943290103,"479":-0.03291188240154944,"480":0.1709336471573158,"481":0.3957329217878391,"482":0.4414070677834091,"483":0.045370203406265984,"484":-0.16214623231888234,"485":-0.1146365985415229,"486":-0.34022592578180494,"487":-0.15885632184891815,"488":0.03078217737484911,"489":-0.2152080018737637,"490":-0.4357253424225156,"491":-0.22481952856502252,"492":0.18989881856431307,"493":0.1501326641245206,"494":0.1769567106182735,"495":0.12464222397422361,"496":0.1478695148894312,"497":0.09050763544306446,"498":0.13288259335675645,"499":0.18727845035713853,"500":0.13843632972741834,"501":0.088981327294771,"502":-0.029090450203794596,"503":-0.02241585348412419,"504":-0.0711870471790467,"505":-0.0857903812630173,"506":-0.06104600562585386,"507":0.010609116763851272,"508":0.2660700598765221,"509":0.5183261906130529,"510":0.763087167167236,"511":0.523250153877023,"512":0.03655646329479675,"513":-0.07485316435011745,"514":-0.1089015116824659,"515":-0.1327927788880296,"516":0.0045389845328468945,"517":-0.03424289087134843,"518":-0.1921372177449448,"519":-0.02752880147320907,"520":0.2026028504168308,"521":0.252792538988491,"522":0.3175143019314006,"523":0.24167909041491323,"524":0.18497560172626146,"525":0.25573538141929714,"526":0.3783887395946127,"527":0.3268048721561596,"528":0.19826324118516983,"529":0.07148853913350653,"530":-0.0878783533543609,"531":-0.016345872963015498,"532":-0.01138038188648738,"533":-0.0778200572277326,"534":-0.0469333001130583,"535":0.013448920488306459,"536":0.26187874511816833,"537":0.5829949466904063,"538":0.8900726669716577,"539":0.7066534186332198,"540":0.5013331652523292,"541":0.2695536421051273,"542":0.029512538430656616,"543":-0.19079927126060667,"544":-0.048098410978804955,"545":-0.026221644257072626,"546":-0.09593866715165413,"547":0.018591666316338046,"548":0.09907472756203925,"549":0.1968541409051539,"550":0.27619696235667807,"551":0.2653324083403913,"552":0.28120786862983765,"553":0.38522535765296234,"554":0.41145463263543086,"555":0.3489984185657472,"556":0.1891145387166894,"557":0.012786334595020215,"558":-0.09389335049832899,"559":-0.13069746260264423,"560":-0.054008378843003385,"561":0.011516401428621884,"562":-0.027704916695875607,"563":0.028459494203409322,"564":0.36497234041195215,"565":0.4891757332420055,"566":0.7439475531428708,"567":0.6627012825739848,"568":0.5537346558846831,"569":0.4116548306446769,"570":0.07089179827958,"571":-0.1701980677094201,"572":-0.3008664112632309,"573":-0.28231189959064695,"574":-0.35158675267601275,"575":-0.18950355864213114,"576":-0.19453635677745076,"577":0.028514254318806834,"578":0.19109060825416435,"579":0.35045975683591035,"580":0.5337590250563896,"581":0.5004660795725477,"582":0.43521972081704163,"583":0.3237416430946921,"584":0.049567031666260405,"585":-0.016297680853036595,"586":-0.03303020787768253,"587":-0.0007475725759359337,"588":-0.043374152032545375,"589":-0.038401299622629496,"590":-0.08762118556175644,"591":0.045140341532379606,"592":0.20631081953775018,"593":0.31709343911812177,"594":0.4432160120465063,"595":0.41655037699802416,"596":0.45202231180981994,"597":0.34304595937279475,"598":0.23653734035846508,"599":-0.02323879346914174,"600":-0.2918583783959831,"601":-0.23351540867333645,"602":-0.2515308624617888,"603":-0.22069142199854844,"604":-0.1462807926459727,"605":-0.051601513665832835,"606":0.18389351901894582,"607":0.5268097697328521,"608":0.501918788649097,"609":0.5446100775166025,"610":0.43902206042426856,"611":0.18954039626998564,"612":0.028764600404820578,"613":-0.013272692022058538,"614":-0.11184390294412822,"615":-0.07914437276315542,"616":-0.040550547376889644,"617":-0.09152459891604153,"618":-0.055186113713525047,"619":-0.13627128619550713,"620":0.04671516216926703,"621":0.06832330376500995,"622":0.142277355736157,"623":0.16665478127981254,"624":0.20093073132068673,"625":0.2871025962745076,"626":0.33008117532134684,"627":0.6068120073610662,"628":0.507636316285585,"629":0.4273380007847727,"630":0.308552520306512,"631":0.08510149055705304,"632":0.04576508775611217,"633":0.014231862585983274,"634":0.345121113113381,"635":0.3815218463696642,"636":0.29358090304059326,"637":0.1740216999934601,"638":0.23928427509281944,"639":0.08403733413203657,"640":-0.0381356695581651,"641":-0.14559330590893765,"642":-0.0947321895973263,"643":-0.06322774257894018,"644":-0.044293050970735694,"645":-0.07147326046319737,"646":-0.018794615763281373,"647":-0.03082865863206217,"648":-0.07812564488939333,"649":-0.10815420387416184,"650":-0.1562161308993579,"651":-0.07221092857337219,"652":-0.17031075065401727,"653":0.027719600091922626,"654":0.3610627226661395,"655":0.5772043423904554,"656":0.605870612268368,"657":0.6364400481103782,"658":0.5669044882004354,"659":0.3684287334619029,"660":0.25731523031557224,"661":0.10681958650990278,"662":0.1176686977738796,"663":0.19040569905381513,"664":0.08934844442756477,"665":0.05120665942117066,"666":-0.01866114696312383,"667":0.010845944370345908,"668":-0.005456885345879415,"669":-0.06992541134270286,"670":-0.06963998294793325,"671":-0.10527985840634488,"672":-0.03802564590393851,"673":-0.0947933677126162,"674":-0.03181915473130726,"675":-0.03625087720341715,"676":-0.0900047036975982,"677":-0.15760210640166056,"678":-0.16439458685223168,"679":-0.10690562925126623,"680":-0.11590369499560174,"681":0.02671308571762938,"682":0.05960159785795048,"683":0.21397332932881385,"684":0.2635615581541681,"685":0.28608636085182426,"686":0.36076497051116924,"687":0.3208403466189499,"688":0.24880287100329232,"689":-0.03689890285634577,"690":0.014025373322384235,"691":0.0475063553235575,"692":-0.09882152103637375,"693":-0.10287945960420869,"694":-0.12418665817487659,"695":-0.07134975678018249,"696":-0.04353369833567096,"697":-0.03558225860036992,"698":0.0003223952593110759,"699":-0.0909644914475575,"700":-0.13632602149736325,"701":-0.1149857326104468,"702":-0.06482698498297644,"703":-0.03642778041250272,"704":-0.11722563349199475,"705":-0.03867865872816836,"706":-0.10893452799307204,"707":-0.14615386357946528,"708":-0.1695722511358603,"709":-0.26353569787766445,"710":-0.17941400259089144,"711":-0.21764279686443866,"712":-0.2721363585699013,"713":-0.16449684659256383,"714":-0.12248617227865509,"715":-0.10808859258629942,"716":-0.08006755374277924,"717":-0.10583948304505783,"718":-0.05947267496084693,"719":-0.05056740324455956,"720":-0.0697889441234166,"721":-0.11045938059798181,"722":-0.06214855468138492,"723":-0.12992727729525552,"724":-0.006741803424784296,"725":-0.10964900856977687,"726":-0.06711234571846267,"727":0.008314482174083822,"728":-0.09037364652583281,"729":-0.06977644789981277,"730":-0.0845227248576494,"731":-0.08614836396786475,"732":-0.028181015119392513,"733":-0.15167507718327256,"734":-0.11816268761281178,"735":-0.15888861508249325,"736":-0.141814411769719,"737":-0.18509620052667503,"738":-0.18122579736387046,"739":-0.25809923872273666,"740":-0.2382737388945787,"741":-0.20790021248592652,"742":-0.2794521925008069,"743":-0.1754009775020609,"744":-0.10600672844523505,"745":-0.14792789556922797,"746":-0.04074086113592092,"747":-0.1022075725814437,"748":-0.07234812706202311,"749":-0.13171526510664308,"750":-0.07035535972909097,"751":-0.03387225544871058,"752":-0.10439892685625841,"753":-0.061288557539560445,"754":-0.04952857491235946,"755":-0.005010133426325563,"756":-0.09317804589801815,"757":-0.06171595126010318,"758":-0.08244499789249927,"759":-0.09461780903969055,"760":-0.11429948178925019,"761":-0.025215311477116434,"762":-0.08763397766459305,"763":-0.021410831468152102,"764":-0.09038047153479355,"765":-0.08881628989718192,"766":-0.09423654945942017,"767":-0.11427120349944492,"768":-0.07087513792879026,"769":-0.09892614725047577,"770":-0.07038508273979759,"771":-0.11747216655038165,"772":-0.08109628174568458,"773":-0.08739133304059621,"774":-0.08280803491767852,"775":-0.07787925833395293,"776":-0.05908359090240328,"777":-0.14039416759847326,"778":-0.01683697525056816,"779":-0.02807849418594733,"780":-0.10481737917904622,"781":-0.032019306577267724,"782":-0.025725476993614056,"783":-0.12826364957069084}},{"sx":1,"sy":1,"depth":784,"w":{"0":-0.04556701783301721,"1":-0.013087741032495173,"2":0.02260481494475772,"3":0.026589304408286375,"4":0.03230466627594285,"5":-0.006361775310273076,"6":-0.06000984874293117,"7":0.0026913881223490045,"8":0.023258512042025472,"9":-0.03324485361123911,"10":0.04558118369333528,"11":0.010870906313861171,"12":0.02934977743263063,"13":0.04490130571967418,"14":-0.03939618576277817,"15":-0.07365425684626185,"16":0.007454942683484676,"17":0.017610477061542448,"18":-0.018373951473798444,"19":-0.0315021762476862,"20":-0.014117996729868397,"21":0.009708315900316181,"22":-0.012115971536537295,"23":0.04987133992125879,"24":-0.015845429079720003,"25":0.06876023460656731,"26":-0.04502734091306248,"27":0.010486075499573708,"28":-0.03609851242518206,"29":0.05176412021480597,"30":-0.03956326249277293,"31":-0.02969833225583917,"32":-0.029414545056199663,"33":-0.021272583893041368,"34":0.004581323137665117,"35":-0.005457463120408219,"36":-0.016147483907675887,"37":-0.047024068188819115,"38":-0.020670802702709802,"39":-0.009005130991206957,"40":0.006753809638442025,"41":-0.018208074950883044,"42":-0.022217681986118114,"43":-0.03446229212256773,"44":-0.005216496623624817,"45":-0.03755889529102604,"46":0.013672480937260593,"47":-0.0038619851768324446,"48":0.04444479258015523,"49":-0.01650218343433517,"50":-0.04318161379845948,"51":0.0035827300054257633,"52":-0.03425798031370537,"53":0.03532424983493412,"54":0.07110534617846147,"55":-0.013393892753660288,"56":0.07579584345377083,"57":-0.025911988746886157,"58":-0.020923074898250613,"59":0.028115140927206222,"60":0.04287834985931213,"61":-0.004234425654644045,"62":-0.054842734271057944,"63":0.04327312716454684,"64":-0.03141372952593012,"65":-0.04520462798069763,"66":-0.06983700377100883,"67":-0.04558989613485946,"68":-0.1308045729852393,"69":-0.1659523601022015,"70":-0.058261544078105874,"71":-0.07862655928473251,"72":-0.09889573583161147,"73":-0.11191278158545141,"74":-0.06876764715971592,"75":-0.016484104069498746,"76":-0.0022512383512704234,"77":-0.030012624023302032,"78":-0.02607489128826737,"79":-0.027093526550374017,"80":-0.00648158098315976,"81":0.04008857530016462,"82":0.031604000458459035,"83":-0.014198207624402907,"84":0.000372448473308651,"85":-0.02185358939001867,"86":-0.002638623252607416,"87":0.04992900383048151,"88":0.04297028747552605,"89":0.006938620675117679,"90":-0.029397547395782014,"91":-0.0787512436856577,"92":-0.12597820508853017,"93":-0.1149102905624911,"94":-0.21460685551267972,"95":-0.21769856524551373,"96":-0.21633783704131623,"97":-0.24210657870067098,"98":-0.24199628094332126,"99":-0.2680795893110048,"100":-0.23016234678094696,"101":-0.22705966249451065,"102":-0.19117641022051407,"103":-0.24222168958448703,"104":-0.1447437600435773,"105":-0.08064548623953988,"106":-0.05047473851088429,"107":-0.11676709240140389,"108":-0.032814196653718625,"109":-0.059594290958282434,"110":0.029369563240269108,"111":0.001146393986817131,"112":0.047580953861446264,"113":0.062066772210915305,"114":-0.007008277909083095,"115":-0.017216762042284554,"116":0.014943998098389925,"117":-0.006999704493475549,"118":0.08784882069808388,"119":0.06202024444116104,"120":-0.00484763924211872,"121":-0.053249827324754584,"122":-0.042541126117674063,"123":-0.002474263343869108,"124":-0.0737521094751915,"125":-0.11748401036816593,"126":-0.20685948629654055,"127":-0.1990394122455732,"128":-0.2281927752383845,"129":-0.21896216597984106,"130":-0.1678717278533235,"131":-0.19335054706545224,"132":-0.15353263143565696,"133":-0.15057395394982526,"134":-0.11768432700268239,"135":-0.05597941955106939,"136":0.00865470541555192,"137":-0.04310999524708004,"138":0.015436849987172256,"139":0.032652915426123405,"140":-0.009950106641693632,"141":0.04955958183172173,"142":-0.024755531416233812,"143":0.03318418357385159,"144":0.01968751091012436,"145":-0.01508365220031317,"146":0.048424163426355124,"147":0.11335740566612172,"148":0.006137522266395903,"149":-0.06931813958613127,"150":0.03551713780012668,"151":0.006041483314099408,"152":-0.0835261273279053,"153":-0.11948832151251931,"154":-0.213758400708549,"155":-0.17903977314391736,"156":-0.09306514878119462,"157":-0.2757598111463812,"158":-0.15327872359432548,"159":-0.09564523785185433,"160":0.015123374492390195,"161":-0.10489204580212744,"162":0.0986756271065186,"163":0.0352871896761833,"164":-0.0015566300824993514,"165":-0.046721798252611135,"166":-0.030094677846148107,"167":-0.02940019176756888,"168":0.04594263233917641,"169":-0.0158127399018866,"170":0.033329042995084934,"171":-0.013136606790916154,"172":0.04685064646732111,"173":0.17263750631833022,"174":0.15746558653615994,"175":0.13286350105347516,"176":0.05454105347482535,"177":0.014885711988678853,"178":0.07925409245648211,"179":0.06164917024180852,"180":0.06812386839921114,"181":0.1826036958737939,"182":0.1593329419225855,"183":0.11829852282975678,"184":0.16424866877072888,"185":0.161189573657234,"186":0.23981987347337724,"187":0.26995685394449415,"188":0.20727290870493859,"189":0.18060969340500718,"190":0.0350878398231472,"191":0.003868616010822298,"192":0.09843061674971822,"193":-0.018069816907398322,"194":-0.0010823061542907424,"195":-0.011021979988995812,"196":-0.000230040135524964,"197":-0.01629607249685981,"198":0.04202250112406864,"199":0.04605641215751652,"200":0.14405618562862568,"201":0.20029184844872833,"202":0.08712391612661992,"203":0.07339046873466072,"204":-0.033178056085376974,"205":0.003138813710862692,"206":0.0684801174924132,"207":0.11755388264471309,"208":0.38080282158121376,"209":0.3507690036321231,"210":0.34778770171744416,"211":0.4400152642319508,"212":0.3829094120500746,"213":0.4849466434441192,"214":0.3608465079532211,"215":0.390141310272257,"216":0.23169012895015637,"217":0.13034940081446716,"218":-0.021095565510398064,"219":-0.01283341038165377,"220":-0.09778602216502427,"221":0.019704287507066348,"222":0.03701400314940484,"223":0.03681370223436996,"224":0.055098490324926495,"225":0.08139638017621055,"226":0.008325593059672785,"227":0.02052984428806713,"228":0.09349353788325258,"229":0.09409731097331876,"230":-0.045554884036942536,"231":-0.11439004449364275,"232":-0.11678863874329944,"233":-0.059263295889484924,"234":-0.1598745502684338,"235":-0.08154708130015816,"236":0.009347284390205862,"237":0.0284652540570109,"238":0.21984086121969032,"239":0.27084191211772723,"240":0.3763100130147075,"241":0.3783468404305992,"242":0.39062715403771453,"243":0.24251052421921343,"244":0.19489508476963938,"245":0.09958746775904365,"246":-0.040368591459217076,"247":-0.09539131491486882,"248":-0.17514008224399993,"249":-0.06828992502617155,"250":-0.013171630970697935,"251":-0.08692780835077742,"252":0.05823390205954636,"253":-0.024104815032523104,"254":0.0148780834434944,"255":0.07852080537731396,"256":-0.013275034103088845,"257":-0.07038983063021044,"258":-0.11548982702496814,"259":-0.25864952810620034,"260":-0.21961900069797066,"261":-0.21473006539880307,"262":-0.1550437472355916,"263":-0.12101291983625467,"264":-0.03778377389232609,"265":0.001172379960474364,"266":-0.05112352816636581,"267":0.2620265098249588,"268":0.3770111664724416,"269":0.24319051020521468,"270":0.18347986450678422,"271":0.19264876569077607,"272":0.21328654149817716,"273":0.1553832664635426,"274":-0.04617782959913418,"275":-0.16682842783110488,"276":-0.19455248162701771,"277":-0.0162768927656486,"278":0.007655664354357088,"279":0.030229017117122732,"280":0.01820590123222539,"281":0.031493410957573194,"282":0.023233225789960475,"283":0.02817913924194551,"284":-0.02037375299100775,"285":-0.10548678323513387,"286":-0.19400922586243652,"287":-0.1742516248199046,"288":-0.17074879945295773,"289":-0.11017887894705578,"290":-0.21220618953719747,"291":-0.026527176542529608,"292":0.1420954874078563,"293":-0.05053422246602479,"294":0.1280465032904905,"295":0.2976882898402276,"296":0.2430066968230619,"297":0.32471041484746116,"298":0.20634393901020506,"299":0.16916125140192947,"300":0.2131570893637167,"301":0.1291494349988019,"302":-0.02685206722138555,"303":-0.05677734283269645,"304":-0.13955352579641156,"305":-0.017126104220955573,"306":0.04832356194859127,"307":0.03755873659953346,"308":-0.003003200356430035,"309":0.01335108840777187,"310":0.08432046208885298,"311":0.015017985224799558,"312":-0.02526122377441209,"313":-0.026487159536333172,"314":-0.03348361469261588,"315":-0.12549341224384847,"316":-0.12969204727629804,"317":-0.06088552579518609,"318":0.1448056360699175,"319":0.20246898374739494,"320":-0.07479665836805172,"321":-0.055422784452851884,"322":0.056242559000697474,"323":0.27370955180818807,"324":0.35347969540454244,"325":0.39853983127772824,"326":0.2755320092323312,"327":0.1384441353216727,"328":0.18038254336164483,"329":0.005158390365911711,"330":-0.0027979325397706543,"331":-0.0110994886815498,"332":-0.13481974880672865,"333":-0.06345346467152864,"334":-0.02573287424046074,"335":0.00011495365711172364,"336":-0.01648748856321558,"337":0.04814835774168884,"338":-0.05403489821232959,"339":0.028527054151649436,"340":-0.044673645565028425,"341":0.01684861471044981,"342":0.1933440630496812,"343":0.13393215406684134,"344":0.11642951959206661,"345":0.26900134984358465,"346":0.4051676101821329,"347":0.40172532107366304,"348":0.10265369474151856,"349":-0.1676209527504287,"350":-0.1305045619142164,"351":0.07264405559023016,"352":0.1707375856255752,"353":0.35678391270620774,"354":0.24638297707016,"355":0.24803138397843041,"356":0.02461618652131992,"357":-0.07157046578025172,"358":-0.016730991638545026,"359":-0.010580006612619219,"360":-0.009354867845697145,"361":-0.04086209645424891,"362":-0.04393804269510335,"363":0.009001661834239526,"364":-0.040515898959516045,"365":-0.005869838811619163,"366":-0.01117601303097874,"367":0.039993649873697724,"368":0.05047818370818208,"369":0.2491945188419668,"370":0.47273942156658,"371":0.5313736268533208,"372":0.30670938851041707,"373":0.3464721469245051,"374":0.4538830379594524,"375":0.20655586828332598,"376":-0.06634245303914442,"377":-0.19873770851935776,"378":-0.3260564313914036,"379":-0.2500056145777171,"380":0.0396309874792321,"381":0.33874155842208636,"382":0.19956043778061278,"383":0.07849200074204063,"384":0.041280677886422486,"385":0.07699958300429839,"386":0.022925250468128315,"387":0.05569144673385346,"388":0.021622603598985258,"389":-0.02342311055570223,"390":-0.004172178790297749,"391":0.03639024467970485,"392":0.048374014501175455,"393":-0.027097868961952577,"394":0.03658221434559587,"395":0.03392562087427149,"396":0.16153222061259312,"397":0.3403098293410523,"398":0.6109122546265691,"399":0.6874238801087258,"400":0.5082025334382033,"401":0.46539261744133054,"402":0.22155946284935496,"403":-0.06782835676925246,"404":-0.2818889197454398,"405":-0.41381040528374247,"406":-0.5848176525685777,"407":-0.4085268755387732,"408":-0.06243430829552669,"409":0.23458810610292147,"410":0.31913056821799274,"411":0.19059601412811103,"412":0.30110613560530397,"413":0.2782764456573143,"414":0.07316990463196558,"415":0.19275497227230837,"416":0.13067601857340705,"417":-0.012996240783301301,"418":-0.00003602313905024055,"419":0.019755420509524713,"420":0.00804283174708272,"421":0.02151388012917082,"422":-0.03146771615894021,"423":0.03539986765223478,"424":0.12496457289493844,"425":0.44173137360187936,"426":0.537994902248436,"427":0.5012329776805142,"428":0.4133930289474873,"429":0.165407164432424,"430":-0.05336259062395441,"431":-0.28025624690820666,"432":-0.4536588771312337,"433":-0.5950612585142029,"434":-0.7351732867603833,"435":-0.4659906578305289,"436":0.016417921802252405,"437":0.23339722358414886,"438":0.355096437665842,"439":0.2860608122872978,"440":0.3524450159223842,"441":0.3046041307546967,"442":0.20176423429558032,"443":0.15274827162749924,"444":0.11096971776270444,"445":-0.0588845179479892,"446":0.009066237329490662,"447":0.007173249292802617,"448":-0.010504312798829893,"449":0.007756331363540597,"450":0.033560220862692294,"451":0.02704309375453284,"452":0.11346349590149395,"453":0.28778453456442,"454":0.24422520495619016,"455":0.1820422048954186,"456":0.1442484802003105,"457":-0.18956111802424408,"458":-0.39438843293622644,"459":-0.48728991401307997,"460":-0.4921130460508499,"461":-0.6459554030130659,"462":-0.76380878026931,"463":-0.4385420970176011,"464":-0.09986886594027515,"465":0.34044182785573013,"466":0.36917806713548057,"467":0.29040903786757266,"468":0.20419427136887935,"469":0.2424425028728468,"470":0.11278170454853229,"471":0.04629081809150492,"472":-0.0071243438967399245,"473":-0.11315117156405642,"474":-0.0387158571833924,"475":-0.04930188982892908,"476":-0.024431596998796833,"477":-0.0026325032994826093,"478":0.035187410461187854,"479":0.0609891116776966,"480":0.06282208108766606,"481":0.06462359000468729,"482":0.04505237020314077,"483":-0.03879680864893217,"484":-0.10242864162013214,"485":-0.4728321643025398,"486":-0.5732152544414599,"487":-0.6469074873304633,"488":-0.6609046219092534,"489":-0.7791906496177569,"490":-0.6554994142341863,"491":-0.3096549354323874,"492":0.11382439256814521,"493":0.3989781373861932,"494":0.31647768691243966,"495":0.06700597323219246,"496":0.00024388639461943003,"497":0.1773756455151159,"498":0.05109795500885657,"499":-0.10601234047874651,"500":-0.19620471208709875,"501":-0.10403344158644941,"502":0.01216924999214183,"503":-0.010123023455148221,"504":-0.03170221538975405,"505":0.010122221521220552,"506":-0.011852669778021435,"507":0.047419287865932094,"508":0.1897858563828149,"509":-0.03553141802970198,"510":-0.09587741179576961,"511":-0.2838778939186382,"512":-0.3818036694997156,"513":-0.6037769724912447,"514":-0.7493047201138856,"515":-0.765595104785243,"516":-0.9847444042848551,"517":-0.9345793726258271,"518":-0.48683963693764765,"519":-0.2412528367362802,"520":0.07653947715070612,"521":0.25199602979967445,"522":0.18409056845239308,"523":0.040753714105068055,"524":0.038675324801802614,"525":0.057448586185601,"526":0.034275991524575604,"527":-0.17982211483791424,"528":-0.21610359768259088,"529":-0.0833179781477968,"530":-0.00885800994941904,"531":0.045773800924939746,"532":0.045679593715437436,"533":0.008904556087861412,"534":-0.00354635873796179,"535":0.13690381716717953,"536":0.2068926422611957,"537":0.12131591316677776,"538":-0.16657086341195332,"539":-0.3164068014129966,"540":-0.5241667622590713,"541":-0.8469164379343045,"542":-0.7637984314530495,"543":-0.8321870199751573,"544":-0.8581296739362637,"545":-0.5980324152221395,"546":-0.2161429063362926,"547":-0.14936623520853096,"548":-0.029463793587333042,"549":0.14716925238345666,"550":0.05409058580823414,"551":0.052937477849228566,"552":0.05854692892506379,"553":-0.018728404405444744,"554":-0.10518058821127899,"555":-0.257456839027423,"556":-0.20319338396192704,"557":-0.0614424046146034,"558":-0.023852197533822485,"559":-0.0023382431908901173,"560":0.07430878247951929,"561":-0.06988972641511454,"562":0.0075033755668701095,"563":0.05773944197975907,"564":0.11469450832220415,"565":0.02452388640757569,"566":-0.22122803288005344,"567":-0.44384956972237205,"568":-0.6128654161017326,"569":-0.7750616406016402,"570":-0.6551862087077494,"571":-0.6271372479146089,"572":-0.43413697141633256,"573":-0.17487512570268282,"574":-0.002500293757096091,"575":0.030387231660522783,"576":0.038135920996363086,"577":-0.0705446888798374,"578":-0.00959007003570372,"579":-0.1255317454977019,"580":-0.0013695581859544548,"581":-0.07411578095569994,"582":-0.1695972331536471,"583":-0.2611112101197243,"584":-0.1566345773520827,"585":-0.07704198667636285,"586":-0.0067549307288983194,"587":0.027050818186239146,"588":0.015087601851364337,"589":-0.04676243701209418,"590":-0.01181366632921611,"591":0.06503723148284726,"592":0.10646421999575414,"593":0.05605494523926444,"594":-0.1578366871360484,"595":-0.2834907848053492,"596":-0.4435777524862487,"597":-0.40284421752979305,"598":-0.41999472988357456,"599":-0.29177340094320964,"600":-0.15645276287790297,"601":-0.060987737704459984,"602":-0.02610903373217947,"603":0.05961240702734786,"604":0.035700489580436645,"605":-0.2064989925600533,"606":-0.09508219147574927,"607":-0.061263071124416354,"608":-0.08481754448541892,"609":-0.22026332935959952,"610":-0.20059458526006768,"611":-0.22649251791639677,"612":-0.1310244354110788,"613":0.004827610959091222,"614":0.0428344589242909,"615":0.02153370582025877,"616":0.004519199157450993,"617":0.021980786069841454,"618":-0.03134084843743775,"619":-0.045708983204948136,"620":0.01966670138766524,"621":0.02744560815357724,"622":0.011222955146149915,"623":-0.06778607664600582,"624":-0.12339712216422316,"625":-0.030166623090577254,"626":-0.024124363257817295,"627":0.10279630886042555,"628":-0.012730661406005418,"629":0.014763441091136729,"630":-0.05883250293890499,"631":0.04311724398167802,"632":-0.007977069161434258,"633":0.05262266956302287,"634":-0.05753789152087774,"635":-0.06487079722094456,"636":-0.1803017742022441,"637":-0.20668396174485565,"638":-0.160825002097759,"639":-0.057954451458722,"640":-0.03964559653254428,"641":-0.002890649819156511,"642":0.01791812598015452,"643":-0.008887511881938676,"644":-0.038365201076650444,"645":0.03704466447819699,"646":-0.0075567497757247064,"647":0.09434443974252682,"648":0.04429817376361783,"649":0.0613951703433929,"650":0.12040102290275673,"651":0.18335741399610664,"652":0.13687487654899572,"653":0.22469719053254478,"654":0.20755622990910963,"655":0.21662090113534188,"656":-0.007567317491673612,"657":-0.24348390076028423,"658":-0.06648039031544298,"659":-0.09239433559596506,"660":-0.1624493523924457,"661":0.042374361728209006,"662":-0.015055871136685876,"663":-0.09160720473346445,"664":-0.10137679984373461,"665":-0.13964983663977132,"666":-0.06343928458488396,"667":0.07346781111764573,"668":0.00824734915064227,"669":0.03647617125421697,"670":-0.04075773224709563,"671":0.03986720147410129,"672":-0.009235047479592058,"673":0.01578775813210559,"674":0.009053780792523782,"675":0.05140475685614389,"676":0.0594837024710601,"677":0.14820875975743786,"678":0.19524675180232373,"679":0.09086609698440472,"680":0.10633650444441435,"681":0.1547324553869656,"682":0.061802461587898594,"683":-0.03927249152969803,"684":-0.11430263477854313,"685":-0.0696879472558865,"686":-0.130664051517414,"687":-0.11925535822172026,"688":-0.12041932451272612,"689":-0.02198670327250968,"690":-0.035956248293776576,"691":-0.05082854850300211,"692":0.013431120276396981,"693":0.04380890217931427,"694":0.030308368148798785,"695":0.04983223793947512,"696":-0.010847269691315706,"697":-0.014494991919279294,"698":-0.020441239140032107,"699":-0.04843700560145697,"700":-0.0022188004375017947,"701":-0.06328531728748309,"702":-0.03357167882421317,"703":-0.038657638439735756,"704":0.07855969989738396,"705":0.03559635914570752,"706":0.09606996098051135,"707":0.14873073612378288,"708":0.11924722403697652,"709":0.20681602126797666,"710":0.10173663279751294,"711":0.14550445086455185,"712":0.11630049281931472,"713":0.1538392173633101,"714":0.08871229731700844,"715":0.03709593681334485,"716":0.06516491264764858,"717":-0.022737040403505777,"718":0.00692227765326238,"719":0.014410488970176062,"720":0.05271716047271234,"721":0.030359583845516017,"722":-0.011938446907574934,"723":-0.044107506270495325,"724":0.008833277353633148,"725":-0.026150475507204517,"726":-0.011766123067251614,"727":0.005311449970250624,"728":0.01702212927258289,"729":-0.06641064647501,"730":-0.04803497300618471,"731":-0.00782138090733216,"732":0.03768944725816052,"733":-0.054709405565924775,"734":-0.028232562684353656,"735":0.041276190647393934,"736":0.007279095161034678,"737":0.002460849635871884,"738":0.016567267526731447,"739":0.028215682713434647,"740":0.01717240665668642,"741":-0.04196036507371572,"742":0.06934363187501796,"743":0.0830282966163325,"744":-0.01426813135353816,"745":-0.06696803114531531,"746":-0.006582546677275221,"747":-0.01675163227922033,"748":0.003480347937378431,"749":0.024748343495116225,"750":0.0300454079882548,"751":-0.021565539625366528,"752":0.027268960587461206,"753":0.037803301031129964,"754":0.00040251594790366245,"755":0.023502293103689405,"756":-0.0072688268748740195,"757":-0.011762433126185978,"758":0.0031050571827812854,"759":-0.008085246411985662,"760":0.09622573104198347,"761":-0.028277723977103566,"762":0.019280609250722423,"763":-0.051091043897908105,"764":-0.02397426688165597,"765":-0.005909672979397109,"766":0.10118694653955476,"767":0.028728960701245452,"768":-0.04749761109299255,"769":0.028791065224247046,"770":-0.023053135536270475,"771":0.03095709557507859,"772":0.006866181724442122,"773":-0.021815830923752225,"774":0.04116019088128819,"775":0.008930876557046483,"776":-0.04107109840121372,"777":0.041659708929414174,"778":0.013375216226782952,"779":0.013002615652923558,"780":0.02599731051018167,"781":-0.005132423702712182,"782":-0.03725885978662159,"783":0.012410121009656404}},{"sx":1,"sy":1,"depth":784,"w":{"0":-0.05744557167059282,"1":-0.036059084064441145,"2":-0.02678185083775886,"3":0.01937111556096391,"4":-0.01801673102269548,"5":-0.06532842246126473,"6":0.013091761204906516,"7":0.0015610486743640709,"8":0.015193403763021102,"9":-0.0803233726760992,"10":-0.04311182002328654,"11":-0.02292535043602318,"12":-0.11824913767577358,"13":-0.05506453915851206,"14":-0.020127379776170344,"15":-0.0007750949408232508,"16":-0.051126886431696654,"17":0.041638556477555815,"18":-0.03663632740273364,"19":-0.0030955354210071336,"20":0.009610274281082945,"21":-0.013394759818590065,"22":0.01402207972864793,"23":-0.02117426509106144,"24":-0.06319872224376796,"25":-0.07656138151286632,"26":0.025045519283697578,"27":-0.04935834344416801,"28":-0.03882967582699448,"29":-0.012861012356801317,"30":-0.05770991739889572,"31":-0.052316816934744645,"32":-0.0381528912903558,"33":-0.05240666246227613,"34":0.040472080441671894,"35":-0.01563173800785483,"36":-0.01615799448805134,"37":-0.040961410299384125,"38":-0.006004093213648138,"39":-0.028315066290085147,"40":-0.08821148346777236,"41":0.029135967298670514,"42":-0.014716485718746317,"43":0.008524436716377258,"44":-0.01921349098046357,"45":0.0002217802826854695,"46":0.0005113311765774504,"47":0.012581647748247635,"48":-0.05472153012038817,"49":-0.07151841494140712,"50":0.005857824294943971,"51":-0.026317965389385554,"52":0.015789655379720546,"53":-0.06371874767145866,"54":-0.06213570971432426,"55":-0.06779701248625283,"56":0.044665926389875855,"57":-0.031243218119082032,"58":-0.05887233017319459,"59":-0.04197752366719736,"60":-0.02369257371641693,"61":-0.023890304319153382,"62":-0.01726280207523779,"63":-0.07111344776804887,"64":-0.0676075812163315,"65":-0.04493886640872401,"66":-0.03532500405630081,"67":-0.04892131152677597,"68":0.0015983900115023142,"69":0.02324347785658137,"70":0.023813813602988884,"71":-0.0011653703147184353,"72":0.03208923754182064,"73":0.02651721842047819,"74":0.03491451762351769,"75":-0.03003811977136165,"76":0.028429540657957754,"77":0.012866397445125629,"78":-0.024443549324733305,"79":-0.01977541309770022,"80":-0.032385220742320725,"81":0.015728047402249656,"82":-0.0009572561368602899,"83":0.009206789245013983,"84":-0.012889791457337929,"85":-0.06992391719354862,"86":-0.04863212427429466,"87":-0.00505524493741032,"88":0.01806002616013823,"89":0.0114434537025198,"90":0.009660577490463597,"91":-0.015399981930150472,"92":0.061613378315421546,"93":0.08372789789151124,"94":0.15454956047887597,"95":0.17142233513961053,"96":0.20593488422773149,"97":0.24237934572972056,"98":0.2449961221946545,"99":0.2496345944317257,"100":0.3025896062633432,"101":0.26755466330300737,"102":0.19093906404906213,"103":0.1573763890836157,"104":0.1249157709754692,"105":0.09439402709698114,"106":0.006747741855876929,"107":0.036230020823482895,"108":-0.03970116819818172,"109":-0.022561139597293167,"110":-0.004033649345502066,"111":-0.03539561492984629,"112":-0.04933446965490349,"113":0.043923873682212594,"114":0.018816932661657394,"115":-0.056611819559711854,"116":0.023615864832252486,"117":-0.034288815324103314,"118":0.09954979802553156,"119":0.13682070382203648,"120":0.18208972927357656,"121":0.3625425251799642,"122":0.408890382521435,"123":0.3548872583976101,"124":0.3092406322275489,"125":0.2770105196943841,"126":0.17584387961207376,"127":0.07689565179373992,"128":0.046879111997139636,"129":0.06434692609890344,"130":0.08564088638691045,"131":0.009943516351220687,"132":-0.08982859635219796,"133":-0.09625298855830088,"134":-0.14813170327542372,"135":-0.0989674889124582,"136":-0.016970137900346856,"137":0.01805215384174618,"138":-0.020321902336604743,"139":-0.01655457673225704,"140":-0.02751531671962173,"141":-0.041223245772256424,"142":-0.01600223984591312,"143":-0.03829727635262735,"144":-0.023256839094776164,"145":0.06935671289131583,"146":0.20165191151756245,"147":0.2437929073202822,"148":0.40485416533681584,"149":0.3954535903620059,"150":0.3371373925714715,"151":0.26191129349315856,"152":0.13580447038043963,"153":-0.0441510556643371,"154":-0.139635719157988,"155":-0.03686551234251773,"156":0.042737764046032176,"157":-0.12642401851583634,"158":-0.11196252577506563,"159":-0.20038652489508876,"160":-0.23100390066801885,"161":-0.25766821491682346,"162":-0.16098912647391753,"163":-0.05900495490016667,"164":-0.09622934350895387,"165":-0.007314660243313363,"166":-0.009157020303131053,"167":-0.023600014918797502,"168":-0.004876979817982913,"169":-0.008993072715743127,"170":-0.011026063878711705,"171":0.021516774100952547,"172":0.13959228430069978,"173":0.153385280698628,"174":0.2425876333003794,"175":0.2909050689665853,"176":0.3003867625822547,"177":0.26930207550088847,"178":0.18150506816063194,"179":0.0283019759431111,"180":0.12808901747641233,"181":0.051467289234176976,"182":-0.042035030659285634,"183":-0.07480151355516804,"184":-0.07296832070531581,"185":-0.33827450956314714,"186":-0.19409061840075176,"187":-0.2201540365261741,"188":-0.1411217463480696,"189":-0.22141438487966664,"190":-0.19254948257890608,"191":-0.23164171217296006,"192":-0.1945293449814549,"193":-0.08017445892229313,"194":-0.1096545756597871,"195":0.02478607805572232,"196":-0.014469637435783361,"197":-0.1293006953599876,"198":-0.04294953742835882,"199":0.020164416068976742,"200":0.12013772563746239,"201":0.185653466034327,"202":0.30731871495006025,"203":0.24324686257620914,"204":0.08765713180863267,"205":0.05850438005228543,"206":-0.021869171465660375,"207":0.045511231786838725,"208":0.0716598046013445,"209":-0.019298163231627176,"210":-0.11636472399367646,"211":-0.13110687313279504,"212":-0.2846760127425632,"213":-0.40805278652804766,"214":-0.3296044942922091,"215":-0.20534921999277683,"216":-0.09643427711371609,"217":-0.08150225876070234,"218":-0.1673420390401516,"219":-0.3240062347690864,"220":-0.3339887472922806,"221":-0.2040737015495245,"222":0.02107739733037147,"223":0.011613131658923215,"224":0.07003778030568444,"225":-0.02995266871851975,"226":0.00533631088201624,"227":0.007973142677858515,"228":0.14247173335250132,"229":0.26359903518538097,"230":0.2800125073443718,"231":0.17100259975494658,"232":0.007384349981789118,"233":0.0222171705544303,"234":0.0005021890316688815,"235":-0.04676132678354643,"236":-0.09445771682962287,"237":-0.11095647497408957,"238":0.04830550388690514,"239":0.12125158081088994,"240":-0.20003398612783307,"241":-0.1702907235010745,"242":-0.25070470373507964,"243":-0.16476201948775585,"244":-0.03733811798279885,"245":-0.07388916806540226,"246":-0.2167484151462601,"247":-0.5079388068327932,"248":-0.5103834336348717,"249":-0.3197822946051914,"250":-0.030582094201243512,"251":-0.03584101978334812,"252":-0.006095673397014876,"253":-0.03795074780688204,"254":-0.03525538428482074,"255":0.029053993836618837,"256":0.21907622173507138,"257":0.16004047660413268,"258":0.13638544076779685,"259":0.06634353535199326,"260":-0.10100949038834517,"261":-0.24468921595335108,"262":-0.2398001516962201,"263":-0.28346468869865277,"264":-0.20189559807874718,"265":-0.04877626939232809,"266":0.1295909672520136,"267":0.27619845481834193,"268":0.16934654086839535,"269":0.02168496573147235,"270":-0.04597232094171838,"271":-0.14478118287414843,"272":-0.029571776767951845,"273":-0.15259734748643136,"274":-0.26822990258559837,"275":-0.5539090486336972,"276":-0.6143010659965776,"277":-0.32639855590373656,"278":-0.09601231262343429,"279":-0.061115869417953335,"280":-0.05058451603653516,"281":-0.06297078742549099,"282":-0.034796321450537515,"283":0.07027505924984823,"284":0.07531182968451645,"285":0.0740324443660545,"286":-0.014220021577084801,"287":-0.17556706535742217,"288":-0.4029678443038712,"289":-0.4769162569226237,"290":-0.5031173737995572,"291":-0.508684396398718,"292":-0.3498170928581862,"293":-0.2673974435149389,"294":-0.20107209730093595,"295":0.06079402248952136,"296":0.4006444016200909,"297":0.38094629595753576,"298":0.08902350114475774,"299":-0.11247499972304466,"300":-0.028331595172064163,"301":-0.1336468847948823,"302":-0.32059135603556743,"303":-0.509443441821111,"304":-0.45682003764549345,"305":-0.26680472436411257,"306":-0.10159210321481056,"307":-0.021532547737124413,"308":-0.059002593568926245,"309":-0.0019914980826075093,"310":0.01624724016458611,"311":0.005096237828241491,"312":0.09936647065686807,"313":-0.045146793920599476,"314":-0.24969675958668333,"315":-0.42963836170524866,"316":-0.5514634993864901,"317":-0.39513546730336857,"318":-0.2905640013344544,"319":-0.3543998143988537,"320":-0.4874113926809625,"321":-0.7127217047287441,"322":-0.4588314729972203,"323":0.048639627147097506,"324":0.5121204469813966,"325":0.4825935584141001,"326":0.18557606730833281,"327":0.07255159137294397,"328":0.20350770385446781,"329":-0.0016690735589190353,"330":-0.18378112063369778,"331":-0.40578753295532105,"332":-0.23620213031454015,"333":-0.18656293660855416,"334":-0.0640682824623525,"335":-0.01836263369667261,"336":-0.013108691346151639,"337":-0.007417288661795955,"338":-0.0642918525081242,"339":0.04377291842710382,"340":-0.01617007252090684,"341":-0.20548640017569425,"342":-0.35425332473986615,"343":-0.4751890346327321,"344":-0.3794704523279183,"345":-0.10757352473931671,"346":-0.13555694130454488,"347":-0.2483599348902229,"348":-0.49836910866521583,"349":-0.5457879856017596,"350":-0.3913422876826641,"351":0.21024970241609123,"352":0.5956347938048809,"353":0.38043149980675456,"354":0.2648189098238932,"355":0.18840039448371743,"356":0.18187313373129635,"357":0.055290770252726516,"358":-0.047096200131953835,"359":-0.17370396341115035,"360":-0.06706460388002815,"361":-0.015975341398791906,"362":0.006470647781575644,"363":-0.025530647354836265,"364":-0.0126932404003655,"365":-0.029999375049136773,"366":-0.020663257902408954,"367":0.01202240257851366,"368":-0.019915492874818693,"369":-0.14926848569917783,"370":-0.1715822035692991,"371":-0.16011172027430143,"372":-0.14009080184981895,"373":-0.02217296867813676,"374":-0.18872337608520495,"375":-0.19205167659264635,"376":-0.21692362700461443,"377":-0.08644430288796856,"378":-0.03672749294250473,"379":0.2645813239779416,"380":0.6704823214914342,"381":0.6774420663836849,"382":0.34049202619676555,"383":0.24746134688725815,"384":0.24346055652174145,"385":0.08631028998213683,"386":-0.07209777156144591,"387":-0.1257231803589286,"388":-0.04828458971919921,"389":-0.09473676898234569,"390":0.0260520612987119,"391":0.01657899573411918,"392":-0.03466098867293453,"393":-0.029710376021822766,"394":0.019440965105499197,"395":-0.05963716287540713,"396":0.027129036355490625,"397":-0.06554768464085918,"398":-0.10614310162339348,"399":0.03054942705271771,"400":0.004742426800205688,"401":-0.10614926109276333,"402":-0.31169628472286437,"403":-0.04531616132324349,"404":0.061786028920650875,"405":-0.013665439873980327,"406":-0.0231213424187345,"407":0.21579827771608345,"408":0.6171691352535512,"409":0.7326870631905857,"410":0.5606248208155652,"411":0.5130913964525116,"412":0.18941880606865805,"413":0.13066699755168576,"414":0.011492238642145158,"415":-0.06905774536479747,"416":-0.05337345808291104,"417":-0.012101304410817372,"418":0.03983876025745271,"419":-0.004609763003683893,"420":-0.10433902117203969,"421":-0.029487628939051783,"422":0.010292560387603837,"423":-0.0004027628255753584,"424":0.10225579992544559,"425":-0.03208441451614326,"426":0.010094325823697979,"427":0.09472155775878549,"428":-0.028489023575852753,"429":-0.15480907874740352,"430":-0.22943253443505346,"431":0.04682678826410359,"432":0.055958381610132134,"433":0.051948651681919755,"434":0.12411844234684553,"435":0.4878572352700802,"436":0.6511309421112119,"437":0.500402754535493,"438":0.36527098285042864,"439":0.3058649495087894,"440":0.2166599731345791,"441":0.2495963439512914,"442":0.11834650879289617,"443":0.03551666891945399,"444":-0.07266756120815275,"445":0.1079666114059499,"446":-0.022176154045128748,"447":0.026949412945245773,"448":-0.02494051539939875,"449":0.023324972912426672,"450":0.014300082893153206,"451":0.049054374682444606,"452":0.07285614047745174,"453":-0.048747597807442866,"454":0.052791404624651775,"455":0.10455706496375243,"456":-0.009973891417637975,"457":-0.05846540352625387,"458":0.0000026007353078538937,"459":0.15691602484760958,"460":0.1703073338944901,"461":0.18235711397390145,"462":0.29303640555436045,"463":0.5200798064139942,"464":0.6523290519293841,"465":0.5496795161998906,"466":0.3998154571200594,"467":0.16276767210350263,"468":0.18478028188660237,"469":0.21007743921887104,"470":0.10359781266617499,"471":0.013077696006682887,"472":0.10105797223037218,"473":0.16214755838141146,"474":-0.016583011387571758,"475":-0.022727583322263965,"476":-0.027061786712267458,"477":-0.04408822947184795,"478":-0.0484353531575385,"479":0.09026162072348412,"480":0.10846269445175649,"481":-0.09758976896932439,"482":-0.1509427318191193,"483":-0.05800398914030421,"484":-0.0969576783702681,"485":-0.16160261616336555,"486":-0.05777239039330644,"487":0.1370975317430103,"488":0.39681027016252185,"489":0.3382050320201811,"490":0.36301183201352877,"491":0.6078196693052914,"492":0.25661286666318134,"493":0.21041699033442285,"494":0.2607464614175895,"495":0.20860291149631033,"496":0.1305895022063702,"497":0.15282865720652503,"498":0.057686501892510976,"499":0.12205704445703812,"500":0.1246449494304959,"501":0.10898648463767947,"502":0.00890365605193686,"503":0.006842488618180955,"504":-0.08654583135358865,"505":-0.08929475778903587,"506":-0.02587491714659349,"507":0.08975348191725163,"508":0.15191931880349263,"509":0.027570735335562112,"510":-0.15708118686935674,"511":-0.2848264763942728,"512":-0.3479861270959152,"513":-0.3467878916988827,"514":-0.2092473480423163,"515":0.11769009941753918,"516":0.28784614270709413,"517":0.3928555243682673,"518":0.2939529361160182,"519":0.30185179118400335,"520":0.2520071502774659,"521":0.27273475613990816,"522":0.249413608231986,"523":0.24345330423487088,"524":0.17519776137223592,"525":0.12107603085377272,"526":0.07680341336628459,"527":0.16998494558448846,"528":0.22835175456716472,"529":0.10146109578412828,"530":0.025470313426345752,"531":-0.01635772300276995,"532":0.004931839856416315,"533":-0.015084272403150169,"534":-0.013818806041890876,"535":0.1695365390494391,"536":0.24954751488513446,"537":0.05486234495779515,"538":-0.22819497221813792,"539":-0.22281309219418866,"540":-0.3041123613643527,"541":-0.4628471602473143,"542":-0.4324706114577097,"543":-0.22019596720963863,"544":0.036124476967022374,"545":0.12624446005516546,"546":0.16942509599228975,"547":0.24083222603347848,"548":0.40033229455410213,"549":0.20107491689439785,"550":0.3074474716167291,"551":0.2844579669270257,"552":0.17398250648342642,"553":0.18228947777622256,"554":0.07949313938380412,"555":0.12973532637252205,"556":0.1937594408961326,"557":0.07016942753632043,"558":-0.008901079407044613,"559":-0.06691698961575318,"560":0.06634193670723852,"561":-0.030149087814624945,"562":-0.07793817470409178,"563":0.17722631740060973,"564":0.2784652368116851,"565":0.17302245895627197,"566":-0.06473227286505541,"567":-0.1684972377618552,"568":-0.24709996576822973,"569":-0.37767798396827257,"570":-0.34141405837822425,"571":-0.19726605589900406,"572":0.09179075547814643,"573":0.138786705760921,"574":0.29180123456395446,"575":0.2711390284434443,"576":0.3393111387436731,"577":0.22055940527653983,"578":0.24346960622728295,"579":0.3058395278690177,"580":0.19600191841285627,"581":0.05353589208717958,"582":-0.008449976525767455,"583":0.07456754745861272,"584":0.10130136706538938,"585":-0.02033542022013367,"586":0.00328453241436445,"587":0.003536201923249583,"588":-0.0300738534848399,"589":-0.014836535453135982,"590":-0.03240792306241783,"591":0.030219597823119854,"592":0.22224370031186802,"593":0.17381601522888693,"594":-0.014354770991421387,"595":-0.08798817292301325,"596":-0.1302724129345612,"597":-0.09959108761300028,"598":-0.310295673696202,"599":-0.14936470887452602,"600":0.09726756532403655,"601":0.10011426944693434,"602":0.06976203137947214,"603":0.1663935322464513,"604":0.2748628855115021,"605":0.25785800660371067,"606":0.225145150987601,"607":0.24914634605232064,"608":0.16563466810913527,"609":0.061468099561476364,"610":-0.08748891442247617,"611":0.027160998326000958,"612":0.04292640261071905,"613":-0.00496027678953369,"614":-0.08330966349070909,"615":0.004276621310073246,"616":-0.036247469014400326,"617":-0.07758993460297459,"618":0.015942291490850042,"619":0.03235116048350002,"620":0.1452868462035297,"621":0.17360283382379385,"622":0.15019611293111929,"623":0.06746721535820904,"624":-0.020230107332708608,"625":-0.01754983975781977,"626":-0.16670206574750507,"627":-0.3081737465374446,"628":-0.3404714968399471,"629":-0.3953457757554992,"630":-0.27959539283721135,"631":-0.1666451412508899,"632":-0.13831683942549128,"633":-0.09817455500388834,"634":-0.030652138051260283,