{"layers":[{"out_depth":3,"out_sx":32,"out_sy":32,"layer_type":"input"},{"sx":5,"sy":5,"stride":1,"in_depth":3,"out_depth":16,"out_sx":32,"out_sy":32,"layer_type":"conv","l1_decay_mul":0,"l2_decay_mul":1,"pad":2,"filters":[{"sx":5,"sy":5,"depth":3,"w":{"0":0.49360308834139555,"1":-0.28431075243435233,"2":-0.5334171675715423,"3":-0.14560697269524156,"4":-0.45841718040910134,"5":-0.37000260427987886,"6":-0.26602532263887696,"7":-0.251949523231318,"8":-0.23453395468309005,"9":0.19069444811100977,"10":-0.05791358112895347,"11":0.6226625991972373,"12":0.1254633342804754,"13":0.43365872446229736,"14":0.5686990701635574,"15":0.06722013518057049,"16":-0.07695199292038746,"17":0.055454889910970584,"18":-0.3427773027492115,"19":-0.18791476006742552,"20":0.2530053768029987,"21":-0.2739027953510344,"22":0.11173648181028294,"23":0.2896099255635866,"24":-0.37914643010010196,"25":0.23630576013407192,"26":0.3968088664652735,"27":-0.014741281654797501,"28":-0.05550677394773041,"29":0.3301000097625759,"30":-0.05993401857301659,"31":-0.5167906090997034,"32":0.08345901157632421,"33":0.19255766828951146,"34":-0.013002333703800634,"35":0.4628690574878341,"36":0.13820716663212762,"37":-0.0003699122297873212,"38":0.8337344786211149,"39":-0.40121186422040733,"40":0.13672902137907092,"41":0.4175183991579243,"42":-0.44740238084937045,"43":-0.22912771087002476,"44":0.062031041553623316,"45":0.19921976741321135,"46":-0.3197453592101078,"47":0.05573099182959465,"48":0.28194455089662895,"49":-0.2945237779193095,"50":0.23058862084707282,"51":0.40342179997487937,"52":0.05305954697020152,"53":0.8249805348283968,"54":0.3378835029675379,"55":0.12702681574897273,"56":0.3034281291612887,"57":-0.023490022763265086,"58":-0.13771536630387,"59":-0.15919756724197087,"60":0.18835163281236725,"61":-0.25532977508674304,"62":0.1627152497959451,"63":-0.18168251971469768,"64":-0.47068642008761524,"65":-0.08580416258407278,"66":-0.12287875121591015,"67":-0.16248717173783445,"68":0.06203600180561387,"69":0.17004325354785793,"70":0.029257539128783584,"71":-0.06429810763143265,"72":0.062066336746621896,"73":-0.16672304041516703,"74":-0.07229511696284872}},{"sx":5,"sy":5,"depth":3,"w":{"0":0.023544790961172166,"1":0.043499215076160634,"2":-0.1707427917801262,"3":-0.20647582621735386,"4":0.24829564410420152,"5":-0.017479215719174768,"6":-0.37353117314706696,"7":-0.22603036067111526,"8":0.28564944727307784,"9":0.06266306436366573,"10":0.007938464155440939,"11":0.040680820095770794,"12":0.502327735042592,"13":0.009959752332615845,"14":-0.25556825693082946,"15":-0.40910941366997144,"16":0.2991644372267563,"17":-0.24384820269952615,"18":-0.5485389829316404,"19":0.1851446826182399,"20":0.4444331832466134,"21":-0.1413012693545282,"22":0.18763393206043177,"23":0.6571055340378357,"24":0.3465935227747717,"25":0.17508312915027008,"26":0.071054346818628,"27":0.4595971625312588,"28":-0.3654439784299737,"29":-0.9632593878685457,"30":-0.5429357797086164,"31":0.33521876661042177,"32":0.26908780724149906,"33":-0.45698918762495344,"34":0.45855253228979737,"35":0.7671398363764061,"36":0.14397895602156444,"37":0.10692967197010708,"38":0.5818947770721032,"39":0.25837478518280244,"40":-0.5830896357771446,"41":-0.6423709013002201,"42":0.6066960530591723,"43":-0.2715417154058892,"44":-1.0544797356284001,"45":-0.5912530022453594,"46":0.4133043718930599,"47":0.6817035195798737,"48":-0.16396748347524093,"49":0.30706518788048515,"50":0.7730674867670758,"51":-0.15046918019893613,"52":-0.3032420188417787,"53":-0.08294002169819403,"54":0.13520942006021797,"55":-0.48313865291861113,"56":-0.6498368572996833,"57":0.8621660467514143,"58":-0.16231777589344773,"59":-0.6526340985874445,"60":-0.4954315525570192,"61":0.5087608934247347,"62":0.6103548738424388,"63":-0.4313425951028863,"64":0.1114420097612604,"65":0.28013444290144696,"66":0.10126536860539939,"67":-0.5165859556442797,"68":-0.21388348478372088,"69":0.3980859373404447,"70":0.04287484328991045,"71":-0.26791927385129105,"72":0.4094031595643764,"73":-0.13267548958741493,"74":-0.3093378945940682}},{"sx":5,"sy":5,"depth":3,"w":{"0":-0.037315525106967756,"1":-0.0391449844140648,"2":0.22255796514237064,"3":0.2375913042272446,"4":-0.18367953844189677,"5":0.032491738168524596,"6":-0.0722060696133589,"7":-0.13679363988886895,"8":0.3339858648852322,"9":-0.3121422442526226,"10":-0.0037974122008163098,"11":0.5254492676085611,"12":-0.5692951977473472,"13":0.2762781022677506,"14":0.6202730777548733,"15":0.7656569751534742,"16":-0.6555697663382994,"17":-0.5309607017599632,"18":1.1214103763488328,"19":-0.8185668287120166,"20":-0.7548759531181785,"21":0.9558516302306643,"22":-0.7303714405928876,"23":-0.74030656522129,"24":0.4799396931034304,"25":-0.41069917449769894,"26":-0.3357499842309855,"27":0.13195535638036954,"28":-0.29584832456530263,"29":-0.1863515644465705,"30":0.5210549644310845,"31":-0.4247230511494893,"32":-0.19818990021049857,"33":0.8302976994853022,"34":-0.7492825886310013,"35":-0.3348558311726821,"36":0.9159214244483852,"37":-0.7902368293293917,"38":-0.457966531728811,"39":0.5878583349550482,"40":-0.3890093756766638,"41":-0.27044485576624067,"42":0.15081591311190018,"43":-0.30305264404762006,"44":0.10132029629018986,"45":-0.12635475887838724,"46":-0.25687083379488934,"47":0.061502097757124445,"48":0.04975120059558596,"49":-0.258448005238687,"50":0.15208873195509795,"51":-0.00018873544165922865,"52":-0.16423717014683642,"53":0.19061968825953843,"54":0.03770607040411487,"55":-0.21817818797536778,"56":0.2572323549808415,"57":-0.3175987575296169,"58":0.022795862927606044,"59":0.20820217988875397,"60":-0.592052092026695,"61":0.27380102952894825,"62":0.42681113474795257,"63":-0.6422635628117992,"64":0.43893826262225905,"65":0.6120069646597109,"66":-0.6980352271764455,"67":0.30030361913785186,"68":0.6477774763713399,"69":-0.6018459700089384,"70":0.2266207339913626,"71":0.4962712403942485,"72":-0.577017863194851,"73":0.01974118377984833,"74":0.45153264150957023}},{"sx":5,"sy":5,"depth":3,"w":{"0":0.7026296881002551,"1":-0.25766744638632255,"2":0.04912747636035409,"3":-0.24815472386777737,"4":-0.791352349058462,"5":-0.19726156444518544,"6":-0.27481561645140423,"7":0.0327353146823663,"8":-0.07485933047529947,"9":0.11539780812015978,"10":0.35598605989261695,"11":0.1227231203480301,"12":-0.15920069564467734,"13":0.3540512092531808,"14":0.09732033853427934,"15":-0.0647564846499686,"16":-1.0814815571430323,"17":-1.0322548014570565,"18":0.2824532939535689,"19":-0.4726215490362108,"20":-0.0812638116571772,"21":0.5494610632788626,"22":1.15310233617236,"23":1.1595582153857853,"24":-0.35417186318332666,"25":0.0930010926459861,"26":-0.10900435471158715,"27":-0.24370339127929783,"28":0.23810557544953861,"29":-0.24300343425953566,"30":-0.21126641792554143,"31":-1.3566195641756176,"32":-0.9339659876843696,"33":0.6856592212323276,"34":0.15209724043135842,"35":0.4071174567833942,"36":0.43740134976710626,"37":0.7666267551764507,"38":0.731668373959944,"39":-0.33698391246061693,"40":-0.16902584664795392,"41":-0.09593779522825856,"42":-0.14034670382219677,"43":0.23050283295863497,"44":-0.3587268403015484,"45":0.24316381041890064,"46":-0.3928458004856259,"47":-0.19737094040889308,"48":0.27344446477044676,"49":-0.1413548164795624,"50":0.18506594129198892,"51":-0.19958739772222084,"52":-0.013128292648737988,"53":0.1701557386263291,"54":-0.012925543761021806,"55":0.33612789357572154,"56":0.26296074691847143,"57":-0.3759765705496204,"58":0.20535690070980375,"59":-0.2873055248175049,"60":0.2487649306929859,"61":0.03128211570715874,"62":-0.05934791118117236,"63":-0.2468269283528126,"64":-0.07236181342001673,"65":0.1677209086273196,"66":-0.5578575225928584,"67":0.259078596697501,"68":0.21157310632058218,"69":-0.08208075637461708,"70":0.5107841766938198,"71":0.006996040006650954,"72":-0.17808526185716794,"73":0.21388111262029824,"74":-0.08008199008401114}},{"sx":5,"sy":5,"depth":3,"w":{"0":-0.4342614060543205,"1":0.3187250023453759,"2":-0.1461377300092895,"3":-0.3455445336256805,"4":0.9286868547131005,"5":-0.619590266205415,"6":-0.7836395888378492,"7":0.6921370292279273,"8":-1.259740758128469,"9":-0.38933581398145345,"10":0.6668795783061326,"11":-0.46360279180778846,"12":0.23891472028343158,"13":-0.1134341991170939,"14":0.4936699910302578,"15":-0.18852777252224748,"16":0.18822603454886433,"17":0.008611648596042992,"18":-0.05278529700085434,"19":1.2645771987720582,"20":-0.28820622857880457,"21":-0.0024792156233764775,"22":1.574483130357791,"23":-0.3285185063531345,"24":-0.4514036257029617,"25":0.567080375607643,"26":-0.7085151417440471,"27":-0.2695857401702068,"28":-0.07332936975868158,"29":0.044696543087597455,"30":-0.0950300591600129,"31":0.17349904681429051,"32":0.29271175455471526,"33":-0.9911262876075351,"34":0.09511344698095076,"35":-1.3034485696648834,"36":0.12071975290534573,"37":1.1298133884572275,"38":-0.39594901460931514,"39":-0.05992825599556905,"40":0.5686244071229338,"41":-0.43195479087611166,"42":-0.10636547122183226,"43":-0.007938984693034163,"44":0.00035780438675959254,"45":0.2280228842460099,"46":-0.06734001670027245,"47":0.7464661690765781,"48":-0.17537735305224506,"49":-0.11800707004062067,"50":0.06230520697524826,"51":-0.1390537294197373,"52":0.3429033406390481,"53":0.03169456325374065,"54":-0.571974653035155,"55":0.07192974805985988,"56":-0.3158799682713315,"57":0.2120255917945233,"58":-0.1295490019942087,"59":0.1966182284107024,"60":0.2851405856899653,"61":-0.8429620802086192,"62":0.251539116862208,"63":0.30140262205700186,"64":-0.19542256634642488,"65":0.34134878842414723,"66":-0.18117441424765274,"67":-0.39498647205393456,"68":0.27953925264438045,"69":0.06286679472554778,"70":-0.06297011393434916,"71":0.010411646966806725,"72":0.2168706294337796,"73":-0.2461071750701972,"74":0.41018477440762163}},{"sx":5,"sy":5,"depth":3,"w":{"0":-0.18310245472626663,"1":0.2321934484529863,"2":0.011641020385940922,"3":0.20231852438874345,"4":-0.3457472151226811,"5":0.1975088277321801,"6":0.11132042978048984,"7":-0.45522693093750777,"8":0.12087701325361129,"9":0.3525747766425615,"10":-0.021175341699666384,"11":0.048057882794911196,"12":-0.19565499828354627,"13":0.10078945115032688,"14":0.011786187372361711,"15":-0.18184124383517444,"16":0.12953216647653604,"17":-0.20580360105486326,"18":0.2194766051696059,"19":-0.20617697597935594,"20":0.4358003277201866,"21":-0.42658849133547755,"22":-0.7327362392847349,"23":-0.2415417151002029,"24":0.5651736033046394,"25":0.3156073110608021,"26":0.34335780997522375,"27":-0.45165940961466905,"28":-0.17384075679677308,"29":-0.40997898341519307,"30":-0.226400033666459,"31":0.493848205152486,"32":0.04359347938709102,"33":0.23298956232840268,"34":0.2583100220588333,"35":0.3379722795457494,"36":-0.7708381512993618,"37":-1.3947242742647905,"38":-0.685195104703148,"39":1.2425558213245231,"40":1.1436433308910312,"41":1.1420294245467326,"42":-0.47213233024372636,"43":-0.03194902891057824,"44":-0.6239207834247975,"45":0.2183181268809806,"46":0.394293530473125,"47":-0.1309969579435194,"48":0.035342363903022596,"49":0.039260255793879845,"50":0.4604069307391445,"51":-0.9064797268917941,"52":-1.4495965133581894,"53":-0.9047116292212404,"54":1.5945038794750317,"55":1.6110636629548618,"56":1.0165328273210827,"57":-0.8595017452024147,"58":-0.3652375902616175,"59":-0.9105266370327402,"60":-0.29721362474503915,"61":0.3462115310587391,"62":0.2179010019490788,"63":0.12295938643757477,"64":-0.09706524516809818,"65":0.10226280604322396,"66":-0.5281978274633861,"67":-1.0123779482880784,"68":-0.5114930689499924,"69":0.9821369911992501,"70":0.9706405776090522,"71":0.7800476912348526,"72":-0.2729574316988677,"73":-0.23160974455939082,"74":-0.545455953277658}},{"sx":5,"sy":5,"depth":3,"w":{"0":0.4112188134817879,"1":0.3868194139840736,"2":-0.16278174844120935,"3":0.3909246598654191,"4":0.30260531851133843,"5":0.1328170532510374,"6":0.6427172564191489,"7":0.6004048692812369,"8":0.387748404833385,"9":0.2694881665957225,"10":-0.12919992384857157,"11":0.033410097919556694,"12":0.4368189365777097,"13":-0.022906051374197014,"14":-0.23026410526707272,"15":0.22467714438807354,"16":-0.14852584670337837,"17":-0.15941055042150207,"18":-0.15786650208198233,"19":-0.06151444831095729,"20":0.039191965417266814,"21":-0.21627710777913747,"22":0.016482451365015874,"23":0.31425011258704305,"24":-0.3190958258020215,"25":-0.03629836028536201,"26":0.3324007422955265,"27":0.19924543251210589,"28":0.37046381329593436,"29":0.2773664891711247,"30":-0.2057015583371364,"31":-0.5096785045803215,"32":-0.4688667629221558,"33":-0.4836227066852926,"34":-0.2939982488834062,"35":-0.38818489394775363,"36":-0.2843024710314317,"37":0.10406111722345021,"38":0.246539818759221,"39":-1.011168627398569,"40":-0.5483766285285696,"41":-0.02875015296772192,"42":-0.7267991887131106,"43":-0.295424409831854,"44":0.028535218400792064,"45":0.26493205178428647,"46":0.019488773737450234,"47":-0.17204190528222965,"48":-0.12498272133830012,"49":0.014654452881644117,"50":0.016955936365128307,"51":-0.061889216668981936,"52":0.38021534355641906,"53":0.5189801421968009,"54":-0.28523805991423823,"55":0.20991621218863732,"56":0.3383455794461161,"57":-0.08948865748124342,"58":-0.11857509676681775,"59":0.014020743261586142,"60":0.08489677403904171,"61":0.03758077779596051,"62":-0.061463804586924554,"63":-0.042731652119615667,"64":-0.2950378585737989,"65":-0.2560552920342809,"66":0.07137570400402066,"67":0.12506133121519417,"68":0.24281237814753756,"69":-0.20008988003800313,"70":-0.05732372657948984,"71":0.1189750376936994,"72":-0.29490697294221563,"73":0.13548526716525766,"74":0.11256660156775462}},{"sx":5,"sy":5,"depth":3,"w":{"0":0.06271029151654102,"1":0.010477401027302987,"2":0.04734311821578969,"3":0.006754595828321335,"4":0.017939972584551253,"5":-0.07967187255257788,"6":0.7338439718949659,"7":0.47474739693350826,"8":0.36393549576704587,"9":-0.33219186169278364,"10":-0.007040376949049198,"11":-0.5031587634417111,"12":-0.7005441245863311,"13":0.47340655131223336,"14":0.09321265791361451,"15":-0.23978065380539984,"16":-0.3983490681643259,"17":-0.2834242851072395,"18":-0.5008175694825476,"19":-0.9606398934862201,"20":-0.27448100799654,"21":0.06694512221796249,"22":-0.11603105404724859,"23":0.1951795339120666,"24":1.4623830530394009,"25":1.469625288883869,"26":1.3680478102028062,"27":-0.6171097059914,"28":-0.4723459747306516,"29":-0.7714650020878417,"30":0.5454107807341999,"31":0.3474930023214135,"32":0.2142330205509985,"33":0.11793547681725451,"34":-0.026113813457285355,"35":0.18039715709724816,"36":-1.957070649745529,"37":-2.1688478540144214,"38":-1.4530591309818712,"39":0.3492677806755929,"40":0.07788176135113185,"41":0.3471099402770323,"42":0.8766877849687712,"43":0.7779231836121638,"44":0.636946429753285,"45":-0.04894595390781053,"46":-0.04585361753142983,"47":-0.430551384061915,"48":1.075966979491213,"49":1.0074218218569042,"50":0.8149767031609324,"51":0.16294966431500588,"52":0.1420805649841623,"53":0.20661312414752142,"54":-1.2128050797758787,"55":-1.2968743829273484,"56":-0.8858146171951224,"57":0.21646031026544532,"58":-0.05769800758697053,"59":0.28944526706384505,"60":-0.23554806933005018,"61":0.17752976222943428,"62":0.11437583752009801,"63":-0.14474454154919014,"64":-0.2837260073517802,"65":-0.5796532492986863,"66":0.735797615267198,"67":0.7106937270846897,"68":0.45882992571727876,"69":-0.12242059984684431,"70":-0.43608975700712244,"71":-0.06916131816472629,"72":0.1347963820442502,"73":-0.29469600735573886,"74":-0.03036733883403912}},{"sx":5,"sy":5,"depth":3,"w":{"0":-0.1483776012437027,"1":-0.04643021129150132,"2":-0.44636720183124023,"3":-0.4408943666747303,"4":-0.21202568970125713,"5":-0.48778395207949055,"6":-0.07706982007653027,"7":-0.026980574356887523,"8":-0.10984781014428377,"9":0.13623422744158037,"10":0.23286758173320904,"11":-0.02356002103436476,"12":0.1568761501791059,"13":0.13635065768773189,"14":-0.046625668402726965,"15":-0.2603639608890539,"16":-0.008890234113235276,"17":-0.3191534345381719,"18":-0.13073096054585265,"19":-0.18390930766535313,"20":-0.5454573437159536,"21":-0.15210190782258612,"22":-0.1866212550701861,"23":-0.19898408783891572,"24":0.2101545279354299,"25":0.10279533647397074,"26":0.2500853384865194,"27":0.20380842050513778,"28":0.20683299542678243,"29":0.1447382577143937,"30":0.08877871819142275,"31":0.08194375582553608,"32":0.1464380828904663,"33":0.324644019593867,"34":0.26075326864602144,"35":0.18719378385885296,"36":-0.003906175481955205,"37":-0.16110143720569872,"38":-0.15948848647784353,"39":-0.15462077361099996,"40":-0.5009373070240793,"41":-0.0018908962597107488,"42":-0.009808513613535358,"43":-0.010744191372372673,"44":0.25035986033256563,"45":0.2948213804583968,"46":0.22168768224116236,"47":0.26670406701922067,"48":0.2219504575592914,"49":0.28342534084414006,"50":0.6027490442635446,"51":0.37017064627281726,"52":0.19247123906469496,"53":0.46704797810320253,"54":-0.31878079645476354,"55":-0.4916099975024941,"56":-0.17399915678322003,"57":-0.4707676745773459,"58":-0.578716427954988,"59":-0.17030277185884052,"60":0.04914441064627308,"61":0.15739377330098114,"62":0.2565728115110661,"63":-0.06607162338516462,"64":-0.023257283286228884,"65":0.32839667674613643,"66":-0.3900519472033851,"67":-0.3082962009902238,"68":0.20114788712174111,"69":-0.4850293981057618,"70":-0.47629111645902245,"71":0.4292119353706301,"72":-0.31051062317029093,"73":-0.2646792019166503,"74":0.5953009538356006}},{"sx":5,"sy":5,"depth":3,"w":{"0":0.0926484627356208,"1":0.35180174532568076,"2":-0.08798090349027524,"3":0.31219620988439717,"4":0.4069867955735541,"5":0.08341588511359264,"6":0.11319828035976942,"7":0.09977014336639725,"8":-0.105220860784514,"9":-0.29028461285655255,"10":-0.42833350266514464,"11":-0.08083203896440021,"12":-0.1472172745265664,"13":-0.15218265882104604,"14":0.05306735779480987,"15":0.05032578323299377,"16":0.01958453560697644,"17":-0.23831220394589508,"18":0.08888231103664063,"19":0.2962330879709449,"20":-0.03704711266008915,"21":0.3555772531020876,"22":0.2481696627834143,"23":0.2412045114194453,"24":0.005204311383787168,"25":-0.15462680889970412,"26":-0.11624097223885554,"27":-0.3116784825682861,"28":-0.455508279401262,"29":0.1774940880413834,"30":0.20217986964339962,"31":0.0873992935863903,"32":-0.4780024717312206,"33":0.13079150311738844,"34":-0.02681027039683459,"35":-0.138324707345794,"36":0.2259726898223922,"37":0.16713191363147112,"38":0.27250233481451275,"39":-0.0664224713047382,"40":-0.1524589340722091,"41":0.33428469723459275,"42":-0.47437297051592525,"43":-0.504867071426836,"44":0.2634411537768832,"45":0.1597459570011053,"46":0.20232606630016,"47":-0.45441593556056364,"48":0.22896629474870875,"49":0.11533430702124485,"50":-0.33588773868294164,"51":0.23830041586170816,"52":0.10474589551450388,"53":-0.08478629987996782,"54":0.014761098099443471,"55":0.11387568183981929,"56":0.5199716702401593,"57":-0.7297373267099426,"58":-0.37236797980630243,"59":0.3245757131544626,"60":0.15278497886391806,"61":0.12067296109851484,"62":-0.47404295769914817,"63":0.1132117979064469,"64":0.05639983745614629,"65":-0.3470218080726011,"66":0.29122293151708833,"67":0.06714819957491709,"68":-0.09838224480633743,"69":-0.0027376022730431875,"70":0.18182985726636705,"71":0.22072088714782043,"72":-0.5927224376753084,"73":-0.13667349487971933,"74":0.552250108136488}},{"sx":5,"sy":5,"depth":3,"w":{"0":-0.06815981319868575,"1":0.07090282732218009,"2":-0.40529690432725507,"3":-0.22556192989199808,"4":0.020348482218228697,"5":-0.34729844788844266,"6":-0.02389428317682527,"7":0.12018469554312894,"8":-0.2771699626644634,"9":0.8117757486192323,"10":-0.06084493167446627,"11":-0.44706890489900825,"12":0.5682880282608328,"13":0.0011370182471681642,"14":-0.6069408476040289,"15":-0.2063213630182346,"16":0.09713911692892249,"17":0.3329999005516211,"18":-0.29930888769424,"19":0.4625758665337981,"20":0.7190346165621747,"21":-0.1296108548797472,"22":-0.13441308365390578,"23":0.2517878814173054,"24":0.27537949279652435,"25":0.13492131957179324,"26":0.18910735636270784,"27":0.30316184961954545,"28":0.06035376086004218,"29":-0.4910043234297969,"30":-0.5801345958755947,"31":0.12462349545137107,"32":0.23032214747706348,"33":-0.6517310274206143,"34":0.10677187036266991,"35":0.35008955683246207,"36":-0.9580170283865265,"37":0.05227022768079588,"38":0.5169513973995792,"39":-0.179664134066373,"40":0.18635702578365673,"41":0.08936938417457739,"42":0.3803414754255988,"43":0.04622117784785434,"44":-0.2879480529116496,"45":-0.48180398373829,"46":0.11467544412063665,"47":-0.03694007245840821,"48":-0.5904671227829535,"49":0.060408831309539446,"50":0.7135936996580263,"51":-0.7185885042453781,"52":0.004562966751475772,"53":0.29875684624096865,"54":-0.27480577453058375,"55":0.027022825700862754,"56":0.2546202449883043,"57":0.1938952656018773,"58":0.21967400183692137,"59":-0.24334853854932414,"60":0.1688099270384471,"61":-0.08627133317724581,"62":0.19179534127903464,"63":-0.48580673082510195,"64":-0.13600312282872182,"65":0.505948818288029,"66":-0.40743310307819836,"67":-0.4104290132049834,"68":0.5808487121541855,"69":-0.14433466240036774,"70":-0.1692766085836427,"71":0.13683808058077473,"72":0.3166732444828242,"73":0.05661720017879911,"74":-0.04398271188285464}},{"sx":5,"sy":5,"depth":3,"w":{"0":-0.27329236835501597,"1":0.028367691271450477,"2":0.3630538509578511,"3":0.08994668470070663,"4":-0.05163423361006135,"5":-0.3189933457601345,"6":0.5534399017743342,"7":0.1761673440255638,"8":-0.24435158599256057,"9":0.6907106995455505,"10":0.0937579358596354,"11":-0.021698312813572616,"12":-0.020202367854534324,"13":-0.08605048559640789,"14":0.18266244028229875,"15":-0.09285805763535027,"16":0.09779774412039258,"17":-0.24732215153641626,"18":0.3615881650986901,"19":-0.24412069783880463,"20":-0.6064367862708162,"21":0.9115092703229506,"22":0.4617494681915466,"23":-0.03854715956887465,"24":0.078246254632342,"25":-0.06422265443921878,"26":-0.0877987079388959,"27":-0.4322612308011198,"28":-0.13799151067966578,"29":-0.0020240972026623256,"30":0.23411997625977585,"31":-0.5011534336819231,"32":-0.6527587571729734,"33":0.9187661386053896,"34":0.23021068315003776,"35":0.04611715915106449,"36":0.7361954663038698,"37":0.27669349982502645,"38":0.2996885937924015,"39":-0.7557217431641596,"40":-0.8332853959823069,"41":-0.29844521492052767,"42":-0.2996136453689136,"43":-0.32690814646004374,"44":0.3307166819163979,"45":0.4714051375362688,"46":-0.1473978007117554,"47":-0.09065907780150391,"48":0.5145832353977836,"49":0.42706166757697805,"50":0.5781929457674397,"51":-0.6567776853107716,"52":-0.525657686496098,"53":-0.31854687210011134,"54":-0.9295268102292776,"55":-0.7582262427363443,"56":-0.22019074658021967,"57":-0.04475070910540013,"58":0.10693468617687558,"59":0.5587911028456911,"60":0.23177138136084435,"61":-0.06286360918616156,"62":-0.15407750596648767,"63":-0.26997239995690997,"64":-0.3418976061638993,"65":-0.06956594286293281,"66":-0.8883482207412281,"67":-0.19242972876295353,"68":-0.14229918474804198,"69":-0.008653250148934208,"70":0.32847025673360264,"71":0.6586469937390901,"72":-0.054546099701599224,"73":0.2733662639338265,"74":0.4430124717594109}},{"sx":5,"sy":5,"depth":3,"w":{"0":0.010892661005187229,"1":0.00011900558613334966,"2":-0.05965150902365703,"3":-0.14227018027261792,"4":-0.2164445862017101,"5":-0.40097371904529117,"6":-0.8774753884621969,"7":-0.904462272838977,"8":-1.2789822975400156,"9":0.25960935689906406,"10":0.27920706029970016,"11":-0.2900234337045916,"12":0.303718639719103,"13":-0.054889643361662195,"14":-0.012429253530031294,"15":-0.04368017143756568,"16":0.12061354993309523,"17":0.007614580346383528,"18":-0.1642632335158267,"19":0.18067957913860921,"20":-0.19092260977834014,"21":0.9506988521269129,"22":1.42383786157591,"23":1.087811328918633,"24":0.9336829625325392,"25":1.2088765576254334,"26":1.1788494000249936,"27":-0.37241681970316004,"28":-0.5127872832418817,"29":0.009291114618513898,"30":-0.13251692693226802,"31":0.3001987217330666,"32":0.04601033465674968,"33":0.21775305880297616,"34":0.5142932351202049,"35":0.16214258350797708,"36":0.28981806678603733,"37":0.529273061713179,"38":0.4927089658532222,"39":-1.2395566548742447,"40":-1.1017613786707725,"41":-0.8128505628558439,"42":-0.271788811581401,"43":-0.3976627681857814,"44":-0.04770061267390093,"45":0.03492485831628375,"46":-0.10060927906395495,"47":-0.004866703546843861,"48":-0.10731977098974693,"49":-0.05995215705219912,"50":0.04574933519444662,"51":-0.7621343640359016,"52":-0.8567979999324733,"53":-0.5068998558228262,"54":-0.1850768149303029,"55":-0.34359199509813565,"56":-0.10659407196158091,"57":0.5400973842114679,"58":0.360997467331299,"59":0.6397280876270375,"60":0.1699130659075434,"61":0.012340395654808869,"62":0.02081300775657286,"63":0.25605663353876484,"64":-0.04623693823021399,"65":-0.008360012269787847,"66":0.15419726009649964,"67":-0.21334742625277456,"68":0.058420965024120954,"69":0.43006633453208587,"70":0.2726643716259469,"71":0.2864874537855882,"72":-0.061744469789410804,"73":-0.35783867713597045,"74":-0.2811966532553011}},{"sx":5,"sy":5,"depth":3,"w":{"0":0.12666331533236397,"1":0.11119021195982096,"2":-0.06365074463980952,"3":-0.27603765322650364,"4":0.0005960991298630348,"5":0.3028148258408913,"6":-0.13041341573194218,"7":-0.17253777470676498,"8":0.20876673761089626,"9":-0.04335774342997604,"10":0.07220816341661764,"11":0.221708079469573,"12":0.0995756525296876,"13":-0.06858766513987966,"14":0.2720969012612076,"15":-0.22671185256760382,"16":-0.014400202493689144,"17":0.2890044320680226,"18":-0.03376299014161531,"19":0.11063372635988523,"20":0.5572565868308711,"21":-0.5468942894267169,"22":0.07363900652506229,"23":0.25267241089562287,"24":-0.5081644359369757,"25":0.012285210884451047,"26":0.05163850658867165,"27":-0.1795091676875766,"28":-0.21040457533907742,"29":-0.17142048887005396,"30":-0.3081252617285545,"31":0.06055816721480793,"32":0.3645031334245909,"33":-0.6849640536995567,"34":-0.33445137892079074,"35":-0.11711718285326032,"36":-0.8785702485862026,"37":-0.5341050158376025,"38":-0.40713954362256266,"39":-0.43405592321499603,"40":-0.17609824579040542,"41":0.19157004892492566,"42":0.047204367907319585,"43":0.09282541696154964,"44":-0.056949350286546796,"45":-0.291347199882111,"46":-0.1845606715386671,"47":-0.05289015932868686,"48":-0.20153325608346917,"49":-0.12679520933573327,"50":-0.28200032770364714,"51":0.2030874565591797,"52":0.16563411419140628,"53":0.2590350808521216,"54":0.29587512647845177,"55":0.39365453040495413,"56":0.28904572962689734,"57":0.32872608538769954,"58":0.12467829959207724,"59":-0.2445034711678804,"60":0.37758312643817676,"61":-0.12966112536686358,"62":-0.09417419023519749,"63":0.9362316523081572,"64":0.1803877024301899,"65":-0.2576241018480733,"66":0.8685095721499247,"67":0.33105420407421965,"68":-0.4268235745728062,"69":0.7018055933978868,"70":0.09972247704580042,"71":-0.515855919028029,"72":0.6768085195727276,"73":-0.024766429465804072,"74":-0.3851928988447618}},{"sx":5,"sy":5,"depth":3,"w":{"0":-0.5286439720458351,"1":-0.3653279901351929,"2":0.24488352369658806,"3":-0.3198974091165143,"4":-0.6518517642831796,"5":0.06987269227844822,"6":0.4201252751819308,"7":-0.0209618150398751,"8":0.5063454343982401,"9":0.2280200003486516,"10":-0.40795151345229286,"11":-0.18431857906748256,"12":0.1716711402306111,"13":-0.012240014233805344,"14":0.0575740229322689,"15":0.11294737559318564,"16":0.194148502903415,"17":0.39706904302307383,"18":-0.4141304815550556,"19":-0.6851790112248203,"20":0.02198491458361451,"21":0.24675080566425492,"22":-0.061835050395060105,"23":-0.11485483358419288,"24":0.6453299602082305,"25":0.0642624977831931,"26":0.4493477241670577,"27":0.5349660841208703,"28":0.111443668703678,"29":0.17286288351349874,"30":0.19882338206515035,"31":-0.16629293671228315,"32":0.025408398210309175,"33":-0.24286330528943056,"34":-0.16028804154347684,"35":-0.33038248401737563,"36":-0.41466506458771607,"37":-0.4997889296657224,"38":-0.5672167263671993,"39":-0.21957370307214424,"40":-0.3510026278522382,"41":-0.30003214250921506,"42":-0.24020286412822572,"43":-0.6451553329470803,"44":-0.09883962023030521,"45":0.08233212800241282,"46":0.38265761924019837,"47":0.1628274794218479,"48":0.18629277157379723,"49":0.03865010012705325,"50":-0.007579195762640466,"51":-0.03724818519551396,"52":-0.15610469793763293,"53":-0.3225904439607421,"54":-0.18569414137015267,"55":-0.26251737127361724,"56":-0.4483725555298965,"57":-0.28001154638387604,"58":-0.4495605362809745,"59":-0.20456287657425382,"60":0.17836728676595284,"61":0.18280734492711956,"62":-0.09611863748249953,"63":-0.03275129532007808,"64":0.024495476831937132,"65":-0.09018910255961805,"66":-0.2743855751009198,"67":-0.057470278079078785,"68":-0.35696244072029915,"69":0.1586327361905375,"70":-0.021239948400548315,"71":0.1916184158080832,"72":0.2499055091957545,"73":0.02371378821734748,"74":-0.15201154408049247}},{"sx":5,"sy":5,"depth":3,"w":{"0":-0.28233023638100724,"1":-0.05136876237852428,"2":0.12689249027602342,"3":-0.46033256582834176,"4":-0.3224001658878685,"5":-0.24882304628811178,"6":-0.38004174596343415,"7":-0.17892557991985983,"8":-0.28841739177648906,"9":-0.017322625614441586,"10":0.06297895901189693,"11":-0.22091085571974262,"12":-0.13633185120511637,"13":-0.03489393670558224,"14":0.08447756109376717,"15":0.4563222443552809,"16":0.2573983648177933,"17":0.43927387671187135,"18":0.4356641815261502,"19":0.3539081617347276,"20":0.4610774278392476,"21":-0.3716219960886723,"22":-0.16388564387381171,"23":-0.3547901345976224,"24":-0.32597579751260597,"25":-0.3367782752548826,"26":-0.6714722265083487,"27":-0.22910296986463224,"28":0.028967866481104495,"29":-0.1980228180029991,"30":0.2933015528988609,"31":-0.18581823389381488,"32":-0.013128117432168821,"33":0.5166328668095547,"34":0.4076131262220322,"35":0.42749314026339635,"36":0.600535035480726,"37":0.40115868886293415,"38":0.30212958201284934,"39":0.023722840575538355,"40":-0.15292611011509152,"41":-0.35171125028532907,"42":0.016249953219031527,"43":-0.1249702426757501,"44":-0.7241041076602552,"45":0.07772814217446876,"46":-0.12255582517107656,"47":-0.04027941648413493,"48":-0.10152809943576752,"49":0.012428079506217528,"50":0.012391421395936695,"51":0.2732816945691503,"52":0.07197851510866879,"53":0.38436047440091026,"54":0.4667590749325936,"55":0.15598543806405793,"56":0.3493112007300467,"57":0.39466812756557007,"58":0.23361217959188937,"59":-0.09428009205248881,"60":-0.31043296886031657,"61":-0.22802590282156995,"62":-0.0313380206274006,"63":-0.3370688607357518,"64":-0.08851702183453293,"65":0.17695824299169607,"66":-0.2267102818134058,"67":-0.17054013553761144,"68":0.13976240935336984,"69":0.013044158030022075,"70":-0.12459213041676827,"71":0.09947697333850876,"72":0.12815792938180878,"73":0.005755202142312666,"74":0.029830690974789468}}],"biases":{"sx":1,"sy":1,"depth":16,"w":{"0":-0.32179510324519606,"1":-0.1444281300700912,"2":-0.587730685376239,"3":-0.22595970233335308,"4":-0.23811690983397613,"5":-0.1582242352839172,"6":-0.3793249129309237,"7":-0.20750268206857353,"8":-0.4122498947622066,"9":-0.13194352581382568,"10":0.03052962867692808,"11":-0.26409565749388614,"12":-0.2545312872992362,"13":-0.2068339426071219,"14":-1.3691652463062753,"15":-0.29312733946565134}}},{"out_depth":16,"out_sx":32,"out_sy":32,"layer_type":"relu"},{"sx":2,"sy":2,"stride":2,"in_depth":16,"out_depth":16,"out_sx":16,"out_sy":16,"layer_type":"pool","pad":0},{"sx":5,"sy":5,"stride":1,"in_depth":16,"out_depth":20,"out_sx":16,"out_sy":16,"layer_type":"conv","l1_decay_mul":0,"l2_decay_mul":1,"pad":2,"filters":[{"sx":5,"sy":5,"depth":16,"w":{"0":0.19370802575551452,"1":0.10767436206954088,"2":0.06431504372503112,"3":0.02915866763927062,"4":0.18266489959916715,"5":0.06591653604145141,"6":0.18794398155915135,"7":-0.10967824177332731,"8":-0.14052997472516393,"9":0.06756781833043707,"10":0.14531259236128566,"11":0.2128443003467448,"12":0.1737462998204093,"13":0.05280312051830438,"14":-0.24550497972984414,"15":-0.09140729169289524,"16":0.005007613771138888,"17":0.3059431947829401,"18":0.10720200957460922,"19":0.2636351499834698,"20":0.02673954113228011,"21":0.1299090805649855,"22":-0.10480342156717314,"23":-0.022562465058826066,"24":0.04621841497063125,"25":0.02716085631835629,"26":0.06129472218673221,"27":-0.11260641285939234,"28":-0.17101583180863295,"29":0.20273490734338323,"30":0.04738069166759669,"31":-0.1860401370131314,"32":-0.1454397460860894,"33":0.24031239841055602,"34":0.064359830776863,"35":-0.007185330224138404,"36":0.09677300389329373,"37":0.07183623153103932,"38":-0.12784142768607373,"39":-0.19381042182823627,"40":0.21248942896142617,"41":-0.012736175602352774,"42":0.01612841300991553,"43":0.36987354320127636,"44":0.018715228312436015,"45":-0.05870333700414935,"46":0.32111915833685434,"47":-0.2745122795560774,"48":0.0367662715753794,"49":0.07497958457847675,"50":0.09074201250019957,"51":0.0183849867065681,"52":0.1323688119800047,"53":0.1457170072284883,"54":-0.30592736523513087,"55":-0.2170129597993691,"56":-0.04082029589711922,"57":-0.015554752844984268,"58":0.18196686895198003,"59":0.3326537841433775,"60":-0.1088291073326032,"61":-0.017511266836762567,"62":0.13761184084498504,"63":-0.17688261591605897,"64":-0.037540605717875986,"65":-0.17729619317084322,"66":-0.08924961746434353,"67":0.054431412655941765,"68":0.08981003167844856,"69":0.021583443486753895,"70":-0.0929475021406174,"71":-0.12171150175054221,"72":-0.2685173316072541,"73":-0.09941032579666993,"74":0.06958775359477673,"75":-0.1372349510806356,"76":-0.14754255154979196,"77":-0.07289146773534531,"78":0.08145513307280827,"79":-0.11983025506363604,"80":-0.14967855801211705,"81":0.20682809639240465,"82":0.15433041996738872,"83":0.057853799973110534,"84":0.2707739855107562,"85":-0.11882765505311531,"86":0.09859819400280966,"87":-0.14143861432880883,"88":0.11541442600210629,"89":-0.07301437301170113,"90":-0.20885377496596122,"91":0.14319950885214736,"92":0.30089764668140845,"93":0.16770861029115153,"94":0.3072917567994845,"95":-0.266861170051561,"96":-0.2515946115263552,"97":0.11185634049026355,"98":0.06854305020121204,"99":-0.09254823173298489,"100":-0.02876849029519894,"101":-0.2044245697142914,"102":-0.17457181074307854,"103":-0.5281274726502769,"104":0.12650302549927986,"105":-0.08191117952585268,"106":-0.1904378826629491,"107":0.5437190059984682,"108":0.08941974401059853,"109":-0.06806951886738191,"110":0.31507016697970336,"111":-0.4825289643751882,"112":-0.16674374361751187,"113":-0.18258279036831726,"114":-0.11548439692065003,"115":-0.11879182368560856,"116":-0.12552264362542945,"117":0.03377829714669741,"118":-0.18146186311947876,"119":-0.40665968480187553,"120":-0.08289725409307773,"121":0.03508947284321395,"122":-0.21155452093841626,"123":0.37559186398032696,"124":0.003968533238909743,"125":0.25619392324861306,"126":-0.036279689579529685,"127":-0.3062743059740011,"128":0.024025937121426102,"129":-0.009962588528808138,"130":-0.1271121577250294,"131":0.49496104924647605,"132":-0.17988871384892197,"133":-0.13645023391634203,"134":-0.09963402896576001,"135":-0.11271808459970707,"136":-0.14897715232959424,"137":0.030149186999732833,"138":0.1723645849600992,"139":-0.2471080933070144,"140":-0.03799145675505787,"141":0.05138544421511909,"142":-0.19958048691204677,"143":-0.06644579624894051,"144":0.09550064916971594,"145":-0.06603763923943051,"146":-0.11630715438499901,"147":-0.07740574598248033,"148":0.06788113678378585,"149":-0.03812982382649883,"150":0.207051626842566,"151":-0.17308609844571127,"152":-0.14386442770958136,"153":-0.016935712753486397,"154":0.15981766559746885,"155":-0.18004325399016374,"156":-0.1613694699559426,"157":-0.35379351661510805,"158":-0.16254629049842162,"159":-0.04364605834179418,"160":-0.12118871382504152,"161":0.1102154850737765,"162":0.11440670972596458,"163":0.0005052845656575602,"164":0.29327438754184293,"165":-0.2660283031539805,"166":0.08857969752698523,"167":-0.23850362895313598,"168":0.25038196393059836,"169":0.10768446076594324,"170":-0.3181935943601913,"171":0.24199533762704015,"172":0.35662019414864965,"173":0.5897482921836,"174":0.0628724833868538,"175":-0.2409718151400061,"176":-0.18982928082631334,"177":-0.034182679701608674,"178":-0.06001955797325804,"179":0.147813879036056,"180":-0.232846818846417,"181":-0.2632191045790389,"182":-0.14762619308076652,"183":-0.8007085718757581,"184":0.08528904861533396,"185":-0.026729092308049582,"186":-0.1726967340667895,"187":0.43926365911601123,"188":0.29094367881631317,"189":0.41275787224081256,"190":-0.1360039753593355,"191":-0.4701006608506576,"192":0.15787204272079652,"193":0.0908816003950593,"194":-0.041421799768232646,"195":0.6951509084062321,"196":-0.2612387099533515,"197":-0.18296959448705016,"198":-0.08000316003804812,"199":-0.4939129219786504,"200":-0.06173751755753026,"201":-0.04186642663251265,"202":0.17493140296924053,"203":-0.031675264581392484,"204":0.041958072093367604,"205":-0.09541532909580702,"206":-0.22500655080594598,"207":-0.37592701246319904,"208":0.03403050211358655,"209":0.15001618616106177,"210":0.03043937233339639,"211":-0.09231013815751303,"212":-0.040210098648091476,"213":0.0005306780780953116,"214":0.03161761682902753,"215":-0.25869018578370273,"216":-0.0794156609766903,"217":0.02191631419325349,"218":0.047088010798115434,"219":0.20146545050798859,"220":-0.19976355905633839,"221":-0.26286440428103086,"222":-0.24149485241158686,"223":-0.34363846130284265,"224":0.07234555957155696,"225":0.11981137236405236,"226":-0.16909569528891757,"227":-0.03057457651270737,"228":0.12752967187510517,"229":0.08223674313807362,"230":0.182388688717643,"231":-0.012544934534592723,"232":-0.1442255079227559,"233":0.09834648137986314,"234":-0.06395861202662344,"235":0.2371462332369247,"236":-0.20071560306255107,"237":-0.2673629131151005,"238":-0.17658934262621487,"239":-0.24215674773221227,"240":-0.19586585982990495,"241":-0.014078213598948668,"242":-0.25422031008736534,"243":0.06404221251276854,"244":-0.2954006964080452,"245":0.04452196421316436,"246":-0.08916927888137445,"247":0.0003685160438369026,"248":0.16366204763989223,"249":-0.1782303607242543,"250":-0.14250900371034586,"251":0.09836244662077817,"252":0.2822536213786788,"253":-0.1764757629961083,"254":-0.26386454571914897,"255":-0.026593808371453805,"256":0.10054915530209041,"257":-0.11851142513802981,"258":-0.049607090933855104,"259":0.33365961942462136,"260":-0.30951739654334715,"261":-0.19637201600366175,"262":0.06168834320119797,"263":-0.11444473813377096,"264":-0.1377259827624589,"265":-0.09257866476445813,"266":-0.08210459286879623,"267":-0.20845280095343435,"268":0.12305967124981584,"269":-0.13895029510592483,"270":-0.04385979207528174,"271":-0.16996835832205734,"272":0.136611951302495,"273":0.22560531923656316,"274":0.05493219732114036,"275":-0.1863818732050411,"276":-0.099709912767033,"277":-0.1520809102356729,"278":0.00012912777028156053,"279":-0.07545686290061498,"280":-0.355025169057669,"281":-0.05578246164880341,"282":0.05840321154668275,"283":0.07453654571215473,"284":0.14798946170580446,"285":-0.03384717435430198,"286":0.02560428975382966,"287":-0.22959223679509694,"288":0.1887731346339823,"289":0.10019871449611718,"290":0.07059606915032855,"291":-0.26359951066610704,"292":0.010196786987418655,"293":0.05085381800336242,"294":0.02152037040217083,"295":-0.12182113840075168,"296":-0.018329634295152053,"297":-0.02931310961220174,"298":0.08166404483474914,"299":0.15074711916410527,"300":-0.396770164498296,"301":0.09267087366510869,"302":-0.06072767771073169,"303":-0.2510544492714326,"304":0.26193370542970995,"305":-0.002083586822534478,"306":0.04649371693088723,"307":0.010751632076211924,"308":-0.048991438820993057,"309":-0.05451053766183447,"310":-0.10719040800931652,"311":0.020632929078903933,"312":-0.11729554998803231,"313":-0.041401833650476394,"314":-0.009194911306150298,"315":0.08538263031325205,"316":-0.3227137219649256,"317":-0.20404406199798983,"318":-0.07227929372089725,"319":-0.15314769496240455,"320":-0.18821754550334915,"321":-0.06425980555122073,"322":-0.0523180519761061,"323":0.282037665396834,"324":0.07007808502495644,"325":-0.09202320480451483,"326":-0.11841796827331556,"327":0.10251987542133974,"328":0.3413992667093283,"329":-0.0576658961455775,"330":0.1229439960798236,"331":-0.2058349175408579,"332":-0.01431287016539469,"333":-0.21223940853514395,"334":0.29628079673795926,"335":-0.040297140437410235,"336":0.13551802759436113,"337":-0.14208281813920765,"338":-0.009768400570249908,"339":-0.0014366902396215388,"340":0.08764272700280765,"341":-0.0802858701770178,"342":-0.008823472880181477,"343":0.44445686862088113,"344":0.10717997681132005,"345":-0.1083213996283638,"346":0.04196655218169272,"347":-0.2967678148547011,"348":-0.1593884749821071,"349":0.006682688969214479,"350":0.18404604992430523,"351":0.1491064670695831,"352":0.4090434325030882,"353":-0.051042947329315545,"354":0.13290779255181387,"355":-0.17923881799292854,"356":0.07813783729683088,"357":0.06122478346546912,"358":0.14903207200784557,"359":0.21031854970194097,"360":-0.004057622254632676,"361":-0.12183398370500179,"362":0.012816047919944642,"363":-0.026471092809706897,"364":0.023902312737127784,"365":-0.03913395792381901,"366":-0.1265337129156641,"367":0.16845106543660648,"368":0.10300605436746979,"369":-0.029670782967427013,"370":-0.06417791259309802,"371":-0.09479504966518204,"372":0.07216471064398816,"373":-0.00863636839082975,"374":0.07134944818747423,"375":0.07387830087650697,"376":-0.08065206507719584,"377":-0.06471418587876346,"378":0.0068978145461103405,"379":-0.036395720053114235,"380":0.012831272588481695,"381":0.012732704268103964,"382":0.014144147620035772,"383":-0.1637522320182034,"384":-0.03856948325356312,"385":0.06156112016277064,"386":-0.0065142137978129845,"387":-0.03551263568304145,"388":-0.048913960555230354,"389":0.04707646377327926,"390":-0.1324217939990013,"391":0.03506414512171104,"392":-0.0184069808536564,"393":-0.09618413133707986,"394":-0.17141090119708097,"395":0.19096730370027476,"396":0.06474754384579122,"397":-0.02246722179989134,"398":0.050554968564993086,"399":-0.03890419441470608}},{"sx":5,"sy":5,"depth":16,"w":{"0":0.13260611176259873,"1":0.3688790304738425,"2":0.239917081187308,"3":-0.029592643955190262,"4":0.036713142862604894,"5":0.13950826410433564,"6":-0.03736247178002032,"7":0.23781038856307724,"8":0.07312132403760072,"9":0.27130405660413104,"10":-0.20733721946628395,"11":-0.02586105473840379,"12":0.05259570071734811,"13":-0.1550442380525945,"14":0.07604494367679099,"15":-0.050093867582603036,"16":-0.01577085156335967,"17":-0.11812723114943875,"18":0.47630801606270096,"19":-0.4029721073004677,"20":-0.07676397083074527,"21":0.04772133918181883,"22":0.07674313820831677,"23":0.04721510403453064,"24":-0.10031871474698742,"25":0.1572166729101667,"26":-0.07070366440931279,"27":-0.15399024822973287,"28":0.07631673595751114,"29":-0.1574125227985035,"30":-0.04903391942976865,"31":0.08463361044436467,"32":0.011185129344985332,"33":0.05253388631137192,"34":0.4700054369965165,"35":-0.4840886247891344,"36":0.018747149029624956,"37":-0.09170948820476536,"38":-0.009079928981232045,"39":0.06357789154056279,"40":-0.21946870902996632,"41":-0.10551822309132042,"42":-0.026870694511140332,"43":-0.023423678617945188,"44":0.01845121222141625,"45":-0.02598715188033617,"46":-0.04070016676182759,"47":-0.027230708047581466,"48":-0.036696876688848905,"49":-0.1870101816171048,"50":0.2917805480560001,"51":-0.18184208575694638,"52":-0.049408121136423254,"53":-0.19372292106084266,"54":-0.020566180867371376,"55":-0.018840117199183003,"56":-0.1751966213864629,"57":-0.18759012598322425,"58":0.1172522687814874,"59":-0.04039181943930126,"60":-0.012570236576772023,"61":-0.022467318423560565,"62":0.11235861955884487,"63":-0.11506270499066854,"64":0.22193151536928318,"65":0.010840292042319028,"66":0.28228332713484017,"67":0.06570475236691163,"68":-0.1372156503630841,"69":0.007416407377557549,"70":0.047203670042002564,"71":0.09485093319800546,"72":-0.319884159876403,"73":-0.2980427767764315,"74":-0.04442758582697011,"75":0.26751486703396343,"76":-0.02276243938639154,"77":0.1303072923238439,"78":0.11446217491144571,"79":-0.05846940025421183,"80":-0.10092395135486947,"81":0.4505482693329463,"82":-0.13069699286704003,"83":-0.061002919022587296,"84":-0.16551723530733492,"85":0.14850739720812742,"86":-0.17498445745855462,"87":-0.07989564941030475,"88":0.1661716083095887,"89":0.3686000608115918,"90":-0.19273674396448845,"91":-0.031486002083671784,"92":0.023374518997091247,"93":-0.06369177347885761,"94":0.12099074238883598,"95":-0.10374739795909171,"96":-0.19208914477389064,"97":0.0917469568472237,"98":-0.04950326174063212,"99":-0.37618914243823204,"100":0.030437654469196194,"101":0.13489446980497258,"102":0.3485622784185053,"103":-0.09661437185148183,"104":-0.04422484498764867,"105":0.07976669748964542,"106":-0.13032658011181095,"107":-0.08462201495219926,"108":0.16435743182371623,"109":-0.021296256944200623,"110":0.059558232283176644,"111":-0.14407342565730769,"112":-0.2330811254249389,"113":-0.022244283804933387,"114":0.10132309755712599,"115":-0.32077398169326926,"116":0.13563735479030467,"117":0.15959308716258647,"118":0.4955353706455285,"119":0.01347763069381123,"120":0.07994938626354549,"121":-0.05017292936988048,"122":-0.10184182291087648,"123":0.1024432999589565,"124":0.11584571526516071,"125":-0.02335449419119016,"126":0.21030663219845508,"127":0.04201913681011258,"128":-0.3978325057759196,"129":-0.13159074382472918,"130":0.08576614836051216,"131":-0.21351167933447002,"132":0.05270277895035614,"133":-0.24873328099613792,"134":0.2981632045124932,"135":-0.025198158423955893,"136":-0.10299185417025299,"137":-0.29283694925075543,"138":-0.0845824459037066,"139":-0.008554289569780804,"140":0.23146752289036646,"141":-0.016651593135511587,"142":0.0924273198511058,"143":0.0754833057853088,"144":-0.16207820164144138,"145":-0.21829818889185817,"146":0.20907113405455371,"147":-0.1053015107012784,"148":-0.01472055344255534,"149":-0.1670809207085702,"150":0.22246374503540736,"151":-0.15782839581505922,"152":-0.18336982638171956,"153":-0.30635793958372093,"154":0.10734992717223081,"155":-0.001969193249847781,"156":0.0569549917323847,"157":0.20431463875010356,"158":-0.04593756400795041,"159":0.2014168380545531,"160":-0.044153669823758776,"161":0.058126617111105366,"162":-0.3807711995838259,"163":-0.003381338093697686,"164":-0.07401837223491525,"165":-0.06514951256679881,"166":-0.04133971849436352,"167":-0.12709179624021288,"168":-0.02758932242042183,"169":0.336268466181217,"170":0.14582506410187526,"171":-0.12135069722964931,"172":0.086351251393853,"173":0.21742856228666269,"174":-0.15755804134144338,"175":0.22730897053734306,"176":-0.17414089251599382,"177":0.21358557759242316,"178":-0.19277857926388353,"179":-0.32787825345368676,"180":-0.05960056854333533,"181":-0.09760662362074389,"182":-0.2765035047242444,"183":-0.4227252506927475,"184":-0.02068017172668688,"185":-0.05174089941009456,"186":-0.03133650716327269,"187":-0.06839653065200962,"188":-0.007732462554525446,"189":0.01756485264525441,"190":-0.03770659650219574,"191":-0.1988211941652771,"192":-0.16940943132673106,"193":0.215502838055304,"194":-0.05658005864138996,"195":-0.1816486938323495,"196":0.22929994264701278,"197":0.04302545635308954,"198":-0.08689782092973035,"199":-0.20633829110937957,"200":-0.004378421656082173,"201":-0.025453257225705638,"202":-0.07680855967656339,"203":0.03514105655492635,"204":-0.06543442922129138,"205":-0.03436384733678181,"206":0.16048600898431276,"207":-0.02398612638366169,"208":-0.25573467363665064,"209":-0.040351699731691344,"210":-0.04186566383308803,"211":0.18013710861620785,"212":0.10733709081349567,"213":-0.2426329455037201,"214":0.10243729044897912,"215":0.008100937788985275,"216":0.023194936867254917,"217":-0.17540894939052393,"218":-0.16200838914289212,"219":-0.0351950854861092,"220":-0.1328600523331741,"221":-0.04697473558449827,"222":0.2655752464021999,"223":0.040484477620807584,"224":-0.08812029717154259,"225":-0.32069513250074366,"226":-0.0317410631012901,"227":0.13168261805557818,"228":-0.11474313499735656,"229":-0.09063608198118209,"230":0.30756069602540465,"231":0.07856967607230632,"232":-0.22193711414726325,"233":-0.15168815143698292,"234":0.1892815571562531,"235":0.07239819849459032,"236":-0.0661676209992024,"237":0.2160405412799913,"238":0.047687311063324245,"239":-0.10217729771853908,"240":0.08762471352743316,"241":-0.1054729948523567,"242":0.11519944564516821,"243":-0.02713478269153745,"244":-0.10229648293170314,"245":-0.11562293266788895,"246":0.0968329231078844,"247":0.16977240511795097,"248":-0.05460114758130596,"249":0.05712671843019284,"250":0.16819281545054673,"251":-0.06854118468227252,"252":0.3256425316508794,"253":0.23841384869368773,"254":-0.08578258864212175,"255":0.24259081127658888,"256":-0.086295022977058,"257":0.010919349997055825,"258":0.041064077891701016,"259":-0.20598889139768614,"260":-0.1340606338636212,"261":-0.14614181823112046,"262":-0.26027834893072865,"263":-0.21303594497334727,"264":-0.05987730550289306,"265":-0.07195639994846513,"266":-0.0339166986501882,"267":-0.11285694476508346,"268":0.02683544964737981,"269":0.09651921677710684,"270":-0.13113020293556982,"271":-0.02364554457319141,"272":-0.1771723951886729,"273":0.014149193100858689,"274":0.034524296683969495,"275":-0.3180069296563488,"276":-0.009129829764117652,"277":-0.29282161683085667,"278":-0.27680210581305625,"279":-0.2509269005637381,"280":0.043948258321891503,"281":-0.08472388651267945,"282":0.006003420872632173,"283":-0.15882609513364365,"284":-0.1404178341069988,"285":-0.06037397079957577,"286":-0.198606634910869,"287":-0.10759755130847182,"288":-0.18710885985999956,"289":-0.07999538324085562,"290":-0.051638067335816634,"291":-0.1981446441317521,"292":0.09197094290349035,"293":-0.05850022030412963,"294":0.01643811821619144,"295":-0.09862714115501595,"296":-0.005833107080049748,"297":-0.1494065343134839,"298":0.03191167050613405,"299":-0.1558021278060255,"300":-0.2524633175891804,"301":-0.027826798143426625,"302":-0.11982363931754751,"303":-0.06295126398613968,"304":-0.008225268234679473,"305":-0.3303274532685647,"306":-0.16159081591280627,"307":-0.07088255769050564,"308":-0.09269247392780823,"309":-0.0935725644755868,"310":0.020437349258952322,"311":0.11010790706802481,"312":-0.06191224115429385,"313":-0.28573368290296886,"314":0.2073470582824661,"315":-0.18331878510492164,"316":-0.13095506133126422,"317":-0.11651012314437591,"318":-0.1515081145362298,"319":-0.0007681924135071547,"320":0.006551847552728861,"321":-0.36448725723218706,"322":0.06541137522739114,"323":0.020140123135915993,"324":-0.09794779278832443,"325":-0.2890988382857308,"326":0.20920677287063408,"327":0.16522734272332085,"328":-0.045838685494572755,"329":-0.09304807516461244,"330":0.043679499677205365,"331":-0.018129342970266974,"332":0.1483689471127664,"333":0.15057205285401012,"334":-0.028352098250710753,"335":0.03966702432905857,"336":0.06765248159122665,"337":-0.3321703480336275,"338":0.05229135415967568,"339":-0.18253281210989897,"340":-0.08185578388399296,"341":-0.19884719435941753,"342":0.05087493707254124,"343":-0.00016300514741465042,"344":0.035923514864693376,"345":-0.07435263770263269,"346":0.06534072117697792,"347":-0.12600887174387004,"348":-0.10565654792584529,"349":-0.06295582054312411,"350":-0.170841078425018,"351":-0.05948694524519287,"352":0.08322155983925718,"353":-0.3179780907315359,"354":-0.01872491179130725,"355":-0.1316578457800111,"356":0.017194049507115842,"357":-0.12258197782722431,"358":-0.021793261738559083,"359":-0.006580991267950028,"360":0.0740966896689431,"361":-0.07233757897337822,"362":0.07618901321241396,"363":-0.15082727118267147,"364":-0.1867588224586182,"365":0.044868558015113726,"366":-0.18964269511771376,"367":0.02762863767860258,"368":-0.048459094171887734,"369":-0.13322970347263322,"370":-0.038416893043536446,"371":-0.036332797037068834,"372":0.10315885711569393,"373":-0.08809224540721163,"374":-0.18773796381456923,"375":-0.13317669791064962,"376":0.2192662704314456,"377":-0.22962025283606963,"378":0.16393879033286712,"379":-0.2779569853541414,"380":-0.1881634550502218,"381":0.06758422780828997,"382":-0.15490366602957478,"383":-0.01385581653632812,"384":0.20235896745106993,"385":0.037583423055012714,"386":-0.04916519779008646,"387":-0.08962401535247609,"388":0.019413903799897107,"389":-0.07855963961335022,"390":-0.05507888586459005,"391":-0.1565124626094547,"392":0.22513321480547957,"393":-0.24355008283543592,"394":0.27747699777567086,"395":-0.3454652741709102,"396":-0.10260167192264483,"397":0.08767338439206736,"398":-0.11920880744193792,"399":-0.14270631197785355}},{"sx":5,"sy":5,"depth":16,"w":{"0":0.17958464414827857,"1":-0.13505963166354212,"2":0.20012878307604715,"3":-0.050252901444174214,"4":0.10852959376447553,"5":-0.025606715581938035,"6":-0.11728092251376583,"7":-0.07216164543639493,"8":-0.12505491150563278,"9":-0.29618546174782656,"10":-0.10123189403079337,"11":0.16602964223867533,"12":-0.06722708201833398,"13":0.11603452124630778,"14":0.019309179684091012,"15":-0.04204024602650968,"16":-0.10641378899564927,"17":-0.31789398287216886,"18":0.14850144120084824,"19":-0.13931762080869528,"20":0.162487800866447,"21":-0.13390324756312968,"22":-0.06151693677491829,"23":-0.20592076591656455,"24":-0.3311050442338502,"25":-0.21257032887583432,"26":-0.002089637571627539,"27":-0.21570160581760178,"28":0.09059347838705897,"29":0.14776914773243288,"30":-0.24140789105392566,"31":0.060861416028433396,"32":-0.21603196269297936,"33":-0.09251801967186384,"34":0.13463078434926654,"35":-0.2054945167448394,"36":0.1964510600616611,"37":-0.20149681544253084,"38":-0.10459814857672821,"39":0.03171348546917527,"40":-0.164335105369461,"41":0.02641100081444607,"42":-0.04308142980825204,"43":-0.33106871708214913,"44":0.15472703191471773,"45":-0.17921514484008422,"46":-0.13489962677606132,"47":0.016338978467842272,"48":0.07235261591197051,"49":0.24575271745895078,"50":0.009309485748785066,"51":-0.036833418009230776,"52":0.0022464394360861475,"53":0.09659665161180421,"54":-0.08424656363157479,"55":0.1913211408972631,"56":-0.23340858170603887,"57":0.046938311479615316,"58":-0.04293087032372015,"59":0.1230684905326795,"60":0.00401698789915796,"61":-0.03585734929369411,"62":0.17307084913166487,"63":0.014077533519703832,"64":0.004003449410709088,"65":0.2101760364027739,"66":0.0016584560249842326,"67":0.024232036297237042,"68":0.05443264209043802,"69":0.20768725486757547,"70":0.24876157702880244,"71":-0.22885361780211894,"72":-0.1914993403557126,"73":-0.08991745551294798,"74":0.061689183957596386,"75":0.013441385955198741,"76":-0.004783811863504247,"77":-0.10668668702076038,"78":0.3346684476248278,"79":0.0028363336743936706,"80":0.2670069888282324,"81":0.26923403757280395,"82":0.13370478753993684,"83":-0.011435486431298084,"84":-0.20132277372154597,"85":-0.11753779146620427,"86":-0.0812007023962435,"87":0.019821922932584342,"88":0.12058583914115283,"89":-0.02167845455406384,"90":-0.2569076239171484,"91":0.24485831873390462,"92":0.00889476943239712,"93":0.12829747186640666,"94":0.08520468241270128,"95":0.14391720220523394,"96":-0.13979281535463295,"97":-0.02313205345435807,"98":-0.04818802369126288,"99":-0.07849484655613494,"100":-0.05875095829241574,"101":0.02100242657466155,"102":0.20165241727612843,"103":0.2526614668517919,"104":-0.2446847874380089,"105":-0.4004574975843496,"106":-0.026437680125596916,"107":0.44603497057278124,"108":0.11227837027330541,"109":0.4272676372912662,"110":0.173707181624395,"111":-0.10484267825175522,"112":-0.42397164385607916,"113":-0.009570905483988501,"114":0.05720030983269496,"115":-0.16099175896922072,"116":0.2765840611874219,"117":-0.09299241516234946,"118":-0.07717271132037117,"119":0.13913300018840166,"120":-0.09126117309187338,"121":-0.004097968979413986,"122":-0.195707448708471,"123":-0.07992074261212168,"124":0.16370017371143045,"125":-0.0051674773797143235,"126":-0.27596071866604205,"127":0.041412137808424655,"128":-0.1746769542570005,"129":-0.1188240463789191,"130":0.13953105396230467,"131":-0.11552130947929506,"132":0.22046032143751382,"133":-0.166831689109152,"134":-0.2982985769365513,"135":0.04725469158831029,"136":-0.1765115494463657,"137":0.3467964569926788,"138":-0.2561580248233046,"139":-0.15014953110088108,"140":-0.07973019613416787,"141":-0.08749428441842659,"142":-0.34624666045515295,"143":0.02592752837493464,"144":-0.14197004961367776,"145":0.11228195565774635,"146":0.18811615667517817,"147":0.11485562335753363,"148":0.1662922668622341,"149":-0.04483856123232352,"150":-0.2034239468543453,"151":-0.30129803494515733,"152":0.06028139909053237,"153":-0.012857155120964118,"154":-0.14086743706482702,"155":-0.2655054109556694,"156":0.1068785779897213,"157":0.04234650077986039,"158":0.27426571331958133,"159":-0.2606892042860795,"160":0.06201284417149398,"161":0.1402489186742675,"162":-0.06744491445210411,"163":0.0008398163755993545,"164":-0.36505549015197647,"165":-0.07158581144435937,"166":0.045540272929239164,"167":0.10945016350874759,"168":0.009401554756406742,"169":0.2429357537205657,"170":-0.13713759749057677,"171":0.25691687850073935,"172":-0.22765585461120058,"173":-0.003511995386245299,"174":0.10242618345575469,"175":-0.017234000931028663,"176":-0.31666770435663605,"177":-0.1647760817787973,"178":-0.30174013487745593,"179":-0.03879122840988339,"180":-0.6756464673543598,"181":-0.017881146227804335,"182":0.42822676151144007,"183":0.0423018289102948,"184":0.010637773083295098,"185":0.01306976116971023,"186":0.12349274025053136,"187":0.6012968093229135,"188":0.1455152420075715,"189":0.11453382981215184,"190":0.39660267931958915,"191":0.10929529141072476,"192":-0.12941667924419467,"193":0.01296588325614627,"194":-0.38772918151554536,"195":-0.009369744407449561,"196":0.1813881241330884,"197":0.1614041924782128,"198":-0.029708920630656548,"199":0.6380102223542917,"200":-0.08035898011505291,"201":-0.052145271909909426,"202":0.043494853182014744,"203":0.04209842702032944,"204":-0.034253441266473186,"205":-0.09214811847435093,"206":0.4289050699917689,"207":0.1739174207819561,"208":-0.25762329762536307,"209":-0.17791820840574757,"210":0.11470293804032508,"211":0.35064596391432146,"212":0.2634904152096528,"213":-0.04669767815316741,"214":-0.1507484649936046,"215":0.004024264374162682,"216":-0.07505375721139011,"217":0.019265978678236532,"218":-0.11180774063636421,"219":-0.06935113026807471,"220":-0.315877890636137,"221":-0.4169379040199359,"222":-0.19796557068160409,"223":-0.23269071517724632,"224":-0.13914104000225472,"225":-0.14583703734966308,"226":0.11864654948065823,"227":0.06782164195240754,"228":0.4621521882126453,"229":-0.04493050400018312,"230":-0.2700447421212517,"231":-0.1638037733301341,"232":-0.04036226598093842,"233":0.09231969459549612,"234":-0.21345462467625498,"235":-0.34723082697454594,"236":0.08397733866914164,"237":0.020105623312049098,"238":-0.3467789727101997,"239":-0.05016432242138018,"240":-0.014439774665601387,"241":0.128442816074355,"242":0.18860052355247559,"243":-0.10198417252684738,"244":-0.2528451958086627,"245":0.15375445284483077,"246":-0.17873531904551376,"247":0.2897753802982805,"248":0.17896077208305908,"249":-0.18226284006607366,"250":0.08278982868056403,"251":0.10749397880500872,"252":0.20780410681109587,"253":-0.17854539188231988,"254":-0.23915105569220338,"255":-0.11737947393605981,"256":-0.515339335174759,"257":-0.1572277134051621,"258":-0.27036473672884864,"259":-0.0764779566423333,"260":-0.5235640126429458,"261":0.21484563339024762,"262":-0.384624696465536,"263":0.2910145968998378,"264":-0.1262699456260713,"265":0.21504467153821488,"266":-0.09160247412692897,"267":0.07512632377975416,"268":-0.1983745824998782,"269":-0.15258641944424547,"270":-0.36543589569564366,"271":-0.008427566619462982,"272":-0.19821550010035396,"273":0.026313539886430388,"274":-0.634910926324835,"275":-0.246235596794376,"276":-0.45889467371061626,"277":0.0051819986870845075,"278":-0.31808544509016357,"279":0.016177269279524707,"280":0.3381015879031012,"281":0.12321468776943684,"282":0.10421241425918348,"283":-0.17887935644314398,"284":-0.28529230372200953,"285":-0.1936479841519314,"286":0.3472757484333802,"287":0.032593440035477976,"288":-0.13893966066252367,"289":-0.13772741726730353,"290":-0.18279376893676916,"291":0.03280702644023774,"292":-0.217611373833871,"293":0.07206935866219742,"294":-0.14087709909767357,"295":-0.10106526184599958,"296":-0.15370204602159407,"297":-0.16317232623336944,"298":0.045148147607852754,"299":0.17142353100551547,"300":-0.12377962787454304,"301":-0.02872699521283877,"302":0.4345422496282696,"303":-0.12768293114290144,"304":-0.13140702041310753,"305":-0.14017477452478783,"306":0.3607581446210621,"307":-0.0012108513930665567,"308":0.14117710257338678,"309":0.06330163556981772,"310":-0.1997515188985009,"311":-0.17128831969495503,"312":0.06521844735862166,"313":-0.02533176632943569,"314":-0.12980795036376533,"315":0.011533226885945186,"316":0.31713652987852997,"317":0.07163825498071791,"318":-0.3402945315369308,"319":0.018703207300061163,"320":-0.05393531010772481,"321":0.0200521439832161,"322":-0.05024570758121708,"323":0.20287007937575227,"324":0.23673151777158855,"325":-0.011047086958958488,"326":0.047103810971665404,"327":0.2167159007712696,"328":-0.030768991338753215,"329":-0.1464446881318388,"330":0.3030307066726439,"331":-0.11964883927225826,"332":0.08607581952187386,"333":0.2465544732238773,"334":0.05046588641335383,"335":0.11292582727520771,"336":-0.2488648402853348,"337":0.39583247037658614,"338":-0.14697113298757447,"339":-0.010680188708844381,"340":-0.14900757299517606,"341":0.00534576244352186,"342":-0.43766847661005515,"343":0.16955305026510353,"344":0.043774340631900666,"345":-0.13865946643342145,"346":-0.10633092833455639,"347":-0.01143325775713256,"348":-0.2258612788097309,"349":-0.0573114452507823,"350":-0.30287022829201016,"351":-0.08164895295502332,"352":-0.21623039750460818,"353":0.08413232045242204,"354":-0.41426762573847903,"355":0.1855220233265532,"356":-0.6914955180865117,"357":0.1973816003368232,"358":-0.42513309940908656,"359":-0.020831355926433984,"360":0.19567432567290713,"361":0.16599078079877247,"362":-0.2646929040398435,"363":0.2142257087258727,"364":-0.3705662330510307,"365":0.006731622636293072,"366":-0.1433026854203442,"367":-0.2554102499235209,"368":0.03317221467567698,"369":-0.03166758823257161,"370":-0.2679771812836175,"371":0.21307689917023143,"372":-0.2996421678494806,"373":0.013364514160106205,"374":-0.04950094804811948,"375":0.02579808256883145,"376":-0.05743903999370533,"377":-0.16265341141922177,"378":0.04987808642305965,"379":-0.12197045183405887,"380":-0.11017891668278029,"381":0.028491400841533936,"382":0.5474405278732852,"383":-0.049479818254996644,"384":0.3261361014944254,"385":-0.053114578277238485,"386":0.20621533375397044,"387":-0.08281153408123047,"388":0.2112263471017925,"389":-0.050351025815426366,"390":0.06886775765855194,"391":0.0760030219712918,"392":-0.1977383508421017,"393":0.004523482002667006,"394":0.13257451743465468,"395":0.04635737647329494,"396":0.15046107758371716,"397":-0.13572297548903917,"398":-0.20338135374353525,"399":0.15393352562669516}},{"sx":5,"sy":5,"depth":16,"w":{"0":-0.004857629304787083,"1":0.08823400557372334,"2":0.24572321253473173,"3":-0.10013146625486394,"4":0.33262231059783204,"5":0.13605118068315775,"6":0.17171493580624522,"7":-0.017705870269594276,"8":0.04650770318777862,"9":0.047004572613101064,"10":-0.042739904420734935,"11":0.22243053459592477,"12":0.004280118390585775,"13":-0.01389234718355517,"14":-0.12523048711641516,"15":0.12158216356898499,"16":-0.23977629302171222,"17":-0.1626071319376304,"18":0.2687335403425858,"19":0.07486193562506854,"20":-0.03321863623147044,"21":0.12934887137623113,"22":-0.08456905698340025,"23":0.1672961587462856,"24":-0.07496958245970974,"25":0.2016289405770395,"26":-0.17262862640357177,"27":-0.02226704710671817,"28":0.07387819817513988,"29":0.07186139157712126,"30":-0.5264240762722465,"31":-0.15081040593566866,"32":-0.1309093504848048,"33":0.20154814834220497,"34":-0.25519691825623103,"35":-0.28707590907653935,"36":-0.49072986708048777,"37":-0.0026799065459284185,"38":0.004931498736749412,"39":0.1901599499988466,"40":0.2866840318571178,"41":-0.019562203081538224,"42":0.13773310817983428,"43":-0.3931168279054908,"44":-0.08386900735882184,"45":-0.09782726336456339,"46":-0.07084494653846941,"47":-0.06258453374900036,"48":-0.05497634056089829,"49":0.37086101229744095,"50":-0.11019114569113628,"51":-0.15759769226212914,"52":-0.07451643146197164,"53":0.14251907469474687,"54":0.22747891552762306,"55":0.1864748419742279,"56":-0.014355565724079138,"57":-0.11573464144913481,"58":0.4441818612140917,"59":-0.18424013121945193,"60":0.04878584404670827,"61":0.09182704757423663,"62":0.12400028428198288,"63":0.1822826235783232,"64":0.04161739336704238,"65":-0.0009644931109674879,"66":0.4376026466602889,"67":0.03115164778885664,"68":0.2400160606155266,"69":0.007880407431188004,"70":0.08948197173356572,"71":0.04473721173580319,"72":-0.06149791837155282,"73":0.008573322953966395,"74":0.06498469349762039,"75":0.05321739293917207,"76":0.04602397912337501,"77":0.08132239830454849,"78":-0.03529507065284002,"79":0.0918461874899551,"80":-0.030339634507477106,"81":0.11431651701022996,"82":-0.18988243067513677,"83":-0.31996656875316953,"84":-0.18783255349205438,"85":0.15566838224154136,"86":0.12100677711962773,"87":0.05272558636030784,"88":0.3131677451744006,"89":0.15347715431978126,"90":-0.22091657603531298,"91":0.25728390493880876,"92":-0.09100174157223222,"93":-0.019300316738464777,"94":0.38529383154225455,"95":0.01916608630382938,"96":-0.31151991645133337,"97":-0.12983705546161822,"98":-0.14362307050531137,"99":0.044932646026873274,"100":0.30360057531086,"101":0.4491435614427805,"102":-0.145952853470838,"103":0.04193491371886547,"104":-0.03529208053747937,"105":0.10038989484665858,"106":-0.032687692312960696,"107":0.26830618959230945,"108":0.07159188675641798,"109":-0.2781249173050546,"110":-0.11277786308847491,"111":0.054381876177888665,"112":-0.44541444138264463,"113":0.003202597201153667,"114":-0.043608277813287535,"115":0.46887903469285197,"116":0.02926553128646573,"117":0.44653999127714933,"118":-0.3104719615505879,"119":0.41869003951677014,"120":-0.04370389258949618,"121":-0.004490476989817183,"122":-0.08886394979126144,"123":0.36310758361873025,"124":-0.0660706301270006,"125":-0.14191737556684578,"126":-0.6272425994572653,"127":-0.47780205045194857,"128":-0.06118358165019799,"129":0.18702218762880465,"130":-0.030735911690061932,"131":-0.07151221773280993,"132":-0.1224458522493207,"133":0.18296387814360077,"134":-0.16993992383408765,"135":0.17927708997561184,"136":0.07189692051056956,"137":0.03296033357905857,"138":0.013005791751273778,"139":0.12275377931161943,"140":-0.12460713641493375,"141":0.03686376765012653,"142":0.2055201900483293,"143":-0.21194643398359853,"144":-0.0926537905112017,"145":0.04096958865788373,"146":0.01432220461355528,"147":0.007825108203248901,"148":-0.04501260804024429,"149":0.13603511445445518,"150":-0.00999554015819267,"151":0.10547938659691268,"152":-0.08876703013174764,"153":-0.0894483330349767,"154":-0.10881899203101382,"155":0.05779636406248226,"156":0.03919351375840686,"157":0.1821175949407215,"158":-0.06834323984740365,"159":-0.08351855837753791,"160":0.1288939117866473,"161":-0.02013817862894037,"162":-0.17855221989459674,"163":0.10979107184436881,"164":0.04249069508242672,"165":-0.35277796846059895,"166":0.21685471067285708,"167":0.22463733772367683,"168":-0.07936784498327039,"169":0.1471117403736323,"170":0.0490001242003741,"171":-0.16759084620992948,"172":-0.16082242757581847,"173":-0.27931724302889066,"174":-0.05442630638154602,"175":0.23822607024118184,"176":-0.054700714272112386,"177":0.015240790608839152,"178":-0.1271091309283647,"179":-0.08797691814014119,"180":-0.4559002439765906,"181":-0.5086864527322202,"182":-0.01274886611418827,"183":0.3639688325330465,"184":0.11714652931202035,"185":0.11468322164846073,"186":-0.060579865571725025,"187":-0.06860940951003372,"188":-0.05890042582116059,"189":-0.023666397606521266,"190":0.6165732129789437,"191":0.4046108487400154,"192":0.020009097062392296,"193":-0.14009767924287317,"194":-0.09592573519191756,"195":0.18733016767342658,"196":-0.01630129635401548,"197":-0.2874331573925024,"198":-0.057341693405884984,"199":0.23203231656884352,"200":-0.22491005187114094,"201":-0.08822156776687408,"202":-0.20867222131462332,"203":-0.024412565701414753,"204":0.13762011562375612,"205":0.3900786563542331,"206":-0.045831368330415595,"207":-0.021936079244285388,"208":0.18621400779785582,"209":0.1561789856231833,"210":-0.11636099250993645,"211":0.48777776555316316,"212":-0.2637968755860969,"213":-0.21650963114629143,"214":-0.10648327755103017,"215":-0.003421256611330149,"216":0.05207433097114923,"217":-0.06570142597528034,"218":-0.22767517451401328,"219":0.05726127808852596,"220":0.012737535088761376,"221":0.32518891726419397,"222":0.07845643335367013,"223":-0.403973635615753,"224":0.12628997535468217,"225":-0.10860867318069704,"226":-0.12577700174434545,"227":-0.011812583831699211,"228":-0.2896108632432339,"229":0.013988629719819252,"230":-0.05810712462744535,"231":-0.2535310733849598,"232":0.07587429287315385,"233":-0.08798182974374123,"234":-0.07422745246531791,"235":-0.0008416744741866651,"236":0.05185104948973881,"237":-0.13525486231105366,"238":-0.012058596282245364,"239":-0.13593940894988454,"240":0.11890386932041962,"241":-0.157158497229524,"242":0.14059736419685662,"243":-0.08950023568289762,"244":0.238997923091873,"245":-0.28955793805390967,"246":0.061396051067211715,"247":-0.272162188873144,"248":-0.02388669564474134,"249":-0.25273560856238075,"250":0.08340777352878866,"251":-0.1773575896557004,"252":-0.10700794460627294,"253":0.14310074730339306,"254":-0.1001497454319374,"255":0.09121543327037022,"256":0.09207586939390977,"257":-0.3572535371059195,"258":0.05675278702048019,"259":-0.415734918993676,"260":0.0986292866179176,"261":-0.8568605942463138,"262":-0.005726885174101461,"263":-0.5163174044049502,"264":0.05254345761109716,"265":-0.3186979195075345,"266":0.10509973279267144,"267":-0.243497290515817,"268":-0.12494888083190596,"269":0.03805759942893358,"270":-0.020042068272302205,"271":0.17071419340096122,"272":0.2772523144719514,"273":-0.3670214962498048,"274":0.04559319605224916,"275":-0.5109497443619558,"276":-0.10773035149186837,"277":-0.6696914239907947,"278":-0.040741284138518165,"279":-0.32919666275901904,"280":0.20795491429446378,"281":-0.033949565412915085,"282":-0.08751321731344729,"283":-0.15286811046103727,"284":0.05496039326452439,"285":-0.03256140264604596,"286":0.08311360902073045,"287":0.3038267000316542,"288":0.21053459318338358,"289":-0.2996779060441719,"290":0.025430168263602077,"291":-0.4282138371442274,"292":-0.11931940262302711,"293":-0.5057366201346211,"294":0.16272813184036972,"295":-0.15820562764723708,"296":0.042900017267195376,"297":-0.07945792793912745,"298":-0.01638365451082763,"299":-0.03548020781472747,"300":-0.02997187543378535,"301":-0.04663185448641476,"302":0.019993900396303305,"303":0.07074485162221515,"304":-0.027840304898511675,"305":-0.0406882869838606,"306":0.04189259047910588,"307":-0.25294902919666606,"308":0.17843497054525237,"309":-0.1566998532417311,"310":0.06685811632236419,"311":-0.05917183050487471,"312":0.09614044139779745,"313":0.019045006058156608,"314":-0.08042666058519703,"315":0.04856913307943522,"316":-0.1567288959165373,"317":-0.19626344819090863,"318":0.17122141424988807,"319":0.0009481089179878689,"320":0.22676569631731405,"321":-0.16783768827079487,"322":0.014566513522915296,"323":0.0037342644013662295,"324":-0.0868648724799777,"325":0.3983646588913662,"326":0.15090141848809488,"327":0.19755853673965357,"328":-0.003438297001185613,"329":-0.18195347749871796,"330":0.1964234867496326,"331":-0.05216458189724921,"332":0.1379432936145037,"333":0.1742886698258582,"334":0.05144843590404662,"335":0.1471102062736333,"336":0.06825749144943821,"337":-0.27057983066631797,"338":-0.023497911328999706,"339":0.06522035597875678,"340":-0.016122104978269717,"341":-0.30287357461668235,"342":0.030739590379486655,"343":-0.20619336056091583,"344":0.10534017376287926,"345":-0.20742562755659746,"346":0.20790735399237653,"347":-0.2493345847289053,"348":-0.24088063398472429,"349":0.09914117633486122,"350":-0.12359295204929,"351":0.03246210081926046,"352":0.07914252330914516,"353":-0.21888471446051463,"354":0.1494122546830315,"355":-0.5421191500741135,"356":0.1023139401921333,"357":-0.2579557222361521,"358":0.14155119794022114,"359":-0.20523334512624908,"360":-0.024354817786264193,"361":-0.31412420458211576,"362":0.08121723324503027,"363":-0.16126766495298872,"364":0.06223329928737942,"365":0.11622762884045747,"366":-0.2076685821846302,"367":0.050213410441132374,"368":-0.0728348421079629,"369":-0.20207801400488654,"370":0.0901233892644852,"371":-0.47599047523082566,"372":0.07455858008405271,"373":-0.055913432301220756,"374":0.012499259305598306,"375":-0.2690936254074419,"376":-0.13841857338056743,"377":-0.28934987013361096,"378":-0.027265466953621274,"379":-0.20925225830001032,"380":-0.01595858540625582,"381":0.18157534494497762,"382":-0.11925422579994074,"383":0.012005054963572098,"384":-0.02635837102759022,"385":-0.08317884465052912,"386":0.14967373504455211,"387":-0.547093005727897,"388":0.19289759566611198,"389":0.05370855518058762,"390":0.06417377589071599,"391":-0.3049003169788401,"392":-0.04702928945545064,"393":-0.029236175007479246,"394":-0.06540531996539925,"395":0.07842430470658932,"396":-0.11827894660946006,"397":0.006671119418746578,"398":-0.09560394847288327,"399":0.23461297579254392}},{"sx":5,"sy":5,"depth":16,"w":{"0":0.11380369946672798,"1":-0.092581365141617,"2":0.19251760066343324,"3":0.10144397639022945,"4":0.10599622450672187,"5":-0.26620006100825727,"6":0.0898311082718312,"7":-0.00992383608535099,"8":-0.01754972101915694,"9":-0.24165732571653786,"10":-0.07197647242672454,"11":-0.18270664712833565,"12":0.20605211468719917,"13":0.5378490542510523,"14":0.22201543902224588,"15":0.08315866208463164,"16":0.09879546583158356,"17":-0.362036838744845,"18":0.12093706245796626,"19":-0.1381000314660597,"20":0.15171283456097448,"21":-0.42448871703785657,"22":0.09120526425993872,"23":-0.11454983445550945,"24":-0.1836075225405826,"25":-0.38724896127378294,"26":-0.11922510859831513,"27":-0.10159309000710569,"28":0.16184557274237235,"29":0.5210974125404333,"30":0.27563146224599916,"31":0.13332101718284828,"32":0.23272883851621404,"33":0.0030354307984819186,"34":0.2014417056277074,"35":-0.32772661952893917,"36":0.21290468857117306,"37":0.05791923240092367,"38":0.029525545713439117,"39":-0.04306913388262208,"40":0.05024885275627463,"41":0.021117578142394428,"42":0.1523694964670301,"43":-0.11318281531398407,"44":0.15365731593628282,"45":0.008714337317802108,"46":-0.0446794858282094,"47":0.29534627551057246,"48":0.06154340377075657,"49":0.05597100790150711,"50":0.1817395062230355,"51":-0.25947399534505433,"52":0.08575366421478105,"53":-0.186384839598768,"54":-0.010624875790921673,"55":-0.04092771538454727,"56":-0.03384750412375857,"57":-0.21060618367603814,"58":0.039990134822694444,"59":-0.21750821225122544,"60":0.00904895433491059,"61":-0.2535472815653896,"62":-0.2187351904336611,"63":0.20868108600414395,"64":0.16044826967063086,"65":0.10073845745750849,"66":0.08337789791216367,"67":-0.001976680908827232,"68":-0.08637808241201542,"69":0.05620356136863459,"70":0.19175970406035303,"71":-0.04306183405735862,"72":0.03274431009429539,"73":-0.06606698440105982,"74":-0.12628213048536416,"75":-0.17177980142629365,"76":0.034479488741642576,"77":-0.08471444249821818,"78":0.12341082507182226,"79":-0.1787766628920901,"80":0.28605676216898357,"81":0.22931792797021253,"82":0.08776675202359757,"83":0.007518557818956246,"84":0.006620086705087161,"85":-0.2732113840004701,"86":-0.10621978283529418,"87":-0.3561233812690602,"88":-0.19620848182594414,"89":-0.25901457809902473,"90":-0.026857741186519735,"91":-0.09991505528664982,"92":0.2094024098977461,"93":0.3179890961674267,"94":-0.07033657898536415,"95":-0.39026629956052256,"96":-0.04851075404061149,"97":-0.27435055434616656,"98":0.06723878016466735,"99":-0.1394020588220327,"100":0.11251727566906047,"101":-0.4018572219273729,"102":-0.06009507890404151,"103":-0.19981843558115409,"104":-0.10940698699207685,"105":-0.3157795298886914,"106":0.10330388592738012,"107":-0.28960911846096954,"108":0.19820259420589664,"109":0.21141599628233693,"110":-0.07545707591405643,"111":-0.303698147163472,"112":0.03341981909028703,"113":-0.020974245840170623,"114":0.034842010406643906,"115":-0.16670222828549844,"116":0.19085732593102317,"117":-0.20765953140985527,"118":0.1137944944495301,"119":0.01712086236112119,"120":0.13767700162979296,"121":-0.023809083739610645,"122":0.10972457226687522,"123":-0.19280130570238763,"124":0.08077136936263919,"125":0.048631499405555355,"126":0.12550213222721834,"127":-0.10809465073525049,"128":-0.08629569064725987,"129":-0.19437227046381922,"130":-0.04355905239501957,"131":-0.3930106551954278,"132":0.10445538546023919,"133":-0.3390237477486082,"134":0.12500879126704922,"135":0.07581696597484339,"136":-0.026626338533987017,"137":0.15428350407596464,"138":0.13801695345751713,"139":-0.39857469697142256,"140":-0.3100819838363714,"141":0.025037983522734664,"142":-0.17911148429905144,"143":0.13031542757588424,"144":-0.05577062500878625,"145":0.11506050078868615,"146":-0.07100692146254067,"147":-0.11927998564584386,"148":-0.1357084570478507,"149":-0.24067511525728733,"150":0.08990231211515697,"151":0.24413623039944524,"152":0.17345267701909534,"153":0.043722293567221945,"154":-0.05814343702324719,"155":-0.38768162744007667,"156":-0.1348985612536359,"157":-0.2842022738486602,"158":0.07271748334164899,"159":0.10702746089140479,"160":0.14439083094496308,"161":0.4556119284828806,"162":-0.10461643744506052,"163":0.05664898853811334,"164":-0.14842530143492366,"165":-0.07150889714930539,"166":0.08571850650037557,"167":-0.3528279596546848,"168":-0.033557477413865215,"169":-0.0773091192695195,"170":-0.19716088512724808,"171":-0.012442468279144766,"172":0.04824156787432999,"173":0.06514533976547286,"174":-0.17109685004655967,"175":-0.19016491863464674,"176":-0.055581679291851455,"177":-0.14872605036962305,"178":-0.044146685908810275,"179":0.39172472618319887,"180":-0.18037816973387738,"181":-0.07053101917360823,"182":-0.07753911768253291,"183":-0.26112611585509565,"184":-0.08048975046671639,"185":-0.2715609454840144,"186":-0.047296447099563516,"187":-0.15912556290731483,"188":0.07913610807845008,"189":0.1120494680800485,"190":-0.07197468802457604,"191":0.06096611981092358,"192":0.16642738771541993,"193":0.04987128557889171,"194":0.02833853513439091,"195":0.14036068332347174,"196":-0.07625741677065205,"197":-0.042588725802686196,"198":0.011922582655201868,"199":0.04491264902688591,"200":0.2133345235826822,"201":0.22296392822708624,"202":-0.005671821667716466,"203":-0.07177219259430345,"204":0.0021497325151903657,"205":0.07929145878120807,"206":-0.14020434648927246,"207":0.5096135502943001,"208":-0.05681284140249902,"209":0.018947174809166252,"210":0.042016989885007586,"211":-0.11696316867129217,"212":-0.10393196276382341,"213":-0.18357653860401874,"214":0.047296577758480264,"215":0.05861314464799943,"216":0.16811052016251454,"217":0.1683132054256538,"218":0.05762838560646184,"219":-0.030227377762297194,"220":-0.33172975024228635,"221":-0.04717623346803787,"222":-0.00296178282311468,"223":0.19279730138863102,"224":0.0036146031408395046,"225":0.12862019638305036,"226":-0.2206962919092798,"227":-0.09533948181402484,"228":-0.14482378051125272,"229":-0.08924466331077614,"230":-0.046772323093768366,"231":0.1131135282329483,"232":-0.0344734586626564,"233":0.404351746155395,"234":-0.030083662141559726,"235":-0.04639481273948712,"236":-0.37463713961435274,"237":-0.2745010346388941,"238":0.11535277861217735,"239":0.0794873809356973,"240":-0.22740407123901393,"241":0.2285704170367267,"242":-0.2395868606484495,"243":0.1347155516392002,"244":-0.13686460505472703,"245":-0.015860716088439256,"246":-0.2500852034338746,"247":-0.11009484638055955,"248":-0.10026988132587175,"249":0.05506222819432331,"250":-0.22770365320163768,"251":0.35728597899050096,"252":0.07898843816856169,"253":-0.04365725240372713,"254":-0.09100036440116821,"255":-0.03646042420318014,"256":-0.20241967088440832,"257":-0.2917504574202394,"258":-0.3114907657500063,"259":0.2388037213184494,"260":-0.30550380854372505,"261":-0.08550183074854201,"262":-0.15519064018029638,"263":-0.06208997167429791,"264":-0.28267884987845404,"265":-0.20676397596123325,"266":-0.18056656449643443,"267":0.24963291477589672,"268":-0.2757587530626258,"269":0.11189402315346172,"270":0.15452990529873273,"271":0.062156096363956144,"272":-0.09737656040527251,"273":0.0568726325493357,"274":-0.10370106542386696,"275":-0.03328134548004424,"276":-0.21008684006183218,"277":-0.07166090297164691,"278":0.02032828914152562,"279":0.17535445583955106,"280":-0.39081117493747203,"281":0.2689396957064276,"282":-0.2585657978624984,"283":0.29649894395245685,"284":-0.4508853004011381,"285":-0.051394967531243826,"286":0.08042361778571326,"287":0.0770899763785671,"288":-0.0928942287723407,"289":-0.0311374071672549,"290":-0.05774938302579068,"291":0.28118297841972684,"292":-0.2894923887581594,"293":-0.07014896466532054,"294":-0.07832367883768533,"295":-0.023195381566869188,"296":-0.35886993261283767,"297":0.14841461506435694,"298":-0.20798744719739629,"299":0.10885869575918708,"300":-0.3421147188674233,"301":-0.30525594547316787,"302":-0.008701750737478782,"303":-0.17173573001943382,"304":-0.053564398933728115,"305":0.05488737791226355,"306":-0.12279990003432101,"307":0.004435116093650911,"308":-0.15784795638775945,"309":0.012292609484174665,"310":-0.17405651598232355,"311":-0.039952601999003606,"312":-0.32582559636252184,"313":0.3469917033004513,"314":-0.16617834234458898,"315":0.25146666191913486,"316":-0.24182257860554346,"317":-0.052945281321478646,"318":-0.019170197395947816,"319":-0.19262722922423245,"320":-0.34735004315386664,"321":0.13755768024528864,"322":-0.27681805650407787,"323":0.2398345133161407,"324":-0.17144897261724992,"325":0.16031518904487316,"326":-0.07996795622093228,"327":0.028151208964224857,"328":0.01681727269364058,"329":0.14958233726708986,"330":0.00673551920221836,"331":0.3107044204463613,"332":-0.2921591177463202,"333":-0.1646874708498068,"334":0.05286842506797101,"335":-0.15330834562424958,"336":-0.15673628258355699,"337":-0.1343544213452577,"338":-0.25341295954459286,"339":0.03297577823093809,"340":-0.28477297412316843,"341":0.14061418105150067,"342":0.055821653914100905,"343":0.1358601621987199,"344":-0.18008451253172017,"345":-0.16810723370887798,"346":0.11668180440299838,"347":0.38029416839077523,"348":0.019744970538521096,"349":0.47111336384111396,"350":-0.019113596515905364,"351":0.17933700956865872,"352":-0.1656748617192121,"353":-0.02688554573328975,"354":-0.17351252121504493,"355":0.006293332211912909,"356":-0.1493238187362472,"357":0.09267222199296846,"358":-0.03098557165259068,"359":0.15344403758023095,"360":-0.15292443993169516,"361":0.049277043629593946,"362":0.026704116730176603,"363":0.2909961318934751,"364":-0.13903184957455011,"365":0.12076710084815376,"366":-0.1382373611133063,"367":0.12226373075250697,"368":-0.17314901336309024,"369":-0.030657742116569745,"370":-0.06000998037282944,"371":0.14208199087626341,"372":-0.17031603996952605,"373":0.16138883158613235,"374":-0.08791596552447534,"375":0.059746394640181257,"376":-0.06141612800398632,"377":-0.029093898235058147,"378":-0.04146695964205373,"379":0.14260745502510416,"380":-0.13824974422581465,"381":-0.3587798539189716,"382":-0.1484452971154944,"383":0.09316460518428017,"384":-0.09551007557954662,"385":0.10611621283930145,"386":0.02175491390029158,"387":0.2394580707594117,"388":0.1427188651101934,"389":-0.022038559707918997,"390":-0.1361699266120051,"391":0.14446523824269975,"392":0.018444442259417774,"393":0.07456072587498504,"394":-0.050511474128104215,"395":0.0628775551780744,"396":-0.4282636114145342,"397":-0.20149518789139942,"398":-0.07669338243933921,"399":-0.22561058712072618}},{"sx":5,"sy":5,"depth":16,"w":{"0":0.17876615904734824,"1":0.14960671477856202,"2":0.1865523145222856,"3":0.053966830266325407,"4":-0.19142264970210623,"5":-0.19266258568771155,"6":0.1765464532293479,"7":-0.09425320130411427,"8":0.012054773757344671,"9":-0.18741716813804346,"10":0.32068216477810935,"11":0.21262907153899455,"12":0.024712950965986694,"13":-0.1404267422448246,"14":0.16851007735245138,"15":-0.3723699070376847,"16":-0.2969878567149984,"17":0.03788630915128774,"18":-0.10223234544283469,"19":0.355950171816317,"20":-0.2682029911090549,"21":-0.190600274289189,"22":-0.12069784468912871,"23":0.07538490847489694,"24":-0.04317967845167819,"25":0.15241679476648595,"26":-0.05341971528172128,"27":-0.16577457079800956,"28":-0.4134803083204969,"29":-0.04741023147688799,"30":-0.09422031296073026,"31":0.08352568578599633,"32":-0.07393948709423095,"33":-0.02557619013874704,"34":0.007862253030439038,"35":0.08454068451125986,"36":-0.1600793576156576,"37":-0.1294112075626688,"38":-0.349148632950957,"39":0.1823744640681425,"40":0.2411867952337229,"41":0.15836610092361822,"42":-0.3954153384017643,"43":-0.15192792362625918,"44":-0.1266546291640521,"45":0.043067453746309506,"46":0.292201013104517,"47":0.15172115385611779,"48":0.1385393951863711,"49":0.26868669068267037,"50":0.05964707070196503,"51":-0.0997987432236515,"52":0.15329010256349662,"53":0.04545950354028182,"54":-0.045483200218182814,"55":0.05076572556265653,"56":-0.09993330725480724,"57":0.02123373008716713,"58":-0.0032994676957497898,"59":0.1408280533876351,"60":0.14827613252517113,"61":0.3679765656504532,"62":-0.15574893077953178,"63":-0.17780042184355946,"64":0.22042410580470523,"65":-0.001221881390659925,"66":0.14015427514812462,"67":-0.073456147514031,"68":0.30263903004644727,"69":0.1258652946434086,"70":0.10209691783158091,"71":0.07052244507259701,"72":-0.028128790466059903,"73":0.3150618570071053,"74":0.11995672377364816,"75":-0.19776442883062018,"76":0.17959251392646028,"77":0.33411396939058685,"78":-0.13247161707603858,"79":-0.03781345970939327,"80":0.03839457686174684,"81":0.1864707246747587,"82":-0.004307337054496042,"83":0.11210065998078175,"84":-0.21918129834902067,"85":-0.09590536284166384,"86":0.2765722541924066,"87":-0.1836798780140457,"88":-0.06537880220223467,"89":-0.23608514379896153,"90":0.2081513841410797,"91":0.10214304024441431,"92":-0.26580591869190234,"93":-0.09941649092025334,"94":0.26726166188632305,"95":-0.41171035510026716,"96":-0.08785982586917647,"97":-0.004796238049273918,"98":-0.16914744860765654,"99":0.37329942188157583,"100":-0.3343672138973693,"101":0.01716076733019551,"102":-0.05470689226233512,"103":-0.17375232803048463,"104":-0.22951751229514544,"105":-0.03443076651430635,"106":0.11688276182852272,"107":-0.18884025578636987,"108":-0.6687356050713266,"109":-0.38405387042834727,"110":-0.08189757405657393,"111":-0.2867440133362061,"112":-0.16963334990160425,"113":-0.1027308203755898,"114":-0.21335181575333148,"115":0.1522804100439989,"116":-0.41565416552998935,"117":-0.07317198452500824,"118":-0.11345223408319804,"119":-0.1749684011400965,"120":0.13412813750078734,"121":0.12006911736323685,"122":-0.28139209570693746,"123":-0.13663945274427478,"124":-0.46213565538524526,"125":-0.5192600255768545,"126":-0.26365467549646615,"127":0.21340553444247778,"128":-0.052979469441442245,"129":0.01046615955691665,"130":-0.12047636684603427,"131":-0.17404348593475288,"132":-0.2626399725394157,"133":-0.12767428182385263,"134":0.05690031071632961,"135":0.11203937630424984,"136":0.24248558098157252,"137":0.04836981638276109,"138":-0.04216724706319042,"139":0.044448570601291634,"140":-0.10250138970046899,"141":-0.23548951220176823,"142":0.14055159486033234,"143":0.21216694303222497,"144":0.23155060813687073,"145":-0.13347936518301431,"146":0.006074605829092543,"147":-0.17203825910433526,"148":0.024354485632220105,"149":-0.24935179390071008,"150":0.07331443130323079,"151":0.02334071840220565,"152":0.10977498820539315,"153":-0.06511735139819878,"154":0.31250310762055783,"155":-0.028572604834914774,"156":0.07301994886630071,"157":0.3365458228975869,"158":-0.2620800005027172,"159":0.10137301888095646,"160":0.003057942838262212,"161":0.03825413561195049,"162":0.10484373374584104,"163":-0.025935963312931153,"164":0.07449027233568896,"165":-0.0034812870451692455,"166":0.178364516654508,"167":-0.09091072428256268,"168":-0.03191058772624481,"169":0.010184497882984072,"170":0.09126423978874548,"171":0.1606267761333186,"172":-0.17402570232319597,"173":0.39317720886870205,"174":0.406827801801508,"175":-0.12067722295896953,"176":0.0013498488249313399,"177":0.14709157501686318,"178":0.06853583267741058,"179":0.24658315320080593,"180":-0.36221347264545806,"181":-0.02946686138450605,"182":-0.2850033697568667,"183":-0.09309036573617756,"184":-0.104917296614482,"185":-0.20922413313576968,"186":0.1408395768742852,"187":-0.1133485416453204,"188":-0.44745008270330233,"189":-0.3831044527621723,"190":0.24245951647455263,"191":-0.42009906377273126,"192":0.10452269703807357,"193":-0.0659021377727486,"194":0.017595144925061222,"195":0.15593373157108656,"196":-0.4136222796979438,"197":-0.0876235705337675,"198":-0.13881038508853044,"199":-0.33800010179874906,"200":-0.17700614701095171,"201":0.12974426383556975,"202":-0.2578476839284335,"203":-0.1793029070203498,"204":-0.4604543159423457,"205":-0.5447352046912157,"206":-0.31137038404652856,"207":-0.059213144305440786,"208":-0.04104143523240555,"209":-0.17490959144976456,"210":-0.16162059682241198,"211":0.07153580723042886,"212":-0.4500445801552551,"213":-0.006034159281212154,"214":-0.16905583851743997,"215":-0.20012586332988747,"216":0.10611845161936988,"217":0.17051876671542698,"218":-0.15342849022820865,"219":-0.0508365752762565,"220":-0.18165695868923,"221":-0.34296647535138036,"222":-0.0701394216928164,"223":0.3890006596302105,"224":0.19790517730849835,"225":-0.26033715338099567,"226":0.014273453625493678,"227":-0.2583804305476622,"228":-0.24575797179102973,"229":-0.028455118792338998,"230":-0.05411179720063475,"231":0.12649527096708152,"232":0.1693924345708367,"233":0.06818730748215455,"234":0.055741252626422905,"235":0.014293558054512602,"236":0.0698725318359593,"237":0.020631546547886778,"238":0.03776484478056546,"239":0.10876192849425045,"240":0.027447254592654995,"241":0.006152838651917286,"242":-0.08451814400637347,"243":-0.06138265111416368,"244":0.15311733545596548,"245":0.05394412619796239,"246":-0.04276880730969836,"247":-0.09034408022696251,"248":0.16335894466112927,"249":-0.07121601244793584,"250":-0.07822703344992148,"251":0.2655049697000375,"252":-0.10616232564909216,"253":0.11305255355636383,"254":0.09874353995346183,"255":-0.15834443304192475,"256":-0.17818369355806257,"257":0.10815250096394843,"258":-0.06626442619727767,"259":-0.0065578802009866955,"260":-0.32802755221275764,"261":-0.07399704381567089,"262":-0.25484704475239395,"263":-0.013034184417892171,"264":-0.023257060156976518,"265":-0.02194670861375887,"266":0.06009396821585516,"267":-0.22406416904551127,"268":-0.27521885502883375,"269":-0.2825601280633711,"270":0.0249150477675783,"271":-0.18470938423344527,"272":0.014654888425988489,"273":-0.04194754789899764,"274":0.018037760275253497,"275":0.012421255474807014,"276":-0.3504769084779667,"277":-0.05601118837360321,"278":0.027354799450069817,"279":0.04322093026216033,"280":-0.1273786220785114,"281":-0.19619949746998902,"282":-0.14704276516582912,"283":-0.10049185045331094,"284":-0.34656979253315306,"285":-0.4240801051981633,"286":-0.27703217179484346,"287":-0.23842029959974503,"288":-0.07559725908377056,"289":-0.008747610558750184,"290":0.046742842185595206,"291":0.11791075924260117,"292":-0.3550180263241382,"293":-0.027661093919699124,"294":-0.1883972556923026,"295":-0.17875075061010745,"296":-0.11609661762950108,"297":0.02110810484119516,"298":-0.18077806552029863,"299":0.06429185136116274,"300":-0.21252547805971145,"301":-0.2855505780035283,"302":-0.2305903579620506,"303":-0.1474867856797111,"304":0.0019724334131178967,"305":-0.17500143095018308,"306":-0.01949844100075291,"307":-0.1789664970618481,"308":-0.12675219350917968,"309":-0.0841641934826726,"310":-0.11145088713099316,"311":-0.02665176997440202,"312":0.11197099393570012,"313":-0.08816163003762444,"314":-0.2109905319844695,"315":0.21469984242740028,"316":0.09150501811767711,"317":0.07164259385686593,"318":0.10438610180141335,"319":-0.09298596918675134,"320":0.1240792642741945,"321":0.15560703217522165,"322":0.16828635144465376,"323":-0.12684009629356122,"324":0.26415597961601145,"325":0.10061088928766518,"326":-0.06341266584484916,"327":-0.08949912203264476,"328":0.07146357162325394,"329":0.13821958715869395,"330":0.03356848039065173,"331":0.13052072646395904,"332":0.04062774689679112,"333":0.07882286094736388,"334":0.23730963459402524,"335":-0.07853587872008218,"336":-0.0166163313159504,"337":0.21775345989440356,"338":0.30627809386829946,"339":0.09723173027839893,"340":-0.15671664234601054,"341":-0.08670623552046329,"342":-0.11561189561536107,"343":0.07950431148612236,"344":0.03839476165444106,"345":0.3064843235454555,"346":0.0186037549296711,"347":-0.20928502871225727,"348":-0.1647561427773387,"349":-0.129600753870963,"350":0.09689330493041323,"351":-0.050313768561511284,"352":0.04413663319930444,"353":-0.005798543768523958,"354":0.18209894707141375,"355":0.08026439540943783,"356":-0.043109752439609884,"357":0.15902080965540757,"358":0.20726649225806926,"359":0.16462107974657628,"360":-0.04317458946295703,"361":0.0026098902767205737,"362":-0.042699025288738694,"363":0.09583139104789615,"364":-0.05125098468294221,"365":-0.08611376323390905,"366":-0.14455934813659788,"367":0.17663582647783457,"368":0.10747973233550413,"369":0.08823251065573282,"370":0.07418095812329417,"371":-0.06476953827940625,"372":-0.20454432684700974,"373":-0.17288393009561143,"374":0.05938870106372777,"375":0.009670565150373546,"376":0.10801657565325151,"377":-0.08427050042344493,"378":-0.15234201987631457,"379":-0.10510937571718261,"380":0.09330347564048812,"381":0.1299402992629828,"382":-0.13616239559896057,"383":-0.002628504780378959,"384":0.17774496548928134,"385":0.2046784525705732,"386":0.21865749509515756,"387":-0.2639662001441538,"388":-0.042460495608238225,"389":-0.11094636482603996,"390":0.10848536761052593,"391":0.056284365043334034,"392":0.32334886280290914,"393":0.0997520809074459,"394":-0.09183989622014578,"395":-0.047532157568886735,"396":0.13042613245292403,"397":0.0733953437481499,"398":0.09013290175832535,"399":0.22923143014242092}},{"sx":5,"sy":5,"depth":16,"w":{"0":-0.03328610958293181,"1":-0.17146131375890436,"2":-0.028145646236735794,"3":0.07559168215320863,"4":0.0421074302205632,"5":0.1436149922498011,"6":0.3159947994105635,"7":-0.24377582363183892,"8":-0.039854873546297645,"9":-0.377318388703255,"10":-0.013953929426223489,"11":-0.13329811993192556,"12":-0.07571676655041361,"13":-0.07313441797025522,"14":0.09868235472024747,"15":0.04735165020816759,"16":0.1741360079721808,"17":-0.2853144174508488,"18":0.2983290745264057,"19":-0.22146030098601874,"20":0.18500134579064761,"21":0.32717576889633043,"22":0.26884185127606847,"23":-0.3273023893794014,"24":-0.0075736446354101785,"25":-0.2386884347506475,"26":0.029533334548485796,"27":-0.1485091167833114,"28":0.03555600862422398,"29":0.07976823545574949,"30":-0.05177418518972838,"31":-0.048053362462382454,"32":0.10624299766254057,"33":0.28167403235110955,"34":0.10228078938527643,"35":-0.0368274932884803,"36":0.08552915316016374,"37":0.22539478003576618,"38":0.24350258840378558,"39":0.029652501425672648,"40":0.13781013551262575,"41":0.3444696536388174,"42":0.0965753189033725,"43":-0.17488520286058382,"44":-0.21346256675957076,"45":-0.1405962114178023,"46":-0.0888173647152421,"47":-0.06102960320303997,"48":-0.09557916662364008,"49":0.11895993724629324,"50":-0.20103246300655137,"51":0.14456479298421812,"52":0.03589728322482281,"53":0.28956239657433414,"54":-0.2652754608170113,"55":0.03811954944260225,"56":0.04314018868705934,"57":0.2577926127820868,"58":0.007753826259982462,"59":0.06703340059624671,"60":-0.20768585940263146,"61":-0.27808061201284,"62":-0.08760644454634678,"63":-0.3017607899464008,"64":0.03479497432538662,"65":-0.08376010379307904,"66":-0.24030068875671207,"67":0.2012056596589164,"68":-0.020719652618214242,"69":0.018637440597738,"70":-0.17087625288832176,"71":0.066902940431268,"72":-0.041252122484951984,"73":-0.1246878769109994,"74":-0.006959707274417676,"75":0.543986448085457,"76":0.00910282771490996,"77":0.020981013315223996,"78":0.3770121050030348,"79":-0.24647710647616494,"80":0.02252979666957226,"81":0.047664169961043626,"82":-0.011078880258999259,"83":0.05639956752131617,"84":-0.029625579003871153,"85":0.27240342119517075,"86":0.0934531676945584,"87":-0.13721194553925595,"88":-0.15282353017256847,"89":-0.07247904220027707,"90":-0.03173507925384413,"91":-0.22699343639385938,"92":-0.07158688747746163,"93":0.08048320468789541,"94":-0.15459536103535435,"95":0.05819803330984439,"96":0.08115738026515384,"97":-0.12829167256740576,"98":0.07774063864186942,"99":-0.1758003912079106,"100":-0.026252033238767878,"101":0.20547049526723907,"102":0.1691958415771919,"103":-0.28738903949143485,"104":0.12198336916472145,"105":-0.12987379471860436,"106":0.01865374236562215,"107":-0.29938226403460466,"108":0.12991937879531446,"109":0.1470183893856743,"110":-0.15519707806069535,"111":0.1660374838827534,"112":-0.10349188566164019,"113":0.0447439338055314,"114":0.18025578903787498,"115":0.0837592022815972,"116":0.1066129080446365,"117":0.27759586227073135,"118":-0.05327700882434355,"119":-0.1632361930185368,"120":0.10924632508935518,"121":0.28788809924995507,"122":0.12383883539237743,"123":-0.33712054321002405,"124":-0.20884176241529803,"125":-0.04414111873673071,"126":-0.1667997531571312,"127":-0.2077622105201399,"128":-0.06443091158487504,"129":0.13635155920522163,"130":-0.08057801363160702,"131":0.17323507063532786,"132":-0.25482485523974213,"133":0.2035423685130339,"134":-0.22691211302799202,"135":-0.3329595878460341,"136":-0.20121297299629146,"137":0.15924088890612284,"138":0.014604836623011657,"139":-0.2700277083907708,"140":-0.5545243590206956,"141":-0.5083024392870724,"142":-0.13232446824304742,"143":-0.49362036065752485,"144":-0.12010793781854875,"145":0.055602930858923386,"146":-0.10480230466275894,"147":0.3538540166778553,"148":-0.09621177158261081,"149":0.19304195211523859,"150":-0.2314131320045235,"151":-0.010327165334487142,"152":0.05543701580742966,"153":0.19571234578581717,"154":-0.0789334274576313,"155":0.02186703714631959,"156":-0.2837606200886292,"157":-0.15429025726619386,"158":0.054890843012376164,"159":-0.1322443262596491,"160":0.0772943509007525,"161":-0.1291380540003196,"162":0.0386350481629733,"163":0.08686927001308883,"164":0.024127418489604265,"165":0.1644450072974106,"166":0.08843324620100775,"167":-0.08247532678293769,"168":-0.14875550505531135,"169":0.12127599271879166,"170":-0.027551437368815594,"171":-0.4126291275444948,"172":0.059268907733341925,"173":-0.05842614940734163,"174":-0.21843263794129908,"175":-0.033810798545176275,"176":0.063462355709592,"177":-0.31309703355081875,"178":0.4008420921160335,"179":-0.07237876680443105,"180":0.15949571369913226,"181":0.24066413264501815,"182":0.0019926079690174023,"183":-0.23384948520939874,"184":-0.06906715387270766,"185":0.05822921363746317,"186":-0.03010672987741874,"187":-0.35578440818219165,"188":0.019361017109884478,"189":0.18030957974064726,"190":0.08143139068199913,"191":-0.0728891443262346,"192":-0.07713955960041578,"193":0.09258504321342347,"194":0.33665154224021976,"195":-0.14249011921830118,"196":0.051560232853482255,"197":0.253903659077351,"198":-0.12911648769991674,"199":-0.07888429678132763,"200":-0.23889084225934742,"201":0.20294628993277458,"202":-0.22464978898995866,"203":-0.5090206835989606,"204":-0.17223657735658485,"205":-0.0542833879829299,"206":-0.09269119162031038,"207":-0.19625478652714984,"208":-0.05014974537659811,