{"layers":[{"out_depth":3,"out_sx":32,"out_sy":32,"layer_type":"input"},{"out_depth":10,"out_sx":1,"out_sy":1,"layer_type":"fc","num_inputs":3072,"l1_decay_mul":0,"l2_decay_mul":1,"filters":[{"sx":1,"sy":1,"depth":3072,"w":{"0":0.05072334157510943,"1":0.09560913075939914,"2":0.1263228205638996,"3":0.08433551609410204,"4":0.14038873786212341,"5":0.09632079042111148,"6":0.08749758079043071,"7":0.058118287181132426,"8":0.09987133852604381,"9":0.05312711669324523,"10":0.06915706978190803,"11":0.10949749481611046,"12":0.07632931547151695,"13":0.03225187444385016,"14":0.09039901874023994,"15":0.14405898542426754,"16":0.11075387661924843,"17":0.1126172280284113,"18":0.12462223700241364,"19":0.14289652230022423,"20":0.1837805619526826,"21":0.08554607427386647,"22":0.13723674849049933,"23":0.16844364296467562,"24":0.04718339947027359,"25":0.06857378373934528,"26":0.06731636112420669,"27":0.050046512540132475,"28":0.014452706770081295,"29":0.051419126682804406,"30":-0.008176217023736618,"31":-0.002776411676621686,"32":0.04693156542431068,"33":-0.014829320647234445,"34":-0.03250238318456694,"35":0.021399681587942365,"36":-0.0639669452143039,"37":-0.05176896866915933,"38":0.040540711390875325,"39":-0.05599984507860342,"40":-0.007341036073461172,"41":0.027043657744308038,"42":-0.0011536221509680358,"43":0.012843887501540904,"44":0.06963118054113496,"45":0.014494637827178029,"46":0.02258546484867576,"47":0.12663357035943829,"48":0.045469954832391066,"49":0.03867670224368618,"50":0.14496540460571203,"51":0.06268801812100423,"52":0.03137183645265283,"53":0.1382410990682141,"54":0.04704259929293589,"55":0.03469920289422476,"56":0.09825597418671879,"57":0.06552598648214714,"58":0.02448397015277108,"59":0.11581380702535495,"60":0.016390015275271314,"61":0.02162327969931251,"62":0.06944775071975301,"63":0.068344656887068,"64":-0.00397332381744755,"65":0.10249619216721081,"66":0.10263135050692374,"67":0.0458382288982554,"68":0.1648354117932535,"69":0.05938853291783186,"70":0.032433872571053214,"71":0.0840694571201275,"72":0.09081902593713524,"73":0.012827829099668807,"74":0.10899092689029698,"75":0.05833118538833763,"76":-0.028044340735407444,"77":0.03416698085689496,"78":-0.02490545384225617,"79":-0.08960345295178665,"80":-0.017321866267023953,"81":-0.011829694374525378,"82":-0.10540767972099857,"83":-0.005488372299449702,"84":0.06336621422665341,"85":-0.03136478880924846,"86":0.043844225182642346,"87":0.0594015918731232,"88":0.023989795979228117,"89":0.08976902337298708,"90":0.077590939009223,"91":0.009040294127261018,"92":0.11711795803881922,"93":0.08555007867802744,"94":0.054883660775590724,"95":0.11555280475517034,"96":0.0340803110242582,"97":0.04703804073867387,"98":0.0616822595772862,"99":0.005208346080756792,"100":0.021925549075860744,"101":0.06927814512895074,"102":0.0482110229803985,"103":0.0391593410801161,"104":0.08308618611486555,"105":0.0020881498129256834,"106":-0.013910100061095705,"107":0.030232125395324074,"108":-0.011546511412979446,"109":-0.01414365431037974,"110":0.004720409746553257,"111":0.05671662401028854,"112":0.0012601144034542085,"113":0.07576764487624336,"114":0.031780203774802424,"115":0.031734581212426116,"116":0.1661355322950265,"117":0.05335407125510624,"118":0.08186393476634983,"119":0.1908046996082919,"120":-0.04666853640723588,"121":0.017856936971970154,"122":0.07829484940642126,"123":-0.1119849632995156,"124":-0.02695571516200574,"125":0.05739689859044874,"126":-0.11355437593234204,"127":-0.08437815546140097,"128":0.03687581903068726,"129":-0.03822460063462821,"130":-0.06754155978112264,"131":0.033797233541369084,"132":-0.0651550804265126,"133":-0.048253682263919975,"134":0.032837823222631166,"135":-0.03169070896185311,"136":-0.03403694678448875,"137":0.04699727101057218,"138":0.022586038543413255,"139":0.017565730216620227,"140":0.10167780288863153,"141":0.04882824104290072,"142":0.028935135965846657,"143":0.14047171812011439,"144":0.029934623931725066,"145":0.025902207807843608,"146":0.12599385048571124,"147":0.042640289780287284,"148":-0.031204259778067782,"149":0.12423654655061069,"150":-0.032250971454654456,"151":-0.019690670987380907,"152":0.06887528461340582,"153":0.07221873886564148,"154":0.05712459461196349,"155":0.14277464680003882,"156":0.027817032174652364,"157":0.011253653230142876,"158":0.14711829222971318,"159":-0.001030545793503461,"160":0.014468182212053616,"161":0.1658135546440715,"162":0.01462096809161948,"163":-0.01617306417031327,"164":0.1335576170498443,"165":-0.07295668551426102,"166":-0.047658673123707196,"167":0.03467992425350932,"168":0.03502489789567676,"169":0.012374737424836017,"170":0.09914107887784782,"171":-0.016234159073441914,"172":-0.05568488185230695,"173":-0.006314087173570819,"174":-0.07121074970099898,"175":-0.1911872237658007,"176":-0.09567799444602566,"177":-0.09292638729457577,"178":-0.15603564720514101,"179":-0.058461095997860875,"180":-0.017635818534470906,"181":-0.12824534879690644,"182":-0.009565428212864192,"183":0.015708763718399008,"184":-0.09262177869825983,"185":-0.014949653728227676,"186":0.015088179459743348,"187":-0.02542865424746683,"188":0.060127466350314705,"189":0.0825925134147352,"190":0.008741326288349307,"191":0.04592249913086243,"192":0.08907983772583175,"193":0.0928845983859703,"194":0.14942369227631444,"195":0.05688920242257565,"196":0.07504172627353846,"197":0.14648489075241292,"198":0.024692403632369353,"199":0.020996400970193996,"200":0.06277490945783408,"201":0.006942703138706045,"202":-0.05918420138167461,"203":0.03388234836816761,"204":0.03674961710943456,"205":-0.04072395679819965,"206":0.05479330646096149,"207":0.021345402063811393,"208":-0.05576521913930493,"209":0.06193162086986602,"210":0.02425748233578795,"211":-0.02170116329454356,"212":0.06814817594938069,"213":0.09201917032067103,"214":0.0568177837201131,"215":0.145376235262405,"216":0.022910578431231995,"217":0.025254815354914965,"218":0.08425252510717689,"219":-0.03947292736805586,"220":-0.0554562362691595,"221":0.048828317689312645,"222":-0.016431917978537366,"223":-0.009482256719313499,"224":0.1005537662576616,"225":0.04931820167201756,"226":0.008837998888081042,"227":0.11446498105457037,"228":0.012965277612476244,"229":-0.0408071468665126,"230":0.06248586041032496,"231":0.05280130568014192,"232":0.01222037829636792,"233":0.165260085322203,"234":0.07196706405308562,"235":0.038700137234581475,"236":0.21248343538708844,"237":0.04290413107020702,"238":0.04716407618158145,"239":0.172645398365003,"240":0.07635259984619061,"241":0.04710471954723054,"242":0.19540426594422158,"243":0.056249716902468834,"244":0.04387585508963569,"245":0.1508979565339079,"246":0.08669177263040329,"247":0.04174635120912917,"248":0.15684718194497618,"249":0.15195027587921217,"250":0.12844634433068233,"251":0.21520907005936854,"252":0.08117413396645212,"253":0.09783866889109799,"254":0.20153144163469844,"255":0.03261529641960206,"256":0.027747823389818932,"257":0.2173392247587456,"258":0.010554122244310392,"259":-0.005840167211813125,"260":0.14807283128985402,"261":0.030158198397127214,"262":-0.02210403487393056,"263":0.06984061953972354,"264":0.027677710369181915,"265":-0.04608212192719322,"266":0.08456994252863619,"267":0.00022752064921015237,"268":-0.08622051641667039,"269":-0.027009598408815047,"270":-0.016706282057793665,"271":-0.09240802943608933,"272":0.01393675764228976,"273":-0.06679659275751516,"274":-0.11516966098997554,"275":0.012167756115718272,"276":-0.06883356995126534,"277":-0.1196681234636893,"278":-0.04672996582888746,"279":0.0002659227818507079,"280":-0.047834635413229486,"281":-0.02244033248945858,"282":0.045570306091005944,"283":-0.01728755632009118,"284":0.05067857881108319,"285":0.05904449914823915,"286":0.006379820282137416,"287":0.03314690445447423,"288":0.17188798528198443,"289":0.19166829215548725,"290":0.2665733985882856,"291":0.1441624407007247,"292":0.11478387238977475,"293":0.1382855264165389,"294":0.0763845443924438,"295":0.044746364482955714,"296":0.10760730673324362,"297":0.04559918750268477,"298":0.011644153156463617,"299":0.07212939092034507,"300":0.03125552819424591,"301":-0.020585517712566125,"302":0.03922406517955982,"303":-0.0006563243109058304,"304":-0.09972760558179439,"305":-0.0002511674732375386,"306":0.021124222220791692,"307":-0.09107159783586986,"308":0.014265186625106636,"309":0.023214404294273475,"310":-0.06080017308130253,"311":0.08701481906132848,"312":-0.03119536694953953,"313":-0.09308856321862284,"314":0.08015030522618698,"315":-0.06535362641017665,"316":-0.06934965664581455,"317":0.0844428582670586,"318":-0.010622230062618924,"319":-0.06943655981935097,"320":0.059674634759017915,"321":-0.01631485828126199,"322":-0.07572182274146896,"323":0.08184148692619428,"324":0.006071676867340276,"325":-0.08891451850953999,"326":0.100092700940998,"327":0.08909745645723927,"328":0.016110079282927552,"329":0.12430605052966825,"330":0.04274793893968132,"331":-0.04274126200040309,"332":0.10110254330489854,"333":-0.0037351423734690702,"334":-0.08776108283310438,"335":0.07086158425379793,"336":0.004389956282577613,"337":-0.023223722720755686,"338":0.17491445866759742,"339":0.04312111921819631,"340":-0.030359987459289556,"341":0.15147561887527847,"342":0.03495708401660272,"343":-0.0073787550650085704,"344":0.13231891131548382,"345":0.05860962286367478,"346":-0.003329102249895863,"347":0.16605701341601864,"348":0.032854808697824006,"349":0.010532101599925871,"350":0.1908100171381017,"351":0.01733484657819105,"352":-0.0013463647865704829,"353":0.1896809262030553,"354":0.019258517468862157,"355":0.011188717976888422,"356":0.19006583343429556,"357":0.0053080455886610894,"358":-0.06428099252249939,"359":0.08124247928334985,"360":-0.04791572429945043,"361":-0.09320963245271503,"362":-0.002196332072234188,"363":-0.06650662593745967,"364":-0.18911911634838002,"365":-0.039902387899535124,"366":-0.01003451039532536,"367":-0.15165970145107716,"368":-0.023923095596974815,"369":-0.059126672522822006,"370":-0.16770262449794984,"371":-0.06413784986252459,"372":-0.09025796037396522,"373":-0.15056966165782737,"374":-0.04087018140118043,"375":-0.0016474490395311466,"376":-0.054811729619745404,"377":0.020216831175758294,"378":0.046795080910467225,"379":-0.01209279494681778,"380":0.07014183838261623,"381":0.04946697105936623,"382":-0.014759411073557558,"383":0.06579068332009731,"384":0.13895536219226579,"385":0.165285339163311,"386":0.19333274522552654,"387":0.09453381291596366,"388":0.07458415810952558,"389":0.10785818475193369,"390":0.06836100356111878,"391":0.056801302466021796,"392":0.10348253077797345,"393":0.02171609425286139,"394":-0.06783420341006208,"395":0.038347275531432114,"396":-0.07766537555746299,"397":-0.124026511314762,"398":-0.026612533822295996,"399":-0.0388571839777902,"400":-0.10132492024252893,"401":-0.016678860913532184,"402":0.04108888256820924,"403":-0.0676340977417772,"404":0.03579766571391116,"405":0.011613088358791617,"406":-0.13213521980237133,"407":0.030582296172494403,"408":0.013315320958796336,"409":-0.0816464959087145,"410":0.09894133819700908,"411":-0.057541987600899264,"412":-0.09700728286952792,"413":0.05321632663858331,"414":0.019303782692808587,"415":-0.049639958840893394,"416":0.07432627698078861,"417":0.0032755243797798995,"418":-0.10229992292188964,"419":0.10550179687145528,"420":-0.0068434370730784694,"421":-0.10772200116559288,"422":0.08165048175638555,"423":0.022591676594767858,"424":-0.09286879100529775,"425":0.12169924690916592,"426":-0.009704555939057667,"427":-0.10222857258796848,"428":0.06375246897748892,"429":-0.08652477477044954,"430":-0.19481307998219458,"431":0.03976512454308273,"432":-0.033434905155723574,"433":-0.14947906536694588,"434":0.04687812649450641,"435":-0.002912005790121436,"436":-0.1331729963404853,"437":0.030074835078997417,"438":-0.02511546826769188,"439":-0.08675463412762155,"440":0.09292231921094882,"441":-0.05374852732384041,"442":-0.12069680242193435,"443":0.1105124291582039,"444":-0.002925539054324931,"445":-0.1096924973254301,"446":0.10814100333895633,"447":-0.01310431082796497,"448":-0.07395800794709058,"449":0.14527850496250458,"450":0.0013230264948608916,"451":-0.07842226993794994,"452":0.13304556953786,"453":0.03427014798088808,"454":-0.05926493816681844,"455":0.11883776846224746,"456":0.008549759908157612,"457":-0.10025466747358079,"458":0.02366740163004402,"459":0.06790638080949063,"460":-0.1149658031596934,"461":-0.007426860754370839,"462":0.1211702490071322,"463":-0.1116384085624718,"464":0.03170568270652954,"465":-0.010349808866862016,"466":-0.16084374400062385,"467":-0.027785695012931017,"468":-0.05473531641799101,"469":-0.13646675193762656,"470":-0.027389450745336722,"471":0.008640528091656073,"472":-0.08280829536636267,"473":-0.006806826530616278,"474":0.04568087100812914,"475":-0.0090221808095557,"476":0.02397425893459891,"477":0.053503270899111686,"478":-0.012298018201401677,"479":0.037372249117941264,"480":0.03124067831380606,"481":0.0904745051407406,"482":0.06218503989814196,"483":0.028418826965846574,"484":0.04640847529299578,"485":0.08354527038587148,"486":0.05839459536315349,"487":0.05575103859605457,"488":0.07178056505047802,"489":-0.002697444446054228,"490":-0.032503210081499964,"491":0.038594594627010634,"492":-0.06268838096755032,"493":-0.10190913706481973,"494":-0.037249408553945845,"495":-0.0034129149695758926,"496":-0.0844767886035333,"497":0.031598759102104725,"498":0.06231727204496582,"499":-0.08501046316047343,"500":0.07390107667485779,"501":0.03918198152552961,"502":-0.08178888820517494,"503":0.032015269488389106,"504":0.0494413415981958,"505":-0.07100125347199437,"506":0.12320649298165225,"507":0.026214772454526105,"508":-0.10228844051679024,"509":0.12901951270740403,"510":0.010840783924339948,"511":-0.09254308409473902,"512":0.11563021047531566,"513":0.04062749218501691,"514":-0.11672736255504378,"515":0.08543299525192159,"516":0.05393345852253934,"517":-0.13136153820328936,"518":0.16235183427142316,"519":0.0593698476054361,"520":-0.0342179729980786,"521":0.13332755725179793,"522":0.024809998460150216,"523":-0.10250914725480269,"524":0.16373032249511071,"525":-0.05017545663399972,"526":-0.129071617194773,"527":0.10228983406658415,"528":0.035597998803863905,"529":-0.13462984310692516,"530":0.13261808387665946,"531":0.029022955153515252,"532":-0.11326322739077765,"533":0.0989096893101665,"534":0.04039194557053067,"535":-0.06717199138683266,"536":0.11904808163877888,"537":0.005379540083940816,"538":-0.08987396839035747,"539":0.13036185425970537,"540":0.033027299514771194,"541":-0.06664259388090493,"542":0.1367775053029679,"543":0.05600116771050205,"544":-0.08275599352017873,"545":0.20692154921325703,"546":0.01371376272865908,"547":-0.0797657745284594,"548":0.17056118558297476,"549":0.03254820530635433,"550":-0.12564773087894066,"551":0.11459848826358271,"552":0.0695359759585133,"553":-0.12968523525334247,"554":0.0362065006352751,"555":0.10506119549853858,"556":-0.05283802919598979,"557":0.0962367565856849,"558":0.1330866466237129,"559":-0.038772642188406,"560":0.04923980611088775,"561":0.053117739940452526,"562":-0.0651423361437359,"563":0.012102884641836733,"564":0.043693329235884565,"565":-0.05229948409997433,"566":0.021795784271613664,"567":0.06670891158342503,"568":-0.09273280439194297,"569":0.02064796028444934,"570":-0.01730804078520488,"571":-0.06210141696515673,"572":-0.00128168440801387,"573":0.0024300538884688165,"574":-0.03906938005665275,"575":0.038584121022707724,"576":0.05458376736424779,"577":0.05329320902842137,"578":0.06941758360922333,"579":0.01680509103444462,"580":0.06488433346704361,"581":0.05200179811604446,"582":0.05396484121600464,"583":0.006212357411062569,"584":0.06615341618676301,"585":-0.010803038027858957,"586":-0.0985169978064395,"587":0.026895273447450435,"588":-0.021749284285459716,"589":-0.11065849534379223,"590":-0.01750493566305505,"591":0.020331538135096396,"592":-0.1429531175617033,"593":0.00041607837371871684,"594":0.05592796916383318,"595":-0.07395234767395231,"596":0.05442696490675192,"597":0.09298898120647213,"598":-0.07915699599092842,"599":0.07786993244744338,"600":0.08694608769117544,"601":-0.1379471755823819,"602":0.0797212133423174,"603":0.04570259190367986,"604":-0.11149136109228404,"605":0.07556980074496165,"606":-0.013528302981644032,"607":-0.1659044272521824,"608":0.0673879486222731,"609":-0.022482440198224582,"610":-0.24860133648071522,"611":0.07636346015362122,"612":0.038173153350964245,"613":-0.21524549041858757,"614":0.10585787005418637,"615":0.014057530959579066,"616":-0.1528525926034178,"617":0.14665734262936259,"618":0.033611341826784054,"619":-0.17478729093424006,"620":0.1134981759434564,"621":-0.027148071234610834,"622":-0.2133276839778181,"623":0.11119011554406756,"624":-0.014488540072735699,"625":-0.17042439925467545,"626":0.14005742396442264,"627":0.07388593987861154,"628":-0.10905531652092564,"629":0.1861394883807727,"630":0.09361462980839728,"631":-0.05831869276761804,"632":0.22627568197959091,"633":0.0035417130268755605,"634":-0.13769984720471182,"635":0.09636219673585489,"636":-0.014568847010290854,"637":-0.15981482974557953,"638":0.1361077954240708,"639":0.02345499370244288,"640":-0.1203512555350141,"641":0.1529747444550157,"642":0.009431316546569181,"643":-0.13396757185029493,"644":0.16695675516979766,"645":0.022570580331580194,"646":-0.16131732263931325,"647":0.10582689337954741,"648":0.010676705984076728,"649":-0.0980666927733787,"650":0.0864919885255348,"651":0.11110091011276166,"652":-0.05811147929572921,"653":0.09579498727533581,"654":0.07223764211915504,"655":-0.09176357229756064,"656":0.050310137556124936,"657":-0.0031268107941340383,"658":-0.10585152564792305,"659":-0.02945688323572423,"660":0.01198041037962332,"661":-0.08368729919405538,"662":0.009138386448525436,"663":0.0366362951799111,"664":-0.08567538421754614,"665":-0.040979165491444924,"666":-0.05774546450190396,"667":-0.1450687185639636,"668":-0.06779253861542882,"669":-0.02713640942392134,"670":-0.11268073108955305,"671":-0.027159103922528002,"672":-0.002580627818901241,"673":0.02682956962103274,"674":0.02054153301045864,"675":-0.03484401224782642,"676":0.0372159895678768,"677":0.05655001169039804,"678":-0.01760137841190306,"679":-0.049728737834914674,"680":0.025456955552023985,"681":-0.07631998021265612,"682":-0.14107362287626782,"683":-0.04863624873810268,"684":-0.05997451836243195,"685":-0.13971292816674738,"686":-0.04627986856049232,"687":-0.05590126098837961,"688":-0.18836042036909398,"689":-0.047825774066296185,"690":-0.009486635164542151,"691":-0.1651122083403771,"692":0.02667602980455283,"693":0.043400165410324175,"694":-0.12408818312928788,"695":0.05300893383241024,"696":0.07100023433737795,"697":-0.13687658145977522,"698":0.08777801551411527,"699":0.060527013130614246,"700":-0.1423745769329637,"701":0.14908680643219518,"702":0.024643874942084462,"703":-0.18150254385830863,"704":0.13468943912566647,"705":-0.028466673532627856,"706":-0.27992839114642976,"707":0.06483161998749096,"708":0.0033506631078541356,"709":-0.24061786277243752,"710":0.10292833983433389,"711":0.06907895412258064,"712":-0.2293893364729283,"713":0.1586031699481691,"714":0.011776816469209738,"715":-0.230330202877373,"716":0.1597050702211851,"717":0.0397347915830021,"718":-0.2119597547781624,"719":0.10027610188489593,"720":0.08514653284870208,"721":-0.14579125307171456,"722":0.22945561818173188,"723":0.09866127356560889,"724":-0.1390879035946467,"725":0.1927521428560877,"726":0.1234516612043203,"727":-0.1412595935013513,"728":0.17053677017551294,"729":0.010109506577465031,"730":-0.23678179200735575,"731":0.14177514182233017,"732":-0.021631048307319864,"733":-0.23947281902033343,"734":0.122452537290423,"735":0.016814362744925145,"736":-0.19972755377012524,"737":0.13372181383414886,"738":0.040349698659853744,"739":-0.17319619856170265,"740":0.144354523570018,"741":0.03703234338051748,"742":-0.20656788203089219,"743":0.10543266945041581,"744":0.09183379016323186,"745":-0.06039264328542512,"746":0.16589450706332673,"747":0.06992234177420743,"748":-0.10228224682291594,"749":0.15484497027397595,"750":0.027799335326046917,"751":-0.0999097240484376,"752":0.08939103239966877,"753":-0.03127853454028054,"754":-0.18941251817944352,"755":-0.03829123244015554,"756":-0.04124158677934582,"757":-0.14024999226071252,"758":-0.042801952872205846,"759":-0.045656600579582006,"760":-0.10633339623069753,"761":-0.04898484658023478,"762":-0.08014293396431393,"763":-0.11658623395565303,"764":-0.04318369482637787,"765":-0.08245947493471188,"766":-0.09492081791513743,"767":-0.023002362688952463,"768":-0.04548428159747672,"769":0.013556006577037791,"770":-0.000050931927719203695,"771":-0.044780512996990283,"772":-0.02859739531185818,"773":0.0323926895092545,"774":-0.12569909533968454,"775":-0.10477939293171257,"776":-0.06493141172996654,"777":-0.0690001274325457,"778":-0.13394475875637907,"779":-0.033021308366868424,"780":-0.047903975727264195,"781":-0.14761637781827808,"782":-0.029450061407510657,"783":-0.0055055779550604615,"784":-0.11296858896279441,"785":-0.00030641984395296355,"786":0.052194314513477245,"787":-0.12401083230566401,"788":0.06261998979820443,"789":0.10211644763978064,"790":-0.09208404334625696,"791":0.08430971325638033,"792":0.15263428289215444,"793":-0.04201790059610206,"794":0.1815806310058652,"795":0.10284537698658852,"796":-0.13000083300434845,"797":0.15333222246019962,"798":0.019422809123192327,"799":-0.1715310518018764,"800":0.1577495349911606,"801":0.04334836363292679,"802":-0.23539653588760096,"803":0.1344086612830449,"804":0.09828504320837754,"805":-0.20570537609753373,"806":0.17434409737207346,"807":0.11509215336794887,"808":-0.21741845775878613,"809":0.18365274846097776,"810":0.10226164086377698,"811":-0.21493945315592947,"812":0.15904451525534727,"813":0.1482786119000307,"814":-0.2038343686104595,"815":0.1153493111624502,"816":0.10661899975437121,"817":-0.21387673221976788,"818":0.1576030318897711,"819":0.12914429510539344,"820":-0.21156148088332438,"821":0.15204369313736554,"822":0.11457666829060463,"823":-0.22509461233000036,"824":0.163371516261514,"825":0.09762887892103415,"826":-0.25585940197555174,"827":0.1938253249255962,"828":-0.0077383773817166004,"829":-0.2669054308375615,"830":0.21114558786413873,"831":0.04003780804328677,"832":-0.2557556379947308,"833":0.1512446112369746,"834":0.04654266831355827,"835":-0.23182115928046135,"836":0.15023371747031258,"837":0.11031081293708773,"838":-0.14528241907897982,"839":0.20534316860458374,"840":0.09948911885351262,"841":-0.11817389437628621,"842":0.16002693441318666,"843":0.05363339220335779,"844":-0.13112890408281624,"845":0.13670146016675894,"846":-0.006160472350537245,"847":-0.13704295228523924,"848":0.07546982479363921,"849":-0.004777443544445239,"850":-0.14739918720384979,"851":0.07709827602047815,"852":0.010137573458522878,"853":-0.0846844172215501,"854":0.06499184265739412,"855":-0.014953290325498463,"856":-0.047116302507380005,"857":0.004197950952283459,"858":-0.05509167169321395,"859":-0.07368109462383786,"860":-0.017327981622207375,"861":-0.011671469112188033,"862":-0.08547804205699601,"863":0.08332118329128717,"864":-0.03445278799566656,"865":0.008248314492049748,"866":0.02070832408904868,"867":-0.07857810490177236,"868":-0.03387220276598698,"869":-0.013688327743310455,"870":-0.0805213077561389,"871":-0.13250027473177603,"872":-0.06541159714836822,"873":-0.05314873460255571,"874":-0.09861307894745018,"875":0.036209128751649194,"876":-0.04077609694882514,"877":-0.09819846054599761,"878":0.013809652201910959,"879":-0.047717869692153386,"880":-0.12237307935788494,"881":0.022990800653069823,"882":0.0643403486093851,"883":-0.06502860124045672,"884":0.09390297406458525,"885":0.15955374142355755,"886":-0.05061138202261991,"887":0.14883281143403831,"888":0.19484052017357795,"889":-0.02925519500352882,"890":0.19985476154201803,"891":0.11304281772248323,"892":-0.12948404540489022,"893":0.18426685133271578,"894":0.01679169240244604,"895":-0.2641139529647637,"896":0.08011936662400422,"897":0.042977154646932664,"898":-0.31352829890376843,"899":0.11356256285477924,"900":0.04233112537414925,"901":-0.3207590547277718,"902":0.10281051627692708,"903":0.11932625483718572,"904":-0.28635060319269906,"905":0.15618590581220498,"906":0.13065948350709305,"907":-0.310584351193247,"908":0.1527024664312524,"909":0.1310205865404242,"910":-0.26511085200655504,"911":0.13921973464829093,"912":0.10373505797808967,"913":-0.2892612906481453,"914":0.09643179434689643,"915":0.20704132666013553,"916":-0.19811052910467786,"917":0.13874844743079762,"918":0.14464195879738484,"919":-0.21110582395584146,"920":0.18432797218167543,"921":0.10793032718228614,"922":-0.22938173726498087,"923":0.153086820426179,"924":-0.032548882240523755,"925":-0.3844972532265232,"926":0.10769801813108397,"927":-0.02002693828999878,"928":-0.3258048992215847,"929":0.038366801483933545,"930":0.07220166439378074,"931":-0.21271100093564826,"932":0.11674014599004437,"933":0.11202979222019852,"934":-0.12631999464323865,"935":0.16527939005703446,"936":0.042523426374285085,"937":-0.13989771743057772,"938":0.1173151789677225,"939":0.03895088393101979,"940":-0.12144348610313516,"941":0.12148839290565921,"942":0.0034475534660066403,"943":-0.12071801012029373,"944":0.159945239121498,"945":-0.04232840856519608,"946":-0.1268916551245056,"947":0.08998987999802245,"948":-0.028735010595764807,"949":-0.11178220949790046,"950":0.07953517379729645,"951":-0.010002762219275593,"952":-0.0700059851644699,"953":0.02459020365493205,"954":-0.042371104291489006,"955":-0.08351760329139553,"956":0.05411689978967062,"957":0.07815114467474697,"958":0.010093285783930216,"959":0.113485638134999,"960":0.007186834413605502,"961":0.03653573450762586,"962":0.04112112291314096,"963":-0.06223930362416258,"964":0.017622265544985628,"965":0.037894390505471276,"966":-0.02131195996763999,"967":-0.05989083977578549,"968":-0.04791487766109546,"969":-0.031037770247882804,"970":-0.07926079801659243,"971":-0.059882596845266874,"972":-0.01291604640298424,"973":-0.07103164178010982,"974":0.049886359016598845,"975":0.07701087122747416,"976":-0.03423504249863088,"977":0.07193844643658523,"978":0.1322328891080562,"979":0.021411313789979243,"980":0.13218992202349367,"981":0.1819111194949873,"982":0.05431729795580134,"983":0.1736081362513897,"984":0.15340628319473743,"985":-0.05433855012144788,"986":0.18690945145929738,"987":0.06560918636711227,"988":-0.15105948194426208,"989":0.15410570553509984,"990":-0.023411425473280328,"991":-0.2820380727920092,"992":0.05046203936267666,"993":-0.03305655156009541,"994":-0.3502761026161431,"995":0.044486830252751935,"996":0.0890449592744984,"997":-0.33260134439353173,"998":0.10782947544899917,"999":0.016358234526823834,"1000":-0.3645707728795669,"1001":0.10384496367180278,"1002":0.156280190413248,"1003":-0.3384652027211411,"1004":0.17109420894017788,"1005":0.11546797148197083,"1006":-0.2783805251201842,"1007":0.1271997998462754,"1008":0.09175182837094682,"1009":-0.38161930547949113,"1010":0.03881260474955543,"1011":0.19931104535190783,"1012":-0.2137930170081764,"1013":0.1435344914674135,"1014":0.14234904571314672,"1015":-0.22962939302522895,"1016":0.13154863837695355,"1017":0.03674701527160852,"1018":-0.28813479037728146,"1019":0.07165109746225863,"1020":0.06811717610421064,"1021":-0.2907813023207984,"1022":0.08029456260644037,"1023":-0.028461276986789723,"1024":-0.3376231760751822,"1025":-0.01936621392197432,"1026":0.055983095786413264,"1027":-0.24427483644476444,"1028":0.0302138669319659,"1029":0.11156666198391328,"1030":-0.19641410615211558,"1031":0.09606595570267713,"1032":0.06658546913192143,"1033":-0.1839566287839194,"1034":0.09286250729818614,"1035":0.031179082807150975,"1036":-0.12590006305307136,"1037":0.10968460342525425,"1038":0.027456110201801907,"1039":-0.0819974341258314,"1040":0.09624778772288445,"1041":-0.013554221630356715,"1042":-0.08411881930691657,"1043":0.061969443292307316,"1044":-0.05913966583912426,"1045":-0.09921281121190208,"1046":0.04334137486845546,"1047":-0.044005553639877876,"1048":-0.11684385542358655,"1049":0.011619601875532952,"1050":-0.024146981834645174,"1051":-0.12267032771833924,"1052":0.009911252925543025,"1053":0.11821893394455515,"1054":0.0902592072999858,"1055":0.1467017785396047,"1056":-0.045991632351340336,"1057":0.006606624023319161,"1058":-0.05562057648191283,"1059":-0.06787152187894387,"1060":0.06702483252597626,"1061":0.03351729261367451,"1062":-0.06752657235111605,"1063":-0.01120445486952236,"1064":-0.00781954997101408,"1065":-0.03861371400844869,"1066":-0.06702514957101934,"1067":-0.05933660626973534,"1068":-0.03574277800530348,"1069":-0.057948706531096544,"1070":-0.0019096293417677204,"1071":0.08183434838778342,"1072":0.043463349448220764,"1073":0.11945547915374066,"1074":0.1185841781741848,"1075":0.09572429011785714,"1076":0.17711020096970628,"1077":0.12720900553249864,"1078":0.07305722437073889,"1079":0.11742810049266551,"1080":0.0866632388212042,"1081":-0.12198923850796328,"1082":0.03652790475124424,"1083":0.035202265456953916,"1084":-0.14473311112711926,"1085":0.11007791870291196,"1086":0.034543820416755806,"1087":-0.2028818804825291,"1088":0.10456688731650432,"1089":0.051989040935485634,"1090":-0.20273067915579643,"1091":0.14174114244058608,"1092":0.11480513933891444,"1093":-0.2311082028715212,"1094":0.1813670106780792,"1095":-0.01583544193165277,"1096":-0.3620774926771995,"1097":0.10503398466423687,"1098":0.025755735906838016,"1099":-0.3689098931569463,"1100":0.05816223633517995,"1101":0.031307051867237104,"1102":-0.3736293629179126,"1103":0.0426094545554656,"1104":-0.03293262962401726,"1105":-0.4403610191364536,"1106":-0.048465264001506525,"1107":0.005174776988271739,"1108":-0.3216126596572752,"1109":0.05619960516862245,"1110":0.0389720666041917,"1111":-0.3077910579001348,"1112":0.09934142710638459,"1113":0.0955840147474381,"1114":-0.2222272995732074,"1115":0.150731412483203,"1116":0.0946040855382461,"1117":-0.20732835232726066,"1118":0.12925293594070578,"1119":0.009667730916844025,"1120":-0.25876284387030435,"1121":-0.02414300985591207,"1122":0.11282479786975262,"1123":-0.18610046426865925,"1124":0.023123727693530164,"1125":0.17697319092303704,"1126":-0.12757521056579407,"1127":0.0722634253860616,"1128":0.13692272483132895,"1129":-0.08563970945480846,"1130":0.07931791688804807,"1131":0.1604836106416404,"1132":-0.061994429621193795,"1133":0.09137208433326953,"1134":0.11495908282650762,"1135":-0.024128180198843587,"1136":0.07138987114541169,"1137":0.05528600522680371,"1138":0.0008411576173581962,"1139":0.09457133858973536,"1140":-0.031809063777472994,"1141":-0.05085015147896985,"1142":0.06069071433023493,"1143":-0.12806499228846127,"1144":-0.1418327722159093,"1145":-0.02817001895509822,"1146":-0.08501152798840765,"1147":-0.11384309097769645,"1148":-0.03341047243114215,"1149":0.02999291166050337,"1150":0.03983256995158792,"1151":0.026430928358056324,"1152":-0.07210580913804619,"1153":-0.020097539793145724,"1154":-0.034677649055167584,"1155":-0.0871252351943268,"1156":0.10491525445231072,"1157":0.01695109899702113,"1158":-0.006036921535502511,"1159":0.07000571963712798,"1160":0.03685555588278305,"1161":-0.10457129131603761,"1162":-0.06891112834400752,"1163":-0.11248258981494562,"1164":-0.04351164971598903,"1165":0.008860882943777355,"1166":0.04342560556037256,"1167":0.06672666880268234,"1168":0.07133487751889232,"1169":0.10339511579252604,"1170":0.08889577045846817,"1171":0.11561258746857557,"1172":0.10058001362577648,"1173":0.1112919801745396,"1174":0.10438050153560205,"1175":0.19320893627837116,"1176":0.0163605678934082,"1177":-0.04166871818668537,"1178":0.10263005960015145,"1179":0.023301796749644343,"1180":-0.11429329088668133,"1181":0.08583109452635308,"1182":0.0542402687523905,"1183":-0.11298858473963676,"1184":0.1086559668007338,"1185":0.09807358202653085,"1186":-0.09867485811863243,"1187":0.19221581663124382,"1188":0.04154239017939382,"1189":-0.22857842775524834,"1190":0.1443897317543394,"1191":-0.07062653818486334,"1192":-0.33066763259541687,"1193":0.038195114388674255,"1194":-0.12114557997605556,"1195":-0.3994561005491546,"1196":0.008304946201141057,"1197":-0.10288972158306568,"1198":-0.37346087935604666,"1199":0.0025655387596440816,"1200":-0.16273959089434015,"1201":-0.40987678927506344,"1202":-0.03958994026093691,"1203":-0.11787478626107518,"1204":-0.4398684742153713,"1205":-0.008327445064006862,"1206":-0.012820081263793973,"1207":-0.35089360423875976,"1208":0.016161790415481873,"1209":0.09618756774226413,"1210":-0.17083316672722806,"1211":0.14697805172904904,"1212":0.16372549195508385,"1213":-0.11277617583769763,"1214":0.11438364212360273,"1215":0.09642489696850509,"1216":-0.21063797063812842,"1217":0.05500365385506674,"1218":0.1107973435617213,"1219":-0.1765531801820623,"1220":-0.036446761957679784,"1221":0.1740566701874002,"1222":-0.0943839030572413,"1223":0.09209752282980672,"1224":0.14140641190491074,"1225":-0.012013794118698344,"1226":0.11125578022932461,"1227":0.10016717698628154,"1228":-0.07690100272746106,"1229":0.0293535482708952,"1230":0.10862026501530261,"1231":-0.023740876201574425,"1232":0.07700612294329942,"1233":0.08006303517262611,"1234":0.0076188033406157174,"1235":0.04851679556681855,"1236":0.04494896438652761,"1237":-0.0052404039584914045,"1238":0.05735857433469499,"1239":-0.028822173391440487,"1240":-0.013010146035551323,"1241":-0.006325150666477812,"1242":-0.04262646559741131,"1243":-0.04557305990911567,"1244":-0.0377505860601059,"1245":0.02097555807667622,"1246":-0.027417616097009625,"1247":-0.008436567636426699,"1248":-0.01921697909848405,"1249":0.04095543336157927,"1250":-0.040001500389467176,"1251":-0.023210506226195686,"1252":0.042340032207648114,"1253":0.006790665765781563,"1254":0.021134642876878478,"1255":0.057329402386601856,"1256":0.04261132134112802,"1257":-0.024007074443820928,"1258":0.05755387868072428,"1259":0.014115393760861815,"1260":-0.017250815346625693,"1261":0.03063211593122312,"1262":0.02143292624199224,"1263":0.08138961195260944,"1264":0.09338413820377144,"1265":0.04584617068200774,"1266":0.10780537380476117,"1267":0.11109893477202087,"1268":0.11838263051461524,"1269":0.04564739769501441,"1270":0.10610516042298193,"1271":0.12343640443377651,"1272":-0.01312896049345494,"1273":-0.05218824194463068,"1274":0.06871814053491354,"1275":0.014548446910053012,"1276":-0.04388052591854812,"1277":0.12761408482896863,"1278":-0.031342219884359014,"1279":-0.15076812931882383,"1280":0.04683523660547337,"1281":-0.07434278313710901,"1282":-0.2135689964767604,"1283":0.04420871983897376,"1284":-0.04855443011102763,"1285":-0.2799133719970445,"1286":0.0637559933980211,"1287":-0.058583859622438665,"1288":-0.2908091865745746,"1289":0.041889105812355,"1290":-0.1596306472429847,"1291":-0.3929598529935603,"1292":-0.014830256754749695,"1293":-0.24374371285862934,"1294":-0.3972091267272599,"1295":-0.06567641126949451,"1296":-0.2271886041937913,"1297":-0.4132826780522413,"1298":-0.06468967305478933,"1299":-0.1951304271230624,"1300":-0.3594638823388757,"1301":0.01518622445867633,"1302":-0.06828978077501856,"1303":-0.25007481395989783,"1304":0.06054000927992161,"1305":0.019628927597989572,"1306":-0.1681659254688421,"1307":0.07179802441873898,"1308":0.09911183898098415,"1309":-0.08241382691984198,"1310":0.15295396489296312,"1311":0.1379301056485017,"1312":-0.08437932016223948,"1313":0.09450895731689654,"1314":0.12293556713606152,"1315":-0.08897295530682307,"1316":0.1153478601621448,"1317":0.16291017142263273,"1318":-0.004510675611194188,"1319":0.07422646422577052,"1320":0.06518552520459306,"1321":-0.06996209133260423,"1322":0.03123851528728061,"1323":0.051219803347177385,"1324":-0.06284200606597895,"1325":0.005651372074437698,"1326":0.07774399073768598,"1327":-0.06567715857662584,"1328":0.03663372241498891,"1329":0.07608748157515878,"1330":-0.007518007700231727,"1331":0.02339214876843381,"1332":0.04074735741691875,"1333":0.01613542881071157,"1334":0.017796755606185988,"1335":-0.0036340533718829306,"1336":-0.03644583367379289,"1337":-0.0058062637015419034,"1338":-0.005979783611258883,"1339":0.012395108969361003,"1340":-0.007634040483489196,"1341":0.04877950668462152,"1342":0.07135540588609786,"1343":-0.01541651153383501,"1344":-0.004413575746428145,"1345":-0.007831850361077065,"1346":-0.017400456254129216,"1347":-0.033798106151410275,"1348":0.02082556483268257,"1349":-0.06098069813314727,"1350":0.0350635867142218,"1351":0.06213957534951572,"1352":0.018582466087247344,"1353":0.07245811372252868,"1354":0.14373970356849713,"1355":0.07138773243279889,"1356":-0.008854125228772816,"1357":0.05062149336970553,"1358":0.013158780490828501,"1359":0.025187476635477928,"1360":0.1228429202467197,"1361":0.048835499273396754,"1362":0.04257437010430398,"1363":0.11092892165528848,"1364":0.09248546093156641,"1365":-0.008007818048724703,"1366":0.030894702323006416,"1367":0.10979108461962986,"1368":-0.03171068993041645,"1369":-0.029851972673522388,"1370":0.11568349563532039,"1371":0.039704405328772716,"1372":-0.04549438258732742,"1373":0.12179624253646787,"1374":-0.05849221329365746,"1375":-0.13549170839141905,"1376":0.07592048344710234,"1377":-0.07811206328481347,"1378":-0.2071761416987378,"1379":0.028992847030623145,"1380":-0.06447247977982688,"1381":-0.28870581250446653,"1382":-0.010740418725314662,"1383":-0.08660150273016579,"1384":-0.25786655790814883,"1385":0.013525675415638282,"1386":-0.20029197926638617,"1387":-0.35554846909575816,"1388":-0.022715434705713373,"1389":-0.27283568681567194,"1390":-0.4141766607933493,"1391":-0.10068629130628177,"1392":-0.21010579439240168,"1393":-0.32445922113167697,"1394":-0.025010390525073867,"1395":-0.19030276991137468,"1396":-0.2473848311638819,"1397":0.03369747498441885,"1398":-0.13436137564122214,"1399":-0.24663082693277677,"1400":0.010413848567276757,"1401":-0.11107867458461376,"1402":-0.22513028862726303,"1403":0.06418322577749262,"1404":-0.06295901663756907,"1405":-0.16021852026058092,"1406":0.019967965287002547,"1407":0.04128817928993248,"1408":-0.0647736604912738,"1409":0.1299716603310548,"1410":0.11977727421047163,"1411":0.019448496806961056,"1412":0.12976606313514466,"1413":0.0753495333057369,"1414":-0.006331604256128295,"1415":0.1109025468006799,"1416":0.11100208072741508,"1417":0.09359858197549444,"1418":0.16686566326474164,"1419":0.12880011483740736,"1420":0.09387159317275354,"1421":0.14170070132949264,"1422":0.1170424978240285,"1423":0.0822566457955653,"1424":0.042377638080934754,"1425":0.08542155462693218,"1426":0.05867044958959654,"1427":0.04605911262605992,"1428":0.048854996704963065,"1429":0.07267103218421309,"1430":-0.006804790254889453,"1431":0.058457577470683086,"1432":0.015943939212584614,"1433":-0.030576861572689996,"1434":0.07012472414748108,"1435":0.10152216686831653,"1436":0.03282637519710316,"1437":0.074695711616722,"1438":0.1125826806070242,"1439":0.1269688172756726,"1440":-0.024492491152645967,"1441":0.010533355577073203,"1442":-0.007376886400855471,"1443":0.01237806958511517,"1444":0.06991129400828845,"1445":-0.016169528571856995,"1446":0.09668314901076551,"1447":0.1274288107917729,"1448":0.022098080129839985,"1449":0.07489403271297171,"1450":0.1280659896619292,"1451":-0.03301614563521789,"1452":0.108577283963442,"1453":0.12249336166783456,"1454":-0.002630238841733797,"1455":0.1250165535557223,"1456":0.1998291298334626,"1457":0.04025088293741738,"1458":0.060699445343419714,"1459":0.13586817378992697,"1460":0.060218952213042395,"1461":0.03896945180913341,"1462":0.16557064960497578,"1463":0.12679846973992678,"1464":0.05593838015936407,"1465":0.06325319119192918,"1466":0.12557148443471255,"1467":0.002757546632225821,"1468":-0.010537076340430386,"1469":0.11972714716161156,"1470":0.0044207304743174945,"1471":-0.09736597346506856,"1472":0.11309400939642525,"1473":-0.03533448256516198,"1474":-0.1656776285072752,"1475":0.03468894651605257,"1476":-0.08055659882439016,"1477":-0.15851179979310712,"1478":0.023278734500005536,"1479":-0.1790198613366731,"1480":-0.2734532832125713,"1481":-0.005747428616848327,"1482":-0.3134456234044412,"1483":-0.37254934918494853,"1484":-0.10660683252434176,"1485":-0.41736643288022995,"1486":-0.41264125966917853,"1487":-0.1620035529358101,"1488":-0.26831413663217146,"1489":-0.3272094366129796,"1490":0.011415422146521732,"1491":-0.20055069600743794,"1492":-0.22380121698120212,"1493":0.03992575065766507,"1494":-0.2574565421909738,"1495":-0.30697953099968883,"1496":-0.049718687513437505,"1497":-0.28187399834390425,"1498":-0.2810136459964948,"1499":-0.05702725678683325,"1500":-0.22283524261521984,"1501":-0.19083748373931886,"1502":-0.005523675165874222,"1503":0.040973590618429215,"1504":-0.00828252202942825,"1505":0.1291513640306279,"1506":0.02229599887066771,"1507":0.014845669588339055,"1508":0.10487397223570076,"1509":0.07160388954195326,"1510":0.0879046937058646,"1511":0.15013813065800896,"1512":0.11564635483218244,"1513":0.1708808732471877,"1514":0.2261803259889007,"1515":0.09798546523206424,"1516":0.14347165703869166,"1517":0.18335956869578157,"1518":0.12564195406449613,"1519":0.1605607877011622,"1520":0.05922995585297585,"1521":0.09341567643241049,"1522":0.07312421214220309,"1523":0.0383198300944806,"1524":0.09676590670953063,"1525":0.09469547537070462,"1526":0.029153166428981754,"1527":0.10343365439286642,"1528":0.12209587313073565,"1529":0.011710038731970766,"1530":0.10603495923481565,"1531":0.07694534219068218,"1532":0.035081021580323585,"1533":0.025719207774121906,"1534":0.10198954503971107,"1535":0.09626725055524077,"1536":-0.040534910423167786,"1537":-0.009125136861273857,"1538":-0.05647468479820282,"1539":0.022363186708567198,"1540":0.04499311474905792,"1541":-0.08504281789826844,"1542":0.05646233125126139,"1543":0.11149598516929045,"1544":-0.06047630187950534,"1545":0.09630224742814303,"1546":0.14974579136402547,"1547":-0.014730579089241112,"1548":0.11582625848883484,"1549":0.1412676334633159,"1550":0.004372089990032024,"1551":0.08289437919262878,"1552":0.16675505817642372,"1553":0.020286403012712114,"1554":0.04841206752700611,"1555":0.12398584460530533,"1556":0.04426011915232452,"1557":0.1710045599746804,"1558":0.21529400956282874,"1559":0.14238258592427536,"1560":0.03294403801978161,"1561":0.09906212859211261,"1562":0.09081108324059675,"1563":0.00700780428868378,"1564":0.029614664236717683,"1565":0.140341515192232,"1566":0.0667489466721623,"1567":0.020295083177476622,"1568":0.20664370799838813,"1569":-0.11633013821213009,"1570":-0.13192856636143657,"1571":0.0647539152195265,"1572":-0.1630087986225911,"1573":-0.18687657444800182,"1574":-0.0012568179636826288,"1575":-0.25382618361155873,"1576":-0.24712025146306024,"1577":-0.05969330429361582,"1578":-0.39227985582867814,"1579":-0.39552360071886167,"1580":-0.1344090797031641,"1581":-0.4436331655988856,"1582":-0.4134303995647522,"1583":-0.18758842778173265,"1584":-0.3194293786027371,"1585":-0.33325678975598383,"1586":-0.08588388774161215,"1587":-0.33012726536688614,"1588":-0.32778938420603687,"1589":-0.08890018548433859,"1590":-0.35335601234642955,"1591":-0.31839779751804004,"1592":-0.11013397383077163,"1593":-0.2549543888672385,"1594":-0.14371832231446321,"1595":0.018420552544902727,"1596":-0.13066410342178592,"1597":-0.07729978262897692,"1598":0.04778027085042669,"1599":-0.03337695868200833,"1600":-0.011221502534529082,"1601":0.10492374004185766,"1602":0.045310654311498826,"1603":0.10160997480323172,"1604":0.1364429829962805,"1605":0.06226716901106734,"1606":0.1215434618613698,"1607":0.15073180077621565,"1608":0.0550727414643385,"1609":0.12845648739360568,"1610":0.1537994936160904,"1611":0.06915733303619699,"1612":0.11560357208322121,"1613":0.10424365595843166,"1614":0.06248935113625757,"1615":0.08461154228796186,"1616":0.058315149112540834,"1617":0.0612181413780159,"1618":0.05897328548627939,"1619":0.051916071740638156,"1620":0.10611920612295919,"1621":0.13766244881655465,"1622":0.009806766792193427,"1623":-0.00004570985088758056,"1624":0.07123395837224153,"1625":-0.10065666310321161,"1626":-0.027893555117674173,"1627":0.028515854853418666,"1628":-0.07613814840849077,"1629":-0.03770787954111275,"1630":0.09427304807732001,"1631":0.020252911689456615,"1632":-0.05527965483342277,"1633":-0.017457990903547858,"1634":-0.07278425453341468,"1635":0.0011112159092759627,"1636":0.025965445815431427,"1637":-0.06173255495641849,"1638":0.011901979579701858,"1639":0.059296912568192,"1640":-0.10250441271368964,"1641":0.0677951828001305,"1642":0.11043710915060662,"1643":0.013112778874597273,"1644":0.09115491095822509,"1645":0.1520234861061225,"1646":-0.018487589015281556,"1647":0.0452832545021013,"1648":0.1636506801445544,"1649":0.01186838340332962,"1650":0.05926210227485619,"1651":0.19770563715006,"1652":0.07200552162371615,"1653":0.09370209603827685,"1654":0.1765958931986744,"1655":0.09574587834837207,"1656":0.03882607069149429,"1657":0.14493043769613828,"1658":0.13360993646702438,"1659":-0.008109856464934445,"1660":0.07274737578271352,"1661":0.13182917022196405,"1662":-0.03329171604380826,"1663":0.015313111062010977,"1664":0.18155019999587088,"1665":-0.14913915351768833,"1666":-0.13182328864965479,"1667":0.0798366194701423,"1668":-0.2692518139295302,"1669":-0.22435527171318984,"1670":-0.06700574997339717,"1671":-0.3418755594199616,"1672":-0.2771555676554345,"1673":-0.09663507753686099,"1674":-0.4257418401409845,"1675":-0.3207481700598294,"1676":-0.12643671072633286,"1677":-0.41872029406946865,"1678":-0.3595612636888265,"1679":-0.21113107953665888,"1680":-0.43023847580023244,"1681":-0.4583195720084775,"1682":-0.20384917488390875,"1683":-0.5159372412092953,"1684":-0.475037598382412,"1685":-0.1779958150268705,"1686":-0.4147515275024484,"1687":-0.35947161050731624,"1688":-0.1197560300934711,"1689":-0.40768216827239906,"1690":-0.29517253047291314,"1691":-0.13623408823379443,"1692":-0.28328648761681435,"1693":-0.18818819344784388,"1694":-0.019919350068417475,"1695":-0.052814058657058585,"1696":0.044575734393537625,"1697":0.1577496738457774,"1698":0.05394136948441454,"1699":0.15630810782865154,"1700":0.15806106423055047,"1701":-0.035088868842117274,"1702":0.0618522201158242,"1703":0.10548849021372877,"1704":-0.010639927440111805,"1705":0.062000156167903595,"1706":0.07324497649431713,"1707":0.09879419682928663,"1708":0.1740491147034427,"1709":0.13046696877569075,"1710":0.16370348701709392,"1711":0.18066758498474023,"1712":0.15533362464947914,"1713":0.0838900950349858,"1714":0.1222308347207213,"1715":0.025692365425412797,"1716":0.14003129191768482,"1717":0.16527288546671892,"1718":0.058300749583021276,"1719":-0.015010018953572263,"1720":0.02713211422959677,"1721":-0.09366416522155409,"1722":-0.05877526025899102,"1723":-0.0214010672688274,"1724":-0.08460342743390539,"1725":0.004999227270211616,"1726":0.06836868574777079,"1727":-0.018571282947551608,"1728":-0.04154629576373607,"1729":0.001264038854484702,"1730":-0.07486059208205706,"1731":-0.0011464003892024963,"1732":-0.007477611301954136,"1733":-0.09276254141065696,"1734":0.02701081854155928,"1735":0.07020145222210546,"1736":-0.10153451671585044,"1737":0.08761946306992652,"1738":0.17050699290774568,"1739":0.0271216345696832,"1740":0.08676544895853748,"1741":0.16706375606995494,"1742":-0.0002044577047925016,"1743":0.0903374765465118,"1744":0.14747450358924388,"1745":0.033799659120582276,"1746":0.06360641663283527,"1747":0.14513937043127018,"1748":0.01702832675939695,"1749":0.0031008810220510426,"1750":0.13842684942711395,"1751":0.061042578738540514,"1752":0.04902991668134321,"1753":0.1365361148974565,"1754":0.10195701775887606,"1755":-0.035230212040174645,"1756":0.12910766276730892,"1757":0.13558613519976073,"1758":-0.08819093710981737,"1759":0.03446981222356666,"1760":0.1252842618953493,"1761":-0.07200989103115546,"1762":-0.01421527317193919,"1763":0.08297344638869944,"1764":-0.2643450268864488,"1765":-0.20271291985556458,"1766":-0.03902443879117564,"1767":-0.3437194102535082,"1768":-0.29079241809423123,"1769":-0.15382745100423859,"1770":-0.3957243841037549,"1771":-0.3431120848142411,"1772":-0.14791684602868813,"1773":-0.5187621360046486,"1774":-0.4239835702530314,"1775":-0.2702669591108865,"1776":-0.5171101857949263,"1777":-0.42600289255717544,"1778":-0.2722907091117267,"1779":-0.5500526600158421,"1780":-0.41277861310472197,"1781":-0.2591435748364053,"1782":-0.5141675270210374,"1783":-0.41558833641066695,"1784":-0.21187992526116842,"1785":-0.5150427377863255,"1786":-0.3735703427979714,"1787":-0.22761213143635461,"1788":-0.30794319380385554,"1789":-0.15167466593442044,"1790":-0.07924980296507056,"1791":-0.10462012201809706,"1792":0.039396204733060686,"1793":0.11517657954654596,"1794":-0.011748781112958226,"1795":0.11546290718107578,"1796":0.14106470718917383,"1797":-0.07337706922879778,"1798":0.049646533176551585,"1799":0.08248023646532476,"1800":-0.09098142736417124,"1801":0.019025224253845435,"1802":0.018429213596777072,"1803":0.07175855447235246,"1804":0.18229576031928343,"1805":0.11934687794998941,"1806":0.14141881353537222,"1807":0.21139464392838966,"1808":0.13155866967884325,"1809":0.10555493621144617,"1810":0.10750207075883783,"1811":0.04558848642624131,"1812":0.13513329206432528,"1813":0.1384151711740436,"1814":0.10428175710285391,"1815":0.06918637550638762,"1816":0.10464440413307889,"1817":0.0557895275051606,"1818":0.0011299472261413574,"1819":0.004537392493193268,"1820":-0.02022311100845953,"1821":-0.025049406731823712,"1822":0.01353472288216412,"1823":-0.03165925035649397,"1824":-0.028202556558530323,"1825":0.03501641475176906,"1826":-0.056503261592741626,"1827":-0.04751579919128839,"1828":0.008765790308190876,"1829":-0.08982813264006444,"1830":-0.0173963071954075,"1831":0.04995503213121959,"1832":-0.12318387846609116,"1833":0.105476380456781,"1834":0.1616185520064857,"1835":0.0019332936036191282,"1836":0.18036338502259042,"1837":0.18317582712084965,"1838":-0.015210205359629032,"1839":0.08612586741571612,"1840":0.122009455622196,"1841":0.044276572563782715,"1842":0.020839921839633013,"1843":0.14656254700980625,"1844":0.038673794799705674,"1845":0.04637762575980183,"1846":0.14479130916223626,"1847":0.05239906586308844,"1848":0.042703019208501766,"1849":0.252352601883369,"1850":0.15748975737523763,"1851":-0.05635781304395345,"1852":0.13933197697450875,"1853":0.2008987048259739,"1854":-0.106733318436534,"1855":0.023918109858917843,"1856":0.10568721823026497,"1857":-0.05663840781047613,"1858":-0.0009888759993716733,"1859":0.15332818963922631,"1860":-0.15563059091133336,"1861":-0.06999184766110969,"1862":0.05331341404688171,"1863":-0.34240857210591774,"1864":-0.20850441669657416,"1865":-0.07999819963299361,"1866":-0.3618619668400129,"1867":-0.25928702028788586,"1868":-0.13302482290591688,"1869":-0.422346398848691,"1870":-0.26346957705568813,"1871":-0.16448628449929978,"1872":-0.49551943075334176,"1873":-0.3476927480694853,"1874":-0.23779590852299612,"1875":-0.5543610216430115,"1876":-0.28587617884537214,"1877":-0.18660468296508068,"1878":-0.5220269647669511,"1879":-0.27184818696061086,"1880":-0.09762923847389668,"1881":-0.4611473372751434,"1882":-0.22415336258894503,"1883":-0.15601362291536283,"1884":-0.214363241032701,"1885":-0.04489965564428649,"1886":-0.02563774637368208,"1887":-0.03259122499136738,"1888":0.16603522330560727,"1889":0.1399772731780736,"1890":0.029655382162444257,"1891":0.23332560105372574,"1892":0.20313884791593487,"1893":-0.014259776989696937,"1894":0.13855977443291317,"1895":0.12439544289595329,"1896":0.014866769059383101,"1897":0.13588491718149426,"1898":0.10657780685016596,"1899":0.10649201393452348,"1900":0.17821269488327504,"1901":0.14782277186975717,"1902":0.1161705179300998,"1903":0.15378948444194307,"1904":0.14121022009858014,"1905":0.0645993138736618,"1906":0.08695593860278555,"1907":0.07671949326867478,"1908":0.08946206013492712,"1909":0.12147568525834902,"1910":0.07653234311612714,"1911":0.062073519987000406,"1912":0.1067240065443003,"1913":0.0865257693056845,"1914":-0.0017658364436936962,"1915":0.02079649808773718,"1916":-0.004471256958632171,"1917":-0.13276440318890204,"1918":-0.07282961961014,"1919":-0.09495751131602938,"1920":0.001829490495251899,"1921":-0.014044857564801099,"1922":-0.08310848494636248,"1923":0.056868987649905584,"1924":0.07532964859473278,"1925":-0.040343061846956185,"1926":0.10752708069815506,"1927":0.15091702462420695,"1928":-0.018127369411388074,"1929":0.16819915693181473,"1930":0.22906350514277346,"1931":0.03350902628240854,"1932":0.12793521168173114,"1933":0.1841552655207553,"1934":0.031171521217063684,"1935":0.13444159811030823,"1936":0.12905419953450212,"1937":0.019302670817982513,"1938":0.14188555568084027,"1939":0.15469693533289477,"1940":0.09026075452319851,"1941":0.06781128758801983,"1942":0.17868961033079603,"1943":0.08961932616093304,"1944":0.08689649610362982,"1945":0.2678228808311498,"1946":0.18402390914712172,"1947":0.03765131729786064,"1948":0.2184651227237508,"1949":0.24361659031277758,"1950":-0.04206160495700658,"1951":0.10458593883159145,"1952":0.1487246728567627,"1953":-0.04943331429721427,"1954":0.06276443197013526,"1955":0.12047268109536591,"1956":-0.2007350669003234,"1957":-0.0225277656957174,"1958":0.028204288525499655,"1959":-0.20791656985867554,"1960":-0.05943696765067917,"1961":0.016791051406568818,"1962":-0.16894594507903643,"1963":0.03376791064453849,"1964":0.0392759772574117,"1965":-0.23620187974839832,"1966":-0.035014728520040395,"1967":0.027588281828023628,"1968":-0.3248309374884105,"1969":-0.1893403574818172,"1970":-0.1317194704800009,"1971":-0.4249184007832877,"1972":-0.20510719005429245,"1973":-0.0974129512692749,"1974":-0.3708403006536126,"1975":-0.14511703653909847,"1976":-0.0675208267036691,"1977":-0.22199893662328468,"1978":-0.037193278928820066,"1979":0.011877665618997757,"1980":-0.08842913441311395,"1981":0.05029903756001723,"1982":0.03275788558641373,"1983":0.0066474027946824485,"1984":0.1775624385193411,"1985":0.1122399972462056,"1986":0.04271254826312311,"1987":0.24164421343234668,"1988":0.19795349511857172,"1989":0.02612643509905697,"1990":0.18532731239541275,"1991":0.16090278723732715,"1992":-0.045720286086402134,"1993":0.1414338187174955,"1994":0.14384311091805843,"1995":0.013105713798577499,"1996":0.11579327080400752,"1997":0.07939003976523083,"1998":0.04008954606520674,"1999":0.08802522769615492,"2000":0.07320994597995546,"2001":0.017072863710217545,"2002":0.10063090644259068,"2003":0.10184986007433178,"2004":0.06000408478682176,"2005":0.09347349112968809,"2006":0.12557177407893613,"2007":-0.02664448507710972,"2008":-0.0021221201855185245,"2009":-0.00025230317253108724,"2010":-0.11790633005416776,"2011":-0.023619684751647073,"2012":-0.061064456884652715,"2013":-0.24761181042417793,"2014":-0.16459120382625764,"2015":-0.11640160559694389,"2016":-0.010865789329595013,"2017":-0.016787860474335975,"2018":-0.06712856880821991,"2019":0.04966316812759147,"2020":0.08153807960461824,"2021":-0.04041561124571423,"2022":0.12043561922439343,"2023":0.19479529815752988,"2024":0.03155858849204899,"2025":0.15595315668075602,"2026":0.18674915548938925,"2027":0.007200718996583558,"2028":0.0531521919692537,"2029":0.16406794074337705,"2030":0.006781313850216759,"2031":0.17125813893081065,"2032":0.19379576818805305,"2033":0.0652301602988453,"2034":0.16847226960667427,"2035":0.18889184112814392,"2036":0.15040942716875993,"2037":0.12272852545773548,"2038":0.23240127279104034,"2039":0.16591184026408637,"2040":0.12086903616931,"2041":0.25995746548619886,"2042":0.14444818347181068,"2043":0.09201619405233863,"2044":0.1712817971445493,"2045":0.11901876590556677,"2046":0.06418325093514923,"2047":0.1841779824766607,"2048":0.14679890413022909,"2049":0.07760000567844792,"2050":0.22184578438654368,"2051":0.1839700643375527,"2052":-0.004614934098297651,"2053":0.19269447026241684,"2054":0.15289900784987032,"2055":-0.04447543186813611,"2056":0.170861201817049,"2057":0.0875733018866857,"2058":0.022522363647293,"2059":0.2147800715320699,"2060":0.15800042864925945,"2061":-0.004795194665600277,"2062":0.1876623695181866,"2063":0.1645168178264717,"2064":-0.004838563016997849,"2065":0.1243181070420739,"2066":0.1169825936646797,"2067":-0.13908932967640683,"2068":0.049697149262330154,"2069":0.06456053904453832,"2070":-0.0692032008873315,"2071":0.09553098664909547,"2072":0.10187085047984537,"2073":0.07076680119275247,"2074":0.1802400988405133,"2075":0.16574719516138672,"2076":-0.018468074230944716,"2077":0.15878758426963047,"2078":0.10166204926371675,"2079":-0.02017203683487992,"2080":0.1412803525837675,"2081":0.09865905842932829,"2082":0.06144556650194925,"2083":0.25212430934202024,"2084":0.20199843394255868,"2085":0.0875653285488689,"2086":0.27640783737888225,"2087":0.23787966606085542,"2088":0.011139454806475955,"2089":0.17375098420630558,"2090":0.18064083393912309,"2091":-0.13745956151766645,"2092":0.056552046869483515,"2093":0.023890916278451323,"2094":0.010240809875815935,"2095":0.10132772601000421,"2096":0.013218592777203992,"2097":0.12762079056579562,"2098":0.1564067926482012,"2099":0.17591693148857857,"2100":0.061343357777363876,"2101":0.1217232949393835,"2102":0.13575671674779044,"2103":-0.10749859812275668,"2104":-0.014645172140277789,"2105":0.02966908315210643,"2106":-0.1381945177833046,"2107":-0.025058505060696817,"2108":-0.01841759660158622,"2109":-0.24909782648301804,"2110":-0.15974180625698456,"2111":-0.11713512182841938,"2112":-0.05875932019021555,"2113":-0.030735590230458815,"2114":-0.09520859526127808,"2115":-0.008544515474067772,"2116":0.047852239676245654,"2117":-0.0508556836276045,"2118":0.05767829903995562,"2119":0.10059153620137773,"2120":-0.05802735258437743,"2121":0.05667818462137472,"2122":0.15955074015676984,"2123":-0.021700765817415864,"2124":0.01795146157147391,"2125":0.06410666265721904,"2126":-0.05767575080587431,"2127":0.11043566517826937,"2128":0.10171521117695792,"2129":0.05665489000799273,"2130":0.0925829196733859,"2131":0.19895516522108922,"2132":0.11021186769149535,"2133":0.06200175149957333,"2134":0.2084346417797959,"2135":0.13550110826142256,"2136":0.11348196466515549,"2137":0.24176662770731883,"2138":0.13824236573231335,"2139":0.012456598360895287,"2140":0.10018708167935592,"2141":0.0044261662931660475,"2142":0.0934723426846003,"2143":0.15744453228663077,"2144":0.12916928382652532,"2145":0.1441523516674191,"2146":0.26964800413722645,"2147":0.18199420205895078,"2148":0.14641807653211583,"2149":0.31172341019998945,"2150":0.22628349542323373,"2151":0.07634307164428092,"2152":0.246834539081326,"2153":0.17358996233204663,"2154":0.19454385737316363,"2155":0.38400189597847445,"2156":0.2630096613947781,"2157":0.16948277451241417,"2158":0.3489664249098348,"2159":0.25206007723128826,"2160":0.10447715521573955,"2161":0.21096802042507792,"2162":0.1360522919986384,"2163":0.010652375300677173,"2164":0.18494176716490396,"2165":0.10339281875124634,"2166":0.12722706860855634,"2167":0.2934652114423161,"2168":0.25541237966215874,"2169":0.17281107098658663,"2170":0.28328069173750003,"2171":0.26925514395244776,"2172":0.06420769500626133,"2173":0.20986240750395724,"2174":0.13643709148855676,"2175":0.0331041714297193,"2176":0.19744779978416144,"2177":0.13545345224271,"2178":0.07348121391875906,"2179":0.27012669357630265,"2180":0.1947217849364164,"2181":0.08049468896139715,"2182":0.25183635748502736,"2183":0.17770376487387485,"2184":0.0936380064678543,"2185":0.19079623090110862,"2186":0.15928631555359463,"2187":0.02691249951664699,"2188":0.12217143514727294,"2189":0.10482183434135293,"2190":0.07389580174367118,"2191":0.1240189557104646,"2192":0.09011249669238533,"2193":0.1610634454161522,"2194":0.1853956828053059,"2195":0.1810238915434491,"2196":0.018518313868425278,"2197":0.09974632132848156,"2198":0.06729883753168217,"2199":-0.044659422214681645,"2200":-0.015699466271554063,"2201":-0.0353535144256677,"2202":-0.10438233772322691,"2203":-0.032547246426331874,"2204":-0.07021814634329514,"2205":-0.2333476244472736,"2206":-0.17671001019598584,"2207":-0.1660265230379111,"2208":-0.15323445331158675,"2209":-0.06849855573877613,"2210":-0.17549593233542604,"2211":-0.0610017905381161,"2212":-0.015819280285251064,"2213":-0.13494857365165114,"2214":-0.04740639490898205,"2215":0.0018641001087335981,"2216":-0.14281789314368393,"2217":-0.030762146206023144,"2218":-0.000893837406327193,"2219":-0.13705258660034567,"2220":-0.0396161862948612,"2221":-0.011255168196035954,"2222":-0.13782383655979358,"2223":0.03524526494930269,"2224":0.09212685883124709,"2225":0.0008230966623732328,"2226":0.08754326593709963,"2227":0.1400562724786456,"2228":0.06817221288649633,"2229":0.062143105364613864,"2230":0.17687869285799843,"2231":0.11562319143850935,"2232":0.11021470617915767,"2233":0.28388662891004723,"2234":0.17925658559072397,"2235":0.016053767974285867,"2236":0.15220123247327658,"2237":0.07528067729368489,"2238":0.02324514239286646,"2239":0.10170389124047362,"2240":0.028201091490130614,"2241":0.05880845773329295,"2242":0.16884970582372635,"2243":0.10918328867866858,"2244":0.0856040574652749,"2245":0.19656770221916617,"2246":0.101151261804144,"2247":0.06729302402049152,"2248":0.23945050326577424,"2249":0.143886195837016,"2250":0.1043762260955291,"2251":0.24329426060399956,"2252":0.15649590790215195,"2253":0.09709837722937649,"2254":0.21523681306273304,"2255":0.188203348889438,"2256":0.14187755522395534,"2257":0.2431782750476771,"2258":0.1310207621406912,"2259":0.1134091633963115,"2260":0.22471277695083497,"2261":0.17277339810896383,"2262":0.195506910613137,"2263":0.3370842673590878,"2264":0.3103110754790318,"2265":0.134023413395988,"2266":0.3066635753284243,"2267":0.25804362868997666,"2268":0.0022389030327688133,"2269":0.1767133771063944,"2270":0.15247759386838616,"2271":0.08828840856585218,"2272":0.23915066068131044,"2273":0.18403117389786483,"2274":0.16542408799005057,"2275":0.3363766765198015,"2276":0.20289965539867338,"2277":0.05695418851254761,"2278":0.23110917735800487,"2279":0.14968260987872745,"2280":0.09080379487139366,"2281":0.21635655676687057,"2282":0.16896310250667199,"2283":0.1273555265684092,"2284":0.22916794472845828,"2285":0.22030898662683313,"2286":0.18676738084592145,"2287":0.18587509357975066,"2288":0.168794212882194,"2289":0.1638155374093356,"2290":0.18779079988741773,"2291":0.15284489812539803,"2292":0.01278569913340852,"2293":0.02676484712405453,"2294":-0.0018799761158645794,"2295":-0.04672660572972369,"2296":-0.04946884898253309,"2297":-0.08626303462159728,"2298":-0.10627793899260493,"2299":-0.04502851077044304,"2300":-0.061481079941688166,"2301":-0.2484702266675821,"2302":-0.2311672112423932,"2303":-0.2044010976314387,"2304":-0.13517248160735457,"2305":-0.1358105078328937,"2306":-0.23225905618972023,"2307":-0.16316287672062324,"2308":-0.11299609761455878,"2309":-0.17955347751644696,"2310":-0.12750061461821344,"2311":-0.09956792008015936,"2312":-0.15395318635763697,"2313":0.010134237461207202,"2314":0.011326426689281997,"2315":-0.11302659746554142,"2316":0.04455264812092533,"2317":0.013810037818934452,"2318":-0.048475459405481265,"2319":0.0340167905773943,"2320":0.04970293430469423,"2321":-0.009978146183782857,"2322":0.012164600438803621,"2323":0.06850070774555499,"2324":0.019386175040784284,"2325":0.0010645551977645452,"2326":0.12448073431583713,"2327":0.07438742030421064,"2328":0.09157219464399399,"2329":0.23886918560123738,"2330":0.16136247776822774,"2331":0.05518024399348666,"2332":0.14294447607769015,"2333":0.09074100940618234,"2334":-0.04115128372356611,"2335":0.017907911930292335,"2336":-0.004497612758320173,"2337":-0.012502043318006934,"2338":0.09756795489550346,"2339":0.00928507642945068,"2340":0.016114632638187666,"2341":0.10246098919212807,"2342":0.0848938267778906,"2343":-0.05151694639003542,"2344":0.1008788918534011,"2345":0.052641436429034294,"2346":0.06376688466138965,"2347":0.1587939796042006,"2348":0.11576969300102045,"2349":0.11026572275331657,"2350":0.2119757025232411,"2351":0.11367657973067676,"2352":0.11859367271662054,"2353":0.22804735871295356,"2354":0.1592659657982724,"2355":0.15287303722340273,"2356":0.2610622759149362,"2357":0.17689933281453496,"2358":0.11552511584987792,"2359":0.25127813246343184,"2360":0.18777046947607054,"2361":-0.02646965994208625,"2362":0.17208901832979423,"2363":0.13013139907992985,"2364":-0.06877648390310918,"2365":0.04699739166990209,"2366":0.051419120347917555,"2367":-0.04132983416259965,"2368":0.06973264710565585,"2369":0.0560934679658316,"2370":0.049924757415052284,"2371":0.1721477916555715,"2372":0.11831166288407952,"2373":0.018194306669008165,"2374":0.19592946911464743,"2375":0.13047485393243233,"2376":-0.020212637066946936,"2377":0.09933726599600967,"2378":0.06994723737926715,"2379":0.08338367126689891,"2380":0.1149563218903422,"2381":0.13980065042105091,"2382":0.13283405764139528,"2383":0.1148983007841285,"2384":0.12336801966888267,"2385":0.08105698596976796,"2386":0.02827932970418045,"2387":0.04183864526243407,"2388":0.017994558908405393,"2389":-0.008527136244536849,"2390":-0.002532217101001214,"2391":0.008854942565109093,"2392":-0.0124709472770551,"2393":-0.03693976375062835,"2394":-0.037028997843353194,"2395":-0.034903275617928796,"2396":-0.06389395219255735,"2397":-0.21006792199492308,"2398":-0.19553941192083643,"2399":-0.18741765073267952,"2400":-0.15206308914857414,"2401":-0.1618342146526804,"2402":-0.2384495891185163,"2403":-0.10277505949074,"2404":-0.16535331263483002,"2405":-0.21945740953225665,"2406":-0.1146412700633969,"2407":-0.11656689266801798,"2408":-0.19252209117222155,"2409":-0.020144739036385664,"2410":-0.034337271386003385,"2411":-0.09621449998641132,"2412":0.07997393543625325,"2413":0.047103766757722335,"2414":-0.012456638921618898,"2415":0.09734706628284252,"2416":0.07699188498404622,"2417":0.037159432280822156,"2418":-0.022149440948892936,"2419":0.04653829680973624,"2420":-0.005508871669732835,"2421":0.0022780311406867303,"2422":0.09127311892057163,"2423":0.06654782057675551,"2424":0.1330161499639309,"2425":0.18282074299956733,"2426":0.15161242236948835,"2427":0.03289213232498018,"2428":0.08340570899991757,"2429":0.07848271929360244,"2430":-0.08099475859236097,"2431":0.01173186144939857,"2432":0.0006017985994410261,"2433":-0.09412416390088994,"2434":0.023771205730739,"2435":-0.021337593235975033,"2436":-0.08167594784583915,"2437":0.05171817178893787,"2438":-0.026488575535538458,"2439":0.003651202860987657,"2440":0.1258741643023089,"2441":0.05649514123200005,"2442":0.13043509416022114,"2443":0.2301962534873745,"2444":0.20579194403190318,"2445":0.13258245001351132,"2446":0.15806834360991334,"2447":0.15567850669399488,"2448":0.06988392560876039,"2449":0.1965769685390595,"2450":0.16576409692437155,"2451":0.04027364290324463,"2452":0.20036094808753727,"2453":0.16390861588750286,"2454":0.11840615599560526,"2455":0.24507384481578542,"2456":0.20828612411238887,"2457":0.030905704357628946,"2458":0.1462364489704854,"2459":0.1403403420357314,"2460":-0.00009544602911608753,"2461":0.1017268818072672,"2462":0.11384236922787506,"2463":-0.06534697646213551,"2464":0.03806564262765402,"2465":0.033780453378829595,"2466":-0.01767612681813101,"2467":0.09026872800084026,"2468":0.0009982319698603253,"2469":0.04816028156225965,"2470":0.11530547648750657,"2471":0.14370400315432985,"2472":-0.031840200185425875,"2473":0.033370972356664814,"2474":0.07305258546156407,"2475":0.0010947566730724492,"2476":0.04478135427000315,"2477":0.09583574343027045,"2478":0.10604826874971648,"2479":0.10745033902284178,"2480":0.1977741471348128,"2481":0.12650501156331487,"2482":0.1312957158048032,"2483":0.17595314775804116,"2484":0.1332573204065043,"2485":0.08686207459014496,"2486":0.09857648122274087,"2487":0.044186161421744814,"2488":0.02639216702712604,"2489":-0.014466768955884378,"2490":-0.08152576217578147,"2491":-0.09340271312819892,"2492":-0.11122603161504438,"2493":-0.2729357766542784,"2494":-0.26543403071266414,"2495":-0.2636194584944327,"2496":-0.18546932737896285,"2497":-0.20023753063431976,"2498":-0.3188980074855665,"2499":-0.09687381453997065,"2500":-0.13242695247860756,"2501":-0.23473878093454653,"2502":-0.022148803190874488,"2503":-0.05872994604125974,"2504":-0.14484476294360424,"2505":-0.017313431328842152,"2506":-0.04524751197784463,"2507":-0.13495055096343178,"2508":0.1335743215846278,"2509":0.0974691579863757,"2510":0.0033000483645591674,"2511":0.13345179837855303,"2512":0.15264936500112666,"2513":0.05341433967163807,"2514":0.15192929693828272,"2515":0.1162459451903329,"2516":0.10063215399433856,"2517":0.053760257943235926,"2518":0.09839128984316027,"2519":0.01100168233560024,"2520":0.13270528649036878,"2521":0.19477276704707158,"2522":0.13576296427966783,"2523":0.06877620166282862,"2524":0.12895088181169864,"2525":0.1024304240859165,"2526":0.010866559499383347,"2527":0.09335185292674408,"2528":0.11713754933430362,"2529":-0.023009706862426104,"2530":0.0742698029096905,"2531":0.08004570524869893,"2532":-0.014914460571006736,"2533":0.07476628312871492,"2534":0.08197008887291334,"2535":-0.059501851928627725,"2536":0.055252099841235254,"2537":0.049685745922991624,"2538":0.01721752342588155,"2539":0.09486660025088475,"2540":0.0957299997942119,"2541":0.037212060522291444,"2542":0.07320282751196483,"2543":0.10863846940965863,"2544":-0.02983431049639073,"2545":0.07493878658038416,"2546":0.09970847355768764,"2547":-0.09680175452680055,"2548":0.026442966328427377,"2549":0.04968831151436001,"2550":-0.0016846645504287883,"2551":0.17092488376483828,"2552":0.18543555465698253,"2553":0.1264042463782633,"2554":0.19574257035620468,"2555":0.205299154050191,"2556":0.07410476936593294,"2557":0.08568991598992813,"2558":0.13990857869263926,"2559":-0.004747096542195696,"2560":0.030345677372373953,"2561":0.050047841143772115,"2562":0.02508253082166804,"2563":0.08604831622938783,"2564":0.06903024071008092,"2565":-0.05942224345266747,"2566":0.024147759954786442,"2567":0.05827445725598899,"2568":0.017009840307733917,"2569":0.021494414119189516,"2570":0.09540268624544329,"2571":0.07630327460395755,"2572":0.08508310457028094,"2573":0.1552820806339934,"2574":0.14424696057242867,"2575":0.15496362838042982,"2576":0.20663187100766175,"2577":0.10662689213681553,"2578":0.14548087901908885,"2579":0.23674020334811105,"2580":0.1045775007512823,"2581":0.0837031556875931,"2582":0.04774424720184205,"2583":-0.035283204474426275,"2584":-0.0016365075626375057,"2585":-0.08258395471115168,"2586":-0.24591989553062557,"2587":-0.19874353248917928,"2588":-0.2457411128880181,"2589":-0.33115301258806207,"2590":-0.2903528005186246,"2591":-0.329990881661426,"2592":-0.19624007455018475,"2593":-0.21451831286303694,"2594":-0.3221776572536544,"2595":-0.13772714669508215,"2596":-0.16902200596725978,"2597":-0.22318897073941577,"2598":-0.017536660634966124,"2599":-0.08305384520230358,"2600":-0.15542865980108178,"2601":0.07033952683636423,"2602":0.008763641810711265,"2603":-0.06484982865611735,"2604":0.1547450525076772,"2605":0.12193638088176957,"2606":0.03870320138712594,"2607":0.13697088877595878,"2608":0.16276257048301843,"2609":0.11431646687085217,"2610":0.12903288836922122,"2611":0.13144787630051624,"2612":0.08088870107380224,"2613":0.09641990342415181,"2614":0.10842896196910178,"2615":0.029193003271054632,"2616":0.15946100366422375,"2617":0.13597591113812876,"2618":0.05582798074934701,"2619":0.08661351609528355,"2620":0.04538708894214974,"2621":0.04639296726241412,"2622":0.010712932792519395,"2623":0.027788194945807563,"2624":0.05967991569780027,"2625":0.005960322861895221,"2626":0.06343204491395346,"2627":0.052961408925594894,"2628":0.05302095663967673,"2629":0.1118184946359743,"2630":0.09479429112586153,"2631":0.011683026794001983,"2632":0.10309523144306261,"2633":0.14195664728227725,"2634":0.03731112908265012,"2635":0.12190445615324463,"2636":0.12538389315368775,"2637":0.05069308268603563,"2638":0.16593194515105109,"2639":0.1807859456470673,"2640":0.04174333170541905,"2641":0.09051983699462618,"2642":0.13549309234792953,"2643":-0.007809522611614778,"2644":0.07626267009241837,"2645":0.08618412362947499,"2646":0.035112119309530815,"2647":0.1586517119309812,"2648":0.1790805125552816,"2649":0.1562373521984243,"2650":0.16420253221841458,"2651":0.190394043466585,"2652":0.009492681512315266,"2653":0.02698895239051966,"2654":0.07624483138847113,"2655":0.022512064766264498,"2656":0.05164860292184827,"2657":0.04358759914872739,"2658":0.08117191343875045,"2659":0.07683957319545072,"2660":0.07403675590877501,"2661":-0.006048607526511254,"2662":0.023655640550130322,"2663":0.07386541021850215,"2664":-0.00415074697248128,"2665":0.047591601292470954,"2666":0.06358771259051375,"2667":-0.01538224095823132,"2668":-0.03665650389245943,"2669":0.04551712354314484,"2670":0.018633585479525063,"2671":-0.00610109639373109,"2672":0.051244351937890766,"2673":0.07972728027872922,"2674":0.09835614905835705,"2675":0.11005254487102209,"2676":0.019138827435220412,"2677":0.03200149053054953,"2678":0.06649745574959721,"2679":-0.04449187564514514,"2680":-0.0793065527966479,"2681":-0.06209714890148814,"2682":-0.18853401458132976,"2683":-0.22008589051862235,"2684":-0.2272967585739611,"2685":-0.2515296356786374,"2686":-0.2774042823206628,"2687":-0.30775094970003736,"2688":-0.16405267986553013,"2689":-0.2106441168305367,"2690":-0.28269523115051925,"2691":-0.11526538862164053,"2692":-0.18337192742102584,"2693":-0.24428848361082683,"2694":0.03945184750541764,"2695":-0.04027092454638055,"2696":-0.10747840231634609,"2697":0.17224306771780395,"2698":0.07290680542565497,"2699":0.08595368844541754,"2700":0.1482124514071375,"2701":0.11273019210054938,"2702":0.06748442542699618,"2703":0.15395303345594685,"2704":0.09792391773099807,"2705":0.060366730956492365,"2706":0.12908153495122582,"2707":0.10217668079966304,"2708":0.022730115660538595,"2709":0.06599246626651975,"2710":0.01721121408363946,"2711":-0.04487629507001755,"2712":0.04333844500239433,"2713":0.04723983929390311,"2714":-0.017850717398605505,"2715":0.07928994679749142,"2716":0.054137413372947474,"2717":0.001455657665330466,"2718":0.039264195191309206,"2719":0.01930730001904739,"2720":0.016431372748427406,"2721":0.05075722745314704,"2722":0.08061570471689061,"2723":0.017384314446551755,"2724":0.11829954739408725,"2725":0.1781424670878828,"2726":0.16642171714055856,"2727":0.1378723132900535,"2728":0.19177668568040035,"2729":0.137945401496818,"2730":0.11638908514947831,"2731":0.16893336426302613,"2732":0.18944659827154034,"2733":0.09171723505932106,"2734":0.16453881596686018,"2735":0.20623997453248447,"2736":0.07271796488518478,"2737":0.1112751659315656,"2738":0.11960244918946661,"2739":0.05757009218897104,"2740":0.11441902686320234,"2741":0.1544680653403205,"2742":0.0829662962597396,"2743":0.09064765908634344,"2744":0.19719831200149338,"2745":0.035661787634844656,"2746":0.0719686755657533,"2747":0.11445798006277871,"2748":-0.104370019354887,"2749":0.017875371292558194,"2750":0.018315873313900343,"2751":-0.07217207484242263,"2752":-0.018273188329309725,"2753":0.0016592586844178196,"2754":-0.025627783707181037,"2755":0.02259216263018611,"2756":0.06583760616873481,"2757":0.033016143291197446,"2758":0.010672495145550926,"2759":0.10317726965861926,"2760":-0.04682855744879522,"2761":0.0014332517337592478,"2762":0.07647356756398441,"2763":-0.11650742170102125,"2764":-0.09516582967747818,"2765":-0.057079388923059665,"2766":-0.047382891640331125,"2767":-0.060205607744029575,"2768":0.0013146175420852679,"2769":0.017735662952239318,"2770":-0.021425418305098077,"2771":0.030188198657961844,"2772":-0.026263123058167588,"2773":-0.07158845999640391,"2774":-0.023391535110776417,"2775":-0.03575200637905961,"2776":-0.04032842364826705,"2777":-0.017618095395533023,"2778":-0.14264308285732472,"2779":-0.15743386713556037,"2780":-0.16225054147092474,"2781":-0.18755899042700672,"2782":-0.18361320158834818,"2783":-0.2400774446108638,"2784":-0.13260701306948067,"2785":-0.20669275080902266,"2786":-0.27485514569344693,"2787":-0.07502908950418291,"2788":-0.1553912631735872,"2789":-0.19675178309050442,"2790":0.03631954904756018,"2791":-0.08260478437025882,"2792":-0.11350082298994331,"2793":0.1591609007605295,"2794":0.0483633484646647,"2795":0.02617964652503217,"2796":0.12845097068290956,"2797":0.056883482719837085,"2798":0.06344092446241793,"2799":0.03150691207562553,"2800":0.014533898734580594,"2801":-0.03646845735969645,"2802":0.07402074127238348,"2803":0.05197070983611639,"2804":-0.013958629669282172,"2805":0.0951956448453561,"2806":0.054387261861293806,"2807":0.014183714468624022,"2808":0.09527184015680355,"2809":0.06001670348739074,"2810":-0.01950471242949908,"2811":0.10458253924696381,"2812":0.08191805433867656,"2813":0.024742425298959002,"2814":0.06720390034469668,"2815":0.05529847072567497,"2816":0.023774901633832262,"2817":0.042289145514803644,"2818":0.037886061537613105,"2819":0.03999749086811244,"2820":0.03273849752367674,"2821":-0.012568391388787301,"2822":-0.0028487920895076905,"2823":0.03928423973184065,"2824":0.05066496601321383,"2825":0.02742857728071831,"2826":0.09704123142257537,"2827":0.09811352311037905,"2828":0.12520347980036037,"2829":0.07061308229567219,"2830":0.046512925795294854,"2831":0.08549225475187874,"2832":-0.015779146221240974,"2833":-0.05004101900844834,"2834":-0.008919351620252092,"2835":0.005583026432673171,"2836":-0.012864684836183136,"2837":0.05780896284481179,"2838":0.020261829069068944,"2839":0.0473087188951596,"2840":0.13115172725985808,"2841":0.007989961672074743,"2842":-0.047902693687436736,"2843":0.019217309180114234,"2844":-0.004728381256086803,"2845":-0.04804370877998506,"2846":0.02029581000430814,"2847":-0.04769733624422224,"2848":-0.036060884704401885,"2849":0.03087335153236087,"2850":0.0479177598027615,"2851":0.05319227221665346,"2852":0.10839292896028416,"2853":0.041041797587837284,"2854":0.04593084519738309,"2855":0.08770723152837988,"2856":0.013554307989263048,"2857":-0.015432285263087993,"2858":0.06586233093584905,"2859":-0.03787933118379489,"2860":-0.04650267882020435,"2861":0.009404798141129624,"2862":0.014250922316865478,"2863":-0.028042705598108033,"2864":0.0451578191307959,"2865":-0.08274775964276958,"2866":-0.1346532572151202,"2867":-0.022072662812211628,"2868":-0.10817050283499656,"2869":-0.12991328500613472,"2870":-0.0437584094741595,"2871":-0.10749188756763862,"2872":-0.1370568361931121,"2873":-0.056886539551839824,"2874":-0.1541691153447003,"2875":-0.23834046044038498,"2876":-0.15812948146268413,"2877":-0.19499633622430282,"2878":-0.23318441379893315,"2879":-0.25850552411272454,"2880":-0.07742217608508431,"2881":-0.16418147788293294,"2882":-0.23744327558419406,"2883":-0.04681720585247648,"2884":-0.1251110224923007,"2885":-0.21098270507590272,"2886":-0.023484777121066766,"2887":-0.11869705448047463,"2888":-0.16087773887312312,"2889":0.08170384758954062,"2890":-0.045056003447531565,"2891":-0.06907800045933447,"2892":0.06917952774589504,"2893":-0.007460456570185856,"2894":0.006023474043019018,"2895":0.04993476775719638,"2896":-0.03479564363455178,"2897":-0.06789604336002625,"2898":0.11674987215623639,"2899":0.037324383524725585,"2900":0.024590858233257705,"2901":0.08969112682463194,"2902":0.01545924925898922,"2903":-0.025687318896217365,"2904":0.15717218680078485,"2905":0.05822461066858024,"2906":0.01387778483706972,"2907":0.10549707910560754,"2908":0.04954122171143873,"2909":-0.007292690632221427,"2910":0.06921893164123051,"2911":-0.02556431786867568,"2912":-0.07253870684845282,"2913":0.050988195431140575,"2914":-0.008302068935832262,"2915":0.00005886219461277882,"2916":0.05483963389363908,"2917":0.01321655122792391,"2918":-0.02639946950833148,"2919":0.005079714576050162,"2920":-0.030789109321501147,"2921":-0.010431186229704317,"2922":0.04730838270734136,"2923":-0.0051448471476903835,"2924":-0.04520340769765385,"2925":0.021889228319581146,"2926":-0.0112544340906583,"2927":-0.015440452748373391,"2928":-0.021260186710262915,"2929":-0.08733344663994823,"2930":-0.03589185375891009,"2931":-0.01858084615692534,"2932":-0.052747865524067794,"2933":-0.02015677061051537,"2934":0.046533884373986124,"2935":0.019350510703656464,"2936":0.08272496676568372,"2937":0.049911512195317295,"2938":0.02840198301119282,"2939":0.039660029422029605,"2940":0.1115979169807166,"2941":0.05998083782098558,"2942":0.059397557946243816,"2943":0.034530786672254246,"2944":0.029138038590210538,"2945":0.029730036573621103,"2946":0.06572980181786527,"2947":0.03934522861658552,"2948":0.0367530537235165,"2949":0.061798598307198506,"2950":0.00871256270030074,"2951":0.06784369118788608,"2952":0.044324728456496924,"2953":-0.00499046082266952,"2954":0.005374519437238653,"2955":0.024777608234679938,"2956":-0.04854590178601285,"2957":-0.03907042577570608,"2958":0.015602898496338353,"2959":-0.007315886207929153,"2960":-0.007491724731222732,"2961":-0.10341826797502558,"2962":-0.15198431673999951,"2963":-0.11265977320869756,"2964":-0.15291911713511844,"2965":-0.19342751842774364,"2966":-0.14422294570838284,"2967":-0.167108546075712,"2968":-0.17685571360701938,"2969":-0.14097131676686783,"2970":-0.24623733912189302,"2971":-0.2331524998111914,"2972":-0.23526304845711307,"2973":-0.2156395400510142,"2974":-0.2559842797820463,"2975":-0.2689400883485178,"2976":-0.006725683789868212,"2977":-0.09641838225498037,"2978":-0.22184906260167903,"2979":0.03815581905095908,"2980":-0.033755910041496764,"2981":-0.14406772676140703,"2982":0.07764761601593666,"2983":-0.04617951634559962,"2984":-0.14123259752914477,"2985":0.12683811375799448,"2986":-0.009110224928408812,"2987":-0.05483754705249612,"2988":0.12154956961893658,"2989":0.03828972035822834,"2990":-0.010186931066309562,"2991":0.15856811919511626,"2992":0.03424829022162952,"2993":-0.019103057897589246,"2994":0.1924936875347552,"2995":0.09405308670453551,"2996":0.0337503111920508,"2997":0.14298169203698918,"2998":0.06316904571616207,"2999":-0.015759561545680912,"3000":0.19164800548473318,"3001":0.05372925864970417,"3002":-0.019867073923503138,"3003":0.12764258878925527,"3004":0.04062608418346385,"3005":-0.029537633932052405,"3006":0.10968647318770904,"3007":0.05775604859746893,"3008":-0.0384568269851812,"3009":0.1317847376874798,"3010":0.029428276055250946,"3011":-0.018938843495899072,"3012":0.10823490851856256,"3013":0.030957269983193394,"3014":-0.02750963897980007,"3015":0.10406425429150455,"3016":0.02619518006745268,"3017":-0.028715537946857522,"3018":0.10460335117503271,"3019":-0.010471842362086916,"3020":0.00978485826892345,"3021":0.09416399562414844,"3022":-0.01557524233918852,"3023":-0.0762784222329876,"3024":0.03683757296067962,"3025":-0.01083650553091145,"3026":-0.07181323357601546,"3027":0.05681863683800151,"3028":-0.030419901554661066,"3029":-0.011421338596474932,"3030":0.0788616870441603,"3031":0.03204169792603912,"3032":0.034763548816423885,"3033":0.1564025375373989,"3034":0.0893366468159711,"3035":0.047591589602556626,"3036":0.16297228015692963,"3037":0.07624888234500281,"3038":0.062362118555436934,"3039":0.08668892866531058,"3040":-0.001809022173193238,"3041":0.019047878173094734,"3042":0.09144080533302824,"3043":0.015927491963101375,"3044":-0.005746782810725479,"3045":0.09182964799127645,"3046":-0.01785210024489431,"3047":-0.05443722929366807,"3048":0.03845050336569465,"3049":-0.0625157333446701,"3050":-0.0517622416960912,"3051":-0.008605778565841358,"3052":-0.08998593044451197,"3053":-0.09316190845946,"3054":0.028208806901688525,"3055":-0.03463153808668454,"3056":-0.06450645780678187,"3057":0.03469999286382351,"3058":-0.036950901906326175,"3059":-0.11042954364675087,"3060":-0.05642087095022913,"3061":-0.18374707524028597,"3062":-0.1673991595322524,"3063":-0.09189360186427233,"3064":-0.15375470029997826,"3065":-0.1458552624471074,"3066":-0.10950339506328147,"3067":-0.17483265798592235,"3068":-0.17640595003383397,"3069":-0.13636632194680773,"3070":-0.1996405978081178,"3071":-0.27665021621587615}},{"sx":1,"sy":1,"depth":3072,"w":{"0":-0.008003659851117728,"1":0.10839548256578274,"2":0.24226011315392884,"3":-0.062241873067138506,"4":-0.013515389811735277,"5":0.14763583742036215,"6":-0.15424945219602043,"7":-0.09185261143806327,"8":0.10441350500954451,"9":-0.13193438092749468,"10":-0.013307880565777275,"11":0.1397890125194508,"12":-0.10162650210896745,"13":-0.013090023913907772,"14":0.11985937322967577,"15":-0.11539682930816923,"16":-0.028495298452870833,"17":0.12879613800976325,"18":-0.07437425715624142,"19":0.00994053956601253,"20":0.1846853845979812,"21":-0.1069714353136959,"22":-0.055997899196938726,"23":0.131205839485488,"24":-0.09110865522491861,"25":-0.05491795065764239,"26":0.10723474065581866,"27":-0.0432139543767784,"28":-0.03715907562462377,"29":0.11684451796692111,"30":-0.06832387127630662,"31":-0.10128060166918681,"32":0.052120631375006825,"33":-0.07223333507289088,"34":-0.02763329590392716,"35":0.039191263781628384,"36":0.015146650054373082,"37":0.015864653189817952,"38":0.10145980553693608,"39":-0.008875795259722753,"40":0.04096242446429547,"41":0.14937956271181824,"42":0.036244661555123486,"43":0.03523047931959509,"44":0.12595275129215294,"45":0.012918513382919782,"46":0.026557744534336222,"47":0.12658470127291524,"48":-0.06661519566966305,"49":-0.012302222006678966,"50":0.08443787503428064,"51":0.009240921258112725,"52":0.04937781681988809,"53":0.12387976494392933,"54":-0.005977463397717651,"55":0.045168734133696986,"56":0.12000145799055358,"57":-0.009090323739232558,"58":0.049438936240684524,"59":0.13379536496718666,"60":-0.021530894910720768,"61":0.057401749421493446,"62":0.17591067253068207,"63":-0.010818905652064052,"64":0.049736774001505515,"65":0.21113177880106115,"66":-0.004854412877621559,"67":0.07954117058472591,"68":0.2249338439504596,"69":-0.02284698334643945,"70":0.02806613644152782,"71":0.19874619907000377,"72":-0.052709565215130656,"73":-0.02212956608967408,"74":0.13167567847456915,"75":-0.059562515369956756,"76":-0.02798403436657951,"77":0.19337661738218076,"78":-0.09560046809243428,"79":-0.0009305180008193764,"80":0.1826021452700754,"81":-0.056241059669073605,"82":0.014657129520198597,"83":0.15944118337447807,"84":-0.009797034923981212,"85":0.0354985351847973,"86":0.179147734403255,"87":0.007833408943544725,"88":0.041032714145730516,"89":0.1714327766195039,"90":0.04320874446836061,"91":0.04980893108343084,"92":0.18120956425862042,"93":0.07291265276058458,"94":0.05234235545648242,"95":0.2524573741128697,"96":-0.10423259372167158,"97":0.02280335951468956,"98":0.10762371487217012,"99":-0.14625345261184594,"100":-0.02555294153307321,"101":0.0708956190996373,"102":-0.18376897737382744,"103":-0.11372238096636451,"104":0.06401303340091694,"105":-0.06079663799256428,"106":0.012256014560205284,"107":0.12853868797354664,"108":-0.07287153873118565,"109":0.011091495631116381,"110":0.13152098978665414,"111":-0.05548426380292325,"112":0.00319745031122772,"113":0.12352475595949704,"114":-0.024929074319256735,"115":0.0033179076396186386,"116":0.14066346512528718,"117":-0.08018666180061339,"118":0.005017557672114131,"119":0.10817911953239358,"120":-0.04800124046066052,"121":-0.0064442829267324295,"122":0.07701578429739898,"123":-0.07273071921423946,"124":-0.07036274104028414,"125":0.03152861678278829,"126":-0.12228080272325374,"127":-0.11221851305442934,"128":-0.050965908657350095,"129":-0.022721771329603766,"130":-0.08652268908137041,"131":-0.044004948392210676,"132":-0.05225235197636713,"133":-0.08145207369114983,"134":-0.03875425148773789,"135":-0.039544849514094316,"136":-0.041648695756376516,"137":-0.033447372996273005,"138":-0.05334903336742283,"139":-0.0283886488118849,"140":0.029743923284631612,"141":-0.015711563822238945,"142":-0.02337668568727763,"143":0.0997226523945914,"144":-0.023681579340976013,"145":-0.008415421272214738,"146":0.07669822264370593,"147":0.02376203669243343,"148":0.041826210341140445,"149":0.0399913843598578,"150":0.046637442659067135,"151":0.04108591756980307,"152":0.05097712502144079,"153":0.03179844397582348,"154":0.029840505231541595,"155":0.09743437156905811,"156":0.024792179065671348,"157":0.06765809850026723,"158":0.1428812837097448,"159":-0.013930061197446704,"160":0.05829829163955867,"161":0.15389041472518136,"162":0.007996420177551013,"163":0.07861734194263335,"164":0.15681878791464443,"165":0.011835636436886579,"166":0.06861388763166239,"167":0.21970229488797177,"168":0.015283703277347209,"169":0.06327805234398873,"170":0.1881977729486759,"171":0.02136591993167471,"172":0.060209431342556505,"173":0.20703031730997018,"174":-0.01605724402272104,"175":0.05216992797449426,"176":0.22533286169789832,"177":0.025491321571949672,"178":0.10955000650838519,"179":0.20186381834344674,"180":0.03592126085329311,"181":0.06617760006150036,"182":0.17004344377294672,"183":-0.01616673164774298,"184":0.022988189761701017,"185":0.16497963157810328,"186":0.01606748365145624,"187":0.0237677677532598,"188":0.2075941997192888,"189":0.05843854189798943,"190":0.025846397257978028,"191":0.15609547495615717,"192":-0.07916645987559312,"193":-0.027451317866963726,"194":0.009324825368524883,"195":-0.033624045216303904,"196":-0.026310769088572415,"197":0.08391663838355502,"198":-0.07780440646308587,"199":-0.044399609777393524,"200":0.09029036549907869,"201":-0.010908376776461122,"202":0.01731866331187862,"203":0.11838482723120906,"204":-0.036025186907310956,"205":0.018914829295647168,"206":0.10659827691261897,"207":-0.0585127331720295,"208":-0.005909687714012513,"209":0.07564787368255967,"210":-0.02788240626088211,"211":0.040856390550161444,"212":0.11920598554989248,"213":-0.04633087397021541,"214":0.02572018651841452,"215":0.08636852544469312,"216":-0.036941271742158874,"217":-0.014442418537496232,"218":0.06645713273586926,"219":-0.008686763330457474,"220":-0.07282669901228965,"221":0.017807364266710354,"222":-0.09476142578753423,"223":-0.12084347085908793,"224":-0.11116546506685762,"225":-0.049838533299525284,"226":-0.13869914232458752,"227":-0.08122425045546804,"228":0.05037643766806924,"229":-0.011982532377022664,"230":-0.006683831131728692,"231":0.04283843072425352,"232":0.010085808395703074,"233":0.012894539110945806,"234":0.08515625658486907,"235":-0.018500659748855265,"236":0.051644258470636764,"237":0.08729068889927404,"238":0.025324442309720824,"239":0.08252543159500211,"240":0.10140059629468899,"241":0.035123270551025335,"242":0.11341146855504385,"243":0.14136882501040007,"244":0.09657122568521691,"245":0.10307454444631366,"246":0.08871042160404549,"247":0.10881213517769625,"248":0.12114956972996643,"249":0.09669408297869661,"250":0.09738167402476054,"251":0.15494731877942897,"252":0.054479443945756385,"253":0.07590714801680133,"254":0.0852858622509122,"255":0.020263300574640083,"256":0.06159893841251099,"257":0.11451194063906976,"258":0.08958263300385247,"259":0.12951018567704595,"260":0.17129614142999877,"261":0.06797736262718634,"262":0.11288635201652505,"263":0.22402166219597527,"264":0.08741258268517722,"265":0.12672142611466694,"266":0.19924544600628677,"267":0.07146020352897157,"268":0.1719040989129629,"269":0.23012084107345002,"270":0.03545343971654562,"271":0.12243725584972262,"272":0.249800867567005,"273":0.030136878012285852,"274":0.12978372955124057,"275":0.16558372491631296,"276":0.0003072656847808459,"277":0.08853252360617214,"278":0.1170125571127601,"279":-0.03502363534346262,"280":0.038850129064384405,"281":0.09955075195280369,"282":-0.02998357852171881,"283":0.0332929032794496,"284":0.12096248874274984,"285":0.004581947012801721,"286":0.019935189408011342,"287":0.16338468372497236,"288":-0.039087374240121334,"289":-0.04039621623151116,"290":0.03944905810613373,"291":0.006420963322436156,"292":-0.0011571109238317071,"293":0.046944071293765904,"294":0.011863018535127117,"295":0.04089867734802558,"296":0.1151759744509287,"297":0.03886391694731838,"298":0.055273813039827535,"299":0.13880048873461645,"300":0.007920835601999623,"301":0.02037154309890508,"302":0.07176667401791659,"303":-0.01321434747331162,"304":0.020348074717051228,"305":0.0565204094055264,"306":0.01768628302902859,"307":0.11194314322161893,"308":0.1867853241992683,"309":0.09033722088443874,"310":0.11120955204208202,"311":0.17321399721963757,"312":0.10579235117786501,"313":0.141325550286966,"314":0.1340886403798594,"315":0.02903604590725634,"316":0.016084099014505852,"317":0.06921141942594061,"318":-0.043944191767158795,"319":-0.047857628272760945,"320":-0.04030260532340947,"321":0.012165932625139006,"322":-0.04461482515695313,"323":0.04409533489265806,"324":0.12100579315692434,"325":0.05850918152516804,"326":0.08892912518734943,"327":0.13899806072320306,"328":0.10828741718729926,"329":0.08710604463392484,"330":0.10852052272555052,"331":0.062273380076072804,"332":0.09262016522240356,"333":0.14411748875640462,"334":0.04379833008626409,"335":0.02839246532803557,"336":0.13835998448898387,"337":0.04329668083971837,"338":0.12120331828860545,"339":0.17602306535734005,"340":0.07825366668621837,"341":0.13272465351814908,"342":0.11446733882031798,"343":0.03826936646304949,"344":0.03226108603115175,"345":0.17460633956488014,"346":0.13749528230276367,"347":0.14841331559911486,"348":0.1131633270248317,"349":0.0886738272015356,"350":0.12448706423233816,"351":0.09216885908656097,"352":0.10881309655610315,"353":0.11234754994957397,"354":0.0931387166019297,"355":0.14132166139574973,"356":0.22049724290639056,"357":0.07687229318112414,"358":0.12331259521913765,"359":0.2186030262266128,"360":0.0848365135578199,"361":0.11131405966665743,"362":0.2748233839476844,"363":0.09169980688282893,"364":0.16223945027940376,"365":0.237120724736549,"366":0.037726857368103286,"367":0.09780120163943114,"368":0.17489736670708583,"369":0.005865587556928647,"370":0.05676731517789268,"371":0.14418503683073985,"372":-0.030654282734503005,"373":-0.025675375721664027,"374":0.08613466300336886,"375":-0.03912137301478277,"376":-0.0388327180316094,"377":0.04561041295297302,"378":-0.058412930597337924,"379":-0.012446740283302128,"380":0.06005952704069966,"381":0.008494516649150866,"382":-0.0050379272131368235,"383":0.09706484073595917,"384":-0.04734193274653991,"385":-0.05484320937650865,"386":-0.005499469104980414,"387":0.014552855378876201,"388":-0.017257610169360758,"389":-0.014119715280798497,"390":0.00010366666156026326,"391":0.01006939487754675,"392":0.02378741280686779,"393":-0.05312722201374219,"394":-0.054320730347591314,"395":0.03413028881301118,"396":-0.0052708978031015125,"397":-0.0029532248470480154,"398":-0.011231486684840846,"399":-0.08437192099931247,"400":-0.02870421506238202,"401":-0.0061943543808188305,"402":-0.006327713346474313,"403":0.05110855140743488,"404":0.14082988114300574,"405":0.02906423444688603,"406":0.03875488723067774,"407":0.15162861437800135,"408":0.06113175704436017,"409":0.07780135978859422,"410":0.14459649953172893,"411":0.06641980201128408,"412":0.027327995863148383,"413":0.05948581536357648,"414":0.016313374536688602,"415":-0.03891340332182541,"416":0.0029088300213658356,"417":0.09282880253354978,"418":0.016693443444977515,"419":0.053898427367768856,"420":0.1322293818882469,"421":0.10398544429364397,"422":0.14453261003543544,"423":0.15482605526822357,"424":0.10080552008909675,"425":0.07430122399038194,"426":0.19166082601978282,"427":0.09403114950635429,"428":0.07120073551293712,"429":0.15667243414644333,"430":0.05848756376019281,"431":0.06284792626303258,"432":0.1371745982866513,"433":0.03569498265953025,"434":0.09657309966085312,"435":0.13962882657255657,"436":0.061550516323542595,"437":0.092299624768463,"438":0.10877694590257926,"439":-0.005579498051048324,"440":0.044357397456967596,"441":0.10250255849673437,"442":0.09777941318229001,"443":0.09345020300989168,"444":0.10262755973068526,"445":0.10349380934439027,"446":0.14645229194208892,"447":0.0729393397800347,"448":0.10129469464244222,"449":0.13403761081220264,"450":0.03861819610746219,"451":0.053312122288875725,"452":0.15477241713868112,"453":0.04987447554038317,"454":0.028558374553854363,"455":0.12874577492212658,"456":0.04453348971627616,"457":0.07236830836741065,"458":0.15393439514823629,"459":0.02196038009373089,"460":0.006385431234263531,"461":0.14695895694130195,"462":-0.00981555576358728,"463":0.01674413196172505,"464":0.11826094898045031,"465":-0.033252112174535206,"466":-0.0020136881519579467,"467":0.06464653884334597,"468":-0.04908630059753188,"469":-0.013177490728326881,"470":0.06472561373882814,"471":-0.0745555198290298,"472":0.013631906222073817,"473":0.0490066877297908,"474":-0.05550223898887488,"475":-0.041448163375950864,"476":0.012301872207399152,"477":-0.07600918814783719,"478":-0.03324210968736794,"479":-0.004267323985882013,"480":-0.03864462717301487,"481":-0.0770927239734523,"482":-0.015454302907373344,"483":0.016729784726167516,"484":-0.020717245414114353,"485":0.008038848387174322,"486":-0.023137394373109008,"487":-0.022968941719110538,"488":0.006797243323025615,"489":-0.008572388931470169,"490":-0.037401168078972515,"491":0.02808949306226058,"492":-0.02728806318139648,"493":0.026169178356237714,"494":0.014896373091160936,"495":-0.004304737152422266,"496":-0.009106911154250049,"497":0.020362790317203998,"498":-0.04731212642751953,"499":0.012126320635858454,"500":0.04056110013617675,"501":-0.014316217703777851,"502":-0.03912382458589559,"503":0.0802500606073632,"504":-0.006269149082714812,"505":0.014535120730793084,"506":0.05231547825722345,"507":0.030401656330558413,"508":0.02454741345245349,"509":0.06242160810888264,"510":-0.018110319575902808,"511":-0.04106479747614822,"512":-0.03560241291040182,"513":0.02238856302450235,"514":-0.0420479791869486,"515":0.06860742785927064,"516":0.07093805803172502,"517":0.06159918183698117,"518":0.07708392563493062,"519":0.051900880136199645,"520":0.04162206981521719,"521":0.07451233713327043,"522":0.17995312258978072,"523":0.13312985173778638,"524":0.13193791472133473,"525":0.20259701477092945,"526":0.16821524022093642,"527":0.21659805414956937,"528":0.17112944275362768,"529":0.08763177296806894,"530":0.13863211324255142,"531":0.13161014339611907,"532":0.030395797623364404,"533":0.11760876170890977,"534":0.06988142810365947,"535":0.002746019118852013,"536":0.07064873543168261,"537":0.08271214141341085,"538":0.036258267811442146,"539":0.0860751974132346,"540":0.08692271426914466,"541":0.0882908198580528,"542":0.16268117871341128,"543":0.029592981930649118,"544":0.060180478840863645,"545":0.12360898040149144,"546":0.017811032600891244,"547":0.027618165253136377,"548":0.08808280085356254,"549":0.029886503338667263,"550":0.014624757289605004,"551":0.07439894262449769,"552":-0.020966128849135967,"553":0.0027789213885448857,"554":0.07794112962052016,"555":-0.0018464019979582292,"556":-0.01762741258648357,"557":0.09149120922816528,"558":-0.05295570100454156,"559":-0.09295174561395231,"560":0.017577957273101952,"561":-0.07390129166280755,"562":-0.016640297778678637,"563":0.06802592586977542,"564":-0.02882668817520007,"565":-0.049153202677152494,"566":0.056080536750054026,"567":-0.06442379704702583,"568":-0.02848988828909752,"569":0.03361500664089134,"570":-0.04827931594182122,"571":-0.03181274355578701,"572":0.0052490090089012415,"573":-0.05999181085354861,"574":-0.08294173882079758,"575":-0.005904938612435117,"576":-0.06343124706005465,"577":-0.11779069418559081,"578":-0.06494466507272789,"579":-0.004958345093221475,"580":-0.08354026175104884,"581":-0.04664216615764678,"582":-0.004363635507545087,"583":-0.07026119563862411,"584":-0.003077105890959621,"585":0.022292904517092434,"586":-0.019619621455612635,"587":0.04177570489032272,"588":-0.013103223903665731,"589":-0.03492054190124421,"590":0.004877932892597894,"591":0.004826433238957235,"592":-0.002686997129190082,"593":-0.019370648903956057,"594":-0.027334523348302775,"595":-0.015684839016006882,"596":0.0430578433280925,"597":-0.06518938983385639,"598":-0.02549259341436739,"599":0.062336559450008606,"600":0.00635353168169251,"601":0.08717934584256679,"602":0.12596890714056266,"603":0.06900570557516293,"604":0.07120571428843689,"605":0.1554766678363292,"606":0.030553060574775717,"607":-0.007816359476999418,"608":0.16634996706540459,"609":0.08182911575195385,"610":0.06463667514946361,"611":0.21795943134816148,"612":0.09378859641079369,"613":0.08011277031015936,"614":0.14237121753245602,"615":0.013302768838941728,"616":0.01236579674777209,"617":0.1273502155751223,"618":0.09004026747804175,"619":0.09578984347771803,"620":0.24407534687990773,"621":0.12019275755185443,"622":0.06418428595303126,"623":0.18598766517775964,